svm_type c_svc
kernel_type rbf
gamma 0.0102041
nr_class 3
total_sv 5654
rho -0.23851 -1.01291 -0.98373
label 1 2 3
nr_sv 2670 2554 430
SV
1 0 20:1 
1 0 19:1 
1 0 21:1 
1 0 12:1 19:1 20:1 21:1 
1 1 1:-0.25 14:1 15:-0.25 19:2 53:1 
0 0.0434961434528795 1:0.375 13:1 15:0.375 19:2 
1 0 19:1 20:1 
1 0 1:0.125 13:1 15:0.125 19:1 21:3 93:1 
1 0 21:1 
1 0 19:2 21:3 
1 0 13:2 15:0.25 19:1 24:1 51:1 
1 0 19:1 
1 0 19:1 
1 0 1:-0.125 14:1 15:-0.125 19:2 20:1 21:1 79:1 
1 0 19:2 20:1 
1 0 1:0.625 13:2 15:0.625 19:2 20:2 21:3 24:1 
1 0 21:1 
1 0.9255362077023185 1:-1.25 14:1 15:-0.5 18:4 19:2 20:1 
1 0 19:1 
1 0 12:1 20:2 21:1 91:1 
1 0 20:1 
1 0 1:0.125 2:1 3:1 5:1 13:1 15:0.125 20:1 
1 0 20:1 
1 0.5327071438053931 1:-0.25 12:1 17:1 19:1 24:1 25:1 
1 0.3205790874408546 1:-0.375 2:1 4:1 5:1 14:1 15:-0.375 20:1 
1 0 20:1 
1 0 24:1 
1 0 1:0.375 13:1 15:0.375 19:1 24:1 29:1 
1 0.1874020322497458 20:1 21:3 
1 0 1:-0.5 14:1 15:-0.5 61:1 
1 0 1:-0.5 2:0.33333333 5:1 14:1 15:-0.5 20:1 21:2 
1 0.1716969094422375 1:0.125 13:1 15:0.125 20:2 21:1 24:1 
1 0 19:1 
1 0 20:1 
1 0 1:-0.375 14:1 15:-0.375 17:1 25:1 
1 0 19:1 
1 0 1:0.125 2:1 3:1 5:1 13:1 15:0.125 20:1 
1 0 16:1 17:1 19:1 
0 0.3935811856431946 1:0.5 13:1 15:0.5 19:2 21:1 
1 0 1:-0.5 14:1 15:-0.5 20:1 
1 0 19:2 
1 0 1:-0.125 14:1 15:-0.125 20:2 
1 0 19:1 
1 0 20:1 
1 0 20:1 
0.3013493201034207 0 2:1 5:1 20:1 
1 0 1:-0.625 14:1 15:-0.625 24:1 
1 0 20:2 
1 0 1:-0.125 14:1 15:-0.125 20:1 
1 0 1:-0.375 14:1 15:-0.375 20:2 94:1 
1 0 20:1 
1 0 19:1 21:3 
1 0 1:-0.875 14:1 15:-0.125 20:1 24:1 
1 0 12:1 20:1 21:1 
1 0 24:1 
1 0 20:1 
1 0 20:1 
1 0 20:2 
1 0 19:1 
1 0 1:0.125 13:1 15:0.125 19:2 
1 0 12:1 21:1 
1 0 1:-0.5 14:2 15:-0.5 19:1 20:1 70:1 94:1 
1 0 19:1 
1 0 24:2 
1 0 1:-0.875 8:1 14:1 15:-0.125 20:1 24:1 78:1 
1 0 24:1 
1 0 24:1 
1 0 20:1 
1 0 2:0.5 5:1 20:1 21:1 88:1 
1 0 24:1 
1 0 20:1 
1 0 1:-0.125 14:1 15:-0.125 20:1 
1 0 1:-0.125 14:1 15:-0.125 21:1 79:1 
1 0 21:1 
1 0.02180060525619369 1:-0.875 12:1 14:1 15:-0.875 19:1 21:4 24:1 31:1 
1 0 1:0.125 13:1 15:0.125 19:1 21:2 
1 0 20:1 
1 0 20:1 
1 0 1:0.125 13:1 15:0.125 20:1 24:1 81:1 
1 0 1:-0.875 14:1 15:-0.125 20:1 24:1 
1 0 21:1 
1 0 21:1 
0 0.2162835692270406 1:0.625 13:2 15:0.625 19:1 20:1 24:1 
1 0 19:1 21:3 
1 0 24:1 
1 0 24:1 
1 0 20:1 
1 0 20:1 
1 0 19:1 
1 0.5944690119833016 19:1 21:3 43:1 
1 0 1:-0.75 
1 0 21:1 
1 0 20:1 
1 0 20:2 
1 0 20:1 21:1 
1 0 19:2 
1 0 12:1 20:2 21:1 91:1 
1 1 12:1 20:2 21:1 
0.7863863826300578 0 
1 0 
1 0 1:-0.875 14:1 15:-0.125 20:1 24:1 
1 0 1:-0.875 14:1 15:-0.875 24:1 31:1 
1 0 1:0.125 13:2 15:0.25 19:1 24:1 51:1 85:1 
1 0 19:1 21:3 
1 0 21:1 
1 0 24:1 
1 0 20:1 
1 0 1:0.125 13:1 15:0.125 20:1 
1 0 19:1 
1 0 24:1 
1 0 1:0.125 13:1 15:0.125 20:1 
1 0 1:-0.125 14:1 15:-0.125 20:2 
1 0 20:1 
1 0 24:1 
1 0 19:1 
0 0.06961226948282145 1:0.5 13:1 15:0.5 21:1 
1 0.4838782295381633 1:0.125 13:1 15:0.125 20:1 21:2 
1 0 19:1 
1 0 1:-0.75 13:1 14:2 15:-0.75 19:1 20:1 24:1 
1 0 1:-0.375 14:1 15:-0.375 19:1 20:1 94:1 
1 0 20:1 
1 0 1:-0.5 14:1 15:-0.5 17:1 20:2 25:1 
1 0 21:1 
1 0 1:-0.25 14:1 15:-0.25 20:1 
1 0 
1 0 20:1 21:2 
1 0 24:1 
1 0 1:0.125 13:1 15:0.125 20:1 21:1 
1 0 20:1 
1 0 24:1 
1 0 24:1 
1 0 1:0.125 13:1 15:0.125 19:2 90:1 
1 0 20:1 
1 0 
1 0 1:-0.125 14:1 15:-0.125 24:1 41:1 
1 1 1:0.125 13:1 15:0.125 
1 0 19:1 20:1 
1 0 
1 0 
1 0 20:1 
1 0 20:1 
1 0 
1 0.6976044233766052 9:1 19:1 73:1 
1 0 
1 0 
1 0 
1 0 12:1 20:1 21:1 
1 0 1:0.125 13:1 15:0.125 19:1 
1 0 1:0.25 13:1 15:0.25 19:1 24:1 
1 0 12:1 20:2 21:1 91:1 
1 0.0819782169941289 1:-0.25 12:1 19:2 20:2 24:1 76:1 
1 0 2:1 5:1 20:1 24:1 
1 0 1:0.125 13:1 15:0.125 19:1 
1 0 42:1 
1 0 12:1 20:2 21:1 91:1 
1 0 1:-0.875 14:1 15:-0.125 20:1 24:1 
1 0 21:1 
1 0 24:1 
1 0 20:2 
1 0 
1 0 24:1 
1 0.3749753037573182 1:-0.5 14:2 15:-0.5 20:2 76:1 94:1 
1 0 21:1 
1 0 24:1 
1 0 20:2 
1 0 1:-0.5 14:1 15:-0.5 20:1 
1 0 1:0.125 13:1 15:0.125 24:1 
1 0 24:1 
1 0 19:1 
1 0 
1 0 1:0.125 13:1 15:0.125 19:1 
1 0 1:0.125 13:1 15:0.125 19:1 
1 0 19:1 24:1 
1 0 1:-0.25 12:1 19:1 
1 0 19:1 21:3 
1 0 19:1 
1 0 20:1 
1 1 16:1 20:1 
1 0 24:1 
1 0 24:1 
1 0 2:1 5:1 20:1 
1 0 
1 0 19:1 24:1 43:1 
1 0 
1 0.7642803997926401 16:1 19:1 
1 0 19:1 
1 0 1:-0.75 17:1 20:1 25:1 
1 0 
1 0 
1 0 13:1 14:1 21:1 24:1 
1 0 24:1 
1 0 
1 0.02030283155218393 1:-0.25 14:1 15:-0.25 24:2 49:1 
1 0 1:-0.375 14:1 15:-0.375 24:1 
1 0 20:1 24:1 
1 0 
1 0 20:1 
1 0 20:1 
1 0 1:-0.875 14:1 15:-0.125 20:1 24:1 
1 0.1401681720073222 1:0.125 13:1 15:0.125 19:1 24:2 53:1 
1 0.02191008263749587 19:1 21:4 24:1 56:1 75:1 
1 0 1:-0.625 14:1 15:-0.625 19:1 
1 0 20:1 
1 0 
0 0.1843352142923856 1:0.375 13:1 15:0.375 20:1 21:1 
1 0 
1 0 1:0.125 13:1 15:0.125 20:1 
1 0 1:0.25 13:1 15:0.25 21:1 24:1 
1 0 19:1 20:1 21:3 
1 0 
1 0 21:1 
1 1 1:-0.25 14:1 15:-0.25 21:1 24:1 
1 0 19:1 20:1 
1 0 20:1 
1 0 20:1 
1 0 
1 0.2840989225605636 2:0.5 5:1 9:1 20:1 73:1 
1 0 1:-0.875 14:1 15:-0.125 20:1 24:1 
1 0 20:1 
1 0 1:0.125 13:1 15:0.125 20:1 
1 0.5721256019415331 1:0.125 13:1 15:0.125 20:1 21:1 
1 0 21:1 
1 0 20:1 
1 0 
1 0 19:1 20:1 
1 0 19:1 
1 0 1:0.125 13:1 15:0.125 19:2 24:2 52:1 85:1 
1 0 1:0.125 13:1 15:0.125 24:1 
1 0 
1 0 
1 0 20:1 
1 0 
1 0 
1 0 1:-0.25 14:1 15:-0.25 19:1 
1 0 12:1 20:2 21:1 91:1 
1 0 20:1 
1 0 19:1 
1 0 
1 0 
1 0 1:-0.125 14:1 15:-0.125 24:1 41:1 
1 0 20:1 
1 0 19:1 
1 0 19:1 
1 0 19:1 
1 0 20:1 
1 0 1:-0.625 14:1 15:-0.625 19:1 
1 0 20:1 
1 0 
1 0 
1 0 
1 0 1:-0.375 14:1 15:-0.375 
1 0 21:1 
1 0 24:1 
1 0 
1 0 
1 0 
1 0 
1 0 19:1 
1 0 1:-0.875 14:1 15:-0.125 20:1 24:1 
1 0 1:-0.125 14:1 15:-0.125 
1 0 
1 0 19:1 
1 0 1:-0.875 14:1 15:-0.125 20:1 24:1 
1 0 12:1 20:2 21:1 91:1 
1 0 19:2 
1 0 20:1 24:1 
1 0 21:1 
1 0.1159220319515224 1:-0.375 2:1 4:1 5:1 14:1 15:-0.375 24:1 
1 0 20:1 24:1 
1 0 20:1 
1 0 24:1 
1 0 1:-0.25 14:1 15:-0.25 19:1 21:1 
1 0 
1 0 12:1 21:1 
1 0 1:0.125 13:1 15:0.125 19:1 24:1 
1 0 21:1 
1 0 2:1 5:1 20:1 
1 0 
1 0 
0.5566678934116619 0 1:0.125 13:1 15:0.125 19:1 21:1 82:1 90:1 
1 0 2:1 5:1 24:1 
1 0 
1 0 1:-0.25 12:1 19:2 20:1 91:1 
1 0 24:1 
1 0 24:1 
1 0 12:1 17:1 20:2 21:1 25:1 
1 0 20:1 24:1 
1 0 20:1 
1 0 
1 0 1:-0.5 12:1 14:1 15:-0.5 20:2 21:1 
1 0 20:1 
1 0 
1 0 
1 0 20:2 
1 0 12:1 20:2 21:1 91:1 
1 0 20:1 
1 0 19:1 
1 0 20:1 21:1 65:1 
1 0.0497830795619747 1:0.375 13:2 15:0.375 19:1 20:1 21:1 
1 0 12:1 20:2 21:1 91:1 
1 0 19:1 
1 0 20:1 
1 0 
1 0 20:1 
1 0 19:1 
1 0 20:1 
1 0 24:1 
1 0 
1 0 20:1 
1 0 12:1 20:2 21:1 91:1 
1 0 1:0.125 12:1 13:1 15:0.125 20:1 21:1 60:1 
1 0.2266627866418564 24:1 76:1 
1 0 42:1 
1 0 
1 0 24:1 
1 0 24:1 
1 0 
1 0 19:1 
1 0 1:-0.125 14:1 15:-0.125 20:1 
1 0.02847978615909132 12:1 17:2 19:3 20:1 21:1 26:1 
0 0.001437589158696373 1:0.375 2:0.5 3:1 5:1 13:1 15:0.375 19:1 24:1 
1 0 24:1 
1 0 
1 1 1:0.5 12:1 13:1 15:0.5 21:1 24:1 
1 0 21:1 
1 0 1:-0.375 14:1 15:-0.375 20:1 94:1 
1 0 1:-0.375 14:1 15:-0.375 20:2 
1 0 
1 0 
1 0 1:-0.875 14:1 15:-0.125 17:1 20:1 24:1 25:1 
1 0 20:1 24:1 
1 0 20:1 
1 0 21:1 
1 0 24:1 
1 0 
1 0 1:-0.875 14:1 15:-0.125 20:1 24:1 
1 0 
1 0 20:1 
1 0 20:1 
1 0 
1 0 21:1 
1 0 1:-0.25 12:1 17:1 
1 0 1:0.125 13:1 15:0.125 19:1 
1 0 1:-0.5 14:1 15:-0.5 20:1 
1 0 
0 0.8030075600323214 1:1.25 13:1 15:0.75 24:1 
1 0 24:1 
1 0 1:0.125 13:1 15:0.125 17:1 19:2 21:3 24:1 25:1 
1 0 
1 0 1:0.125 14:1 15:-0.375 20:1 24:1 74:1 94:1 
1 0 
1 0 1:-0.5 13:1 15:0.25 20:1 
1 0 19:1 
1 0 20:1 
1 0 20:1 
1 0 
1 0 24:1 
1 0 12:1 20:1 21:1 
1 0 1:-0.125 14:1 15:-0.125 20:2 
1 0 1:0.25 13:1 15:0.25 21:1 
1 0 21:1 
1 0 19:1 24:2 81:1 
1 0 1:1.125 12:1 13:2 15:1.125 17:1 21:2 24:2 25:1 30:1 
1 0 19:1 
1 0 24:1 
0 0.1474366768633921 17:1 19:1 24:1 25:1 35:1 
1 0 
1 0 1:0.125 2:1 3:1 5:1 13:1 15:0.125 20:1 
1 0 1:0.125 13:1 15:0.125 20:1 
1 0 
1 0 20:1 
1 0 1:-0.375 2:0.25 4:1 5:1 14:1 15:-0.375 17:3 27:1 
1 0 20:1 
1 0 24:1 
1 0 20:1 24:1 
1 0 
1 0 20:1 
1 0 20:1 
1 0 1:-0.5 8:1 14:1 15:-0.5 20:1 78:1 
1 0 
0.2417224770059851 0 1:0.25 13:1 15:0.25 19:2 76:1 
1 0 19:1 
1 0 1:0.25 13:1 15:0.25 19:2 
1 0 1:0.125 13:1 15:0.125 20:1 
1 0 1:-0.125 14:1 15:-0.125 24:1 41:1 
1 0 20:1 
1 0 
1 0 12:1 20:2 21:1 91:1 
1 0 
1 1 1:0.125 13:1 15:0.125 19:1 24:1 
1 0.3882218977030805 12:1 20:3 21:1 
1 0 
1 0 12:1 20:2 21:1 91:1 
1 0 1:-0.125 13:2 15:0.625 19:1 20:1 62:1 
0 1 1:0.5 13:1 15:0.5 21:1 
1 0 20:1 
1 0 1:0.125 13:1 15:0.125 19:1 
1 0 19:1 21:3 24:1 34:1 
1 0 1:0.125 13:1 15:0.125 20:1 
1 0 1:-0.5 14:1 15:-0.5 20:1 
1 0 21:1 
1 0 1:-0.125 14:1 15:-0.125 20:2 
1 0 
1 0 
1 0 24:1 
1 0 
1 0 21:1 
1 0 19:1 
1 0 
1 0 1:0.125 12:1 13:1 15:0.5 17:4 19:1 20:1 24:1 43:1 69:1 
1 0 20:1 24:1 
1 0 24:1 
1 0 1:-0.375 14:1 15:-0.375 20:1 24:1 54:1 
1 0 20:1 
1 0.02580990259630303 19:2 20:1 75:1 
1 0 1:0.125 13:1 15:0.125 24:1 
1 0.6641626390439731 1:-0.25 13:1 14:1 15:-0.25 19:1 20:1 24:1 61:1 
1 0 24:1 
1 0 
1 0 
0 0.03696238280286522 17:3 20:3 
1 0 1:-0.75 20:1 39:1 
1 0 1:0.25 12:1 17:1 21:1 25:1 
1 0 
1 0 1:0.125 13:1 15:0.125 20:1 
1 0 1:-0.375 14:1 15:-0.375 
1 0 19:1 20:1 
1 0 19:1 
1 0 1:-0.375 14:1 15:-0.375 
1 0 
1 0.9386238600141081 1:0.25 13:1 14:1 15:0.25 20:1 21:1 
1 0 2:1 5:1 19:1 20:1 
1 0 24:1 
1 0 20:1 
1 0 
1 0 20:1 
1 0.01227150592773413 1:0.25 13:1 15:0.25 21:1 24:1 
1 0 19:1 24:1 
1 0 1:0.125 12:1 13:1 15:0.25 19:1 20:1 21:1 45:1 
0.467902664671949 0 12:1 17:1 20:2 21:2 25:1 91:1 
1 0 21:1 
1 0 19:1 
1 0 1:0.25 13:1 14:1 15:0.25 19:1 24:1 33:1 
1 0 
1 0 24:1 
1 0 
1 0 1:-1.75 14:2 15:-1 20:1 21:1 24:2 31:1 42:1 
0.02573226524532969 0 58:1 
1 0 1:0.375 13:2 15:0.375 20:2 
1 0 1:0.125 2:1 3:1 5:1 13:1 15:0.125 19:1 
1 0 1:-0.125 12:1 14:1 15:-0.125 17:2 20:3 21:1 26:1 
0 0.1393171230908563 1:0.875 13:1 15:0.875 16:1 24:1 30:1 
1 0 19:1 21:3 
1 0 21:1 
1 0 21:1 
1 0 19:1 
1 0 2:0.5 5:1 12:1 20:1 21:1 
1 0 
1 0 1:-1.25 14:2 15:-1.25 20:2 
1 0 12:1 20:2 21:1 91:1 
1 0 1:-0.5 14:1 15:-0.5 20:1 
1 0 
1 0 12:1 20:1 21:1 
1 0 
1 0 1:-0.125 14:1 15:-0.125 19:1 24:1 41:1 
1 1 1:0.375 13:1 15:0.375 19:1 20:1 21:3 
1 0 19:1 24:1 
1 0 1:-0.125 14:1 15:-0.125 20:1 21:1 
1 0 12:1 20:2 21:1 91:1 
1 0 20:1 
1 0 19:1 
1 0 20:1 
1 0 20:1 
1 0 12:1 17:1 20:1 21:1 25:1 
0 0.7818807997478058 1:0.75 13:1 15:0.75 20:2 
0.07967771239329159 0 24:1 54:1 
1 0 20:1 
1 0 2:1 5:1 19:1 29:1 
1 0 24:2 
1 0 21:1 24:1 54:1 
1 0 20:1 
0.8970048979175004 0 1:-0.125 14:1 15:-0.125 24:1 41:1 
1 0 1:-0.125 14:1 15:-0.125 24:1 41:1 
1 0 1:-0.125 14:1 15:-0.125 20:1 24:1 34:1 
1 0 12:1 20:2 21:1 91:1 
1 0 
1 0 1:0.125 13:1 15:0.125 20:1 
0.03087446499188302 0 19:1 24:1 35:1 
1 0 1:-0.75 14:1 15:-0.75 19:1 24:1 
1 0 24:1 
1 0 1:0.125 13:1 15:0.125 20:1 
1 0 24:1 
1 0 24:1 
1 0 
1 0 12:1 20:2 21:1 91:1 
1 0 1:-0.375 14:1 15:-0.375 20:1 94:1 
1 0 12:1 20:1 21:1 24:1 
1 0 20:1 
1 0 1:-0.125 14:1 15:-0.125 24:1 41:1 
1 0 24:1 
1 0 1:-0.25 14:1 15:-0.25 20:1 21:1 
1 0 1:-0.375 14:1 15:-0.375 
1 0.5301238879537574 20:3 64:1 
1 0 20:1 
1 0 1:-0.125 14:1 15:-0.125 24:1 41:1 
1 0 
1 0 20:1 
1 0 20:1 
1 1 1:-0.5 14:1 15:-0.5 20:1 21:3 
1 0 
1 0 20:1 
1 0 2:0.5 5:1 12:1 20:1 21:1 
1 0.5525700992683805 1:-0.75 2:1 4:1 5:1 14:1 15:-0.75 19:1 
1 0 19:1 
1 0 21:1 24:1 82:1 
1 0 1:-0.75 14:1 15:-0.75 19:1 24:1 
1 0 
1 0 8:1 13:1 14:1 16:1 17:1 19:3 24:1 25:1 41:1 78:1 85:1 
1 0 20:1 
1 0 
0 0.1361673872746631 1:0.25 13:1 15:0.25 19:1 24:1 43:1 
0.03249327613398259 0 1:-0.125 14:1 15:-0.125 20:1 21:1 49:1 66:1 
1 0 12:1 20:1 21:2 
1 0.6110937295263088 12:1 19:1 20:1 21:2 43:1 
1 0 20:1 
1 0 1:-0.125 13:1 14:1 15:-0.125 19:2 51:1 
1 0 20:1 
0 0.4443763659272922 17:1 20:2 21:1 25:1 34:1 64:1 
1 0 1:-0.125 12:1 14:1 15:-0.125 20:2 21:1 
1 0 20:1 
1 0 20:1 
1 0 24:1 
1 0 21:1 
1 0 21:1 
1 0 20:1 
1 0 1:-0.25 14:1 15:-0.25 24:2 74:1 
1 0 
1 0 24:1 
1 0 1:-0.375 14:1 15:-0.375 24:1 
1 0 24:1 
1 0 20:1 
1 0 24:1 
1 0 20:1 
1 0 20:1 
1 0 1:0.25 13:2 15:0.25 19:1 20:1 85:1 
1 0 1:0.125 13:1 15:0.125 21:1 24:1 34:1 45:1 
1 0 19:1 24:1 
1 0 21:1 
1 0 21:1 24:1 82:1 
1 0 1:0.125 13:1 15:0.125 20:1 
1 0 12:1 21:1 
1 0 
1 0 1:-0.25 20:1 
1 0 20:1 
1 0 1:-0.125 14:1 15:-0.125 24:1 41:1 
1 0 20:1 
1 0 19:1 20:1 
1 0 24:1 
1 0 12:1 20:2 21:1 91:1 
1 0 24:2 
1 0 1:0.125 2:1 3:1 5:1 13:1 15:0.125 19:1 
1 0 20:1 
1 0 24:1 
1 1 12:1 20:2 21:1 
1 0 19:1 
1 0 
1 0 24:1 
1 0 
1 0 
1 0 1:-0.375 13:1 14:2 15:-0.375 19:1 24:2 33:1 
1 0 1:-0.125 
1 0 19:1 
1 0 1:-0.5 14:1 15:-0.5 20:1 
1 0 20:1 
1 0 12:1 20:1 21:1 
1 0 
1 0 1:-0.75 12:1 14:1 15:-0.5 19:2 
1 0 12:1 20:2 21:1 91:1 
1 0 19:2 
0.8770589483504371 0 1:-0.125 14:1 15:-0.125 19:1 70:1 
1 0 
1 0 20:1 
1 0 20:1 
1 0 19:1 20:2 
1 0 12:1 20:2 21:1 91:1 
1 0 21:1 
1 0 19:1 20:1 
1 0 1:-0.125 14:1 15:-0.125 24:1 41:1 
1 0 20:1 
1 0 
1 0 
1 0 1:0.375 13:1 14:1 15:0.375 19:2 20:1 
1 0.006679092805148619 1:-1.125 14:2 15:-1.125 21:1 24:1 31:1 
1 0 
1 0.09198709981083901 1:-0.375 13:1 14:1 15:-0.375 20:2 21:1 
1 0 24:1 
1 0 1:0.25 13:1 15:0.25 19:1 24:1 
1 0.1958829754747165 1:-0.375 14:1 15:-0.375 17:1 20:1 24:1 25:1 94:1 
1 0 1:0.25 13:1 14:1 15:0.25 17:1 19:1 20:1 24:1 25:1 62:1 
1 0 
1 0 1:-0.625 14:1 15:-0.625 20:1 21:1 71:1 
1 0 
1 0 1:-0.375 14:1 15:-0.375 20:1 
1 0 19:1 
1 0 24:1 
1 0.0135607184344236 1:-0.375 14:1 15:-0.375 17:1 19:3 20:2 24:1 25:1 65:1 
1 0 1:0.125 13:1 15:0.125 17:1 19:1 25:1 85:1 92:1 
1 0.009678975563756428 1:-1.125 14:2 15:-0.375 19:1 20:1 24:1 
1 0 1:-0.875 14:1 15:-0.125 20:1 24:2 
1 0 
1 0 19:1 
1 0 1:0.125 13:1 15:0.125 20:1 
1 0 
1 0 12:1 20:2 21:1 91:1 
1 0 1:0.125 13:1 15:0.125 20:1 21:1 24:1 34:1 
1 0 1:-0.5 14:1 15:-0.5 20:2 
1 0 21:1 
1 0 1:0.25 13:1 15:0.25 20:1 21:1 
1 0 20:1 
1 0 19:1 24:1 
1 0 1:0.125 13:1 15:0.125 24:1 
1 0 24:1 
1 0 12:1 20:2 21:1 39:1 
1 0 1:-0.25 12:1 19:1 
1 0 1:0.125 13:1 15:0.125 20:2 21:1 93:1 
1 0 1:0.125 13:1 15:0.125 20:1 
1 0 1:0.125 13:1 15:0.125 20:1 
1 0 19:1 24:1 83:1 
1 0 20:1 
1 0 20:1 21:1 
1 0 12:1 20:1 21:1 
1 0 1:-0.375 14:1 15:-0.375 20:1 21:1 92:1 94:1 
1 0 1:-0.25 
1 0 1:-0.25 14:1 15:-0.25 20:1 
1 0 20:1 21:1 39:1 
1 0 19:1 
1 0 12:1 20:2 21:1 91:1 
1 0 
1 0 1:0.125 13:1 15:0.125 19:1 
1 0 1:-0.75 12:1 14:1 15:-0.75 21:1 24:1 
1 0 1:-0.125 12:1 13:1 15:0.125 19:2 24:1 56:1 
1 0 1:0.125 13:1 15:0.125 24:1 
1 0 20:1 
1 0 
1 0 20:1 
1 0 20:1 21:1 
1 0.6470425486988622 1:0.125 13:1 15:0.125 20:2 21:1 
1 0 20:1 
1 0 19:1 
1 0 1:-0.25 12:1 19:2 
1 0 
1 0 
1 0 12:1 20:2 21:1 91:1 
1 0 1:0.125 13:1 15:0.125 24:1 
1 0 19:1 
1 0 
1 0 24:1 
1 0.7793667727032252 16:1 17:1 
1 0 20:1 21:1 
1 0 20:1 21:1 
1 0 1:-0.125 14:1 15:-0.125 20:2 21:1 39:1 
1 0 24:1 
1 0 1:-0.875 14:1 15:-0.125 20:1 24:1 
1 0.04365937899190561 1:-0.5 14:1 15:-0.5 17:1 19:1 20:1 21:3 25:1 
0.01350564893764765 0 20:1 96:1 
1 0 19:1 
1 0 2:1 5:1 19:1 20:1 
1 0 21:1 
1 0 1:-0.125 19:1 
1 0 1:0.125 13:1 15:0.125 21:1 
1 0 20:1 
1 0 1:-0.375 14:1 15:-0.375 20:1 94:1 
1 0 19:1 
1 0 12:1 19:1 21:1 24:1 34:1 
1 0 21:3 
1 0 24:1 
1 0 19:1 21:3 
1 0 24:1 
1 0 
1 0 19:1 20:1 21:1 
1 0 
1 0 20:1 
1 0 1:-0.125 14:1 15:-0.125 20:1 
1 0 1:0.125 13:1 15:0.125 20:1 
1 0.1345847155558485 1:-0.5 12:1 14:1 15:-0.25 17:1 19:2 25:1 
1 0 
1 0 19:2 20:1 21:1 82:1 
1 0 20:1 
1 0 24:1 
1 0 1:-0.875 14:1 15:-0.125 20:1 24:1 
1 0 1:-0.5 14:1 15:-0.5 17:2 20:2 26:1 
1 0 
1 0.7221708661260756 1:-0.5 14:1 15:-0.5 19:1 20:1 21:3 
1 0 
1 0 1:-0.125 14:1 15:-0.125 20:1 
1 0 24:1 
1 0 
1 0 20:1 
1 0 1:-0.125 2:0.5 5:1 14:1 15:-0.125 20:2 
1 0 20:1 
1 0 1:-0.625 13:1 14:1 15:-0.625 20:1 24:1 
1 0 
1 0 
1 0 
1 0 12:1 20:2 21:1 91:1 
1 0 19:1 
0 0.08712183246470594 2:0.25 5:1 17:2 20:1 25:1 
1 0 21:1 
1 0 24:1 
1 0 20:1 
1 0.05929993341377168 1:-0.25 14:1 15:-0.25 24:1 
1 0 20:1 
1 0 21:1 
1 0 1:-0.125 14:1 15:-0.125 20:1 
1 0 12:1 20:2 21:1 91:1 
1 0 20:1 
1 0 20:1 
1 0 
1 0.9409525437193926 19:1 21:4 
1 0 20:1 
1 0 19:1 24:1 36:1 
1 0 1:-0.125 14:1 15:-0.125 20:1 
1 0 24:1 
1 0 19:1 
1 0 19:1 
1 0 1:-0.75 14:1 15:-0.75 24:1 
1 0 2:1 5:1 19:1 
1 0 
1 0.01628074784523158 1:-1 14:2 15:-1 21:4 24:1 79:1 
1 0 
1 0 1:-1.25 14:1 15:-0.5 18:2 19:1 20:1 
1 0 
1 0 1:-0.375 14:1 15:-0.375 20:1 
1 0 21:1 
1 0 1:-0.375 14:1 15:-0.375 20:1 94:1 
0 1 1:1 13:1 15:1 24:1 
1 0 20:1 
1 0 
1 0 1:-0.75 12:1 20:1 21:1 
1 0 1:0.125 13:1 15:0.125 24:1 
1 0 1:-0.25 14:1 15:-0.25 20:1 
0 0.951965747517857 17:1 20:2 25:1 
-0 0.01894311309691386 1:0.5 13:2 15:0.5 19:1 24:1 
1 0 20:1 
1 0 20:1 
1 1 1:-0.375 12:1 13:1 14:1 15:-0.125 19:1 21:4 24:1 
1 0 24:1 
1 0 24:1 
1 0.125581493435054 1:0.25 13:1 15:0.25 16:1 24:1 45:1 
1 0 19:1 
1 0 1:-0.375 14:1 15:-0.375 24:1 
1 0 1:-0.25 14:1 15:-0.25 20:1 
1 0 21:1 
1 0 24:1 
1 0 
1 0 1:-0.875 14:1 15:-0.125 20:1 24:1 
1 0 
1 0 20:1 
1 0 19:1 
1 0 1:0.125 13:1 14:1 15:0.125 17:1 21:1 24:1 25:1 
1 0 1:-0.125 14:1 15:-0.125 19:1 70:1 
1 0 20:1 
1 0 1:-0.125 14:1 15:-0.125 20:2 
1 0 20:1 
1 0 1:-0.375 14:1 15:-0.375 20:1 94:1 
1 0 21:1 
1 0.07616414161486679 1:-0.25 19:1 21:3 
0.2348579507370238 0 20:1 65:1 
1 0 19:1 21:3 
1 0 19:2 20:1 
1 0 
1 0 1:-0.375 14:1 15:-0.375 20:1 94:1 
1 0 
1 0 20:1 
1 0 2:1 5:1 19:1 
1 0 1:0.125 13:1 15:0.125 21:1 
1 0 19:1 
1 0 13:1 14:1 21:1 24:2 79:1 
1 0 1:-0.125 14:1 15:-0.125 20:2 
1 0 12:1 20:2 21:1 91:1 
1 0 
1 0.0460065859915012 1:-0.5 14:1 15:-0.5 20:2 21:1 92:1 
1 0 1:-0.125 13:1 14:1 15:-0.125 19:2 24:1 51:1 
1 0 1:-0.875 14:1 15:-0.125 20:1 24:1 
-0 0.02876172905798837 1:0.5 13:1 15:0.5 19:1 20:1 21:3 
1 0 
1 0 1:0.125 13:1 15:0.125 20:1 
1 0 
1 0 
1 0 20:1 
0.08413396847389794 0 21:1 24:1 34:1 
1 0 12:1 20:2 21:1 91:1 
1 0 20:1 
1 0.2382537967644579 1:-0.375 14:1 15:-0.375 17:1 20:1 24:1 25:1 
1 0 24:1 
1 0 12:1 20:2 21:1 91:1 
1 0 1:0.25 13:2 15:0.25 20:2 24:1 
1 0 1:-0.375 14:1 15:-0.375 20:1 
1 0 
1 0 
1 0 2:1 5:1 20:1 
1 0 20:1 
1 0 1:-0.875 14:1 15:-0.125 20:1 24:1 
1 0 19:1 
1 0 
1 0.06473089159027147 1:0.375 13:1 15:0.375 19:1 21:3 24:1 
1 0 
1 0 20:1 
1 0 20:1 21:1 
1 0.0440416323726977 1:0.375 13:1 14:1 15:0.375 19:2 20:2 
1 0 12:1 20:2 21:1 91:1 
1 0 1:-0.5 14:1 15:-0.5 20:2 
1 0 12:1 20:2 21:1 91:1 
1 0 1:-0.875 14:1 15:-0.125 20:1 24:1 
1 0 21:1 
1 0 
0 0.9198057690177096 20:1 91:1 
1 0 20:1 21:1 
1 0 
1 0 12:1 20:1 21:1 
1 0 
1 0 
1 0 1:-0.375 13:1 14:1 15:-0.25 24:2 
1 0 
1 0 
1 0 
1 0 1:-0.125 14:1 15:-0.125 19:1 70:1 
0 0.1764766950059495 2:0.66666667 5:1 17:1 20:1 21:1 25:1 
1 0 
1 0 20:1 
1 0 
1 1 1:0.625 13:1 15:0.125 19:1 24:1 
1 0.5838937751490516 1:0.125 13:1 15:0.125 20:3 21:1 
1 0 1:-0.375 14:1 15:-0.375 20:1 21:1 
1 0 1:-0.375 14:1 15:-0.375 20:1 94:1 
1 0 1:-0.625 13:1 14:1 15:0.125 17:1 19:1 20:1 21:1 24:2 25:1 
1 0 1:0.125 13:1 15:0.125 19:1 20:3 
0 0.1527573576186974 1:0.5 13:1 15:0.5 20:1 21:1 24:1 
1 0 
0 0.01068929260712337 1:0.556 13:1 15:0.556 24:1 
1 0 12:1 20:2 21:1 91:1 
0.4161224887078023 0 1:-0.25 13:2 14:1 15:0.5 17:1 20:2 21:1 24:1 25:1 69:1 
1 0 21:1 
1 0 12:1 21:1 
1 0 19:1 20:1 43:1 
1 0 1:0.375 13:1 15:0.375 19:1 21:3 24:1 48:1 
1 0 24:1 
1 0 19:1 
1 0 
1 0 
1 0 1:0.125 13:1 15:0.125 20:1 
1 0.08128431270325646 1:-0.125 13:1 14:1 15:-0.125 21:1 24:1 
1 0.05737259431513492 13:1 14:1 16:1 19:2 20:1 24:1 51:1 66:1 
1 0.05678196402845592 1:0.125 13:1 15:0.125 21:1 24:1 
1 0 12:1 20:2 21:1 91:1 
0.1103920836510319 0 1:0.25 13:1 15:0.25 21:1 
1 1 1:0.125 12:1 13:1 15:0.125 20:2 21:1 
1 0 1:0.125 13:1 15:0.125 21:1 24:1 51:1 
1 0 
1 0 1:0.125 13:1 15:0.125 20:2 
1 0 1:-0.125 13:1 14:1 15:-0.125 19:2 51:1 
1 0 24:1 
1 0 19:1 21:3 
1 0.08878488796119298 1:-0.125 14:1 15:-0.125 20:1 21:1 
1 0 1:0.125 13:1 14:1 15:0.125 21:1 24:1 45:1 79:1 
1 0 19:1 
1 0 
1 0 1:-0.875 14:1 15:-0.125 20:1 24:1 
1 0 1:-0.125 14:1 15:-0.125 20:1 21:1 82:1 
1 0 1:0.125 13:1 15:0.125 19:1 
1 0 19:1 
1 0 1:0.25 12:1 13:1 15:0.25 19:1 20:2 21:1 24:1 91:1 
1 0 24:1 
1 0 1:-0.375 14:1 15:-0.375 20:1 94:1 
1 0 1:0.125 13:1 15:0.125 19:1 
1 0 20:1 
1 0 1:-0.5 14:1 15:-0.5 20:2 
0 0.007615669807005507 1:0.75 13:2 15:0.75 24:2 
1 0 1:-0.125 14:1 15:-0.125 19:1 70:1 
1 0 
1 0 
1 0 1:-0.125 14:1 15:-0.125 21:1 79:1 
1 0 20:1 
1 0 1:0.125 13:1 15:0.125 24:1 
1 0 20:1 
1 0 1:0.125 13:1 15:0.125 17:1 21:2 24:1 25:1 
1 0 24:1 
1 0 1:-0.75 17:1 20:1 25:1 
0 1 1:0.875 13:1 15:0.875 20:1 
1 0 12:1 21:1 24:1 
1 0 20:1 
1 0 19:1 21:1 24:1 
1 0 20:1 
1 0 
0 0.009412513718638696 1:-0.125 17:1 25:1 76:1 
1 0 24:1 
1 0 1:-0.5 14:2 15:-0.5 17:2 19:1 20:1 26:1 70:1 
1 0 21:1 
1 0 19:1 
1 0 
1 0 1:0.125 13:1 15:0.125 19:2 90:1 
1 0 1:-0.375 14:1 15:-0.125 17:2 19:1 24:1 26:1 79:1 
1 0 
1 0 24:1 
1 0 1:-0.25 12:1 17:1 19:1 
1 0 20:1 24:1 
1 0 19:1 
0.01728340163951292 0 20:1 24:1 83:1 
1 0 
1 0 20:1 24:1 
1 0.02459282298877984 1:0.125 13:1 15:0.125 19:3 90:1 
1 0 
1 0 24:1 
1 0 
1 0 1:0.125 13:1 15:0.125 19:1 
1 0 19:1 
1 0 1:0.125 13:1 15:0.125 19:1 
0 0.07807197454553641 1:0.5 13:1 15:0.5 21:2 24:1 82:1 
1 0 1:-0.875 14:1 15:-0.125 20:1 24:1 
1 0 20:1 
1 0 
1 0 20:1 
1 0 21:1 
1 0 
1 0 
1 1 12:1 21:1 24:1 
1 0 1:-0.375 14:1 15:-0.375 20:1 94:1 
1 0 50:1 98:1 
0 1 1:0.5 24:1 
1 0 
1 0 1:-0.25 14:1 15:-0.25 20:1 21:1 24:1 34:1 
0.9270934638086442 0 20:2 
1 0 24:1 
0 0.7858718850362096 1:0.625 13:1 15:0.625 19:2 
1 0 19:1 
1 0 20:1 
0 0.3759685457853706 1:0.625 13:1 15:0.625 19:2 24:1 43:1 
1 0 19:1 21:3 
1 0 19:1 
1 0 12:1 17:1 20:2 21:1 25:1 
1 0 1:0.125 13:2 15:0.25 24:2 
1 0 19:1 21:3 
1 0 21:1 
0 0.0989374490780115 1:0.625 13:1 15:0.25 24:1 
1 0 
1 0 1:-0.625 13:1 15:0.125 20:1 
1 0 20:1 
1 0.01137318722497387 24:1 98:1 
1 0 
1 0 20:1 
1 0 20:1 
1 0 19:1 
1 0 1:-0.25 8:1 13:3 14:1 15:0.5 17:1 18:2 19:2 20:4 24:1 25:1 62:1 69:1 78:1 
1 0 1:-0.875 14:1 15:-0.125 20:1 24:1 
1 0 21:1 
1 0 1:-0.375 14:1 15:-0.25 19:1 24:1 
1 0 
1 0 24:1 
1 0.29453944591719 13:1 14:1 21:1 24:1 
1 0 20:1 
1 0 19:1 
1 0 1:-0.25 14:1 15:-0.25 20:1 
1 0 21:1 
1 0 1:0.125 13:1 15:0.125 20:1 92:1 
1 0 20:1 
1 0 20:1 
1 0 19:2 20:1 21:3 
1 0 1:-0.125 14:1 15:-0.125 24:1 
1 0 19:1 21:3 24:1 56:1 
1 0 
0.7676185926785123 0 2:0.75 5:1 20:1 24:3 34:1 
1 0.5807671415583915 1:-0.5 2:0.5 4:1 5:1 14:2 15:-1 20:2 
1 0 19:1 
1 0 1:-0.75 12:1 20:1 21:1 
1 1 21:1 
1 0 12:1 20:2 21:1 91:1 
1 0 
1 0 20:1 
1 0 21:1 24:1 74:1 
1 0 1:-0.25 14:1 15:-0.25 20:1 
1 0 19:1 
1 0 12:1 20:2 21:1 91:1 
1 0 1:0.125 13:1 15:0.125 19:1 24:1 85:1 
1 0 1:-0.875 13:1 14:2 15:-0.125 20:2 24:2 41:1 
1 0 12:1 20:2 21:1 91:1 
1 0 1:-0.125 14:1 15:-0.125 19:1 70:1 
1 0 
1 0 
1 0 
1 0 
1 0 19:1 20:1 
1 1 1:-1 14:1 15:-0.125 16:1 20:1 24:1 
1 0 1:-0.5 12:1 17:1 21:1 25:1 
1 0 1:-0.25 14:1 15:-0.25 20:2 
1 0 
1 0 1:-0.75 17:1 20:1 25:1 39:1 
1 0 
1 0 19:1 21:3 24:1 56:1 
1 0 
1 0 20:1 
1 0 1:-0.125 14:1 15:-0.125 19:1 70:1 
1 0 1:-0.125 14:1 15:-0.125 19:1 70:1 
1 0.1310629463371686 1:0.125 12:1 13:1 15:0.125 17:1 19:2 21:1 24:1 25:1 
1 0 12:1 20:1 21:1 
1 0 19:1 24:2 
1 0 19:1 24:1 
1 0 1:-0.875 12:1 14:1 15:-0.125 20:2 21:1 
1 0 1:-0.375 13:1 14:1 15:-0.375 19:1 24:1 51:1 61:1 
1 0 1:0.125 13:1 15:0.125 21:1 24:1 51:1 
0.1453372679132632 0 21:1 24:1 34:1 
1 0 
1 0 1:0.125 13:1 15:0.125 19:1 
1 1 19:1 21:3 
1 0 
1 0 1:-0.125 14:1 15:-0.125 20:1 66:1 
1 0 1:-0.125 14:1 15:-0.125 24:1 41:1 
1 0 24:1 
1 0 19:1 
1 0 12:1 20:2 21:1 91:1 
1 1 1:-0.125 12:1 21:1 
1 0 19:1 24:1 
1 0 24:1 
1 0 1:0.125 13:1 15:0.125 21:3 24:2 34:1 
1 0 13:2 15:0.25 19:1 24:1 51:1 
1 0 24:1 
1 0 
1 0 1:-0.25 13:1 14:1 15:-0.25 17:1 20:1 21:1 25:1 
0.2813141293185904 0 1:0.125 13:1 15:0.125 17:1 19:1 25:1 
1 0 1:-0.125 14:1 15:-0.125 20:1 
1 0 1:0.25 13:1 15:0.25 21:1 
1 0 19:2 24:1 56:1 
1 0 1:-0.25 13:1 14:1 15:-0.25 19:2 
1 0 20:1 
1 0 12:1 21:1 
1 0 19:1 
1 0 20:1 
1 0 12:1 20:2 21:1 91:1 
1 0 1:-0.375 14:1 15:-0.375 20:1 
1 0 19:1 
1 0 
1 0 20:1 
1 0 1:-0.375 13:1 14:1 15:-0.375 20:2 93:1 
1 0 
1 0 
1 0 
1 0 20:1 
1 0 1:-0.375 14:1 15:-0.375 17:3 27:1 
1 0 20:1 
1 0 
1 0 20:1 
1 0 
1 0 24:1 
1 0 2:1 5:1 24:1 
1 1 1:0.125 12:1 13:1 15:0.125 20:2 21:1 
1 0.2459660674659468 1:-0.5 14:1 15:-0.5 17:1 20:2 21:1 25:1 
1 0 
1 0 1:-0.125 14:1 15:-0.125 19:1 24:1 
1 0 1:-0.125 14:1 15:-0.125 20:1 24:1 
1 0 1:-0.125 14:1 15:-0.125 21:2 24:1 52:1 79:1 
1 0 1:-0.75 12:1 14:1 15:-0.5 19:2 
1 0 1:-0.5 14:1 15:-0.5 20:1 
1 0 1:0.25 13:1 15:0.25 19:2 
1 0 12:1 21:1 24:1 67:1 
1 0 24:1 
1 0 20:1 21:1 
1 0 
1 0 1:-0.875 14:1 15:-0.125 20:1 24:1 
1 0 19:1 21:3 24:1 56:1 
1 0 19:2 24:1 
1 0 
1 0 1:0.125 13:1 15:0.125 21:1 24:1 51:1 
1 0 1:-0.125 
1 0 19:1 
1 0 1:-0.125 14:1 15:-0.125 17:1 20:1 25:1 
1 0 12:1 20:2 21:1 91:1 
1 0 1:0.125 13:1 15:0.125 19:1 
1 0 
1 0 1:0.25 13:2 15:0.25 19:1 21:1 24:1 51:1 
1 0 1:-1.25 14:1 15:-0.5 18:2 19:1 20:1 
1 0 20:1 
1 0 1:-0.875 14:1 15:-0.125 20:1 24:1 
1 0 20:1 
1 0 
1 0 
1 0 19:1 21:3 24:1 43:1 74:1 
1 0 
1 0 20:1 
1 0 
1 0 24:1 
1 0 1:-0.125 2:0.5 5:1 24:2 
1 0 1:0.5 12:1 13:1 15:0.5 20:1 21:2 63:1 
1 1 21:1 
1 0 1:0.375 13:1 14:1 15:0.375 19:2 20:1 
1 0 12:1 20:2 21:1 91:1 
0 0.1411588070470158 1:0.375 13:1 15:0.375 19:2 21:1 
1 0 1:-0.125 
1 0 1:0.125 13:1 15:0.125 20:2 
1 0 1:0.25 13:2 15:0.25 19:1 24:2 36:1 
1 0 20:1 21:1 
1 0 
1 1 21:1 
1 0.5130026315199107 12:1 17:1 20:1 21:1 24:1 25:1 
1 0 1:-0.5 14:1 15:-0.5 20:2 
1 0 1:-0.375 12:1 14:1 15:-0.125 19:2 
1 0.0441710769294021 1:0.125 13:1 15:0.125 20:1 24:1 
1 0 1:-1.625 14:1 15:-0.125 20:1 24:1 
1 0 19:2 
1 0 
1 0 1:-0.125 14:1 15:-0.125 20:1 
1 0 20:1 21:1 
1 0 20:1 
1 0 20:1 
1 0 
1 0 20:1 
0 0.1366846567631604 1:0.5 13:1 15:0.25 17:2 20:1 24:3 26:1 
1 0 19:1 20:1 83:1 
1 0 24:1 
1 0 1:-0.375 14:1 15:-0.375 20:1 94:1 
1 0 
1 1 21:1 
1 0 1:-0.125 14:1 15:-0.125 19:2 20:1 21:1 
1 0 1:-0.125 13:1 14:1 15:-0.125 19:2 51:1 
1 0 19:1 24:1 35:1 
1 0 1:0.25 12:1 13:1 15:0.25 20:1 21:1 
1 0 19:1 21:1 
1 0 
1 0 19:1 
1 0 12:1 21:1 24:1 34:1 
1 0 1:0.125 13:1 15:0.125 24:1 
1 0 21:1 24:1 78:1 
1 0 2:1 5:1 24:1 
1 0 19:1 
1 0.07798254554101433 1:-0.5 14:1 15:-0.5 20:1 21:3 76:1 
1 1 21:1 
1 0 1:-0.375 14:1 15:-0.375 17:1 21:1 24:1 25:1 
1 0 19:1 
1 0 20:1 
1 0 1:-0.125 13:1 14:1 15:-0.125 20:2 
1 1 21:1 
1 0 1:-0.25 14:1 15:-0.25 19:1 
1 0 1:-0.125 14:1 15:-0.125 19:1 70:1 
1 0 1:-0.75 14:1 15:-0.75 19:1 24:1 
1 0 19:1 
1 0 19:1 
1 0 1:0.125 13:1 15:0.125 20:1 
-0 0.01182338347796503 1:0.25 13:1 15:0.25 20:2 
1 0 24:1 
1 0 19:1 
1 0 1:-0.25 14:1 15:-0.25 19:1 
1 0 
0 0.005877991274415493 1:0.5 13:1 15:0.5 17:2 19:2 20:1 26:1 39:1 
1 0 24:1 
1 0 20:1 
1 0 20:1 
1 0 19:1 20:1 21:1 
1 0 1:0.125 13:1 15:0.125 19:1 21:1 
1 0 19:2 20:1 21:3 24:1 34:1 
1 0 1:-0.125 14:1 15:-0.125 20:1 66:1 
1 0 1:-0.125 14:1 15:-0.125 20:1 
1 0 
1 0 19:1 20:1 21:1 24:1 56:1 
1 0 1:0.125 13:1 15:0.125 19:1 20:1 24:1 65:1 
1 0 1:0.125 13:1 15:0.125 19:2 90:1 
1 0 24:1 
1 0 19:1 
1 0 1:0.125 13:1 15:0.125 19:1 24:1 36:1 
1 0 
1 0 1:-0.375 2:1 4:1 5:1 14:1 15:-0.375 
1 0 1:-0.5 12:1 14:1 15:-0.25 19:2 
1 0 
1 0 20:1 
1 0 19:2 
1 0 
1 0 1:-0.25 14:1 15:-0.25 20:1 
1 0 12:1 20:2 21:1 91:1 
1 0 1:0.25 13:1 15:0.25 19:1 24:1 
1 0 1:-0.5 13:2 15:0.25 20:4 28:1 
1 0 
1 0 12:1 20:2 21:1 91:1 
1 0 1:-0.75 17:1 20:2 25:1 39:1 
1 0 20:1 
1 0 
1 0 
1 0 1:-0.125 14:1 15:-0.125 21:1 79:1 
1 0 20:1 21:2 92:1 
1 0 1:0.125 13:1 15:0.125 20:2 
1 0 1:-0.125 14:1 15:-0.125 20:1 
1 1 21:1 
1 0 21:1 24:1 
1 0 1:-0.875 14:1 15:-0.875 24:1 
0 0.7260295169047687 1:0.875 13:2 15:0.875 19:2 20:1 21:1 
1 0 19:1 20:2 
1 0 20:1 21:1 
1 1 21:1 
1 0 24:1 
1 0 2:1 5:1 24:1 
1 0 1:-0.125 14:1 15:-0.125 19:1 20:1 21:1 49:1 66:1 
1 0 
1 0 1:-0.875 14:1 15:-0.875 19:1 20:1 24:1 31:1 
1 0 19:1 24:1 36:1 
1 0 19:2 
1 1 21:1 
1 0 1:-0.375 14:1 15:-0.375 17:2 26:1 
1 1 21:1 
1 0 1:-0.375 2:0.5 4:1 5:1 14:1 15:-0.375 17:3 27:1 
1 0 1:-0.875 14:1 15:-0.125 20:1 24:1 
1 0 1:-0.25 
1 0 19:2 
1 0 19:1 24:1 
1 0 1:0.25 13:1 15:0.25 20:1 21:1 
1 0 1:-0.5 12:1 14:1 15:-0.25 19:2 
1 0 1:-0.5 14:1 15:-0.5 20:2 
1 0 
1 0 
1 0 1:-0.375 14:1 15:-0.375 20:1 94:1 
1 0 19:1 20:1 
1 0 12:1 20:2 21:1 91:1 
1 0 
1 0 19:1 20:1 21:3 
1 0 19:1 
1 0 19:1 
1 0.01305549832562892 1:-0.75 14:1 15:-0.75 20:1 24:1 
1 0 19:1 
1 0 12:1 20:2 21:1 91:1 
1 0 20:1 
1 0 24:1 
1 0 
1 0 18:1 19:2 
1 0 24:1 
1 0 24:1 
1 0 19:1 24:1 
1 0 24:1 
1 0 19:3 20:1 24:2 53:1 56:1 
1 0 
1 1 16:1 19:1 20:1 
1 0 1:0.25 13:1 14:1 15:0.25 20:1 24:1 69:1 
1 0 1:0.125 2:1 3:1 5:1 13:1 15:0.125 19:1 20:1 
1 0 
1 0 12:1 20:2 21:1 91:1 
1 0 
1 0 20:2 
1 0 19:1 
1 0.5656354242957519 1:0.5 21:3 
1 0 
1 0 19:1 
1 0 19:1 20:1 21:3 
1 0 19:1 
1 0 1:-0.875 14:1 15:-0.125 20:1 24:1 
1 0 1:-0.75 12:1 14:1 15:-0.75 21:1 24:1 
1 0 20:1 
1 0 
1 0 21:1 24:1 
1 0.2951898093387925 21:1 24:1 83:1 
1 0 20:1 
1 0 1:-0.125 14:1 15:-0.125 24:1 41:1 
0 1 1:1 13:1 15:1 24:1 
1 0 19:1 
1 0 12:1 20:1 21:1 
1 0 
1 0 
1 0 1:0.75 13:1 15:0.25 18:2 19:1 24:1 43:1 
1 0 24:1 
1 0 
1 0 20:1 
1 0 1:0.25 13:1 14:1 15:0.25 24:2 
1 0 1:-0.25 12:1 17:2 25:1 97:1 
1 0 1:0.75 13:1 15:0.25 18:2 24:1 
1 0 24:1 
1 1 21:1 
1 0 
1 0 1:0.125 13:1 15:0.125 24:1 
1 0 12:1 20:1 21:1 
1 0 20:1 
0.6330943420524123 0 1:-0.125 14:1 15:-0.125 17:3 20:2 27:1 
1 0 1:0.125 13:1 15:0.125 20:1 
1 0.9829417085817213 1:0.125 13:1 15:0.125 20:1 76:1 
1 0 20:1 21:1 
1 0 1:-0.875 14:1 15:-0.125 20:1 24:1 
1 0 1:-0.125 14:1 15:-0.125 19:1 70:1 
1 0.04583521930264826 1:-0.25 13:1 14:1 15:-0.25 17:2 20:2 26:1 
1 0 20:1 
1 1 1:-0.5 14:1 15:-0.5 20:1 24:1 
1 0 19:1 
1 0 1:0.125 13:1 15:0.125 19:1 
1 0 19:1 21:1 24:1 
1 0 19:1 21:1 
1 0 
1 0 20:2 
1 0 1:0.375 13:2 15:0.375 20:2 
0 0.2066984546350131 1:-0.25 13:1 15:0.125 19:1 24:1 91:1 
1 0 12:1 20:2 21:1 91:1 
1 0 
1 0 20:1 
1 0.01466929324489419 1:-0.75 12:1 14:1 15:-0.75 21:1 24:1 
1 0 19:2 
1 0 1:0.125 13:1 15:0.125 24:1 
0 0.01234024159990895 1:0.75 2:0.5 3:1 5:1 13:2 15:0.75 21:1 24:1 
1 0 12:1 20:2 21:1 91:1 
1 0 
1 0 12:1 20:2 21:1 91:1 
1 0 20:1 24:1 
1 0.04374133519233207 1:-0.125 14:1 15:-0.125 16:1 21:1 24:1 52:1 79:1 
1 0 1:-0.875 14:1 15:-0.125 20:1 24:1 
1 0.332003418147142 1:-0.5 14:1 15:-0.5 17:1 25:1 61:1 
1 0 1:-0.875 14:1 15:-0.125 20:1 24:1 
1 0 1:0.25 13:2 15:0.25 19:1 24:1 51:1 
1 0 1:0.125 13:1 15:0.125 20:1 
1 0 1:-0.25 
0 0.8753487344261882 1:0.5 24:1 
1 0 20:1 21:1 
1 0 1:-0.875 14:1 15:-0.875 17:2 24:1 26:1 31:1 
1 0 12:1 20:2 21:1 91:1 
1 0 
1 0 1:0.125 13:1 15:0.125 20:1 
1 0 
1 0 19:1 20:1 
1 0 
1 0 1:0.125 13:1 15:0.125 19:1 85:1 
1 0 19:1 20:2 
1 0 12:1 20:2 21:1 91:1 
1 0 
1 0 
1 0 20:1 
1 0 1:-0.125 14:1 15:-0.125 20:1 
0 0.08130274424312717 1:0.5 13:1 15:0.5 19:2 20:1 
1 0 1:-0.125 14:1 15:-0.125 21:1 24:1 79:1 
1 0 1:-0.125 14:1 15:-0.125 24:1 
1 0 12:1 20:2 21:1 91:1 
1 0 
1 0 19:1 
1 0 19:1 
1 0 
1 0 19:1 20:1 43:1 
1 0 1:-0.125 14:1 15:-0.125 20:1 
1 1 21:1 
1 0 12:1 20:2 21:1 91:1 
1 0 20:1 
1 0 1:-0.5 14:1 15:-0.5 20:1 
1 0 19:1 
1 0 19:2 
1 0 24:1 
1 0 24:2 
1 0 
1 0 20:2 
1 0 1:-0.125 14:1 15:-0.125 21:1 24:1 79:1 
1 0 
1 0 20:1 24:1 
1 0 1:-0.125 14:1 15:-0.125 20:1 
1 0 24:1 
1 0 20:1 
1 0 19:1 20:1 
1 0 
1 0 1:0.125 13:1 15:0.125 20:1 
0 0.08578425494273323 1:0.5 13:1 15:0.5 19:2 20:1 91:1 
1 0 1:-0.875 14:1 15:-0.125 20:1 24:1 
1 0 20:1 
0 0.5674897932951525 1:0.625 13:1 15:0.125 24:1 
1 0 19:1 24:1 
1 0 1:-0.25 2:0.16666667 5:1 8:1 12:1 17:1 78:1 97:1 
0 1 1:0.625 13:1 15:0.125 24:1 
1 0 
1 0 
1 0 
1 0 1:0.125 13:1 15:0.125 17:1 19:1 20:1 21:3 24:1 25:1 52:1 
1 0 24:1 
1 0 
1 0 1:-0.125 14:1 15:-0.125 24:1 41:1 
1 0 
1 0 20:1 
1 0 20:1 
1 0 20:1 
1 0.1517904543729768 1:-0.5 12:1 14:1 15:-0.5 20:2 21:1 
0.2086426655837439 0 2:0.33333333 5:1 19:2 24:1 56:1 
1 0 1:-0.25 14:1 15:-0.25 20:1 21:1 
1 0 24:1 
1 0 19:1 
1 1 21:1 
1 0 19:2 24:1 
1 0 1:0.125 13:1 15:0.125 24:1 
1 0 19:1 
1 0 24:1 
1 0 19:1 20:1 43:1 
1 0 1:0.125 13:1 15:0.125 19:2 
1 0 24:1 
1 0 12:1 20:2 21:1 91:1 
1 0 24:1 
1 0 1:-0.25 14:1 15:-0.25 19:1 
1 0 20:1 
1 0 19:1 
1 1 1:-0.125 14:1 15:-0.125 19:1 21:4 
1 0 24:1 
1 1 16:1 19:2 20:1 
1 0 24:1 
1 0 19:1 
1 0 1:-0.125 14:1 15:-0.125 21:1 79:1 
1 0 1:0.125 13:1 15:0.125 24:1 
1 0 19:1 
0.9682080088344485 0 1:0.125 13:1 15:0.125 19:1 20:1 93:1 
1 0 19:1 
1 0 12:1 20:2 21:1 91:1 
1 0 
1 0 1:-0.875 14:1 15:-0.125 20:1 24:1 
1 0 12:1 20:2 21:2 
1 0 20:1 21:1 34:1 50:1 
1 0.07995875393381516 12:1 20:1 21:1 
1 0.008670630186786828 1:-0.875 2:0.33333333 4:1 5:1 14:2 15:-0.875 17:3 20:1 24:1 27:1 
1 0 1:-0.125 14:1 15:-0.125 21:1 24:1 42:1 79:1 
1 0 
1 0 20:1 
1 0 
1 0 19:1 40:1 
1 0 1:0.125 13:1 15:0.125 20:1 
1 0 2:0.66666667 5:1 19:2 20:1 
1 0 24:1 
1 0 1:0.375 13:1 14:1 15:0.375 19:1 24:1 
1 0 19:2 
1 0 1:0.125 13:1 15:0.125 19:1 20:1 
1 0 1:-0.375 14:1 15:-0.375 20:1 94:1 
1 0 20:1 
1 1 21:1 
1 0 1:-0.125 14:1 15:-0.125 19:1 24:1 41:1 
1 0 19:1 
1 0 19:2 20:1 
1 1 21:1 
1 0 
1 0 
0 0.03672896534973937 1:0.625 13:1 15:0.625 19:3 24:1 43:1 59:1 
1 0 19:1 24:2 81:1 
1 0 1:-0.125 14:1 15:-0.125 19:1 21:1 79:1 
1 0 19:1 
1 0 20:1 
0 0.4947383916891738 1:0.625 13:2 15:0.625 19:1 20:2 
1 0 1:0.125 13:1 15:0.125 19:2 
1 0 
1 0.407967656786934 1:0.25 2:0.5 5:1 13:1 15:0.25 19:2 
1 0 20:1 
1 0 24:1 
1 0 1:-0.625 14:1 15:-0.625 
1 0 1:-0.125 19:1 24:1 
1 0 19:1 24:1 
1 0 1:-0.125 20:1 21:1 82:1 
1 0 19:1 
1 0 1:0.25 13:1 15:0.25 19:1 24:2 43:1 
1 0 1:-0.125 14:1 15:-0.125 19:1 70:1 
0 1 1:0.25 13:1 15:0.25 
1 0 24:1 
1 0 20:1 
1 0 1:0.125 13:1 15:0.125 20:1 
1 0 1:-0.875 14:1 15:-0.875 19:1 24:1 
1 0 
1 0.01608244921296264 1:0.25 13:1 15:0.25 21:1 
0.9633881483530655 0 1:0.375 13:2 15:0.375 19:2 24:1 56:1 
1 0 19:1 
1 0.008845523223244198 1:0.375 13:1 15:0.375 19:2 21:3 24:1 74:1 
1 0 1:-0.125 14:1 15:-0.125 19:1 70:1 
1 0 
1 0 1:0.125 8:1 13:1 15:0.125 19:2 21:3 24:1 78:1 
1 0.9961856905729574 19:1 21:3 75:1 
1 0.0158737318162936 1:0.25 13:2 15:0.25 21:1 24:1 
1 0 20:1 
1 0.1768323610922093 1:-0.75 17:1 20:1 25:1 
1 0 1:0.125 13:1 15:0.125 24:1 
1 0 19:1 24:1 
1 0 19:1 
1 0 1:0.125 13:1 15:0.125 17:1 19:1 
1 0 1:-0.125 14:1 15:-0.125 24:1 41:1 
1 1 21:1 
1 0 1:-0.125 14:1 15:-0.125 19:1 70:1 
1 0 20:1 
1 0 1:-0.25 14:1 15:-0.25 20:1 
1 0.570465972056338 1:-0.875 14:1 15:-0.875 20:1 24:1 31:1 
1 0 19:1 24:1 
1 1 1:-0.5 14:1 15:-0.5 19:1 20:1 
1 0 19:1 
1 0 1:-0.125 14:1 15:-0.125 19:1 70:1 
1 0 1:-0.75 14:1 15:-0.75 19:1 20:1 
0 0.1465359501753549 1:0.75 13:2 15:0.75 19:1 24:1 
1 0 
1 0 1:0.125 13:1 15:0.125 19:1 
1 0 20:1 
1 0.9849664351002377 1:-0.25 17:1 21:4 25:1 82:1 
1 0.4758128853209013 1:-0.875 14:1 15:-0.125 20:1 24:2 
1 0 1:0.125 13:1 15:0.125 24:1 
1 0 
1 1 1:0.25 13:1 15:0.25 21:1 
1 0 19:1 
1 1 21:1 
1 0 20:1 
1 0 19:1 20:1 
1 0 1:-0.5 14:1 15:-0.5 20:2 
1 0 19:2 
1 0 1:-0.375 13:1 14:1 15:-0.375 19:1 20:1 51:1 
0 1 1:0.25 13:1 15:0.25 20:2 
1 0 19:1 
1 0 1:-0.875 14:1 15:-0.125 20:1 24:1 
1 0 20:1 21:1 
1 0 19:1 21:3 24:1 
1 0 
1 1 1:0.125 12:1 13:1 15:0.125 20:1 21:1 
1 0 13:1 14:1 20:2 
1 0 1:-0.25 12:1 17:1 98:1 
1 0 
1 0 24:1 
1 0 19:1 
1 1 12:1 20:1 21:1 
1 0 1:0.125 13:1 15:0.125 19:2 
1 0 20:1 
1 0 24:1 
1 0 1:0.125 13:1 15:0.125 20:1 
1 0.07363600409913948 17:1 19:3 25:1 
1 0 
1 0 19:1 
1 0 1:0.125 13:2 14:1 15:0.125 19:1 20:3 62:1 
1 0 1:-0.125 14:1 15:-0.125 19:1 21:1 75:1 79:1 
1 0 1:0.125 13:1 15:0.125 17:1 19:1 20:1 25:1 
1 0 1:-0.375 2:1 4:1 5:1 14:1 15:-0.375 
1 1 21:1 
0 0.0946325733830278 1:0.25 8:1 13:1 15:0.25 16:1 21:1 78:1 
1 0 19:1 20:1 
1 0 20:1 
0 0.009204154198610395 1:0.125 13:1 15:0.125 17:2 20:1 21:1 26:1 
1 0 1:-0.5 14:1 15:-0.5 19:1 24:1 
1 0 20:1 
1 0 20:1 
1 0 19:1 24:1 
1 0 1:-0.375 14:1 15:-0.375 
1 0.01484126477094878 19:2 24:1 35:1 
1 0 1:0.125 12:1 13:1 15:0.25 21:1 24:1 45:1 
0 0.8617331692721318 1:1 13:1 15:1 19:1 24:1 
1 0 1:-0.25 13:1 14:1 15:-0.25 17:1 24:2 25:1 
1 0 24:2 52:1 
1 0 12:1 20:2 21:1 91:1 
1 0 1:-0.375 14:1 15:-0.375 20:1 
1 0 
1 0 
1 0 1:0.125 13:1 15:0.125 20:1 
1 0 24:1 
1 0 19:1 
0 1 1:0.625 13:1 15:0.75 24:1 
1 0.02028041612566985 1:0.25 13:1 15:0.25 24:2 
1 0 19:1 
1 0 19:1 24:2 
1 0 1:-0.875 12:1 14:1 15:-0.875 21:1 24:1 31:1 
1 0 12:1 20:2 21:1 91:1 
1 0 20:1 
1 0 1:-0.125 14:1 15:-0.125 20:1 66:1 
1 0 19:1 
1 1 16:1 19:1 
1 0 1:-0.125 14:1 15:-0.125 19:1 70:1 
1 0 1:-0.75 14:2 15:-0.75 19:2 20:1 
1 0 1:-0.375 13:1 14:1 15:-0.375 17:1 19:1 20:1 25:1 51:1 
1 1 20:1 21:1 
1 0.6472093112619258 1:-0.125 12:1 19:1 21:4 24:1 34:1 
1 0 19:2 21:3 24:1 56:1 
1 0 1:0.125 2:1 3:1 5:1 13:1 15:0.125 20:1 
1 0 1:-0.875 12:1 14:1 15:-0.875 21:1 24:1 31:1 
1 0 24:1 
1 0 1:-0.875 14:1 15:-0.125 17:1 20:1 24:1 25:1 
1 0 17:1 19:1 21:3 25:1 
1 0 1:0.125 13:1 15:0.125 19:1 
1 0 1:-0.875 14:1 15:-0.125 20:1 24:1 
1 0 19:1 
0.5179863195979905 0 19:1 97:1 
1 0 1:-0.25 14:2 15:-0.25 21:1 24:1 41:1 79:1 
1 0 19:1 
1 0 1:-0.375 14:1 15:-0.375 
1 0 12:1 20:2 21:1 91:1 
1 0 19:1 
1 0 20:1 
1 0 
1 0 1:-0.125 14:1 15:-0.125 17:1 19:1 20:1 24:1 25:1 74:1 
1 0 1:0.125 13:1 15:0.125 24:1 
1 0 1:-0.25 13:1 14:1 15:-0.25 17:1 24:2 25:1 
0 0.02012351801355618 1:0.5 2:0.25 5:1 13:1 15:0.5 17:2 19:2 20:1 26:1 69:1 
1 0 20:1 
1 1 21:1 
1 0 20:1 
0 0.9524740477928623 21:1 92:1 
1 0 19:1 
1 1 1:-0.125 
1 0 1:-0.125 14:1 15:-0.125 17:1 19:1 20:1 25:1 66:1 
1 0 1:-0.125 14:1 15:-0.125 19:1 70:1 
1 0 1:0.25 13:1 15:0.25 19:2 
1 0 1:-0.25 14:1 15:-0.25 20:1 
1 0 20:1 
1 0 1:-0.875 8:1 14:1 15:-0.125 20:1 24:1 78:1 
1 0 
1 1 21:1 
1 0 19:1 
1 0 1:-0.125 14:1 15:-0.125 19:1 70:1 
1 0 21:1 24:1 34:1 
1 0 1:0.125 13:1 15:0.125 19:1 24:1 93:1 
1 1 21:1 
1 0 20:1 
1 0 
1 0 12:1 20:2 21:1 91:1 
1 0 20:1 
1 0 20:1 
1 0 20:1 
1 0 1:0.125 13:1 15:0.125 19:1 
1 0 20:1 
1 0 19:1 
1 0 20:1 
1 0 20:1 24:1 
1 0 20:1 24:1 
1 0 20:1 
1 0 1:0.25 13:2 15:0.25 20:2 93:1 
0.7492963179049398 0.02766678716169339 1:-0.25 20:1 21:1 49:1 
1 0 20:1 21:1 82:1 
1 0 19:1 
0 0.7482645822037822 1:0.375 13:1 15:0.375 17:1 19:1 24:1 25:1 
1 0 1:-0.125 14:1 15:-0.125 20:2 
1 0.9585221770825563 1:-0.375 13:1 14:1 15:-0.375 20:2 
1 0 1:0.125 13:1 15:0.125 24:1 
1 0 19:1 
1 0 24:1 
1 0.1069783979772117 1:-1 14:1 15:-0.25 20:2 21:1 
1 0.007103776089852399 1:0.125 13:1 15:0.125 19:1 21:3 93:1 
1 0 
1 0 
1 0 24:1 
1 0 12:1 20:2 21:1 91:1 
1 0 24:1 
1 0.1063355294618726 1:-0.5 14:1 15:-0.5 20:3 
1 0 19:1 20:1 
1 0 1:-0.125 14:1 15:-0.125 24:1 41:1 
0 0.036373659959096 17:2 19:1 20:2 25:1 
1 0 1:-0.25 14:1 15:-0.25 18:2 19:2 21:3 24:1 74:1 
1 0 
0 0.01465477010840264 1:0.5 13:1 15:0.5 20:1 21:1 
1 0 20:1 
1 1 21:1 
1 0 20:1 
1 0 19:1 20:1 21:3 53:1 
1 0 
1 0 24:1 
1 0 1:-0.125 14:1 15:-0.125 19:1 97:1 
1 0 1:-0.25 14:1 15:-0.25 19:1 
1 0 19:1 
1 0 24:1 
1 0 1:-0.75 14:1 15:-0.75 17:2 19:1 26:1 
1 0 21:1 24:1 82:1 
1 0 1:0.125 13:1 15:0.125 20:2 
1 0 20:1 24:1 
1 0 1:-0.75 17:3 19:1 20:1 27:1 
1 0 1:-0.125 14:1 15:-0.125 24:1 41:1 
1 0 19:1 24:1 
1 0 19:1 
1 0 20:1 
1 0 12:1 20:2 21:1 91:1 
1 0 1:-0.125 14:1 15:-0.125 24:1 41:1 
1 0 1:0.125 13:1 15:0.125 19:2 24:1 
1 0 19:1 
0.504140585119683 0 20:1 21:1 92:1 
1 0 20:1 21:1 92:1 
1 0.8554532146644327 19:1 20:1 75:1 
1 0 19:1 
1 0 19:1 21:1 
1 0 1:0.125 13:1 15:0.125 19:1 
1 0 19:1 
1 0 19:1 
1 1 1:-0.125 
1 0 1:0.125 13:1 15:0.125 24:1 
1 0 
1 0 19:1 
1 0 1:-0.125 14:1 15:-0.125 19:1 20:1 
1 0 12:1 20:2 21:2 91:1 
1 0 12:1 20:2 21:1 91:1 
1 0 1:-0.25 14:1 15:-0.25 19:1 20:1 
1 0 20:1 
1 0 1:-0.375 14:1 15:-0.375 24:1 
1 1 1:-0.125 12:1 13:1 15:0.125 19:2 24:1 
1 0.05455250756481578 1:-0.375 14:1 15:-0.25 17:1 19:2 24:1 25:1 
1 0 20:1 
1 0 1:-0.875 14:1 15:-0.125 20:1 24:1 
1 0 24:1 
1 0 24:2 35:1 
1 0 1:-0.125 14:1 15:-0.125 20:1 21:1 79:1 
1 0 1:-0.5 14:1 15:-0.5 17:1 20:1 24:1 25:1 56:1 
1 0 21:1 24:1 82:1 
1 0 24:1 
1 0 13:1 14:1 19:2 20:1 
1 0 24:1 
1 0 12:1 20:2 21:1 91:1 
1 0 
1 0 1:-0.5 14:1 15:-0.5 20:2 
1 0 19:1 
1 0.4377373185181261 1:-0.375 14:1 15:-0.375 20:2 94:1 
1 0 24:1 
1 0 12:1 20:2 21:1 91:1 
1 0 20:2 
1 0 
1 1 21:1 
1 0 50:1 
1 0 19:1 24:1 
1 0 21:1 24:1 
1 0 1:-0.25 14:1 15:-0.25 19:1 
1 0 20:1 
1 0 1:-0.125 14:1 15:-0.125 21:1 79:1 
1 0 20:1 
1 0 1:-0.25 14:1 15:-0.25 19:1 
1 0 
1 0 1:-0.125 14:1 15:-0.125 19:1 70:1 
0.6488620559215987 0 19:1 43:1 
1 0 12:1 20:2 21:1 91:1 
1 0.06286347813336492 1:-0.125 2:0.33333333 5:1 14:1 15:-0.125 20:1 21:2 82:1 
1 0 1:-0.5 14:1 15:-0.5 20:1 
1 0 1:-0.25 14:1 15:-0.25 19:1 
1 0 24:1 
1 0 
1 0 
1 1 21:1 
1 0 
1 0 
1 0 1:0.125 2:1 3:1 5:1 13:1 15:0.125 85:1 
1 0 2:1 5:1 24:1 
1 0 12:1 20:2 21:1 91:1 
1 0 20:1 
1 0 
1 0.9112012412939591 1:-0.25 12:1 19:1 20:1 
1 0 1:0.125 13:1 15:0.125 19:1 20:1 
1 0 1:0.125 13:1 15:0.125 19:1 
0 1 2:0.5 5:1 17:1 21:1 25:1 
1 0 1:-0.125 14:1 15:-0.125 24:1 41:1 
1 0 1:-0.25 12:1 19:2 
1 0 24:1 
1 1 21:1 
1 0 24:1 
1 0 
1 0 
1 0 1:-0.5 14:1 15:-0.5 20:1 
0 0.6986073958125223 1:0.25 13:2 15:0.5 
1 0 1:-0.375 14:1 15:-0.375 24:1 
1 0 
1 0 12:1 20:2 21:1 91:1 
1 0 1:-0.125 14:1 15:-0.125 24:1 41:1 
1 0 20:2 
1 0 1:0.125 12:1 13:1 15:0.125 20:3 21:1 91:1 
1 0 1:0.875 12:1 13:1 15:0.875 19:2 20:1 21:1 24:1 30:1 
1 0 1:0.125 13:1 15:0.125 19:1 
1 0 20:1 
1 1 20:2 
1 1 12:1 20:1 21:1 
1 0.7790295236700439 19:2 53:1 
1 0 
1 0 1:-0.875 14:1 15:-0.125 17:1 20:1 24:1 25:1 
1 0 
1 0 1:0.125 13:1 15:0.125 19:1 
0 0.01276014481307253 1:0.75 13:1 15:0.75 24:1 
1 0 
1 0 24:1 
1 0 12:1 20:2 21:1 91:1 
1 0 1:-0.25 14:1 15:-0.25 19:1 24:1 
1 0 1:-0.125 14:1 15:-0.125 24:1 41:1 
1 0 1:-0.375 14:1 15:-0.375 20:1 94:1 
1 0.05325417321973626 1:-1.25 14:2 15:-1.25 20:2 
1 0 24:1 
1 0 20:1 
1 0 24:1 
1 0 
1 0 20:1 
1 0 20:1 
1 0 24:1 
1 0 1:-0.875 14:1 15:-0.125 20:2 24:1 
1 0 1:0.125 13:1 15:0.125 20:1 
1 0 20:1 
1 0 
1 0 1:-0.125 14:1 15:-0.125 20:1 21:1 82:1 
1 0 19:1 24:1 
1 1 16:1 19:1 
1 0 12:1 20:2 21:1 91:1 
1 0 20:1 
1 0 1:-0.125 14:1 15:-0.125 20:2 
1 0 19:1 
1 0.01217159589160398 1:-0.75 14:1 15:-0.75 21:1 24:1 
0 1 1:0.5 13:1 15:0.5 20:1 24:1 
1 0 
1 0 1:0.125 13:1 15:0.125 19:1 
1 0 1:0.125 12:1 13:1 15:0.125 19:1 20:2 21:1 24:1 91:1 
1 0 19:1 
1 0 19:1 24:1 35:1 
1 0 1:0.125 13:1 15:0.125 20:1 
1 0 1:-0.375 14:1 15:-0.375 20:1 94:1 
1 0 1:-0.125 14:1 15:-0.125 24:1 41:1 
1 0 1:-0.25 8:1 14:1 15:-0.25 16:1 17:1 20:1 25:1 78:1 
1 0 20:1 
1 0 1:0.125 10:1 13:1 15:0.125 17:2 19:2 20:1 21:1 24:1 26:1 46:1 
1 1 20:2 
1 1 12:1 20:1 21:1 
1 0 
1 0 1:-0.625 12:1 14:2 15:-0.625 17:1 19:1 20:1 21:1 25:1 
1 0 19:1 20:1 21:3 
1 0 1:0.125 13:1 15:0.125 19:1 20:1 
1 0 19:1 20:1 
1 0 19:1 20:1 24:1 81:1 
1 0 19:1 20:1 24:1 
1 0 20:1 
1 0.01304567882967181 13:1 14:1 19:2 20:1 
1 0 20:1 
1 0 1:0.125 13:2 14:1 15:0.125 21:1 24:2 79:1 
1 0 
1 0 24:1 
1 0 
1 0 12:1 20:2 21:1 91:1 
1 0 24:1 
1 0 1:-0.375 14:1 15:-0.375 24:1 
1 0.7200925540816878 1:-0.25 12:1 19:2 
1 1 21:1 
1 0 
1 0 1:-0.875 14:1 15:-0.125 20:1 24:1 
1 0 24:1 
1 0.970511178379951 1:0.125 13:1 15:0.125 20:1 24:1 64:1 
1 1 12:1 20:1 21:1 
1 0 1:0.25 12:1 13:1 15:0.25 20:1 21:1 
1 0 20:1 
1 0 1:-0.875 14:1 15:-0.125 20:1 24:1 
1 0 20:1 
1 0 24:1 
1 0.01777752880203425 1:-0.125 14:1 15:-0.125 16:1 19:1 24:1 41:1 
1 0 19:1 21:1 24:1 43:1 
1 0 1:0.25 12:1 13:1 15:0.25 20:1 21:1 
1 0 
1 0 1:0.25 12:1 13:1 15:0.25 20:1 21:1 
1 0 1:0.125 2:1 3:1 5:1 13:1 15:0.125 20:1 
1 0 20:1 
1 0 20:1 
1 1 20:1 21:1 
1 0 
0 0.2832666749412467 1:-0.125 17:1 19:2 24:1 25:1 35:1 43:1 
1 1 12:1 20:2 21:1 
0 0.2754100321980794 1:0.375 13:1 15:0.375 19:1 24:1 53:1 
1 0 12:1 19:1 21:1 
1 0 20:1 
1 1 12:1 20:1 21:1 
1 0 1:0.125 13:1 15:0.125 20:1 
1 0 1:-0.875 12:1 14:1 15:-0.875 20:1 21:2 24:1 31:1 
1 1 20:1 21:1 
1 1 1:-0.375 14:1 15:-0.375 20:1 94:1 
1 0 24:1 
1 0 17:1 19:1 20:1 21:3 25:1 
1 0 12:1 20:2 21:2 91:1 
1 1 1:-0.5 14:1 15:-0.5 20:1 
1 0 12:1 21:1 
1 0.1827552286876135 1:-0.125 12:1 14:1 15:-0.125 20:2 21:1 
1 0 20:1 
1 0 12:1 17:1 19:1 20:1 21:1 25:1 
1 0 1:-0.375 2:1 4:1 5:1 14:1 15:-0.375 
1 1 21:1 
1 1 21:1 
1 0 20:1 
1 0 12:1 21:1 24:1 34:1 
0 0.05362874135568116 17:1 19:2 20:1 25:1 43:1 76:1 
1 0 1:-0.75 20:1 
1 0 19:1 
0 0.8683609290686323 1:1.125 13:2 15:1.125 20:1 21:1 
1 0 19:1 20:1 43:1 
1 0 
1 0 1:-0.875 14:1 15:-0.125 20:1 24:1 
1 0 1:0.125 13:1 15:0.125 20:1 
1 1 1:-0.5 14:1 15:-0.5 20:1 
1 0 
1 0 20:1 
1 0 1:-0.125 14:1 15:-0.125 20:1 
1 1 21:1 
1 0 12:1 20:2 21:1 91:1 
1 0 1:0.125 13:1 15:0.125 20:1 
1 0 20:1 
1 0 1:-0.125 14:1 15:-0.125 20:2 
1 0 19:1 24:1 43:1 
1 0 24:1 
1 1 1:-1.25 14:1 15:-0.5 18:2 19:1 20:1 
1 0 1:0.125 13:1 15:0.125 19:1 
1 0 
1 0 19:1 24:1 
1 0 19:1 
1 0 19:2 
1 1 20:1 
1 0 1:0.125 13:1 15:0.125 20:1 
1 0 1:0.25 12:1 13:1 15:0.25 20:1 21:1 
1 1 1:0.125 13:1 15:0.125 19:1 24:1 
1 1 20:1 
1 0 
1 0 
1 0 
1 0 1:-0.125 14:1 15:-0.125 20:2 21:1 82:1 
1 0 1:0.125 13:1 15:0.125 20:1 
1 1 20:1 
1 0.01014814712113488 1:-0.375 14:1 15:-0.375 24:1 
1 0 1:0.125 13:1 15:0.125 20:1 
0 1 1:0.5 13:1 15:0.5 20:2 
1 0 1:-0.25 13:1 14:1 15:-0.25 20:1 21:1 
1 0 
1 0.01086673268484945 1:-0.375 14:1 15:-0.375 17:1 19:1 24:1 25:1 
1 0 1:0.125 12:1 13:1 15:0.125 21:2 
1 0 1:-1.25 14:1 15:-0.5 17:1 18:2 19:1 20:1 25:1 
1 0 24:1 
1 1 20:1 
1 0 1:-0.25 17:1 19:1 20:1 25:1 
1 0 13:1 14:1 19:1 24:1 56:1 93:1 
1 0 19:1 
1 1 20:1 21:1 
1 0 1:0.25 13:1 15:0.25 19:1 24:1 
1 0 24:1 
1 0 1:0.125 13:1 15:0.125 19:1 
1 0.6927234829279534 19:1 21:3 
1 0 19:1 
1 0 1:-0.125 14:1 15:-0.125 20:1 21:1 82:1 
0 0.04346042654950064 1:0.625 13:1 15:0.625 24:1 
1 0 
1 0 
1 0 1:-0.25 12:1 17:2 25:1 97:1 
1 0 1:-0.875 14:1 15:-0.125 20:1 24:1 
1 0.8049596423015725 1:0.125 12:1 13:1 15:0.125 19:1 20:2 21:3 
1 0 1:-0.875 14:1 15:-0.125 20:1 24:1 
1 0.8446288232412661 1:-0.125 
1 0 18:1 24:1 
1 0 1:-0.875 14:1 15:-0.125 20:1 24:1 
1 1 1:-0.5 14:1 15:-0.5 20:1 
1 0 1:-0.125 14:1 15:-0.125 20:1 24:1 34:1 66:1 
1 0 12:1 21:1 
1 0 1:-0.5 13:1 14:1 15:0.25 20:1 24:2 
1 1 1:0.375 13:1 15:0.375 19:2 21:3 
1 0 12:1 21:1 
1 0 1:-0.125 14:1 15:-0.125 19:1 70:1 
0 0.635000713889261 13:1 15:0.75 19:1 20:1 
1 0 12:1 20:2 21:1 91:1 
1 0 19:3 88:1 
1 1 20:1 
1 0 19:1 
1 0 21:1 24:1 
1 1 12:1 20:1 21:1 
1 0 1:-0.875 14:1 15:-0.125 20:1 24:1 
0.9016778519755078 0 24:1 36:1 
1 0.1166289831677364 1:-0.25 14:1 15:-0.25 20:1 21:1 
1 0 19:1 20:1 
1 0 21:1 24:1 
1 0 24:1 
1 1 21:1 
1 0 1:0.375 13:1 14:1 15:0.375 19:2 20:1 
1 0 1:0.125 13:1 15:0.125 19:1 
1 0 1:-0.25 12:1 14:1 15:-0.25 20:1 21:1 
1 0 1:-0.125 14:1 15:-0.125 20:1 
1 0 1:-0.25 14:1 15:-0.25 19:2 
1 0 19:1 24:1 35:1 
1 1 20:1 
1 0 24:1 
1 1 20:1 
1 0 
1 0.04958618402616315 21:2 82:1 
1 0 1:-0.875 12:1 14:1 15:-0.875 20:1 21:1 24:1 31:1 
1 0 
1 0 
1 0 1:-0.875 12:1 14:1 15:-0.875 21:4 24:1 31:1 
1 0 
1 0 24:1 36:1 
1 0 1:-0.375 14:1 15:-0.375 
1 0 1:0.125 13:1 15:0.125 20:2 
1 1 20:1 
1 0 24:1 
1 1 20:1 
1 0 24:1 
1 0 
1 0 33:1 
1 0 1:-0.25 14:1 15:-0.25 20:1 
1 0.1101137190540278 1:-0.125 12:1 13:1 15:0.125 17:1 19:2 25:1 
1 0 19:1 20:1 
1 0.9637653461568355 16:2 83:1 
1 0 19:2 20:1 
1 0 24:1 
1 0 1:-0.125 14:1 15:-0.125 20:2 
1 0 24:1 
1 1 20:1 
1 0 20:2 50:1 89:1 
1 0 1:-0.5 8:1 14:1 15:-0.5 19:1 21:3 78:1 
1 0 1:-0.5 14:2 15:-0.5 19:2 20:1 70:1 94:1 
1 0.3080108404174424 1:-0.875 14:1 15:-0.875 24:1 31:1 
1 1 1:0.125 12:1 13:1 15:0.125 20:1 21:1 
1 0 
1 0 24:1 
1 1 1:0.125 13:1 15:0.125 20:2 
1 0 
1 0 1:-0.5 14:1 15:-0.5 17:1 20:2 25:1 
1 1 20:1 
1 0 19:1 21:3 24:1 43:1 56:1 
1 0 
1 1 12:1 21:1 24:1 
1 1 21:1 
0 0.01009568112775636 1:0.5 13:1 15:0.5 24:1 
1 0 24:1 
1 1 20:1 
1 0 19:2 
1 0 1:0.125 13:1 15:0.125 19:1 24:1 93:1 
1 0 12:1 20:2 21:1 91:1 
1 0 1:0.125 13:1 15:0.125 19:1 24:1 93:1 
1 0 19:1 20:1 
1 0 1:-0.75 14:1 15:-0.5 20:2 
1 0 24:1 
1 0 19:1 24:1 
1 0.06770561838192451 1:-0.125 14:1 15:-0.125 20:1 24:1 
1 1 1:0.25 12:1 13:1 15:0.25 20:1 21:1 
1 0 19:2 20:1 21:1 
1 0 
1 0 19:1 
1 0 1:0.625 12:1 13:2 15:0.625 19:1 20:1 21:2 
1 0 1:0.125 2:1 3:1 5:1 13:1 15:0.125 19:1 
1 0 1:-0.625 13:1 14:1 15:0.125 16:1 20:1 24:2 45:1 76:1 
1 0 1:-0.875 14:1 15:-0.125 20:1 24:1 
1 0 19:1 20:1 83:1 
1 0 1:-0.125 14:1 15:-0.125 24:1 
1 0 12:1 20:2 21:1 91:1 
1 0 1:0.125 13:1 14:1 15:0.125 21:1 24:1 79:1 
1 0 
1 0 1:-0.125 14:1 15:-0.125 20:1 
1 1 20:1 
1 0 
1 0 1:0.375 12:1 13:2 15:0.375 19:1 20:1 21:1 
1 1 20:2 
1 0 42:1 
0 0.1191338751127295 1:0.5 13:1 15:0.5 19:2 
1 0 19:1 
1 0 19:2 
1 0 1:-0.75 20:2 39:1 
1 0 
0 0.01933510590525075 1:0.25 13:1 15:0.25 24:1 
1 0 
1 1 1:0.125 13:1 15:0.125 20:1 21:1 
1 0 24:1 
1 1 1:0.125 13:1 15:0.125 20:2 
1 0 1:-0.125 2:0.5 5:1 19:1 42:1 
1 1 20:1 
0 0.0578628731038911 1:0.25 13:1 15:0.5 24:1 
1 1 20:1 
1 0 
1 0 1:0.125 13:1 15:0.125 19:2 
1 0.1736391640107247 1:0.125 13:1 15:0.125 19:2 20:1 
1 0 1:0.125 13:1 15:0.125 20:1 
1 1 20:2 
1 0.1920911928353018 1:-0.5 14:1 15:-0.5 17:1 20:2 25:1 
1 1 20:1 
1 0 1:-0.875 14:1 15:-0.875 19:1 20:1 24:1 31:1 
1 1 1:-0.125 14:1 15:-0.125 20:1 
1 0 
1 1 1:-0.5 14:1 15:-0.5 20:1 
1 1 1:-0.125 14:1 15:-0.125 20:1 
1 0 1:-0.375 13:1 14:1 15:-0.375 20:2 93:1 
1 0 1:-0.75 20:1 
1 1 20:1 
1 0.4087234001849682 1:-0.25 12:1 19:3 20:1 
1 0.1129165200417224 1:0.125 13:1 15:0.125 24:1 
1 0 12:1 20:2 21:1 24:1 
1 0 24:1 
1 0 19:1 
1 0 
1 0.1791726466244937 1:-0.875 12:1 14:1 15:-0.875 19:1 21:4 24:1 31:1 53:1 
1 0 1:0.125 13:1 15:0.125 20:1 
1 0 24:1 
1 0 24:1 
1 0 24:1 
1 0 
1 0 1:0.125 13:1 15:0.125 19:1 
1 0 1:-0.75 20:2 39:1 
0.8079802545334037 0 21:1 82:1 
1 0 24:1 
1 0 24:1 
1 0 1:-0.625 14:1 15:-0.625 20:1 24:1 71:1 74:1 
0.3706464644000899 0 1:-0.125 14:1 15:-0.125 20:1 21:1 49:1 66:1 
1 0 24:1 36:1 
1 1 20:1 
1 0 1:-0.375 14:1 15:-0.375 24:1 
1 1 20:2 
1 1 20:1 
0 0.04674780711031141 1:0.625 13:1 15:0.625 20:1 21:1 
1 0 1:-0.875 8:1 14:1 15:-0.125 20:1 24:1 78:1 
1 0 19:1 
1 1 20:1 
1 0 24:1 36:1 
1 0 
1 0.05062430171358991 1:-0.5 14:1 15:-0.5 20:2 
1 0 1:-0.125 14:1 15:-0.125 19:1 70:1 
1 1 1:0.125 13:1 15:0.125 24:1 
1 0.01810207778322221 1:0.125 13:1 15:0.125 21:1 
0.9147482071733865 0 19:1 88:1 
1 0 1:0.125 13:1 15:0.125 20:1 
1 1 20:1 
1 0.09516391512454977 1:-0.875 14:1 15:-0.125 17:1 20:1 24:2 25:1 81:1 
1 0 1:0.125 13:1 15:0.125 20:1 
1 1 1:0.125 13:1 15:0.125 20:1 21:1 
1 1 20:1 
1 0 19:1 20:2 
1 0 
1 1 21:1 
1 0 19:1 20:1 
1 0 2:1 5:1 21:1 
1 0 1:-0.125 12:1 13:1 15:0.125 19:2 
1 1 1:-0.75 20:1 
1 0 19:1 
1 0.3169327347439487 1:-0.375 14:1 15:-0.375 20:1 21:1 
0.2142240674670901 0 19:1 24:1 53:1 
1 0 19:1 
1 0 
1 0 42:1 
1 0 1:-0.125 14:1 15:-0.125 20:1 21:1 49:1 66:1 
1 0 24:1 
1 1 20:1 
1 1 20:1 21:1 
1 0.05249239299520806 1:0.125 13:1 15:0.125 19:1 24:1 35:1 
1 0 1:-0.875 14:1 15:-0.125 20:1 24:1 
1 0 1:0.125 13:1 15:0.125 19:1 20:1 21:3 24:1 
1 1 20:1 
1 0 1:0.125 13:1 15:0.125 20:1 
1 0 24:1 
1 0 12:1 20:2 21:1 91:1 
1 0.4956533897654833 1:0.25 13:1 15:0.25 20:1 21:1 
1 0 19:1 
1 0 
0.8956816926174275 0 1:0.125 13:1 15:0.125 19:1 20:1 93:1 
1 0 
1 0 
1 1 1:-0.25 14:1 15:-0.25 24:1 
1 1 20:1 
1 0 1:0.125 13:1 15:0.125 21:1 24:1 34:1 
1 0 
1 0 24:1 
1 0.2782630676100196 1:-0.25 12:1 14:1 15:-0.125 19:1 20:2 21:1 
1 0 
1 0 24:1 
1 1 20:1 
1 0 13:1 14:1 20:2 
1 0 19:1 20:1 
1 0 19:1 24:1 
1 0 12:1 21:1 
1 0 2:1 5:1 20:1 
0 1 1:0.5 13:1 15:0.5 19:2 20:1 21:1 
0 0.02887587349557985 1:-0.125 14:1 15:-0.125 20:1 21:2 49:1 66:1 82:1 
1 0 2:0.5 5:1 24:1 
0.8262288201031986 0 20:1 21:1 92:1 
1 0 
1 0 
1 0 19:1 
0 0.006804990562386708 1:0.75 13:2 15:0.75 19:2 20:1 76:1 
1 0 19:1 
1 0 1:-0.125 14:1 15:-0.125 21:2 42:1 79:1 
1 0.03035335625996731 1:-0.375 14:1 15:-0.375 24:1 
1 0 1:-0.125 14:1 15:-0.125 24:1 
1 1 12:1 20:1 21:1 
0.4228779621283515 0 1:0.125 13:1 15:0.125 17:1 19:1 25:1 
1 0 
1 0 
1 0 1:0.375 13:2 15:0.375 19:1 20:1 21:3 
1 0 
1 0.797315650143643 1:-0.625 13:1 15:0.125 20:1 
1 0 12:1 20:2 21:1 91:1 
1 0 
1 1 20:1 
1 0 19:1 
1 0 19:1 
1 0 
1 1 20:1 
1 0 1:0.125 13:1 15:0.125 19:1 85:1 
0.9255119988762794 0 1:0.125 13:1 15:0.125 17:1 19:1 20:2 25:1 
1 0 24:1 
1 1 1:0.25 13:1 15:0.25 21:1 
1 0 24:1 
1 0 1:0.125 13:1 15:0.125 19:1 20:1 
1 0 19:1 21:3 24:1 56:1 75:1 
1 1 20:1 
1 0 24:1 
1 0.7541210735044519 19:1 24:1 43:1 
1 0 24:1 
1 0 1:-0.375 12:1 14:1 15:-0.125 19:2 20:1 70:1 
1 1 20:1 
1 0 1:-0.875 14:1 15:-0.125 20:1 24:1 
0 1 24:1 81:1 
1 0 1:-0.125 14:1 15:-0.125 19:1 70:1 
1 0 12:1 20:2 21:1 91:1 
1 1 21:1 
1 0 12:1 20:2 21:1 91:1 
1 1 21:1 
0.9608067575998951 0 10:1 19:1 46:1 
1 0 
1 0.02743824458686434 1:-0.75 14:1 15:-0.75 20:1 24:1 
1 1 20:1 
0.4794273146133193 0 1:0.125 13:1 15:0.125 19:1 90:1 
1 0 1:-0.125 14:1 15:-0.125 20:1 21:1 49:1 66:1 
1 1 20:1 
1 1 1:0.125 13:1 15:0.125 21:1 
1 0 19:1 
1 0 1:-0.25 14:1 15:-0.125 19:2 
1 0 19:1 20:1 88:1 
1 0 12:1 17:1 20:1 21:1 25:1 
1 0 
1 0 1:-0.125 14:1 15:-0.125 20:1 66:1 
1 1 1:-0.5 14:1 15:-0.5 20:1 
1 1 20:1 
1 0 
1 0 1:-0.875 8:1 14:1 15:-0.125 20:1 24:1 78:1 
1 1 1:0.25 12:1 13:1 15:0.25 20:1 21:1 
1 0 
1 0 1:0.25 13:1 15:0.25 19:1 24:1 
1 1 1:0.25 13:1 15:0.25 19:2 
1 0 
0 1 92:1 
1 0.8608448719485485 1:-1 14:1 15:-0.5 20:1 
1 0 1:0.125 13:1 14:1 15:0.125 21:1 24:1 79:1 
0 1 1:0.625 13:2 15:0.625 19:2 20:1 
1 0 1:-0.125 14:1 15:-0.125 20:1 21:1 49:1 66:1 
1 0.1891624977902575 1:0.25 13:1 15:0.25 19:2 20:1 
0 0.03371820184774255 19:1 24:1 35:1 43:1 
1 0 1:0.125 13:1 15:0.125 20:1 
1 0 24:1 
1 0 
1 0 2:1 5:1 19:1 
1 1 20:1 
1 0 19:1 
0 1 1:0.25 13:1 15:0.25 20:2 
1 0 24:1 
1 0 21:2 92:1 
1 0 1:-0.625 14:1 15:-0.625 19:1 24:1 
1 0 1:-0.5 2:0.33333333 5:1 14:1 15:-0.5 17:3 20:1 24:1 27:1 
1 0 19:1 20:1 39:1 
0 0.1953052141045692 76:1 
1 0 24:1 
1 1 20:1 
0.9627827798226893 0 24:1 48:1 
1 1 20:1 
1 0 1:-0.125 12:1 21:1 76:1 
1 0 19:1 
1 0 19:2 
1 0.6282870811986309 19:1 21:1 
1 0 19:1 
0 0.02868404942142246 1:0.5 13:1 15:0.5 24:1 
1 0 1:-0.875 12:1 14:1 15:-0.75 21:1 24:1 
1 0 20:1 24:1 
1 0.4090957814701217 1:-0.75 12:1 20:1 21:1 
1 1 20:2 
0 0.9717460178464726 1:0.375 13:1 15:0.375 20:1 62:1 
1 1 1:-0.875 14:2 15:-0.875 20:1 24:1 
1 0 19:1 
1 0 20:1 21:1 24:1 
1 0 12:1 20:2 21:1 91:1 
1 0 
1 0 12:1 20:2 21:1 91:1 
1 0.09016212023636473 1:0.375 12:1 13:2 15:0.375 20:1 21:1 24:1 
-0 0.9661660470445778 17:1 19:1 20:1 25:1 
1 0.4961476202650246 1:-0.125 14:1 15:-0.125 20:1 21:1 82:1 
1 0 19:1 
1 1 20:1 
1 0 24:1 
1 0.04207360910699031 1:-0.25 14:1 15:-0.25 19:2 20:1 21:1 
1 0 1:0.125 13:1 15:0.125 20:1 
0.8335711568423463 0 20:1 96:1 
1 0 19:1 43:1 
1 0 24:1 
1 1 20:1 
1 0 
1 0 24:1 
1 0 19:1 
1 0 
1 1 20:1 
1 0 24:1 
1 0 1:-0.125 14:1 15:-0.125 20:1 21:1 49:1 66:1 
1 1 20:1 
1 0 
1 0 
1 1 
1 0 1:-0.125 14:1 15:-0.125 19:1 70:1 
1 0 1:-0.75 20:1 39:1 
0 1 1:0.5 13:1 15:0.5 19:2 
1 1 1:0.375 13:1 15:0.125 20:2 
1 0 19:1 
1 0 1:-0.875 12:1 14:1 15:-0.875 21:1 24:1 31:1 
1 0 1:0.125 13:1 15:0.125 17:1 19:1 25:1 
0 0.06720736694909292 1:0.375 13:1 15:0.375 24:1 
1 1 20:2 
1 0 13:1 14:1 21:1 24:1 79:1 
1 1 21:1 
1 0 1:-0.125 14:1 15:-0.125 24:1 41:1 
1 0.3474832606744274 1:-0.125 2:1 4:1 5:1 14:1 15:-0.125 24:1 
1 0 19:1 24:1 35:1 
1 0.9397613259660484 1:-0.875 12:1 14:1 15:-0.875 20:1 21:1 24:1 31:1 
1 0.6472132280898214 1:0.125 13:1 15:0.125 16:1 24:2 34:1 
1 0 24:1 
1 1 
1 1 1:0.125 13:1 15:0.125 24:1 
1 1 20:1 
1 0 19:2 20:1 24:1 53:1 
1 1 
1 1 
0 0.001063660650893003 2:0.66666667 5:1 17:3 20:2 27:1 
1 0 1:-0.375 14:1 15:-0.375 
1 0 1:0.375 13:1 14:1 15:0.375 19:2 24:2 59:1 
1 1 20:1 
1 0 19:1 24:1 
1 0.2456137947397762 19:1 21:1 53:1 
1 0 1:0.125 13:1 15:0.125 20:1 
1 0 19:1 24:1 53:1 
1 0 1:0.125 13:1 15:0.125 19:1 
1 0 19:1 
1 0 19:1 
1 0 1:-0.125 14:1 15:-0.125 19:1 70:1 
1 0 1:-0.625 14:1 15:-0.625 24:1 
1 0 24:1 
1 0 12:1 20:2 21:1 91:1 
1 0 19:1 
0.2228465832544709 0.2962815231992713 19:1 20:1 24:1 35:1 
1 1 50:1 
1 0 24:1 
1 0 1:-0.625 14:1 15:-0.625 19:1 20:1 
0 0.04810815122637942 1:0.75 13:1 15:0.75 24:1 
1 1 21:1 
1 1 
1 1 
1 0.009103377809740453 1:0.125 12:1 13:1 15:0.375 17:4 20:1 21:1 62:1 
1 0 1:-0.625 14:2 15:-0.625 20:2 21:1 49:1 66:1 
0 0.3116605626227137 19:1 53:1 
1 1 20:1 21:1 
1 1 20:1 
1 0 1:0.125 13:1 15:0.125 20:1 
0 0.1304098094892936 1:0.25 13:1 15:0.25 24:1 
1 0 19:1 
0 0.83171432820039 17:1 19:1 25:1 
1 0 1:0.125 13:1 15:0.125 19:1 90:1 
1 1 
0 1 1:0.375 13:1 15:0.375 20:1 62:1 
1 0 1:-0.25 17:1 19:1 25:1 
1 1 21:1 
1 1 21:1 
1 0 21:3 24:1 34:1 
1 0 12:1 20:2 21:1 91:1 
0 1 1:0.375 13:1 15:0.375 20:1 62:1 
1 0 19:1 20:1 
1 0 1:-0.25 14:1 15:-0.25 19:1 21:1 24:1 
1 0 21:1 24:1 34:1 
1 0 24:1 
1 0 19:2 20:1 
1 1 20:1 
1 0 24:1 48:1 
1 0 13:1 14:1 19:1 24:1 90:1 
1 0 19:1 
0 1 92:1 
1 1 19:1 21:3 24:1 35:1 53:1 
1 1 1:0.125 13:1 15:0.125 19:1 
1 1 20:2 
1 0 20:1 24:1 
0.6612984732913897 0 19:1 24:1 78:1 
1 0 1:-0.875 7:1 13:1 14:2 15:-0.375 19:1 20:1 21:2 79:1 
1 1 1:-0.375 14:1 15:-0.375 20:1 
0 0.02471209324153067 1:0.375 13:1 15:0.375 24:1 
1 0 1:-1 12:1 14:1 15:-0.875 21:1 24:1 31:1 
1 0 1:-0.25 13:1 14:2 15:-0.25 19:2 24:2 79:1 85:1 
1 0 12:1 20:2 21:1 91:1 
1 0.07656256490353779 1:0.375 13:1 14:1 15:0.375 19:2 20:1 
1 1 1:-0.125 14:1 15:-0.125 20:1 
1 0 1:0.125 13:1 15:0.125 20:1 
1 0 19:1 
1 0 24:1 
0 0.8597606496593051 17:1 20:1 25:1 
1 0 1:0.25 13:1 14:1 15:0.25 19:2 20:1 
1 1 20:1 
1 0 1:0.125 13:1 15:0.125 19:2 
1 0 19:1 20:1 
1 1 1:-0.5 14:1 15:-0.5 20:1 
1 0 19:1 
1 1 
1 0 19:1 76:1 
1 1 20:1 
0 0.1469135297976893 1:0.75 13:1 15:0.75 19:1 24:1 
1 1 24:1 
1 1 20:1 
1 0.5279830716703202 1:-0.375 14:1 15:-0.375 20:1 24:1 
1 0 1:-0.25 14:1 15:-0.25 19:1 
1 0 19:1 76:1 
0.8291511736762719 0 19:1 20:2 39:1 
1 0 12:1 20:2 21:1 91:1 
1 0 1:-0.125 14:1 15:-0.125 20:1 21:1 24:1 79:1 
1 0 13:1 15:0.125 19:1 21:3 90:1 
1 1 1:0.125 13:1 15:0.125 24:1 
1 1 
1 0 1:-0.25 14:1 15:-0.25 20:2 
1 0 1:-1.25 14:1 15:-0.5 20:1 24:1 
1 1 
1 0 1:-0.625 14:1 15:-0.625 24:1 
1 0 1:-0.125 14:1 15:-0.125 20:1 24:1 83:1 
1 0 1:-0.375 14:1 15:-0.375 
1 1 
1 0 21:1 24:1 52:1 
1 0 1:-0.125 14:1 15:-0.125 20:1 24:1 66:1 
1 1 24:1 
1 0 13:1 14:1 20:1 24:1 33:1 94:1 
1 0.02480836510209905 1:-0.375 12:1 14:1 15:-0.25 21:1 24:1 
1 1 1:0.25 12:1 20:1 21:1 
1 0.2447102112190322 13:1 15:0.125 17:1 18:1 19:3 20:1 25:1 
1 1 24:1 
0 0.05665937885910322 1:0.875 13:2 15:0.875 19:1 20:1 
1 0 19:1 
0 0.02906015252026223 1:-0.125 2:0.5 5:1 17:1 19:1 25:1 
1 0.05976532023764321 1:-0.375 14:1 15:-0.375 19:1 20:2 
1 1 20:2 
1 1 
1 0.9185235634324332 1:-0.125 12:1 21:1 
1 0 12:1 20:2 21:1 91:1 
1 1 
1 1 1:-0.75 14:1 15:-0.75 19:2 20:1 21:3 
1 1 20:1 
1 1 
1 0 1:-0.75 12:1 14:1 15:-0.75 20:3 21:1 91:1 
0.2899836884967493 0 13:1 14:1 20:2 24:1 94:1 
1 0 19:1 
1 0 20:1 21:3 96:1 
1 0 19:2 
1 1 20:1 21:1 
1 1 1:0.125 13:1 15:0.125 19:1 
1 1 24:1 
1 0 12:1 20:2 21:1 91:1 
1 0 19:2 20:1 24:1 
1 0 1:0.375 13:1 14:1 15:0.375 19:1 24:1 69:1 
1 0 19:1 24:1 35:1 
1 0 1:-0.125 20:1 24:1 
1 1 20:1 21:1 
1 1 1:0.375 13:1 14:1 15:0.375 19:2 20:1 
0.248975618656848 0 20:1 96:1 
1 0 19:1 
1 1 20:1 
0 0.1183993444324922 1:0.5 13:1 15:0.5 16:1 19:1 20:1 24:1 28:1 
1 0 12:1 20:2 21:2 91:1 
1 0 19:1 
1 0 1:0.125 13:1 15:0.125 20:1 
1 0 19:3 
1 1 
1 1 20:1 21:1 
0.8069877315046512 0 24:1 54:1 
1 1 
0.850256989853595 0 58:1 
1 0 19:1 
0 0.8618862959075599 20:2 91:1 
1 0.6972754063382297 19:1 
1 1 20:1 
1 1 20:2 
1 1 20:1 
1 1 19:1 
1 1 19:1 
0 1 17:1 24:1 25:1 
1 1 12:1 20:1 21:1 
1 1 20:1 
0 0.02952062108728885 1:0.375 10:1 13:1 15:0.375 16:1 24:1 33:1 46:1 92:1 98:1 
1 0 1:0.125 13:1 15:0.125 19:2 85:1 
1 0 19:2 
1 1 1:0.125 13:1 15:0.125 19:2 21:1 
1 1 24:1 
1 1 
1 1 
1 0 1:0.125 13:1 15:0.125 20:1 
1 1 20:1 
1 1 19:1 
1 1 1:-0.375 14:1 15:-0.375 24:1 
1 0.7509189518328325 1:0.125 13:2 14:1 15:0.125 19:2 20:1 24:1 
1 0 2:1 5:1 19:1 
0 0.89350914497872 20:1 24:1 81:1 
1 1 21:1 
1 1 20:1 
0 0.0142529826652519 1:0.625 13:2 15:0.625 17:4 19:3 20:3 26:1 69:1 
0.07010112060216817 0 20:1 89:1 
0 1 1:0.375 13:1 15:0.375 19:1 
1 1 
0 1 1:0.5 13:1 15:0.5 
1 0 12:1 19:1 20:2 21:1 91:1 
1 1 19:1 
1 1 21:1 
1 1 1:0.5 13:2 15:0.5 19:2 20:1 
1 0 1:-0.125 19:1 24:1 
1 0.9456145296167049 19:1 20:1 
1 1 20:1 
1 1 20:1 
1 0 21:1 24:1 
0 0.02268735973171411 1:0.5 13:2 15:0.5 21:1 24:1 
1 0.01468839354189868 1:0.125 13:1 15:0.125 20:1 21:3 76:1 
1 1 19:1 20:1 
0.5311666612757242 0 58:1 
1 1 19:1 20:1 
1 0 19:1 88:1 
1 0.2699997807966389 1:-0.75 14:1 15:-0.75 17:2 19:1 20:1 24:1 26:1 
1 0 1:-0.625 12:1 13:1 15:0.125 19:2 20:4 21:5 34:1 93:1 
1 1 
1 0 1:-0.125 14:1 15:-0.125 19:1 70:1 
1 1 21:1 
1 1 
1 0 20:1 24:1 
0.3860473585841365 0 19:1 88:1 
1 0 19:2 
0 0.7807738004747393 17:1 19:1 25:1 
0.951488152028708 0 19:1 24:1 35:1 
1 0.3632564475564862 19:1 43:1 
1 0.004493532869121235 1:-0.125 12:1 14:1 15:-0.125 17:1 20:2 21:1 25:1 
0.56581520030183 0 1:0.125 13:1 15:0.125 19:1 90:1 
1 0 1:-0.125 13:1 15:0.125 20:1 24:1 
1 0.01694976735186771 1:0.125 2:0.1 5:1 12:1 13:1 15:0.125 17:1 19:1 20:2 21:4 25:1 98:1 
1 0.1730327225506933 1:-0.25 13:1 14:1 15:-0.25 20:1 24:2 
1 1 
1 1 
1 1 
1 1 24:1 
1 1 24:1 
1 1 20:1 
1 0 1:0.25 13:1 14:1 15:0.25 19:1 20:1 69:1 
1 1 24:1 
1 0.8977350722125086 19:1 21:1 
1 1 1:-0.125 14:1 15:-0.125 20:1 
1 0.1481660861278765 1:-0.375 14:2 15:-0.375 16:1 17:1 19:1 20:2 21:1 24:1 25:1 34:1 
1 0 1:0.125 13:1 15:0.125 20:1 
1 1 
1 1 1:-0.875 14:1 15:-0.875 24:1 
0 1 1:0.375 13:1 15:0.375 19:1 
1 1 20:1 
1 1 1:0.125 13:1 15:0.125 19:1 
1 0 1:0.125 13:1 15:0.125 24:2 74:1 
1 1 19:1 
1 1 20:1 
1 1 
1 1 24:1 
1 1 
1 0.2286223892263492 1:0.375 13:1 14:1 15:0.375 19:2 20:1 21:1 82:1 
1 0 24:1 48:1 
0 0.9530416761290201 98:1 
1 1 24:1 
1 0 19:1 24:1 
1 1 19:1 
1 1 20:1 
1 0 1:-0.75 19:1 20:1 
1 1 
1 1 20:1 
1 1 
1 1 1:-0.375 14:1 15:-0.375 20:1 
1 0 1:-0.125 14:1 15:-0.125 21:1 24:1 74:1 79:1 
1 0 19:2 20:2 21:3 
0.6954604769460042 0 1:0.25 13:1 15:0.25 17:2 19:1 20:1 21:3 26:1 
1 1 
1 0 1:-0.125 14:1 15:-0.125 24:1 41:1 
1 1 20:1 
1 0 1:0.125 13:1 15:0.125 19:1 21:1 24:2 
0 1 24:1 81:1 
1 0.8353697148556922 19:1 20:2 
1 1 
1 1 
0 0.05803101842190735 1:0.5 13:1 15:0.5 20:1 
1 0 19:1 20:1 21:1 24:1 
1 0.266961279411751 1:0.125 13:1 15:0.125 20:1 
1 1 
1 1 
0.6101024469993944 0 17:2 19:3 21:3 24:1 26:1 56:1 75:1 
0.03788035976589199 0 20:1 96:1 
1 0.6226694296830707 19:1 21:3 
1 1 24:1 
1 0 1:-0.125 14:1 15:-0.125 20:2 
1 1 
1 0 12:1 17:1 19:2 20:1 21:1 25:1 
1 0 1:0.125 2:1 3:1 5:1 13:1 15:0.125 19:1 85:1 
1 0 19:2 
1 0.2041698198523485 1:0.125 13:1 15:0.125 20:1 21:1 34:1 
1 1 1:0.125 13:1 15:0.125 20:1 
0 0.9784804060936326 92:1 
1 1 20:1 
1 1 
1 0 1:-0.125 14:1 15:-0.125 19:1 70:1 
1 0 2:0.5 5:1 12:1 20:2 21:1 24:1 91:1 
1 0 19:1 24:1 
0 0.4524333471422084 1:0.125 13:1 15:0.125 17:2 19:1 20:1 26:1 
1 1 19:1 20:1 
1 1 
1 0.9295923143134293 19:1 24:1 
1 1 20:1 
1 0 19:2 75:1 
1 0 12:1 20:2 21:1 91:1 
1 1 1:0.125 13:1 15:0.125 24:1 
0.3564710362197142 0 20:1 24:1 83:1 
1 1 21:1 
1 0 1:0.375 13:3 15:0.375 19:1 20:3 85:1 93:1 
1 0.8057426316636775 1:-0.75 20:1 
1 0 19:2 
1 0.7336716575287558 1:-0.125 13:1 14:1 15:-0.125 19:2 21:1 24:1 43:1 
1 1 
0 1 1:0.5 13:1 15:0.5 20:1 
1 1 24:1 
1 1 20:1 
1 0 1:-0.375 14:1 15:-0.375 19:2 
1 1 
1 0 1:0.25 12:1 13:1 15:0.25 21:1 24:1 45:1 
1 1 19:1 20:1 
1 1 20:1 
1 1 20:2 
1 1 24:1 
1 0 1:0.125 13:1 15:0.125 19:2 90:1 
1 1 12:1 19:1 21:4 
1 0.1694638641253826 1:0.25 13:1 15:0.25 19:2 24:1 
1 0 12:1 21:2 24:1 
1 0.5555209642882873 1:-0.25 12:1 13:1 15:0.125 19:2 24:1 
1 0.7197837747885162 1:-0.625 13:1 14:1 15:-0.625 20:1 24:1 
1 0 12:1 20:2 21:1 91:1 
1 1 19:1 
1 1 19:1 
1 1 19:1 
1 0 1:-0.375 12:1 14:1 15:-0.25 17:1 19:1 21:1 25:1 
1 1 21:1 
1 1 24:1 
1 1 
1 1 20:1 
0.8082910198891337 1 1:0.25 13:1 15:0.25 21:1 
1 1 12:1 21:1 
1 0 1:-0.75 24:1 34:1 
1 0 2:1 5:1 20:1 
1 1 19:1 
1 1 19:1 
1 1 20:1 
1 1 21:1 
0 0.9736220419145702 20:2 91:1 
1 0.8517699592489556 1:-0.125 14:1 15:-0.125 20:1 21:1 49:1 66:1 
1 0.9612977041322617 1:-0.25 14:1 15:-0.25 20:3 
1 0 1:-0.75 20:2 
1 0 1:-0.75 14:1 15:-0.75 20:1 
1 1 
1 1 19:1 
1 1 19:1 20:1 
1 1 
1 1 
1 0 1:-0.125 14:1 15:-0.125 24:1 41:1 
1 0 1:-0.5 2:0.5 5:1 14:1 15:-0.5 20:1 24:1 
1 0 1:-0.375 2:1 4:1 5:1 14:1 15:-0.375 
1 0.7551976718686347 21:1 83:1 
1 1 20:1 
1 0.5460831743825006 1:0.25 19:3 20:1 
1 0 1:-0.125 14:1 15:-0.125 19:1 21:1 70:1 
1 0 2:1 5:1 19:1 24:1 
1 1 19:1 
1 0 1:-0.375 14:1 15:-0.375 17:2 19:1 20:1 26:1 
1 0 1:-0.125 14:1 15:-0.125 20:2 
1 1 
0.1757017504031947 0 1:0.125 13:1 14:1 15:0.125 21:1 24:1 45:1 79:1 
1 1 19:1 
1 0 1:-0.375 14:1 15:-0.375 20:2 
1 1 24:1 
1 0.07422689457049657 1:-0.125 14:1 15:-0.125 19:2 20:1 21:1 49:1 66:1 75:1 
1 0 1:-0.125 13:1 14:1 15:-0.125 21:1 24:1 45:1 
1 0 1:-0.25 14:1 15:-0.25 17:1 19:1 20:1 21:3 24:1 25:1 
1 1 19:1 
1 1 20:1 
1 0 1:-0.125 14:1 15:-0.125 19:1 20:1 
1 0 12:1 20:2 21:1 91:1 
1 1 1:-0.5 14:1 15:-0.5 20:1 
1 0 24:1 54:1 
1 1 
1 1 1:-0.375 14:1 15:-0.375 20:1 94:1 
1 1 20:1 
0 1 1:0.375 13:1 15:0.375 20:1 44:1 
0 0.02923015143530961 1:0.25 13:1 15:0.25 24:1 
1 0 1:-0.25 14:1 15:-0.25 21:1 
0.1242534592667804 0 1:-0.125 14:1 15:-0.125 19:1 70:1 
1 0.1118138208358326 1:-0.75 14:1 15:-0.75 20:1 24:1 
1 1 19:1 
1 1 24:1 
1 0.9630873063715403 12:1 20:2 21:1 91:1 
1 1 20:1 
0 1 17:1 24:1 25:1 
0 0.147777439703338 1:0.375 13:1 15:0.375 19:1 20:1 24:1 
1 0 19:2 24:1 56:1 
1 1 20:1 
0.5865076840081533 0 1:-0.125 14:1 15:-0.125 24:1 41:1 
1 0.5728319720864514 19:1 
0 0.6246155968340343 1:0.625 13:1 15:0.625 19:2 24:1 
1 0 19:1 20:1 21:3 
0.1473555363408168 0.0211893871033228 17:1 24:2 25:1 
0 1 1:0.375 13:1 15:0.375 20:1 62:1 
-1 0 1:0.125 13:1 15:0.125 19:1 21:1 85:1 
-0.7921980416495928 0 12:1 21:1 
-1 0 1:0.125 13:1 15:0.125 20:1 21:1 60:1 
-1 0 12:1 20:2 21:1 
-1 0 24:1 
-1 0 1:-0.75 20:1 
-1 0 1:0.375 12:1 13:1 15:0.5 20:1 21:1 
-1 0 1:-0.125 14:1 15:-0.125 20:2 
-1 1 1:0.5 13:1 15:0.5 24:1 
-1 0 19:1 
-1 0 19:1 20:1 
-1 0 1:-0.75 14:1 15:-0.75 24:1 
-1 0 12:1 20:2 21:1 
-1 0 19:2 20:1 24:1 29:1 35:1 
-1 0 1:0.25 12:1 13:1 15:0.25 21:1 24:1 
-1 0 19:1 
-1 0 20:1 
-1 0 21:1 
-1 0 42:1 
-1 0 1:0.125 13:1 15:0.125 19:1 85:1 
-1 0 20:1 
-1 0 20:1 
-1 0 1:-0.375 14:1 15:-0.375 24:1 
-1 0 1:-0.75 20:1 
-1 0 1:-0.5 14:1 15:-0.5 20:2 
-1 0 12:1 20:1 21:1 39:1 
-1 0 1:0.125 13:1 15:0.125 17:2 19:1 20:1 26:1 60:1 
-1 0.5681726043547582 1:-0.375 14:2 15:-0.375 19:1 24:1 
-1 0 
-1 0 1:-0.25 14:1 15:-0.25 20:1 
-1 0 1:-0.625 14:1 15:-0.625 19:1 
-1 0 19:1 
-1 0 20:1 
-1 0 19:1 
-1 0 
-1 0 1:-0.75 20:1 
-1 0.04663283755805446 1:0.25 2:0.5 3:1 5:1 13:1 15:0.25 16:1 20:1 21:1 
-1 0 9:1 73:1 
-1 0 19:2 
-1 0 21:1 
-1 0 19:1 24:1 
-1 0 21:1 24:1 82:1 
-1 0 1:-0.25 14:1 15:-0.25 19:1 
-1 0.03882653787802212 1:-1.375 14:1 15:-0.625 20:1 71:1 
-0.1499538158104969 0 1:-0.875 14:1 15:-0.875 24:1 31:1 
-1 0 1:-0.375 14:1 15:-0.375 24:1 
-1 0 17:1 19:1 25:1 
-1 0 
-1 0 21:1 
-1 0 1:-0.25 14:1 15:-0.25 20:1 
-1 0 19:1 
-1 0 19:1 20:1 
-1 0 1:-0.75 20:1 
-1 0 
-1 0.9737956374387133 1:0.875 13:1 15:0.875 24:1 
-1 0.1414112817271403 1:0.5 13:1 14:1 15:0.5 17:2 19:1 20:2 26:1 
-1 0.01306380162217572 20:2 38:1 91:1 
-1 0 24:1 
-1 0 20:1 
-1 0 1:0.125 13:1 15:0.125 19:2 
-1 0 17:1 25:1 
-1 0 
-1 0 2:0.5 5:1 17:3 
-1 1 1:0.625 13:1 15:0.625 24:1 
-1 0 20:1 21:1 
-1 0 19:2 21:3 24:1 
-1 0 12:1 20:2 21:1 
-1 0 
-1 0 1:-0.5 14:1 15:-0.5 24:1 
-1 0 1:-0.625 14:1 15:-0.625 24:1 
-1 0 20:1 
-1 0 20:1 21:1 
-1 0 21:1 
-1 0 20:1 
-1 0 20:1 
-1 0 12:1 20:1 21:1 
-1 0 1:0.125 13:1 15:0.125 24:1 
-1 0 1:-0.125 13:1 15:0.125 21:1 24:1 
-1 0 1:-0.875 14:1 15:-0.875 21:1 
-1 0 20:1 
-1 0 1:0.125 13:1 15:0.125 19:1 85:1 97:1 
-1 0.3034328727384702 1:-0.875 14:1 15:-0.875 17:1 24:1 25:1 31:1 
-1 0 12:1 20:1 21:1 
-1 0 
-1 0 1:-0.125 14:1 15:-0.125 19:1 
-1 0 42:1 
-1 0 2:1 5:1 
-1 0 
-1 0 1:-0.75 19:1 20:1 
-1 0 24:1 
-1 0 24:1 
-1 0 12:1 20:1 21:1 
-1 0 1:-0.25 14:1 15:-0.25 17:1 19:1 24:1 25:1 50:1 
-1 1 21:1 
-1 0 2:1 5:1 
-1 0 1:0.5 12:1 13:1 15:0.5 19:3 20:1 21:1 
-1 0 1:-0.375 14:1 15:-0.375 20:1 
-1 0 24:1 
-1 0 1:-0.625 14:1 15:-0.625 24:1 
-1 0 1:-0.25 14:1 15:-0.25 21:3 24:1 
-1 0 20:1 
-1 0 50:1 
-1 0 1:-0.375 14:1 15:-0.375 24:1 
-1 0 12:1 20:2 21:1 
-1 0 24:1 
-1 0 1:0.125 13:1 15:0.125 20:1 
-1 0 24:1 
-1 0 2:0.16666667 5:1 19:2 20:4 50:1 
-1 0 20:1 50:1 
-1 0 1:-0.25 14:1 15:-0.25 19:1 24:1 
-1 0 1:0.25 12:1 13:1 15:0.25 20:1 21:1 45:1 
-1 0 1:0.125 13:1 15:0.125 20:1 
-1 0.1941099997778192 19:1 24:1 75:1 
-1 0 1:-0.625 13:1 14:1 15:-0.625 20:1 24:1 84:1 
-1 0 19:1 20:1 
-1 0 1:-0.25 14:1 15:-0.25 20:2 
-1 0 1:-0.75 14:1 15:-0.75 24:1 
-1 0 1:-0.25 14:1 15:-0.25 20:1 
-1 0 
-1 0 1:-0.5 14:1 15:-0.5 61:1 
-1 0 20:1 24:1 
-1 0 20:1 
-1 0 1:0.25 13:1 15:0.25 20:1 
-1 0 1:-0.25 14:1 15:-0.25 
-1 0 1:-0.125 14:1 15:-0.125 24:1 
-1 0 1:0.25 13:1 15:0.25 24:1 
-1 0 12:1 20:1 21:1 
-1 0 19:1 
-1 1 19:3 20:1 53:1 75:1 
-1 0 20:1 
-1 0 20:1 
-1 0 20:1 
-1 0 20:1 
-1 0.5787027015706119 1:0.25 13:1 15:0.25 19:2 20:1 24:1 
-1 0.02262672572110062 1:-0.625 14:1 15:-0.625 20:2 22:1 
-1 0 1:-0.5 14:1 15:-0.5 61:1 
-1 0 
-1 0 12:1 20:1 21:1 
-1 0 20:1 
-1 0 
-1 0 1:-0.25 14:1 15:-0.25 19:1 20:1 
-1 0 
-1 0 19:1 
-1 0.9029482958998211 1:0.125 13:1 15:0.125 19:2 20:1 
-1 0 1:0.125 13:1 15:0.125 20:1 
-1 0 1:-0.75 14:1 15:-0.75 24:1 
-1 0 20:1 65:1 
-1 0 1:-0.25 14:1 15:-0.25 20:1 
-1 0 1:-0.125 14:1 15:-0.125 20:1 
-1 0 19:1 24:1 73:1 
-1 0 20:1 
-1 0 1:-0.625 14:1 15:-0.625 20:1 
-1 0.2640407900607825 1:-0.875 14:1 15:-0.875 20:1 24:1 31:1 
-1 0 1:0.125 13:1 15:0.125 19:1 20:1 85:1 
-1 0 1:0.125 13:1 15:0.125 19:1 85:1 
-1 0 20:1 
-1 1 1:0.625 13:1 15:0.625 19:1 24:1 
-1 0 1:0.125 13:1 15:0.125 19:1 85:1 
-0.5535609926213206 0 1:0.125 12:1 13:1 15:0.125 20:2 21:1 
-1 1 21:1 
-1 0 1:-0.25 14:1 15:-0.25 20:1 
-1 0 2:1 5:1 
-1 0 1:-0.25 14:1 15:-0.25 19:1 20:1 
-1 0 19:1 
-1 0 1:0.125 13:1 15:0.125 19:1 
-1 0 1:-0.25 14:1 15:-0.25 19:1 
-1 1 1:0.375 13:1 15:0.375 20:1 
-1 0 12:1 20:1 21:1 
-1 0 1:-0.75 14:1 15:-0.75 19:1 
-1 0 1:-0.875 14:1 15:-0.875 24:1 
-1 0 
-1 1 21:1 
-1 1 21:1 
-1 0.7345036245717902 12:1 21:3 82:1 
-1 0 19:1 
-1 0 1:-0.25 2:0.5 5:1 19:1 24:1 
-1 0 20:1 
-1 0 1:0.25 13:1 15:0.375 21:1 24:1 
-1 1 1:0.75 13:1 15:0.75 20:2 
-1 1 21:1 
-1 0 1:-0.375 14:1 15:-0.375 19:1 24:1 
-1 0 19:1 20:1 24:1 
-1 0 2:1 5:1 
-1 0 1:-0.875 2:1 4:1 5:1 14:1 15:-0.875 24:1 31:1 
-1 0 20:1 21:1 
-1 0 2:1 5:1 
-1 0 20:1 
-1 0 19:1 
-1 0 20:1 21:1 
-1 0 12:1 20:1 21:1 
-1 0 
-1 0 20:1 
-1 0 20:1 
-1 0 1:-0.5 14:1 15:-0.5 20:1 
-1 1 1:0.625 13:2 15:0.625 19:1 24:1 
-1 0 16:1 18:2 19:1 
-1 1 1:-0.25 2:0.25 5:1 12:1 19:3 53:1 
-1 0 19:1 
-1 0 1:0.25 12:1 13:1 15:0.25 21:1 24:1 
-1 0 1:-0.75 14:1 15:-0.75 17:3 19:1 
-1 0 1:-0.75 14:1 15:-0.75 19:1 
-1 0 24:1 
-1 1 21:1 
-1 0 24:1 
-1 0 20:1 
-1 0 12:1 20:2 21:1 
-1 0 
-1 0 1:-0.25 14:1 15:-0.25 
-1 0 
-1 0 20:1 
-1 0 1:-0.25 14:1 15:-0.25 21:1 
-1 0 19:1 
-1 0 2:1 5:1 19:1 
-1 0 1:-0.375 14:1 15:-0.375 24:1 
-1 0 1:-0.625 14:1 15:-0.625 86:1 
-1 0 24:1 
-1 0 1:0.375 14:1 15:-0.125 19:1 20:1 24:1 
-1 0 2:0.5 5:1 21:1 24:1 
-1 0 1:0.25 13:1 15:0.25 20:1 
-1 0 19:1 
-1 0 12:1 20:2 21:1 91:1 
-1 0 24:1 
-1 0 19:1 
-1 0 20:1 
-1 0 1:-0.25 14:1 15:-0.25 24:1 
-1 0 19:1 
-1 0 1:-0.75 14:1 15:-0.75 19:1 
-1 1 1:0.375 13:1 15:0.375 20:1 
-1 1 21:1 
-1 0 17:1 19:1 25:1 
-1 0 
-1 0 1:-0.25 16:1 21:1 
-1 0 
-1 0 1:-0.125 14:1 15:-0.125 20:1 
-1 0 12:1 20:1 21:1 
-1 0 19:1 21:3 
-1 0 1:0.375 12:1 13:1 15:0.375 20:1 21:1 24:1 
-1 0 1:-0.375 14:1 15:-0.375 20:1 
-1 0 19:1 20:1 21:3 50:1 
-1 0 19:1 
-1 0 21:1 24:1 67:1 
-1 0 1:-0.5 14:1 15:-0.5 19:1 
-1 0 20:1 
-1 0 21:1 24:1 
-1 0 20:1 
-1 0 20:1 
-1 0 1:0.5 24:1 
-1 0 24:1 
-1 0 1:-0.75 14:1 15:-0.75 24:1 
-1 0 12:1 20:1 21:1 
-1 0 1:0.5 13:1 15:0.5 19:1 21:1 24:1 
-1 0 20:1 
-1 0 20:1 24:1 
-1 0 1:0.125 12:1 13:1 15:0.125 19:4 20:3 21:3 24:1 
-1 0 1:-0.875 14:1 15:-0.875 19:1 24:1 31:1 43:1 
-1 0 20:1 50:1 
-1 0 20:1 50:1 
-1 0.8761775767615089 19:1 24:1 35:1 
-1 0 24:1 
-1 0 12:1 20:1 21:1 
-1 0 1:-0.125 13:1 14:1 15:-0.125 20:2 60:1 
-1 0 24:1 
-1 0 1:-0.75 14:1 15:-0.75 19:1 
-1 0 20:1 
-1 0 19:1 
-1 0 1:0.125 13:1 15:0.125 20:1 60:1 
-1 0 1:-0.25 14:1 15:-0.25 24:1 
-1 0 20:1 
-1 0 19:1 
-1 0 20:1 
-1 0 19:1 
-1 0.02316340406723562 12:1 13:1 15:0.25 19:1 24:1 
-1 0 20:1 
-1 0 20:1 
-1 0 1:-0.25 14:1 15:-0.25 20:1 
-1 0.2254139019768784 12:1 13:2 15:0.5 17:1 19:2 
-1 0 1:-0.375 14:1 15:-0.375 24:1 
-1 0 1:0.25 12:1 13:1 15:0.25 21:1 24:1 
-1 0 19:1 
-1 0.705635834697264 1:-0.75 17:1 20:2 24:1 25:1 
-1 0 20:1 
-1 0 20:1 
-1 0 20:1 
-1 0 2:1 5:1 19:1 
-1 0 24:1 
-1 0 1:0.25 12:1 13:1 15:0.25 21:1 24:1 
-1 0 20:1 
-1 0 
-1 0.3087611052755124 1:-0.75 14:1 15:-0.75 16:1 20:1 24:1 
-1 0 1:-0.25 7:1 
-1 0 1:0.125 13:1 15:0.125 20:1 60:1 
-1 0 19:1 
-1 0 1:0.125 13:1 15:0.125 19:1 
-1 0 20:1 
-1 0 1:-0.125 14:1 15:-0.125 24:1 
-1 0 1:-0.125 14:1 15:-0.125 20:1 
-1 0 2:1 5:1 
-1 0 
-1 0 24:1 
-1 0 1:-0.25 21:1 
-1 0 12:1 20:1 21:1 
-1 1 17:1 19:1 20:1 25:1 
-1 0 1:0.125 13:1 15:0.125 19:1 
-1 0 12:1 20:1 21:1 
-1 0 1:-0.75 20:1 
-1 0 1:0.375 13:1 15:0.375 24:1 
-1 0 1:0.125 13:1 15:0.125 20:2 
-1 0.4020522148709585 19:3 43:1 
-1 0 12:1 20:1 21:1 
-1 0 1:-0.25 14:1 15:-0.25 17:1 20:1 25:1 
-1 1 1:0.5 13:1 15:0.5 24:1 
-1 0 12:1 20:1 21:1 
-1 0 19:1 
-1 0 1:-0.25 19:1 24:1 
-1 0 1:-0.125 14:1 15:-0.125 19:1 
-0 0.9946129726568043 1:-0.125 12:1 14:1 15:-0.125 20:1 21:1 66:1 
-1 0 12:1 20:1 21:1 
-1 0 1:-0.75 14:1 15:-0.75 20:1 24:1 
-1 0 12:1 20:1 21:1 
-1 1 21:1 
-1 0 20:1 
-1 0 24:1 
-1 0 19:1 
-1 0 12:1 20:2 21:1 
-1 0 12:1 20:1 21:1 
-1 0 12:1 20:1 
-1 0 12:1 20:1 21:1 
-1 0 20:1 38:1 
-1 0 24:1 
-1 0 1:-0.375 14:1 15:-0.375 20:1 
-1 0 1:-0.25 14:1 15:-0.25 19:1 24:1 
-1 0.1194866119119956 1:-0.125 14:1 15:-0.125 17:1 19:1 20:2 21:1 25:1 
-1 0 20:1 21:1 82:1 
-1 0.1501214759872485 1:-0.125 14:1 15:-0.125 20:2 
-1 1 1:0.625 13:1 15:0.625 19:1 
-1 0.2333293921457703 1:-0.125 9:1 17:1 19:2 25:1 73:1 
-1 0 1:-0.125 14:1 15:-0.125 21:2 24:1 
-1 0 1:-0.25 14:1 15:-0.25 19:1 20:1 21:3 
-1 0 1:-0.625 14:1 15:-0.625 20:1 71:1 
-1 0 1:0.375 13:1 15:0.375 19:1 
-1 0 1:-0.5 14:1 15:-0.5 20:2 
-1 0 2:1 5:1 
-1 0 1:-0.625 14:1 15:-0.625 24:1 
-1 0 1:-0.25 14:1 15:-0.25 19:1 20:2 21:3 
-1 0 1:-0.125 14:1 15:-0.125 20:1 
-1 0 1:-0.375 14:1 15:-0.375 20:1 
-1 0 12:1 17:1 21:1 25:1 
-1 0 50:1 
-1 1 21:1 
-1 0 1:-0.75 14:1 15:-0.75 21:1 
-1 0 50:1 
-1 0 1:0.125 13:1 15:0.125 20:1 
-1 0 20:1 
-1 0 1:0.375 13:1 15:0.375 20:1 24:1 
-1 0 24:1 
-0.5442733459244123 0 1:-0.625 14:1 15:-0.625 19:1 24:1 86:1 
-1 0 1:-0.25 14:1 15:-0.25 19:1 
-1 0 20:1 
-1 0 1:0.375 13:1 15:0.375 19:1 
-1 0 12:1 20:1 21:1 
-1 0 19:1 20:1 21:3 
-1 0 19:1 
-1 0 1:-0.5 14:1 15:-0.5 20:2 
-1 0 19:1 
-1 0 
-1 0 12:1 20:1 21:1 
-1 0 13:1 15:0.125 20:2 
-1 0 20:2 
-1 0 19:1 
-1 0 42:1 
-1 0 1:0.125 13:1 15:0.125 20:1 60:1 
-1 0 24:1 
-1 0 1:-0.625 14:1 15:-0.625 24:1 86:1 
-1 0 12:1 20:1 21:1 
-1 0 20:1 
-1 0 20:1 
-1 0 20:1 
-1 0 19:1 
-1 0 19:1 
-1 0 19:1 
-1 0 20:1 
-1 0.2524595736463882 1:0.5 12:1 13:1 15:0.5 17:1 21:2 24:1 25:1 34:1 
-1 1 21:1 
-1 0 20:1 
-1 0 19:1 
-1 1 21:1 
-1 0 1:-0.375 14:1 15:-0.375 24:1 
-1 1 1:0.125 13:1 15:0.125 16:1 24:1 
-1 0 20:1 
-1 0 1:-0.625 14:1 15:-0.625 24:1 
-1 1 1:0.25 20:1 
-1 0 1:-0.25 14:1 15:-0.25 
-1 0 1:-0.25 14:1 15:-0.25 20:1 
-1 0.7514828968694762 1:0.5 13:1 15:0.5 17:1 24:1 25:1 
-1 0 9:1 73:1 
-1 0 50:1 
-1 0.5837518387626398 20:1 91:1 
-1 0 1:-0.375 14:1 15:-0.375 20:1 
-1 0 1:-0.25 14:1 15:-0.25 19:1 
-1 0 20:1 24:1 
-1 0 20:1 
-1 0 20:1 
-1 0.2391908399067055 1:0.125 12:1 13:1 15:0.125 20:1 21:1 24:2 34:1 
-1 0 1:-0.5 14:1 15:-0.75 24:1 
-1 0 1:-0.125 14:1 15:-0.125 24:1 
-1 0 1:-0.75 20:1 
-1 0 13:1 14:1 21:1 24:1 86:1 
-1 0 1:-0.25 14:1 15:-0.25 19:1 
-1 0 20:2 38:1 
-1 0 1:-0.25 14:1 15:-0.25 19:1 24:1 
-1 0 20:1 24:1 
-1 0 12:1 20:1 21:1 24:1 
-1 0 1:0.125 13:1 15:0.125 19:1 85:1 
-1 0 19:1 
-1 0 24:1 
-1 0 1:0.125 13:1 15:0.125 20:1 60:1 
-1 1 21:1 
-1 0 1:0.25 12:1 13:1 15:0.25 20:3 21:1 
-1 0 19:1 
-1 0 19:1 
-1 0 1:0.25 13:1 15:0.25 24:1 
-1 0 19:1 
-1 1 21:1 
-1 1 1:-0.75 14:1 15:-0.75 20:1 21:1 
-1 0 
-0 0.052248446689906 1:0.25 12:1 14:1 15:-0.25 20:1 21:1 24:1 
-1 0 20:1 
-1 0 24:1 
-1 0 14:1 15:-0.25 19:1 
-1 0 12:1 21:2 82:1 
-1 0 1:0.25 13:1 15:0.25 19:1 
-1 0 1:-0.5 14:1 15:-0.5 20:1 
-1 0 19:1 
-1 0.1920154812788338 1:-0.5 13:1 14:1 15:-0.5 17:1 19:1 20:1 24:1 25:1 
-1 0 19:1 21:3 
-1 0 2:1 5:1 21:1 
-1 1 1:-0.75 
-1 0 20:1 
-1 0 24:1 
-1 1 16:1 20:1 21:1 
-1 0 19:1 
-1 0 1:-0.5 14:1 15:-0.5 20:1 
-1 0 
-0 0.1131568994985438 1:-1.125 14:1 15:-0.875 19:1 24:1 31:1 
-1 0 20:1 
-1 0 12:1 20:1 21:1 
-1 0 1:-0.25 14:1 15:-0.25 21:1 
-1 0 20:1 
-1 0 20:1 
-1 0 1:0.125 13:1 15:0.125 19:1 85:1 
-1 0 12:1 20:1 21:1 
-1 0 1:0.125 13:1 15:0.125 19:1 85:1 
-1 0 1:0.125 13:1 15:0.125 19:1 20:1 85:1 
-0 0.003278755850798374 1:-1 14:2 15:-1 19:1 24:1 31:1 70:1 
-1 0 1:-0.5 14:1 15:-0.5 61:1 
-1 0 20:1 
-1 0 1:-0.125 19:1 24:1 
-1 0 19:2 20:1 
-1 0 20:1 
-1 0 20:1 
-1 0.0473865174384004 1:-0.625 14:1 15:-0.75 17:3 20:1 21:1 24:2 83:1 
-1 0 1:0.125 13:1 15:0.125 20:1 21:1 93:1 
-1 0 20:1 
-1 0 
-1 0 20:1 
-1 0 20:1 
-1 0 19:1 
-1 0 1:-0.75 14:1 15:-0.75 21:1 
-1 0 20:1 67:1 
-1 0 
-1 0 12:1 20:1 21:1 
-1 0 19:3 20:1 29:1 50:1 
-1 0 19:1 
-1 0 1:0.125 13:1 15:0.125 19:1 
-1 0 1:-0.375 13:1 14:1 15:-0.375 19:1 24:1 31:1 
-1 0 9:1 73:1 
-1 0 20:1 
-1 0 19:1 
-1 0.7898590034696855 1:-0.25 13:1 14:1 15:-0.125 19:1 21:4 24:1 
-1 0 1:-0.25 14:1 15:-0.25 17:1 24:1 25:1 
-1 0 20:1 
-1 0 
-1 0 20:1 
-1 0 
-1 0 1:-0.5 14:1 15:-0.5 19:1 
-1 0 1:-0.375 14:1 15:-0.375 24:1 
-1 0 1:0.625 13:1 15:0.625 19:1 20:1 21:3 24:1 
-1 0 1:0.25 13:1 15:0.25 20:1 
-1 0 1:-0.25 14:2 15:-0.25 19:1 21:1 24:1 79:1 
-1 0 20:1 
-1 0 20:1 
-1 0 1:-0.25 14:1 15:-0.25 19:1 
-1 0 1:-0.75 14:1 15:-0.75 19:1 
-1 0 20:1 67:1 
-1 0 19:1 
-1 0 19:2 
-1 0 1:0.25 13:1 15:0.25 19:1 24:1 
-1 0 9:1 73:1 
-1 0 1:-0.125 13:1 15:0.125 24:1 
-1 0 1:0.25 13:1 15:0.25 24:1 
-1 0 1:0.125 13:1 15:0.125 85:1 
-1 0 12:1 20:1 21:1 
-1 0 24:1 
-1 0 24:1 
-1 0 19:1 
-1 0 1:0.375 13:1 15:0.375 19:1 24:1 
-1 0 20:1 
-1 0 1:-0.75 20:1 
-1 0 20:1 
-1 0 12:1 20:1 21:1 
-1 0 1:0.25 13:1 15:0.25 20:1 
-1 0 1:-0.75 14:1 15:-0.75 24:1 
-1 0 19:1 20:1 
-1 0 1:-0.25 24:1 
-1 0 1:-0.125 14:1 15:-0.125 24:1 
-1 0 1:0.5 12:1 13:1 15:0.5 19:2 21:1 
-1 0 1:-0.75 14:1 15:-0.75 16:1 24:1 
-1 0 19:1 
-1 0 19:1 
-1 0 1:-0.25 14:1 15:-0.25 20:1 
-1 0 19:1 
-1 0 1:0.125 13:1 15:0.125 16:2 17:1 19:3 20:1 85:1 
-1 0 24:1 
-1 0 1:0.125 13:1 15:0.125 24:1 
-1 0 
-1 0 1:-0.375 14:1 15:-0.375 24:1 
-1 0 20:1 21:1 
-1 0 1:-0.375 2:1 4:1 5:1 14:1 15:-0.375 24:1 
-1 0 19:1 
-1 0 
-1 0 19:2 20:1 
-1 0 12:1 20:1 21:1 
-1 0 20:1 
-1 0 20:1 
-1 0 1:-0.75 20:1 
-1 0 1:-0.625 14:1 15:-0.625 86:1 
-1 0 19:1 
-1 0 19:1 
-1 0 1:-0.5 14:1 15:-0.5 20:1 
-1 0 20:1 
-1 0 12:1 20:1 21:1 
-1 0 20:1 
-1 0 1:0.125 13:1 15:0.125 19:1 85:1 
-1 0 1:-0.75 14:1 15:-0.75 17:1 24:1 25:1 
-0 0.5267794280704244 12:1 21:3 83:1 
-1 0 20:1 
-1 0 1:-0.625 14:1 15:-0.625 24:1 
-1 0.01484499386606108 1:-0.125 14:1 15:-0.125 24:2 68:1 
-1 0 1:0.25 12:1 13:1 15:0.25 20:1 21:2 
-1 0 1:-0.625 14:1 15:-0.625 20:1 21:1 71:1 
-1 0 
-1 0 1:-0.75 14:1 15:-0.75 24:1 
-1 0 20:1 
-1 0 24:1 
-1 0 24:1 
-1 0 1:-0.375 14:1 15:-0.375 24:1 
-1 0 24:1 
-1 0 1:0.125 13:1 15:0.125 19:1 85:1 
-1 0 1:-0.25 14:1 15:-0.5 20:1 
-1 0 1:-0.625 14:1 15:-0.625 20:1 71:1 
-1 0 24:1 
-1 0 1:0.125 13:1 15:0.125 20:1 
-1 0 1:-0.625 14:1 15:-0.625 86:1 
-0 0.01949814112663267 1:-1.375 12:1 14:1 15:-0.625 20:2 21:1 24:1 
-1 0 1:0.375 13:1 15:0.125 19:1 85:1 
-1 0.1682670986530408 12:1 20:2 21:1 91:1 
-1 1 20:1 91:1 
-0 0.02287654673160729 1:-0.625 12:1 14:1 15:-0.5 20:2 21:1 
-1 0 12:1 19:3 20:2 21:1 
-1 0 24:1 
-1 0.4489913290013747 1:0.25 13:1 14:1 15:0.25 19:4 24:1 
-1 0 1:-0.75 14:1 15:-0.75 24:1 
-1 0 1:0.25 13:1 15:0.25 24:1 
-1 0 42:1 
-1 0 1:-0.625 14:1 15:-0.625 24:1 
-1 0 1:-0.875 14:1 15:-0.875 24:1 
-1 0 1:-0.625 14:1 15:-0.625 19:1 20:1 
-1 0 20:1 24:1 
-1 0 1:-0.625 14:1 15:-0.625 20:1 71:1 
-1 1 16:1 20:1 
-1 0 19:2 
-1 0 1:-0.125 14:1 15:-0.125 19:2 
-1 0.9031951147816721 1:0.125 14:1 15:-0.375 24:1 
-1 0 1:-0.125 13:1 14:1 15:-0.125 19:2 85:1 
-1 0 2:0.66666667 5:1 16:1 
-1 0.23694726396965 12:1 17:1 20:2 21:1 25:1 91:1 
-1 0 17:1 20:1 25:1 
-1 0 20:1 
-1 0 1:0.25 13:1 15:0.25 19:1 
-1 0.03195637205482266 1:-0.5 14:1 15:-0.5 16:1 24:1 
-1 0 19:1 20:1 21:3 
-1 0 19:1 
-1 0 1:-0.25 14:1 15:-0.25 19:1 
-1 0 
-1 0 19:1 20:1 
-0.5633109237705497 0.3783552403344929 12:1 19:1 21:4 24:1 35:1 
-1 0 20:1 
-1 0 24:1 
-1 0 1:0.5 13:1 14:1 15:0.5 20:3 24:1 
-1 0 20:1 
-1 0 1:-0.75 14:1 15:-0.75 24:1 
-1 0 
-1 0 20:1 
-1 0 2:0.5 5:1 12:1 20:1 21:1 
-1 0 
-1 0 20:1 
-1 1 1:0.375 13:1 15:0.375 19:1 20:1 24:1 
-1 0 24:1 
-1 0 1:0.375 13:1 15:0.375 24:1 
-1 0 19:1 50:1 
-1 1 21:1 
-1 0 20:1 
-1 1 21:1 
-1 0 
-1 0 
-1 0 19:1 
-1 0.3481099459167207 2:1 5:1 21:4 
-1 0 12:1 20:1 21:1 
-1 0 20:1 
-1 0.9200195034790914 1:0.25 13:1 15:0.25 19:1 20:1 76:1 
-1 0 1:-0.125 8:1 78:1 
-0 0.09305593242112224 1:-0.25 12:1 16:1 19:1 
-1 0 
-1 0 1:-0.625 14:1 15:-0.625 86:1 
-1 0 20:1 
-1 0 1:-0.375 14:1 15:-0.375 20:1 
-1 0 2:1 5:1 42:1 
-1 0 1:-0.625 14:1 15:-0.625 20:1 71:1 
-1 1 1:0.625 13:1 15:0.625 20:1 21:1 
-1 0 24:1 
-1 1 1:0.5 13:1 15:0.5 20:2 
-1 0 1:0.125 13:1 15:0.125 19:1 85:1 
-0.9306512230969879 0 1:-0.875 14:1 15:-0.875 24:1 31:1 
-1 0 19:1 
-1 0 19:1 21:3 24:1 67:1 
-1 0.8768643350184523 1:-0.25 14:1 15:-0.25 19:1 20:1 21:3 
-1 0 24:1 
-1 0 12:1 21:1 24:1 34:1 
-1 0 21:1 82:1 
-1 0 19:2 20:1 
-1 0 20:1 
-1 0 20:1 50:1 
-1 0 50:1 
-1 0 42:1 
-1 0 12:1 20:1 21:1 
-1 0 1:-0.625 14:1 15:-0.625 24:1 
-1 0.1780084094033858 1:-0.75 17:1 20:1 25:1 
-1 0.02641467214968376 2:0.33333333 5:1 17:2 21:1 24:1 26:1 56:1 
-1 0 19:1 
-1 0 19:1 
-1 0 19:1 20:1 24:1 
-1 0 
-1 0 1:-0.25 14:1 15:-0.75 24:1 84:1 
-1 0 24:1 
-1 0 1:0.5 12:1 13:1 15:0.5 19:2 20:1 21:1 
-1 1 1:-0.25 20:1 21:1 24:1 92:1 
-1 0.5429749502182382 16:1 19:1 
-1 1 1:0.625 13:2 15:0.625 20:2 21:1 
-1 0 19:1 20:2 24:1 
-1 0 1:-0.625 14:1 15:-0.625 86:1 
-1 0 12:1 20:1 21:1 
-1 0 1:0.125 13:1 15:0.125 19:1 85:1 
-1 0 2:1 5:1 
-1 0.1986667332273061 1:-0.5 14:1 15:-0.25 24:2 
-1 1 1:-0.25 21:1 
-1 0 20:1 21:1 
-1 0 12:1 20:2 21:1 
-1 0 20:1 
-1 0 20:1 
-1 0 20:1 
-1 0 19:1 
-1 0 20:1 
-1 0 12:1 20:1 21:1 
-1 0 20:1 
-1 0 
-1 0 12:1 20:1 21:1 
-1 0 19:1 
-1 0 1:-0.125 14:1 15:-0.125 20:1 
-1 0 1:-0.875 14:1 15:-0.875 24:1 31:1 
-1 0 1:0.25 13:1 15:0.25 20:1 
-1 0 18:2 19:1 24:1 
-1 0 24:1 
-1 0 1:0.125 13:1 15:0.125 19:1 24:1 85:1 
-1 0.06104311640600401 1:-0.25 17:1 24:1 25:1 
-1 0 1:-0.625 14:1 15:-0.625 24:1 
-1 0 19:1 
-1 0 20:1 
-1 0 50:1 
-1 0 20:1 
-1 0 20:2 
-0 0.1642483165067027 1:-0.75 12:1 14:1 15:-0.625 17:2 20:1 21:2 24:1 26:1 64:1 82:1 
-1 0 19:1 20:1 24:1 
-1 0 19:1 24:1 
-1 0 1:-0.375 14:1 15:-0.375 19:1 
-1 0 20:1 
-1 0 12:1 20:1 21:1 
-1 0 24:1 
-1 0 1:-0.625 14:1 15:-0.625 20:1 71:1 
-1 0 
-1 0 20:1 
-1 0 1:-0.375 14:1 15:-0.375 20:1 
-1 0 1:-0.75 14:1 15:-0.75 21:1 24:1 
-1 0 24:1 
-1 0 1:-0.75 14:2 15:-0.75 21:1 24:1 79:1 
-1 0 1:0.25 12:1 13:1 15:0.25 20:2 21:1 
-1 0 1:-0.625 14:1 15:-0.625 20:1 
-1 0 19:1 20:1 
-1 0 1:-0.125 14:1 15:-0.125 24:1 
-1 0 1:0.25 13:1 15:0.25 24:1 
-1 0 20:1 
-1 0 1:-0.875 14:1 15:-0.875 24:1 
-1 0 12:1 20:1 21:1 
-1 0 20:1 
-1 0 20:1 
-1 0 9:1 73:1 
-1 0 19:1 
-1 1 21:1 
-1 0 1:0.25 13:1 15:0.25 24:2 
-1 0 20:1 24:1 
-1 0 12:1 20:1 21:1 
-1 0 1:-0.875 14:1 15:-0.875 24:1 31:1 
-1 0 1:0.125 13:1 15:0.125 19:1 
-1 0 24:1 67:1 
-1 0 20:1 21:1 
-1 0 21:1 24:1 67:1 
-1 0 1:-0.5 14:1 15:-0.5 24:1 
-1 0 20:1 50:1 
-1 0.02279926098399913 1:-0.125 13:2 14:1 15:-0.125 17:1 19:2 20:2 24:1 25:1 45:1 
-1 0 24:1 
-1 0 1:-0.125 14:1 15:-0.125 19:1 
-1 0 20:1 
-1 0 19:1 
-1 0 1:-0.75 20:1 50:1 
-1 0 1:-0.75 14:1 15:-0.75 20:1 24:1 
-1 0 1:-0.25 2:1 5:1 24:1 
-1 0 
-1 0 1:0.125 13:1 15:0.125 19:1 85:1 
-1 0 20:1 
-1 1 19:1 21:3 
-1 0 20:1 
-1 0 20:1 
-1 0 1:-0.25 13:1 14:1 15:-0.25 19:1 24:2 
-1 0 20:1 
-1 1 1:0.25 13:1 15:0.25 19:1 20:1 21:1 
-1 0 12:1 20:1 
-1 0 50:1 
-1 0 19:1 20:1 21:3 
-1 0 24:1 
-1 1 1:0.5 13:1 15:0.5 20:1 
-1 0 12:1 20:1 21:1 
-1 0 20:1 50:1 
-1 0 
-1 0 24:1 
-1 0 1:0.5 12:1 13:1 15:0.5 20:2 21:1 
-1 0.5076175727867897 1:-0.75 20:2 21:1 
-1 0 1:-0.625 14:1 15:-0.625 24:1 
-1 0 1:-0.75 14:1 15:-0.75 21:1 
-1 0 24:1 
-1 0 12:1 20:1 21:1 
-1 0 20:1 67:1 
-1 1 1:0.5 13:1 15:0.5 20:1 24:1 
-1 0.0999937676804271 1:0.75 13:1 15:0.875 16:1 20:1 24:1 30:1 
-1 0 1:0.125 13:1 15:0.125 20:1 
-1 0 17:1 20:1 25:1 
-1 0 1:-0.125 13:1 15:0.125 20:1 24:1 
-1 0 20:1 
-1 0 12:1 20:1 21:1 
-1 0 19:1 
-1 0 20:1 
-1 0 20:1 
-1 0 1:0.125 13:1 15:0.125 20:1 60:1 
-1 0 1:0.375 12:1 13:1 15:0.375 20:1 21:1 
-1 0 1:-0.75 20:1 
-1 0 
-1 0 1:0.125 13:1 15:0.125 19:1 20:1 24:1 
-1 0 20:1 
-1 0 1:-0.875 14:1 15:-0.875 24:1 
-1 0 19:1 
-1 0 19:3 
-1 0 21:1 24:1 
-1 0 
-1 0 84:1 
-1 0 19:1 20:1 
-1 0 20:1 24:1 
-1 0 1:-0.5 14:1 15:-0.5 24:1 
-1 0 1:-0.625 14:1 15:-0.625 24:1 
-1 0 20:1 
-1 0 1:-0.625 14:1 15:-0.625 24:1 86:1 
-1 0 24:1 
-1 0.2335930975381281 24:1 76:1 
-1 0 1:-0.75 14:1 15:-0.75 24:1 
-1 0 20:1 
-1 0 24:1 
-1 0 20:1 
-1 0 19:1 24:1 
-1 0 24:1 
-1 0 
-1 0 1:0.25 12:1 21:1 
-1 1 13:1 15:0.125 16:1 19:1 
-1 0 20:1 
-1 0 1:0.375 12:1 13:1 15:0.125 21:1 24:2 34:1 
-1 0 12:1 17:2 21:2 26:1 
-1 1 1:0.75 12:1 13:1 15:0.75 20:1 21:1 
-1 0 19:2 
-1 0 20:1 
-0 0.02757734042648137 1:-0.25 12:3 18:2 19:4 
-1 1 1:-0.375 14:1 15:-0.375 20:1 94:1 
-1 0 1:-0.125 14:1 15:-0.125 24:1 
-1 0 20:2 
-1 0 12:1 20:1 21:1 
-1 0 19:1 
-1 0 20:1 
-1 0 20:1 
-1 0.2482728178939023 1:-0.375 2:1 4:1 5:1 14:1 15:-0.375 24:1 
-1 0 1:-0.5 14:1 15:-0.5 61:1 
-1 0 12:1 20:1 21:1 
-1 0 20:1 
-1 0 1:0.125 13:1 15:0.125 19:1 
-1 0 1:-0.625 14:1 15:-0.625 17:1 24:1 25:1 
-1 1 1:-1.5 14:1 15:-0.75 20:1 24:1 
-1 0 20:1 
-1 0.7080943830940656 1:0.25 12:1 21:1 
-1 0 
-1 0 20:1 
-1 0 19:1 20:2 
-1 0 18:2 24:1 
-1 0 20:1 
-1 1 19:1 53:1 
-1 0 20:1 
-1 0 1:-0.75 14:1 15:-0.75 24:1 
-1 0 1:-0.25 12:1 17:2 19:2 26:1 
-1 0 1:0.125 13:1 15:0.125 24:1 
-1 0 12:1 20:2 21:1 88:1 
-1 0 12:1 20:1 21:1 
-1 0 12:1 20:1 21:1 
-1 0 24:1 
-1 0 19:1 
-1 0 1:0.25 13:1 15:0.25 19:1 20:1 
-1 0 19:1 24:1 
-1 0 1:0.25 13:1 15:0.25 19:1 
-1 0 1:-0.625 14:1 15:-0.625 24:1 
-1 0.2239564690620853 2:0.5 5:1 20:2 64:1 
-0 0.3580972308155486 1:-0.125 12:1 21:1 24:1 
-1 1 1:-0.25 2:1 4:1 5:1 14:1 15:-0.25 19:1 20:1 
-1 0 2:1 5:1 20:1 
-1 0 1:0.25 12:1 21:1 
-1 0 1:-0.875 14:1 15:-0.875 24:1 
-1 0 1:-0.625 14:1 15:-0.625 24:1 86:1 
-1 1 21:1 
-1 0 1:0.125 13:1 15:0.125 20:1 60:1 
-1 0 20:1 
-1 0 20:1 
-1 0 1:0.125 13:1 15:0.125 19:1 85:1 
-1 0 1:0.25 12:1 13:1 15:0.375 20:1 21:1 24:1 33:1 
-1 0 1:-0.5 14:1 15:-0.5 19:1 20:2 
-1 0 9:1 73:1 
-1 0 24:1 
-1 0 1:-0.25 14:1 15:-0.25 
-1 0 24:1 
-1 0 12:1 20:1 21:1 
-1 0 20:1 
-1 0 20:1 21:1 
-1 0 19:1 24:1 67:1 
-1 0 1:-0.25 14:1 15:-0.25 21:1 
-1 0 
-1 0 20:1 
-1 0 
-1 0 19:1 24:2 
-1 0 1:0.25 13:1 15:0.25 19:1 24:1 
-1 0 20:1 21:1 
-1 0 1:-0.625 14:1 15:-0.625 20:1 
-1 1 21:1 
-1 0 1:0.125 13:1 15:0.125 20:1 
-1 0 12:1 20:2 21:1 
-1 0 1:-0.75 14:1 15:-0.75 19:1 24:1 
-1 1 1:0.5 24:1 
-1 0 17:1 20:1 25:1 
-1 0 1:-0.125 14:1 15:-0.125 19:1 
-1 0 20:1 
-1 1 21:1 
-1 0.6037631609383045 1:-0.75 14:1 15:-0.75 20:1 24:1 
-1 0 19:1 
-1 0 1:-0.625 14:1 15:-0.625 19:1 
-1 0 20:1 67:1 
-1 0 20:1 21:1 
-1 0 20:1 
-1 0 
-1 0.07647103874627426 19:1 24:1 34:1 
-1 0 1:0.125 12:1 13:1 15:0.25 19:1 20:2 21:1 24:1 45:1 76:1 83:1 
-1 0 1:-0.5 13:1 14:1 15:-0.5 21:1 24:1 
-1 0 20:1 
-1 0 20:1 67:1 
-1 0 12:1 20:1 21:1 
-1 0 19:1 
-1 0 1:0.25 13:1 15:0.25 20:2 21:1 24:1 
-1 1 1:0.375 13:1 15:0.375 20:1 21:1 62:1 82:1 
-1 0 12:1 19:1 21:4 24:1 56:1 
-1 0.2789714592348902 1:0.5 13:2 15:0.75 19:2 24:2 
-1 0 1:-0.75 2:1 4:1 5:1 14:1 15:-0.75 19:1 
-1 0.1070616798990094 19:1 20:1 43:1 
-1 0.01370994990441169 1:-0.625 14:1 15:-0.625 19:1 24:1 36:1 
-1 0 19:1 20:1 
-1 0 1:-0.625 14:1 15:-0.625 19:2 24:1 
-1 0 50:1 
-1 0 24:1 
-1 0 12:1 20:2 21:1 
-1 0 1:-0.5 14:1 15:-0.5 61:1 
-1 0 
-1 0 24:1 
-1 0 12:1 20:1 21:1 
-1 0 1:-0.875 14:1 15:-0.875 24:1 31:1 
-1 0 12:1 20:1 21:1 
-1 0 1:-0.625 14:1 15:-0.625 24:1 86:1 
-1 0 12:1 20:1 21:1 
-1 0.8664501709010778 1:-0.25 14:1 15:-0.25 19:2 21:3 
-1 0 24:1 
-1 0 
-1 0 12:1 20:2 21:1 
-1 0 1:-0.25 14:1 15:-0.25 19:1 20:1 21:1 
-1 0 1:-0.125 14:1 15:-0.125 24:1 
-1 0 1:0.125 12:1 13:1 15:0.125 20:2 21:1 93:1 
-1 0 
-1 0 17:3 27:1 
-1 0 20:1 24:1 
-1 0 1:-0.625 14:1 15:-0.625 19:1 
-1 0.009853685686249522 1:-0.25 12:1 19:2 21:1 34:1 
-1 0 24:1 
-1 0 20:1 67:1 
-1 0 13:1 15:0.125 17:1 19:1 21:1 25:1 85:1 
-1 0 1:-0.625 14:1 15:-0.625 24:1 86:1 
-1 0 19:1 21:4 
-1 0 19:1 21:4 
-1 0 1:0.25 13:1 15:0.25 19:1 20:1 29:1 
-1 0 12:1 20:1 21:1 
-1 0 24:1 
-1 0 42:1 
-1 0 19:1 
-1 0 
-1 0 1:-0.625 14:1 15:-0.625 21:1 
-1 0 20:1 
-1 1 21:1 
-1 0 20:1 
-1 0 24:1 
-1 0 1:0.125 13:1 15:0.125 24:1 
-1 0 1:-0.125 14:1 15:-0.125 19:1 20:1 21:1 
-1 0 1:0.25 13:1 15:0.25 21:1 24:1 
-1 0 1:-0.875 14:1 15:-0.875 24:1 31:1 
-1 0 1:-0.625 14:1 15:-0.625 86:1 
-1 0 12:1 20:1 21:1 
-1 0 1:0.125 13:1 15:0.125 20:1 60:1 
-1 0 1:0.125 13:1 15:0.125 19:1 24:1 
-1 0 1:-0.875 14:1 15:-0.875 24:1 
-1 0 
-1 0 12:1 20:1 21:1 
-1 0 1:-0.5 14:1 15:-0.5 19:1 
-1 0 1:-0.625 14:1 15:-0.625 20:1 71:1 
-1 0 24:1 
-1 1 21:1 
-1 0 20:1 
-1 0 20:1 
-1 0 1:-0.125 20:1 
-1 0.4213050177752437 1:0.125 13:1 15:0.125 19:2 21:3 
-1 0 1:0.125 13:1 15:0.125 20:1 21:1 24:1 60:1 
-1 0 1:0.375 2:1 3:1 5:1 13:1 15:0.375 24:1 
-1 0 9:1 73:1 
-1 0 1:-0.75 14:1 15:-0.75 24:1 
-1 0 12:1 20:1 21:1 
-1 0 1:0.125 13:1 15:0.125 20:1 24:1 
-1 0 18:2 19:1 
-1 0 20:1 
-1 1 19:1 21:3 
-1 0.5143616395716692 1:-0.75 14:2 15:-0.75 21:1 24:1 
-1 0 24:1 
-1 0 1:-0.25 14:1 15:-0.125 24:1 
-1 0 12:1 20:1 21:1 
-1 0 20:1 
-1 0 20:1 
-1 0 1:-0.25 12:1 17:1 21:1 
-1 0 1:0.125 13:1 15:0.125 19:1 85:1 
-1 0 12:1 20:1 21:2 39:1 
-1 0 12:1 20:2 21:1 
-1 0 20:1 67:1 
-1 0.08106194134961642 21:1 24:1 34:1 
-1 0 19:1 
-1 0 1:0.375 13:1 15:0.375 19:1 20:1 24:1 33:1 
-1 0 1:-0.75 20:1 
-1 0 1:-0.625 14:1 15:-0.625 17:1 24:1 25:1 
-1 0 13:1 14:1 19:1 24:1 
-1 0 1:0.125 13:1 15:0.125 20:1 60:1 
-1 1 21:1 
-1 0 21:1 82:1 
-1 0 1:-0.25 14:1 15:-0.25 19:1 20:2 21:3 
-1 0 1:0.25 12:1 13:1 15:0.25 20:2 21:2 
-1 0 20:1 
-1 0 1:0.125 13:1 15:0.125 20:1 93:1 
-1 0 
-1 0 12:1 20:1 21:1 
-1 0 1:-0.25 14:1 15:-0.25 24:1 
-1 0 20:2 
-1 0 12:1 21:2 82:1 
-1 0 1:0.25 13:2 15:0.25 20:2 60:1 
-1 0 19:1 
-1 0 20:1 
-1 0 24:1 
-1 0 58:1 
-1 0 19:1 20:1 
-1 1 21:1 
-1 0 20:1 
-1 0.2243246540323686 1:-0.75 2:0.5 4:1 5:1 14:1 15:-0.75 24:1 
-1 0.3315303638516356 1:0.375 13:1 15:0.375 20:1 24:1 
-1 0.06366290157566315 1:-0.5 12:1 14:1 15:-0.5 19:2 20:2 21:1 43:1 61:1 91:1 
-1 0 12:1 17:2 21:1 26:1 
-1 0 20:1 
-1 0.01875893737330474 20:1 39:1 
-1 0.3050144749974648 19:1 21:3 
-1 0 1:-0.5 14:1 15:-0.375 24:1 
-1 0 1:0.625 12:1 13:1 15:0.625 20:1 21:1 
-1 0 20:1 
-1 0 9:1 73:1 
-1 0 19:1 
-1 0 1:-0.625 14:1 15:-0.625 21:1 
-1 1 19:1 21:4 
-1 0 20:1 
-1 0 12:1 20:1 21:1 
-1 0.01928636134943222 1:0.375 8:1 13:2 15:0.625 19:1 20:1 24:1 78:1 
-1 0 1:0.125 13:1 15:0.125 19:2 20:1 21:1 85:1 
-1 0.1780762888603101 1:0.5 13:1 15:0.5 17:2 19:2 26:1 
-1 0 1:-0.625 14:1 15:-0.625 19:1 24:1 86:1 
-1 0 20:1 
-1 0 20:1 
-1 0 1:0.125 13:1 15:0.125 19:2 
-1 0 19:1 
-1 0 19:1 24:1 67:1 
-1 0 20:1 
-1 0 19:2 
-1 0 12:1 20:2 21:1 
-1 0 19:1 21:1 24:1 
-1 0 1:0.25 12:1 13:1 15:0.25 19:1 21:1 24:1 
-1 0.1043339174384601 1:-0.25 14:1 15:-0.25 24:2 
-1 0 1:-0.875 14:1 15:-0.875 24:1 31:1 
-0 0.6626582038353941 1:-0.375 12:1 14:1 15:-0.375 21:1 24:1 
-1 0 19:1 24:1 
-1 0 
-1 0 1:-0.375 13:1 14:1 15:-0.375 19:1 24:2 
-1 1 1:-0.625 14:1 15:-0.625 19:1 20:1 21:3 
-1 1 21:1 
-1 0 20:1 50:1 
-1 0 
-1 0 50:1 
-1 0 50:1 
-1 0 20:1 
-1 0 1:0.125 13:1 15:0.125 19:1 85:1 
-1 0 12:1 20:1 21:1 
-1 0 1:-0.75 20:2 21:1 
-1 0 24:1 
-1 0 19:1 
-1 0 1:0.125 13:1 15:0.125 24:1 
-1 1 1:0.375 13:1 15:0.375 19:2 
-1 0 1:0.5 13:1 15:0.5 20:1 24:1 39:1 
-1 0 24:1 
-1 0 20:1 
-1 0 24:1 
-1 1 1:-0.75 14:1 15:-0.75 20:1 24:1 
-1 0.9846832032412174 1:0.25 13:1 14:1 15:0.25 19:1 20:1 
-1 0 20:1 
-1 0 1:-0.75 14:1 15:-0.75 21:1 24:1 
-1 0 20:1 
-1 0.09345534039232728 1:-0.25 12:1 14:1 15:-0.25 20:3 21:1 91:1 
-1 1 1:0.125 13:1 15:0.125 20:1 21:1 
-1 0 1:0.125 13:1 15:0.125 20:2 
-1 0 2:1 5:1 50:1 
-1 0 20:1 
-1 0 12:1 20:1 21:1 
-1 0 50:1 
-1 0 9:1 73:1 
-1 0 1:-0.125 14:2 15:-0.25 20:4 39:1 
-1 0 20:1 
-1 0 12:1 20:1 21:1 
-1 0 20:1 
-1 0 9:1 17:1 19:1 25:1 73:1 
-1 0 20:1 
-1 0 1:-0.25 12:1 19:2 76:1 
-1 0 20:1 
-1 0 19:1 
-1 0 24:1 
-1 0 12:1 20:1 21:1 
-1 0 24:2 
-1 0 20:1 
-1 0 1:-0.25 14:1 15:-0.25 19:1 
-1 0 1:0.125 13:1 15:0.125 20:2 24:1 
-1 0 1:-0.125 14:1 15:-0.125 19:1 24:1 
-1 0 24:1 
-1 0 2:0.4 5:1 19:2 21:1 24:2 56:1 
-1 0 12:1 20:1 21:1 
-1 0 1:0.25 13:1 15:0.25 20:2 
-1 0 12:1 20:1 21:1 
-1 0 20:1 
-1 0.5874146541195929 20:1 64:1 
-1 0 20:1 
-1 0 19:1 24:1 
-1 0 1:0.125 12:1 13:1 15:0.25 21:2 24:1 34:1 
-1 0 19:1 
-1 0 1:-0.5 14:1 15:-0.5 20:2 
-1 1 1:0.375 13:1 15:0.375 19:2 20:1 62:1 
-1 0 1:-0.25 14:1 15:-0.25 20:1 
-1 0 1:0.625 12:1 13:1 15:0.625 21:1 24:1 59:1 
-1 0 1:0.375 12:1 13:1 15:0.5 19:1 20:1 21:4 24:1 
-1 0 
-1 0 20:1 
-1 0 20:2 38:1 
-1 0 19:1 24:1 
-1 0.04137478979174073 1:-0.75 14:1 15:-0.75 19:1 20:2 
-1 0 1:-0.125 13:1 15:0.125 24:1 
-1 0 
-1 0 12:1 17:1 20:1 21:1 25:1 
-1 0 1:-0.25 14:1 15:-0.25 19:1 
-1 0 20:1 
-1 0 1:-0.5 14:1 15:-0.5 20:1 
-1 1 1:0.25 
-1 0 20:1 50:1 
-1 0 1:-0.5 14:1 15:-0.5 17:2 21:1 24:1 26:1 
-1 0 1:0.125 13:1 15:0.125 20:1 24:1 51:1 
-1 0 20:1 
-1 0 19:1 20:1 
-0 0.01031999329580665 1:-0.625 12:1 14:1 15:-0.625 20:2 21:1 24:1 
-1 1 1:-0.375 13:1 14:1 15:-0.375 20:2 
-1 0 1:-0.125 12:1 13:1 15:0.125 19:2 51:1 
-1 0 
-1 0 20:1 
-1 0 
-1 0 1:0.125 13:1 15:0.125 20:1 60:1 
-1 0 1:0.375 13:1 15:0.375 19:1 24:1 
-1 0 1:0.125 13:1 15:0.125 20:1 60:1 
-1 0 20:1 
-1 0 1:0.25 12:1 13:1 14:1 15:0.25 20:2 21:1 24:1 33:1 66:1 
-1 1 21:1 
-1 0 42:1 
-1 0 1:-0.5 14:1 15:-0.5 19:1 
-1 0 20:1 21:1 
-1 0 1:-0.625 14:1 15:-0.625 19:1 
-1 0 12:1 20:1 21:1 
-1 0 1:-0.25 14:1 15:-0.25 19:1 20:1 
-1 0 1:-0.25 21:2 
-1 0 1:1 2:0.5 3:1 5:1 13:1 15:0.5 19:1 24:1 
-1 0 1:-0.5 14:1 15:-0.5 61:1 
-1 0 1:-0.875 14:1 15:-0.875 24:1 
-1 0.5661542859181404 1:0.5 13:2 15:0.5 21:1 24:1 
-1 0.05707857578917296 17:3 20:3 27:1 
-1 0 1:-0.625 14:1 15:-0.625 24:1 
-1 0.2592672847303866 1:-0.5 13:1 14:1 15:-0.5 20:1 24:1 
-1 0 1:0.125 13:1 15:0.125 19:1 21:1 24:1 
-1 0 1:0.375 12:1 13:1 15:0.375 20:1 21:1 
-1 0 1:0.25 13:1 15:0.25 20:1 
-1 1 1:0.375 13:1 15:0.375 21:1 
-1 0 1:0.125 13:1 15:0.125 19:1 85:1 
-1 0 12:1 20:1 21:1 
-1 0 1:-0.625 14:1 15:-0.625 19:1 24:1 
-1 1 17:1 20:1 24:1 25:1 
-1 0.03457340529526776 17:1 19:1 21:1 25:1 29:1 
-1 0 
-1 0 12:1 20:1 21:1 
-1 0 20:1 
-1 0 1:-0.25 20:1 21:2 24:1 91:1 
-1 0 12:1 20:2 21:1 
-1 0 20:1 21:1 
-1 0 1:-0.25 14:1 15:-0.25 19:1 
-1 0 1:0.125 13:1 15:0.125 24:1 
-1 0 1:0.25 12:1 13:1 15:0.25 21:1 24:1 
-1 0 
-1 0 
-1 0.02725877566603613 1:0.5 12:1 21:1 24:1 
-1 0 1:-0.125 14:1 15:-0.125 20:1 
-1 0 1:-0.75 9:1 17:1 20:1 25:1 73:1 
-1 0 1:0.125 13:1 15:0.125 19:1 20:1 85:1 
-1 1 19:1 21:4 
-1 0 19:1 
-1 0 20:1 
-1 0 24:1 
-1 0 20:1 
-1 0 1:-0.25 14:1 15:-0.25 19:1 
-1 0 12:1 20:2 21:2 
-1 0 1:-0.25 14:1 15:-0.25 19:1 20:2 
-1 1 1:0.625 13:1 15:0.625 19:1 
-1 0 
-1 0 12:1 21:1 
-1 0 1:-0.375 14:1 15:-0.375 19:1 24:1 
-1 0 19:1 24:1 43:1 
-1 0 12:1 20:1 21:1 
-1 0 1:-0.875 14:1 15:-0.875 24:1 
-1 0 20:1 
-1 0 19:1 24:1 
-1 0 42:1 
-1 0 1:-0.625 2:0.33333333 4:1 5:1 13:1 14:1 15:-0.625 17:1 19:1 24:1 25:1 90:1 
-1 0 1:-0.25 14:1 15:-0.25 19:1 
-1 0 
-1 0 24:1 
-1 0 17:1 20:1 25:1 
-1 0 12:1 20:1 21:1 
-1 0 20:1 
-1 0 1:0.125 13:1 15:0.125 20:1 60:1 
-1 0 20:1 21:1 
-1 0 1:-0.75 14:1 15:-0.75 21:1 24:1 82:1 84:1 
-1 0 20:1 
-1 0 19:1 
-1 0 1:0.375 13:1 15:0.375 19:1 
-1 0 1:-0.5 14:1 15:-0.5 24:1 
-1 0 20:2 
-1 0 12:1 20:1 21:1 
-1 0 1:-0.625 14:1 15:-0.625 19:1 24:1 
-1 0 1:-0.625 14:1 15:-0.625 24:1 
-1 0 20:1 
-1 0 20:1 
-1 0 12:1 21:1 
-1 0 20:1 
-1 0 1:-0.875 14:1 15:-0.875 24:1 
-1 0 1:-0.625 14:1 15:-0.625 24:1 
-1 0 19:1 
-1 0.2088762170853848 1:-0.5 14:1 15:-0.5 19:1 24:1 61:1 
-1 0 12:1 21:1 
-1 0 20:1 
-1 0.1657053860811422 1:0.5 13:2 15:0.5 19:1 20:1 62:1 85:1 
-1 0 20:2 
-1 0 1:-0.625 14:1 15:-0.625 24:1 86:1 
-1 0 20:1 
-1 0 
-1 0 
-1 0 20:1 
-1 0 20:1 
-1 0 1:0.125 13:1 15:0.125 19:1 20:2 
-1 0 
-1 0.7345565590328919 16:1 76:1 
-1 0.8652013567595012 19:1 21:3 43:1 
-1 0 1:0.25 13:1 15:0.25 20:1 
-1 0 24:1 
-1 0 2:1 5:1 
-1 0 1:-0.75 14:1 15:-0.75 24:1 
-1 0 1:-0.75 14:1 15:-0.75 19:1 24:1 43:1 84:1 
-1 0 1:0.125 13:1 15:0.125 20:2 
-1 0 19:1 24:1 
-1 0 1:-0.625 14:1 15:-0.625 21:1 
-1 1 1:0.25 13:1 15:0.25 21:1 
-1 0 42:1 
-1 1 12:1 21:1 24:1 81:1 
-1 0 2:1 5:1 
-1 0 12:1 20:1 21:1 
-1 0 19:2 
-1 0 12:1 20:1 21:1 
-1 0 19:2 
-1 0 2:1 5:1 42:1 
-1 0 12:1 21:1 
-1 0 1:0.25 13:1 15:0.25 19:1 
-1 0 1:-0.375 14:1 15:-0.375 19:1 
-1 0 20:1 
-1 0 12:1 20:1 21:1 
-1 0 1:-0.25 14:1 15:-0.25 19:1 24:2 
-1 0 19:1 
-1 0 20:1 
-1 0 18:2 19:1 
-1 0.6573045817929309 19:1 43:1 
-1 0.1105061716983426 1:0.875 13:1 15:0.875 16:1 19:1 24:1 57:1 
-1 1 21:1 
-1 0.008899222383979114 1:-0.125 14:1 15:-0.125 19:1 21:1 
-1 0 20:1 
-1 0 20:1 
-1 0 1:0.125 2:0.33333333 3:1 5:1 13:2 14:1 15:0.125 16:3 17:3 19:1 20:2 21:1 27:1 
-1 0 1:0.625 12:1 13:1 15:0.625 21:1 24:1 59:1 
-1 0 20:1 
-1 0 12:1 20:1 21:1 
-1 0 1:-0.625 14:1 15:-0.625 20:1 71:1 
-1 0.06159951112703591 19:1 20:1 21:3 24:1 34:1 
-1 0 1:-0.625 14:1 15:-0.625 24:1 86:1 
-1 0 17:1 19:1 25:1 
-1 0 1:0.125 13:1 15:0.125 19:1 85:1 
-1 0 1:-0.25 14:1 15:-0.25 19:2 24:1 
-1 0.7470237821306214 1:-0.625 14:2 15:-0.625 19:1 20:1 61:1 
-1 0 17:1 19:1 25:1 
-1 0.4357276063620661 1:0.125 13:1 15:0.125 19:1 24:1 83:1 
-1 0 19:1 
-1 0 12:1 21:1 
-1 0 1:0.75 12:1 13:1 15:0.75 17:1 20:2 21:1 25:1 
-1 0 1:-0.625 14:1 15:-0.625 86:1 
-1 1 1:-0.75 18:2 19:1 20:1 
-1 0 1:-0.5 14:2 15:-0.5 21:1 24:1 79:1 
-1 0 1:0.25 12:1 13:1 15:0.25 21:2 
-1 0 1:-0.625 14:1 15:-0.625 24:1 
-1 0 19:1 
-1 0 20:1 
-1 0 20:1 
-1 0 9:1 73:1 
-1 0.05178175593415155 1:-0.125 16:1 19:1 43:1 
-1 0 1:-0.75 20:1 
-1 0.4851742084617265 1:-0.75 
-1 0 12:1 21:1 
-0.1457442412390565 0 1:-0.75 14:1 15:-0.75 24:1 84:1 
-1 0 1:-0.875 14:1 15:-0.875 24:1 31:1 
-1 0 20:1 
-1 0 1:-0.25 14:1 15:-0.25 24:1 
-1 0 20:1 
-1 0 20:1 24:1 56:1 
-1 0.01710833947448944 20:1 21:1 65:1 
-1 0 19:4 29:1 
-1 0 1:0.125 13:1 15:0.125 19:1 20:2 
-1 0 1:0.25 24:1 
-1 0.01850161564220452 20:2 88:1 
-1 1 20:2 91:1 
-1 0 1:-0.625 14:1 15:-0.625 20:1 71:1 
-1 0 1:-0.125 14:1 15:-0.125 19:1 
-1 0 
-1 0 
-1 0.7665680452689644 1:0.375 13:1 15:0.375 19:2 24:1 62:1 
-1 0 20:1 21:1 
-1 0 1:-0.375 14:1 15:-0.375 19:1 
-1 0 12:1 20:1 21:1 
-1 0 1:-0.625 14:1 15:-0.625 17:2 19:1 24:1 26:1 
-1 1 1:1 13:1 15:0.5 24:1 
-1 0 24:1 
-1 0 1:-0.375 14:1 15:-0.375 19:2 
-1 0.2014046172219303 1:-0.375 2:0.16666667 4:1 5:1 14:1 15:-0.375 16:1 17:1 19:2 21:1 24:1 25:1 
-1 0 24:1 
-1 0 19:1 20:1 
-1 0 19:2 
-1 0 12:1 20:1 21:1 
-1 0 20:1 
-1 0 19:1 24:1 
-1 0 12:1 20:1 21:1 39:1 
-1 0 20:1 
-1 0 12:1 20:2 21:1 
-1 0 12:1 20:1 21:1 
-1 0.1795811111674309 1:-0.875 14:1 15:-0.875 19:1 21:3 24:1 31:1 75:1 
-1 0 12:1 20:1 21:1 
-1 0 20:2 21:1 
-1 1 21:1 
-1 0 1:0.125 13:1 15:0.125 20:1 60:1 
-1 0 1:-0.375 14:1 15:-0.375 20:1 
-1 0.683776340435674 1:0.375 
-1 0 24:1 
-1 0.1969639434717513 1:0.125 13:1 14:1 15:0.125 19:1 20:2 
-1 0 19:1 
-1 0 18:2 19:1 
-1 0 24:1 
-1 0 
-1 0 1:-0.5 14:1 15:-0.5 24:1 
-1 0 24:1 
-1 0 1:-0.75 14:1 15:-0.75 24:1 84:1 
-1 0 12:1 20:1 21:1 
-1 0 1:-0.25 12:1 19:2 76:1 
-1 0 2:1 5:1 20:1 
-1 0 2:1 5:1 20:1 
-1 0 20:1 
-1 0 1:0.125 13:1 15:0.125 19:1 20:1 
-1 0 19:1 
-1 0 20:1 
-1 0 24:1 
-1 0 1:-0.375 14:1 15:-0.375 19:1 
-1 0 1:-0.75 14:1 15:-0.75 19:1 24:1 
-1 0 19:1 
-1 0 1:-0.625 14:1 15:-0.625 20:1 
-1 0 1:-0.75 14:1 15:-0.75 19:1 24:1 43:1 84:1 
-1 0 20:1 
-1 0 1:-0.25 24:1 
-1 0 20:1 
-1 0 20:1 
-1 0.5779847287204671 2:0.5 5:1 17:1 25:1 
-1 0 1:0.125 13:1 15:0.125 20:2 
-1 0 24:1 
-1 0 1:-0.25 14:1 15:-0.25 24:1 
-1 0 20:1 
-1 0 12:1 20:1 21:1 
-1 0 1:-0.625 14:1 15:-0.625 24:1 
-1 0 19:1 
-1 0 
-1 0 12:1 20:1 21:1 
-1 0 1:-0.25 14:1 15:-0.25 19:1 
-1 0 20:1 
-1 0 1:-0.625 14:1 15:-0.625 86:1 
-1 0 1:-0.75 14:1 15:-0.75 19:1 
-1 0 1:-0.25 14:1 15:-0.25 24:1 
-1 0 1:-0.75 20:1 
-1 0 19:1 20:1 
-1 0 20:1 
-1 0 19:1 24:1 
-1 0 1:-0.125 14:1 15:-0.125 19:2 
-1 0 1:-0.25 14:1 15:-0.25 19:2 
-1 0 1:0.375 13:1 15:0.375 19:1 24:1 
-1 0 20:1 
-1 0 19:1 
-1 0 
-1 0 24:1 
-1 0 1:-0.5 14:1 15:-0.5 24:1 
-1 0.3069986776968233 1:0.5 13:2 15:0.5 24:2 
-1 0 1:-0.75 14:1 15:-0.75 24:1 
-1 0 1:-0.75 14:1 15:-0.75 24:1 
-1 0 1:0.25 13:1 15:0.25 19:1 
-1 0 1:0.25 13:1 15:0.25 19:1 
-1 0 1:-0.375 14:1 15:-0.375 19:1 24:1 
-1 0 
-1 0 19:1 
-1 0 20:1 
-1 1 1:0.125 13:1 15:0.125 19:1 
-1 0.3759330293141658 20:3 
-1 1 1:0.5 13:1 15:0.5 19:2 21:3 
-1 0 19:1 21:3 24:1 
-1 0 1:-0.375 13:1 14:1 15:-0.375 20:2 60:1 
-1 0 24:1 
-1 0 12:1 20:2 21:1 
-1 0 1:0.125 13:1 15:0.125 20:2 
-0 0.006488462679126741 1:-0.25 12:1 13:1 14:1 15:-0.25 19:2 20:1 21:1 
-1 0 1:-0.75 14:1 15:-0.75 19:2 
-1 0 20:1 
-1 0 1:-0.75 14:1 15:-0.75 24:1 84:1 
-1 0 12:1 20:1 21:1 
-1 0 20:1 
-1 0 1:-0.25 14:1 15:-0.25 24:1 
-1 0 12:1 20:1 21:1 
-1 0 
-1 0 24:1 
-1 0 20:1 
-1 0 1:0.125 13:1 15:0.125 19:1 85:1 
-1 0 20:1 24:1 
-1 0 1:-0.375 14:1 15:-0.375 24:1 
-1 0 24:1 
-1 0 1:-0.25 14:1 15:-0.25 19:1 24:1 50:1 
-1 0 24:1 
-1 0 17:1 25:1 
-1 0 20:1 
-1 0 19:1 
-1 0 1:-0.125 14:1 15:-0.125 19:1 
-1 0 19:1 
-1 1 1:0.25 13:1 15:0.25 20:1 21:1 
-1 0 24:1 
-1 0 19:1 
-1 0 1:-0.5 14:1 15:-0.5 24:1 
-1 0 19:1 
-1 0 1:-0.75 14:1 15:-0.75 19:1 
-1 0 24:1 
-1 0 1:-0.75 14:1 15:-0.75 24:1 84:1 
-1 0 1:-0.375 14:1 15:-0.375 17:1 20:1 25:1 
-1 0 24:1 
-1 0 19:1 
-1 0 19:1 
-1 0 1:-0.125 14:1 15:-0.125 19:1 
