svm_type c_svc
kernel_type rbf
gamma 0.0103093
nr_class 3
total_sv 5666
rho -0.113445 -1.01413 -0.982267
label 1 2 3
nr_sv 2681 2558 427
SV
1 0 20:1 
1 0 19:1 
1 0 21:1 
1 0 19:1 20:1 
1 0 19:1 20:1 
1 0 1:0.125 13:1 15:0.125 19:1 21:3 92:1 
1 0 21:1 
1 0 19:2 21:3 
1 0 13:2 15:0.25 19:1 24:1 50:1 
1 0 19:1 
1 0 19:1 
1 0 1:-0.125 14:1 15:-0.125 19:2 20:1 21:1 78:1 
1 0 19:2 20:1 
1 0 1:0.625 13:2 15:0.625 19:2 20:2 21:3 24:1 
1 0 21:1 
1 0.9115455194751337 1:-1.25 14:1 15:-0.5 18:4 19:2 20:1 
1 0 19:1 
1 0 20:1 
1 0 1:0.125 2:1 3:1 5:1 13:1 15:0.125 20:1 
1 0 20:1 
1 0.324037614111738 1:-0.25 12:1 17:1 19:1 24:1 25:1 
1 0.6471893037328103 1:-0.375 2:1 4:1 5:1 14:1 15:-0.375 20:1 
1 0 20:1 
1 0 24:1 
1 0 1:0.375 13:1 15:0.375 19:1 24:1 29:1 
1 0 20:1 21:3 
1 0.007738275829127395 1:-0.5 14:1 15:-0.5 60:1 
1 0 1:-0.5 2:0.33333333 5:1 14:1 15:-0.5 20:1 21:2 
1 0 1:0.125 13:1 15:0.125 20:2 21:1 24:1 
0 0.007852246687697559 1:0.375 13:1 15:0.375 21:1 24:1 81:1 
1 0 19:1 
1 0.9408061735390172 1:-0.375 14:1 15:-0.375 17:1 25:1 
1 0 1:-0.125 
1 0 19:1 
1 0 1:0.125 2:1 3:1 5:1 13:1 15:0.125 20:1 
1 0 16:1 17:1 19:1 
0 1 1:0.5 13:1 15:0.5 19:2 21:1 
1 0 1:-0.5 14:1 15:-0.5 20:1 
1 0 19:2 
1 0 1:-0.125 14:1 15:-0.125 20:2 
1 0 20:1 
1 0 20:1 
1 0 1:-0.625 14:1 15:-0.625 24:1 
1 0 20:2 
1 0 1:-0.125 14:1 15:-0.125 20:1 
1 0 1:-0.375 14:1 15:-0.375 20:2 93:1 
1 0 20:1 
1 0 19:1 21:3 
1 0 1:-0.875 14:1 15:-0.125 20:1 24:1 
1 0 12:1 20:1 21:1 
0 1 1:0.625 13:1 15:0.625 20:1 
1 0 24:1 
1 0 20:1 
0 0.02671002734951795 17:1 25:1 48:1 
1 0 20:1 
1 0 20:2 
1 0 19:1 
1 0 1:0.125 13:1 15:0.125 19:2 
1 0 12:1 21:1 
1 0 1:-0.5 14:2 15:-0.5 19:1 20:1 69:1 93:1 
1 0 19:1 
1 0 24:2 
1 0 1:-0.875 8:1 14:1 15:-0.125 20:1 24:1 77:1 
1 0 24:1 
1 0 24:1 
1 0 19:1 
1 0 2:0.5 5:1 20:1 21:1 87:1 
1 0 24:1 
1 0 20:1 
1 0 1:-0.125 14:1 15:-0.125 20:1 
1 0 1:-0.125 14:1 15:-0.125 21:1 78:1 
1 0 21:1 
1 0.06150895569767668 1:-0.875 12:1 14:1 15:-0.875 19:1 21:4 24:1 31:1 
1 0.1619209158540498 1:0.125 13:1 15:0.125 19:1 21:2 
1 0 20:1 
1 0 20:1 
1 0.4602154950413649 1:0.125 13:1 15:0.125 20:1 24:1 80:1 
1 0 1:-0.875 14:1 15:-0.125 20:1 24:1 
1 0 21:1 
1 0 21:1 
1 0 19:1 21:3 
1 0 19:1 
1 0 24:1 
1 0 20:1 
1 0 20:1 
1 0 19:1 
1 0.4917055626199645 19:1 21:3 42:1 
1 0.1632101410074452 1:-0.75 
1 0 21:1 
1 0 20:1 
1 0 20:2 
1 0 20:1 21:1 
1 0 19:2 
1 0 12:1 20:2 21:1 90:1 
1 0 20:1 
0 1 20:3 
1 0 1:-0.875 14:1 15:-0.125 20:1 24:1 
1 0 1:-0.875 14:1 15:-0.875 24:1 31:1 
1 0 1:0.125 13:2 15:0.25 19:1 24:1 50:1 84:1 
1 0 19:1 21:3 
1 0 21:1 
1 0 24:1 
1 0 20:1 
1 0 1:0.125 13:1 15:0.125 20:1 
1 0 19:1 
1 0 24:1 
1 0 1:0.125 13:1 15:0.125 20:1 
1 0 1:-0.125 14:1 15:-0.125 20:2 
1 0 20:1 
1 0 24:1 
1 0 19:1 
1 1 1:0.125 13:1 15:0.125 20:1 21:2 
1 0 19:1 
1 0 1:-0.75 13:1 14:2 15:-0.75 19:1 20:1 24:1 
1 0 1:-0.375 14:1 15:-0.375 19:1 20:1 93:1 
1 0 20:1 
1 0 1:-0.5 14:1 15:-0.5 17:1 20:2 25:1 
1 0 21:1 
1 0 1:-0.25 14:1 15:-0.25 20:1 
1 0 20:1 21:2 
1 0 24:1 
1 0 1:0.125 13:1 15:0.125 20:1 21:1 
1 0 19:1 20:1 
1 0 24:1 
1 0 24:1 
1 0 1:0.125 13:1 15:0.125 19:2 89:1 
1 0 20:1 
0.1445639654078099 0 1:-0.125 14:1 15:-0.125 24:1 40:1 
1 0.9741597571301763 1:0.125 13:1 15:0.125 
1 0 19:1 20:1 
1 0 20:1 
1 0 20:1 
1 0.7070714988031319 9:1 19:1 72:1 
1 0 12:1 20:1 21:1 
1 0 1:0.125 13:1 15:0.125 19:1 
1 0 1:0.25 13:1 15:0.25 19:1 24:1 
1 0 12:1 20:2 21:1 90:1 
1 0.2302472702585377 1:-0.25 12:1 19:2 20:2 24:1 75:1 
1 0 2:1 5:1 20:1 24:1 
1 0 1:0.125 13:1 15:0.125 19:1 
1 0 41:1 
1 0 12:1 20:2 21:1 90:1 
1 0 1:-0.875 14:1 15:-0.125 20:1 24:1 
1 0 21:1 
1 0 24:1 
1 0 20:2 
1 0 24:1 
1 0.3804383641460659 1:-0.5 14:2 15:-0.5 20:2 75:1 93:1 
1 0 21:1 
1 0 24:1 
1 0 21:1 
1 0 1:-0.5 14:1 15:-0.5 20:1 
1 0 1:0.125 13:1 15:0.125 24:1 
1 0 24:1 
1 0 19:1 
1 0 1:0.125 13:1 15:0.125 19:1 
1 0 1:0.125 13:1 15:0.125 19:1 
1 0 19:1 24:1 
1 0 1:-0.25 12:1 19:1 
1 0 19:1 21:3 
1 0 19:1 
1 0 20:1 
1 1 16:1 20:1 
1 0 24:1 
1 0 24:1 
1 0 19:1 24:1 42:1 
1 1 16:1 19:1 
1 0 19:1 
1 0 1:-0.75 17:1 20:1 25:1 
1 0 13:1 14:1 21:1 24:1 
1 0 24:1 
1 0 1:-0.25 14:1 15:-0.25 24:2 48:1 
1 0 1:-0.375 14:1 15:-0.375 24:1 
1 0 20:1 24:1 
1 0 20:1 
1 0 20:1 
1 0 1:-0.875 14:1 15:-0.125 20:1 24:1 
1 0 1:0.125 13:1 15:0.125 19:1 24:2 52:1 
1 0.004011889303807651 19:1 21:4 24:1 55:1 74:1 
1 0 1:-0.625 14:1 15:-0.625 19:1 
1 0 20:1 
0 0.09266903452013742 1:0.375 13:1 15:0.375 20:1 21:1 
1 0 1:0.125 13:1 15:0.125 20:1 
1 0 1:0.25 13:1 15:0.25 21:1 24:1 
1 0 19:1 20:1 21:3 
1 0 21:1 
1 0.3191887453262274 1:-0.25 14:1 15:-0.25 21:1 24:1 
1 0 19:1 20:1 
1 0 20:1 
1 0 20:1 
1 0.2714416606541346 2:0.5 5:1 9:1 20:1 72:1 
1 0 1:-0.875 14:1 15:-0.125 20:1 24:1 
1 0 20:1 
1 0 1:0.125 13:1 15:0.125 20:1 
1 0 1:0.125 13:1 15:0.125 20:1 21:1 
1 0 21:1 
1 0 20:1 
1 0 19:1 20:1 
1 0 1:0.125 13:1 15:0.125 19:1 24:2 51:1 84:1 
1 0 1:0.125 13:1 15:0.125 24:1 
1 0 20:1 
0.3408512191024972 0 
1 0 
1 0 1:-0.25 14:1 15:-0.25 19:1 
1 0 12:1 20:2 21:1 90:1 
1 0 20:1 
1 0 19:1 
1 0 
1 0 
1 0 1:-0.125 14:1 15:-0.125 24:1 40:1 
1 0 20:1 
1 0 19:1 
1 0 19:1 
1 0 19:1 
1 0 
1 0 1:-0.625 14:1 15:-0.625 19:1 
1 0 20:1 
1 0 
1 0 
1 0 
1 0 1:-0.375 14:1 15:-0.375 
1 0 2:1 5:1 21:1 
1 0 21:1 
1 0 24:1 
1 0 
1 0 
1 0 
1 0 
1 0 19:1 
1 0 1:-0.875 14:1 15:-0.125 20:1 24:1 
1 0 1:-0.125 14:1 15:-0.125 
1 0 
1 0 19:1 
1 0 1:-0.875 14:1 15:-0.125 20:1 24:1 
1 0 12:1 20:2 21:1 90:1 
1 0 19:2 
1 0 20:1 24:1 
1 0 21:1 
1 0.3622556050316259 1:-0.375 2:1 4:1 5:1 14:1 15:-0.375 24:1 
1 0 20:1 24:1 
1 0 20:1 
1 0 24:1 
1 0 
1 0 1:-0.25 14:1 15:-0.25 19:1 21:1 
1 0 
1 0 12:1 21:1 
0 0.02245771096942462 1:0.25 2:0.5 5:1 17:1 21:1 25:1 
1 0 1:0.125 13:1 15:0.125 19:1 24:1 
1 0 21:1 
1 0 
1 0 
1 0 2:1 5:1 24:1 
1 0 
1 0 1:-0.25 12:1 19:2 20:1 90:1 
1 0 24:1 
1 0 24:1 
1 0 12:1 17:1 20:2 21:1 25:1 
1 0 24:1 
1 0 20:1 
1 0 
1 0.08845381016036888 1:-0.5 12:1 14:1 15:-0.5 20:2 21:1 
1 0 20:1 
1 0 
1 0 
1 0 20:2 
1 0 12:1 20:2 21:1 90:1 
1 0 20:1 
1 0 19:1 
1 0 20:1 21:1 64:1 
1 0.029275587353568 1:0.375 13:2 15:0.375 19:1 20:1 21:1 
1 0 12:1 20:2 21:1 90:1 
1 0 19:1 
1 0 20:1 
1 0 
1 0 20:1 
1 0 19:1 
1 0 
1 0 24:1 
1 0 
1 0 20:1 
1 0 12:1 20:2 21:1 90:1 
1 0 1:0.125 12:1 13:1 15:0.125 20:1 21:1 59:1 
1 0 24:1 75:1 
1 0 41:1 
1 0 
1 0 19:1 
1 0 24:1 
1 0 24:1 
1 0 
1 0 19:1 
1 0 1:-0.125 14:1 15:-0.125 20:1 
1 0 12:1 17:2 19:3 20:1 21:1 26:1 
1 0 
1 0 19:1 
1 0 24:1 
1 0 
1 1 1:0.5 12:1 13:1 15:0.5 21:1 24:1 
1 0 21:1 
1 0 1:-0.375 14:1 15:-0.375 20:1 93:1 
1 0.1317032325743091 1:-0.375 14:1 15:-0.375 20:2 
1 0 
1 0 
1 0 1:-0.875 14:1 15:-0.125 17:1 20:1 24:1 25:1 
1 0 20:1 24:1 
1 0 20:1 
1 0 21:1 
1 0 24:1 
1 0 
1 0 1:-0.875 14:1 15:-0.125 20:1 24:1 
1 0 20:1 
1 0 20:1 
1 0 
1 0 20:1 
1 0 21:1 
1 0 1:-0.25 12:1 17:1 
1 0 1:0.125 13:1 15:0.125 20:1 
1 0 20:1 
1 0 
1 0 
1 0 1:-0.5 14:1 15:-0.5 20:1 
1 0 
0 0.9647403737050482 1:1.25 13:1 15:0.75 24:1 
1 0 24:1 
1 0 1:0.125 13:1 15:0.125 17:1 19:2 21:3 24:1 25:1 
1 0 
1 0 1:0.125 14:1 15:-0.375 20:1 24:1 73:1 93:1 
0 0.0214530386073917 2:0.5 5:1 17:1 24:1 25:1 
1 0 
1 0 1:-0.5 13:1 15:0.25 20:1 
1 0 19:1 
1 0 20:1 
1 0 20:1 
1 0 
1 0 24:1 
1 0 1:-0.125 14:1 15:-0.125 20:2 
1 0 21:1 
1 0 19:1 24:2 80:1 
1 0 1:1.125 12:1 13:2 15:1.125 17:1 21:2 24:2 25:1 30:1 
1 0 19:1 
1 0 20:1 
1 0 21:1 
1 0 19:1 
0 0.6114625286245354 17:1 19:1 24:1 25:1 35:1 
1 0 
1 0 1:0.125 2:1 3:1 5:1 13:1 15:0.125 20:1 
1 0 1:0.125 13:1 15:0.125 20:1 
1 0 
1 0 20:1 
1 0 1:-0.375 2:0.25 4:1 5:1 14:1 15:-0.375 17:3 27:1 
1 0 20:1 
1 0 24:1 
0 1 1:0.375 13:1 15:0.375 21:1 
1 0 20:1 24:1 
1 0 
1 0 
1 0 
1 0 
1 0 1:-0.5 8:1 14:1 15:-0.5 20:1 77:1 
1 0 
0.6288715055987705 0 1:0.25 13:1 15:0.25 19:2 75:1 
1 0 19:1 
1 0 1:0.25 13:1 15:0.25 19:2 
1 0 1:0.125 13:1 15:0.125 20:1 
1 0 1:-0.125 14:1 15:-0.125 24:1 40:1 
1 0 20:1 
1 0 
1 0 12:1 20:2 21:1 90:1 
1 0 
1 1 1:0.125 13:1 15:0.125 19:1 24:1 
1 1 12:1 20:3 21:1 
1 0 
1 0 12:1 20:2 21:1 90:1 
0.6830753074881434 0 1:-0.125 13:2 15:0.625 19:1 20:1 61:1 
1 0 20:1 
1 0 1:0.125 13:1 15:0.125 19:1 
1 0 19:1 21:3 24:1 34:1 
1 0 1:0.125 13:1 15:0.125 20:1 
1 0 1:-0.5 14:1 15:-0.5 20:1 
1 0 21:1 
1 0 1:-0.125 14:1 15:-0.125 20:2 
1 0 
1 0 
1 0 24:1 
1 0 
1 0 21:1 
1 0 19:1 
1 0 
1 0 1:0.125 12:1 13:1 15:0.5 17:4 19:1 20:1 24:1 42:1 68:1 
1 0 20:1 24:1 
1 0 24:1 
1 0 1:-0.375 14:1 15:-0.375 20:1 24:1 53:1 
1 0 20:1 
1 0.07228109461558409 19:2 20:1 74:1 
1 0 1:0.125 13:1 15:0.125 24:1 
1 0 
1 0.9803946880021578 1:-0.25 13:1 14:1 15:-0.25 19:1 20:1 24:1 60:1 
1 0 24:1 
1 0 
1 0 
1 0 1:-0.75 20:1 
1 0 1:0.25 12:1 17:1 21:1 25:1 
1 0 19:1 
1 0 
1 0 1:0.125 13:1 15:0.125 20:1 
1 0 
1 0 1:-0.375 14:1 15:-0.375 
1 0 19:1 20:1 
1 0 19:1 
1 0 1:-0.375 14:1 15:-0.375 
1 0 
1 0.689420065042643 1:0.25 13:1 14:1 15:0.25 20:1 21:1 
1 0 2:1 5:1 19:1 20:1 
1 0 24:1 
1 0 20:1 
1 0 
1 0 20:1 
1 0.02118602308640504 1:0.25 13:1 15:0.25 21:1 24:1 
1 0 19:1 24:1 
1 0 1:0.125 12:1 13:1 15:0.25 19:1 20:1 21:1 44:1 
1 0 12:1 17:1 20:2 21:2 25:1 90:1 
1 0 21:1 
1 0 19:1 
1 0 1:-0.25 14:1 15:-0.25 19:1 20:1 
1 0 1:0.25 13:1 14:1 15:0.25 19:1 24:1 33:1 
1 0 
1 0 24:1 
1 0 
1 0 1:-1.75 14:2 15:-1 20:1 21:1 24:2 31:1 41:1 
1 0 1:0.375 13:2 15:0.375 20:2 
1 0 1:0.125 2:1 3:1 5:1 13:1 15:0.125 19:1 
1 0 1:-0.125 12:1 14:1 15:-0.125 17:2 20:3 21:1 26:1 
0 0.1452139212490943 1:0.875 13:1 15:0.875 16:1 24:1 30:1 
1 0 19:1 21:3 
1 0 21:1 
1 0 21:1 
1 0 19:1 
1 0 2:0.5 5:1 12:1 20:1 21:1 
1 0 
1 0 1:-1.25 14:2 15:-1.25 20:2 
1 0 12:1 20:2 21:1 90:1 
1 0 1:-0.5 14:1 15:-0.5 20:1 
1 0 
1 0 12:1 20:1 21:1 
1 0 
1 0 1:-0.125 14:1 15:-0.125 19:1 24:1 40:1 
1 1 1:0.375 13:1 15:0.375 19:1 20:1 21:3 
1 0 19:1 24:1 
1 0 1:-0.125 14:1 15:-0.125 20:1 21:1 
1 0 12:1 20:2 21:1 90:1 
1 0 20:1 
1 0 19:1 
1 0 20:1 
1 0 20:1 
0 0.009734437683747398 1:0.625 13:1 15:0.625 19:1 21:3 24:1 42:1 76:1 
1 0 12:1 17:1 20:1 21:1 25:1 
1 0 20:1 
0.07902034062251601 0 24:1 53:1 
1 0 20:1 
1 0 2:1 5:1 19:1 29:1 
1 0 24:2 
1 0 21:1 24:1 53:1 
1 0 20:1 
1 0 1:-0.125 14:1 15:-0.125 24:1 40:1 
1 0 1:-0.125 14:1 15:-0.125 24:1 40:1 
1 0 1:-0.125 14:1 15:-0.125 20:1 24:1 34:1 
1 0 12:1 20:2 21:1 90:1 
1 0 
1 0 1:0.125 13:1 15:0.125 20:1 
1 0 
1 0 1:-0.75 14:1 15:-0.75 19:1 24:1 
1 0 24:1 
1 0 1:0.125 13:1 15:0.125 20:1 
1 0 24:1 
1 0 24:1 
1 0 
1 0 20:1 
0.01339248080084305 0 19:1 42:1 
1 0 12:1 20:2 21:1 90:1 
1 0 1:-0.375 14:1 15:-0.375 20:1 93:1 
1 0 19:1 
0 0.01669832306026296 1:0.375 13:1 15:0.375 20:1 24:1 
1 0.9015816519261252 12:1 20:1 21:1 24:1 
1 0 20:1 
1 0 1:-0.125 14:1 15:-0.125 24:1 40:1 
1 0 24:1 
0.1160638755439233 0 19:1 24:1 35:1 
1 0 1:-0.25 14:1 15:-0.25 20:1 21:1 
1 0 1:-0.375 14:1 15:-0.375 
0.01467866167915354 0 20:1 88:1 
0.009924897204615717 0 1:-0.125 14:1 15:-0.125 19:1 69:1 
1 0.7496908465827072 20:3 63:1 
1 0 20:1 
0.9358321083069312 0 1:-0.125 14:1 15:-0.125 24:1 40:1 
1 0 
1 0 20:1 
1 0 20:1 
0.9529519648374449 0 1:-0.125 14:1 15:-0.125 19:1 69:1 
1 0.2841647949600644 1:-0.5 14:1 15:-0.5 20:1 21:3 
1 0 
1 0 20:1 
1 0 2:0.5 5:1 12:1 20:1 21:1 
1 0.3686077186241313 1:-0.75 2:1 4:1 5:1 14:1 15:-0.75 19:1 
1 0 19:1 
1 0 21:1 24:1 81:1 
1 0 1:-0.75 14:1 15:-0.75 19:1 24:1 
1 0 
1 0 8:1 13:1 14:1 16:1 17:1 19:3 24:1 25:1 40:1 77:1 84:1 
1 0 20:1 
1 0 
0.08069858081066002 0 24:1 80:1 
0.07891124625258664 0 1:-0.125 14:1 15:-0.125 20:1 21:1 48:1 65:1 
1 0.9113006923080516 12:1 20:1 21:2 
1 0.5389648560979996 12:1 19:1 20:1 21:2 42:1 
1 0 20:1 
1 0 1:-0.125 13:1 14:1 15:-0.125 19:2 50:1 
1 0 20:1 
0 0.4386425907414336 17:1 20:2 21:1 25:1 34:1 63:1 
0.09881767053729093 0 24:1 47:1 
0.0942807538716996 0 24:1 36:1 
1 0 1:-0.125 12:1 14:1 15:-0.125 20:2 21:1 
1 0 20:1 
1 0 20:1 
1 0 24:1 
1 0 21:1 
1 0 21:1 
1 0 20:1 
1 0 1:-0.25 14:1 15:-0.25 24:2 73:1 
0.01843239424656037 0 57:1 
1 0 
1 0 24:1 
1 0 1:-0.375 14:1 15:-0.375 24:1 
1 0 24:1 
1 0 20:1 
1 0 24:1 
1 0 20:1 
1 0 20:1 
1 0 1:0.25 13:2 15:0.25 19:1 20:1 84:1 
1 0 1:0.125 13:1 15:0.125 21:1 24:1 34:1 44:1 
1 0 19:1 24:1 
1 0 21:1 
1 0 21:1 24:1 81:1 
1 0 1:0.125 13:1 15:0.125 20:1 
1 0 12:1 21:1 
1 0 
1 0 1:-0.25 20:1 
1 0 20:1 
1 0 1:-0.125 14:1 15:-0.125 24:1 40:1 
1 0 20:1 
1 0 19:1 20:1 
1 0 24:1 
1 0 12:1 20:2 21:1 90:1 
1 0 24:2 
1 0 1:0.125 2:1 3:1 5:1 13:1 15:0.125 19:1 
0 0.255042363331263 17:2 20:1 24:1 26:1 
1 0 20:1 
1 0 24:1 
1 1 12:1 20:2 21:1 
1 0 19:1 
1 0 
1 0 24:1 
1 0 
1 0 
1 0 1:-0.375 13:1 14:2 15:-0.375 19:1 24:2 33:1 
1 0 1:-0.125 
1 0 19:1 
1 0 1:-0.5 14:1 15:-0.5 20:1 
1 0 20:1 
1 0 12:1 20:1 21:1 
1 0 
1 0 1:-0.75 12:1 14:1 15:-0.5 19:2 
1 0 12:1 20:2 21:1 90:1 
1 0 19:2 
1 0 1:-0.125 14:1 15:-0.125 19:1 69:1 
1 0 
1 0 20:1 
0.0120031173357318 0 1:0.125 13:1 15:0.125 19:1 20:1 92:1 
1 0 20:1 
1 0 19:1 20:2 
1 0 12:1 20:2 21:1 90:1 
1 0 21:1 
1 0 19:1 20:1 
1 0 1:-0.125 14:1 15:-0.125 24:1 40:1 
1 0 20:1 
1 0 
1 0 
1 0 1:0.375 13:1 14:1 15:0.375 19:2 20:1 
1 0.06172689971548739 1:-1.125 14:2 15:-1.125 21:1 24:1 31:1 
1 0 
1 0.4130570111882345 1:-0.375 13:1 14:1 15:-0.375 20:2 21:1 
1 0 24:1 
1 0 1:0.25 13:1 15:0.25 19:1 24:1 
1 0.1128684774344425 1:-0.375 14:1 15:-0.375 17:1 20:1 24:1 25:1 93:1 
1 0 1:0.25 13:1 14:1 15:0.25 17:1 19:1 20:1 24:1 25:1 61:1 
1 0 
1 0 
1 0 1:-0.375 14:1 15:-0.375 20:1 
1 0 19:1 
1 0 24:1 
1 0 1:-0.375 14:1 15:-0.375 17:1 19:3 20:2 24:1 25:1 64:1 
1 0 1:0.125 13:1 15:0.125 17:1 19:1 25:1 84:1 91:1 
1 0.1083579727243999 1:-1.125 14:2 15:-0.375 19:1 20:1 24:1 
1 0 1:-0.875 14:1 15:-0.125 20:1 24:2 
1 0 
1 0 19:1 
0 1 1:0.625 13:1 15:0.625 20:1 
1 0 1:0.125 13:1 15:0.125 20:1 
1 0 
1 0 12:1 20:2 21:1 90:1 
1 0 1:0.125 13:1 15:0.125 20:1 21:1 24:1 34:1 
1 0 1:-0.5 14:1 15:-0.5 20:2 
1 0 21:1 
1 0 1:0.25 13:1 15:0.25 20:1 21:1 
1 0 20:1 
1 0 19:1 24:1 
1 0 1:0.125 13:1 15:0.125 24:1 
1 0 24:1 
1 1 12:1 20:2 21:1 
1 0 19:1 
1 0 1:0.125 13:1 15:0.125 20:2 21:1 92:1 
1 0 1:0.125 13:1 15:0.125 20:1 
1 0 1:0.125 13:1 15:0.125 20:1 
1 0 19:1 24:1 82:1 
1 0 20:1 
0.8654498515143257 0 1:0.125 13:1 15:0.125 19:1 20:1 92:1 
1 0 20:1 21:1 
1 0 12:1 20:1 21:1 
1 0.07480665789688545 1:-0.375 14:1 15:-0.375 20:1 21:1 91:1 93:1 
1 0 1:-0.25 
1 0 1:-0.25 14:1 15:-0.25 20:1 
1 0 20:1 21:1 
1 0 19:1 
1 0 12:1 20:2 21:1 90:1 
1 0 
1 0 1:0.125 13:1 15:0.125 19:1 
1 0 1:-0.75 12:1 14:1 15:-0.75 21:1 24:1 
1 0 1:-0.125 12:1 13:1 15:0.125 19:2 24:1 55:1 
1 0 1:0.125 13:1 15:0.125 24:1 
1 0 20:1 
1 0 
1 0 20:1 
1 0 20:1 21:1 
1 1 1:0.125 13:1 15:0.125 20:2 21:1 
1 0 20:1 
1 0 19:1 
1 0 19:1 
1 0 1:-0.25 12:1 19:2 
1 0 
1 0 12:1 20:2 21:1 90:1 
1 0 1:0.125 13:1 15:0.125 24:1 
1 0 19:1 
1 0 
1 0 24:1 
1 0.8469356389246993 16:1 17:1 
1 0 21:1 
1 0 20:1 21:1 
1 0.4407692269822188 1:-0.125 14:1 15:-0.125 20:2 21:1 
1 0 24:1 
1 0 1:-0.875 14:1 15:-0.125 20:1 24:1 
1 0 1:-0.5 14:1 15:-0.5 17:1 19:1 20:1 21:3 25:1 
0.02144312976924319 0 20:1 95:1 
1 0 19:1 
0 0.06650020391060235 1:0.5 13:1 15:0.5 21:1 24:1 
1 0 2:1 5:1 19:1 20:1 
1 0 21:1 
1 0.3627358307895004 1:-0.125 19:1 
1 0 1:0.125 13:1 15:0.125 21:1 
1 0 20:1 
1 0 1:-0.375 14:1 15:-0.375 20:1 93:1 
1 0 19:1 
1 0 12:1 19:1 21:1 24:1 34:1 
1 0 21:3 
1 0 24:1 
1 0 19:1 21:3 
1 0 24:1 
0.8420769507881558 0 10:1 19:1 45:1 
1 0 
1 0 19:1 20:1 21:1 
1 0 
1 0 20:1 
1 0 1:-0.125 14:1 15:-0.125 20:1 
1 0 1:0.125 13:1 15:0.125 20:1 
1 0 1:-0.5 12:1 14:1 15:-0.25 17:1 19:2 25:1 
1 0 
1 0 19:2 20:1 21:1 81:1 
1 0 20:1 
1 0 24:1 
1 0 1:-0.875 14:1 15:-0.125 20:1 24:1 
1 0 1:-0.5 14:1 15:-0.5 17:2 20:2 26:1 
0.01692339368659309 0 19:1 87:1 
1 0 
1 1 1:-0.5 14:1 15:-0.5 19:1 20:1 21:3 
1 0 
1 0 1:-0.125 14:1 15:-0.125 20:1 
1 0 24:1 
1 0 
1 0 
1 0 
1 0 
1 0 1:-0.125 2:0.5 5:1 14:1 15:-0.125 20:2 
1 0 20:1 
1 0 1:-0.625 13:1 14:1 15:-0.625 20:1 24:1 
1 0 
1 0 
1 0 19:1 
1 0 12:1 20:2 21:1 90:1 
1 0 19:1 
0 0.2212110144447338 2:0.25 5:1 17:2 20:1 25:1 
1 0 21:1 
1 0 24:1 
1 0 20:1 
1 1 1:-0.25 14:1 15:-0.25 24:1 
1 0 20:1 
1 0 21:1 
1 0 1:-0.125 14:1 15:-0.125 20:1 
1 0 12:1 20:2 21:1 90:1 
1 0 20:1 
1 0 20:1 
1 0 
1 0.8300636230500393 19:1 21:4 
1 0 20:1 
1 0 19:1 24:1 36:1 
1 0 1:-0.125 14:1 15:-0.125 20:1 
1 0 
1 0 19:1 
1 0 19:1 
1 0 19:1 
1 0 1:-0.75 14:1 15:-0.75 24:1 
1 0 2:1 5:1 19:1 
1 0 
1 0 1:-1 14:2 15:-1 21:4 24:1 78:1 
1 0 
1 0 1:-1.25 14:1 15:-0.5 18:2 19:1 20:1 
1 0 
1 0 1:-0.375 14:1 15:-0.375 20:1 
1 0 21:1 
1 0 1:-0.375 14:1 15:-0.375 20:1 93:1 
0 0.8752415739644984 1:1 13:1 15:1 24:1 
1 0 20:1 
1 0 
1 0 1:-0.75 12:1 20:1 21:1 
1 0 1:0.125 13:1 15:0.125 24:1 
1 0 1:-0.25 14:1 15:-0.25 20:1 
-0 0.203062883934195 17:1 20:2 25:1 
0 0.01226836678449016 1:0.5 13:2 15:0.5 19:1 24:1 
1 0 20:1 
1 0 20:1 
1 0.9354109378659082 1:-0.375 12:1 13:1 14:1 15:-0.125 19:1 21:4 24:1 
1 0 24:1 
1 0 24:1 
1 0.1419457521412348 1:0.25 13:1 15:0.25 16:1 24:1 44:1 
1 0 19:1 
1 0 1:-0.375 14:1 15:-0.375 24:1 
1 0 1:-0.25 14:1 15:-0.25 20:1 
1 0 21:1 
1 0 24:1 
1 0 
1 0 
0 0.5560014522830816 1:0.75 13:1 15:0.75 19:1 24:2 
1 0 20:1 
1 0 19:1 
0 0.04027067996971574 1:0.5 13:1 15:0.5 21:1 
1 0 1:-0.125 14:1 15:-0.125 19:1 69:1 
1 0 1:-0.125 14:1 15:-0.125 20:2 
1 0 20:1 
1 0 1:-0.375 14:1 15:-0.375 20:1 93:1 
1 0 21:1 
1 0.1536091254557876 1:-0.25 19:1 21:3 
0.5989555358137075 0 20:1 64:1 
1 0 19:1 21:3 
1 0 19:2 20:1 
1 0 
1 0 1:-0.375 14:1 15:-0.375 20:1 93:1 
1 0 
1 0 20:1 
1 0 2:1 5:1 19:1 
1 0 1:0.125 13:1 15:0.125 21:1 
1 0 19:1 
1 0 13:1 14:1 21:1 24:2 78:1 
1 0.9763528640046308 1:-0.125 14:1 15:-0.125 20:3 
1 0 12:1 20:2 21:1 90:1 
1 0 
1 0 1:-0.5 14:1 15:-0.5 20:2 21:1 91:1 
1 0 1:-0.125 13:1 14:1 15:-0.125 19:2 24:1 50:1 
1 0 1:-0.875 14:1 15:-0.125 20:1 24:1 
1 0 
1 0 1:0.125 13:1 15:0.125 20:1 
1 0 
1 0 
1 0 20:1 
0.1281997246724275 0 21:1 24:1 34:1 
1 0 12:1 20:2 21:1 90:1 
1 0 20:1 
1 0.3887500884006835 1:-0.375 14:1 15:-0.375 17:1 20:1 24:1 25:1 
1 0 24:1 
0 1 1:0.5 13:1 15:0.5 19:3 
1 0 12:1 20:2 21:1 90:1 
1 0.005827695774417767 1:0.25 13:2 15:0.25 20:2 24:1 
1 0 1:-0.375 14:1 15:-0.375 20:1 
1 0 
1 0 
1 0 19:1 
1 0 
1 0 20:1 
1 0 1:-0.875 14:1 15:-0.125 20:1 24:1 
1 0 19:1 
1 0 
1 0 1:0.375 13:1 15:0.375 19:1 21:3 24:1 
1 0 
1 0 20:1 
1 0 20:1 21:1 
1 0 20:2 
1 0 1:0.375 13:1 14:1 15:0.375 19:2 20:2 
1 0 12:1 20:2 21:1 90:1 
1 0 20:1 
1 0 12:1 20:2 21:1 90:1 
1 0 1:-0.875 14:1 15:-0.125 20:1 24:1 
1 0 21:1 
1 0 
1 0 20:1 21:1 
1 0 
1 0 12:1 20:1 21:1 
1 0 
1 0 
1 0 1:-0.375 13:1 14:1 15:-0.25 24:2 
1 0 
1 0 
1 0 
1 0 1:-0.125 14:1 15:-0.125 19:1 69:1 
1 0 
1 0 20:1 
1 0 
1 1 1:0.625 13:1 15:0.125 19:1 24:1 
1 1 1:0.125 13:1 15:0.125 20:3 21:1 
1 0 1:-0.375 14:1 15:-0.375 20:1 21:1 
1 0 1:-0.375 14:1 15:-0.375 20:1 93:1 
1 0 1:-0.625 13:1 14:1 15:0.125 17:1 19:1 20:1 21:1 24:2 25:1 
1 0.08605533339627223 1:0.125 13:1 15:0.125 19:1 20:3 
0 0.02306107812554075 1:0.5 13:1 15:0.5 20:1 21:1 24:1 
1 0 
1 0 12:1 20:2 21:1 90:1 
0.3747869694567389 0 1:-0.25 13:2 14:1 15:0.5 17:1 20:2 21:1 24:1 25:1 68:1 
1 0 21:1 
1 0 12:1 21:1 
1 0 19:1 20:1 42:1 
1 0 1:0.375 13:1 15:0.375 19:1 21:3 24:1 47:1 
1 0 24:1 
1 0 19:1 
1 0 
1 0 
1 0 1:0.125 13:1 15:0.125 20:1 
1 0 1:-0.125 13:1 14:1 15:-0.125 21:1 24:1 
1 0.1495816435716049 13:1 14:1 16:1 19:2 20:1 24:1 50:1 65:1 
1 0 1:0.125 13:1 15:0.125 21:1 24:1 
1 0 12:1 20:2 21:1 90:1 
0.5409479416221463 0 1:0.25 13:1 15:0.25 21:1 
1 0 1:0.125 12:1 13:1 15:0.125 20:2 21:1 
1 0 1:0.125 13:1 15:0.125 21:1 24:1 50:1 
1 0 
1 0 1:0.125 13:1 15:0.125 20:2 
0 1 1:1 13:2 15:1 19:2 20:1 21:1 
1 0 1:-0.125 13:1 14:1 15:-0.125 19:2 50:1 
1 0 24:1 
1 0 19:1 21:3 
1 0.1168124494290149 1:-0.125 14:1 15:-0.125 20:1 21:1 
0.06463207868675273 0 1:0.125 13:1 14:1 15:0.125 21:1 24:1 44:1 78:1 
1 0 19:1 
1 0 
1 0 1:-0.875 14:1 15:-0.125 20:1 24:1 
1 0 1:-0.125 14:1 15:-0.125 20:1 21:1 81:1 
1 0 1:0.125 13:1 15:0.125 19:1 
1 0 19:1 
1 0 1:0.25 12:1 13:1 15:0.25 19:1 20:2 21:1 24:1 90:1 
1 0 24:1 
1 0 1:-0.375 14:1 15:-0.375 20:1 93:1 
1 0 1:0.125 13:1 15:0.125 19:1 
1 0 20:1 
1 0 1:-0.5 14:1 15:-0.5 20:2 
1 0 1:-0.125 14:1 15:-0.125 19:1 69:1 
1 0 
1 0 
1 0 1:-0.125 14:1 15:-0.125 21:1 78:1 
1 0 20:1 
1 0 1:0.125 13:1 15:0.125 24:1 
1 0 20:1 
1 0 1:0.125 13:1 15:0.125 17:1 21:2 24:1 25:1 
1 0 24:1 
1 0.02537688112649465 1:-0.75 17:1 25:1 
0 0.6129264355652632 1:0.875 13:1 15:0.875 20:1 
1 0 12:1 21:1 24:1 
1 0 19:1 
1 0 20:1 
1 0 19:1 21:1 24:1 
1 0 20:1 
1 0 
1 0 24:1 
1 0 1:-0.5 14:2 15:-0.5 17:2 19:1 20:1 26:1 69:1 
1 0 21:1 
1 0 19:1 
1 0 
1 0 1:0.125 13:1 15:0.125 19:2 89:1 
1 0 1:-0.375 14:1 15:-0.125 17:2 19:1 24:1 26:1 78:1 
1 0 
1 0 24:1 
1 0 1:-0.25 12:1 17:1 19:1 
1 0 20:1 24:1 
1 0 19:1 
0.1050730396502646 0 20:1 24:1 82:1 
1 0 
1 0 20:1 24:1 
1 0 1:0.125 13:1 15:0.125 19:3 89:1 
1 0 
1 0 24:1 
1 0 
1 0 1:0.125 13:1 15:0.125 19:1 
1 0 19:1 
1 0 
0 0.2399010153582663 1:0.5 13:1 15:0.5 21:2 24:1 81:1 
1 0 1:-0.875 14:1 15:-0.125 20:1 24:1 
1 0 20:1 
1 0 
1 0 
1 0 20:1 
1 0 21:1 
1 0 
1 0 
1 0 12:1 21:1 24:1 
1 0 
1 0 
1 0 49:1 97:1 
0.7207946741933999 0 1:0.75 13:2 14:1 15:0.75 19:3 20:1 24:1 32:1 
0 1 1:0.5 24:1 
1 0 
1 0 1:-0.25 14:1 15:-0.25 20:1 21:1 24:1 34:1 
0 1 17:1 19:2 25:1 
1 0 20:2 
1 0 24:1 
1 0 19:1 
1 0 20:1 
0 0.4091644308870436 1:0.625 13:1 15:0.625 19:2 24:1 42:1 
1 0 19:1 21:3 
1 0 19:1 
1 0 1:0.125 13:2 15:0.25 24:2 
1 0 19:1 21:3 
1 0 21:1 
1 0 
1 0 
1 0 1:-0.625 13:1 15:0.125 20:1 
1 0 20:1 
1 0 24:1 97:1 
1 0 
1 0 20:1 
1 0 19:1 
1 0 1:-0.25 8:1 13:3 14:1 15:0.5 17:1 18:2 19:2 20:4 24:1 25:1 61:1 68:1 77:1 
1 0 1:-0.875 14:1 15:-0.125 20:1 24:1 
1 1 21:1 
1 0 1:-0.375 14:1 15:-0.25 19:1 24:1 
1 0 
1 0 24:1 
1 0.08576133764245532 13:1 14:1 21:1 24:1 
1 0 20:1 
1 0 19:1 
0 0.1444323932254629 1:0.25 13:1 15:0.25 20:1 24:1 80:1 
1 0 
1 1 21:1 
1 0 1:0.125 13:1 15:0.125 20:1 91:1 
1 0 20:1 
1 0 20:1 
1 0 19:2 20:1 21:3 
1 0 1:-0.125 14:1 15:-0.125 24:1 
1 0 19:1 21:3 24:1 55:1 
1 0 
1 0 2:0.75 5:1 20:1 24:3 34:1 
1 0.4626100527388298 1:-0.5 2:0.5 4:1 5:1 14:2 15:-1 20:2 
1 0 19:1 
1 0 1:-0.75 12:1 20:1 21:1 
1 1 21:1 
1 0 12:1 20:2 21:1 90:1 
1 0 
1 0 20:1 
1 0 21:1 24:1 73:1 
1 0 1:-0.25 14:1 15:-0.25 20:1 
1 0 19:1 
0 0.121887644861698 20:1 90:1 
1 0 1:0.125 13:1 15:0.125 19:1 24:1 84:1 
1 0 1:-0.875 13:1 14:2 15:-0.125 20:2 24:2 40:1 
1 0 12:1 20:2 21:1 90:1 
1 0 1:-0.125 14:1 15:-0.125 19:1 69:1 
1 0 
1 0 
1 0 
1 0 
1 0 19:1 20:1 
1 1 1:-1 14:1 15:-0.125 16:1 20:1 24:1 
1 0 1:-0.5 12:1 17:1 21:1 25:1 
1 0 1:-0.25 14:1 15:-0.25 20:2 
1 0 
1 0 1:-0.75 17:1 20:1 25:1 
1 0 
1 0 19:1 21:3 24:1 55:1 
1 0 
1 0 20:1 
1 0 1:-0.125 14:1 15:-0.125 19:1 69:1 
1 0 1:-0.125 14:1 15:-0.125 19:1 69:1 
1 0.4177439015912816 1:0.125 12:1 13:1 15:0.125 17:1 19:2 21:1 24:1 25:1 
1 0 12:1 20:1 21:1 
1 0 19:1 24:2 
1 0 19:1 24:1 
1 0 1:-0.875 12:1 14:1 15:-0.125 20:2 21:1 
1 0 1:-0.375 13:1 14:1 15:-0.375 19:1 24:1 50:1 60:1 
1 0 1:0.125 13:1 15:0.125 21:1 24:1 50:1 
1 0 
1 0 1:0.125 13:1 15:0.125 19:1 
1 1 19:1 21:3 
1 0 
1 0 1:-0.125 14:1 15:-0.125 20:1 65:1 
1 0 1:-0.125 14:1 15:-0.125 24:1 40:1 
1 0 24:1 
1 0 19:1 
1 0 12:1 20:2 21:1 90:1 
1 1 1:-0.125 12:1 21:1 
1 0 19:1 24:1 
1 0 24:1 
1 0 1:0.125 13:1 15:0.125 21:3 24:2 34:1 
1 0 13:2 15:0.25 19:1 24:1 50:1 
1 0 24:1 
1 0 
1 0 
1 0 1:-0.25 13:1 14:1 15:-0.25 17:1 20:1 21:1 25:1 
0.01609592204867078 0 1:0.125 13:1 15:0.125 17:1 19:1 25:1 
1 0 1:-0.125 14:1 15:-0.125 20:1 
1 0 19:2 24:1 55:1 
1 0 1:-0.25 13:1 14:1 15:-0.25 19:2 
1 0 20:1 
1 0 12:1 21:1 
1 0 19:1 
1 0 20:1 
1 0 12:1 20:2 21:1 90:1 
1 0 1:-0.375 14:1 15:-0.375 20:1 
1 0 19:1 
1 0 
1 0 20:1 
1 0 1:-0.375 13:1 14:1 15:-0.375 20:2 92:1 
1 0 
1 0 
1 0 
1 0 20:1 
1 0 2:1 5:1 19:1 
1 0 1:-0.375 14:1 15:-0.375 17:3 27:1 
1 0 20:1 
1 0 
1 0 
1 0 24:1 
1 0 2:1 5:1 24:1 
1 0.257716692351867 1:0.125 12:1 13:1 15:0.125 20:2 21:1 
1 0 1:-0.5 14:1 15:-0.5 17:1 20:2 21:1 25:1 
1 0 
1 1 1:-0.125 14:1 15:-0.125 19:1 24:1 
1 0 1:-0.125 14:1 15:-0.125 20:1 24:1 
1 0 1:-0.125 14:1 15:-0.125 21:2 24:1 51:1 78:1 
1 0.1951423193045478 1:-0.75 12:1 14:1 15:-0.5 19:2 
1 0 1:-0.5 14:1 15:-0.5 20:1 
1 0 1:0.25 13:1 15:0.25 19:2 
1 0 12:1 21:1 24:1 66:1 
1 0 24:1 
1 0 20:1 21:1 
1 0 
1 0 1:-0.875 14:1 15:-0.125 20:1 24:1 
1 0 19:1 21:3 24:1 55:1 
1 0 19:2 24:1 
1 0 
1 0 1:0.125 13:1 15:0.125 21:1 24:1 50:1 
1 0 1:-0.125 
1 0 
1 0 19:1 
1 0 1:-0.125 14:1 15:-0.125 17:1 20:1 25:1 
1 0 12:1 20:2 21:1 90:1 
1 0 1:0.125 13:1 15:0.125 19:1 
1 0 
1 0 1:0.25 13:2 15:0.25 19:1 21:1 24:1 50:1 
1 0.06218974550515832 1:-1.25 14:1 15:-0.5 18:2 19:1 20:1 
1 0 20:1 
1 0 19:1 
1 0 
1 0 1:-0.875 14:1 15:-0.125 20:1 24:1 
1 0 20:1 
1 0 
1 0 
1 0 19:1 21:3 24:1 42:1 73:1 
1 0 
1 0 20:2 
1 0 
1 0 24:1 
1 0 1:-0.125 2:0.5 5:1 24:2 
1 0 1:0.5 12:1 13:1 15:0.5 20:1 21:2 62:1 
1 1 21:1 
1 0 1:0.375 13:1 14:1 15:0.375 19:2 20:1 
1 0 12:1 20:2 21:1 90:1 
1 0 
0 0.03353447844556665 1:0.375 13:1 15:0.375 19:2 21:1 
1 0 1:-0.125 
1 0.9935148333275602 1:0.125 13:1 15:0.125 20:1 21:3 
1 0 1:0.25 13:2 15:0.25 19:1 24:2 36:1 
1 0 20:1 21:1 
1 0 
1 1 21:1 
1 0 12:1 17:1 20:1 21:1 24:1 25:1 
1 0 1:-0.5 14:1 15:-0.5 20:2 
1 0 1:-0.375 12:1 14:1 15:-0.125 19:2 
0 0.08109209073342283 1:0.25 13:1 15:0.25 21:2 34:1 
1 0 1:0.125 13:1 15:0.125 20:1 24:1 
1 0 1:-1.625 14:1 15:-0.125 20:1 24:1 
1 0 19:2 
1 0 
1 0 1:-0.125 14:1 15:-0.125 20:1 
1 0 20:1 21:1 
1 0 20:1 
1 0 20:1 
1 0 
1 0 20:1 
0 0.07202183609952953 1:0.5 13:1 15:0.25 17:2 20:1 24:3 26:1 
1 0 19:1 20:1 82:1 
1 0 24:1 
1 0 1:-0.375 14:1 15:-0.375 20:1 93:1 
1 0 
1 1 21:1 
0 0.1416880653154666 19:1 20:1 21:1 48:1 
1 0.007191555265009589 1:-0.125 14:1 15:-0.125 19:2 20:1 21:1 
1 0 1:-0.125 13:1 14:1 15:-0.125 19:2 50:1 
1 0 19:1 24:1 35:1 
1 0 1:0.25 12:1 13:1 15:0.25 20:1 21:1 
1 0 19:1 21:1 
1 0 19:1 
1 0 12:1 21:1 24:1 34:1 
1 0 1:0.125 13:1 15:0.125 24:1 
1 0 21:1 24:1 77:1 
1 0 2:1 5:1 24:1 
1 0 19:1 
1 0 1:-0.5 14:1 15:-0.5 20:1 21:3 75:1 
1 1 21:1 
1 0 1:-0.375 14:1 15:-0.375 17:1 21:1 24:1 25:1 
1 0 19:1 
1 0 20:1 
1 0 1:-0.125 13:1 14:1 15:-0.125 20:2 
1 1 21:1 
1 0 1:-0.25 14:1 15:-0.25 19:1 
1 0 1:-0.125 14:1 15:-0.125 19:1 69:1 
1 0 1:-0.75 14:1 15:-0.75 19:1 24:1 
1 0 19:1 
1 0 19:1 
1 0 1:0.125 13:1 15:0.125 20:1 
1 0 24:1 
1 0 19:1 
1 0 1:-0.25 14:1 15:-0.25 19:1 
1 0 
0 0.1839575228849165 1:0.5 13:1 15:0.5 17:2 19:2 20:1 26:1 
1 0 24:1 
1 0 20:1 
1 0 20:1 
1 1 19:1 20:1 21:1 
1 0 1:0.125 13:1 15:0.125 19:1 21:1 
1 0 19:2 20:1 21:3 24:1 34:1 
1 0 1:-0.125 14:1 15:-0.125 20:1 65:1 
1 0 1:-0.125 14:1 15:-0.125 20:1 
1 0 
1 0 1:0.125 13:1 15:0.125 19:1 20:1 24:1 64:1 
1 0 1:0.125 13:1 15:0.125 19:2 89:1 
1 0 24:1 
1 0 19:1 
1 0 1:0.125 13:1 15:0.125 19:1 24:1 36:1 
1 0 
1 0 1:-0.375 2:1 4:1 5:1 14:1 15:-0.375 
1 0 1:-0.5 12:1 14:1 15:-0.25 19:2 
1 0 
1 0 19:2 
1 0 
1 0 
1 0 12:1 20:2 21:1 90:1 
1 0 1:0.25 13:1 15:0.25 19:1 24:1 
1 0 1:-0.5 13:2 15:0.25 20:4 28:1 
1 0 
1 0 12:1 20:2 21:1 90:1 
1 0.8253371722660107 1:-0.75 17:1 20:2 25:1 
1 0 20:1 
1 0 
1 0 
1 0 1:-0.125 14:1 15:-0.125 21:1 78:1 
1 0 20:1 21:2 91:1 
1 0 1:0.125 13:1 15:0.125 20:2 
1 0 1:-0.125 14:1 15:-0.125 20:1 
1 0 19:1 
0 1 1:0.625 13:1 15:0.625 20:1 
1 0 19:1 21:1 
1 0 19:1 20:2 
1 0 20:1 21:1 
1 1 21:1 
1 0 24:1 
1 0 2:1 5:1 24:1 
1 0 1:-0.125 14:1 15:-0.125 19:1 20:1 21:1 48:1 65:1 
1 0 
1 0 1:-0.875 14:1 15:-0.875 19:1 20:1 24:1 31:1 
1 0 19:1 24:1 36:1 
1 0 19:2 
1 1 21:1 
1 0 1:-0.375 14:1 15:-0.375 17:2 26:1 
1 1 21:1 
1 0 1:-0.375 2:0.5 4:1 5:1 14:1 15:-0.375 17:3 27:1 
1 0 
1 0 1:-0.25 
1 0 19:2 
1 0 19:1 
1 0 1:0.25 13:1 15:0.25 20:1 21:1 
1 0 1:-0.5 12:1 14:1 15:-0.25 19:2 
1 0 1:-0.5 14:1 15:-0.5 20:2 
1 0 
1 0 
1 0 1:-0.375 14:1 15:-0.375 20:1 93:1 
1 0 19:1 20:1 
1 0 12:1 20:2 21:1 90:1 
1 0 
1 0 19:1 20:1 21:3 
1 0 19:1 
1 0 1:-0.75 14:1 15:-0.75 20:1 24:1 
1 0 20:1 
1 0 12:1 20:2 21:1 90:1 
1 0 20:1 
1 0 24:1 
1 0 
1 0 18:1 19:2 
1 0 24:1 
1 0 24:1 
1 0 19:1 24:1 
1 0 24:1 
1 0 19:3 20:1 24:2 52:1 55:1 
1 0 
1 1 16:1 20:1 
1 0 1:0.125 2:1 3:1 5:1 13:1 15:0.125 19:1 20:1 
1 0 
1 0 12:1 20:2 21:1 90:1 
1 0 
1 0 20:2 
1 0 19:1 
1 0.03265988470791401 1:0.5 21:3 
1 0 
1 0 19:1 
1 0 19:1 20:1 21:3 
1 0 19:1 
1 0 1:-0.875 14:1 15:-0.125 20:1 24:1 
1 0 1:-0.75 12:1 14:1 15:-0.75 21:1 24:1 
1 0 20:1 
1 0 
1 0 21:1 24:1 
1 0.02558614681015138 21:1 24:1 82:1 
1 0 20:1 
1 0 1:-0.125 14:1 15:-0.125 24:1 40:1 
0 0.02001365421400145 20:1 24:1 80:1 
1 0 19:1 
1 0 12:1 20:1 21:1 
1 0 
1 0 
1 0 1:0.75 13:1 15:0.25 18:2 19:1 24:1 42:1 
1 0 24:1 
1 0 
1 0 20:1 
1 0 1:0.25 13:1 14:1 15:0.25 24:2 
1 0 1:-0.25 12:1 17:2 25:1 96:1 
1 0 1:0.75 13:1 15:0.25 18:2 24:1 
1 0 24:1 
1 1 21:1 
1 0 
1 0 1:0.125 13:1 15:0.125 24:1 
1 0 12:1 20:1 21:1 
1 0 20:1 
1 0 1:-0.125 14:1 15:-0.125 17:3 20:2 27:1 
1 0 1:0.125 13:1 15:0.125 20:1 
1 0.5729821750775214 1:0.125 13:1 15:0.125 20:1 75:1 
1 0 20:1 21:1 
1 0 1:-0.875 14:1 15:-0.125 20:1 24:1 
1 0 1:-0.125 14:1 15:-0.125 19:1 69:1 
1 0 1:-0.25 13:1 14:1 15:-0.25 17:2 20:2 26:1 
1 0 20:1 
1 0 1:-0.5 14:1 15:-0.5 20:1 24:1 
1 0 19:1 
1 0 1:0.125 13:1 15:0.125 19:1 
1 0 19:1 21:1 24:1 
1 0 19:1 21:1 
1 0 
1 0 20:2 
1 0.4309683315812405 1:0.375 13:2 15:0.375 20:2 
0 0.03102837038569388 1:-0.25 13:1 15:0.125 19:1 24:1 90:1 
1 0 12:1 20:2 21:1 90:1 
1 0 
1 0 20:1 
1 0 1:-0.75 12:1 14:1 15:-0.75 21:1 24:1 
1 0 19:2 
1 0 1:0.125 13:1 15:0.125 24:1 
0 0.01272134043129524 1:0.75 2:0.5 3:1 5:1 13:2 15:0.75 21:1 24:1 
1 0 20:1 
1 0 12:1 20:2 21:1 90:1 
1 0 
1 0 12:1 20:2 21:1 90:1 
1 0 20:1 24:1 
1 0.06942301868762397 1:-0.125 14:1 15:-0.125 16:1 21:1 24:1 51:1 78:1 
1 0 1:-0.875 14:1 15:-0.125 20:1 24:1 
1 0 1:-0.5 14:1 15:-0.5 17:1 25:1 60:1 
1 0 1:-0.875 14:1 15:-0.125 20:1 24:1 
1 0 1:0.25 13:2 15:0.25 19:1 24:1 50:1 
1 0 1:0.125 13:1 15:0.125 20:1 
1 0 1:-0.25 
0 0.8425053574957896 1:0.5 24:1 
1 0 20:1 21:1 
1 0 1:-0.875 14:1 15:-0.875 17:2 24:1 26:1 31:1 
1 0 12:1 20:2 21:1 90:1 
1 0 
1 0 1:0.125 13:1 15:0.125 20:1 
1 0 
0 0.146388213352053 1:0.375 13:1 15:0.375 21:1 24:1 
1 0 19:1 20:1 
1 0 
1 0 1:0.125 13:1 15:0.125 19:1 84:1 
1 0 19:1 20:2 
1 0 12:1 20:2 21:1 90:1 
1 0 
1 0 
1 0 20:1 
1 0 1:-0.125 14:1 15:-0.125 20:1 
1 0 1:-0.125 14:1 15:-0.125 21:1 24:1 78:1 
1 0 1:-0.125 14:1 15:-0.125 24:1 
0 1 20:1 90:1 
1 0 
1 0 19:1 
1 0 19:1 
1 0 
1 0 19:1 20:1 42:1 
1 1 1:-0.375 13:1 15:0.375 20:1 
1 0 21:3 
1 1 21:1 
1 0 12:1 20:2 21:1 90:1 
1 0 20:1 
1 0 1:-0.5 14:1 15:-0.5 20:1 
1 0 19:1 
1 0 19:2 
1 0 24:1 
1 0 24:2 
1 0 
1 0 20:2 
1 0 1:-0.125 14:1 15:-0.125 21:1 24:1 78:1 
1 0 
1 0 20:1 24:1 
1 0 1:-0.125 14:1 15:-0.125 20:1 
1 0 24:1 
1 0 20:1 
1 0 19:1 20:1 
1 0 
1 0 1:0.125 13:1 15:0.125 20:1 
1 0 1:-0.875 14:1 15:-0.125 20:1 24:1 
1 0 20:1 
1 0 19:1 24:1 
1 0 1:-0.25 2:0.16666667 5:1 8:1 12:1 17:1 77:1 96:1 
0 1 1:0.625 13:1 15:0.125 24:1 
1 0 
1 0 
1 0 
1 0 1:0.125 13:1 15:0.125 17:1 19:1 20:1 21:3 24:1 25:1 51:1 
1 0 24:1 
1 0 
1 0 1:-0.125 14:1 15:-0.125 24:1 40:1 
1 0 
1 0 20:1 
1 0 20:1 
1 0 20:1 
1 0 1:-0.5 14:1 15:-0.5 20:1 
0.1218762140824163 0 2:0.33333333 5:1 19:2 24:1 55:1 
1 0 1:-0.25 14:1 15:-0.25 20:1 21:1 
1 0 24:1 
1 0 19:1 
1 1 21:1 
1 0 19:2 
1 0 1:0.125 13:1 15:0.125 24:1 
1 0 19:1 
1 0 24:1 
1 0 19:1 20:1 42:1 
1 0 1:0.125 13:1 15:0.125 19:2 
1 0 24:1 
1 0 12:1 20:2 21:1 90:1 
1 0 24:1 
1 0 1:-0.25 14:1 15:-0.25 19:1 
1 0 20:1 
1 0 19:1 
1 1 1:-0.125 14:1 15:-0.125 19:1 21:4 
1 0 24:1 
1 1 16:1 19:2 20:1 
1 0 21:3 
1 0 19:1 
1 0 1:-0.125 14:1 15:-0.125 21:1 78:1 
1 0 1:0.125 13:1 15:0.125 24:1 
1 0 19:1 
1 0 1:0.125 13:1 15:0.125 19:1 20:1 92:1 
1 0 19:1 
1 0 12:1 20:2 21:1 90:1 
1 0 
1 0 1:-0.875 14:1 15:-0.125 20:1 24:1 
1 0 12:1 20:2 21:2 
1 0 20:1 21:1 34:1 49:1 
1 0 12:1 20:1 21:1 
1 0 1:-0.875 2:0.33333333 4:1 5:1 14:2 15:-0.875 17:3 20:1 24:1 27:1 
1 0 1:-0.125 14:1 15:-0.125 21:1 24:1 41:1 78:1 
1 0 
1 0 20:1 
1 0 
1 0 19:1 39:1 
1 0 1:0.125 13:1 15:0.125 20:1 
1 0 2:0.66666667 5:1 19:2 20:1 
1 0 24:1 
1 0 1:0.375 13:1 14:1 15:0.375 19:1 24:1 
1 0 19:2 
1 0 1:0.125 13:1 15:0.125 19:1 20:1 
1 0 1:-0.375 14:1 15:-0.375 20:1 93:1 
1 0 20:1 
1 0 19:1 
1 0 
0 0.009732607895889443 20:1 21:1 48:1 
1 0 1:-0.125 14:1 15:-0.125 19:1 24:1 40:1 
1 0 19:1 
1 0 19:2 20:1 
1 1 21:1 
1 0 
1 0 
0 0.02975709581963935 1:0.625 13:1 15:0.625 19:3 24:1 42:1 58:1 
1 0 19:1 24:2 80:1 
1 0 1:-0.125 14:1 15:-0.125 19:1 21:1 78:1 
1 0 19:1 
1 0 20:1 
1 0 1:0.125 13:1 15:0.125 19:2 
1 0 
1 0.3192433366180945 1:0.25 2:0.5 5:1 13:1 15:0.25 19:2 
1 0 20:1 
1 0 24:1 
1 0 1:-0.625 14:1 15:-0.625 
1 0 1:-0.125 19:1 24:1 
1 0 19:1 24:1 
1 0.1810570692765401 1:-0.125 20:1 21:1 81:1 
1 0 19:1 
1 0 1:0.25 13:1 15:0.25 19:1 24:2 42:1 
1 0 1:-0.125 14:1 15:-0.125 19:1 21:1 69:1 
1 0 24:1 
1 0 20:1 
1 0 1:0.125 13:1 15:0.125 20:1 
1 0 1:-0.875 14:1 15:-0.875 19:1 24:1 
1 0 
1 0.01111312280608213 1:0.375 13:2 15:0.375 19:2 24:1 55:1 
1 0 19:1 
1 0 1:0.375 13:1 15:0.375 19:2 21:3 24:1 73:1 
1 0 1:-0.125 14:1 15:-0.125 19:1 69:1 
1 0 1:0.125 8:1 13:1 15:0.125 19:2 21:3 24:1 77:1 
1 1 19:1 21:3 74:1 
1 0 1:0.25 13:2 15:0.25 21:1 24:1 
1 0 20:1 
1 0 1:-0.75 17:1 20:1 25:1 
1 0 1:0.125 13:1 15:0.125 24:1 
1 0 19:1 24:1 
1 0 19:1 
1 0 1:0.125 13:1 15:0.125 17:1 19:1 
1 0 1:-0.125 14:1 15:-0.125 24:1 40:1 
1 1 21:1 
1 0 1:-0.125 14:1 15:-0.125 19:1 69:1 
1 0 20:1 
1 0 1:-0.25 14:1 15:-0.25 20:1 
0 0.2231525340678867 1:0.375 13:1 15:0.375 17:1 20:1 25:1 
1 1 1:-0.875 14:1 15:-0.875 20:1 24:1 31:1 
1 0 19:1 24:1 
1 0 1:-0.5 14:1 15:-0.5 19:1 20:1 
0 0.06324804284828246 17:2 20:3 26:1 
1 0 19:1 
1 0 1:-0.125 14:1 15:-0.125 19:1 69:1 
1 0.9837607889921982 1:-0.75 14:1 15:-0.75 19:1 20:1 
1 0 
1 0 1:0.125 13:1 15:0.125 19:1 
1 0 20:1 
1 0.8532770453259664 1:-0.25 17:1 21:4 25:1 81:1 
1 0 1:-0.875 14:1 15:-0.125 20:1 24:2 
1 0 1:0.125 13:1 15:0.125 24:1 
1 0 
0.9977550380616944 0 1:0.25 13:1 15:0.25 21:1 
1 0 19:1 
1 1 21:1 
1 0 20:1 
1 0 19:1 20:1 
1 0 1:-0.5 14:1 15:-0.5 20:2 
1 0 19:2 
1 0 1:-0.375 13:1 14:1 15:-0.375 19:1 20:1 50:1 
1 0 19:1 
0 0.03378328150604008 13:1 15:0.25 17:1 24:1 25:1 
1 0 1:-0.875 14:1 15:-0.125 20:1 24:1 
1 0.01537851389367068 20:1 21:1 
1 0 19:1 21:3 24:1 
1 0 
1 1 1:0.125 12:1 13:1 15:0.125 20:1 21:1 
1 0 13:1 14:1 20:2 
1 0 1:-0.25 12:1 17:1 97:1 
1 0 
1 0 24:1 
1 0 19:1 
1 1 12:1 20:1 21:1 
1 0 1:0.125 13:1 15:0.125 19:2 
1 0 20:1 
1 0 24:1 
1 0 1:0.125 13:1 15:0.125 20:1 
1 0.2166996907686399 17:1 19:3 25:1 
1 0 
1 0 19:1 
0 1 1:0.5 13:1 15:0.5 19:1 
1 0 1:0.125 13:2 14:1 15:0.125 19:1 20:3 61:1 
1 0 1:-0.125 14:1 15:-0.125 19:1 21:1 74:1 78:1 
1 0 1:0.125 13:1 15:0.125 17:1 19:1 20:1 25:1 
1 0 1:-0.375 2:1 4:1 5:1 14:1 15:-0.375 
1 1 21:1 
0.09607837273775648 0.1018401225207209 1:0.25 8:1 13:1 15:0.25 16:1 21:1 77:1 
1 0 19:1 20:1 
1 0 20:1 
0.1208127323169839 0 1:0.125 13:1 15:0.125 17:2 20:1 21:1 26:1 
1 0 1:-0.5 14:1 15:-0.5 19:1 24:1 
1 0 20:1 
1 0 20:1 
1 0 19:1 24:1 
1 0 1:-0.375 14:1 15:-0.375 
1 0 19:2 24:1 35:1 
1 0 1:0.125 12:1 13:1 15:0.25 21:1 24:1 44:1 
1 0 1:-0.25 13:1 14:1 15:-0.25 17:1 24:2 25:1 
1 0 24:2 51:1 
1 0 12:1 20:2 21:1 90:1 
1 0 1:-0.375 14:1 15:-0.375 20:1 
1 0 
1 0 
1 0 
1 0 24:1 
1 0 19:1 
0 0.04696385393339542 1:0.625 13:1 15:0.75 24:1 
1 0 1:0.25 13:1 15:0.25 24:2 
1 0 19:1 
1 0 19:1 24:2 
0 0.01981443750436836 17:1 19:2 20:1 24:1 25:1 42:1 
1 0 1:-0.875 12:1 14:1 15:-0.875 21:1 24:1 31:1 
1 0 12:1 20:2 21:1 90:1 
1 0 20:1 
1 0 1:-0.125 14:1 15:-0.125 20:1 65:1 
1 0 19:1 
1 1 16:1 19:1 
1 0 1:-0.125 14:1 15:-0.125 19:1 69:1 
1 0 1:-0.75 14:2 15:-0.75 19:2 20:1 
1 0 1:-0.375 13:1 14:1 15:-0.375 17:1 19:1 20:1 25:1 50:1 
1 1 20:1 21:1 
1 0.4842111133469246 1:-0.125 12:1 19:1 21:4 24:1 34:1 
1 0 19:2 21:3 24:1 55:1 
1 0 1:0.125 2:1 3:1 5:1 13:1 15:0.125 20:1 
1 0 1:-0.875 12:1 14:1 15:-0.875 21:1 24:1 31:1 
1 0 24:1 
1 0 1:-0.875 14:1 15:-0.125 17:1 20:1 24:1 25:1 
1 0 17:1 19:1 21:3 25:1 
1 0 1:0.125 13:1 15:0.125 19:1 
1 0 1:-0.875 14:1 15:-0.125 20:1 24:1 
1 0 19:1 
0.2251734619621858 0 19:1 96:1 
1 0 1:-0.25 14:2 15:-0.25 21:1 24:1 40:1 78:1 
1 0 19:1 
1 0 1:-0.375 14:1 15:-0.375 
1 0 12:1 20:2 21:1 90:1 
1 0 19:1 
1 0 20:1 
1 0 
1 0 1:-0.125 14:1 15:-0.125 17:1 19:1 20:1 24:1 25:1 73:1 
1 0 1:0.125 13:1 15:0.125 24:1 
1 0 1:-0.25 13:1 14:1 15:-0.25 17:1 24:2 25:1 
0 0.003767735075401148 1:0.5 2:0.25 5:1 13:1 15:0.5 17:2 19:2 20:1 26:1 68:1 
1 0 20:1 
1 1 21:1 
1 0 20:1 
0 1 21:1 91:1 
1 0 19:1 
1 0 1:-0.125 
1 0 1:-0.125 14:1 15:-0.125 17:1 19:1 20:1 25:1 65:1 
1 0 1:-0.125 14:1 15:-0.125 19:1 69:1 
1 1 1:0.25 13:1 15:0.25 19:2 
1 0 1:-0.25 14:1 15:-0.25 20:1 
1 0 20:1 
1 0 1:-0.875 8:1 14:1 15:-0.125 20:1 24:1 77:1 
1 0 
1 1 21:1 
1 0 19:1 
1 0 1:-0.125 14:1 15:-0.125 19:1 69:1 
0.2868570883856653 0 21:1 24:1 34:1 
1 0 1:0.125 13:1 15:0.125 19:1 24:1 92:1 
1 1 21:1 
1 0 20:1 
1 0 1:0.125 13:1 15:0.125 19:1 20:1 
1 0 12:1 20:2 21:1 90:1 
1 0 20:1 
1 0 20:1 
1 0 20:1 
1 0 1:0.125 13:1 15:0.125 19:1 
1 0 20:1 
1 0 19:1 
1 0 20:1 
1 0 20:1 24:1 
1 0 20:1 24:1 
1 0 20:1 
1 0 1:0.25 13:2 15:0.25 20:2 92:1 
0.2187125803134279 0 1:-0.25 20:1 21:1 48:1 
1 0 20:1 21:1 81:1 
1 0 
1 0 1:-0.125 14:1 15:-0.125 20:2 
1 0.7283670720494348 1:-0.375 13:1 14:1 15:-0.375 20:2 
1 0 1:0.125 13:1 15:0.125 24:1 
1 0 19:1 
1 0 24:1 
1 0 1:-1 14:1 15:-0.25 20:2 21:1 
1 0 1:0.125 13:1 15:0.125 19:1 21:3 92:1 
1 0 
1 0 
1 0 24:1 
1 0 12:1 20:2 21:1 90:1 
1 0 24:1 
1 0.05042773305135335 1:-0.5 14:1 15:-0.5 20:3 
1 0 19:1 20:1 
1 0 1:-0.125 14:1 15:-0.125 24:1 40:1 
0 0.0337570911727446 17:2 19:1 20:2 25:1 
1 0 1:-0.25 14:1 15:-0.25 18:2 19:2 21:3 24:1 73:1 
1 0 
1 0 19:1 
1 0 20:1 
1 1 21:1 
1 0 20:1 
1 0 19:1 20:1 21:3 52:1 
1 0 
1 0 24:1 
1 0 1:-0.125 14:1 15:-0.125 19:1 96:1 
1 0 
1 0 1:-0.75 
1 0 24:1 
1 0 1:-0.75 14:1 15:-0.75 17:2 19:1 26:1 
1 0 21:1 24:1 81:1 
1 0 1:0.125 13:1 15:0.125 20:2 
1 0 20:1 24:1 
1 0 1:-0.75 17:3 19:1 20:1 27:1 
1 0 1:-0.125 14:1 15:-0.125 24:1 40:1 
1 0 19:1 24:1 
1 0 19:1 
1 0 20:1 
1 0 12:1 20:2 21:1 90:1 
1 0 1:-0.125 14:1 15:-0.125 24:1 40:1 
1 0 1:0.125 13:1 15:0.125 19:2 24:1 
1 0 19:1 
0.1161043913463461 0 20:1 21:1 91:1 
1 0.7762744457374307 19:1 20:1 74:1 
1 0 19:1 
1 0 19:1 21:1 
1 0 1:0.125 13:1 15:0.125 19:1 
1 0 19:1 
1 0 19:1 
1 0 1:-0.125 
1 0 1:0.125 13:1 15:0.125 24:1 
1 0 
1 0 19:1 
1 0 1:-0.125 14:1 15:-0.125 19:1 20:1 
1 0 12:1 20:2 21:2 90:1 
1 0 12:1 20:2 21:1 90:1 
1 1 1:-0.25 14:1 15:-0.25 19:1 20:1 
1 0 
1 0 20:1 
1 0 1:-0.375 14:1 15:-0.375 24:1 
1 0 1:-0.125 12:1 13:1 15:0.125 19:2 24:1 
1 0.02141916519806539 1:-0.375 14:1 15:-0.25 17:1 19:2 24:1 25:1 
1 0 20:1 
1 0 1:-0.875 14:1 15:-0.125 20:1 24:1 
1 0 24:1 
1 0 24:2 35:1 
1 0 1:-0.125 14:1 15:-0.125 20:1 21:1 78:1 
1 0 1:-0.5 14:1 15:-0.5 17:1 20:1 24:1 25:1 55:1 
1 0 21:1 24:1 81:1 
1 0 24:1 
1 0 13:1 14:1 19:2 20:1 
1 0 24:1 
1 0 12:1 20:2 21:1 90:1 
1 0 
1 0 1:-0.5 14:1 15:-0.5 20:2 
1 0 19:1 
1 0.3996568858890563 1:-0.375 14:1 15:-0.375 20:2 93:1 
1 0 24:1 
1 0 12:1 20:2 21:1 90:1 
1 0 20:1 
1 0 
1 1 21:1 
1 0 49:1 
1 0 19:1 24:1 
1 0 21:1 24:1 
1 0 1:-0.25 14:1 15:-0.25 19:1 
1 0 20:1 
1 0 1:-0.125 14:1 15:-0.125 21:1 78:1 
1 0 20:1 
1 0 1:-0.25 14:1 15:-0.25 19:1 
1 0 
1 0 24:1 
1 0 1:-0.125 14:1 15:-0.125 19:1 69:1 
1 0 2:1 5:1 19:1 
1 0 12:1 20:2 21:1 90:1 
1 0.09618291568382546 1:-0.125 2:0.33333333 5:1 14:1 15:-0.125 20:1 21:2 81:1 
1 0 1:-0.5 14:1 15:-0.5 20:1 
1 0 1:-0.25 14:1 15:-0.25 19:1 
1 0 24:1 
1 0 
1 0 
1 1 21:1 
1 0 
1 0 
1 0 1:0.125 2:1 3:1 5:1 13:1 15:0.125 84:1 
1 0 2:1 5:1 24:1 
1 0 12:1 20:2 21:1 90:1 
1 0 20:1 
1 0 
1 0.6041118208081467 1:-0.25 12:1 19:1 20:1 
1 0 1:0.125 13:1 15:0.125 19:1 20:1 
1 0 1:0.125 13:1 15:0.125 19:1 
0 1 2:0.5 5:1 17:1 21:1 25:1 
1 0 1:-0.125 14:1 15:-0.125 24:1 40:1 
1 0 1:-0.25 12:1 19:2 
1 0 24:1 
1 1 21:1 
1 0 19:1 
1 0 
1 0 
1 0 1:-0.5 14:1 15:-0.5 20:1 
1 0 1:-0.375 14:1 15:-0.375 24:1 
1 0 
1 0 12:1 20:2 21:1 90:1 
1 0 1:-0.125 14:1 15:-0.125 24:1 40:1 
1 0 20:1 
1 0.1455207367753339 1:0.125 12:1 13:1 15:0.125 20:3 21:1 90:1 
1 0 1:0.875 12:1 13:1 15:0.875 19:2 20:1 21:1 24:1 30:1 
1 0 1:0.125 13:1 15:0.125 19:1 
1 0 20:1 
1 0 20:1 
1 1 12:1 20:1 21:1 
1 1 19:2 52:1 
1 0 
1 0 1:-0.875 14:1 15:-0.125 17:1 20:1 24:1 25:1 
1 0 
1 0 1:0.125 13:1 15:0.125 19:1 
0 0.01639364266643452 1:0.75 13:1 15:0.75 24:1 
1 0 
1 0 24:1 
1 0 12:1 20:2 21:1 90:1 
1 0 1:-0.25 14:1 15:-0.25 19:1 24:1 
1 0 1:-0.125 14:1 15:-0.125 24:1 40:1 
1 0 1:-0.375 14:1 15:-0.375 20:1 93:1 
1 0.3384268180755147 1:-1.25 14:2 15:-1.25 20:2 
1 0 24:1 
1 0 20:1 
1 0 24:1 
1 0 
1 0 20:1 
1 0 20:1 
1 0 24:1 
1 0 1:-0.875 14:1 15:-0.125 20:2 24:1 
1 0 1:0.125 13:1 15:0.125 20:1 
1 0 20:1 
1 0 
1 0 1:-0.125 14:1 15:-0.125 20:1 21:1 81:1 
1 0 19:1 24:1 
1 1 16:1 19:1 
1 0 12:1 20:2 21:1 90:1 
1 0 20:1 
1 0 1:-0.125 14:1 15:-0.125 20:2 
1 0 19:1 
1 0.07383786274302988 1:-0.75 14:1 15:-0.75 21:1 24:1 
0 0.03115607032806494 1:0.5 13:1 15:0.5 20:1 24:1 
1 0 
1 0 1:0.125 13:1 15:0.125 19:1 
1 0 1:0.125 12:1 13:1 15:0.125 19:1 20:2 21:1 24:1 90:1 
1 0 19:1 
1 0 19:1 24:1 35:1 
1 0 1:0.125 13:1 15:0.125 20:1 
1 0.04070562489660001 1:-0.375 14:1 15:-0.375 20:1 93:1 
1 0 1:-0.125 14:1 15:-0.125 24:1 40:1 
1 0 1:-0.25 8:1 14:1 15:-0.25 16:1 17:1 20:1 25:1 77:1 
1 0 20:1 
1 0 1:0.125 10:1 13:1 15:0.125 17:2 19:2 20:1 21:1 24:1 26:1 45:1 
1 0 20:2 
1 1 12:1 20:1 21:1 
1 0 19:1 
1 0.009162806406069521 1:-0.625 12:1 14:2 15:-0.625 17:1 19:1 20:1 21:4 25:1 
1 0 20:1 
1 0 1:0.125 13:1 15:0.125 19:1 20:1 
1 0 19:1 20:1 
1 0 19:1 20:1 24:1 80:1 
1 0 19:1 20:1 24:1 
1 0 20:1 
0 0.1726550868618371 1:0.25 13:1 15:0.5 24:1 
1 0 13:1 14:1 19:2 20:1 
1 0 20:1 
1 0 1:0.125 13:2 14:1 15:0.125 21:1 24:2 78:1 
1 0 
1 0 24:1 
1 0 
1 0 12:1 20:2 21:1 90:1 
1 0 24:1 
1 0 1:-0.375 14:1 15:-0.375 24:1 
1 0 1:-0.25 12:1 19:2 
1 1 21:1 
1 0 
1 0 1:-0.875 14:1 15:-0.125 20:1 24:1 
1 0 24:1 
1 0.7663506893453059 1:0.125 13:1 15:0.125 20:1 24:1 63:1 
1 1 12:1 20:1 21:1 
1 0 1:0.25 12:1 13:1 15:0.25 20:1 21:1 
1 0 20:1 
1 0 1:-0.875 14:1 15:-0.125 20:1 24:1 
1 0 20:1 
1 0 24:1 
1 0.07565754360744201 1:-0.125 14:1 15:-0.125 16:1 19:1 24:1 40:1 
1 0 19:1 21:1 24:1 42:1 
1 0 1:0.25 12:1 13:1 15:0.25 20:1 21:1 
1 0 
1 0 1:0.25 12:1 13:1 15:0.25 20:1 21:1 
1 0 1:0.125 2:1 3:1 5:1 13:1 15:0.125 20:1 
1 0 20:1 
1 0 
1 0 20:1 
1 1 20:1 21:1 
1 0 
0 0.01180514939120565 1:-0.125 17:1 19:2 24:1 25:1 35:1 42:1 
1 1 12:1 20:2 21:1 
1 0.7896180933499382 12:1 19:1 21:1 
1 0 20:1 
1 1 12:1 20:1 21:1 
0 0.009320970040292646 1:0.875 13:2 15:0.875 21:1 24:1 
1 0 1:0.125 13:1 15:0.125 20:1 
1 0 1:-0.875 12:1 14:1 15:-0.875 20:1 21:2 24:1 31:1 
1 1 20:1 21:1 
1 1 1:-0.375 14:1 15:-0.375 20:1 93:1 
0 0.9463782096809848 1:0.5 13:1 15:0.5 19:1 
1 0 24:1 
1 0 17:1 19:1 20:1 21:3 25:1 
1 0 12:1 20:2 21:2 90:1 
1 1 1:-0.5 14:1 15:-0.5 20:1 
1 0 21:3 
1 0 12:1 21:1 
1 0 1:-0.125 12:1 14:1 15:-0.125 20:2 21:1 
1 0 20:1 
1 0 12:1 17:1 19:1 20:1 21:1 25:1 
1 0 1:-0.375 2:1 4:1 5:1 14:1 15:-0.375 
1 1 21:1 
1 1 21:1 
1 0 20:1 
1 0 12:1 21:1 24:1 34:1 
1 0 1:-0.75 20:1 
1 0 19:1 
1 0 19:1 20:1 42:1 
1 0 
1 0 1:-0.875 14:1 15:-0.125 20:1 24:1 
1 0 1:0.125 13:1 15:0.125 20:1 
1 1 1:-0.5 14:1 15:-0.5 20:1 
1 0 
1 0 20:1 
1 0 1:-0.125 14:1 15:-0.125 20:1 
1 1 21:1 
1 1 20:1 
1 0 12:1 20:2 21:1 90:1 
1 0 1:0.125 13:1 15:0.125 20:1 
1 1 20:1 
1 0 1:-0.125 14:1 15:-0.125 20:2 
1 0 19:1 24:1 42:1 
1 0 24:1 
1 1 1:-1.25 14:1 15:-0.5 18:2 19:1 20:1 
1 0 1:0.125 13:1 15:0.125 19:1 
1 0 
1 0 19:1 24:1 
1 1 21:1 
1 0 19:2 
1 1 20:1 
1 0 1:0.125 13:1 15:0.125 20:1 
1 0 1:0.25 12:1 13:1 15:0.25 20:1 21:1 
1 1 1:0.125 13:1 15:0.125 19:1 24:1 
1 0 
1 0 
1 0 
1 0.0260589077327092 1:-0.125 14:1 15:-0.125 20:2 21:1 81:1 
1 0 1:0.125 13:1 15:0.125 20:1 
1 1 20:1 
1 0 1:-0.375 14:1 15:-0.375 24:1 
1 0 1:0.125 13:1 15:0.125 20:1 
0 1 1:0.5 13:1 15:0.5 20:2 
1 0.9516485506727617 1:-0.25 13:1 14:1 15:-0.25 20:1 21:1 
1 0 
1 0.0688282850704767 1:-0.375 14:1 15:-0.375 17:1 19:1 24:1 25:1 
1 0.2994969278888694 1:0.125 12:1 13:1 15:0.125 21:2 
0 0.3503733731354828 19:1 52:1 
1 0 1:-1.25 14:1 15:-0.5 17:1 18:2 19:1 20:1 25:1 
1 0 24:1 
1 1 20:1 
0 0.09349826833073402 1:-0.25 17:1 19:1 20:1 25:1 
1 0 13:1 14:1 19:1 24:1 55:1 92:1 
1 0 19:1 
1 1 20:1 21:1 
1 0 1:0.25 13:1 15:0.25 19:1 24:1 
1 0 24:1 
1 0 1:0.125 13:1 15:0.125 19:1 
1 1 19:1 21:3 
1 0 19:1 
1 0 1:-0.125 14:1 15:-0.125 20:1 21:1 81:1 
1 0 
1 0 
1 0 
1 0 1:-0.25 12:1 17:2 25:1 96:1 
1 0 1:-0.875 14:1 15:-0.125 20:1 24:1 
1 0 1:0.125 12:1 13:1 15:0.125 19:1 20:2 21:3 
1 0 1:-0.875 14:1 15:-0.125 20:1 24:1 
1 0 1:-0.125 
1 0 18:1 24:1 
1 0 1:-0.875 14:1 15:-0.125 20:1 24:1 
1 1 1:-0.5 14:1 15:-0.5 20:1 
1 0 1:-0.125 14:1 15:-0.125 20:1 24:1 34:1 65:1 
0 0.2067302705438443 1:0.5 13:1 15:0.5 19:2 20:1 24:1 
0 1 1:0.625 13:1 15:0.625 21:1 
1 0 12:1 21:1 
1 0 1:-0.5 13:1 14:1 15:0.25 20:1 24:2 
1 1 1:0.375 13:1 15:0.375 19:2 21:3 
1 0 12:1 21:1 
0.04587248847738812 0 24:1 47:1 
1 0 1:-0.125 14:1 15:-0.125 19:1 69:1 
0 0.3369162605128492 13:1 15:0.75 19:1 20:1 
1 0 12:1 20:2 21:1 90:1 
0 0.1536666953719692 17:1 20:1 24:1 25:1 
1 0 19:3 87:1 
1 1 20:1 
1 0 19:1 
1 0 21:1 24:1 
1 1 12:1 20:1 21:1 
1 0 1:-0.875 14:1 15:-0.125 20:1 24:1 
0.981249694255647 0 24:1 36:1 
1 0.1934864093826887 1:-0.25 14:1 15:-0.25 20:1 21:1 
1 0 19:1 20:1 
1 0 21:1 24:1 
1 0 24:1 
1 1 21:1 
1 0 1:0.125 13:1 15:0.125 19:1 
1 0 1:-0.25 12:1 14:1 15:-0.25 20:1 21:1 
1 0 1:-0.125 14:1 15:-0.125 20:1 
1 0 1:-0.25 14:1 15:-0.25 19:2 
1 0 19:1 24:1 35:1 
1 1 20:1 
1 0 24:1 
1 1 20:1 
1 0 
1 0.01947489822296661 21:2 81:1 
1 0.4404730932376534 1:-0.875 12:1 14:1 15:-0.875 20:1 21:1 24:1 31:1 
1 0 
1 0 
1 0 1:-0.875 14:1 15:-0.875 19:1 21:3 24:1 31:1 
1 0 
1 0 24:1 36:1 
1 0 1:-0.375 14:1 15:-0.375 
1 0.1689137974522949 1:0.125 13:1 15:0.125 20:2 
1 1 20:1 
1 0 24:1 
1 1 20:1 
1 0 24:1 
1 0 
0 0.3860838563687348 17:1 24:1 25:1 
1 0 33:1 
1 0 1:-0.25 14:1 15:-0.25 20:1 
1 0 1:-0.125 12:1 13:1 15:0.125 17:1 19:2 25:1 
1 0 19:1 20:1 
1 1 16:2 82:1 
1 0 19:2 20:1 
1 0 24:1 
1 0 1:-0.125 14:1 15:-0.125 20:2 
1 0 24:1 
1 1 20:1 
1 0 20:2 49:1 88:1 
1 0 1:-0.5 8:1 14:1 15:-0.5 19:1 21:3 77:1 
1 0 1:-0.5 14:2 15:-0.5 19:2 20:1 69:1 93:1 
1 0.02313252425033309 1:-0.875 14:1 15:-0.875 24:1 31:1 
1 1 1:0.125 12:1 13:1 15:0.125 20:1 21:1 
1 0 
1 0 24:1 
1 1 1:0.125 13:1 15:0.125 20:2 
1 0 
1 0 1:-0.5 14:1 15:-0.5 17:1 20:2 25:1 
1 1 20:1 
0 0.04571643221497067 1:0.5 13:1 15:0.5 19:2 24:1 80:1 
1 0 19:1 21:3 24:1 42:1 55:1 
1 0 
1 0.7392085694284192 12:1 21:1 24:1 
1 1 21:1 
1 0 24:1 
1 1 20:1 
1 0 19:2 
1 0 12:1 20:2 21:1 90:1 
1 0 19:1 20:1 
1 0 1:-0.75 14:1 15:-0.5 20:2 
1 0 24:1 
1 0 19:1 24:1 
1 0 20:2 
1 0.1199220668026142 1:-0.125 14:1 15:-0.125 20:1 24:1 
1 1 1:0.25 12:1 13:1 15:0.25 20:1 21:1 
1 0 19:2 20:1 21:1 
1 0 
1 0 19:1 
1 0 1:0.625 12:1 13:2 15:0.625 19:1 20:1 21:2 
1 0 1:0.125 2:1 3:1 5:1 13:1 15:0.125 19:1 
1 0 1:-0.625 13:1 14:1 15:0.125 16:1 20:1 24:2 44:1 75:1 
1 0 1:-0.875 14:1 15:-0.125 20:1 24:1 
1 0 19:1 20:1 82:1 
1 0 1:-0.125 14:1 15:-0.125 24:1 
1 0 12:1 20:2 21:1 90:1 
1 0 1:0.125 13:1 14:1 15:0.125 21:1 24:1 78:1 
1 0 1:-0.5 14:1 15:-0.5 20:2 
1 0 
1 0 1:-0.125 14:1 15:-0.125 20:1 
1 1 20:1 
1 0 
1 0.7718921314680605 1:0.375 12:1 13:2 15:0.375 19:1 20:1 21:1 
1 0 20:2 
1 0 41:1 
1 0 19:1 
1 0 19:2 
1 0 1:-0.75 20:2 
1 0 
1 0 
1 0 1:0.125 13:1 15:0.125 20:1 21:1 
1 0 24:1 
1 1 1:0.125 13:1 15:0.125 20:2 
1 0 1:-0.125 2:0.5 5:1 19:1 41:1 
1 1 20:1 
0 0.164386670210916 17:1 20:1 25:1 
0 1 1:0.25 13:1 15:0.5 24:1 
1 1 20:1 
1 0 
1 0 19:1 87:1 
1 0 1:0.125 13:1 15:0.125 19:2 
1 0.0635241508195097 1:0.125 13:1 15:0.125 19:2 20:1 
1 0 1:0.125 13:1 15:0.125 20:1 
1 0.0327551068770905 20:2 
1 0 1:-0.5 14:1 15:-0.5 17:1 20:2 25:1 
1 1 20:1 
1 1 20:2 
1 0.1586298007821969 1:-0.875 14:1 15:-0.875 19:1 20:1 24:1 31:1 
1 0 1:-0.125 14:1 15:-0.125 20:1 
1 0 
1 1 1:-0.5 14:1 15:-0.5 20:1 
1 1 1:-0.125 14:1 15:-0.125 20:1 
1 0 1:-0.375 13:1 14:1 15:-0.375 20:2 92:1 
1 0 1:-0.75 20:1 
1 0 
1 0.4350442235171422 1:-0.25 12:1 19:3 20:1 
1 0 19:1 
1 0 12:1 20:2 21:1 24:1 
1 0 24:1 
1 0 19:1 
1 0 
1 0.2781216321273148 1:-0.875 12:1 14:1 15:-0.875 19:1 21:4 24:1 31:1 52:1 
1 0 1:0.125 13:1 15:0.125 20:1 
1 0 24:1 
1 0 24:1 
1 0 24:1 
1 0 
1 0.9583250156480139 1:0.125 13:1 15:0.125 19:1 
1 0 1:-0.75 20:2 
1 0 24:1 
1 0 24:1 
1 0 1:-0.625 14:1 15:-0.625 20:1 24:1 70:1 73:1 
0.983160981366855 0 1:-0.125 14:1 15:-0.125 20:1 21:1 48:1 65:1 
1 0 24:1 36:1 
1 1 20:1 
1 0 1:-0.375 14:1 15:-0.375 24:1 
1 1 20:2 
1 1 20:1 
1 0 1:-0.875 8:1 14:1 15:-0.125 20:1 24:1 77:1 
1 0 19:1 
1 1 20:1 
1 0 24:1 36:1 
1 0 
1 0.4091902751457346 1:-0.5 14:1 15:-0.5 20:2 
1 0 1:-0.125 14:1 15:-0.125 19:1 69:1 
1 0 1:0.125 13:1 15:0.125 24:1 
0 0.00818522989912162 1:0.5 13:1 15:0.5 24:1 
1 0.2552704089705405 1:0.125 13:1 15:0.125 21:1 
1 1 20:1 
1 0 19:1 87:1 
1 0 1:0.125 13:1 15:0.125 20:1 
1 1 20:1 
1 0.2367529533133843 1:-0.875 14:1 15:-0.125 17:1 20:1 24:2 25:1 80:1 
1 0 1:0.125 13:1 15:0.125 20:1 
1 0.7302910550984447 1:0.125 13:1 15:0.125 20:1 21:1 
1 1 20:1 
1 0 19:1 20:2 
1 0 
1 0.9613035225042579 21:1 
1 0 19:1 20:1 
1 0 2:1 5:1 21:1 
1 0 1:-0.125 12:1 13:1 15:0.125 19:2 
1 0 1:-0.75 20:1 
1 0 19:1 
1 0.7294260232006342 1:-0.375 14:1 15:-0.375 20:1 21:1 
1 0 19:1 24:1 52:1 
1 0 19:1 
1 0 
1 0 41:1 
1 0.05949092558289931 1:-0.125 14:1 15:-0.125 20:1 21:1 48:1 65:1 
1 0 
1 1 20:1 
1 1 20:1 21:1 
0.8478598742582458 0 1:0.125 13:1 15:0.125 19:1 89:1 
1 0.1247584260355015 1:0.125 13:1 15:0.125 19:1 24:1 35:1 
1 0 1:-0.875 14:1 15:-0.125 20:1 24:1 
1 0.06138028210485229 1:0.125 13:1 15:0.125 19:1 20:1 21:3 24:1 
1 1 20:1 
1 0 1:0.125 13:1 15:0.125 20:1 
1 0 24:1 
1 0 12:1 20:2 21:1 90:1 
1 0.2585816980560906 1:0.25 13:1 15:0.25 20:1 21:1 
0 0.04592486495129686 24:1 80:1 
1 0 19:1 
1 0 
1 0 1:0.125 13:1 15:0.125 19:1 20:1 92:1 
1 0 
1 0 
1 1 1:-0.25 14:1 15:-0.25 24:1 
1 1 20:1 
1 0 1:0.125 13:1 15:0.125 21:1 24:1 34:1 
1 0 
1 0 24:1 
1 1 1:-0.25 12:1 14:1 15:-0.125 19:1 20:2 21:1 
1 0 
1 0 24:1 
1 1 20:1 
1 0 13:1 14:1 20:2 
1 0 19:1 20:1 
1 0 19:1 24:1 
1 0 12:1 21:1 
0.406652723054288 0 2:1 5:1 20:1 
0 0.3978940456644755 1:0.5 13:1 15:0.5 19:2 20:1 21:1 
0 0.2883674397080468 1:-0.125 14:1 15:-0.125 20:1 21:2 48:1 65:1 81:1 
1 0 2:0.5 5:1 24:1 
1 0 20:1 21:1 91:1 
1 0 
1 0 
1 0 19:1 
1 0 19:1 
1 0 1:-0.125 14:1 15:-0.125 21:2 41:1 78:1 
1 0 1:-0.375 14:1 15:-0.375 24:1 
1 0.09111611340513538 1:-0.125 14:1 15:-0.125 24:1 
1 1 12:1 20:1 21:1 
1 0 
1 0 
1 0 1:0.375 13:2 15:0.375 19:1 20:1 21:3 
1 0 
1 0 1:-0.625 13:1 15:0.125 20:1 
1 0 12:1 20:2 21:1 90:1 
1 0 
0 0.04942785386390681 1:0.375 13:1 15:0.375 17:1 24:1 25:1 
1 1 20:1 
1 0 19:1 
1 0 19:1 
1 0 
1 1 20:1 
1 0 1:0.125 13:1 15:0.125 19:1 84:1 
1 0.07087007508510898 1:0.125 13:1 15:0.125 17:1 19:1 20:2 25:1 
1 0 24:1 
1 0 1:0.25 13:1 15:0.25 21:1 
1 0 19:1 
1 0 1:0.125 13:1 15:0.125 19:1 20:1 
1 0 19:1 21:3 24:1 55:1 74:1 
1 1 20:1 
1 0 24:1 
1 0.8171467426683711 19:1 24:1 42:1 
1 0 24:1 
1 1 20:1 
1 0 1:-0.875 14:1 15:-0.125 20:1 24:1 
0 1 24:1 80:1 
1 0 1:0.125 13:1 15:0.125 19:1 89:1 
1 0 1:-0.125 14:1 15:-0.125 19:1 69:1 
1 0 12:1 20:2 21:1 90:1 
1 1 21:1 
1 0 12:1 20:2 21:1 90:1 
1 1 21:1 
1 0 
1 0.05247216726304135 1:-0.75 14:1 15:-0.75 20:1 24:1 
1 1 20:1 
1 0 1:0.125 13:1 15:0.125 19:1 89:1 
1 0 1:-0.125 14:1 15:-0.125 20:1 21:1 48:1 65:1 
1 1 20:1 
1 1 1:0.125 13:1 15:0.125 21:1 
1 0 19:1 
1 0 1:-0.25 14:1 15:-0.125 19:2 
1 0 19:1 20:1 87:1 
1 1 12:1 17:1 20:1 21:1 25:1 
1 0 
1 0.01729540040504553 1:-0.125 14:1 15:-0.125 20:1 65:1 
1 1 1:-0.5 14:1 15:-0.5 20:1 
1 1 20:1 
1 0 
1 0 1:-0.875 8:1 14:1 15:-0.125 20:1 24:1 77:1 
1 1 1:0.25 12:1 13:1 15:0.25 20:1 21:1 
1 0 
1 0 1:0.25 13:1 15:0.25 19:1 24:1 
1 1 1:0.25 13:1 15:0.25 19:2 
1 0 19:1 
1 1 20:2 
0 0.9849291793621403 91:1 
1 0 1:-1 14:1 15:-0.5 20:1 
1 0 1:0.125 13:1 14:1 15:0.125 21:1 24:1 78:1 
1 0 
0 1 1:0.625 13:2 15:0.625 19:2 20:1 
1 0 1:-0.125 14:1 15:-0.125 20:1 21:1 48:1 65:1 
1 1 1:0.25 13:1 15:0.25 19:2 20:1 
1 0 1:0.125 13:1 15:0.125 20:1 
1 0 24:1 
1 0 
1 0 2:1 5:1 19:1 
1 1 20:1 
1 0 19:1 
0 0.03220504835693887 1:0.25 13:1 15:0.25 20:2 
1 0 24:1 
1 0 21:2 91:1 
1 0 1:-0.625 14:1 15:-0.625 19:1 24:1 
1 0 1:-0.5 2:0.33333333 5:1 14:1 15:-0.5 17:3 20:1 24:1 27:1 
1 0 19:1 
1 0 24:1 
1 0 
1 1 20:1 
1 0 24:1 47:1 
1 1 20:1 
1 0 1:-0.125 12:1 21:1 75:1 
1 0 
1 0 19:1 
1 0 19:2 
1 0 19:1 21:1 
1 0 19:1 
1 0 1:-0.875 12:1 14:1 15:-0.75 21:1 24:1 
1 0 24:1 
1 0 1:-0.75 12:1 20:1 21:1 
1 1 20:2 
0 0.9838502410656561 1:0.375 13:1 15:0.375 20:1 61:1 
1 0.2298782373873343 1:-0.875 14:2 15:-0.875 20:1 24:1 
1 0 19:1 
1 0 20:1 21:1 24:1 
1 0 12:1 20:2 21:1 90:1 
1 0 
1 0 12:1 20:2 21:1 90:1 
1 0.572853638321718 1:0.375 12:1 13:2 15:0.375 20:1 21:1 24:1 
1 0 19:1 
1 0 
1 0.01460221150304475 1:-0.125 14:1 15:-0.125 20:1 21:1 81:1 
1 0 19:1 
1 1 20:1 
1 0 24:1 
1 0 1:-0.25 14:1 15:-0.25 19:2 20:1 21:1 
1 0 
1 0 1:0.125 13:1 15:0.125 20:1 
0.6202470764069351 0 19:1 42:1 
1 0 24:1 
1 1 20:1 
1 0 
1 0 24:1 
1 0 19:1 
1 0 
1 1 20:1 
1 0 24:1 
1 0 
1 0.7185504990316103 21:3 
1 0 1:-0.125 14:1 15:-0.125 20:1 21:1 48:1 65:1 
0 1 1:0.625 13:1 15:0.625 20:1 
1 1 20:1 
1 0 
1 0 
1 1 
1 0 1:-0.125 14:1 15:-0.125 19:1 69:1 
1 0 1:-0.75 20:1 
1 1 1:0.375 13:1 15:0.125 20:2 
1 0 19:1 
1 0 1:-0.875 12:1 14:1 15:-0.875 21:1 24:1 31:1 
0 0.1352704558139701 1:0.5 13:2 15:0.5 19:1 20:1 24:1 
0.5966014107624912 0.8000359627499605 1:0.125 13:1 15:0.125 17:1 19:1 25:1 
1 1 20:1 
1 0 13:1 14:1 21:1 24:1 78:1 
1 1 21:1 
1 0 1:-0.125 14:1 15:-0.125 24:1 40:1 
1 0.06220394267355937 1:-0.125 2:1 4:1 5:1 14:1 15:-0.125 24:1 
1 0 19:1 24:1 35:1 
1 0 1:-0.875 12:1 14:1 15:-0.875 21:1 24:1 31:1 
1 0.7564546727428935 1:0.125 13:1 15:0.125 16:1 24:2 34:1 
1 0 24:1 
1 1 
1 1 1:0.125 13:1 15:0.125 24:1 
1 1 20:1 
1 0.1583744115078543 19:2 20:1 24:1 52:1 
1 1 
1 1 
1 0 1:-0.375 14:1 15:-0.375 
1 0 1:0.375 13:1 14:1 15:0.375 19:2 24:2 58:1 
1 1 20:1 
1 0 19:1 24:1 
1 0 19:1 21:1 52:1 
1 0 1:0.125 13:1 15:0.125 20:1 
1 0 19:1 24:1 52:1 
1 1 1:0.125 13:1 15:0.125 19:1 
1 0 19:1 
1 0 19:1 
1 0 1:-0.125 14:1 15:-0.125 19:1 69:1 
1 0 1:-0.625 14:1 15:-0.625 24:1 
1 0 24:1 
1 0 12:1 20:2 21:1 90:1 
1 0 19:1 
1 0 19:1 20:1 24:1 35:1 
1 1 49:1 
1 0 24:1 
1 0 1:-0.625 14:1 15:-0.625 19:1 20:1 
1 0 19:1 
1 0 24:1 
1 1 
1 1 
1 0 1:0.125 12:1 13:1 15:0.375 17:4 20:1 21:1 61:1 
1 0.1766651404876627 1:-0.625 14:2 15:-0.625 20:2 21:1 48:1 65:1 
0 0.5832750304981151 19:1 52:1 
1 1 20:1 21:1 
1 1 20:1 
1 0 1:0.125 13:1 15:0.125 20:1 
1 0 19:1 
1 0 1:0.125 13:1 15:0.125 19:1 20:1 92:1 
0.7994002240806962 0 1:0.125 13:1 15:0.125 19:1 89:1 
1 1 
0 1 1:0.375 13:1 15:0.375 20:1 61:1 
1 0.01326703042136754 1:-0.25 17:1 19:1 25:1 
1 1 21:1 
1 1 21:1 
1 0 21:3 24:1 34:1 
0 1 20:1 90:1 
0 1 1:0.375 13:1 15:0.375 20:1 61:1 
1 0 19:1 20:1 
1 0 1:-0.25 14:1 15:-0.25 19:1 21:1 24:1 
1 0 21:1 24:1 34:1 
1 0 24:1 
1 0 19:2 20:1 
1 1 20:1 
1 0 24:1 47:1 
1 0 13:1 14:1 19:1 24:1 89:1 
1 0 19:1 
0 1 91:1 
1 0.9644600898649266 19:1 21:3 24:1 35:1 52:1 
1 1 1:0.125 13:1 15:0.125 19:1 
1 1 20:2 
1 1 
1 0 20:1 24:1 
0.3420912546705068 0 19:1 24:1 77:1 
1 0 1:-0.875 7:1 13:1 14:2 15:-0.375 19:1 20:1 21:2 78:1 
1 0 1:-0.375 14:1 15:-0.375 20:1 
1 0 1:-1 12:1 14:1 15:-0.875 21:1 24:1 31:1 
1 0 1:-0.25 13:1 14:2 15:-0.25 19:2 24:2 78:1 84:1 
1 0 12:1 20:2 21:1 90:1 
1 0 1:0.375 13:1 14:1 15:0.375 19:2 20:1 
1 1 1:-0.125 14:1 15:-0.125 20:1 
0 0.009064584877502819 1:-0.125 2:0.5 4:1 5:1 14:1 15:-0.125 19:1 69:1 
1 0 1:0.125 13:1 15:0.125 20:1 
1 0 19:1 
1 1 24:1 
0 0.04441631953511972 17:1 20:1 25:1 
1 0 1:0.25 13:1 14:1 15:0.25 19:2 20:1 
1 1 20:1 
1 0.9715928080004077 1:0.125 13:1 15:0.125 19:2 
1 0 19:1 20:1 
1 1 1:-0.5 14:1 15:-0.5 20:1 
1 0 19:1 
1 1 
1 0 19:1 75:1 
1 1 20:1 
1 1 24:1 
0 0.01124659479201278 1:0.375 2:1 3:1 5:1 13:1 15:0.375 19:2 
1 1 20:1 
1 0.2022813822778083 1:-0.375 14:1 15:-0.375 20:1 24:1 
1 0 1:-0.25 14:1 15:-0.25 19:1 
1 0 19:1 75:1 
1 0 19:1 20:2 
1 0 12:1 20:2 21:1 90:1 
0 0.1232304839570827 1:0.5 13:1 14:1 20:1 21:1 24:1 48:1 65:1 
1 0 1:-0.125 14:1 15:-0.125 20:1 21:1 24:1 78:1 
1 0 13:1 15:0.125 19:1 21:3 89:1 
1 1 1:0.125 13:1 15:0.125 24:1 
1 1 
1 0 1:-0.25 14:1 15:-0.25 20:2 
1 0 1:-1.25 14:1 15:-0.5 20:1 24:1 
1 1 
1 0 1:-0.625 14:1 15:-0.625 24:1 
1 0 1:-0.125 14:1 15:-0.125 20:1 24:1 82:1 
1 0 1:-0.375 14:1 15:-0.375 
1 1 
1 0 21:1 24:1 51:1 
1 0.01694550861403551 1:-0.125 14:1 15:-0.125 20:1 24:1 65:1 
1 0 19:1 
1 0 13:1 14:1 20:1 24:1 33:1 93:1 
1 0 1:-0.375 12:1 14:1 15:-0.25 21:1 24:1 
1 0 1:0.25 12:1 20:1 21:1 
1 0.1696504772237772 13:1 15:0.125 17:1 18:1 19:3 20:1 25:1 
1 1 24:1 
1 0 19:1 
0 0.1031419545373602 1:-0.125 2:0.5 5:1 17:1 19:1 25:1 
1 0.07723365107186819 1:-0.375 14:1 15:-0.375 19:1 20:2 
1 1 20:2 
1 1 
1 0.962252664140304 1:-0.125 12:1 21:1 
1 0 12:1 20:2 21:1 90:1 
1 1 
1 0.7726656044190469 1:-0.75 14:1 15:-0.75 19:2 20:1 21:3 
1 1 20:1 
1 1 
1 0 1:-0.75 12:1 14:1 15:-0.75 20:3 21:1 90:1 
1 0 13:1 14:1 20:2 24:1 93:1 
1 0 19:1 
1 0 20:1 21:3 95:1 
1 0 19:2 
1 1 20:1 21:1 
1 1 1:0.125 13:1 15:0.125 19:1 
1 1 24:1 
0 0.08619214077727563 20:2 90:1 
1 0 12:1 20:2 21:1 90:1 
1 0 19:2 20:1 24:1 
1 0 1:0.375 13:1 14:1 15:0.375 19:1 24:1 68:1 
1 0 19:1 24:1 35:1 
1 0 1:-0.125 20:1 24:1 
1 1 20:1 21:1 
1 0.48829094272007 1:0.375 13:1 14:1 15:0.375 19:2 20:1 
0.9304160502724168 0 20:1 95:1 
1 0 19:1 
1 1 20:1 
0 0.1857845521731994 1:0.5 13:1 15:0.5 16:1 19:1 20:1 24:1 28:1 
1 0 12:1 20:2 21:2 90:1 
1 0 19:1 
1 0 12:1 17:1 19:1 20:2 21:1 25:1 90:1 
1 0 1:0.125 13:1 15:0.125 20:1 
1 0 19:3 
1 1 
1 1 20:1 21:1 
0.9876697112969494 0 24:1 53:1 
1 1 
0.8826174124145312 0 57:1 
1 0 19:1 
1 0.8602625124636017 19:1 
1 1 20:1 
1 1 20:2 
1 1 20:1 
1 1 19:1 
1 1 19:1 
1 1 12:1 20:1 21:1 
1 1 20:1 
0 0.0382763359762802 1:0.375 10:1 13:1 15:0.375 16:1 24:1 33:1 45:1 91:1 97:1 
1 0 1:0.125 13:1 15:0.125 19:2 84:1 
1 0 19:2 
1 0 1:0.125 13:1 15:0.125 19:2 21:1 
1 1 24:1 
1 1 
1 1 
1 0 1:0.125 13:1 15:0.125 20:1 
1 1 20:1 
1 1 19:1 
1 1 1:-0.375 14:1 15:-0.375 24:1 
1 0.03889759289544584 1:0.125 13:2 14:1 15:0.125 19:2 20:1 24:1 
1 0 2:1 5:1 19:1 
0 0.03087945659981465 20:1 24:1 80:1 
1 1 20:1 
1 1 
1 1 20:1 
0 0.03032354885090751 1:0.625 13:2 15:0.625 17:4 19:3 20:3 26:1 68:1 
0.4231311915701115 0 20:1 88:1 
1 1 
1 0 12:1 19:1 20:2 21:1 90:1 
1 1 19:1 
1 1 21:1 
1 1 1:0.5 13:2 15:0.5 19:2 20:1 
1 0 1:-0.125 19:1 24:1 
1 1 19:1 20:1 
0.1871885651559986 0 19:1 20:1 24:1 77:1 
1 1 20:1 
0 1 1:0.75 13:1 15:0.75 24:1 
1 0.8143612345275636 21:1 24:1 
1 0.06527942068092352 1:0.5 13:2 15:0.5 21:1 24:1 
1 0 1:0.125 13:1 15:0.125 20:1 21:3 75:1 
1 1 19:1 20:1 
0 1 1:0.375 13:1 15:0.375 20:1 
1 1 
0.5600957896051084 0 57:1 
1 1 19:1 20:1 
1 0.1784206742243837 1:-0.75 14:1 15:-0.75 17:2 19:1 20:1 24:1 26:1 
1 0 1:-0.625 12:1 13:1 15:0.125 19:2 20:4 21:5 34:1 92:1 
1 1 
1 0 1:-0.125 14:1 15:-0.125 19:1 69:1 
1 1 21:1 
1 0 20:1 24:1 
1 0 19:2 
0.3918434247681887 0.1395981270033214 19:1 24:1 35:1 
0.7686516501424837 0.6405850404440109 19:1 42:1 
1 0 1:-0.125 12:1 14:1 15:-0.125 17:1 20:2 21:1 25:1 
1 0.01586356737623158 1:-0.125 13:1 15:0.125 20:1 24:1 
1 0.04008407152760839 1:0.125 2:0.090909091 5:1 12:1 13:1 15:0.125 17:1 19:2 20:2 21:4 25:1 97:1 
1 1 1:-0.75 14:1 15:-0.75 20:1 24:1 
1 1 
1 1 
1 1 
1 1 24:1 
1 1 20:1 
0 0.5923805164915088 1:0.125 13:1 15:0.25 19:1 24:1 52:1 
1 0 1:0.25 13:1 14:1 15:0.25 19:1 20:1 68:1 
1 1 24:1 
1 0.8835123607617728 19:1 21:1 
1 1 1:-0.125 14:1 15:-0.125 20:1 
1 0.3129272590112774 1:-0.375 14:2 15:-0.375 16:1 17:1 19:1 20:2 21:1 24:1 25:1 34:1 
0 1 1:0.25 13:1 15:0.25 20:1 
1 1 1:0.125 13:1 15:0.125 20:1 
1 1 
1 1 1:-0.875 14:1 15:-0.875 24:1 
1 1 20:1 
1 1 1:0.125 13:1 15:0.125 19:1 
1 0 1:0.125 13:1 15:0.125 24:2 73:1 
1 1 20:1 
1 1 
1 1 24:1 
1 1 
0 0.03790101077395747 1:0.625 13:2 15:0.625 20:1 24:1 75:1 
1 0.1878151419692767 1:0.375 13:1 14:1 15:0.375 19:2 20:1 21:1 81:1 
1 0 24:1 47:1 
0 0.9351640866593716 97:1 
1 1 24:1 
1 0 19:1 24:1 
1 1 19:1 
1 1 20:1 
1 0 1:-0.75 19:1 20:1 
1 1 
1 1 20:1 
1 1 
1 0 1:-0.375 14:1 15:-0.375 20:1 
1 0 1:-0.125 14:1 15:-0.125 21:1 24:1 73:1 78:1 
1 0 19:2 20:2 21:3 
0.1547476755519315 0 1:0.25 13:1 15:0.25 17:2 19:1 20:1 21:3 26:1 
1 1 
1 0 1:-0.125 14:1 15:-0.125 24:1 40:1 
1 1 20:1 
1 0 1:0.125 13:1 15:0.125 19:1 21:1 24:2 
0.0705239463684296 1 24:1 80:1 
1 0 19:1 20:2 
1 1 
1 1 
1 0 19:1 20:1 21:1 24:1 
1 1 
0.6718965144838658 0 17:2 19:3 21:3 24:1 26:1 55:1 74:1 
0.5447299015819025 0 20:1 95:1 
1 1 19:1 21:3 
1 1 24:1 
1 0 1:-0.125 14:1 15:-0.125 20:2 
1 1 
1 0 12:1 17:1 19:2 20:1 21:1 25:1 
1 0 1:0.125 2:1 3:1 5:1 13:1 15:0.125 19:1 84:1 
1 0 19:2 
0 1 1:0.375 13:1 15:0.375 20:1 
1 0.01768013469461722 1:0.125 13:1 15:0.125 20:1 21:1 34:1 
1 1 1:0.125 13:1 15:0.125 20:1 
0 0.9041977813071307 91:1 
1 1 
0 1 1:0.375 13:1 15:0.375 24:1 
1 1 
1 0 1:-0.125 14:1 15:-0.125 19:1 69:1 
1 0 2:0.5 5:1 12:1 20:2 21:1 24:1 90:1 
1 0 19:1 24:1 
0 0.1774392337603301 1:0.125 13:1 15:0.125 17:2 19:1 20:1 26:1 
1 1 19:1 20:1 
1 1 
1 0.9118509298196833 19:1 24:1 
1 1 19:1 20:1 
1 1 19:1 
0 1 1:0.75 13:1 15:0.75 20:1 
1 0 19:2 74:1 
1 0 12:1 20:2 21:1 90:1 
1 1 1:0.125 13:1 15:0.125 24:1 
0.7447152360189291 0.005706161083473462 20:1 24:1 82:1 
1 1 21:1 
1 0 1:0.375 13:3 15:0.375 19:1 20:3 84:1 92:1 
1 1 1:-0.75 20:1 
1 0 19:2 
1 0.8451680850430189 1:-0.125 13:1 14:1 15:-0.125 19:2 21:1 24:1 42:1 
1 1 
1 1 24:1 
1 1 20:1 
1 0 1:-0.375 14:1 15:-0.375 19:2 
1 1 
1 0 1:0.25 12:1 13:1 15:0.25 21:1 24:1 44:1 
1 1 19:1 20:1 
1 1 20:1 
1 1 20:2 
1 1 24:1 
0.4054006014162073 0 1:0.125 13:1 15:0.125 20:1 24:1 55:1 
1 1 19:1 
1 0.926855378616499 12:1 19:1 21:4 
1 1 1:0.25 13:1 15:0.25 19:2 24:1 
1 0 12:1 21:2 24:1 
1 0.4905444027345319 1:-0.25 12:1 13:1 15:0.125 19:2 24:1 
1 0.04383229078191902 1:-0.625 13:1 14:1 15:-0.625 20:1 24:1 
1 0 12:1 20:2 21:1 90:1 
1 1 19:1 
1 1 19:1 
1 1 19:1 
1 0 1:-0.375 12:1 14:1 15:-0.25 17:1 19:1 21:1 25:1 
1 1 21:1 
1 1 24:1 
1 1 
1 1 
1 1 1:0.25 13:1 15:0.25 21:1 
1 0.9276310601100809 12:1 21:1 
1 0 1:-0.75 24:1 34:1 
1 1 19:1 
0 0.07960994437640012 1:0.5 13:1 15:0.5 19:2 20:2 90:1 
1 1 19:1 
1 1 20:1 
1 1 21:1 
0 0.4651818200399224 20:2 90:1 
0 0.07799610243680102 1:-0.125 14:1 15:-0.125 20:1 21:1 48:1 65:1 
1 0 1:-0.25 14:1 15:-0.25 20:3 
1 0.8450599703733273 1:-0.75 20:2 
0 1 1:0.75 13:1 15:0.75 24:1 
1 0 1:-0.75 14:1 15:-0.75 20:1 
1 1 
1 1 19:1 
1 1 19:1 20:1 
1 1 
1 1 
1 0 1:-0.125 14:1 15:-0.125 24:1 40:1 
1 0 1:-0.5 2:0.5 5:1 14:1 15:-0.5 20:1 24:1 
1 0 1:-0.375 2:1 4:1 5:1 14:1 15:-0.375 
1 0.8446540428223052 21:1 82:1 
1 1 20:1 
1 0.2746728729850175 1:0.25 19:3 20:1 
1 0 1:-0.125 14:1 15:-0.125 19:1 21:1 69:1 
1 0 2:1 5:1 19:1 24:1 
1 1 19:1 
1 0 1:-0.375 14:1 15:-0.375 17:2 19:1 20:1 26:1 
1 0 1:-0.125 14:1 15:-0.125 20:2 
1 1 
0.7850591649981383 0 1:0.125 13:1 14:1 15:0.125 21:1 24:1 44:1 78:1 
1 1 19:1 
1 0.05066125395627379 1:-0.375 14:1 15:-0.375 20:2 
1 1 24:1 
1 1 21:1 
1 0.1167175949653745 1:-0.125 14:1 15:-0.125 19:2 20:1 21:1 48:1 65:1 74:1 
1 0 1:-0.125 13:1 14:1 15:-0.125 21:1 24:1 44:1 
1 0 1:-0.25 14:1 15:-0.25 17:1 19:1 20:1 21:3 24:1 25:1 
1 1 19:1 
1 1 20:1 
1 0 1:-0.125 14:1 15:-0.125 19:1 20:1 
1 0.07808304345287827 12:1 20:2 21:1 90:1 
1 1 1:-0.5 14:1 15:-0.5 20:1 
1 0 24:1 53:1 
0 0.7984265728622598 75:1 
1 1 
1 1 1:-0.375 14:1 15:-0.375 20:1 93:1 
1 1 20:1 
0 1 1:0.375 13:1 15:0.375 20:1 43:1 
1 0 1:-0.875 14:1 15:-0.125 20:1 24:1 
1 0.9280507456579747 
1 1 1:-0.25 14:1 15:-0.25 21:1 
0.09151869798313975 0 1:-0.125 14:1 15:-0.125 19:1 69:1 
1 1 1:-0.75 14:1 15:-0.75 20:1 24:1 
1 1 19:1 
1 1 24:1 
1 1 12:1 20:2 21:1 90:1 
1 1 20:1 
0 0.1413216253065429 17:1 19:2 20:1 21:1 25:1 42:1 82:1 
0 0.5118917369214226 17:1 24:1 25:1 
0 0.0329958403103042 1:0.375 13:1 15:0.375 19:1 20:1 24:1 
1 0 19:2 24:1 55:1 
1 1 20:1 
0.8932207734919941 0 1:-0.125 14:1 15:-0.125 24:1 40:1 
1 0.228369014155356 19:1 
1 0 19:1 20:1 21:3 
0.3296758539461884 0.5774189105021563 17:1 24:2 25:1 
0 1 1:0.375 13:1 15:0.375 20:1 61:1 
-1 0 1:0.125 13:1 15:0.125 19:1 21:1 84:1 
-1 0 12:1 21:1 
-1 0 1:0.125 13:1 15:0.125 20:1 21:1 59:1 
-1 0 12:1 20:2 21:1 
-1 0 24:1 
-1 0 1:-0.75 20:1 
-1 0 1:0.375 12:1 13:1 15:0.5 20:1 21:1 
-1 0 12:1 21:1 
-1 0 1:-0.125 14:1 15:-0.125 20:2 
-1 0 1:0.25 13:1 15:0.25 19:1 
-1 0 19:1 
-1 0 19:1 20:1 
-1 0 1:-0.75 14:1 15:-0.75 24:1 
-1 0 12:1 20:2 21:1 
-1 0 19:2 20:1 24:1 29:1 35:1 
-1 0 1:0.25 12:1 13:1 15:0.25 21:1 24:1 
-1 0 19:1 
-1 0 20:1 
-1 0 21:1 
-1 0 41:1 
-1 0 1:0.125 13:1 15:0.125 19:1 84:1 
-1 0 20:1 
-1 0 20:1 
-1 0 1:-0.375 14:1 15:-0.375 24:1 
-1 0 1:-0.75 20:1 
-1 0 1:-0.5 14:1 15:-0.5 20:2 
-1 0 12:1 20:1 21:1 
-1 0 1:0.125 13:1 15:0.125 17:2 19:1 20:1 26:1 59:1 
-1 0.3770053469187569 1:-0.375 14:2 15:-0.375 19:1 24:1 
-1 0 
-1 0 1:-0.25 14:1 15:-0.25 20:1 
-1 0 1:-0.625 14:1 15:-0.625 19:1 
-1 0 19:1 
-1 0 20:1 
-1 0 19:1 
-1 0 
-1 0 19:1 21:4 
-1 0 1:-0.75 20:1 
-1 0.05412492794603859 1:0.25 2:0.5 3:1 5:1 13:1 15:0.25 16:1 20:1 21:1 
-1 0 19:2 
-1 0 21:1 
-1 0 19:1 24:1 
-1 0 21:1 24:1 81:1 
-1 0 1:-0.25 14:1 15:-0.25 19:1 
-1 0 1:-1.375 14:1 15:-0.625 20:1 70:1 
-0.1760315055561553 0 1:-0.875 14:1 15:-0.875 24:1 31:1 
-1 0 1:-0.375 14:1 15:-0.375 24:1 
-1 0 17:1 19:1 25:1 
-1 0 
-1 0 21:1 
-1 0 1:-0.25 14:1 15:-0.25 20:1 
-1 0 19:1 
-1 0 19:1 20:1 
-1 0 1:-0.75 20:1 
-1 0 
-0.4549696391146731 0 12:1 21:1 
-1 1 1:0.875 13:1 15:0.875 24:1 
-1 0 1:0.5 13:1 14:1 15:0.5 17:2 19:1 20:2 26:1 
-1 0.01539235485866942 20:2 38:1 90:1 
-1 0 24:1 
-1 0 20:1 
-1 0 1:0.125 13:1 15:0.125 19:2 
-1 0 17:1 25:1 
-1 0 
-1 0.05436564525692272 2:0.5 5:1 17:3 
-1 0 19:1 
-1 0 20:1 21:1 
-1 0 19:2 21:3 24:1 
-1 0 12:1 20:2 21:1 
-1 0 
-1 0 1:-0.5 14:1 15:-0.5 24:1 
-1 0 1:-0.625 14:1 15:-0.625 24:1 
-1 0 20:1 
-1 0 20:1 21:1 
-1 0 21:1 
-1 0 20:1 
-1 0 20:1 
-1 0 12:1 20:1 21:1 
-1 0 1:0.125 13:1 15:0.125 24:1 
-1 0 1:-0.125 13:1 15:0.125 21:1 24:1 
-1 0 1:-0.875 14:1 15:-0.875 21:1 
-1 0 20:1 
-1 0 1:0.125 13:1 15:0.125 19:1 84:1 96:1 
-1 0 1:-0.875 14:1 15:-0.875 17:1 24:1 25:1 31:1 
-1 0 12:1 20:1 21:1 
-1 0 
-1 0 1:-0.125 14:1 15:-0.125 19:1 
-1 0 41:1 
-1 0 2:1 5:1 
-1 0 
-1 0 1:-0.75 19:1 20:1 
-1 0 24:1 
-1 0 24:1 
-1 0 12:1 20:1 21:1 
-1 0 1:-0.25 14:1 15:-0.25 17:1 19:1 24:1 25:1 49:1 
-1 1 21:1 
-1 0 2:1 5:1 
-1 0 1:0.5 12:1 13:1 15:0.5 19:3 20:1 21:1 
-1 0 1:-0.375 14:1 15:-0.375 20:1 
-1 0 24:1 
-1 0 1:-0.625 14:1 15:-0.625 24:1 
-1 0 1:-0.25 14:1 15:-0.25 21:3 24:1 
-1 0 20:1 
-1 0 1:0.125 12:1 13:1 15:0.125 19:1 20:2 21:5 
-1 0 49:1 
-1 0 1:-0.375 14:1 15:-0.375 24:1 
-1 0 12:1 20:2 21:1 
-1 0 24:1 
-1 0 1:0.125 13:1 15:0.125 20:1 
-1 0 24:1 
-1 0 2:0.16666667 5:1 19:2 20:4 49:1 
-1 0 20:1 49:1 
-1 0 1:-0.25 14:1 15:-0.25 19:1 24:1 
-1 0 1:0.25 12:1 13:1 15:0.25 20:1 21:1 44:1 
-1 0 1:0.125 13:1 15:0.125 20:1 
-1 0.1126669661564052 19:1 24:1 74:1 
-1 0 1:-0.625 13:1 14:1 15:-0.625 20:1 24:1 83:1 
-1 0 19:1 20:1 
-1 0 1:-0.25 14:1 15:-0.25 20:2 
-1 0 1:-0.75 14:1 15:-0.75 24:1 
-1 0 
-1 0 1:-0.25 14:1 15:-0.25 20:1 
-1 0 
-1 0 1:-0.5 14:1 15:-0.5 60:1 
-1 0 20:1 24:1 
-1 0 20:1 
-1 0 1:0.25 13:1 15:0.25 20:1 
-1 0 1:-0.25 14:1 15:-0.25 
-1 0 19:1 
-1 0 1:0.25 13:1 15:0.25 24:1 
-1 0 12:1 20:1 21:1 
-1 0 19:1 
-1 1 19:3 20:1 52:1 74:1 
-1 0 20:1 
-1 0 20:1 
-1 0 20:1 
-1 0 20:1 
-1 0.06771190198958477 1:0.25 13:1 15:0.25 19:2 20:1 24:1 
-1 0.0243211803474641 1:-0.625 14:1 15:-0.625 20:2 22:1 
-1 0 1:-0.5 14:1 15:-0.5 60:1 
-1 0 
-1 0 12:1 20:1 21:1 
-1 0 20:1 
-1 0 
-1 0 1:-0.25 14:1 15:-0.25 19:1 20:1 
-1 0 
-1 0 19:1 
-1 0.2544265485681338 1:0.125 13:1 15:0.125 19:2 20:1 
-1 0 1:0.125 13:1 15:0.125 20:1 
-1 0 1:-0.75 14:1 15:-0.75 24:1 
-1 0 20:1 64:1 
-1 0 1:-0.25 14:1 15:-0.25 20:1 
-1 0 1:-0.125 14:1 15:-0.125 20:1 
-1 0 19:1 24:1 72:1 
-1 0 
-1 0 1:-0.625 14:1 15:-0.625 20:1 
-1 0.2133479714664031 1:-0.875 14:1 15:-0.875 20:1 24:1 31:1 
-1 0 1:0.125 13:1 15:0.125 19:1 20:1 84:1 
-1 0 1:0.125 13:1 15:0.125 19:1 84:1 
-1 0 20:1 
-1 0.9184179495515005 1:0.625 13:1 15:0.625 19:1 24:1 
-1 0 1:0.125 13:1 15:0.125 19:1 84:1 
-1 1 21:1 
-1 0 1:-0.25 14:1 15:-0.25 20:1 
-1 0 1:-0.25 14:1 15:-0.25 19:1 20:1 
-1 0 19:1 
-1 0 1:0.125 13:1 15:0.125 19:1 
-1 0 1:-0.25 14:1 15:-0.25 19:1 
-1 1 1:0.375 13:1 15:0.375 20:1 
-1 0 
-1 0 21:3 
-1 0 19:1 
-1 1 21:1 
-1 1 21:1 
-0.1274603099560594 0.7835173884921279 12:1 21:3 81:1 
-1 0 19:1 
-1 0 1:-0.25 2:0.5 5:1 19:1 24:1 
-1 0 20:1 
-1 0 1:0.25 13:1 15:0.375 21:1 24:1 
-1 1 1:0.75 13:1 15:0.75 20:2 
-1 1 21:1 
-1 0 1:-0.375 14:1 15:-0.375 19:1 24:1 
-1 0 19:1 20:1 24:1 
-1 0 2:1 5:1 
-1 0 1:-0.875 2:1 4:1 5:1 14:1 15:-0.875 24:1 31:1 
-1 0 20:1 21:1 
-1 0 2:1 5:1 
-1 0 20:1 
-1 0 19:1 
-1 0 20:1 21:1 
-1 0 12:1 20:1 21:1 
-1 0 
-1 0 20:1 
-1 0 19:1 21:3 
-1 0 20:1 
-1 0 1:-0.5 14:1 15:-0.5 20:1 
-1 1 1:0.625 13:2 15:0.625 19:1 24:1 
-1 0 16:1 18:2 19:1 
-1 1 1:-0.25 2:0.25 5:1 12:1 19:3 52:1 
-1 0 19:1 
-1 0 1:0.25 12:1 13:1 15:0.25 21:1 24:1 
-1 0 1:-0.75 14:1 15:-0.75 17:3 19:1 
-1 0 1:-0.75 14:1 15:-0.75 19:1 
-1 0 24:1 
-1 0 24:1 
-1 0 20:1 
-0 0.09036711489957376 1:0.25 12:1 13:2 15:0.25 20:1 21:1 24:1 
-1 0 12:1 20:2 21:1 
-1 0 
-1 0 1:-0.25 14:1 15:-0.25 
-1 0 
-1 0 20:1 
-1 0 1:-0.25 14:1 15:-0.25 21:1 
-1 0 19:1 
-1 0 2:1 5:1 19:1 
-1 0 1:-0.375 14:1 15:-0.375 24:1 
-1 0 1:-0.625 14:1 15:-0.625 85:1 
-1 0 24:1 
-1 0 1:0.375 14:1 15:-0.125 19:1 20:1 24:1 
-1 0 2:0.5 5:1 21:1 24:1 
-1 0 1:0.25 13:1 15:0.25 20:1 
-1 0 19:1 
-1 0 12:1 20:2 21:1 90:1 
-1 0 24:1 
-1 0 19:1 
-1 0 20:1 
-1 0 1:-0.25 14:1 15:-0.25 24:1 
-1 0 19:1 
-1 0 1:-0.75 14:1 15:-0.75 19:1 
-1 1 1:0.375 13:1 15:0.375 20:1 
-1 1 21:1 
-1 0 17:1 19:1 25:1 
-1 0 
-1 0.9512042281919161 1:-0.25 16:1 21:1 
-1 0 
-1 0 1:-0.125 14:1 15:-0.125 20:1 
-1 0 12:1 20:1 21:1 
-1 0 19:1 21:3 
-1 0 1:0.375 12:1 13:1 15:0.375 20:1 21:1 24:1 
-1 0 1:-0.375 14:1 15:-0.375 20:1 
-1 0 19:1 
-1 0 21:1 24:1 66:1 
-1 0 1:-0.5 14:1 15:-0.5 19:1 
-1 0 20:1 
-1 0 21:1 24:1 
-1 0 
-1 0 20:1 
-1 0 1:0.5 24:1 
-1 0 24:1 
-1 0 1:-0.75 14:1 15:-0.75 24:1 
-1 0 12:1 20:1 21:1 
-1 0 1:0.5 13:1 15:0.5 19:1 21:1 24:1 
-1 0 20:1 
-1 0 20:1 24:1 
-1 0 1:0.125 12:1 13:1 15:0.125 19:4 20:3 21:3 24:1 
-1 0 1:-0.875 14:1 15:-0.875 19:1 24:1 31:1 42:1 
-1 0 20:1 49:1 
-1 0 20:1 49:1 
-1 0.8984818066207575 19:1 24:1 35:1 
-1 0 24:1 
-1 0 12:1 20:1 21:1 
-1 0 1:-0.125 13:1 14:1 15:-0.125 20:2 59:1 
-1 0 24:1 
-1 0 1:-0.75 14:1 15:-0.75 19:1 
-1 0 20:1 
-1 0 19:1 
-1 0 1:0.125 13:1 15:0.125 20:1 59:1 
-1 0 1:-0.25 14:1 15:-0.25 24:1 
-1 0 20:1 
-1 0 19:1 
-1 0 20:1 
-1 0 19:1 
-1 0.1164668121629243 12:1 13:1 15:0.25 19:1 24:1 
-1 0 20:1 
-1 0 20:1 
-1 0 1:-0.25 14:1 15:-0.25 20:1 
-1 0.3350132844524872 12:1 13:2 15:0.5 17:1 19:2 
-1 0 1:-0.375 14:1 15:-0.375 24:1 
-1 0 1:0.25 12:1 13:1 15:0.25 21:1 24:1 
-1 0 19:1 
-1 0.964415094691871 1:-0.75 17:1 20:2 24:1 25:1 
-1 0 20:1 
-1 0 20:1 
-1 0 20:1 
-1 0 2:1 5:1 19:1 
-1 0 24:1 
-1 0 1:0.25 12:1 13:1 15:0.25 21:1 24:1 
-1 0 20:1 
-1 0 
-1 0.3710736476201194 1:-0.75 14:1 15:-0.75 16:1 20:1 24:1 
-1 0 1:-0.25 7:1 
-1 0 1:0.125 13:1 15:0.125 20:1 59:1 
-1 0 19:1 
-1 0 1:0.125 13:1 15:0.125 19:1 
-1 0 20:1 
-1 0 1:-0.125 14:1 15:-0.125 24:1 
-1 0 1:-0.125 14:1 15:-0.125 20:1 
-1 0 2:1 5:1 
-1 0 
-1 0 24:1 
-1 0 1:-0.25 21:1 
-1 0 12:1 20:1 21:1 
-1 1 17:1 19:1 20:1 25:1 
-1 0 1:0.125 13:1 15:0.125 19:1 
-1 0 12:1 20:1 21:1 
-1 0 1:-0.75 20:1 
-1 0 19:1 
-1 0 20:1 
-1 0 19:1 
-1 0 12:1 20:1 21:1 
-1 0 1:-0.25 14:1 15:-0.25 17:1 20:1 25:1 
-1 1 1:0.5 13:1 15:0.5 24:1 
-1 0 12:1 20:1 21:1 
-1 0 19:1 
-1 0 1:-0.25 19:1 24:1 
-1 0 
-0 0.9734297911330444 1:-0.125 12:1 14:1 15:-0.125 20:1 21:1 65:1 
-1 0 20:1 
-1 0 1:-0.75 14:1 15:-0.75 24:1 
-1 0 12:1 20:1 21:1 
-1 1 21:1 
-1 0 20:1 
-1 0 24:1 
-1 0 19:1 
-1 0 12:1 20:2 21:1 
-1 0 12:1 20:1 21:1 
-1 0 12:1 20:1 
-1 0 12:1 20:1 21:1 
-1 0 20:1 38:1 
-1 0 24:1 
-1 0 1:-0.375 14:1 15:-0.375 20:1 
-1 0 1:-0.25 14:1 15:-0.25 19:1 24:1 
-1 0 1:-0.125 14:1 15:-0.125 17:1 19:1 20:2 21:1 25:1 
-1 0 20:1 21:1 81:1 
-1 0.1677672142184777 1:-0.125 14:1 15:-0.125 20:2 
-1 0.6603175340154757 1:0.625 13:1 15:0.625 19:1 
-1 0.07380740725026946 1:-0.125 9:1 17:1 19:2 25:1 72:1 
-1 0 1:-0.125 14:1 15:-0.125 21:2 24:1 
-1 0 1:-0.25 14:1 15:-0.25 19:1 20:1 21:3 
-1 0 1:-0.625 14:1 15:-0.625 20:1 70:1 
-1 0 1:0.375 13:1 15:0.375 19:1 
-1 0 1:-0.5 14:1 15:-0.5 20:2 
-1 0 2:1 5:1 
-1 0 1:-0.625 14:1 15:-0.625 24:1 
-1 0 1:-0.25 14:1 15:-0.25 19:1 20:2 21:3 
-1 0 1:-0.125 14:1 15:-0.125 20:1 
-1 0 1:-0.375 14:1 15:-0.375 20:1 
-1 0 12:1 17:1 21:1 25:1 
-1 0 49:1 
-1 1 21:1 
-1 0 1:-0.75 14:1 15:-0.75 21:1 
-1 0 49:1 
-1 0 1:0.125 13:1 15:0.125 20:1 
-1 0 20:1 
-1 0 1:0.375 13:1 15:0.375 20:1 24:1 
-1 0 24:1 
-1 0 1:-0.625 14:1 15:-0.625 19:1 24:1 85:1 
-1 0 1:-0.25 14:1 15:-0.25 19:1 
-1 0 20:1 
-1 0 1:0.375 13:1 15:0.375 19:1 
-1 0 12:1 20:1 21:1 
-1 0 19:1 20:1 21:3 
-1 0 19:1 
-1 0 1:-0.5 14:1 15:-0.5 20:2 
-1 0 19:1 
-1 0 
-1 0 12:1 20:1 21:1 
-1 0 13:1 15:0.125 20:2 
-1 0 20:2 
-1 0 19:1 
-1 0 41:1 
-1 0 1:0.125 13:1 15:0.125 20:1 59:1 
-1 0 24:1 
-1 0 1:-0.625 14:1 15:-0.625 24:1 85:1 
-1 0 12:1 20:1 21:1 
-1 0 20:1 
-1 0 20:1 
-1 0 19:1 
-1 0 19:1 
-1 0 19:1 
-1 0 19:1 
-1 0 20:1 
-1 0.4967759697733443 1:0.5 12:1 13:1 15:0.5 17:1 21:2 24:1 25:1 34:1 
-1 1 21:1 
-1 0 20:1 
-1 0 19:1 
-1 1 21:1 
-1 0 1:-0.375 14:1 15:-0.375 24:1 
-1 1 1:0.125 13:1 15:0.125 16:1 24:1 
-1 0 20:1 
-1 0 1:-0.625 14:1 15:-0.625 24:1 
-1 1 1:0.25 20:1 
-1 0 1:-0.25 14:1 15:-0.25 
-1 0 1:-0.25 14:1 15:-0.25 20:1 
-1 0 1:0.5 13:1 15:0.5 17:1 24:1 25:1 
-1 0 9:1 72:1 
-1 0 49:1 
-1 0 20:1 90:1 
-1 0 1:-0.375 14:1 15:-0.375 20:1 
-1 0 1:-0.25 14:1 15:-0.25 19:1 
-1 0 20:1 24:1 
-1 0 20:1 
-1 0 20:1 
-1 0.05863263514479086 1:0.125 12:1 13:1 15:0.125 20:1 21:1 24:2 34:1 
-1 0.07986510567504461 1:-0.5 14:1 15:-0.75 24:1 
-1 0 1:-0.125 14:1 15:-0.125 24:1 
-1 0 1:-0.75 20:1 
-1 0 13:1 14:1 21:1 24:1 85:1 
-1 0 1:-0.25 14:1 15:-0.25 19:1 
-1 0 20:2 38:1 
-1 0 1:-0.25 14:1 15:-0.25 19:1 24:1 
-1 0 20:1 24:1 
-1 0 12:1 20:1 21:1 24:1 
-1 0 1:0.125 13:1 15:0.125 19:1 84:1 
-1 0 19:1 
-1 0 24:1 
-1 0 1:0.125 13:1 15:0.125 20:1 59:1 
-1 1 21:1 
-1 0 1:0.25 12:1 13:1 15:0.25 20:3 21:1 
-1 0 19:1 
-1 0 19:1 
-1 0 1:0.25 13:1 15:0.25 24:1 
-1 0 19:1 
-1 1 21:1 
-1 1 1:-0.75 14:1 15:-0.75 20:1 21:1 
-1 0 
-0 0.0619033989600911 1:0.25 12:1 14:1 15:-0.25 20:1 21:1 24:1 
-1 0 20:1 
-1 0 24:1 
-1 0 14:1 15:-0.25 19:1 
-1 0 12:1 21:2 81:1 
-1 0 1:0.25 13:1 15:0.25 19:1 
-1 0 1:-0.5 14:1 15:-0.5 20:1 
-1 0 19:1 
-1 0.2059150836879796 1:-0.5 13:1 14:1 15:-0.5 17:1 19:1 20:1 24:1 25:1 
-0 0.04522478121892078 1:-1.375 14:2 15:-1.375 20:1 21:3 24:1 70:1 
-1 0 19:1 21:3 
-1 0 2:1 5:1 21:1 
-1 0.7093639718233002 1:-0.75 
-1 0 20:1 
-1 0 24:1 
-1 0.9675831591013276 16:1 20:1 21:1 
-1 0 19:1 
-1 0 1:-0.5 14:1 15:-0.5 20:1 
-1 0 
-1 0 20:1 
-1 0 12:1 20:1 21:1 
-1 1 1:-0.25 14:1 15:-0.25 21:1 
-1 0 20:1 
-1 0 20:1 
-1 0 1:0.125 13:1 15:0.125 19:1 84:1 
-1 0 12:1 20:1 21:1 
-1 0 1:0.125 13:1 15:0.125 19:1 84:1 
-1 0 1:0.125 13:1 15:0.125 19:1 20:1 84:1 
-1 0 1:-0.125 14:1 15:-0.125 19:1 69:1 
-1 0 1:-0.5 14:1 15:-0.5 60:1 
-1 0 20:1 
-1 0 1:-0.125 19:1 24:1 
-1 0 19:2 20:1 
-1 0 20:1 
-1 0 20:1 
-1 0.09155718884762076 1:-0.625 14:1 15:-0.75 17:3 20:1 21:1 24:2 82:1 
-1 0 1:0.125 13:1 15:0.125 20:1 21:1 92:1 
-1 0 20:1 
-1 0 
-1 0 20:1 
-1 0 20:1 
-1 0 19:1 
-1 0 1:-0.75 14:1 15:-0.75 21:1 
-1 0 20:1 66:1 
-1 0 
-1 0 12:1 20:1 21:1 
-1 0 19:3 20:1 29:1 49:1 
-1 0 19:1 
-1 1 1:0.125 13:1 15:0.125 19:1 
-1 0 1:-0.375 13:1 14:1 15:-0.375 19:1 24:1 31:1 
-1 0 9:1 72:1 
-1 0 20:1 
-1 0 19:1 
-1 0.6936608576876161 1:-0.25 13:1 14:1 15:-0.125 19:1 21:4 24:1 
-1 0 1:-0.25 14:1 15:-0.25 17:1 24:1 25:1 
-1 0 20:1 
-1 0 
-1 0 20:1 
-1 0 
-1 0 1:-0.5 14:1 15:-0.5 19:1 
-1 0 1:-0.375 14:1 15:-0.375 24:1 
-1 0 1:0.625 13:1 15:0.625 19:1 20:1 21:3 24:1 
-1 0 1:0.25 13:1 15:0.25 20:1 
-1 0 1:-0.25 14:2 15:-0.25 19:1 21:1 24:1 78:1 
-1 0 20:1 
-1 0 20:1 
-1 0 1:-0.25 14:1 15:-0.25 19:1 
-1 0 1:-0.75 14:1 15:-0.75 19:1 
-1 0 20:1 66:1 
-1 0 
-1 0 19:2 
-1 0 1:0.25 13:1 15:0.25 19:1 24:1 
-1 0 9:1 72:1 
-1 0 1:-0.125 13:1 15:0.125 24:1 
-1 0 1:0.25 13:1 15:0.25 24:1 
-0 0.3406336933818471 1:-0.875 12:1 14:1 15:-0.75 17:1 21:1 24:1 25:1 
-1 0 1:0.125 13:1 15:0.125 84:1 
-1 0 12:1 20:1 21:1 
-1 0 24:1 
-1 0 24:1 
-1 0 19:1 
-1 0 1:0.375 13:1 15:0.375 19:1 24:1 
-1 0 20:1 
-1 0 1:-0.75 20:1 
-1 0 20:1 
-1 0 12:1 20:1 21:1 
-1 0 1:0.25 13:1 15:0.25 20:1 
-1 0 1:-0.75 14:1 15:-0.75 24:1 
-1 0 19:1 20:1 
-1 0 1:-0.25 24:1 
-1 0 1:-0.125 14:1 15:-0.125 24:1 
-1 0 1:0.5 12:1 13:1 15:0.5 19:2 21:1 
-1 0 1:-0.75 14:1 15:-0.75 16:1 24:1 
-1 0 19:1 
-1 0 19:1 
-1 0 1:-0.25 14:1 15:-0.25 20:1 
-1 0 19:1 
-1 0 1:0.125 13:1 15:0.125 16:2 17:1 19:3 20:1 84:1 
-1 0 24:1 
-1 0 1:0.125 13:1 15:0.125 24:1 
-1 0 
-1 0 1:-0.375 14:1 15:-0.375 24:1 
-1 0 20:1 21:1 
-1 0 1:-0.375 2:1 4:1 5:1 14:1 15:-0.375 24:1 
-1 0 19:1 
-1 0 
-1 0 19:2 20:1 
-1 0 12:1 20:1 21:1 
-1 0 20:1 
-0.8512989036079465 0 1:-0.875 14:1 15:-0.875 24:1 31:1 
-1 0 20:1 
-1 0 1:-0.75 20:1 
-1 0 1:-0.625 14:1 15:-0.625 85:1 
-1 0 19:1 
-1 0 19:1 
-1 0 1:-0.5 14:1 15:-0.5 20:1 
-1 0 20:1 
-1 0 12:1 20:1 21:1 
-1 0 20:1 
-1 0 1:0.125 13:1 15:0.125 19:1 84:1 
-0 0.6908829117298316 12:1 21:3 82:1 
-1 0 20:1 
-1 0 1:-0.625 14:1 15:-0.625 24:1 
-1 0.009025775150215883 1:-0.125 14:1 15:-0.125 24:2 67:1 
-1 0 1:0.25 12:1 13:1 15:0.25 20:1 21:2 
-1 0 1:-0.625 14:1 15:-0.625 20:1 21:1 70:1 
-1 0 
-1 0 1:-0.75 14:1 15:-0.75 24:1 
-1 0 20:1 
-1 0 24:1 
-1 0 24:1 
-1 0 1:-0.375 14:1 15:-0.375 20:1 
-1 0 24:1 
-1 0 1:0.125 13:1 15:0.125 19:1 84:1 
-1 0 1:-0.25 14:1 15:-0.5 20:1 
-1 0 1:-0.625 14:1 15:-0.625 20:1 70:1 
-1 0 20:1 
-1 0 24:1 
-1 0 1:0.125 13:1 15:0.125 20:1 
-1 0 1:-0.625 14:1 15:-0.625 85:1 
-0 0.1899732385357517 1:-1.375 12:1 14:1 15:-0.625 20:2 21:1 24:1 
-1 0 1:0.375 13:1 15:0.125 19:1 84:1 
-1 0.9411031392362571 12:1 20:2 21:1 90:1 
-1 0 19:1 
-1 1 20:1 90:1 
-1 0 12:1 19:3 20:2 21:1 
-1 0 24:1 
-1 0.4817912923822228 1:0.25 13:1 14:1 15:0.25 19:4 24:1 
-1 0 1:0.25 13:1 15:0.25 24:1 
-1 0 41:1 
-1 0 1:-0.625 14:1 15:-0.625 24:1 
-1 0 1:-0.875 14:1 15:-0.875 24:1 
-1 0 1:-0.625 14:1 15:-0.625 19:1 20:1 
-1 0 20:1 24:1 
-1 0 1:-0.625 14:1 15:-0.625 20:1 70:1 
-1 1 16:1 20:1 
-1 0 19:2 
-1 0 1:-0.125 14:1 15:-0.125 19:2 
-1 0 1:0.125 14:1 15:-0.375 24:1 
-1 0 1:-0.125 13:1 14:1 15:-0.125 19:2 84:1 
-1 0 2:0.66666667 5:1 16:1 
-1 0 12:1 17:1 20:2 21:1 25:1 90:1 
-1 0 17:1 20:1 25:1 
-1 0 20:1 
-1 0 1:0.25 13:1 15:0.25 19:1 
-1 0 1:-0.5 14:1 15:-0.5 16:1 24:1 
-1 0 19:1 21:3 
-1 0 19:1 
-1 0 1:-0.25 14:1 15:-0.25 19:1 
-1 0 
-1 0 19:1 20:1 
-1 0.3470524993530704 12:1 19:1 21:4 24:1 35:1 
-1 0 20:1 
-1 0 24:1 
-1 0 1:0.5 13:1 14:1 15:0.5 20:3 24:1 
-1 0 20:1 
-1 0 1:-0.75 14:1 15:-0.75 24:1 
-1 0 
-1 0 20:1 
-1 0 2:0.5 5:1 12:1 20:1 21:1 
-1 0 
-1 0 20:1 
-1 0 1:0.375 13:1 15:0.375 19:1 20:1 24:1 
-1 0 24:1 
-1 0 1:0.375 13:1 15:0.375 24:1 
-1 0 19:1 49:1 
-1 1 21:1 
-1 0 20:1 
-1 1 21:1 
-1 0 
-1 0 
-1 0 19:1 
-1 0.3930735568716676 2:1 5:1 21:4 
-1 0 12:1 20:1 21:1 
-1 0 20:1 
-1 1 1:0.25 13:1 15:0.25 19:1 20:1 75:1 
-1 0 1:-0.125 8:1 77:1 
-0 0.01862763451716768 1:-0.25 12:1 16:1 19:1 
-1 0 
-1 0 1:-0.625 14:1 15:-0.625 85:1 
-1 0 20:1 
-1 0 1:-0.375 14:1 15:-0.375 20:1 
-1 0 2:1 5:1 41:1 
-1 0 1:-0.625 14:1 15:-0.625 20:1 70:1 
-1 1 1:0.625 13:1 15:0.625 20:1 21:1 
-1 0 24:1 
-1 1 1:0.5 13:1 15:0.5 20:2 
-1 0 1:0.125 13:1 15:0.125 19:1 84:1 
-1 0 1:-0.875 14:1 15:-0.875 24:1 31:1 
-1 0 19:1 
-1 0 19:1 21:3 24:1 66:1 
-1 0.9607782353584645 1:-0.25 14:1 15:-0.25 19:1 20:1 21:3 
-1 0 24:1 
-1 0.09174262475162319 12:1 21:1 24:1 34:1 
-1 0 21:1 81:1 
-1 0 19:2 20:1 
-1 0 20:1 
-1 0 20:1 49:1 
-1 0 49:1 
-1 0 41:1 
-1 0 12:1 20:1 21:1 
-1 0 1:-0.625 14:1 15:-0.625 24:1 
-1 0 1:-0.75 17:1 25:1 
-1 0.03173291636746259 2:0.33333333 5:1 17:2 21:1 24:1 26:1 55:1 
-1 0 19:1 
-1 0 19:1 
-1 0 19:1 20:1 24:1 
-1 0 
-1 0 1:-0.25 14:1 15:-0.75 24:1 83:1 
-1 0 24:1 
-1 1 1:0.5 13:1 15:0.5 19:2 
-1 1 1:-0.25 20:1 21:1 24:1 91:1 
-1 0.5463136987943463 16:1 19:1 
-1 1 1:0.625 13:2 15:0.625 20:2 21:1 
-1 0 19:1 20:2 24:1 
-1 0 
-1 0 19:1 
-1 0 12:1 20:1 21:1 
-1 0 1:0.125 13:1 15:0.125 19:1 84:1 
-1 0 2:1 5:1 
-1 0.1948020688659272 1:-0.5 14:1 15:-0.25 24:2 
-1 0 1:-0.25 21:1 
-1 0 20:1 21:1 
-1 0 12:1 20:2 21:1 
-1 0 20:1 
-1 0 20:1 
-1 0 20:1 
-1 0 19:1 
-1 0 20:1 
-1 0 12:1 20:1 21:1 
-1 0 20:1 
-1 0 
-1 0 12:1 20:1 21:1 
-1 0 19:1 
-1 0 1:-0.125 14:1 15:-0.125 20:1 
-1 0 1:-0.875 14:1 15:-0.875 24:1 31:1 
-1 0 1:0.25 13:1 15:0.25 20:1 
-1 0.1393409790396958 1:0.125 13:1 15:0.125 18:3 20:2 
-1 0 24:1 
-1 0 1:0.125 13:1 15:0.125 19:1 24:1 84:1 
-1 0.5295088522119611 1:-0.25 17:1 24:1 25:1 
-1 0 1:-0.625 14:1 15:-0.625 24:1 
-1 0 19:1 
-1 0 20:1 
-1 0 49:1 
-1 0 20:1 
-1 0 20:2 
-0 0.1674871372779178 1:-0.75 12:1 14:1 15:-0.625 17:2 20:1 21:2 24:1 26:1 63:1 81:1 
-1 0 19:1 20:1 24:1 
-1 0 19:1 24:1 
-1 0 1:-0.375 14:1 15:-0.375 19:1 
-1 0 20:1 
-1 0 12:1 20:1 21:1 
-1 0 24:1 
-1 0 1:-0.625 14:1 15:-0.625 20:1 70:1 
-1 0 
-1 0 20:1 
-1 0 1:-0.375 14:1 15:-0.375 20:1 
-1 0 1:-0.75 14:1 15:-0.75 21:1 24:1 
-1 0 24:1 
-1 0 1:-0.75 14:2 15:-0.75 21:1 24:1 78:1 
-1 0 1:0.25 12:1 13:1 15:0.25 20:2 21:1 
-1 0 1:-0.625 14:1 15:-0.625 20:1 
-1 0 19:1 20:1 
-1 0 1:-0.125 14:1 15:-0.125 24:1 
-1 0 1:0.25 13:1 15:0.25 24:1 
-1 0 20:1 
-1 0 1:-0.875 14:1 15:-0.875 24:1 
-1 0 12:1 20:1 21:1 
-1 0 20:1 
-1 0 20:1 
-1 0 9:1 72:1 
-1 0 19:1 
-1 0 2:1 5:1 
-1 0.748164318146838 1:0.25 13:1 15:0.25 24:2 
-1 0 20:1 24:1 
-1 0 12:1 20:1 21:1 
-1 0 1:-0.875 14:1 15:-0.875 24:1 31:1 
-1 1 1:0.125 13:1 15:0.125 19:1 
-1 0 
-1 0 20:1 
-1 0 1:-0.5 14:1 15:-0.5 24:1 
-1 0 20:1 49:1 
-1 0.0467122068788771 1:-0.125 13:2 14:1 15:-0.125 17:1 19:2 20:2 24:1 25:1 44:1 
-1 0 24:1 
-1 0 1:-0.125 14:1 15:-0.125 19:1 
-1 0 20:1 
-1 0 19:1 
-1 0 1:-0.75 20:1 49:1 
-1 0 1:-0.75 14:1 15:-0.75 20:1 24:1 
-1 0 1:-0.25 2:1 5:1 24:1 
-1 0 
-1 0 1:0.125 13:1 15:0.125 19:1 84:1 
-1 0 20:1 
-1 0 19:1 21:3 
-1 0 20:1 
-1 0 20:1 
-1 0 1:-0.25 13:1 14:1 15:-0.25 19:1 24:2 
-1 0 20:1 
-1 1 1:0.25 13:1 15:0.25 19:1 20:1 21:1 
-1 0 12:1 20:1 
-1 0 49:1 
-1 0 19:1 20:1 21:3 
-1 0 24:1 
-1 1 1:0.5 13:1 15:0.5 20:1 
-1 0 12:1 20:1 21:1 
-1 0 20:1 49:1 
-1 0 
-1 0 24:1 
-1 0 1:0.5 12:1 13:1 15:0.5 20:2 21:1 
-1 0 1:-0.75 20:2 21:1 
-1 0 1:-0.625 14:1 15:-0.625 24:1 
-1 0 1:-0.75 14:1 15:-0.75 21:1 
-1 0 24:1 
-1 0 12:1 20:1 21:1 
-1 0 20:1 66:1 
-1 1 1:0.5 13:1 15:0.5 20:1 24:1 
-1 0.09061679738735019 1:0.75 13:1 15:0.875 16:1 20:1 24:1 30:1 
-1 0 1:0.125 13:1 15:0.125 20:1 
-1 0 17:1 20:1 25:1 
-1 0 1:-0.125 13:1 15:0.125 20:1 24:1 
-1 0 20:1 
-1 0 12:1 20:1 21:1 
-1 0 19:1 
-1 0 20:1 
-1 0 20:1 
-1 0 1:0.125 13:1 15:0.125 20:1 59:1 
-1 0 1:0.375 12:1 13:1 15:0.375 20:1 21:1 
-1 0 1:-0.75 20:1 
-1 0.1687748021206212 1:0.125 13:1 15:0.125 19:1 20:1 24:1 
-1 0 20:1 
-1 0 1:-0.875 14:1 15:-0.875 24:1 
-1 0 19:1 
-1 0 19:3 
-1 0 1:0.25 13:1 15:0.25 19:1 21:1 24:1 
-1 0 
-1 0 83:1 
-1 0 19:1 20:1 
-1 0 20:1 24:1 
-1 0 
-1 0 1:-0.625 14:1 15:-0.625 24:1 
-1 0 20:1 
-1 0 1:-0.625 14:1 15:-0.625 24:1 85:1 
-1 0 24:1 
-1 0.01456042913431606 24:1 75:1 
-1 0 19:1 
-1 0 
-1 0 24:1 
-1 0 20:1 
-1 0 19:1 24:1 
-1 0 24:1 
-1 0 
-1 0 1:0.25 12:1 21:1 
-1 1 13:1 15:0.125 16:1 19:1 
-1 0 20:1 
-1 0 1:0.375 12:1 13:1 15:0.125 21:1 24:2 34:1 
-1 0 12:1 17:2 21:2 26:1 
-1 1 1:0.75 12:1 13:1 15:0.75 20:1 21:1 
-1 0 19:2 
-1 0 20:1 
-1 1 1:-0.375 14:1 15:-0.375 20:1 93:1 
-1 0 1:-0.125 14:1 15:-0.125 24:1 
-1 0 20:2 
-1 0 12:1 20:1 21:1 
-1 0 19:1 
-1 0 20:1 
-1 0 20:1 
-1 0 19:1 
-1 0.3426182639456279 1:-0.375 2:1 4:1 5:1 14:1 15:-0.375 24:1 
-1 0 
-1 0 12:1 20:1 21:1 
-1 0 20:1 
-1 1 1:0.125 13:1 15:0.125 19:1 
-1 0 1:-0.625 14:1 15:-0.625 17:1 24:1 25:1 
-1 0.5830433866847411 1:-1.5 14:1 15:-0.75 20:1 24:1 
-1 0 20:1 
-1 0 1:0.25 12:1 21:1 
-1 0 
-1 0 20:1 
-1 0 19:1 20:2 
-1 0 18:2 24:1 
-1 0 20:1 
-1 1 19:1 52:1 
-1 0 20:1 
-1 0 1:-0.75 14:1 15:-0.75 24:1 
-1 0 1:-0.25 12:1 17:2 19:2 26:1 
-1 0 1:0.125 13:1 15:0.125 24:1 
-1 0 12:1 20:2 21:1 87:1 
-1 0 12:1 20:1 21:1 
-1 0 12:1 20:1 21:1 
-1 0 24:1 
-1 0 19:1 
-1 0 1:0.25 13:1 15:0.25 19:1 20:1 
-1 0 19:1 24:1 
-1 0 1:0.25 13:1 15:0.25 19:1 
-1 0 1:-0.625 14:1 15:-0.625 24:1 
-1 0.2745614269828187 2:0.5 5:1 20:2 63:1 
-0 0.4881477535261573 1:-0.125 12:1 21:1 24:1 
-1 0.8985471792821106 1:-0.25 2:1 4:1 5:1 14:1 15:-0.25 19:1 20:1 
-1 0 2:1 5:1 20:1 
-1 1 1:0.25 12:1 21:1 
-1 0 1:-0.875 14:1 15:-0.875 24:1 
-1 0 1:-0.625 14:1 15:-0.625 24:1 85:1 
-1 1 21:1 
-1 0 1:0.125 13:1 15:0.125 20:1 59:1 
-1 0 20:1 
-1 0 20:1 
-1 0 1:0.125 13:1 15:0.125 19:1 84:1 
-1 0 1:0.25 12:1 13:1 15:0.375 20:1 21:1 24:1 33:1 
-1 0 1:-0.5 14:1 15:-0.5 19:1 20:2 
-1 0 9:1 72:1 
-1 0 24:1 
-1 0 1:-0.25 14:1 15:-0.25 
-1 0 24:1 
-1 0 12:1 20:1 21:1 
-1 0 20:1 
-1 0 20:1 21:1 
-1 0 19:1 24:1 66:1 
-1 1 1:-0.25 14:1 15:-0.25 21:1 
-1 0 
-1 0 20:1 
-1 0 
-1 0 19:1 24:2 
-1 0 1:0.25 13:1 15:0.25 19:1 24:1 
-1 0 20:1 21:1 
-1 0 1:-0.625 14:1 15:-0.625 20:1 
-1 1 21:1 
-1 0 1:0.125 13:1 15:0.125 20:1 
-1 0 12:1 20:2 21:1 
-1 0 1:-0.75 14:1 15:-0.75 19:1 24:1 
-1 1 1:0.5 24:1 
-1 0 17:1 20:1 25:1 
-1 0 1:-0.125 14:1 15:-0.125 19:1 
-1 0 20:1 
-1 1 21:1 
-1 0 1:-0.75 14:1 15:-0.75 24:1 
-1 0 
-1 0 1:-0.625 14:1 15:-0.625 19:1 
-1 0 20:1 66:1 
-1 0 20:1 21:1 
-1 0 20:1 
-1 0 
-1 0.01652151344926022 19:1 24:1 34:1 
-1 0 1:0.125 12:1 13:1 15:0.25 19:1 20:2 21:1 24:1 44:1 75:1 82:1 
-1 0 1:-0.5 13:1 14:1 15:-0.5 21:1 24:1 
-1 0 20:1 
-1 0 20:1 66:1 
-1 0 12:1 20:1 21:1 
-1 0 19:1 
-1 0 1:0.25 13:1 15:0.25 20:2 21:1 24:1 
-1 1 1:0.375 13:1 15:0.375 20:1 21:1 61:1 81:1 
-1 0 12:1 19:1 21:4 24:1 55:1 
-1 0.09007526809096415 1:0.5 13:2 15:0.75 19:2 24:2 
-1 0 1:-0.75 2:1 4:1 5:1 14:1 15:-0.75 19:1 
-1 0 19:1 20:1 42:1 
-1 0 1:-0.625 14:1 15:-0.625 19:1 24:1 36:1 
-1 0 19:1 20:1 
-1 0 1:-0.625 14:1 15:-0.625 19:2 24:1 
-1 0 49:1 
-1 0 24:1 
-1 0 12:1 20:2 21:1 
-1 0 1:-0.5 14:1 15:-0.5 60:1 
-1 0 
-1 0 24:1 
-1 0 12:1 20:1 21:1 
-1 0 1:-0.875 14:1 15:-0.875 24:1 31:1 
-1 0 1:-0.625 14:1 15:-0.625 24:1 85:1 
-1 0 12:1 20:1 21:1 
-1 1 1:-0.25 14:1 15:-0.25 19:2 21:3 
-1 0 24:1 
-1 0 
-1 0 20:1 21:3 
-1 0 19:1 
-1 0 1:-0.125 14:1 15:-0.125 24:1 
-1 0 1:0.125 12:1 13:1 15:0.125 20:2 21:1 92:1 
-1 0 
-1 0 17:3 27:1 
-1 0 20:1 24:1 
-1 0 1:-0.625 14:1 15:-0.625 19:1 
-1 0 1:-0.25 12:1 19:2 21:1 34:1 
-1 0 24:1 
-1 0 20:1 66:1 
-1 0 13:1 15:0.125 17:1 19:1 21:1 25:1 84:1 
-1 0 1:-0.625 14:1 15:-0.625 24:1 85:1 
-1 0 19:1 21:4 
-1 0 19:1 21:4 
-1 0 1:0.25 13:1 15:0.25 19:1 20:1 29:1 
-1 0 12:1 20:1 21:1 
-1 0 24:1 
-1 0 41:1 
-1 0 19:1 
-1 0 
-1 0 1:-0.625 14:1 15:-0.625 21:1 
-1 0 20:1 
-1 1 21:1 
-1 0 20:1 
-1 0 24:1 
-1 0 1:0.125 13:1 15:0.125 24:1 
-1 0 1:-0.125 14:1 15:-0.125 19:1 20:1 21:1 
-1 0 1:0.25 13:1 15:0.25 21:1 24:1 
-1 0 1:-0.875 14:1 15:-0.875 24:1 31:1 
-1 0 1:-0.625 14:1 15:-0.625 85:1 
-1 0 12:1 20:1 21:1 
-1 0 1:0.125 13:1 15:0.125 20:1 59:1 
-1 0 1:0.125 13:1 15:0.125 24:1 
-1 0 1:-0.875 14:1 15:-0.875 24:1 
-1 0 
-1 0 12:1 20:1 21:1 
-1 0 1:-0.5 14:1 15:-0.5 19:1 
-1 0 1:-0.625 14:1 15:-0.625 20:1 70:1 
-1 0 24:1 
-1 1 21:1 
-1 0 20:1 
-1 0 20:1 
-1 0 1:-0.125 20:1 
-1 1 1:0.125 13:1 15:0.125 19:2 21:3 
-1 0 1:0.125 13:1 15:0.125 20:1 21:1 24:1 59:1 
-1 0 1:0.375 2:1 3:1 5:1 13:1 15:0.375 24:1 
-1 0 9:1 72:1 
-1 0 1:-0.75 14:1 15:-0.75 24:1 
-1 0 12:1 20:1 21:1 
-1 0 1:0.125 13:1 15:0.125 20:1 24:1 
-1 0 18:2 19:1 
-1 0 20:1 
-1 1 19:1 21:3 
-1 0 1:-0.75 14:2 15:-0.75 21:1 24:1 
-1 0 24:1 
-1 0 1:-0.25 14:1 15:-0.125 24:1 
-1 0 12:1 20:1 21:1 
-1 0 20:1 
-1 0 20:1 
-1 0 1:-0.25 12:1 17:1 21:1 
-0 0.05551112205518503 12:1 19:1 21:4 
-1 0 1:0.125 13:1 15:0.125 19:1 84:1 
-1 0 12:1 20:2 21:1 
-1 0 20:1 66:1 
-1 0.545821955041076 21:1 24:1 34:1 
-1 0 19:1 
-1 0 1:0.375 13:1 15:0.375 19:1 20:1 24:1 33:1 
-1 0 1:-0.75 20:1 
-1 0 1:-0.625 14:1 15:-0.625 17:1 24:1 25:1 
-1 0 13:1 14:1 19:1 24:1 
-1 0 1:0.125 13:1 15:0.125 20:1 59:1 
-1 1 21:1 
-1 0 21:1 81:1 
-1 0 1:-0.25 14:1 15:-0.25 19:1 20:2 21:3 
-1 0 1:0.25 12:1 13:1 15:0.25 20:2 21:2 
-1 0 20:1 
-1 0 1:0.125 13:1 15:0.125 20:1 92:1 
-1 0 
-1 0 12:1 20:1 21:1 
-1 0 1:-0.25 14:1 15:-0.25 24:1 
-1 0 20:2 
-1 0 12:1 21:2 81:1 
-1 0.02637662115445463 1:0.25 13:2 15:0.25 20:2 59:1 
-1 0 19:1 
-1 0 20:1 
-1 0 24:1 
-1 0 57:1 
-1 0 19:1 20:1 
-1 1 21:1 
-1 0 20:1 
-1 0.05748722485556694 1:-0.75 2:0.5 4:1 5:1 14:1 15:-0.75 24:1 
-1 0 1:0.375 13:1 15:0.375 20:1 24:1 
-1 0 1:-0.5 12:1 14:1 15:-0.5 19:2 20:2 21:1 42:1 60:1 90:1 
-1 0 12:1 17:2 21:1 26:1 
-1 0 20:1 
-1 0 20:1 
-1 1 19:1 21:3 
-1 0 1:-0.5 14:1 15:-0.375 24:1 
-1 0 1:0.625 12:1 13:1 15:0.625 20:1 21:1 
-1 0 20:1 
-1 0 9:1 72:1 
-1 0 19:1 
-1 0 1:-0.625 14:1 15:-0.625 21:1 
-1 0.398713426828267 19:1 21:4 
-1 0 20:1 
-1 0 12:1 20:1 21:1 
-1 0.01610278181535804 1:0.375 8:1 13:2 15:0.625 19:1 20:1 24:1 77:1 
-1 0 1:0.125 13:1 15:0.125 19:2 20:1 21:1 84:1 
-1 0.5153864003715551 1:0.5 13:1 15:0.5 17:2 19:2 26:1 
-1 0 1:-0.625 14:1 15:-0.625 19:1 24:1 85:1 
-1 0 20:1 
-1 0 20:1 
-1 0 1:0.125 13:1 15:0.125 19:2 
-1 0 19:1 
-1 0 19:1 24:1 66:1 
-1 0 20:1 
-1 0 19:2 
-1 0 12:1 20:2 21:1 
-1 0 19:1 21:1 24:1 
-1 0 1:0.25 12:1 13:1 15:0.25 19:1 21:1 24:1 
-1 0 1:-0.25 14:1 15:-0.25 24:2 
-1 0 1:-0.875 14:1 15:-0.875 24:1 31:1 
-1 0 19:1 24:1 
-1 0 
-1 0 1:-0.375 13:1 14:1 15:-0.375 19:1 24:2 
-1 0.5120307464808471 1:-0.625 14:1 15:-0.625 19:1 20:1 21:3 
-1 1 21:1 
-1 0 20:1 49:1 
-1 0 
-1 0 49:1 
-1 0 49:1 
-1 0 20:1 
-1 0 1:0.125 13:1 15:0.125 19:1 84:1 
-1 0 12:1 20:1 21:1 
-1 0.4307269547338974 1:-0.75 20:2 21:1 
-1 0 24:1 
-1 0 19:1 
-1 0 1:0.125 13:1 15:0.125 24:1 
-1 1 1:0.375 13:1 15:0.375 19:2 
-1 1 1:0.5 13:1 15:0.5 20:1 24:1 
-1 0 24:1 
-1 0 20:1 
-1 0 24:1 
-1 1 1:-0.75 14:1 15:-0.75 20:1 24:1 
-1 0 1:0.375 13:1 15:0.375 19:1 
-1 0 
-1 0 1:-0.75 14:1 15:-0.75 21:1 24:1 
-1 0 20:1 
-1 0 1:-0.25 12:1 14:1 15:-0.25 20:3 21:1 90:1 
-1 1 1:0.125 13:1 15:0.125 20:1 21:1 
-1 0 1:0.125 13:1 15:0.125 20:2 
-1 0 2:1 5:1 49:1 
-1 0 20:1 
-1 0 12:1 20:1 21:1 
-1 0 49:1 
-1 0 
-1 0.0831188417606383 1:-0.125 14:2 15:-0.25 20:4 
-1 0 20:1 
-1 0 12:1 20:1 21:1 
-1 0 20:1 
-1 0 9:1 17:1 19:1 25:1 72:1 
-1 0 20:1 
-1 0 1:-0.25 12:1 19:2 75:1 
-1 0 20:1 
-1 0 19:1 
-1 0 24:1 
-1 0 12:1 20:1 21:1 
-1 0 24:2 
-1 0 20:1 
-1 0 1:-0.25 14:1 15:-0.25 19:1 
-1 0 1:0.125 13:1 15:0.125 20:2 24:1 
-1 0 1:-0.125 14:1 15:-0.125 19:1 24:1 
-1 0 24:1 
-1 0 2:0.4 5:1 19:2 21:1 24:2 55:1 
-1 0 12:1 20:1 21:1 
-1 0.01600262548084068 1:0.25 13:1 15:0.25 20:2 
-1 0 12:1 20:1 21:1 
-1 0 20:1 
-1 0.3743059703406352 20:1 63:1 
-1 0 20:1 
-1 0 19:1 24:1 
-1 0 1:0.125 12:1 13:1 15:0.25 21:2 24:1 34:1 
-1 0 19:1 
-1 0 1:-0.5 14:1 15:-0.5 20:2 
-1 1 1:0.375 13:1 15:0.375 19:2 20:1 61:1 
-1 0 1:-0.25 14:1 15:-0.25 20:1 
-1 0 1:0.625 12:1 13:1 15:0.625 21:1 24:1 58:1 
-1 0 1:0.375 12:1 13:1 15:0.5 19:1 20:1 21:4 24:1 
-1 0 
-1 0 20:1 
-1 0 20:2 38:1 
-1 0 19:1 24:1 
-1 1 1:-0.75 14:1 15:-0.75 19:1 20:2 
-1 0 1:-0.125 13:1 15:0.125 24:1 
-1 0 
-1 0.8362075170862531 12:1 17:1 20:1 21:1 25:1 
-1 0 1:-0.25 14:1 15:-0.25 19:1 
-1 0 20:1 
-1 0 1:-0.5 14:1 15:-0.5 20:1 
-1 1 1:0.25 
-1 0 20:1 49:1 
-1 0 1:-0.5 14:1 15:-0.5 17:2 21:1 24:1 26:1 
-1 0 1:0.125 13:1 15:0.125 19:1 50:1 
-1 0 20:1 
-1 0 19:1 20:1 
-0 0.2021061290870691 1:-0.625 12:1 14:1 15:-0.625 20:2 21:1 24:1 
-1 1 1:-0.375 13:1 14:1 15:-0.375 20:2 
-1 0 1:-0.125 12:1 13:1 15:0.125 19:2 50:1 
-1 0 
-1 0 20:1 
-1 0 1:0.125 13:1 15:0.125 20:1 59:1 
-1 0 19:1 
-1 0 1:0.125 13:1 15:0.125 20:1 59:1 
-1 0 20:1 
-1 0 1:0.25 12:1 13:1 14:1 15:0.25 20:2 21:1 24:1 33:1 65:1 
-1 1 21:1 
-1 0 41:1 
-1 0 1:-0.5 14:1 15:-0.5 19:1 
-1 0 20:1 21:1 
-1 0 1:-0.625 14:1 15:-0.625 19:1 
-1 0 12:1 20:1 21:1 
-1 0 1:-0.25 14:1 15:-0.25 19:1 20:1 
-1 0 1:-0.25 21:2 
-1 0 1:1 2:0.5 3:1 5:1 13:1 15:0.5 19:1 24:1 
-1 0 1:-0.5 14:1 15:-0.5 60:1 
-1 0 1:-0.875 14:1 15:-0.875 24:1 
-1 0 1:0.5 13:2 15:0.5 21:1 24:1 
-1 0.004477783176069703 17:3 20:3 27:1 
-1 0 1:-0.625 14:1 15:-0.625 24:1 
-1 0.10176135452338 1:-0.5 13:1 14:1 15:-0.5 20:1 24:1 
-1 0 1:0.125 13:1 15:0.125 19:1 21:1 24:1 
-1 0 1:0.375 13:1 15:0.375 19:1 
-1 0 
-1 1 1:0.375 13:1 15:0.375 21:1 
-1 0 1:0.125 13:1 15:0.125 19:1 84:1 
-1 0 12:1 20:1 21:1 
-1 0 1:-0.625 14:1 15:-0.625 19:1 24:1 
-1 0.6616739693997241 17:1 20:1 24:1 25:1 
-1 0.02588572200366977 17:1 19:1 21:1 25:1 29:1 
-1 0 
-0.3335482977077516 0 12:1 21:1 
-1 0 12:1 20:1 21:1 
-1 0 20:1 
-1 0 1:-0.25 20:1 21:2 24:1 90:1 
-1 0 20:1 
-0 0.5606935735284116 1:-0.75 12:1 14:2 15:-0.625 19:1 20:2 21:1 
-1 0 20:1 21:1 
-1 0 1:-0.25 14:1 15:-0.25 19:1 
-1 0 1:0.125 13:1 15:0.125 24:1 
-1 0 1:0.25 12:1 13:1 15:0.25 21:1 24:1 
-1 0 
-1 0 
-1 0.2694878493396282 1:0.5 12:1 21:1 24:1 
-1 0 1:-0.125 14:1 15:-0.125 20:1 
-1 0 12:1 21:1 
-1 0 12:1 21:1 
-1 0 1:-0.75 9:1 17:1 20:1 25:1 72:1 
-1 0 1:0.125 13:1 15:0.125 19:1 20:1 84:1 
-1 1 19:1 21:4 
-1 0 19:1 
-1 0 20:1 
-1 0 24:1 
-1 0 20:1 
-1 0 1:-0.25 14:1 15:-0.25 19:1 
-1 0 12:1 20:2 21:2 
-1 0 12:1 21:1 
-1 0 1:-0.25 14:1 15:-0.25 19:1 20:2 
-1 1 1:0.625 13:1 15:0.625 19:1 
-1 0 
-1 0 12:1 21:1 
-1 0 12:1 21:1 
-1 0 12:1 21:1 
-1 0 1:-0.375 14:1 15:-0.375 19:1 24:1 
-1 0 19:1 24:1 42:1 
-1 0 12:1 20:1 21:1 
-1 0 1:-0.875 14:1 15:-0.875 24:1 
-1 0 20:1 
-1 0 19:1 24:1 
-1 0 41:1 
-1 0 1:-0.625 2:0.33333333 4:1 5:1 13:1 14:1 15:-0.625 17:1 19:1 24:1 25:1 89:1 
-1 0 1:-0.25 14:1 15:-0.25 19:1 
-1 0 
-1 0 24:1 
-1 0 17:1 20:1 25:1 
-1 0 12:1 20:1 21:1 
-1 0 20:1 
-1 0 1:0.125 13:1 15:0.125 20:1 59:1 
-1 0 20:1 21:1 
-1 0 1:-0.75 14:1 15:-0.75 21:1 24:1 81:1 83:1 
-1 0 20:1 
-1 0 19:1 
-1 0 1:0.375 13:1 15:0.375 19:1 
-1 0 1:-0.5 14:1 15:-0.5 24:1 
-1 0 20:2 
-1 0 12:1 20:1 21:1 
-1 0 1:-0.625 14:1 15:-0.625 19:1 24:1 
-1 0 1:-0.625 14:1 15:-0.625 24:1 
-1 0 20:1 
-1 0 20:1 
-1 0 12:1 21:1 
-1 0 20:1 
-1 0 1:-0.875 14:1 15:-0.875 24:1 
-1 0 1:-0.625 14:1 15:-0.625 24:1 
-1 0 19:1 
-1 0.7299037025455586 1:-0.5 14:1 15:-0.5 19:1 24:1 60:1 
-1 0 12:1 21:1 
-1 0 20:1 
-1 0.5288224911913391 1:0.5 13:2 15:0.5 19:1 20:1 61:1 84:1 
-1 0 20:2 
-1 0 1:-0.625 14:1 15:-0.625 24:1 85:1 
-1 0 20:1 
-1 0 
-0.7674144873061874 0 1:-0.75 14:1 15:-0.75 24:1 83:1 
-1 0 
-1 0 20:1 
-1 0 20:1 
-1 0 1:0.125 13:1 15:0.125 19:1 20:2 
-1 0 
-1 0 1:-0.75 14:1 15:-0.75 24:1 83:1 
-1 0.9043095643263301 16:1 75:1 
-1 1 19:1 21:3 42:1 
-1 0 1:0.25 13:1 15:0.25 20:1 
-1 0 24:1 
-1 0 1:-0.75 14:1 15:-0.75 24:1 
-1 0 1:-0.75 14:1 15:-0.75 19:1 24:1 42:1 83:1 
-1 0 1:0.125 13:1 15:0.125 20:2 
-1 0 19:1 24:1 
-1 0 1:-0.625 14:1 15:-0.625 21:1 
-1 1 1:0.25 13:1 15:0.25 21:1 
-1 0 41:1 
-1 1 12:1 21:1 24:1 80:1 
-1 0 2:1 5:1 
-1 0 12:1 20:1 21:1 
-1 0 19:2 
-1 0 12:1 20:1 21:1 
-1 0 19:2 
-1 0 2:1 5:1 41:1 
-1 0 12:1 21:1 
-1 0 1:0.25 13:1 15:0.25 19:1 
-1 0 1:-0.375 14:1 15:-0.375 19:1 
-1 0 12:1 20:1 21:1 
-1 0 1:-0.25 14:1 15:-0.25 19:1 24:2 
-1 0 19:1 
-1 0 20:1 
-1 0 18:2 19:1 
-1 0.4134726763656329 19:1 42:1 
-1 0.08982560602177808 1:0.875 13:1 15:0.875 16:1 19:1 24:1 56:1 
-1 1 21:1 
-1 0 1:-0.125 14:1 15:-0.125 19:1 21:1 
-1 0 20:1 
-1 0 20:1 
-1 0.02176490608485204 1:0.125 2:0.33333333 3:1 5:1 13:2 14:1 15:0.125 16:3 17:3 19:1 20:2 21:1 27:1 
-1 0 1:0.625 12:1 13:1 15:0.625 21:1 24:1 58:1 
-1 0 20:1 
-1 0 12:1 20:1 21:1 
-1 0 1:-0.625 14:1 15:-0.625 20:1 70:1 
-1 0.2126649905108044 19:1 20:1 21:3 24:1 34:1 
-1 0 
-1 0 1:0.125 13:1 15:0.125 19:1 84:1 
-1 0 1:-0.25 14:1 15:-0.25 19:2 24:1 
-1 0.009957216464031741 1:-0.625 14:2 15:-0.625 19:1 20:1 60:1 
-1 1 17:1 19:1 25:1 
-1 0.23314334089879 1:0.125 13:1 15:0.125 19:1 24:1 82:1 
-1 0 19:1 
-1 0 12:1 21:1 
-1 0.2836302378648697 1:0.75 2:0.33333333 5:1 13:1 15:0.75 17:1 20:2 25:1 
-1 0 1:-0.625 14:1 15:-0.625 85:1 
-1 0.9009269721304236 1:-0.75 18:2 19:1 20:1 
-1 0 1:-0.5 14:2 15:-0.5 21:1 24:1 78:1 
-1 0 1:0.25 12:1 13:1 15:0.25 21:2 
-1 0 1:-0.625 14:1 15:-0.625 24:1 
-1 0 19:1 
-1 0 20:1 
-1 0 20:1 
-1 0 9:1 72:1 
-1 0.06804625716832617 1:-0.125 16:1 19:1 42:1 
-1 0 1:-0.75 20:1 
-1 0.01822071590329002 1:-0.75 
-1 0 12:1 21:1 
-1 0 1:-0.75 14:1 15:-0.75 24:1 83:1 
-1 0 1:-0.875 14:1 15:-0.875 24:1 31:1 
-1 0 20:1 
-1 0 1:-0.25 14:1 15:-0.25 24:1 
-1 0 20:1 
-1 0 20:1 24:1 55:1 
-1 0.01001884358062826 20:1 21:1 64:1 
-1 0 19:4 29:1 
-1 0 1:0.125 13:1 15:0.125 19:1 20:2 
-1 1 1:0.25 24:1 
-1 0.009854896502715612 20:2 87:1 
-1 1 20:2 90:1 
-1 0 1:-0.625 14:1 15:-0.625 20:1 70:1 
-1 0 1:-0.125 14:1 15:-0.125 19:1 
-1 0 
-1 0 
-1 1 1:0.375 13:1 15:0.375 19:2 24:1 61:1 
-1 0 20:1 21:1 
-1 0 1:-0.375 14:1 15:-0.375 19:1 
-1 0 20:1 
-1 0 1:-0.625 14:1 15:-0.625 17:2 19:2 26:1 
-1 1 1:1 13:1 15:0.5 24:1 
-1 0 24:1 
-1 0 1:-0.375 14:1 15:-0.375 19:2 
-1 0.2975017080213538 1:-0.375 2:0.16666667 4:1 5:1 14:1 15:-0.375 16:1 17:1 19:2 21:1 24:1 25:1 
-1 0 24:1 
-1 0 19:1 20:1 
-1 0 19:2 
-1 0 12:1 20:1 21:1 
-1 0 20:1 
-1 0 19:1 
-1 0 12:1 20:1 21:1 
-1 0 20:1 
-1 0 12:1 20:2 21:1 
-1 0 12:1 20:1 21:1 
-1 0.231561030330882 1:-0.875 14:1 15:-0.875 19:1 24:1 31:1 74:1 
-1 0 12:1 20:1 21:1 
-1 0 20:2 21:1 
-1 1 21:1 
-1 0 1:0.125 13:1 15:0.125 20:1 59:1 
-1 0 
-1 0.8396890085912353 1:0.375 
-1 0 24:1 
-1 0.09064944295556331 1:0.125 13:1 14:1 15:0.125 19:1 20:2 
-1 0 19:1 
-1 0 18:2 19:1 
-1 0 24:1 
-1 0 
-1 0 1:-0.5 14:1 15:-0.5 24:1 
-1 0 24:1 
-1 0 1:-0.75 14:1 15:-0.75 24:1 83:1 
-1 0 12:1 20:1 21:1 
-1 0 1:-0.25 12:1 19:2 75:1 
-1 0 2:1 5:1 20:1 
-1 0 2:1 5:1 20:1 
-1 0 20:1 
-1 0 1:0.125 13:1 15:0.125 19:1 20:1 
-1 0 19:1 
-1 0 20:1 
-1 0 24:1 
-1 0 1:-0.375 14:1 15:-0.375 19:1 
-1 0 1:-0.75 14:1 15:-0.75 19:1 24:1 
-1 0 19:1 
-1 1 1:-0.625 14:1 15:-0.625 20:1 
-1 0 1:-0.75 14:1 15:-0.75 19:1 24:1 42:1 83:1 
-1 0 20:1 
-1 0 1:-0.25 24:1 
-1 0 20:1 
-1 0 20:1 
-1 0 1:0.125 13:1 15:0.125 20:2 
-1 0 24:1 
-1 0 1:-0.25 14:1 15:-0.25 24:1 
-1 0 20:1 
-1 0 12:1 20:1 21:1 
-1 0 1:-0.625 14:1 15:-0.625 24:1 
-1 0 19:1 
-1 0 
-1 0 12:1 20:1 21:1 
-1 0 1:-0.25 14:1 15:-0.25 19:1 
-1 0 20:1 
-1 0 1:-0.625 14:1 15:-0.625 85:1 
-1 0 1:-0.75 14:1 15:-0.75 19:1 
-1 0 1:-0.25 14:1 15:-0.25 24:1 
-1 0 1:-0.75 20:1 
-1 0 19:1 20:1 
-1 0 20:1 
-1 0 19:1 24:1 
-1 0 1:-0.125 14:1 15:-0.125 19:2 
-1 0 1:-0.25 14:1 15:-0.25 19:2 
-1 0.9712348450597428 1:0.375 13:1 15:0.375 19:1 24:1 
-1 0 20:1 
-1 0 19:1 
-1 0 
-1 0 24:1 
-1 0 1:-0.5 14:1 15:-0.5 24:1 
-1 0.2120557591041563 1:0.5 13:2 15:0.5 24:2 
-1 0 1:-0.75 14:1 15:-0.75 24:1 
-1 0 1:-0.75 14:1 15:-0.75 24:1 
-1 0 1:0.25 13:1 15:0.25 19:1 
-1 0 1:0.25 13:1 15:0.25 19:1 
-1 0 1:-0.375 14:1 15:-0.375 19:1 24:1 
-1 0 
-1 0 19:1 
-1 0 20:1 
-1 1 1:0.125 13:1 15:0.125 19:1 
-1 0.02619692355875263 20:3 
-1 1 1:0.5 13:1 15:0.5 19:2 21:3 
-1 0 19:1 21:3 24:1 
-1 0 1:-0.375 13:1 14:1 15:-0.375 20:2 59:1 
-1 0 24:1 
-1 0 12:1 20:2 21:1 
-1 0 1:0.125 13:1 15:0.125 20:2 
-1 0 1:-0.75 14:1 15:-0.75 19:2 
-1 0 20:1 
-1 0 1:-0.75 14:1 15:-0.75 24:1 83:1 
-1 0 12:1 20:1 21:1 
-1 0 20:1 
-1 0 1:-0.25 14:1 15:-0.25 24:1 
-1 0 20:1 
-1 0 
-1 0 24:1 
-1 0 20:1 
-1 0 1:0.125 13:1 15:0.125 19:1 84:1 
-1 0 20:1 24:1 
-1 0 1:-0.375 14:1 15:-0.375 24:1 
-1 0 24:1 
-1 0 1:-0.25 14:1 15:-0.25 19:1 24:1 49:1 
-1 0 24:1 
-1 0 17:1 25:1 
-1 0 20:1 
-1 0 19:1 
-1 0 1:-0.125 14:1 15:-0.125 19:1 
-1 0 19:1 
-1 0.2094847517843758 1:0.25 13:1 15:0.25 20:1 21:1 
-1 0 24:1 
-1 0 19:1 
-1 0 1:-0.5 14:1 15:-0.5 24:1 
-1 0 19:1 
-1 0 1:-0.75 14:1 15:-0.75 19:1 
-1 0 24:1 
-1 0 1:-0.75 14:1 15:-0.75 24:1 83:1 
-1 0 1:-0.375 14:1 15:-0.375 17:1 20:1 25:1 
-1 0 24:1 
-1 0 19:1 
-1 0 19:1 
-1 0 1:-0.125 14:1 15:-0.125 19:1 
-1 0.0109528405727107 1:0.25 13:1 15:0.25 20:1 
-1 0 12:1 20:1 21:1 
-1 0 19:1 
-1 0 1:-0.75 14:1 15:-0.75 24:1 83:1 
-1 0 1:-0.625 14:1 15:-0.625 21:1 24:1 
-1 1 1:0.375 13:1 15:0.375 24:1 
-1 0 20:1 
-1 0 19:1 
-1 0 1:-0.25 14:1 15:-0.25 19:1 
-1 0 1:-0.25 14:1 15:-0.25 20:1 
-1 0 12:1 21:1 
-1 0 20:1 
-1 0 1:0.125 13:1 15:0.125 21:1 24:1 
-1 0 1:-0.75 19:1 20:1 
-1 0 1:-0.625 14:1 15:-0.625 19:2 24:1 
-1 0 20:1 
-1 1 1:0.25 13:1 15:0.25 20:1 21:1 
-1 0 1:-0.25 8:1 14:1 15:-0.25 19:1 77:1 
-1 0 20:1 
-1 0 
-1 0 1:-0.75 14:1 15:-0.75 24:1 83:1 
-1 0 
-1 0 24:1 
-1 0 
-1 0 1:-0.5 14:1 15:-0.5 20:2 
-1 0.2365299488134876 12:1 13:1 15:0.25 19:2 24:1 
-1 0 1:-0.25 24:1 
-1 0 24:2 
-1 0 9:1 72:1 
-0 0.4585698833765254 1:-0.75 14:2 15:-1 19:1 21:3 24:1 
-1 0 12:1 21:1 
-1 0 
-1 0 24:1 
-1 0 19:1 
-1 0 12:1 21:1 
-1 0 20:1 24:1 
-1 0 19:1 20:1 49:1 
-1 0.4842867659281543 1:0.25 17:1 20:1 25:1 
-1 0 9:1 72:1 
-1 0.3687285884558106 17:1 21:1 25:1 
-1 1 1:-0.375 14:1 15:-0.375 19:1 20:1 
-1 0 1:-0.125 14:1 15:-0.125 19:2 20:1 21:3 24:1 69:1 
-1 0 20:1 
-1 0 1:-0.625 14:1 15:-0.625 24:1 85:1 
-1 0 1:-0.125 16:1 19:1 
-1 0 17:1 25:1 
-1 0 24:1 
-1 0 1:-0.5 14:1 15:-0.5 19:1 
-1 0 19:1 20:1 21:1 49:1 
-1 0 24:1 
-1 0 
-1 0 
-1 0 19:1 
-1 0 24:1 34:1 
-1 0 41:1 
-1 0 19:1 24:1 
-1 0 1:-0.625 14:1 15:-0.625 20:1 21:1 70:1 81:1 
-1 0 19:1 
-1 0 1:-0.375 14:1 15:-0.375 19:2 20:1 24:1 29:1 49:1 
-1 0 
-1 0 1:0.5 13:1 15:0.5 17:1 19:1 20:2 25:1 
-1 0 1:-0.125 14:1 15:-0.125 24:1 
-1 0 1:-0.875 14:1 15:-0.875 24:1 
-1 0 20:2 
-1 0.3040803499761681 24:2 
