svm_type c_svc
kernel_type rbf
gamma 0.0384615
nr_class 3
total_sv 6368
rho -0.292083 -0.0574839 0.297667
label 1 -1 0
nr_sv 2456 1164 2748
SV
0.7617670844651098 1 1:-0.5 14:1 15:-0.5 16:14 17:1 19:3 21:2 22:2 
0.6450938566436717 1 1:1 13:2 14:1 15:0.75 16:24 21:6 22:1 23:8 26:3 
1 1 1:0.475 2:0.047619048 5:1 13:2 15:0.725 16:21 18:2 19:1 21:4 22:6 23:2 26:1 
1 1 1:0.875 13:3 14:2 15:0.875 16:27 21:4 22:7 23:1 26:2 
1 0.1134975033923667 1:-1.5 12:2 13:1 14:2 15:-0.4 16:27 19:3 20:2 21:7 22:4 23:2 26:2 
0 1 1:0.55 2:0.13333333 5:1 13:2 15:0.8 16:22 19:1 21:5 22:5 23:3 
0 1 1:1.4 13:4 15:2.25 16:27 21:3 22:7 23:7 26:2 
0.2543634800163187 0.4622223280015152 2:0.18181818 5:1 16:20 19:5 21:3 22:1 23:9 
0.8602776838262763 1 1:0.575 2:0.076923077 5:1 13:3 14:2 15:0.825 16:15 21:2 22:2 23:3 24:1 26:2 
0 1 1:0.075 2:0.5 3:1 5:1 13:1 15:0.2 16:15 19:2 21:3 22:1 23:1 24:1 
0.4475019094893756 0.9294043905545503 1:0.175 13:5 14:2 15:0.425 16:24 17:1 18:1 19:5 21:5 22:5 
1 0.8050724560984166 1:-0.125 12:1 13:2 14:1 15:0.6 16:25 19:1 21:5 22:3 23:4 26:3 
0 1 1:0.075 2:0.071428571 5:1 13:1 14:1 15:0.075 16:19 19:3 21:2 22:3 23:1 
1 0.9671930314569454 1:0.15 13:5 14:2 15:1.75 16:24 21:5 22:6 23:1 26:1 
0 1 1:0.6 13:2 15:1.2 16:16 19:1 21:3 22:4 23:1 
1 1 1:0.4 13:2 15:0.525 16:17 18:1 21:2 22:2 26:1 
1 1 1:0.4 13:3 14:2 15:0.525 16:28 21:8 22:2 23:3 26:1 
1 1 16:13 21:4 22:1 26:1 
0 1 1:0.975 2:0.14285714 5:1 13:3 15:1.1 16:24 19:1 21:2 22:2 23:1 25:1 26:1 
0 0.4309604138990172 1:1.275 2:0.052631579 5:1 13:5 14:1 15:1.875 16:20 21:3 22:5 23:3 26:3 
0 1 1:-0.2 2:0.125 5:1 12:1 13:1 14:1 15:0.4 16:19 19:1 21:4 22:1 23:1 26:1 
0 0.7196295399311091 1:0.75 2:0.11111111 5:1 13:3 14:1 15:1.35 16:26 18:1 19:2 21:2 22:5 23:5 24:1 26:1 
0 1 1:1.375 2:0.058823529 5:1 13:4 15:1.375 16:21 21:3 22:4 26:3 
0 1 1:0.775 13:2 15:0.9 16:27 19:3 21:10 22:2 24:1 
1 1 1:0.75 13:7 14:4 15:0.1 16:28 20:4 21:8 22:5 26:2 
0 1 1:0.6 2:0.125 3:1 5:1 13:2 15:0.6 16:11 21:2 22:3 
1 1 16:22 21:3 22:3 23:3 26:1 
1 1 1:-0.95 2:0.076923077 5:1 12:1 13:1 14:1 15:-0.075 16:20 19:1 21:3 22:2 26:2 
1 1 1:-0.375 2:0.23076923 4:1 5:1 14:1 15:-0.375 16:16 19:1 21:6 22:2 
1 1 1:-0.2 13:4 14:1 15:0.05 16:14 21:3 22:1 26:3 
0.826697743369411 1 1:0.35 2:0.14285714 5:1 13:2 14:1 15:0.225 16:24 19:1 21:1 22:3 23:4 
1 1 1:-0.1 13:2 14:1 15:-0.1 16:9 21:3 23:1 
0 1 1:-0.75 2:0.15384615 5:1 16:18 19:1 21:1 22:2 23:1 
0 1 2:0.25 5:1 13:1 15:0.25 16:20 19:1 21:2 22:2 23:1 26:2 
1 0.9057248404945492 1:-3.55 13:4 14:7 15:-2.8 16:25 21:8 22:5 23:1 24:1 26:4 
0 1 1:0.1 2:0.1875 3:1 5:1 13:4 15:1.45 16:19 19:2 21:8 22:1 23:1 
0 1 1:0.6 2:0.27272727 3:1 5:1 13:1 15:0.6 16:19 17:1 19:4 21:4 22:1 26:2 
0 1 1:0.875 13:4 15:0.625 16:20 21:5 22:4 23:2 26:3 
1 1 1:-1.55 12:1 13:2 14:1 15:0.4 16:25 21:7 22:5 23:7 24:1 
1 1 1:0.4 2:0.16666667 3:1 4:1 5:1 13:2 14:1 15:0.65 16:18 18:1 21:3 22:4 23:2 
0 1 1:1.775 13:4 15:1.9 16:27 21:6 22:2 26:3 
1 1 1:0.875 12:1 13:2 14:2 15:0.75 16:22 21:5 22:3 23:1 24:1 26:1 
0 1 1:0.8 2:0.0625 5:1 13:4 14:1 15:0.675 16:23 19:1 21:3 23:4 26:5 
1 1 16:14 21:3 22:2 
0 1 1:1.8 13:3 15:1.8 16:12 21:5 22:2 26:1 
0.111123821877678 0.3570118456820152 1:1.525 2:0.6 3:4 4:1 5:1 13:6 14:1 15:2.125 16:21 21:4 22:6 23:4 
1 1 1:-0.15 13:3 14:3 15:0.1 16:23 18:1 19:1 21:4 22:4 26:3 
1 1 1:-0.15 2:0.052631579 5:1 12:1 13:1 14:2 15:-0.15 16:19 19:1 21:3 22:2 23:4 
0 1 1:1.4 2:0.071428571 5:1 13:4 15:1.525 16:16 21:4 22:2 23:1 24:1 26:2 
0 1 1:1.95 2:0.125 5:1 13:4 15:1.95 16:27 19:1 21:11 22:4 26:3 
1 1 1:0.075 12:1 13:3 14:1 15:0.8 16:17 21:1 22:4 23:1 26:3 
1 1 1:-0.275 13:1 14:2 15:-0.15 16:21 18:1 21:4 22:3 23:3 26:1 
0 1 1:0.425 13:2 14:1 15:0.425 16:11 21:1 22:3 
0 1 1:1.65 13:3 15:1.4 16:24 18:1 21:3 22:5 23:4 24:1 26:1 
0 1 1:1.225 13:4 15:1.35 16:25 21:5 22:5 23:1 26:1 
1 1 1:0.8 2:0.13333333 3:1 5:1 13:2 14:1 15:0.8 16:22 18:2 21:5 22:3 26:2 
0 1 1:1.425 2:0.1 5:1 13:2 15:0.925 16:19 19:1 21:2 22:1 26:1 
1 0 1:-1.110223e-16 2:0.058823529 5:1 12:1 13:4 14:4 15:0.225 16:17 19:1 21:3 22:5 23:1 
1 1 1:1.375 13:5 14:2 15:1.375 16:25 21:3 22:10 23:2 26:2 
0.2496556024536637 1 1:0.65 2:0.045454545 5:1 13:4 14:1 15:1.525 16:27 21:8 22:6 23:3 26:4 
0 1 1:0.975 2:0.090909091 5:1 13:2 15:0.975 16:14 21:4 26:1 
0 1 1:0.725 2:0.083333333 5:1 13:2 14:1 15:0.725 16:17 19:1 21:1 26:4 
0 1 1:0.6 13:2 14:1 15:0.6 16:11 21:4 22:4 23:1 
0 0.02187863634163199 1:0.95 13:4 14:1 15:1.7 16:16 21:4 22:4 26:1 
0.781256051405771 1 1:0.975 13:3 15:0.975 16:14 21:1 22:4 23:2 
0 1 1:0.5 2:0.13333333 5:1 13:1 15:0.5 16:22 19:2 21:5 22:1 23:1 26:1 
1 1 1:-0.075 2:0.076923077 5:1 13:1 14:1 15:-0.075 16:20 21:3 22:1 26:1 
1 1 1:0.225 13:3 14:1 15:0.475 16:18 21:4 22:3 23:3 
0 1 1:1.625 2:0.05 5:1 13:6 15:1.875 16:22 21:4 22:3 23:4 26:5 
0.9413081121798891 1 1:-0.1 12:1 13:5 14:3 15:1.25 16:29 21:6 22:6 23:1 
1 1 1:0.05 13:3 14:1 15:0.8 16:22 21:4 22:3 23:5 24:1 26:3 
1 1 1:-0.125 13:1 14:2 15:-0.125 16:16 21:1 22:1 23:2 26:2 
0 1 1:0.95 13:3 15:1.325 16:29 21:6 22:3 23:8 26:2 
0.2307119759122691 0.6516293101582499 1:0.975 13:6 14:4 15:1.6 16:26 21:10 22:3 23:3 24:2 26:3 
1 1 1:0.3 13:2 14:1 15:0.3 16:26 21:6 22:4 25:1 26:1 
0 1 1:0.65 2:0.083333333 5:1 13:2 15:0.775 16:21 21:2 22:1 23:1 26:1 
1 1 1:0.325 2:0.05 3:1 5:1 13:3 14:1 15:0.325 16:21 21:8 23:4 26:2 
1 1 1:-0.1 13:2 14:1 15:0.025 16:27 21:4 22:2 26:4 
1 1 1:-0.425 2:0.055555556 5:1 13:2 14:1 15:0.325 16:21 21:4 22:3 23:4 24:1 26:3 
0 1 1:0.6 2:0.14285714 5:1 13:1 15:0.6 16:10 19:1 21:3 22:1 26:1 
0.468244135809392 1 1:1.325 2:0.047619048 5:1 12:1 13:4 14:1 15:2.175 16:26 18:1 21:7 22:5 23:6 26:2 
0 1 1:-5.5511151e-17 13:3 14:1 15:0.125 16:13 21:4 
0 1 1:-0.125 2:0.076923077 5:1 13:2 14:3 15:-0.125 16:19 19:2 21:1 22:2 23:1 26:1 
0.7877579372946826 0.9172042260975282 1:-0.1 12:1 13:9 14:3 15:0.375 16:29 18:1 19:1 21:11 22:4 23:11 26:1 
1 1 1:-0.375 12:1 13:3 14:3 15:-0.375 16:25 21:7 22:5 23:9 26:4 
0 1 1:0.8 2:0.11764706 5:1 13:2 15:0.925 16:20 21:3 23:7 26:2 
1 1 1:0.575 13:3 14:2 15:0.575 16:23 18:1 21:6 22:3 23:3 26:1 
0.3085881149810479 0 1:0.625 6:1 12:1 13:3 15:1.325 16:15 19:2 21:4 22:4 23:4 
1 1 1:0.225 2:0.14285714 5:1 13:3 14:2 15:0.475 16:20 21:5 22:1 26:5 
1 1 1:-1.525 13:3 14:4 15:-0.65 16:19 21:4 22:3 23:2 24:1 26:1 
0.8249844415270083 1 1:1 2:0.076923077 5:1 13:2 15:1 16:14 21:1 22:4 23:4 26:1 
1 1 1:0.625 13:2 14:1 15:0.625 16:22 21:10 22:1 23:4 26:2 
1 1 1:-1.525 13:1 14:2 15:-1.275 16:23 18:1 21:4 22:4 23:4 
0 1 1:0.975 13:2 15:1.1 16:11 21:5 22:2 23:1 26:1 
1 1 1:0.2 13:1 14:1 15:0.2 16:19 21:5 22:5 23:2 
1 1 1:-0.55 13:2 14:1 15:0.2 16:16 21:2 22:1 26:2 
1 1 1:-0.75 13:1 14:1 15:-0.75 16:11 19:1 21:3 23:1 
0 1 1:0.4 2:0.1 5:1 13:1 15:0.4 16:17 21:4 22:1 
0 1 1:0.6 13:1 15:0.6 16:24 21:6 23:3 26:2 
0 1 1:1.325 13:3 15:1.325 16:24 21:2 22:4 
0 1 1:0.925 13:5 14:1 15:1.675 16:17 21:1 22:6 26:2 
1 1 1:1.275 13:6 14:1 15:1.275 16:22 21:4 22:6 26:3 
0 1 1:0.975 13:5 14:1 15:1.575 16:24 21:6 22:4 23:3 26:2 
0 1 1:0.8 13:1 15:0.8 16:13 21:3 22:1 24:1 26:1 
0.4715026248218952 0.6460740463944054 1:0.65 12:1 13:5 15:1.85 16:23 19:4 21:5 22:10 23:5 24:1 26:1 
0 1 1:0.775 2:0.11111111 5:1 13:4 15:0.9 16:21 21:2 22:2 26:4 
0 1 1:0.85 13:3 15:0.975 16:15 21:5 23:3 26:2 
0 1 1:1.25 13:3 15:1.375 16:20 21:1 22:3 23:1 26:1 
1 1 1:-0.85 2:0.055555556 5:1 12:1 14:4 15:-1.1 16:20 21:6 22:1 26:2 
0 1 1:1.025 13:4 14:2 15:1.15 16:28 18:1 21:3 22:4 23:3 24:1 26:1 
1 1 1:0.1 13:1 14:1 15:0.1 16:22 21:5 22:2 23:2 
0 1 1:0.3 13:2 14:1 15:0.3 16:24 19:1 21:4 22:3 23:4 26:1 
1 1 1:-0.275 13:2 14:2 15:-0.025 16:26 19:1 21:4 22:5 23:1 26:3 
1 1 1:-0.125 13:1 14:2 15:-0.125 16:20 21:6 22:2 23:1 24:1 26:2 
0 1 1:1.075 13:2 15:1.2 16:10 21:2 22:1 26:1 
0.6673637798298173 1 1:0.325 2:0.052631579 5:1 12:1 13:3 15:1.05 16:18 21:2 22:2 23:4 26:3 
0 1 1:0.6 2:0.071428571 5:1 13:3 14:1 15:0.6 16:19 19:1 21:5 22:1 23:1 26:2 
1 1 1:0.6 2:0.14285714 5:1 13:1 15:0.6 16:21 18:2 21:4 22:3 26:1 
0.2719364564170621 0 1:1.45 13:4 14:1 15:1.45 16:24 21:3 22:4 23:6 26:5 
1 1 1:0.55 12:1 13:3 14:3 15:0.8 16:22 18:2 19:1 21:6 22:3 
0 1 16:23 19:1 21:4 22:3 
0 1 1:0.95 2:0.095238095 5:1 13:2 15:0.95 16:25 21:7 23:5 26:4 
0.6709660592467145 1 1:-0.875 16:9 22:2 
0 1 1:-0.125 16:19 19:1 21:3 22:1 26:2 
1 1 1:0.025 12:1 13:2 15:0.625 16:15 21:1 22:3 23:1 26:3 
0 1 1:1.725 2:0.058823529 5:1 13:4 15:1.725 16:19 21:5 22:2 23:4 26:2 
0 1 1:1.05 13:4 15:1.05 16:17 21:2 22:2 23:1 26:2 
0 1 1:1.1 13:2 15:1.1 16:23 19:3 21:9 26:4 
1 1 1:-1.35 12:1 13:1 14:1 16:16 21:2 22:4 23:2 
1 1 1:0.075 12:1 13:1 15:0.8 16:17 21:4 22:3 23:1 
1 1 1:0.475 13:1 15:0.6 16:14 18:3 21:1 26:1 
0 1 1:0.8 13:3 14:1 15:0.925 16:18 21:4 26:4 
0 1 1:-0.025 13:2 14:1 15:-0.025 16:26 18:1 19:1 21:4 22:2 26:2 
1 1 1:-1.3 2:0.083333333 5:1 13:1 14:3 15:-1.3 16:16 21:6 22:3 26:1 
1 1 1:-1.5 2:0.11111111 5:1 13:7 14:4 15:1.325 16:26 21:2 22:8 26:1 
0 1 13:2 14:1 15:0.75 16:28 18:1 19:1 21:5 22:3 23:5 26:1 
0 1 1:1.325 13:4 15:1.7 16:23 21:4 22:4 23:5 24:1 26:3 
0 1 1:0.65 2:0.076923077 5:1 13:3 15:0.65 16:17 21:2 22:2 23:1 26:2 
0 0.7995890322384425 1:0.675 13:4 14:4 15:0.625 16:30 18:1 19:2 21:6 22:9 23:3 24:1 26:3 
0 1 1:1.175 13:4 15:1.175 16:20 19:1 21:4 22:2 23:1 26:1 
0.1222754162290292 0 1:0.925 2:0.043478261 5:1 12:1 13:7 14:2 15:1.775 16:22 18:2 19:2 20:2 21:4 22:3 23:1 24:1 26:6 
1 1 1:0.125 2:0.066666667 5:1 13:1 15:0.125 16:16 21:4 22:3 23:3 26:2 
0.06972151211859304 1 1:-0.2 13:3 14:1 15:0.8 16:22 18:1 21:2 22:3 23:1 24:1 26:3 
0 1 1:0.25 13:1 15:0.25 16:17 19:1 21:3 22:5 26:2 
1 1 1:0.825 2:0.071428571 5:1 12:1 13:4 14:1 15:1.55 16:24 21:4 22:4 23:2 26:2 
0 1 1:1.65 13:3 15:1.4 16:23 18:1 21:3 22:5 23:4 24:1 26:1 
0 1 1:1.35 13:3 15:1.35 16:19 21:4 22:6 23:1 26:1 
0 1 1:0.85 2:0.11111111 5:1 13:2 15:0.85 16:17 19:1 21:3 22:1 26:3 
0 1 1:0.375 13:4 14:1 15:0.75 16:22 19:1 21:2 22:5 23:2 26:2 
1 1 1:-0.225 2:0.055555556 5:1 13:4 14:3 15:-0.225 16:29 19:2 21:4 22:4 23:1 24:1 26:1 
0.8151098040494049 1 1:0.425 13:3 14:1 15:0.8 16:28 21:3 22:4 23:4 26:2 
0 1 1:1.425 13:5 14:1 15:1.425 16:23 21:3 22:3 23:1 26:5 
1 1 1:0.1 2:0.090909091 5:1 13:2 14:2 15:0.1 16:21 21:2 22:3 26:1 
0 1 1:0.6 13:1 15:0.6 16:13 21:5 26:1 
0 1 1:0.6 13:1 15:0.6 16:14 21:2 22:1 26:1 
0 0.6409708068609116 1:1.65 2:0.045454545 5:1 13:5 14:1 15:1.65 16:23 18:1 21:3 22:4 23:3 26:4 
0 1 1:0.4 13:1 15:0.4 16:13 19:1 21:3 22:3 26:1 
0.6297831059125768 1 2:0.076923077 5:1 13:1 15:0.25 16:25 21:4 22:2 23:2 26:2 
0.1376655681903751 1 1:0.1 6:1 7:1 13:2 15:0.5 16:24 21:4 23:3 26:4 
0 1 2:0.083333333 5:1 13:1 15:0.125 16:22 19:3 21:6 22:2 23:1 26:1 
0 1 16:22 19:1 21:5 22:2 
0 1 1:0.5 13:1 15:0.5 16:16 19:1 21:3 22:2 26:1 
0 1 1:0.475 2:0.083333333 5:1 13:1 15:0.6 16:16 21:1 24:1 25:1 26:2 
0 0.3277996756726018 1:1 13:3 14:1 15:1.125 16:21 19:1 21:2 22:2 26:2 
0.09422333577357782 0 1:0.85 13:6 14:1 15:2.175 16:29 19:1 21:5 22:4 23:3 26:6 
0 0.6757415278396866 1:0.55 13:3 14:1 15:1.3 16:20 19:4 21:8 22:1 25:1 26:1 
1 1 1:0.925 13:6 14:2 15:1.375 16:23 21:3 22:4 23:1 26:7 
0.5742011526945533 0 1:-0.225 12:2 13:3 15:0.75 16:24 19:3 21:3 22:4 23:3 26:1 
0 1 1:0.975 2:0.2 5:1 13:3 15:0.975 16:22 21:7 22:2 26:3 
0 1 1:0.85 13:2 15:0.85 16:16 21:1 22:3 
0 1 1:-0.05 13:1 14:1 15:0.2 16:26 19:3 21:7 22:3 
1 1 1:0.675 13:2 14:1 15:0.675 16:11 21:4 22:3 23:5 
0 1 1:1.325 13:3 15:1.325 16:17 21:3 22:4 
0 1 1:0.85 13:2 15:0.975 16:18 21:3 23:1 24:1 26:2 
1 1 1:-0.15 12:1 13:2 14:1 15:0.45 16:17 21:2 22:3 23:1 
1 1 1:1.275 13:4 14:1 15:1.275 16:22 21:4 22:4 23:7 26:1 
0 1 1:1.175 13:4 15:1.175 16:20 21:4 22:2 23:1 26:1 
1 1 1:0.125 13:3 14:1 15:0.125 16:16 18:1 21:3 22:4 23:1 26:1 
1 1 1:-0.1 13:1 14:1 15:-0.1 16:13 21:3 22:3 23:3 26:1 
1 1 1:-1.725 12:1 13:3 14:2 15:-0.25 16:24 21:4 22:5 23:3 26:2 
1 1 1:-0.675 2:0.11111111 3:1 5:1 12:2 13:3 14:4 15:-0.3 16:29 21:5 22:7 23:2 26:2 
0 1 1:0.875 13:2 15:0.875 16:9 21:2 22:2 26:1 
0.6395953297415408 1 1:0.775 2:0.045454545 5:1 13:5 14:1 15:1.375 16:25 21:2 22:2 23:6 24:1 26:5 
0 1 1:1.5 13:3 15:1.625 16:22 21:9 22:3 25:1 26:1 
0 1 1:0.85 13:2 15:0.85 16:13 21:2 22:2 23:1 26:3 
1 1 1:-0.475 13:3 14:2 15:0.875 16:16 17:1 21:1 22:6 23:2 26:1 
0.1537721551614623 0 1:0.8 12:1 13:4 14:2 15:1.05 16:26 19:6 21:3 22:2 23:6 24:1 26:3 
0.2004959386159638 1 16:11 21:5 23:1 26:1 
0.05822245474302321 1 1:0.925 13:4 14:2 15:1.175 16:30 21:5 22:5 23:6 
0.8353727768505697 1 1:0.525 13:2 15:0.525 16:14 18:1 21:3 22:2 23:3 
1 1 1:-0.3 13:1 14:2 15:-0.3 16:18 21:1 22:4 
1 1 1:-0.125 16:22 21:3 22:3 23:1 26:1 
0 1 1:-0.15 13:1 15:0.6 16:16 19:1 21:2 22:4 23:1 
1 1 1:0.55 12:1 13:3 14:1 15:1.15 16:22 17:2 18:2 21:3 22:3 23:1 26:2 
1 1 1:-0.3 13:1 14:2 15:-0.3 16:13 21:3 22:1 23:1 26:2 
0 1 1:0.125 13:1 15:0.125 16:19 18:1 19:1 21:2 22:4 23:2 
1 1 1:-0.25 12:1 13:1 14:1 16:24 20:2 21:2 22:8 23:1 26:2 
0 1 1:-0.3 13:2 15:0.45 16:22 19:1 21:6 22:2 26:1 
1 0.261150796529212 1:1.1 13:6 14:2 15:2.675 16:28 21:2 22:9 23:7 26:2 
0 1 1:-0.375 13:2 15:0.75 16:18 21:4 26:1 
0 1 1:1.25 13:3 15:1.25 16:21 21:7 22:1 23:5 26:1 
0 1 1:0.85 13:2 15:0.85 16:20 21:6 22:2 26:2 
0 1 1:0.65 13:2 15:0.65 16:11 21:4 22:1 23:1 26:2 
0.2636479822406362 0.4163902868404226 1:3.25 2:0.038461538 5:1 13:9 15:3.5 16:30 18:1 19:2 21:3 22:4 23:5 26:5 
0 1 1:0.8 2:0.083333333 5:1 13:2 15:0.8 16:22 19:1 21:4 22:2 26:2 
0 1 1:1.175 2:0.14285714 5:1 13:4 15:1.175 16:20 19:1 21:2 22:5 
0.2657891681133942 0 1:1.8 12:2 13:5 14:1 15:2.65 16:24 19:1 21:4 22:1 23:10 26:4 
0.5701238442166151 1 1:-0.15 2:0.0625 5:1 13:1 15:0.6 16:26 21:7 22:3 23:2 26:2 
1 1 1:-0.025 13:1 14:2 15:-0.4 16:23 21:4 22:5 23:3 26:1 
0 1 1:0.4 2:0.083333333 5:1 13:1 15:0.4 16:21 19:3 21:5 22:2 26:1 
0 1 1:0.65 2:0.0625 5:1 13:2 15:0.65 16:21 21:5 22:1 26:1 
0.300765660500849 1 1:0.85 2:0.076923077 5:1 13:4 15:1.45 16:21 21:2 22:5 26:2 
0 1 1:0.4 2:0.083333333 5:1 13:2 14:1 15:0.4 16:13 21:4 22:1 
0 1 1:0.25 2:0.33333333 5:1 13:1 15:0.25 16:22 19:2 21:2 22:2 26:2 
0 1 1:0.875 13:2 15:1 16:13 21:2 26:1 
1 1 1:-0.2 2:0.1875 3:2 4:2 5:1 12:1 13:5 14:4 15:-0.2 16:24 19:1 21:5 22:4 23:1 24:1 26:1 
1 1 1:-0.025 13:1 14:1 15:0.1 16:28 18:1 21:4 22:5 23:5 26:1 
1 1 1:0.325 13:4 14:2 15:0.575 16:20 21:3 23:1 25:1 26:7 
1 1 1:0.05 13:3 14:1 15:0.925 16:26 21:4 22:4 23:3 24:1 26:3 
0 1 1:0.525 13:4 14:1 15:1.275 16:25 21:4 22:4 23:1 26:1 
1 1 1:0.075 2:0.11111111 3:1 5:1 13:2 14:1 15:0.2 16:16 18:1 19:2 21:2 22:3 23:7 
0 1 1:-0.025 2:0.15384615 5:1 13:3 15:0.725 16:21 18:1 19:1 21:2 22:3 23:1 26:1 
0 1 1:-0.25 2:0.13333333 5:1 13:3 15:0.75 16:25 19:4 21:2 22:4 
0 1 1:0.4 13:2 14:1 15:1 16:23 21:6 22:3 23:1 26:2 
1 1 1:0.1 13:2 14:2 15:0.475 16:13 22:1 23:1 26:1 
0 1 1:0.125 13:2 14:1 15:0.375 16:24 19:2 21:3 22:2 23:2 26:6 
1 1 1:0.275 13:1 14:1 15:0.275 16:21 18:3 21:2 22:3 26:2 
0 1 1:0.6 13:1 15:0.6 16:9 21:1 22:1 26:1 
1 1 1:0.375 13:3 14:2 15:0.625 16:19 21:2 22:5 23:2 26:1 
1 1 1:0.15 13:3 14:1 15:0.15 16:27 21:7 22:5 26:2 
0 1 1:0.975 2:0.066666667 5:1 13:2 15:0.975 16:21 18:2 21:4 22:2 26:1 
0 0.2960679064675867 1:0.875 13:3 15:1.375 16:24 19:1 21:6 22:2 23:4 26:1 
1 1 1:-1 2:0.0625 5:1 14:3 15:-1 16:18 21:2 22:3 23:4 26:2 
0 1 1:-0.775 13:1 14:1 15:-0.275 16:26 19:2 21:2 22:2 23:3 26:2 
0 1 1:1.35 13:3 15:1.35 16:18 21:2 22:4 26:3 
0.9842548861064175 0.7974524357501021 1:-1.35 2:0.045454545 5:1 10:1 12:2 13:8 14:7 15:-0.75 16:23 18:1 20:4 21:4 22:9 23:2 24:1 26:1 
1 1 1:0.375 12:1 13:2 15:0.975 16:17 21:3 22:1 23:2 26:2 
0 1 1:1.125 13:3 14:1 15:1.125 16:27 18:1 21:9 22:5 23:8 26:4 
1 1 1:0.225 2:0.15 5:1 13:3 14:2 15:0.475 16:19 21:7 22:1 26:5 
1 1 1:0.05 13:2 14:2 15:0.05 16:15 19:1 21:3 22:2 26:1 
0.05878729083544385 1 1:1.1 13:5 14:1 15:1.1 16:22 21:7 22:3 23:2 24:1 26:4 
0 1 1:0.675 13:2 15:0.8 16:28 18:1 19:4 21:5 22:3 26:1 
0.8003578775795702 0 1:0.4 12:1 13:2 14:1 15:0.525 16:12 19:3 21:7 22:1 
1 1 1:-0.4 14:1 15:-0.4 16:13 21:5 22:1 
0 1 1:0.5 10:1 13:2 15:0.375 16:27 18:1 21:5 22:1 23:2 25:1 26:3 
0 1 1:0.25 13:1 15:0.25 16:18 21:4 22:2 26:3 
1 1 1:-1.4 13:2 14:2 15:-0.4 16:15 19:1 21:3 22:5 26:3 
0 1 1:0.4 13:1 15:0.4 16:10 21:3 26:2 
1 1 1:-0.075 2:0.076923077 5:1 13:2 14:1 15:-0.075 16:18 21:2 22:3 23:2 
0 1 1:0.825 13:3 15:1.575 16:21 21:2 22:4 24:1 26:1 
1 1 1:-0.075 2:0.16666667 5:1 12:1 13:2 15:0.525 16:17 21:1 22:5 23:2 26:1 
0 1 1:0.975 13:2 15:1.1 16:22 21:5 22:2 23:1 24:1 26:1 
1 1 1:0.025 13:2 14:1 15:0.15 16:20 21:4 22:4 23:1 26:2 
0 0.01375660910088878 1:1.875 13:6 14:1 15:2.475 16:25 21:2 22:7 23:1 24:1 
0.8272795843441758 1 1:-0.5 14:1 15:-0.5 16:10 19:1 21:1 22:1 
1 0 1:0.1 2:0.055555556 5:1 12:4 13:5 15:2.2 16:21 19:2 21:2 22:2 23:5 26:4 
0 1 1:-0.6 2:0.083333333 5:1 13:2 15:0.4 16:21 19:1 21:1 22:2 
0 1 1:0.85 13:2 15:0.85 16:13 21:3 22:1 26:2 
0 1 1:0.475 13:2 15:0.85 16:20 21:4 22:2 23:4 26:1 
0 1 1:0.25 2:0.076923077 5:1 13:5 14:1 15:1.175 16:18 21:4 22:2 24:1 26:2 
0 1 1:1.175 12:1 13:4 14:2 15:0.925 16:29 18:1 19:2 21:6 22:6 
0 1 16:20 19:1 21:3 22:1 
0 1 1:0.975 2:0.055555556 5:1 13:4 15:1.575 16:24 21:7 22:4 26:1 
1 1 1:0.1 13:2 14:3 15:0.1 16:15 21:6 22:2 23:3 24:1 
0 1 1:-0.1 2:0.15384615 5:1 12:1 13:1 15:0.5 16:14 19:2 21:4 22:2 23:1 
1 1 1:-0.8 2:0.0625 5:1 12:2 13:1 14:1 15:-0.075 16:25 18:1 19:1 21:6 22:1 23:1 26:1 
0 1 16:18 19:1 21:3 22:2 26:1 
0 1 1:0.6 2:0.15384615 5:1 13:1 15:0.6 16:17 18:1 21:4 22:1 26:1 
1 1 1:0.5 2:0.1 5:1 13:2 14:2 15:0.5 16:16 21:1 22:5 26:1 
0 1 1:0.725 13:2 15:0.85 16:18 21:2 22:2 26:2 
0 1 1:0.925 2:0.125 5:1 13:1 15:0.8 16:13 21:1 23:1 24:1 26:1 
0 1 1:1.775 2:0.083333333 5:1 13:4 14:1 15:1.775 16:22 21:4 22:2 26:3 
0 1 1:0.8 13:2 14:1 15:0.8 16:21 19:1 21:5 22:3 26:2 
1 1 1:-0.1 2:0.1 5:1 13:2 14:2 15:0.025 16:14 19:1 21:3 22:3 23:1 26:1 
1 1 1:-0.75 12:1 13:1 14:1 15:0.1 16:23 19:1 21:2 22:2 23:4 24:1 26:3 
0 1 16:12 19:3 21:1 22:1 
0.2102002386272072 1 1:1.575 13:5 15:1.7 16:14 21:5 22:1 26:3 
0 0.4792033632696452 1:0.775 2:0.05 5:1 13:4 14:1 15:0.775 16:22 19:4 21:5 22:5 23:1 26:4 
0 1 1:1.25 2:0.11111111 5:1 13:3 15:1.25 16:20 21:3 22:3 23:4 26:2 
0 1 1:0.925 13:3 15:0.925 16:14 21:7 22:1 
0 1 1:0.85 13:2 15:0.85 16:10 21:2 22:1 26:2 
0.06505365275745197 0 1:2.175 2:0.058823529 5:1 13:6 14:1 15:2.175 16:24 21:5 22:6 26:2 
1 1 1:-0.375 13:4 14:3 15:1.225 16:27 21:2 22:7 23:6 26:3 
0 1 1:0.525 2:0.090909091 5:1 13:2 15:1.4 16:18 18:2 21:2 22:2 23:2 26:2 
1 1 1:0.575 13:4 14:1 15:0.575 16:26 21:2 22:3 23:8 25:1 26:4 
0 1 1:-0.125 2:0.10526316 5:1 13:1 15:0.125 16:29 17:1 19:4 21:8 22:2 23:3 
1 1 1:0.6 13:2 15:0.725 16:14 18:4 21:1 22:1 23:1 26:1 
0 1 1:0.875 13:3 15:1.125 16:18 19:1 21:2 22:1 26:1 
0 1 1:1.075 13:2 15:1.2 16:12 17:1 18:1 21:3 22:2 24:1 26:1 
0 1 1:0.1 13:1 14:1 15:0.1 16:15 19:1 22:2 
0.9459586797164847 1 1:0.025 2:0.058823529 5:1 13:4 14:1 15:1.775 16:27 21:3 22:6 23:3 26:1 
0 1 1:1.775 13:4 15:1.525 16:20 21:3 22:4 23:1 26:3 
0.4475242387943005 1 1:0.475 13:1 14:1 15:0.475 16:20 19:2 21:1 22:3 23:6 26:1 
0 1 1:-0.15 13:1 15:0.6 16:17 19:1 21:1 22:1 23:1 
0 1 1:0.975 2:0.2 5:1 13:3 15:0.975 16:22 21:7 22:2 26:3 
1 1 1:0.15 12:1 13:2 15:0.75 16:17 18:3 19:1 21:2 22:3 23:2 
0 1 1:0.625 13:1 15:0.625 16:14 21:3 22:3 
0 1 1:-0.3 2:0.076923077 5:1 13:2 15:0.45 16:23 19:1 21:6 22:3 26:1 
0 1 1:0.85 13:2 15:0.85 16:16 19:1 21:4 22:2 23:1 
1 1 1:-1.1 12:1 13:2 14:1 15:0.25 16:24 21:5 22:4 23:2 26:2 
0 1 1:0.8 13:1 15:0.8 16:12 21:4 23:1 26:1 
0 1 1:0.975 2:0.4 3:1 5:1 13:3 15:0.975 16:15 21:3 26:5 
1 1 1:0.45 13:2 14:2 15:0.45 16:17 21:1 22:6 24:1 26:1 
0 1 1:0.525 13:2 15:0.525 16:22 19:2 21:5 22:1 26:1 
0 1 1:0.8 2:0.090909091 5:1 16:16 19:3 21:5 22:2 
0 1 1:-0.025 2:0.125 5:1 13:2 15:0.725 16:16 21:1 22:2 23:1 26:1 
1 0 1:0.25 12:1 13:6 14:3 15:2.425 16:27 19:1 21:4 22:6 23:1 26:5 
1 1 1:-0.2 12:2 13:2 14:2 15:0.9 16:22 21:5 22:2 23:5 26:2 
0 1 1:0.8 2:0.13333333 5:1 13:2 14:1 15:0.675 16:27 19:2 21:5 22:3 23:3 
0 1 1:0.95 13:2 14:1 15:0.575 16:23 21:4 22:1 23:6 26:2 
0 1 13:1 15:0.125 16:21 17:1 19:2 21:8 22:3 23:1 24:1 
0.119562691457104 1 1:1.125 12:1 13:4 15:1.1 16:23 21:3 22:1 23:4 24:1 26:1 
1 1 1:0.9 12:1 13:5 15:1.5 16:25 21:4 22:8 23:3 26:1 
1 1 1:-0.425 13:1 14:1 15:-0.3 16:19 21:5 22:1 23:1 
0 0.05364548561146578 1:0.5 2:0.11111111 5:1 13:1 15:0.5 16:14 19:4 21:3 22:1 23:1 
1 1 1:0.65 12:1 13:4 15:1.25 16:26 21:4 22:5 23:2 26:3 
0.7986169065380271 1 1:0.975 13:2 15:1.1 16:12 18:3 21:4 23:1 26:1 
0 1 1:0.6 13:1 15:0.6 16:14 21:3 22:2 23:2 26:1 
0 1 1:1.2 13:2 15:1.2 16:21 21:3 22:3 26:2 
0 1 1:0.3 13:2 14:1 15:0.3 16:25 19:1 21:2 22:2 26:1 
1 1 1:-0.75 12:1 13:1 14:1 15:-0.15 16:25 19:2 21:4 22:4 23:2 26:2 
0 1 1:1.1 2:0.125 5:1 13:3 14:1 15:0.85 16:22 18:1 21:4 22:3 26:3 
0 0.3479306299802588 1:1.025 2:0.2 5:1 12:1 13:5 15:1.875 16:25 19:1 21:4 22:3 23:2 24:1 26:5 
0 1 1:0.6 13:2 15:1.2 16:10 21:1 22:1 26:3 
1 1 1:0.325 2:0.045454545 5:1 12:1 13:5 14:1 15:1.175 16:22 21:3 22:6 23:4 25:1 26:4 
0 1 1:1.025 2:0.058823529 5:1 13:3 14:1 15:1.15 16:23 19:1 21:4 22:3 23:3 24:1 25:1 26:1 
0 1 1:0.725 13:2 15:0.85 16:12 21:3 23:4 26:2 
1 1 1:-2.125 12:1 13:2 14:2 15:-0.4 16:21 19:2 21:4 22:5 23:1 26:5 
1 1 1:-0.5 14:1 15:-0.5 16:18 21:4 22:3 23:3 
0.8463210945854009 1 1:0.95 13:7 14:3 15:2.3 16:19 18:1 21:2 22:3 23:6 24:2 
1 1 1:0.425 2:0.055555556 5:1 13:3 14:2 15:0.425 16:23 21:4 22:4 23:4 26:3 
1 1 1:-0.55 2:0.18181818 5:1 12:1 13:1 14:1 15:0.05 16:11 21:2 22:3 23:1 26:3 
0 1 1:1.6 13:3 15:1.6 16:19 21:5 22:1 26:1 
0 1 1:1.3 2:0.058823529 5:1 13:3 14:1 15:1.3 16:24 21:8 23:1 26:2 
1 1 1:0.225 13:2 14:1 15:0.35 16:24 21:6 22:4 23:3 24:1 
0 1 1:0.975 2:0.076923077 5:1 13:2 15:0.975 16:19 21:3 22:2 
0 1 1:1.7 2:0.066666667 5:1 13:6 15:1.7 16:23 17:1 19:1 21:5 22:3 23:1 26:2 
1 1 1:-0.55 12:1 13:2 14:2 15:-0.3 16:20 19:1 21:3 22:4 23:3 
0 1 1:0.25 13:1 15:0.25 16:18 22:4 26:3 
1 1 1:-0.775 2:0.076923077 5:1 12:1 13:1 14:3 15:-0.175 16:21 21:3 22:8 23:1 
0 1 1:1.225 2:0.058823529 5:1 13:5 14:1 15:1.6 16:21 21:4 22:3 23:1 26:3 
0 1 1:0.85 2:0.071428571 5:1 13:1 15:0.6 16:24 19:1 21:3 22:1 26:4 
0 1 1:0.6 13:1 15:0.6 16:23 21:3 22:4 
0 1 1:0.8 2:0.055555556 5:1 13:2 15:0.8 16:20 21:3 22:2 23:4 26:1 
0 1 1:0.5 2:0.05 5:1 12:1 13:3 15:0.85 16:27 19:1 21:6 23:5 26:3 
1 1 1:0.5 2:0.05 5:1 12:1 13:4 15:1.225 16:19 21:4 22:2 23:4 26:2 
0 1 1:-0.125 16:5 21:2 
0.6826624271148651 0 1:0.55 12:1 13:5 15:1.4 16:25 19:1 21:6 22:2 23:1 26:1 
1 1 1:-0.275 12:1 13:3 14:1 15:0.575 16:14 21:3 22:3 23:3 26:3 
0 1 1:0.85 13:2 15:0.85 16:15 21:4 22:1 23:3 26:2 
0 1 1:0.725 2:0.11111111 5:1 13:2 15:0.85 16:16 21:2 26:1 
0 1 1:1 2:0.076923077 5:1 13:3 14:3 15:1 16:24 21:7 
1 1 1:-0.7 13:1 14:2 15:-0.7 16:17 21:5 22:2 23:1 26:1 
0.5251672798694563 1 1:0.7 12:1 13:5 14:4 15:0.625 16:29 21:5 22:8 23:2 26:2 
1 1 1:-0.5 2:0.125 5:1 14:1 15:-0.5 16:14 21:2 22:2 26:1 
0.8429187859470908 1 1:1.25 13:5 14:1 15:1.85 16:30 18:3 19:1 21:6 22:5 23:4 26:3 
0 1 1:0.85 13:3 15:1.45 16:14 21:3 22:5 26:2 
0 1 1:1.225 2:0.041666667 5:1 13:2 15:1.35 16:27 18:2 21:6 22:1 23:6 26:4 
0.9961112319855923 0 1:1.375 12:1 13:4 14:2 15:1.125 16:15 21:5 22:2 23:1 26:2 
0.8890845321397259 0 1:-1.075 13:3 14:4 15:-0.2 16:23 19:3 21:6 22:3 23:1 26:1 
1 1 1:-1.4 2:0.071428571 5:1 12:1 14:2 15:-0.8 16:19 19:2 21:3 22:1 23:3 
1 1 1:0.35 13:2 14:1 15:0.35 16:18 21:4 22:6 26:1 
1 1 1:0.75 13:2 14:1 15:0.75 16:18 21:2 22:3 23:4 24:1 26:1 
0 1 1:0.275 13:1 15:0.4 16:17 19:1 21:3 22:1 23:1 26:1 
1 1 1:0.375 2:0.066666667 5:1 13:1 15:0.375 16:24 18:2 21:3 22:3 
0 1 1:1.4 13:2 15:1.4 16:18 21:3 22:1 26:2 
1 1 1:-0.775 2:0.55 3:1 4:1 5:1 13:1 14:1 15:-0.025 16:23 20:2 21:6 22:4 23:1 25:1 26:3 
0 1 1:0.525 13:2 15:0.525 16:11 21:2 22:2 26:2 
1 1 1:-0.175 13:5 14:4 15:-1.075 16:10 20:4 21:3 22:2 24:1 
0 1 1:0.875 2:0.066666667 5:1 13:3 15:0.875 16:18 21:6 22:2 23:1 26:3 
1 1 1:-0.75 14:2 15:-0.625 16:21 21:5 22:5 23:5 26:1 
1 1 1:0.025 13:1 14:1 15:0.15 16:28 21:8 22:3 23:1 26:2 
1 1 1:0.325 13:2 14:1 15:0.325 16:20 21:4 22:3 23:2 26:3 
1 1 1:0.075 2:0.055555556 5:1 13:2 14:1 15:0.075 16:24 21:8 22:2 23:3 26:1 
0.8813489907199028 1 1:0.85 2:0.076923077 5:1 13:3 14:1 15:0.85 16:16 21:1 22:4 26:2 
1 1 1:-0.325 13:4 14:3 15:-1.1 16:10 18:1 20:4 21:3 22:2 26:3 
0 1 1:-0.175 2:0.090909091 5:1 13:2 14:1 15:-0.05 16:16 19:1 21:5 22:1 26:4 
0 0.4791735285289125 1:0.275 13:3 14:1 15:1.275 16:27 19:5 21:4 22:6 23:3 26:1 
1 1 1:0.65 12:1 13:4 15:1.25 16:26 21:4 22:3 23:2 26:4 
0 0.13365742928519 1:1.725 13:5 15:1.85 16:25 19:1 21:1 22:4 23:1 26:3 
0 1 1:0.325 13:2 14:1 15:0.45 16:26 19:2 21:5 22:3 23:6 26:4 
0 1 1:0.15 13:2 14:1 15:0.275 16:14 19:2 21:1 22:2 
0.6014474865050745 1 1:0.5 13:3 15:1.25 16:15 21:2 22:5 23:3 26:2 
1 1 1:-0.025 12:1 13:4 15:1.45 16:31 19:1 21:3 22:3 23:7 25:1 26:3 
1 1 1:-0.5 14:1 15:-0.5 16:15 21:3 22:2 26:1 
0 1 2:0.125 5:1 13:1 15:0.125 16:12 21:4 22:1 
0 1 1:1.075 13:2 14:1 15:1.075 16:14 21:1 22:1 
0 1 1:1.425 13:5 15:1.55 16:22 18:1 21:1 22:3 23:1 26:3 
0 1 1:0.125 2:0.1875 3:1 5:1 13:1 15:0.125 16:21 19:2 21:7 22:2 23:1 26:1 
0.5463311662877078 1 1:1.05 2:0.15 5:1 13:5 15:2.4 16:25 21:3 22:8 23:3 
0 1 1:1.35 13:3 15:1.7 16:27 21:6 22:2 26:2 
0.444434724920368 1 13:1 15:0.25 16:15 18:1 19:1 21:2 22:1 23:4 26:2 
0.01513984625890485 0.2437874897554257 1:2.35 2:0.055555556 5:1 12:1 13:5 14:2 15:2.35 16:26 21:1 22:4 24:1 
1 1 1:-0.325 13:1 14:2 15:-0.075 16:19 18:1 21:2 22:1 26:2 
0.3852709024001982 0 1:3.4 13:7 14:1 15:2.9 16:17 21:5 22:1 26:2 
0 1 1:0.6 13:1 15:0.6 16:16 21:5 22:1 23:2 26:1 
1 1 1:0.5 2:0.11111111 5:1 13:3 15:0.5 16:21 18:1 21:3 22:2 23:6 26:2 
1 1 1:-1.025 12:1 13:2 14:3 15:-0.3 16:25 21:4 22:4 23:2 24:1 26:3 
0 1 1:0.6 2:0.14285714 5:1 13:1 15:0.6 16:11 21:1 22:1 23:1 
1 1 1:-0.45 2:0.16666667 5:1 12:1 13:2 14:2 15:0.15 16:18 19:1 21:2 22:3 23:1 24:1 26:2 
0 1 1:1.175 13:5 14:1 15:1.425 16:25 21:5 22:6 23:2 26:1 
0 1 1:0.6 13:1 15:0.6 16:17 19:1 21:4 22:1 23:1 26:2 
0.194037864212973 1 1:1.325 13:5 14:2 15:2.05 16:24 21:7 22:7 23:1 
0 1 1:0.85 2:0.15384615 5:1 13:2 15:0.85 16:15 21:2 22:2 23:1 26:2 
0 1 1:0.05 2:0.066666667 5:1 13:2 14:1 15:0.3 16:17 21:3 22:1 26:6 
1 1 1:-0.15 2:0.1 5:1 12:1 13:3 14:1 15:0.575 16:16 21:2 22:1 23:1 26:3 
0 0.4340567382441571 1:1.675 13:3 15:1.8 16:22 18:1 21:6 22:2 23:3 26:2 
0 1 1:0.4 2:0.058823529 5:1 13:2 15:0.4 16:21 19:2 21:4 22:1 23:1 26:1 
0.3995950343970015 0.8023952093582125 1:0.8 13:4 14:1 15:0.8 16:18 19:4 21:8 22:1 
0 1 1:0.4 2:0.066666667 5:1 13:1 15:0.4 16:24 19:2 21:3 22:2 26:1 
1 1 1:-0.125 13:2 14:1 15:-0.125 16:11 21:3 22:2 26:2 
0.6694336191011688 1 1:0.375 2:0.11764706 5:1 13:4 14:2 15:0.375 16:23 21:4 22:2 23:1 24:1 26:1 
1 1 1:-1.575 12:1 13:3 14:3 15:-0.1 16:23 21:3 22:5 23:2 26:1 
0 1 1:0.5 13:1 15:0.5 16:17 18:1 21:4 22:2 23:1 
0.04709829763704923 0 1:2 2:0.045454545 3:1 4:1 5:1 13:8 14:1 15:2.85 16:27 19:6 21:5 22:6 26:2 
1 1 1:0.375 2:0.05 5:1 13:5 14:1 15:0.875 16:20 21:9 26:5 
0 1 1:0.85 2:0.066666667 5:1 13:2 15:0.85 16:20 21:2 22:4 26:1 
0 1 1:0.475 13:3 14:1 15:0.475 16:17 19:1 21:3 22:4 23:3 24:1 26:2 
1 1 1:-0.05 13:1 14:2 15:0.075 16:14 21:4 22:3 23:1 
0 1 1:0.125 13:2 14:1 15:0.125 16:10 21:3 22:1 
0 1 1:0.8 13:2 15:0.8 16:10 21:1 22:2 23:1 26:2 
1 1 1:0.725 12:1 13:6 14:1 15:1.325 16:23 18:1 21:3 22:6 23:1 
0 1 1:0.225 13:2 14:1 15:0.225 16:11 21:2 22:2 
0.04543235758843616 0.2420158435195247 1:0.525 2:0.041666667 5:1 12:1 13:4 14:2 15:0.275 16:28 19:3 21:10 22:3 23:3 
1 1 1:0.225 13:2 14:1 15:0.6 16:16 21:3 22:3 26:1 
1 1 1:0.925 13:4 14:2 15:1.25 16:20 18:2 21:3 22:7 23:1 
0.290971255590958 1 1:0.25 13:3 15:0.625 16:29 21:8 22:1 23:2 
0 1 1:0.7 13:2 14:1 15:0.7 16:19 19:1 21:2 22:4 23:1 24:1 26:1 
0.6114144177198477 0.9916540914694794 1:-0.625 14:1 15:-0.75 16:22 17:1 19:5 21:1 22:2 23:2 26:2 
0 1 1:1.175 13:4 15:1.175 16:19 21:4 22:2 23:1 26:1 
1 1 1:0.6 13:2 14:1 15:0.725 16:18 21:2 22:4 26:1 
0 1 1:1 13:2 15:0.75 16:24 21:3 22:4 23:1 25:1 26:1 
0 1 1:0.85 2:0.045454545 5:1 13:4 15:1.225 16:23 21:4 22:3 23:5 26:4 
0 1 1:1 2:0.125 5:1 13:2 14:1 15:1 16:9 21:4 26:1 
0 1 1:0.55 13:2 15:0.8 16:24 21:4 23:4 26:2 
1 1 1:-0.25 13:2 14:2 15:-0.25 16:18 18:1 21:5 22:1 23:3 26:1 
1 1 1:-0.1 12:1 13:1 15:0.5 16:13 21:4 22:2 23:1 
0 1 1:0.6 13:2 15:0.725 16:14 21:1 22:2 26:1 
0 1 1:-0.375 13:1 14:1 15:-0.375 16:21 19:2 21:3 22:3 23:1 26:2 
1 1 1:-0.45 13:2 14:1 15:0.3 16:17 21:5 22:3 23:4 
0 1 1:1.2 2:0.05 5:1 13:3 14:1 15:1.2 16:25 19:1 21:6 22:3 23:5 26:2 
1 1 1:-0.55 12:1 13:2 14:1 15:0.05 16:20 18:1 21:3 22:5 23:1 26:1 
1 1 1:0.675 12:1 13:4 14:1 15:1.4 16:21 21:3 22:3 23:8 26:2 
0.6743850206444331 0.8362606002728719 1:0.325 12:1 13:3 15:0.925 16:17 19:3 21:5 22:5 23:1 
0 1 1:0.85 2:0.05 5:1 13:2 15:0.85 16:25 21:3 22:2 23:5 26:3 
0.7908627705425112 1 1:0.15 2:0.13333333 3:1 4:1 5:1 13:4 14:1 15:0.775 16:20 21:3 22:1 23:3 26:3 
0.02311498074717802 0.4792877274887109 1:-0.4 2:0.125 3:1 4:1 5:1 13:2 14:2 15:-0.4 16:17 19:3 21:5 23:6 26:2 
0 1 1:0.95 13:4 15:1.7 16:13 21:3 22:3 23:1 26:2 
0 1 1:-0.5 2:0.17647059 5:1 13:1 14:1 15:-0.5 16:21 19:2 21:5 22:2 23:1 
1 1 2:0.15 5:1 12:1 13:1 14:2 16:20 21:5 22:3 23:4 26:2 
0.8848755478294971 1 1:0.25 2:0.076923077 5:1 13:1 15:0.25 16:18 21:3 22:3 26:2 
0 1 1:0.85 2:0.14285714 5:1 13:2 15:0.85 16:23 21:5 22:2 23:1 
0 1 1:0.1 2:0.25 3:1 5:1 13:3 15:0.85 16:17 21:2 22:1 23:1 
0 1 1:0.725 13:2 15:0.725 16:16 18:1 19:1 21:3 22:2 23:4 26:1 
1 1 1:0.525 13:2 15:0.525 16:24 21:6 22:4 26:2 
0 1 1:1.05 13:2 15:0.8 16:21 21:5 22:3 26:1 
0 1 1:0.725 13:2 15:0.725 16:14 21:4 22:1 23:3 26:1 
0 1 1:0.775 13:3 15:0.775 16:23 19:2 21:6 22:3 23:2 26:3 
0 1 1:0.825 2:0.19047619 5:1 13:3 14:1 15:0.825 16:23 19:2 21:7 22:1 23:4 26:4 
0.9273255603344196 1 16:12 21:2 22:2 23:3 
0 1 1:0.25 13:2 15:0.5 16:22 21:4 23:3 26:4 
0 1 1:0.2 2:0.16666667 5:1 13:1 15:0.2 16:13 19:1 21:2 22:1 26:1 
0 1 1:1.275 2:0.090909091 5:1 13:2 15:1.4 16:20 22:4 23:1 
0.6427053331880918 1 1:0.7 13:4 15:0.7 16:13 21:4 22:3 23:1 26:4 
0 1 1:0.225 2:0.083333333 3:1 5:1 12:1 13:1 15:0.6 16:15 18:1 19:4 21:3 22:1 
1 1 1:-0.4 2:0.14285714 5:1 13:1 14:2 15:-0.4 16:14 21:1 22:1 26:1 
0.0574702841371155 0.435237536736546 1:1.25 2:0.043478261 5:1 13:8 14:1 15:2.25 16:26 19:3 21:5 22:3 23:3 26:8 
1 1 1:-0.05 13:4 14:3 15:0.7 16:27 18:2 21:3 22:6 23:1 26:4 
0.3692742155019045 1 1:0.975 2:0.0625 5:1 13:5 14:2 15:0.975 16:21 21:5 22:3 23:2 26:2 
0 1 1:0.6 13:3 14:1 15:1.2 16:24 18:1 19:1 21:5 22:4 23:4 26:1 
1 1 1:-0.625 2:0.23076923 5:1 13:1 15:0.125 16:20 19:1 21:3 22:5 26:1 
0.4114505281715255 1 1:1.1 13:4 15:1.1 16:18 21:9 22:4 23:1 26:5 
1 0 1:0.1 12:1 13:4 14:1 15:1.45 16:23 19:1 21:3 22:5 23:2 26:1 
1 1 1:-0.55 12:1 13:2 14:1 15:0.05 16:18 17:1 21:3 22:3 23:2 26:1 
0 1 1:0.5 13:1 15:0.5 16:13 19:2 21:2 22:3 
1 1 16:13 21:2 23:1 
0 1 1:0.25 2:0.058823529 5:1 13:2 15:0.375 16:22 19:2 21:5 22:2 26:3 
0.0831826506075244 1 2:0.083333333 5:1 16:15 21:2 22:1 23:3 
1 1 1:-0.3 2:0.071428571 5:1 13:3 14:3 15:-0.05 16:21 19:1 21:2 22:3 23:1 26:4 
0 1 1:1.95 2:0.083333333 5:1 13:4 14:2 15:1.95 16:22 21:1 22:2 26:3 
1 1 1:-0.425 2:0.076923077 5:1 13:1 14:2 15:-0.425 16:22 19:1 21:1 22:6 23:1 
0 1 1:1.475 13:4 15:1.475 16:20 21:2 22:3 23:1 26:4 
0 1 1:0.675 2:0.052631579 5:1 13:3 14:1 15:0.8 16:26 21:6 22:3 23:2 24:1 26:3 
1 1 1:0.225 13:3 14:1 15:0.225 16:26 21:4 22:4 23:2 24:1 
1 1 1:-0.175 2:0.13333333 5:1 12:1 13:2 14:2 15:0.075 16:21 20:2 21:3 22:4 23:1 26:2 
1 1 1:-0.625 13:1 14:2 15:-0.5 16:14 21:4 22:3 25:1 
0 1 1:0.85 2:0.14285714 4:1 5:1 13:4 14:1 15:0.85 16:17 19:1 21:2 22:3 26:2 
1 1 1:-1.7 12:1 13:2 14:2 15:-0.725 16:20 21:3 22:1 23:2 26:3 
1 1 1:-0.75 12:1 13:2 15:0.725 16:14 21:4 22:1 23:1 24:1 
0 0.1662133438361277 1:0.05 12:1 13:5 14:1 15:0.775 16:27 19:3 21:6 22:4 23:6 26:3 
0 1 1:0.6 13:1 15:0.6 16:11 21:2 22:1 26:1 
0 1 1:1.2 13:2 15:1.2 16:16 18:1 21:2 26:2 
0 1 1:0.45 2:0.13333333 5:1 13:3 14:1 15:1.2 16:17 21:4 22:2 26:3 
0.07291448256811857 0 1:1.175 12:1 13:5 15:2.5 16:18 21:1 22:4 23:3 26:1 
0 1 1:0.475 13:2 14:2 15:0.6 16:21 19:1 21:6 22:2 26:3 
0 1 1:-0.35 2:0.066666667 5:1 13:1 15:0.4 16:17 19:2 21:4 22:3 23:1 
1 1 1:-0.6 12:1 16:25 21:1 22:5 23:5 26:1 
0 1 1:-0.25 2:0.1 5:1 14:1 15:-0.5 16:13 17:1 19:3 21:2 22:3 23:1 
0 1 1:1.375 2:0.0625 5:1 12:1 13:5 15:1.725 16:20 18:1 19:1 21:1 22:5 23:1 
0 1 1:1.25 2:0.058823529 5:1 13:4 15:1.5 16:21 18:1 19:2 21:5 22:1 26:5 
0 1 1:0.975 13:3 14:1 15:0.975 16:12 21:3 22:1 24:1 26:1 
0.5280441462051021 0 1:-1.55 2:0.052631579 5:1 12:1 13:2 14:3 15:-0.2 16:28 19:4 21:3 22:5 23:2 26:2 
1 1 1:0.1 2:0.05 5:1 13:4 14:2 15:0.225 16:30 21:7 22:4 23:2 24:2 26:4 
1 1 1:0.375 13:2 15:0.375 16:16 18:1 21:4 22:1 23:3 26:3 
1 1 1:0.8 13:2 15:0.8 16:25 21:5 22:3 23:8 
1 1 1:0.25 2:0.0625 5:1 13:3 14:1 15:0.25 16:21 21:2 22:2 23:2 26:3 
0.2551375219637551 1 1:1.35 2:0.083333333 5:1 13:3 15:1.35 16:13 21:7 26:3 
0 1 1:0.875 13:2 15:1 16:19 21:1 22:3 23:3 26:1 
0 1 1:0.725 13:3 15:1.325 16:12 21:2 22:2 
0 1 1:1.375 2:0.1 5:1 13:3 15:2 16:23 19:1 21:3 22:4 
0 0.7630720531748483 1:2.15 2:0.0625 5:1 13:4 15:2.15 16:21 19:1 21:5 22:2 
1 1 1:0.45 13:2 14:1 15:0.7 16:23 19:2 21:3 22:7 
0 1 1:0.6 13:2 15:0.725 16:19 18:1 19:2 21:4 23:1 26:2 
0 1 1:1.45 2:0.058823529 5:1 13:3 15:1.7 16:25 21:5 22:4 23:3 26:2 
1 1 1:-1.225 2:0.05 5:1 12:1 14:1 15:-0.5 16:23 21:2 22:1 23:9 
0.5060560249472773 1 1:0.525 13:3 15:0.775 16:25 21:2 22:4 23:3 24:1 26:2 
0.008568843850766762 1 1:1.25 13:3 14:2 15:1 16:23 21:4 22:4 23:1 26:1 
0.7602472326916282 1 1:0.8 13:3 14:1 15:0.8 16:26 19:1 21:4 22:5 23:7 26:2 
0 1 1:0.3 2:0.42857143 4:1 5:1 13:1 14:1 15:0.425 16:19 21:2 22:1 23:1 26:1 
0 1 13:1 14:1 16:19 19:3 21:3 22:3 26:1 
1 1 1:0.025 13:2 14:1 15:0.15 16:15 21:3 23:1 26:3 
0.01516436956501578 0 1:1.55 2:0.04 5:1 12:1 13:6 14:1 15:2.275 16:27 17:1 19:1 21:4 22:5 23:5 26:3 
1 1 1:0.1 2:0.058823529 5:1 12:1 13:4 14:2 15:0.35 16:16 21:3 22:2 23:1 
1 1 1:0.65 2:0.11764706 5:1 13:2 15:0.65 16:18 20:2 21:3 22:4 23:3 26:2 
0 1 1:0.45 13:2 15:0.45 16:12 19:2 21:1 26:4 
0 0.867536602712949 1:0.825 13:5 15:1.7 16:21 19:1 21:7 22:2 23:3 26:3 
1 1 1:-1 12:1 14:1 15:-0.4 16:14 19:1 21:1 22:1 23:1 
0 0.2316627681201665 1:1.3 13:5 15:2.1 16:27 21:7 22:3 23:9 24:1 26:4 
1 1 1:0.275 12:2 13:2 15:1 16:16 21:3 22:2 23:2 26:1 
0 1 1:0.725 13:2 14:1 15:0.475 16:23 21:4 22:3 23:1 26:1 
1 1 1:0.125 12:1 13:3 14:2 15:0.725 16:22 21:7 22:6 23:1 26:4 
1 1 1:-1.475 2:0.083333333 4:1 5:1 13:1 14:3 15:-1.475 16:20 21:4 22:5 23:2 
0 1 1:-0.4 2:0.066666667 5:1 13:2 14:2 15:-0.4 16:21 19:3 21:6 22:1 23:2 26:2 
0 1 1:1.45 2:0.055555556 5:1 13:4 15:1.7 16:16 21:3 22:1 23:6 26:5 
0 1 1:0.675 2:0.16666667 5:1 13:1 15:0.8 16:10 21:2 23:1 26:1 
0.09661521155155632 0 1:1.025 13:3 15:1.025 16:15 19:6 21:3 22:1 23:2 24:1 26:1 
0 1 1:0.375 13:2 14:1 15:0.5 16:11 17:1 21:3 23:3 26:1 
1 1 12:2 13:1 15:0.6 16:17 17:1 18:3 21:5 22:2 23:2 26:2 
0 0.6219823538202647 1:0.65 13:7 14:2 15:1.825 16:28 21:3 22:3 23:2 24:1 26:4 
0.4882641329717732 0 1:0.825 13:6 14:3 15:1.825 16:26 18:4 19:1 21:6 22:6 23:3 26:4 
0 1 1:0.975 2:0.25 5:1 13:2 15:0.85 16:19 21:2 22:2 26:3 
1 0.5498832137053328 1:0.6 12:2 13:7 14:1 15:3 16:30 21:5 22:9 23:4 26:1 
0 1 1:0.775 13:2 15:0.525 16:22 19:1 21:5 22:1 23:3 26:2 
0 1 1:0.475 13:2 15:0.725 16:26 19:1 21:4 22:3 23:4 26:1 
0 1 1:0.125 2:0.058823529 5:1 12:1 13:6 14:1 15:1.375 16:19 21:2 22:2 23:2 26:4 
0 1 1:0.925 13:3 14:2 15:0.925 16:25 21:8 22:3 23:6 24:1 26:4 
0 1 1:0.675 2:0.27272727 3:1 5:1 13:2 15:0.8 16:12 21:3 22:1 23:4 
0.4920309007610346 1 1:1.05 13:3 15:1.05 16:15 22:3 23:1 
1 1 1:-0.15 2:0.055555556 5:1 13:2 14:1 15:-0.15 16:21 21:6 22:2 26:4 
0 1 1:1.075 2:0.15384615 5:1 13:2 15:1.2 16:19 19:1 21:3 22:2 23:1 24:1 26:2 
1 1 1:-0.775 12:1 13:1 15:0.2 16:26 17:1 18:1 21:4 22:3 23:1 26:2 
0.1433210655716547 1 1:0.275 13:3 14:1 15:0.65 16:19 21:4 23:4 24:1 26:5 
0 1 1:0.125 13:2 14:1 15:0.125 16:20 19:2 21:7 22:1 
0.8715244711706183 1 1:-0.1 12:1 13:1 15:0.5 16:9 21:2 22:2 23:1 
1 1 1:1.025 2:0.05 5:1 13:3 14:1 15:1.025 16:28 18:1 21:2 22:7 23:6 26:1 
1 1 1:-1 2:0.058823529 5:1 12:1 13:1 14:2 15:-0.4 16:19 21:3 22:4 23:2 26:2 
0 1 1:0.9 13:3 15:0.9 16:22 19:1 21:7 22:2 23:7 26:2 
0 0.6601502763475897 1:0.225 13:3 14:1 15:0.6 16:29 19:2 21:5 22:2 23:2 26:3 
0 1 1:0.8 13:3 14:1 15:0.8 16:18 21:5 22:2 23:3 26:1 
0.1260884031648621 1 1:1.2 13:4 14:1 15:1.8 16:18 20:2 21:2 22:6 26:1 
0 1 1:0.325 13:2 14:1 15:1.075 16:21 21:5 22:1 23:2 
1 1 1:0.125 12:1 13:4 14:1 15:1.475 16:25 18:1 21:5 22:4 23:3 26:1 
0 1 1:0.7 13:4 15:1.825 16:28 21:7 22:6 23:3 
0 1 1:1.25 13:4 15:1.25 16:24 21:6 22:2 23:1 26:2 
0.8766360429496484 0.6634258113082043 1:1.825 13:6 15:2.2 16:27 19:1 21:3 22:4 23:2 24:1 26:8 
0 0.005943921669649762 1:1.9 13:6 14:2 15:1.9 16:21 21:2 22:4 23:1 24:3 26:3 
1 1 1:-0.4 2:0.13333333 4:1 5:1 12:1 13:1 14:1 15:0.2 16:22 18:1 21:6 22:2 23:1 
1 1 1:-0.625 14:1 15:-0.5 16:22 18:3 19:2 21:2 22:2 23:1 
0 1 1:0.325 2:0.15 5:1 13:2 15:0.325 16:24 19:2 21:4 22:3 23:4 
0.5150290007381255 1 1:2.575 13:7 14:1 15:2.825 16:29 17:1 19:2 21:7 22:1 23:4 26:7 
0.1743074869449999 1 1:-0.75 13:4 14:2 15:0.125 16:25 18:1 19:1 21:5 22:2 26:1 
1 1 1:-0.975 2:0.14285714 5:1 12:1 16:23 19:1 21:3 22:2 23:1 26:1 
1 1 1:-0.225 2:0.076923077 5:1 13:2 15:0.525 16:19 21:8 22:2 26:1 
0 1 1:0.4 2:0.1 5:1 13:2 14:2 15:0.4 16:12 21:4 22:2 23:1 26:1 
0 1 1:1.7 2:0.066666667 5:1 13:4 15:1.7 16:18 21:5 22:1 23:3 26:4 
1 1 1:-0.4 12:2 13:2 14:1 15:0.45 16:21 21:6 22:4 23:4 26:2 
0.8779160556843335 1 1:0.55 2:0.083333333 5:1 13:1 14:1 15:0.55 16:20 21:6 23:1 
0.8136976138666416 1 1:1 13:2 15:1 16:9 19:1 22:4 26:1 
0 1 1:0.825 2:0.066666667 5:1 13:3 14:1 15:0.825 16:22 21:1 22:2 25:1 26:3 
1 1 1:0.125 12:1 13:2 15:0.85 16:24 21:4 22:1 23:3 26:2 
0 1 1:-0.925 2:0.052631579 5:1 12:1 13:1 14:2 15:-0.325 16:25 19:4 21:5 22:4 23:1 
0 1 1:1.3 13:4 14:1 15:1.3 16:19 21:6 22:4 23:1 24:1 26:2 
0.2906558759372148 1 1:-0.025 2:0.090909091 5:1 13:1 14:1 15:-0.025 16:15 19:1 21:3 23:3 26:3 
1 1 1:1.1 2:0.125 5:1 13:4 15:1.1 16:22 21:3 22:5 23:1 26:3 
1 1 1:-0.575 12:1 13:1 14:3 15:-0.45 16:23 18:1 19:1 20:2 21:10 22:1 23:2 
0 1 1:0.75 13:2 14:1 15:0.75 16:19 21:5 22:1 23:5 26:2 
0 0.07835529670583999 1:1.675 13:5 15:2.525 16:29 21:3 22:6 23:1 
1 1 16:17 21:3 22:1 23:4 26:1 
0 1 1:0.4 2:0.066666667 5:1 13:1 15:0.4 16:18 21:2 22:2 26:1 
0 1 1:0.325 13:2 15:0.45 16:26 19:2 21:6 22:2 23:1 26:4 
0 0.7648063130885832 1:0.9 13:3 14:1 15:0.9 16:21 19:1 21:6 22:2 23:1 26:3 
1 1 1:0.05 13:4 14:1 15:0.8 16:15 21:4 22:4 26:1 
1 1 1:-0.775 13:1 14:1 15:0.1 16:20 21:3 22:2 23:1 26:3 
1 1 1:-0.6 2:0.16666667 5:1 12:1 13:5 14:2 15:0.25 16:25 17:1 19:3 21:5 22:6 23:8 24:1 26:2 
1 1 1:-0.425 12:1 13:2 14:1 15:0.325 16:23 17:1 21:5 22:2 23:6 26:2 
0 1 1:0.85 2:0.11111111 5:1 13:3 15:0.975 16:25 18:1 19:2 21:1 22:2 23:3 26:3 
0 1 1:0.775 13:3 15:0.9 16:17 21:3 22:1 23:2 24:1 26:3 
0 1 1:1.1 2:0.083333333 5:1 13:3 14:1 15:1.1 16:16 21:4 22:1 
0.01052996734088735 0.6341494870751577 1:0.7 13:4 14:3 15:0.9 16:25 18:2 19:2 21:1 22:6 23:1 26:1 
0 1 2:0.125 5:1 16:12 17:1 19:3 21:3 22:1 
0 1 1:0.75 13:3 14:1 15:0.75 16:18 21:5 22:1 26:4 
0 1 1:0.35 2:0.058823529 5:1 13:2 14:1 15:0.35 16:20 19:1 21:3 22:3 26:3 
0 1 1:1.85 2:0.11111111 5:1 13:5 14:1 15:1.85 16:22 21:3 22:3 26:1 
0 1 1:1.825 13:5 15:1.825 16:22 21:5 22:1 23:2 26:5 
0 1 1:1.325 13:4 15:1.325 16:23 21:8 22:1 23:2 26:3 
1 1 1:-0.125 14:1 15:-0.125 16:22 18:1 21:8 22:2 
1 1 1:0.075 13:3 14:1 15:0.2 16:22 18:1 21:6 22:3 26:3 
0 1 1:0.4 12:1 13:3 15:1 16:20 19:1 21:6 22:4 23:2 26:4 
0 1 1:0.6 2:0.125 5:1 13:2 14:1 15:0.6 16:11 21:1 22:2 24:1 26:2 
0 1 1:0.525 2:0.22222222 3:1 5:1 13:2 14:1 15:0.275 16:13 21:4 22:2 24:1 
1 1 1:0.15 13:2 14:1 15:0.15 16:18 21:6 22:3 26:1 
0.8796574054950775 1 1:0.6 13:2 15:0.6 16:26 19:1 21:4 22:6 
1 1 1:0.375 13:1 15:0.25 16:22 21:3 22:2 23:3 26:3 
1 1 1:-0.675 12:2 13:3 14:1 15:0.175 16:24 21:4 22:4 23:10 26:3 
0 1 1:0.75 13:3 15:0.75 16:20 21:5 22:4 23:6 26:2 
0 1 1:0.35 13:2 15:1.2 16:18 21:1 22:4 
0 1 1:0.525 2:0.055555556 5:1 13:2 15:0.525 16:20 21:3 22:3 23:3 26:3 
1 1 1:-0.8 12:1 13:1 14:1 15:-0.2 16:13 21:4 23:1 26:3 
0.7270949577612996 0.4529023571748486 1:0.4 13:2 14:2 15:0.4 16:14 19:1 20:2 21:5 22:1 23:2 26:1 
1 1 1:-0.225 13:4 14:2 15:-0.225 16:23 21:7 22:1 26:2 
0 1 1:0.65 2:0.13333333 5:1 13:2 15:0.65 16:19 19:2 21:3 22:2 26:2 
0 1 1:0.95 13:3 15:1.8 16:13 21:2 22:4 
0 0.3530315082740594 1:-0.3 2:0.10526316 5:1 13:4 14:2 15:1.9 16:27 18:1 19:4 21:2 22:7 23:3 
1 1 1:0.2 2:0.083333333 5:1 13:3 14:2 15:0.2 16:17 21:4 22:1 26:3 
0 1 16:22 17:1 19:3 21:6 23:3 26:1 
0 1 1:1.7 2:0.05 5:1 13:5 15:2.075 16:23 19:1 21:4 22:1 26:6 
0.246941810014336 0 1:2.5 2:0.071428571 5:1 13:4 15:2.5 16:17 19:4 21:2 22:1 23:1 25:1 26:2 
1 1 1:0.775 13:4 14:2 15:0.775 16:16 21:3 22:5 23:1 24:1 26:1 
0 1 1:-1 2:0.13333333 5:1 12:1 14:1 15:-0.4 16:19 19:2 21:1 22:2 23:2 
0 1 1:0.85 2:0.14285714 5:1 13:2 15:0.85 16:11 21:1 22:1 26:1 
0 1 1:1.1 2:0.15384615 5:1 13:2 15:1.1 16:17 18:1 21:4 26:2 
1 0.1971452043657256 1:1.375 12:1 13:4 14:1 15:1.975 16:26 18:1 21:6 22:5 23:1 26:1 
0 0.8136051836182235 1:1.85 2:0.047619048 5:1 13:4 15:1.85 16:20 21:7 22:2 23:6 26:4 
1 1 1:0.15 2:0.076923077 5:1 13:1 14:1 15:0.275 16:21 21:2 22:3 23:3 24:1 26:1 
1 1 1:-0.475 2:0.045454545 5:1 12:1 13:2 14:2 15:0.25 16:24 18:1 19:2 21:4 22:2 23:4 26:4 
0 1 1:1.075 2:0.076923077 5:1 13:3 15:1.2 16:21 18:1 21:1 22:1 25:1 26:1 
0 1 1:-0.15 13:1 15:0.6 16:25 19:1 21:3 22:3 
0 0.04044732779902215 1:1.15 2:0.17647059 5:1 13:4 14:1 15:2.7 16:21 21:1 22:4 23:3 
0 1 1:1.75 13:5 15:1.75 16:23 20:2 21:6 22:1 23:1 26:4 
0 1 1:0.625 13:1 15:0.625 16:20 21:3 22:3 26:1 
0 1 1:1 13:2 15:1 16:11 22:2 
1 0.8897181591967169 1:1.175 2:0.05 5:1 12:1 13:5 15:2.375 16:23 17:1 21:8 22:5 23:1 26:3 
1 1 1:0.1 13:3 14:2 15:0.1 16:19 21:2 22:3 23:1 26:3 
1 1 1:-0.275 12:1 13:1 14:1 15:0.075 16:24 21:4 22:1 23:1 24:1 26:1 
0 1 1:0.4 2:0.0625 5:1 13:1 15:0.4 16:27 18:1 19:2 21:3 22:3 23:2 26:2 
0 0.2232252609159623 1:0.25 13:1 15:0.25 16:18 19:3 21:4 22:1 23:2 26:2 
0.3868418752206319 1 1:0.65 2:0.090909091 5:1 13:3 15:0.9 16:18 21:7 22:1 
0.8419644876910621 1 2:0.11111111 5:1 16:12 22:1 26:1 
0 1 1:0.475 13:3 14:1 15:0.475 16:25 21:4 22:2 23:4 26:3 
0 1 1:0.4 13:1 14:1 15:0.4 16:14 21:6 26:1 
1 1 1:-0.925 13:2 14:1 15:-0.175 16:14 19:1 21:1 22:4 23:1 
0 1 1:0.125 13:1 15:0.25 16:19 19:1 21:3 22:2 26:2 
1 1 1:0.1 13:1 14:1 15:0.225 16:21 21:5 22:2 23:1 26:3 
0 1 1:1.2 13:2 15:1.2 16:14 21:3 22:4 23:3 26:1 
1 1 1:-0.525 12:1 13:1 14:1 15:0.2 16:16 18:1 19:1 21:3 22:1 23:6 
0 1 1:1.1 2:0.16666667 5:1 13:2 15:1.1 16:8 18:1 21:4 
1 1 1:0.05 2:0.043478261 5:1 13:3 14:2 15:0.3 16:27 21:8 22:3 23:2 26:3 
0 1 1:0.4 2:0.076923077 5:1 13:1 15:0.4 16:22 21:3 22:2 26:1 
0 1 1:0.775 2:0.16666667 5:1 13:1 15:0.4 16:10 21:2 26:1 
0 1 16:4 21:1 22:1 
0 1 1:0.525 13:2 15:0.525 16:15 19:1 21:5 22:3 
0 1 1:0.575 2:0.3 3:2 5:1 13:3 15:1.45 16:23 19:2 21:4 22:4 
0 1 1:-0.075 13:2 14:1 15:-0.075 16:25 19:3 21:7 22:3 23:1 26:2 
1 1 1:-1.05 13:1 14:3 15:-0.3 16:17 21:7 22:3 26:2 
1 1 1:-0.525 13:2 14:2 15:0.225 16:15 21:2 22:3 26:1 
0 1 1:0.725 13:3 14:1 15:0.85 16:12 21:3 22:1 24:1 26:1 
1 1 1:-1.1 12:1 14:1 15:-0.5 16:11 19:1 21:3 22:2 23:1 
1 1 1:0.9 13:3 14:1 15:1.25 16:24 21:5 22:7 23:3 26:3 
0 1 13:1 14:1 16:13 19:1 21:2 22:1 
1 1 1:1.15 2:0.066666667 5:1 12:1 13:3 15:1.5 16:22 21:4 22:4 23:2 
0 1 1:0.625 13:3 15:0.625 16:24 19:2 21:5 22:3 23:2 26:1 
1 1 1:1 2:0.090909091 3:1 5:1 12:1 13:3 15:1.6 16:16 18:1 21:4 22:3 23:1 
0 1 1:1 13:3 15:1.125 16:20 21:3 22:1 23:1 26:2 
0 1 1:0.1 13:1 14:1 15:0.1 16:18 19:2 21:1 22:4 23:3 
1 0 1:0.325 13:5 14:3 15:0.925 16:24 21:4 22:4 23:2 26:4 
0 1 1:0.4 2:0.125 5:1 13:1 15:0.4 16:8 21:2 22:1 23:3 
1 1 1:0.975 13:4 15:0.975 16:22 21:6 22:2 23:1 26:6 
0.5227542750672129 1 1:0.325 13:2 15:0.325 16:23 21:4 22:5 23:4 25:2 
0.3170352435840392 1 1:0.125 13:2 14:1 15:0.5 16:20 21:4 22:2 23:2 26:3 
0 1 1:1.1 13:2 15:1.1 16:22 18:1 21:4 23:1 26:1 
0 1 1:0.475 2:0.6 5:1 13:1 14:1 15:0.475 16:20 21:3 22:2 26:2 
1 0.8442819048809963 1:-0.175 12:1 13:4 14:1 15:0.675 16:20 19:1 21:3 22:3 23:3 26:6 
0.8931897096075629 1 1:-0.15 13:2 14:1 15:0.1 16:22 21:3 26:4 
0 1 1:0.4 12:1 13:1 14:1 15:0.4 16:16 19:1 21:4 22:2 26:1 
0 1 1:0.4 2:0.14285714 5:1 13:1 15:0.4 16:10 19:1 21:4 
0 1 1:1.525 2:0.066666667 5:1 13:3 15:1.65 16:22 21:7 22:4 23:2 26:1 
0 1 1:0.25 13:1 15:0.25 16:15 19:1 21:3 22:1 26:3 
1 1 1:0.525 13:2 15:0.525 16:18 18:1 21:5 22:3 23:1 
0.526809781140774 1 1:0.375 2:0.2 5:1 13:2 15:0.375 16:17 21:4 22:1 26:1 
0 1 1:-0.275 13:1 14:1 15:0.475 16:19 21:2 22:2 26:1 
0 0.3766547820860426 1:0.6 13:1 15:0.6 16:12 19:2 21:1 22:2 23:1 24:1 26:1 
0 1 1:0.85 13:2 15:0.85 16:7 19:1 21:2 22:1 26:2 
1 1 1:-0.5 14:1 15:-0.5 16:17 19:1 21:1 22:3 24:1 
0 1 1:1.6 13:3 15:1.6 16:21 21:1 22:3 23:3 26:1 
1 0.598798613515536 1:-1.45 12:1 13:4 14:3 15:-0.4 16:27 20:2 21:4 22:4 23:2 26:3 
0 1 1:0.4 2:0.076923077 5:1 12:2 13:1 14:2 15:0.2 16:15 19:3 21:6 22:1 26:1 
1 1 1:0.425 13:4 14:2 15:0.675 16:23 19:1 21:7 22:4 23:3 26:1 
0 1 1:-0.1 13:2 14:2 15:0.3 16:20 19:1 21:3 22:1 24:1 26:1 
0 1 1:0.825 13:4 15:0.825 16:23 21:8 22:1 26:4 
0.5583204225380258 1 1:0.1 2:0.045454545 5:1 13:2 15:0.85 16:25 21:2 22:3 23:8 24:1 26:2 
0 1 1:0.4 13:1 15:0.4 16:6 21:2 
0 0.5692918298044414 1:1.075 13:4 15:1.95 16:24 19:1 21:10 23:3 26:4 
0.3407668198166802 0.5371952963580662 1:-1.3 12:1 13:3 14:1 15:0.05 16:28 19:5 22:8 23:2 
0 1 1:0.8 13:2 15:0.8 16:14 18:1 21:5 
1 1 1:-0.25 2:0.15384615 5:1 14:1 15:-0.5 16:20 17:1 19:1 20:2 21:4 22:1 
1 1 1:0.4 12:1 13:3 14:2 15:1 16:26 19:1 21:2 22:6 23:1 26:3 
1 1 1:0.325 13:6 14:3 15:-0.575 16:17 20:4 21:2 22:5 26:2 
1 1 1:-0.15 13:4 14:2 15:-0.025 16:22 21:2 22:5 23:4 26:1 
0.8013771717062136 0 1:1.55 13:6 14:2 15:2.5 16:23 21:3 22:9 26:1 
1 1 1:0.125 2:0.076923077 5:1 13:1 15:0.125 16:18 21:7 23:2 26:1 
1 1 1:-0.275 13:2 14:3 15:-0.35 16:23 21:2 22:5 23:2 26:1 
0.7891157149156681 1 1:0.125 12:1 13:4 14:4 15:0.125 16:30 19:2 21:3 22:10 23:4 26:1 
0 1 1:1.3 13:4 14:1 15:1.9 16:28 18:1 19:1 21:5 22:9 
0 1 16:11 19:2 21:2 22:1 23:1 
0 1 1:1.45 2:0.0625 5:1 13:3 15:1.45 16:18 21:2 22:4 23:3 26:4 
0 1 1:1.625 13:5 15:1.625 16:22 21:4 22:2 26:4 
1 1 1:-0.6 12:1 13:1 14:1 16:10 21:3 22:3 23:1 
0.8568719169414352 0 1:0.325 2:0.037037037 5:1 12:1 13:6 14:2 15:1.925 16:29 19:3 21:3 22:8 23:1 24:1 26:3 
0 0.481645397291253 1:1.475 2:0.1 5:1 13:2 15:1.6 16:14 21:3 22:2 23:1 26:1 
0.102211027297952 1 1:-0.75 2:0.0625 5:1 14:1 15:-0.5 16:22 19:2 21:4 22:3 23:3 
0 1 1:0.575 2:0.090909091 5:1 13:2 15:0.575 16:15 19:1 22:3 26:1 
1 1 2:0.14285714 5:1 16:9 18:1 19:1 21:1 26:1 
0 1 16:8 21:1 22:2 23:1 
1 0.4679498167404594 1:-0.625 13:2 14:5 15:-1.025 16:25 19:2 21:3 22:2 26:4 
0 1 1:1.225 2:0.071428571 5:1 13:2 15:1.225 16:23 21:5 22:2 
0 0.7370907523649929 1:0.625 12:1 13:4 15:1.225 16:27 19:2 21:5 22:5 23:4 25:2 26:2 
1 1 1:0.2 13:2 14:1 15:0.2 16:12 22:2 24:1 26:1 
0 1 1:0.975 2:0.066666667 5:1 13:3 15:0.975 16:17 19:2 21:3 22:3 26:3 
1 1 1:0.475 13:1 15:0.6 16:14 18:1 21:2 22:2 23:5 
1 1 1:-1.925 2:0.058823529 5:1 13:4 14:5 15:-1.175 16:23 17:1 21:5 22:6 26:3 
0 1 1:1.9 13:5 15:1.9 16:25 21:2 22:6 23:2 26:1 
0 1 1:0.375 13:2 15:1 16:23 21:5 23:1 26:3 
0 1 1:0.85 2:0.055555556 5:1 13:2 15:0.85 16:24 19:3 21:3 22:4 24:1 
0.4882154091684247 1 1:-0.425 2:0.29166667 3:1 5:1 13:2 14:1 15:-0.1 16:30 19:3 21:10 22:3 23:3 25:1 26:1 
1 1 1:-1 13:1 14:1 15:-0.25 16:17 21:5 22:4 23:1 26:2 
0 1 1:0.975 13:2 15:0.975 16:16 21:3 26:1 
0 1 1:0.8 13:4 15:1.05 16:22 21:2 22:4 23:4 
0 1 1:1.1 13:2 15:1.1 16:15 21:2 22:4 23:4 26:1 
1 1 1:-0.8 12:1 13:4 14:3 15:0.4 16:22 21:2 22:4 23:2 24:1 26:2 
0.7449188034887484 1 1:-0.325 13:2 14:1 15:0.675 16:11 21:2 22:3 26:1 
0 1 1:0.475 13:5 14:1 15:1.2 16:28 21:8 22:4 23:5 26:3 
0.1192785799040444 0.7446483325261198 1:2.225 13:6 14:1 15:2.475 16:22 21:2 22:1 26:8 
0 1 1:0.35 2:0.083333333 5:1 12:1 13:2 15:0.6 16:12 19:2 21:3 26:2 
0 1 1:0.125 2:0.095238095 5:1 12:1 13:2 15:0.85 16:26 18:1 19:1 21:4 22:1 23:8 26:3 
1 1 1:-0.4 13:1 14:2 15:-0.4 16:24 21:4 22:5 23:5 26:1 
1 1 1:-0.525 13:2 14:1 15:0.225 16:21 21:4 22:2 26:2 
1 1 1:0.15 12:1 13:1 15:0.4 16:18 19:1 21:1 22:1 23:6 26:1 
0.5950252481832848 1 1:0.575 2:0.076923077 5:1 12:1 13:3 15:1.3 16:21 18:1 21:2 22:1 23:4 26:3 
1 1 1:0.375 13:1 14:1 15:0.375 16:19 21:4 22:3 23:3 26:1 
1 1 1:0.5 13:3 14:1 15:0.5 16:15 21:5 22:5 23:1 
1 1 1:-1.8 13:5 14:4 15:-0.8 16:23 18:1 21:5 22:2 23:1 26:3 
1 1 1:-0.675 13:1 14:1 15:0.075 16:20 21:4 22:4 26:3 
1 0.08906854835835781 1:0.325 13:4 14:3 15:0.325 16:22 18:1 19:1 21:4 22:2 23:4 24:1 26:5 
1 1 1:-1.1 12:1 14:1 15:-0.5 16:20 19:2 21:4 22:4 23:3 26:2 
1 1 1:-0.375 14:1 15:-0.375 16:8 19:1 22:1 
0 1 1:0.475 13:1 15:0.6 16:22 19:2 21:3 22:2 23:5 26:1 
0 1 1:-0.45 13:1 14:1 15:-0.2 16:13 19:1 21:2 22:1 
0 1 1:0.6 13:1 15:0.6 16:20 21:6 22:2 26:1 
0 0.5248406904590476 1:1.7 13:3 15:1.45 16:19 19:1 21:3 22:2 26:5 
0 1 1:0.75 2:0.14285714 5:1 13:3 14:1 15:1 16:18 21:5 22:2 23:3 26:1 
0.9946476244072079 1 1:0.45 13:3 14:2 15:0.45 16:25 19:1 20:2 21:7 22:4 23:1 24:1 26:2 
0 0.3614707474307756 1:0.4 12:1 13:4 15:1.125 16:28 18:1 19:3 21:2 22:5 23:1 
0 0.09833915858637025 1:1.35 13:3 15:1.225 16:26 21:7 22:1 23:3 24:1 25:1 26:3 
1 1 1:-0.475 12:1 13:1 14:1 15:0.125 16:19 19:1 21:5 23:4 26:3 
0 1 1:1.05 13:3 15:1.05 16:24 19:1 21:1 22:3 26:2 
0 1 1:0.9 2:0.090909091 5:1 13:2 15:0.9 16:15 21:6 22:1 26:1 
0.5410054329355419 1 1:0.7 13:4 14:3 15:0.7 16:24 21:10 22:3 23:6 24:1 26:1 
0 1 1:1.275 13:2 15:1.4 16:23 21:2 22:3 23:3 26:1 
1 1 1:0.975 2:0.045454545 5:1 13:4 14:1 15:0.975 16:25 18:1 21:10 22:4 23:1 24:1 26:3 
1 1 1:-0.45 2:0.090909091 5:1 13:1 14:1 15:-0.2 16:22 19:1 21:2 22:5 
1 1 1:0.125 2:0.083333333 5:1 12:1 13:2 14:1 15:0.725 16:13 17:1 21:3 22:3 23:1 26:3 
0 0.971803610927106 1:1.1 2:0.058823529 5:1 10:1 13:2 14:1 15:1.1 16:22 19:3 20:3 21:5 22:2 26:1 
0 1 1:1.1 13:2 15:1.1 16:12 21:2 22:2 23:2 
0 0.8246778787107198 1:1.275 13:3 15:2 16:26 21:1 22:5 23:5 26:1 
1 1 13:2 14:3 16:14 21:2 22:2 23:1 26:2 
1 1 1:0.3 2:0.090909091 5:1 13:3 14:1 15:0.3 16:14 21:1 22:3 23:3 24:1 26:2 
0 1 1:1.05 13:3 15:1.05 16:21 21:9 22:2 26:1 
1 1 1:0.825 13:3 14:1 15:1.075 16:24 21:6 22:4 26:4 
1 0 1:0.975 12:1 13:5 14:1 15:1.575 16:19 21:5 22:4 23:2 26:4 
0 1 1:0.725 13:2 15:0.725 16:26 21:3 22:3 23:7 24:1 26:1 
0 1 1:0.55 13:3 14:2 15:1.15 16:12 21:3 22:4 23:1 
1 1 1:-1.175 13:1 14:2 15:-0.3 16:13 18:2 21:4 22:1 26:1 
0 1 1:0.25 2:0.058823529 5:1 13:1 15:0.25 16:20 19:1 21:2 22:3 26:2 
1 1 1:-0.1 2:0.071428571 5:1 13:2 14:2 15:-0.225 16:24 19:1 21:3 22:4 23:1 26:2 
0 1 1:1.225 2:0.42857143 3:1 5:1 13:2 15:1.225 16:25 21:4 22:3 23:1 
1 1 1:0.05 13:2 14:2 15:0.05 16:17 21:5 22:1 26:4 
0.2956249015705186 1 1:0.25 2:0.058823529 5:1 13:1 15:0.375 16:20 21:5 22:3 23:3 26:2 
0 1 1:1.575 2:0.10526316 5:1 13:5 14:1 15:1.325 16:22 21:8 22:1 23:3 26:2 
1 1 1:-0.625 2:0.18181818 5:1 13:1 15:0.125 16:18 21:6 22:2 23:1 
0 1 1:0.725 13:3 15:0.85 16:13 19:1 21:4 23:1 26:2 
1 1 1:-0.25 14:1 15:-0.5 16:11 21:3 22:1 25:1 
1 1 1:0.175 13:3 14:2 15:0.175 16:21 19:1 21:5 22:3 23:4 26:2 
1 0 1:-1.575 12:1 13:3 14:4 15:-0.225 16:25 19:2 21:2 22:5 23:1 26:2 
0 1 1:0.85 2:0.058823529 5:1 13:3 15:0.85 16:21 19:2 21:4 22:1 23:1 26:3 
0 1 1:0.8 2:0.0625 5:1 13:2 15:0.8 16:24 21:6 22:2 23:3 
0 1 1:0.725 2:0.052631579 5:1 13:3 15:1.325 16:19 19:2 21:4 22:5 23:4 
0.8196423771997917 1 1:-0.5 14:1 15:-0.5 16:7 22:2 24:1 
0 1 1:1.05 13:2 15:1.05 16:22 21:6 22:2 23:1 
1 1 1:0.25 2:0.055555556 5:1 12:1 13:3 15:1.45 16:25 21:6 22:5 23:2 26:1 
0 1 1:0.75 2:0.071428571 5:1 13:3 15:1.625 16:20 21:3 22:1 23:4 26:2 
0 1 1:1 13:2 15:1 16:19 21:1 22:3 23:2 
0 0.8639714827946362 1:1.075 13:7 14:1 15:2.875 16:21 21:8 22:8 23:3 26:3 
0 1 1:0.6 13:1 15:0.6 16:10 21:2 26:1 
1 1 1:-1.95 12:1 14:2 15:-0.6 16:11 19:3 21:2 22:2 23:1 26:1 
0 1 1:0.425 13:2 14:1 15:0.675 16:28 21:7 22:2 23:6 26:2 
0.1444039721020263 1 1:0.875 13:3 15:1 16:18 21:4 23:8 26:2 
1 1 1:0.2 13:1 14:1 15:0.2 16:16 18:1 19:1 21:2 22:3 
1 1 1:0.975 2:0.071428571 5:1 13:3 15:0.975 16:21 21:5 22:4 26:2 
1 1 1:-0.275 12:1 13:4 14:3 15:0.325 16:27 20:2 21:5 22:4 23:5 26:4 
0 1 1:0.475 13:3 15:1.225 16:18 21:5 22:3 23:1 26:2 
0.7315805548578893 1 1:0.8 13:4 15:2 16:23 22:6 23:1 26:1 
1 1 1:-0.625 2:0.05 5:1 12:1 13:3 14:1 15:1.3 16:32 21:4 22:9 23:6 
0 1 1:0.825 2:0.066666667 5:1 13:4 14:1 15:0.825 16:19 21:6 22:1 26:4 
0 1 1:0.75 13:2 15:0.875 16:23 21:2 22:3 24:1 25:1 26:2 
0 1 1:0.6 2:0.058823529 5:1 13:3 14:1 15:1.2 16:21 21:5 22:4 23:3 26:1 
1 1 1:0.1 13:1 14:1 15:0.1 16:14 21:3 22:2 
1 1 1:0.85 13:2 14:1 15:0.725 16:21 17:1 21:4 22:4 
1 1 1:0.075 13:2 14:1 15:0.075 16:30 18:1 21:7 22:6 26:1 
0.3304859695803029 1 1:1.7 2:0.076923077 5:1 13:5 14:1 15:1.7 16:18 19:1 21:8 
0 1 1:1.125 13:3 15:1.125 16:17 18:1 19:1 21:3 22:3 23:4 
0.7047093042665193 1 1:0.4 2:0.058823529 5:1 13:1 15:0.4 16:17 21:4 23:4 26:1 
1 1 1:0.625 13:3 14:1 15:1.35 16:13 21:3 22:7 
1 1 1:0.475 13:2 14:1 15:0.475 16:13 21:4 22:2 24:1 26:1 
1 1 1:-0.8 13:1 14:2 15:-0.55 16:11 21:2 22:3 23:1 
0 1 1:0.25 13:1 15:0.25 16:10 21:3 26:1 
1 0 1:0.175 13:3 14:3 15:0.175 16:15 19:1 21:3 22:2 23:3 26:1 
0 1 1:1.85 2:0.076923077 5:1 13:4 15:1.975 16:24 21:2 22:4 23:2 26:3 
0 1 1:0.25 10:1 13:1 15:0.25 16:16 19:1 21:4 23:3 26:2 
1 1 1:-0.25 13:1 14:1 15:-0.25 16:28 19:2 21:3 22:6 23:1 26:2 
1 1 1:0.2 13:3 14:1 15:0.325 16:18 21:5 22:1 23:1 26:2 
1 1 1:0.125 13:2 14:1 15:0.125 16:17 21:2 22:2 23:2 26:3 
0 1 1:-0.1 12:1 13:4 15:0.75 16:20 19:1 21:2 22:4 23:1 26:4 
0 1 1:1.475 13:3 15:1.475 16:25 21:6 22:3 23:1 26:2 
1 1 1:0.4 13:2 14:1 15:1 16:25 18:1 21:2 22:8 23:3 
0 1 1:0.4 2:0.2 5:1 13:1 14:1 15:0.4 16:8 19:1 26:1 
1 1 1:0.875 13:4 14:1 15:1.25 16:22 18:3 21:4 22:4 25:1 26:2 
0 1 1:0.1 2:0.1 5:1 13:1 14:1 15:0.1 16:14 19:1 21:5 22:1 23:1 26:1 
1 1 1:1.275 2:0.045454545 5:1 12:1 13:5 14:1 15:1.875 16:26 21:6 22:5 23:8 24:1 26:1 
1 1 1:-1.05 2:0.058823529 5:1 12:1 13:1 14:1 15:-0.55 16:22 19:1 21:3 22:3 26:2 
1 1 1:-1.025 2:0.066666667 5:1 14:2 15:-0.9 16:21 21:4 22:2 23:3 26:1 
1 1 1:0.25 13:1 15:0.25 16:19 20:2 21:6 22:1 23:4 26:2 
0 1 1:1.35 13:3 15:1.35 16:17 21:4 22:1 23:1 26:3 
0 1 1:0.75 2:0.066666667 5:1 13:3 15:0.75 16:18 18:1 19:1 21:2 22:2 23:1 26:2 
0 1 1:0.05 2:0.066666667 5:1 13:2 14:1 15:0.3 16:17 21:3 22:1 26:6 
0.2774440672739932 1 1:-0.175 12:1 13:2 14:2 15:0.575 16:23 17:2 19:8 21:6 22:3 23:1 
1 1 12:1 13:3 15:1.45 16:12 19:2 22:4 23:1 26:2 
0 1 1:0.5 13:1 15:0.5 16:10 19:1 21:4 22:1 26:1 
1 1 1:0.45 10:1 13:2 14:1 15:0.45 16:18 21:5 22:4 23:6 26:2 
0 1 1:0.95 2:0.083333333 5:1 13:3 15:1.2 16:23 19:1 21:2 22:1 23:2 26:4 
0 1 1:1.225 13:4 15:1.475 16:25 19:2 21:6 22:7 26:1 
0 1 1:0.25 13:1 14:1 15:0.25 16:21 19:1 21:4 22:4 26:2 
0 1 1:1.375 2:0.055555556 5:1 13:5 15:1.5 16:22 19:1 21:6 22:6 23:1 26:1 
1 1 1:0.675 13:2 14:1 15:0.675 16:15 21:3 22:4 26:1 
1 1 1:0.075 13:2 14:2 15:0.2 16:18 18:1 19:1 22:2 23:3 26:1 
1 1 1:-0.125 16:14 18:2 21:3 22:3 23:1 25:1 
0.1293438239984849 1 1:-0.6 12:1 16:22 17:1 18:2 19:3 21:3 22:5 23:1 
0 1 1:0.675 2:0.16666667 3:1 5:1 13:2 15:0.8 16:13 21:1 22:1 26:1 
0 0.9207765047855611 1:1.35 13:4 15:1.35 16:21 19:2 21:5 22:2 23:4 
0 1 1:1.45 13:5 15:2.05 16:20 18:1 21:2 22:5 23:1 26:2 
0 1 1:1.175 13:3 14:1 15:0.925 16:23 21:5 22:3 23:1 26:1 
0 1 1:-0.3 13:3 14:1 15:0.45 16:26 19:2 21:5 22:4 23:2 26:1 
0 1 1:0.275 13:4 14:1 15:1.025 16:14 19:1 20:2 21:6 22:4 26:2 
0 1 1:0.75 13:3 14:1 15:0.875 16:20 21:4 22:2 23:1 24:1 26:2 
0 1 1:0.35 2:0.0625 5:1 13:2 14:1 15:0.95 16:22 19:1 21:5 22:1 23:1 26:2 
0 1 2:0.25 5:1 13:1 14:1 16:15 19:1 21:3 22:2 
1 1 1:0.675 13:4 14:1 15:1.525 16:27 21:2 22:8 23:3 
0 1 1:0.475 2:0.15384615 3:1 5:1 13:2 15:0.725 16:22 18:1 21:4 22:2 23:1 
1 1 1:-0.775 2:0.1 4:1 5:1 12:1 13:1 14:3 15:-0.175 16:22 21:4 22:1 23:1 
0 1 1:0.8 13:3 15:0.925 16:22 19:1 21:4 22:1 23:1 
0 0.3212860538941349 1:0.35 2:0.038461538 5:1 12:1 13:3 15:1.7 16:28 18:2 19:5 21:1 22:6 23:1 26:1 
0 1 1:0.8 2:0.16666667 5:1 13:2 15:0.8 16:18 21:3 22:2 23:1 26:1 
1 1 1:-0.475 12:1 13:2 14:1 15:0.5 16:17 21:4 22:2 23:1 26:1 
0 1 1:0.975 13:5 15:1.225 16:15 21:3 22:2 23:1 26:4 
0 1 1:0.475 13:2 15:0.85 16:23 19:2 21:1 22:4 24:1 26:2 
0 1 1:0.85 13:3 15:0.85 16:25 21:4 22:3 23:6 26:3 
0 0.0637367266436915 1:1.275 2:0.14285714 5:1 13:4 15:1.525 16:21 19:3 21:6 22:1 26:1 
1 1 12:1 13:3 15:1.8 16:19 21:2 22:6 23:1 24:1 
1 1 1:0.475 13:1 14:1 15:0.475 16:18 21:4 23:1 
1 1 1:0.35 13:3 14:2 15:1.075 16:26 21:5 22:5 23:1 26:1 
0 1 1:0.775 13:2 15:0.9 16:17 21:2 22:2 
0 1 1:0.275 13:2 15:0.525 16:21 21:4 22:4 23:1 26:1 
0 1 1:0.575 13:4 15:0.825 16:19 21:3 22:2 23:2 26:6 
0 1 1:1.625 13:4 15:2.225 16:14 21:1 22:5 
1 1 1:-0.6 12:1 13:2 15:0.75 16:19 18:1 21:4 22:2 23:2 24:1 
1 1 1:-0.45 12:1 13:3 14:5 15:0.15 16:21 19:1 21:3 22:3 23:6 24:1 26:3 
0 1 1:0.6 2:0.0625 5:1 13:1 15:0.6 16:23 19:1 21:5 22:1 26:1 
1 1 1:-0.5 13:1 14:2 15:-0.5 16:24 18:1 20:2 21:7 22:4 23:1 26:1 
0 1 1:0.325 2:0.071428571 3:1 5:1 13:2 15:0.325 16:19 19:1 21:1 26:1 
0 1 1:1.4 2:0.0625 5:1 13:3 14:1 15:1.4 16:21 21:4 22:4 23:4 26:1 
0 1 1:1.325 2:0.11111111 5:1 13:4 14:1 15:1.45 16:23 19:1 21:9 22:1 26:3 
0 1 1:0.35 2:0.375 3:1 5:1 13:3 14:1 15:0.475 16:25 19:1 21:5 22:4 23:3 26:1 
0 0.3423273847739754 1:2.15 13:4 15:2.15 16:21 21:2 22:5 23:1 
1 1 1:0.9 2:0.066666667 5:1 13:3 14:1 15:0.9 16:21 21:3 22:7 26:2 
1 1 1:-0.4 12:1 13:3 14:2 15:0.2 16:18 21:4 22:1 23:2 26:1 
1 1 1:-1.2 13:1 14:3 15:-1.2 16:19 21:5 22:4 23:2 
0 1 1:0.5 13:3 15:0.5 16:19 19:1 21:3 22:3 23:1 26:4 
1 1 1:0.075 12:1 13:2 14:2 15:0.075 16:19 21:6 22:2 23:1 26:3 
0 1 1:0.525 13:4 14:2 15:1.125 16:15 21:4 22:5 23:2 
0.9311852474221016 1 1:0.75 2:0.066666667 5:1 13:3 14:2 15:0.75 16:19 21:4 22:2 26:4 
0.1837669852250413 1 1:1.75 2:0.0625 5:1 13:5 15:1.75 16:21 21:5 22:5 26:2 
0 1 1:0.525 2:0.090909091 5:1 13:1 15:0.4 16:17 19:1 21:3 22:1 23:1 26:1 
1 0.8918454119114742 1:-1.3 12:1 13:3 14:4 15:-0.3 16:26 21:6 22:3 24:1 26:2 
0.9686269919470386 1 1:0.5 13:1 15:0.5 16:25 18:1 21:8 22:1 23:2 
1 1 1:-0.125 2:0.5 5:1 16:11 23:1 26:2 
0 1 1:0.725 13:2 15:0.725 16:20 19:1 22:2 23:1 26:2 
0.3731350318861413 0.6947090427168466 1:3.65 2:0.086956522 5:1 13:10 14:2 15:3.65 16:29 19:6 21:7 22:6 23:1 26:3 
0.4219974552145878 0 1:0.35 12:1 13:7 14:1 15:2.55 16:28 17:2 19:4 21:3 22:8 23:2 26:3 
0 1 1:0.25 2:0.071428571 5:1 13:2 15:0.25 16:19 20:1 21:2 22:3 26:2 
0 1 1:-0.2 2:0.14285714 4:1 5:1 12:1 13:1 14:1 15:0.4 16:20 19:1 22:1 23:1 26:2 
0 1 1:0.6 13:1 15:0.6 16:8 21:1 22:1 26:1 
0 1 1:0.4 2:0.5 3:1 5:1 13:1 15:0.4 16:16 19:1 21:2 22:2 
1 1 1:0.75 2:0.05 5:1 13:2 14:1 15:0.75 16:19 21:4 22:2 23:7 24:1 26:1 
0 1 1:1.2 2:0.066666667 5:1 13:2 15:1.2 16:19 21:3 22:3 23:4 26:2 
0 1 1:0.4 2:0.16666667 5:1 13:1 14:1 15:0.4 16:14 21:3 24:1 26:1 
1 1 1:0.45 2:0.13333333 5:1 13:2 14:1 15:0.45 16:22 21:7 22:3 26:2 
0 1 1:0.9 2:0.11111111 5:1 13:3 15:0.9 16:18 21:4 22:1 23:3 26:1 
0 1 1:0.75 13:4 14:1 15:1.5 16:24 21:4 22:4 23:1 26:2 
1 1 1:-0.125 2:0.071428571 5:1 14:1 15:-0.125 16:19 21:5 22:2 26:2 
1 1 1:1.225 13:6 15:1.625 16:26 18:1 19:1 21:7 22:6 26:1 
0 1 1:1.075 13:4 14:1 15:1.2 16:13 21:1 22:3 26:2 
1 0 1:-1.225 12:1 13:7 14:3 15:1.425 16:20 21:2 22:8 23:1 26:2 
1 1 1:0.15 13:5 14:2 15:1.5 16:23 21:3 22:6 24:1 26:2 
0 1 1:0.725 13:2 15:0.725 16:15 19:1 21:1 22:2 
0.1431480991932418 1 1:1.05 13:4 15:1.175 16:18 21:5 22:4 
0 0.462527525054847 1:1.475 13:4 14:1 15:1.475 16:26 18:1 21:4 22:4 23:7 26:2 
1 1 1:0.2 13:1 15:0.2 16:15 21:3 22:3 23:1 
0.1864619929878417 1 1:0.1 13:1 14:1 15:0.1 16:25 18:1 19:1 21:7 22:2 26:1 
0 1 1:0.6 13:1 15:0.6 16:12 21:3 22:3 26:1 
1 1 1:0.5 13:3 14:2 15:0.5 16:23 21:5 22:6 23:1 26:1 
0 1 1:0.65 13:2 15:0.65 16:11 21:4 22:2 26:3 
0 0.7664808917846488 1:2.375 2:0.052631579 5:1 13:5 14:1 15:2.375 16:21 18:1 21:8 22:2 26:3 
1 1 1:0.025 13:1 14:3 15:-0.175 16:19 18:1 21:5 22:2 26:3 
0 1 1:1.5 2:0.066666667 5:1 13:4 15:2 16:19 21:2 22:2 
0.9473458626270665 1 2:0.23076923 5:1 13:2 15:0.25 16:21 18:1 19:1 21:5 22:2 23:1 
0.4620933314192525 1 1:1.225 2:0.0625 5:1 13:3 15:0.975 16:21 21:7 22:4 23:1 26:2 
0 0.9410349084503432 1:1.075 2:0.045454545 5:1 13:6 14:1 15:2.6 16:27 18:1 20:2 21:7 22:6 26:1 
0.0510914375900616 1 1:0.125 12:1 13:2 15:0.725 16:26 19:2 21:4 22:6 23:3 
0 1 1:1.875 2:0.071428571 5:1 13:5 15:2 16:24 21:5 22:4 23:1 26:1 
1 1 1:-0.6 2:0.058823529 5:1 12:1 13:4 14:2 15:0.6 16:20 19:1 21:4 22:7 23:3 
0.2048245456441702 0.7689783019393035 1:0.35 2:0.25 3:1 4:2 5:1 13:6 14:4 15:-0.15 16:27 19:1 21:10 22:3 23:6 26:2 
0 1 1:0.925 13:3 14:1 15:0.925 16:13 22:1 23:1 26:3 
0 1 1:1.05 2:0.13333333 5:1 13:2 15:1.05 16:24 21:6 22:1 23:1 26:2 
0.1787954151621314 1 1:1.15 2:0.125 5:1 13:5 15:1.275 16:20 21:4 22:4 23:1 26:4 
0 1 1:0.65 13:2 14:1 15:0.525 16:23 21:2 22:2 26:2 
0 1 1:0.1 13:1 14:1 15:0.1 16:15 19:2 21:2 22:1 26:1 
0.07354083028487393 1 1:0.75 13:4 14:1 15:1 16:30 18:1 20:2 21:3 22:6 23:1 26:1 
0 1 1:-0.025 13:2 15:0.725 16:20 19:2 21:6 22:2 26:2 
1 1 1:0.075 2:0.0625 5:1 13:3 14:4 15:-0.05 16:23 21:5 22:5 23:1 24:1 25:1 26:1 
0.6899197439566619 1 1:1.675 13:5 14:1 15:1.675 16:24 21:5 22:3 23:12 26:4 
0 1 1:1.05 13:4 15:1.175 16:15 21:5 22:1 23:1 26:2 
0 1 1:0.275 2:0.1 5:1 13:1 14:1 15:0.275 16:13 21:2 22:1 26:1 
0.4198184937888905 1 1:1.5 13:8 14:1 15:2.2 16:31 18:1 19:1 21:7 22:9 23:2 26:1 
0 1 1:0.4 2:0.1 5:1 13:1 15:0.4 16:15 21:2 22:3 
0.3477399534561757 1 1:0.975 13:2 14:1 15:0.725 16:24 18:2 21:2 22:3 23:1 
1 1 1:-0.5 13:1 14:1 15:-0.375 16:20 21:2 22:4 
0 1 1:0.85 2:0.083333333 5:1 13:3 15:0.975 16:20 21:6 22:5 23:1 25:1 26:3 
1 0 1:0.775 12:1 13:4 14:1 15:1.375 16:15 21:3 22:3 23:1 
0 1 1:-0.25 13:1 14:1 15:-0.25 16:19 19:3 21:2 22:4 23:1 
1 1 1:-0.15 13:1 14:1 15:-0.15 16:12 21:1 22:2 23:1 26:3 
0 1 1:0.45 2:0.076923077 5:1 13:4 14:2 15:1.175 16:17 21:4 22:3 23:1 
1 1 1:-0.3 2:0.13333333 5:1 13:1 14:1 15:-0.3 16:18 19:1 21:4 22:2 26:1 
0.6891751212942666 1 1:-1.575 2:0.05 5:1 12:1 13:1 14:1 15:-0.1 16:29 19:4 21:3 22:4 23:6 
0 0.2423499703992406 1:1.025 2:0.045454545 5:1 12:1 13:3 14:1 15:1.625 16:29 19:7 21:3 22:2 23:4 26:3 
1 1 1:-0.25 13:1 15:0.125 16:19 21:3 22:2 23:1 26:1 
1 1 1:-0.55 2:0.21428571 5:1 13:1 14:1 15:0.2 16:22 21:4 22:2 23:3 25:1 
0.4832011629504726 1 1:-0.15 13:1 15:0.6 16:13 19:1 21:1 22:4 23:2 
0 1 1:0.4 13:1 15:0.4 16:13 19:1 21:3 22:1 26:2 
0 1 1:-0.875 2:0.076923077 5:1 14:1 15:-0.125 16:18 19:3 22:4 23:1 
0 1 1:0.375 13:1 15:0.5 16:14 19:2 21:3 22:1 26:2 
0 1 1:1 13:3 15:1.25 16:24 21:7 22:4 23:4 26:2 
1 1 1:-1.225 2:0.076923077 5:1 14:2 15:-1.225 16:19 21:5 22:2 26:1 
1 0.5658457769993095 1:0.725 12:2 13:4 14:2 15:0.925 16:28 18:1 19:2 21:3 22:1 23:7 26:2 
0 1 1:1.7 2:0.052631579 5:1 13:4 15:1.95 16:29 18:1 21:8 22:1 23:1 26:1 
0 1 1:0.6 13:2 15:0.975 16:22 18:1 21:1 22:3 26:2 
0 1 1:1.5 2:0.047619048 5:1 13:4 15:1.5 16:25 19:1 21:4 22:4 23:3 26:3 
0 1 1:0.8 2:0.18181818 5:1 13:2 15:0.8 16:16 19:2 21:3 22:3 24:1 26:3 
0.5183411595425267 0.382510464656836 1:1.475 2:0.13636364 5:1 13:4 15:1.6 16:25 17:2 19:7 21:2 22:2 23:5 26:4 
0.2817052976235784 0 1:0.3 13:5 14:3 15:0.3 16:21 19:2 21:4 22:4 
0.7093001828648661 1 1:-0.675 2:0.14285714 5:1 6:1 7:1 14:1 15:-0.5 16:10 19:2 22:2 23:1 
0 1 1:1.825 2:0.0625 5:1 13:4 14:1 15:1.825 16:20 21:8 22:1 26:3 
0.06641584139763033 1 1:2.225 2:0.083333333 5:1 13:7 15:2.35 16:28 21:6 22:5 23:6 26:4 
0.9273268726221473 0.7856490673984063 1:0.9 12:2 13:11 14:2 15:3.675 16:28 21:1 22:10 23:4 26:3 
1 1 1:-1.475 2:0.090909091 5:1 12:1 16:17 17:1 19:1 21:3 22:2 23:1 
0 1 1:0.4 2:0.090909091 5:1 13:1 15:0.4 16:18 17:1 22:1 26:1 
0 1 1:0.85 13:5 14:1 15:1.2 16:19 19:1 21:4 22:6 26:2 
0 1 1:-0.1 12:1 13:1 15:0.5 16:14 19:1 21:3 22:2 23:2 
1 1 1:-0.3 13:1 14:1 15:-0.3 16:25 21:5 22:2 23:1 26:3 
1 1 1:0.025 13:2 14:1 15:0.15 16:15 18:1 21:1 22:4 26:1 
0.9771221048732661 1 1:0.4 13:2 14:1 15:0.4 16:24 18:1 20:2 21:2 22:1 23:1 24:1 26:3 
0 1 1:1.2 13:2 15:1.2 16:18 19:1 21:2 22:3 
0.4408624207444319 1 1:1.55 13:4 15:1.55 16:14 21:6 26:2 
0 1 1:2.25 2:0.055555556 5:1 13:6 15:1.75 16:26 18:1 21:6 26:5 
1 1 1:0.725 13:3 14:1 15:0.725 16:16 21:2 22:3 26:2 
0 1 1:0.725 2:0.090909091 5:1 13:2 15:0.725 16:19 19:1 21:3 22:3 
1 0 1:-0.1 12:2 13:4 14:2 15:0.75 16:20 19:1 21:3 22:5 23:1 26:3 
0.6251577963254362 1 1:1.2 13:3 15:1.8 16:19 21:2 22:5 23:6 
0 1 1:1.3 2:0.0625 5:1 13:4 15:1.3 16:15 21:5 22:2 23:3 26:3 
0 1 1:0.375 2:0.058823529 5:1 13:2 15:0.375 16:20 19:1 21:3 22:3 23:3 24:1 26:3 
1 1 1:-0.3 12:1 13:2 14:1 15:0.425 16:18 19:1 21:3 22:3 23:1 26:2 
1 1 1:-0.15 12:1 13:1 14:1 15:0.1 16:16 20:2 21:4 22:2 26:1 
0 1 1:0.6 13:2 14:1 15:0.6 16:21 21:7 22:2 23:2 26:1 
0.8014411615951846 1 1:0.05 2:0.052631579 5:1 13:4 14:1 15:0.925 16:29 21:4 22:6 23:2 26:1 
0 1 1:0.3 2:0.11111111 5:1 13:5 15:1.55 16:26 19:1 21:5 22:3 23:1 26:3 
0 1 2:0.15384615 5:1 16:19 19:5 21:4 22:3 
0 1 1:1.375 13:5 14:1 15:1.375 16:22 21:5 22:4 23:3 26:3 
0 1 1:1.35 13:2 15:0.85 16:11 19:1 21:2 22:1 26:3 
0 1 1:1.25 2:0.33333333 3:1 5:1 13:3 15:1.25 16:25 21:5 22:1 23:1 24:1 26:2 
0 0.07851413554521401 1:1.125 2:0.086956522 5:1 13:4 14:1 15:1.125 16:29 18:1 19:2 21:8 22:3 23:4 25:1 26:1 
0 1 12:1 13:2 15:0.725 16:29 21:3 22:2 23:4 25:1 26:2 
1 1 1:-0.6 12:1 13:2 14:1 15:-1.110223e-16 16:23 21:5 22:6 23:3 26:1 
0 1 1:1.25 2:0.0625 5:1 13:3 15:1.25 16:18 21:4 26:3 
0 1 1:0.525 2:0.076923077 5:1 13:2 15:0.65 16:18 19:1 21:6 22:1 23:1 26:1 
0 1 1:0.25 2:0.0625 5:1 13:2 15:0.375 16:22 19:2 21:1 22:3 25:1 26:2 
0.8833935043589932 1 1:1.175 2:0.058823529 5:1 13:5 14:1 15:1.175 16:24 21:8 22:3 26:4 
0 1 1:0.6 13:2 14:1 15:0.6 16:15 21:5 22:1 26:2 
0 1 1:1.775 13:4 15:1.775 16:24 21:5 22:3 23:7 24:1 26:1 
1 1 1:1.2 13:4 15:1.8 16:21 21:5 22:7 
0 1 1:-0.525 2:0.2 5:1 12:1 13:1 14:1 15:0.075 16:20 17:1 19:6 21:3 22:1 23:1 26:1 
0 1 1:0.85 13:4 15:0.975 16:16 21:3 22:4 23:2 
1 1 1:0.475 13:2 14:1 15:0.475 16:22 21:4 22:3 
0 1 1:0.125 2:0.071428571 5:1 13:1 15:0.125 16:18 19:1 21:4 22:2 23:2 26:1 
0 1 1:0.125 2:0.1 5:1 13:1 15:0.125 16:18 21:3 23:1 26:3 
0 1 1:1.6 13:4 14:1 15:1.35 16:17 21:2 22:5 23:1 
1 1 1:0.025 13:2 14:3 15:0.15 16:25 21:7 22:5 23:1 26:5 
0.551669406511533 1 1:0.35 10:1 13:2 14:2 15:-0.15 16:14 19:1 22:2 24:1 26:1 
1 1 1:0.05 13:3 14:1 15:0.925 16:24 18:1 21:3 22:5 23:2 25:1 
0 1 1:0.4 2:0.11764706 5:1 13:1 15:0.4 16:25 19:2 21:6 22:2 23:1 26:2 
0 1 1:0.5 2:0.0625 5:1 13:4 15:1.25 16:24 19:1 21:4 22:2 23:1 26:2 
0 1 1:0.85 2:0.083333333 5:1 13:2 15:0.975 16:19 21:4 22:1 23:1 26:1 
0 1 1:0.925 2:0.11111111 5:1 13:4 15:1.3 16:25 19:1 21:9 23:1 26:2 
0 1 1:0.6 2:0.090909091 5:1 13:1 15:0.6 16:17 19:1 21:2 22:1 23:1 26:1 
1 0 1:-0.675 12:1 13:3 14:3 15:0.05 16:24 19:3 21:4 22:6 23:4 26:2 
1 1 1:0.225 13:3 14:2 15:0.6 16:18 21:4 22:1 23:4 24:1 
1 1 1:-0.125 2:0.083333333 5:1 12:1 13:4 14:3 15:-0.575 16:19 19:1 20:2 21:4 22:2 23:1 
0.8572622504707702 1 1:1.2 13:4 14:2 15:0.95 16:28 21:7 22:1 23:4 26:5 
1 1 1:-0.1 13:2 14:3 15:-0.1 16:24 21:4 22:3 23:3 
1 1 1:-1 2:0.086956522 5:1 14:3 15:-1 16:26 18:1 19:1 21:7 22:4 23:5 
0.3220892972460686 0 1:0.475 13:2 15:0.725 16:19 17:1 19:6 20:3 21:1 22:3 26:1 
0 1 1:1.35 2:0.25 3:1 5:1 13:3 15:1.35 16:18 20:2 21:4 22:1 26:2 
0 1 1:1.2 13:2 15:1.2 16:27 19:1 21:5 22:4 23:7 
0.7141160536208886 1 1:-0.375 13:2 15:0.375 16:12 19:1 21:1 22:3 26:2 
0 1 1:0.55 2:0.125 5:1 13:2 14:1 15:0.55 16:9 20:2 21:3 26:1 
0 1 1:1.65 2:0.058823529 5:1 13:3 15:1.65 16:18 21:6 22:1 23:3 26:3 
0 1 1:0.25 2:0.13333333 5:1 13:2 15:0.5 16:18 19:1 21:2 22:3 23:1 24:1 26:5 
0.236980106670676 1 1:0.275 13:2 14:1 15:0.4 16:12 17:1 21:3 22:3 
0 1 1:0.125 2:0.071428571 5:1 13:1 15:0.125 16:19 21:4 22:1 26:2 
0.04411675156874276 0 1:0.925 13:5 14:2 15:1.05 16:20 19:1 21:5 23:7 24:1 26:2 
0 1 1:0.35 13:3 15:1.8 16:26 19:1 21:4 22:5 23:5 24:1 
1 1 1:-0.3 12:1 13:5 14:2 15:1.125 16:21 21:2 22:5 23:1 24:1 26:4 
0.05545109303984475 0 1:2.275 13:8 14:1 15:2.275 16:31 19:4 21:5 22:4 23:1 26:4 
0 1 1:-0.2 13:4 14:1 15:1.425 16:21 21:6 22:2 23:1 26:3 
1 1 1:-0.075 2:0.058823529 5:1 12:1 13:1 14:1 15:0.05 16:25 21:7 22:4 23:1 24:1 26:3 
0 1 1:0.475 13:1 14:1 15:0.475 16:17 21:1 22:1 23:1 26:1 
1 1 1:-0.675 2:0.11111111 5:1 14:1 15:-0.8 16:18 18:1 21:4 22:1 26:1 
0 0.6291229345001368 1:0.1 13:2 15:0.85 16:15 19:1 21:3 23:4 26:3 
0 1 1:0.5 2:0.090909091 5:1 13:2 15:0.5 16:16 19:1 21:2 22:2 26:4 
0 1 1:0.1 2:0.066666667 5:1 13:1 14:1 15:0.1 16:22 19:2 21:4 22:2 23:2 
0 1 1:0.525 13:2 15:0.525 16:21 19:1 21:5 22:1 23:2 26:2 
1 1 1:0.125 2:0.083333333 5:1 13:3 14:1 15:0.725 16:18 21:6 22:3 
0 1 1:0.275 2:0.05 4:1 5:1 13:1 14:1 15:0.275 16:27 19:5 21:6 22:2 26:1 
0 1 1:0.6 2:0.23529412 5:1 13:1 15:0.6 16:21 21:2 22:1 23:1 
0.4372838869406779 1 1:1.1 13:4 15:1.35 16:20 21:2 22:2 23:2 26:7 
0 1 1:0.85 2:0.076923077 5:1 13:3 15:0.975 16:21 21:2 22:2 23:1 26:2 
1 1 1:-0.65 13:2 15:0.85 16:27 21:6 22:2 23:6 26:4 
1 1 1:0.9 13:4 14:2 15:0.9 16:22 21:4 22:4 23:7 26:6 
0 1 1:0.875 13:3 15:0.875 16:19 19:1 21:8 22:3 23:4 26:3 
0 1 1:0.325 2:0.058823529 5:1 13:2 15:0.575 16:23 19:1 21:3 22:3 23:1 26:3 
1 1 1:0.6 2:0.052631579 5:1 13:2 14:1 15:0.6 16:21 21:2 22:3 23:3 26:2 
1 1 1:-0.475 13:3 14:1 15:0.65 16:18 21:5 22:1 23:2 24:1 26:4 
1 0 1:-0.35 12:1 13:2 14:1 15:0.25 16:17 19:2 21:4 22:3 23:3 
1 1 1:0.85 2:0.052631579 5:1 13:3 14:1 15:0.35 16:28 18:1 21:3 22:3 23:3 26:3 
0 1 1:0.4 2:0.5 3:1 5:1 13:1 15:0.4 16:8 21:1 22:1 23:1 26:3 
1 0 1:-1.5 12:1 13:2 14:2 15:-0.15 16:17 19:2 21:2 22:1 23:2 24:1 26:2 
0.7372481479235722 0 1:-0.725 2:0.058823529 5:1 12:2 14:1 15:-0.125 16:22 17:1 18:1 19:4 21:3 22:1 23:4 26:1 
0 1 1:1.225 2:0.076923077 5:1 13:2 15:1.225 16:21 21:2 22:2 26:2 
0 1 1:0.725 13:2 15:0.725 16:18 21:2 22:2 23:2 26:1 
1 1 1:-0.1 12:1 13:1 15:0.5 16:19 21:6 22:4 23:2 26:1 
0 1 1:0.575 2:0.071428571 5:1 13:3 15:0.575 16:19 21:4 22:3 23:3 26:3 
0 1 1:1.375 13:4 15:1.375 16:25 21:5 22:2 23:4 26:2 
1 1 1:0.2 13:4 14:1 15:1.2 16:25 17:1 21:3 22:6 23:3 26:4 
0 1 1:0.6 13:2 14:1 15:0.725 16:20 21:3 22:1 23:1 26:4 
0 0.9643444083038361 1:1.725 2:0.052631579 5:1 13:5 14:1 15:1.725 16:20 19:1 21:3 22:3 26:6 
0.5610512571275889 0.3479864339775782 1:1.2 13:6 14:3 15:1.35 16:18 18:2 21:4 22:3 26:5 
0 1 1:0.6 2:0.1875 5:1 13:1 15:0.6 16:20 21:2 22:1 23:1 
0 0.1123604209893328 1:0.525 2:0.25 3:1 5:1 13:2 14:1 15:0.525 16:18 19:6 21:3 22:1 26:2 
0 1 1:0.5 2:0.052631579 5:1 13:3 15:1.25 16:21 19:1 21:4 22:1 23:4 26:4 
0 1 1:1.2 13:4 14:1 15:1.8 16:16 21:6 22:5 23:1 26:1 
0 1 1:0.575 13:3 14:1 15:0.575 16:19 21:3 22:2 23:1 24:1 26:4 
1 1 1:-2 2:0.13333333 5:1 12:2 14:1 15:-0.4 16:26 20:2 21:3 22:6 23:2 
1 1 1:-0.55 12:1 13:5 14:2 15:0.175 16:26 18:2 19:1 21:5 22:3 23:2 24:1 26:2 
0.08727340464543931 1 1:1.425 13:6 14:2 15:1.425 16:24 21:6 22:3 26:5 
0.9171408748103357 1 1:0.75 2:0.11111111 5:1 13:5 14:2 15:1.5 16:11 22:4 26:2 
0 1 1:1.5 13:4 15:1.25 16:17 22:3 26:3 
0 1 1:1.6 2:0.05 5:1 13:4 15:1.725 16:23 21:5 22:2 23:3 26:3 
0.7420297854752899 1 1:-1.3 2:0.0625 5:1 12:1 14:1 15:-0.2 16:26 19:2 21:3 22:2 23:2 
0 1 1:1.3 13:3 15:1.3 16:24 21:5 23:3 26:1 
1 1 1:0.95 13:2 14:1 15:0.95 16:11 22:3 23:3 26:1 
0.08150741128374353 0.5862708351067187 1:1.075 2:0.5 3:2 5:1 13:3 15:1.075 16:22 17:2 19:7 21:5 22:2 26:1 
0 1 1:1.6 13:4 14:1 15:1.6 16:16 21:5 22:4 25:1 
0 1 1:1.075 13:2 14:1 15:1.075 16:21 18:1 21:4 22:2 
1 1 1:0.075 2:0.066666667 5:1 12:1 13:4 14:1 15:0.925 16:20 19:1 21:7 22:3 23:1 26:2 
1 1 1:-1 2:0.15384615 5:1 12:1 14:1 15:-0.4 16:18 19:1 21:3 22:2 23:1 
0 1 1:0.05 13:3 14:1 15:0.05 16:11 19:2 21:2 22:2 26:1 
1 1 1:-1.2 2:0.13333333 5:1 12:1 13:2 14:1 15:0.275 16:26 19:2 21:2 22:4 23:1 25:1 26:4 
1 1 1:0.725 2:0.05 5:1 13:3 14:1 15:0.975 16:20 21:4 22:2 23:7 26:5 
1 1 1:0.075 13:2 14:2 15:0.075 16:20 18:2 21:5 22:3 23:3 26:2 
1 1 1:0.1 13:1 14:1 15:0.1 16:9 21:1 22:1 23:1 26:1 
0 0.007980996282379272 1:1.85 2:0.21052632 3:1 5:1 13:5 15:2.45 16:21 19:2 21:3 22:1 
0 1 1:0.975 13:5 15:1.475 16:23 21:2 22:5 23:1 26:2 
0 1 1:0.9 13:2 15:0.9 16:19 21:5 22:1 23:1 
0 1 1:0.6 13:1 15:0.6 16:21 18:1 21:4 22:1 23:3 26:1 
1 1 1:0.1 13:2 14:1 15:0.225 16:20 21:6 22:2 23:4 24:1 26:1 
1 1 1:0.125 14:1 15:-0.125 16:13 19:1 21:1 22:3 23:1 
1 1 1:-0.5 14:1 15:-0.5 16:7 21:2 22:1 
0 1 1:0.725 13:2 15:0.725 16:23 19:2 21:3 22:5 23:1 25:1 26:1 
1 1 1:0.325 2:0.076923077 5:1 13:3 14:2 15:0.325 16:15 21:4 22:1 23:1 26:1 
0 1 2:0.066666667 5:1 16:18 19:3 21:3 22:3 26:2 
1 1 1:0.75 2:0.043478261 5:1 12:1 13:4 15:1.225 16:22 18:1 19:1 21:4 22:6 23:5 26:2 
1 1 1:-0.775 12:1 13:2 15:0.45 16:14 18:1 21:3 22:1 23:1 26:3 
0 1 1:0.125 13:1 15:0.125 16:20 19:2 21:2 22:2 23:3 26:2 
1 1 1:0.4 2:0.0625 5:1 13:3 14:2 15:1 16:23 21:1 22:11 26:1 
0.7381828934358391 1 1:0.425 12:1 13:4 15:1.775 16:27 21:10 22:6 23:9 26:6 
0 1 1:0.125 13:1 15:0.125 16:25 19:1 21:4 22:4 23:1 
0 1 1:1.65 2:0.125 5:1 13:4 15:1.65 16:20 21:5 22:3 26:3 
0.8737475781162929 1 1:-0.625 2:0.16666667 5:1 14:1 15:-0.5 16:9 21:1 22:2 
0.520485949130576 0.6571930341956318 1:1.325 2:0.24 3:2 4:1 5:1 13:7 14:1 15:1.725 16:28 19:8 21:10 22:1 23:1 24:1 26:3 
1 1 1:-0.55 2:0.037037037 5:1 13:2 14:3 15:-0.55 16:27 21:7 22:2 23:1 26:3 
1 1 1:-0.5 2:0.066666667 5:1 13:3 14:1 15:0.25 16:22 21:4 22:1 26:4 
0 1 1:1 13:2 15:1 16:24 19:2 21:6 22:2 24:1 26:1 
0.07852433246131386 1 1:0.4 13:1 15:0.4 16:16 21:4 22:3 26:1 
1 1 1:-0.25 2:0.066666667 5:1 13:1 14:1 15:-0.25 16:22 18:1 19:1 21:3 22:2 23:4 24:1 
0 1 1:0.2 2:0.11111111 5:1 13:2 14:1 15:0.2 16:12 19:1 21:4 24:1 26:1 
0 1 1:0.9 2:0.16666667 5:1 13:2 15:0.9 16:18 19:1 21:6 22:1 
1 1 1:0.575 13:2 14:1 15:0.575 16:8 21:4 22:1 
0 0.1202163845820585 1:0.325 2:0.1 5:1 13:3 15:1.8 16:29 19:3 21:4 22:5 23:5 26:1 
0 1 1:0.45 13:2 15:0.45 16:18 21:2 22:2 23:1 26:2 
0 1 1:0.225 13:2 15:0.975 16:25 19:1 21:9 22:1 23:3 26:2 
0 1 1:0.45 13:2 15:0.45 16:15 19:1 21:1 22:3 23:1 26:3 
0 1 1:0.4 2:0.0625 5:1 13:1 15:0.4 16:19 19:1 21:5 26:3 
0 1 1:0.375 2:0.076923077 5:1 13:2 15:0.5 16:19 21:3 22:3 26:4 
0 1 1:1.05 6:1 13:3 15:0.925 16:18 19:1 21:3 22:4 23:3 
1 1 1:-0.1 2:0.066666667 5:1 12:1 13:2 14:1 15:0.5 16:16 19:1 21:6 23:1 
0 1 1:0.975 2:0.071428571 5:1 13:3 15:0.975 16:20 21:2 22:1 23:1 26:3 
0 1 1:1.25 13:4 15:1.375 16:21 21:2 22:2 23:3 26:4 
0 1 1:0.375 13:1 15:0.375 16:11 21:2 22:1 23:1 
1 1 1:0.375 2:0.027777778 5:1 13:1 15:0.125 16:25 21:8 22:9 23:1 24:1 26:2 
1 1 1:0.625 2:0.052631579 5:1 13:2 14:1 15:0.625 16:21 21:6 22:1 23:3 26:4 
1 1 1:0.1 2:0.066666667 5:1 13:2 14:1 15:0.1 16:19 21:4 22:1 23:3 26:1 
0 1 1:0.55 2:0.090909091 5:1 13:1 14:1 15:0.425 16:17 21:3 22:1 26:1 
0.3364855996782802 0.7386004081353341 1:2.025 13:6 14:2 15:2.625 16:29 20:2 21:12 22:5 23:1 24:2 26:2 
0 1 1:0.85 13:2 15:0.85 16:11 21:2 22:2 23:1 
1 1 1:0.575 13:4 15:1.325 16:16 18:1 21:3 22:3 23:2 26:1 
1 1 1:0.275 13:4 14:1 15:1.125 16:16 18:1 21:1 22:5 23:3 
0 0.0722712485555133 1:1.075 2:0.44444444 3:2 5:1 13:3 15:1.075 16:24 17:2 19:8 21:5 22:2 26:1 
1 1 1:0.1 13:4 14:2 15:0.475 16:20 21:3 22:4 26:3 
0 1 1:1.175 2:0.30769231 5:1 13:4 15:1.3 16:25 21:6 23:1 26:3 
0 1 1:0.975 13:1 15:0.6 16:23 21:5 22:4 26:2 
0 1 1:0.85 13:3 15:1.1 16:17 21:5 22:3 26:4 
0 1 1:0.675 2:0.18181818 5:1 13:3 14:1 15:1.275 16:23 21:5 22:2 26:1 
0 1 1:0.8 2:0.1 5:1 13:2 15:0.8 16:22 21:2 22:2 26:1 
0 1 1:0.85 2:0.058823529 5:1 13:2 15:0.85 16:18 19:2 21:5 22:1 23:2 26:3 
1 1 1:0.5 2:0.055555556 5:1 12:1 13:3 15:1.35 16:22 21:5 22:5 23:4 26:1 
1 1 1:1.325 2:0.055555556 5:1 13:4 15:1.925 16:27 18:1 21:5 22:7 23:1 26:3 
0 1 1:1.2 2:0.2 3:1 5:1 13:2 15:1.2 16:19 21:5 23:2 26:2 
1 1 1:0.975 2:0.10526316 4:1 5:1 13:4 14:1 15:1.1 16:19 21:5 22:5 23:6 26:1 
1 1 1:0.875 12:1 13:4 14:2 15:1.475 16:20 21:5 22:5 23:6 26:2 
1 0 1:-1.525 2:0.076923077 3:1 5:1 12:2 13:2 14:4 15:-0.925 16:13 19:2 21:5 22:1 23:1 26:1 
1 1 1:1.075 13:3 14:1 15:1.075 16:11 21:3 22:4 23:4 
0 1 1:1.25 2:0.076923077 5:1 13:3 15:1.25 16:21 19:1 21:3 22:1 24:1 26:5 
1 1 1:0.1 2:0.125 3:1 5:1 13:1 14:2 15:-0.4 16:10 18:1 21:2 22:2 
1 1 1:0.25 12:1 13:3 14:1 15:0.85 16:24 21:4 22:3 23:5 24:1 26:2 
0 1 1:0.8 13:5 14:1 15:0.8 16:24 21:5 22:1 23:6 26:4 
0 1 1:0.525 2:0.15789474 5:1 13:3 15:0.775 16:26 19:1 21:5 22:2 23:1 26:1 
1 1 1:-0.125 13:5 14:2 15:1.675 16:27 19:1 21:3 22:8 24:1 26:2 
1 1 1:0.6 13:2 15:1.2 16:18 18:1 21:2 22:7 
0 1 1:0.85 13:2 15:0.85 16:10 21:1 26:3 
0 1 1:0.675 13:1 15:0.8 16:21 21:3 22:4 23:2 24:1 26:2 
0 1 1:1.525 2:0.076923077 5:1 13:3 15:1.525 16:20 21:3 22:1 26:2 
0 1 1:-0.225 2:0.076923077 5:1 12:1 13:2 15:0.375 16:17 19:2 21:1 22:5 23:1 26:2 
0 1 1:0.375 13:1 14:1 15:0.375 16:11 21:1 22:1 26:1 
1 0.5180341694923084 1:0.275 12:1 13:7 14:4 15:0.675 16:22 17:1 20:2 21:3 22:7 23:5 26:3 
1 1 1:0.525 12:1 13:3 15:1.25 16:16 21:1 23:1 24:1 26:1 
0.07296505355288682 0 1:2.65 2:0.125 5:1 13:6 15:2.65 16:16 19:2 21:3 22:2 26:4 
0 1 1:0.8 2:0.071428571 5:1 13:3 15:1.4 16:21 21:2 22:3 
1 1 1:-0.15 2:0.058823529 5:1 13:1 14:2 15:-0.15 16:24 18:1 19:1 21:4 22:3 23:1 24:1 
0 1 1:0.4 2:0.14285714 5:1 13:1 15:0.4 16:12 20:2 21:1 22:1 24:1 26:2 
0 1 1:0.6 13:1 15:0.6 16:11 19:1 21:2 22:1 23:5 26:1 
0 1 1:0.375 2:0.058823529 5:1 13:2 15:0.375 16:21 19:3 22:2 24:1 26:3 
0.390566879046585 1 1:0.025 2:0.33333333 3:1 5:1 13:2 15:0.775 16:19 21:1 22:4 23:2 26:1 
0 1 1:1.05 13:3 15:1.05 16:18 21:4 22:2 26:3 
0 1 1:0.125 13:3 15:1.125 16:24 19:1 21:5 22:4 23:1 24:1 
1 1 1:0.025 2:0.125 5:1 13:1 14:1 15:0.15 16:19 21:5 23:1 24:1 26:4 
0.1870644938363164 0 1:1.05 13:4 14:2 15:1.65 16:28 18:1 19:4 21:1 22:6 23:6 26:1 
0 1 1:0.4 12:1 13:2 15:1 16:12 21:3 22:3 23:2 
0 1 1:1.6 2:0.1 3:1 5:1 13:5 14:1 15:1.6 16:27 19:1 21:7 22:6 23:6 26:1 
0 1 1:1.625 2:0.047619048 5:1 13:5 14:1 15:2.125 16:25 21:11 22:4 26:3 
0 1 1:1.5 13:4 15:1.5 16:12 21:4 22:2 26:1 
0.4244877510056923 1 16:1 
0 1 1:0.375 13:1 15:0.375 16:12 19:1 21:2 22:1 23:1 
1 1 1:-0.675 2:0.083333333 5:1 13:1 14:2 15:-0.3 16:22 21:2 22:2 26:1 
1 0.4377758845471941 1:-0.775 12:3 13:5 14:4 15:-0.275 16:19 21:6 22:3 23:1 26:1 
0 1 1:1.4 2:0.21052632 5:1 13:5 15:1.4 16:26 21:10 22:2 23:1 26:2 
1 1 1:1.025 2:0.071428571 5:1 13:4 14:2 15:1.025 16:19 21:1 22:5 23:1 24:1 
0 1 1:0.625 2:0.38461538 3:1 5:1 13:3 15:0.625 16:19 21:3 22:2 23:1 26:2 
1 1 1:-1.75 2:0.18181818 5:1 12:1 14:1 15:-0.4 16:18 19:1 21:2 22:3 23:1 26:1 
0 1 1:0.4 13:2 15:0.525 16:18 21:5 22:3 23:2 26:1 
1 1 1:-0.425 12:1 13:1 14:3 15:-0.425 16:10 21:3 22:2 
0 1 1:0.65 2:0.0625 5:1 13:2 15:0.65 16:21 21:2 22:2 23:1 26:2 
0 1 1:0.475 2:0.14285714 5:1 13:1 15:0.6 16:15 21:1 22:2 23:1 26:1 
1 1 1:-0.125 2:0.066666667 5:1 12:1 13:3 14:2 15:0.475 16:25 21:2 22:5 23:2 24:1 25:1 
0 1 1:0.7 2:0.058823529 5:1 13:2 14:1 15:0.7 16:19 19:1 21:5 22:1 
0 1 1:-0.075 13:2 14:1 15:0.675 16:13 19:2 21:5 22:2 26:1 
0 0.5878862048220468 1:0.375 13:4 14:2 15:0.625 16:29 19:5 21:6 22:5 
1 1 1:0.125 13:1 15:0.125 16:22 21:4 22:3 23:4 26:2 
1 1 1:0.125 2:0.076923077 5:1 13:1 14:1 15:0.125 16:19 21:3 24:1 26:3 
0 1 1:-1.25 2:0.15384615 5:1 13:1 14:1 15:-0.375 16:22 18:1 19:3 21:1 22:3 26:1 
1 1 1:0.2 12:1 13:2 14:1 15:0.7 16:18 19:1 21:3 22:3 
0 1 1:0.925 2:0.11764706 5:1 13:3 15:1.05 16:24 19:1 21:2 22:4 23:3 26:1 
0 1 1:-0.5 2:0.043478261 5:1 12:1 13:2 14:1 15:0.5 16:27 19:6 21:4 22:1 
0 1 1:1.325 13:4 15:1.325 16:16 21:6 22:3 23:1 26:3 
0 1 1:1.05 2:0.043478261 5:1 13:3 15:1.05 16:22 21:6 22:2 23:3 26:4 
1 1 1:-1.175 12:1 13:2 14:1 15:0.3 16:18 19:1 21:3 22:2 23:1 26:2 
0.2067866392861162 1 1:0.725 2:0.05 5:1 13:4 15:1.925 16:31 21:6 22:7 23:2 24:1 26:1 
0.7513506272401566 1 1:0.175 12:1 13:2 14:1 15:1.025 16:27 18:1 19:1 21:3 22:4 23:1 26:2 
1 1 1:-0.25 12:1 13:2 14:1 15:0.35 16:24 21:7 22:4 23:1 26:2 
0 1 1:-0.25 13:1 15:0.625 16:23 18:1 19:1 21:5 22:2 
0 1 1:0.975 13:3 14:1 15:0.85 16:23 21:5 22:3 24:1 26:4 
0 1 1:1.125 13:5 14:1 15:1.725 16:24 21:4 22:6 
1 1 1:-0.125 13:1 14:1 15:-0.125 16:13 21:4 22:2 23:1 
0.54007147216948 1 1:0.8 2:0.11111111 5:1 13:1 15:0.8 16:12 18:1 22:2 23:1 26:1 
0 0.3967231522292487 1:0.85 13:5 15:1.85 16:18 21:5 22:1 23:3 26:1 
0.7452709434641139 1 1:0.075 10:1 13:4 14:1 15:0.95 16:26 21:3 22:3 23:6 26:3 
0 1 1:0.125 13:3 14:2 15:-0.125 16:29 19:5 21:5 22:6 23:3 26:2 
1 1 1:-0.6 13:2 14:1 15:0.4 16:24 21:6 22:1 23:2 24:1 26:2 
1 1 1:0.975 13:3 15:0.975 16:21 20:2 21:6 22:4 23:6 
0 1 1:1.1 13:2 15:1.1 16:16 21:2 22:1 23:2 24:1 
0 1 1:1.45 2:0.090909091 5:1 13:3 15:1.45 16:21 21:1 22:5 26:3 
0 1 1:1.2 2:0.083333333 5:1 13:3 15:1.325 16:18 21:2 22:3 23:1 26:1 
1 1 1:-0.65 12:1 13:4 14:2 15:0.075 16:23 19:1 21:4 22:2 23:4 
1 1 1:0.725 13:3 15:1.1 16:24 21:7 22:3 23:4 26:7 
0 1 1:1.325 2:0.058823529 5:1 13:4 14:1 15:1.45 16:22 19:1 21:9 22:1 26:3 
1 1 1:-0.75 14:1 15:-0.75 16:18 21:4 22:1 26:1 
0.2256401601903878 0 1:0.825 12:1 13:5 14:1 15:2.025 16:25 19:1 21:6 22:4 23:5 26:1 
0 1 1:1.25 2:0.052631579 5:1 13:4 15:1.375 16:24 19:2 20:3 21:6 22:4 26:1 
1 1 1:-0.125 16:15 21:2 22:1 26:1 
1 1 1:0.8 13:7 14:1 15:0.8 16:25 21:2 22:7 23:2 26:2 
0.1780608618133944 0 1:0.05 2:0.066666667 5:1 12:1 13:4 14:3 15:0.65 16:23 19:1 21:5 22:2 23:1 24:1 26:1 
0.1467645956386956 1 1:0.4 2:0.090909091 5:1 13:1 15:0.4 16:18 18:1 21:5 22:1 
0 1 1:1.175 13:4 15:1.3 16:23 21:4 22:2 23:2 26:3 
1 1 1:0.2 2:0.2 5:1 13:1 14:1 15:0.2 16:18 21:5 22:1 26:1 
0 1 1:0.6 13:1 15:0.6 16:10 22:2 
0 1 1:-0.15 13:1 15:0.6 16:8 21:1 22:2 
0 1 1:1.075 2:0.11111111 5:1 13:3 15:1.8 16:27 19:2 20:2 21:6 22:4 26:1 
0 1 1:1.125 13:3 15:1.125 16:20 21:3 22:2 23:2 26:1 
0 1 1:0.4 13:1 15:0.4 16:24 19:3 21:8 22:3 23:4 26:1 
0 1 1:0.575 13:4 14:2 15:1.325 16:22 21:2 22:3 24:1 26:1 
0.4151240888806415 1 1:0.9 13:1 15:0.4 16:24 21:1 23:5 26:2 
1 0 1:0.25 2:0.058823529 5:1 12:1 13:3 14:1 15:0.875 16:17 19:1 21:1 22:3 23:4 26:1 
0.2757120552231359 1 1:0.3 13:3 15:0.925 16:28 18:3 21:1 22:3 23:2 26:1 
0.656141784398627 0.2863322649201325 1:2.225 12:1 13:9 15:4.025 16:27 21:4 22:9 23:1 26:4 
0 1 1:0.6 2:0.22222222 5:1 13:2 15:1.2 16:13 21:2 24:2 26:1 
0 1 1:1.375 2:0.066666667 5:1 13:3 14:1 15:1.5 16:19 21:5 22:2 23:1 26:4 
0 1 1:0.275 13:1 15:0.4 16:12 21:2 26:1 
0.4310137383569032 0 1:-0.025 2:0.090909091 5:1 13:5 14:3 15:0.725 16:28 19:2 21:4 22:3 23:3 24:1 26:3 
0 1 1:-0.7 13:2 14:1 15:0.05 16:22 19:3 21:4 22:1 24:1 26:2 
1 1 1:-0.825 12:1 13:4 14:1 15:0.775 16:17 21:2 22:2 23:2 24:1 26:4 
0.6832004398226221 0 1:0.375 12:2 13:4 14:1 15:1.35 16:27 19:2 21:7 22:4 23:5 24:1 26:3 
0.7277911540425255 1 1:-0.175 13:1 14:1 15:-0.175 16:23 18:1 19:2 21:4 22:3 23:4 24:1 26:1 
1 1 1:-0.525 2:0.066666667 5:1 12:1 13:2 14:1 15:-0.275 16:21 21:2 22:3 23:1 26:1 
1 1 1:1.225 2:0.08 5:1 13:4 15:1.35 16:21 21:5 22:5 23:1 25:1 26:5 
0 1 1:0.575 13:3 15:0.575 16:21 19:1 21:6 22:1 23:4 26:2 
1 1 1:-0.125 2:0.1 5:1 16:16 21:4 26:2 
1 0 1:-0.625 12:1 13:1 14:2 15:-0.025 16:16 19:2 21:1 22:2 23:3 26:1 
1 1 1:0.125 13:2 15:0.25 16:25 21:3 22:3 26:3 
0.3686956590720861 0 1:1.125 2:0.041666667 3:1 4:1 5:1 13:8 14:2 15:2 16:30 19:3 21:4 22:5 23:4 26:3 
0 1 2:0.071428571 5:1 13:3 14:1 15:0.125 16:20 19:2 21:3 22:3 23:1 26:3 
0 1 1:0.625 13:2 15:0.625 16:15 21:1 22:2 
0 1 1:0.975 2:0.1875 5:1 13:3 15:0.975 16:20 19:2 21:5 22:1 26:4 
1 1 1:-0.975 12:1 14:4 15:-1.225 16:16 18:1 21:4 22:1 
1 1 1:0.225 13:3 14:2 15:0.225 16:26 21:3 22:5 23:3 26:1 
0 1 1:-0.25 2:0.2 5:1 13:2 14:1 15:-0.125 16:14 19:4 22:3 26:2 
0 1 1:1.375 2:0.13333333 5:1 13:4 14:1 15:1.375 16:15 21:5 22:3 23:3 26:2 
0 1 1:0.125 2:0.058823529 5:1 13:2 15:0.875 16:20 19:1 21:4 22:4 23:3 25:1 26:2 
0 1 1:0.65 2:0.52631579 5:1 13:2 14:1 15:0.65 16:21 19:2 21:4 22:2 23:2 26:6 
0 1 1:1.125 2:0.071428571 5:1 13:3 15:1.25 16:19 19:1 21:4 22:2 26:5 
1 1 1:0.75 2:0.066666667 5:1 13:3 14:1 15:1.35 16:22 21:1 22:6 23:3 
0 1 1:0.4 13:1 15:0.4 16:18 21:4 22:3 26:1 
1 1 1:-0.925 13:2 14:1 15:-0.175 16:21 22:6 
0.8862087681238126 1 1:0.15 2:0.055555556 5:1 13:1 14:1 15:0.15 16:22 19:2 21:8 22:3 23:1 
0 1 1:0.825 2:0.090909091 5:1 13:2 14:1 15:0.7 16:21 19:1 21:2 22:1 23:1 24:1 26:1 
0 1 1:0.975 2:0.2 5:1 13:3 15:0.975 16:22 21:7 22:2 26:3 
1 0 1:1.65 12:1 13:4 15:2.25 16:24 21:1 22:5 23:4 24:1 26:3 
0.4453470063768838 1 1:-0.5 2:0.11111111 5:1 16:32 18:1 19:3 21:2 22:5 23:3 
0 0.2506458214387904 1:1.275 2:0.46666667 3:1 5:1 13:3 14:1 15:1.275 16:18 21:3 22:2 23:4 26:1 
1 1 1:0.525 13:3 14:2 15:0.525 16:23 21:5 22:3 24:1 
1 1 1:0.55 13:3 14:2 15:0.425 16:22 21:4 22:4 23:1 24:1 26:1 
0.4157597477566938 1 1:0.575 2:0.035714286 5:1 13:4 14:1 15:1.325 16:26 21:8 22:8 23:3 26:2 
0.09875556575292192 1 1:0.1 13:1 14:1 15:0.1 16:8 21:3 22:1 24:1 26:2 
1 1 1:-0.3 12:1 13:3 14:3 15:0.425 16:25 21:4 22:3 23:4 24:1 
0 1 1:1.65 2:0.125 5:1 13:4 15:1.65 16:20 21:5 22:3 26:3 
0 1 1:0.675 13:3 14:2 15:0.675 16:27 21:4 22:3 23:4 26:2 
0 1 1:2.1 13:7 15:2.225 16:26 21:5 22:3 23:3 26:6 
0 1 1:0.475 2:0.22222222 5:1 13:1 15:0.6 16:15 21:1 22:2 23:1 26:1 
0.1177513532867852 0.7461379333209937 1:0.875 2:0.0625 5:1 13:3 15:0.875 16:22 17:1 19:6 21:3 22:1 26:6 
0 1 1:0.25 16:7 21:1 23:1 26:1 
0 1 1:1.1 2:0.066666667 5:1 13:3 15:1.225 16:22 21:4 22:1 23:1 26:3 
1 1 1:-0.425 2:0.14285714 5:1 13:1 14:1 15:-0.3 16:22 19:1 21:4 22:6 23:3 25:1 26:1 
0 1 1:1.55 13:8 15:1.675 16:26 21:3 22:5 23:5 26:2 
0 1 1:0.6 2:0.25 5:1 13:1 15:0.6 16:20 21:2 22:1 23:1 
1 1 1:0.1 2:0.125 5:1 13:3 14:1 15:0.1 16:19 21:5 22:3 25:1 26:3 
0 1 1:0.975 13:4 15:1.1 16:16 19:1 21:3 22:1 26:1 
0 1 1:1 13:2 15:1 16:13 21:2 22:4 23:2 26:1 
0 1 1:0.6 2:0.083333333 5:1 13:1 15:0.6 16:19 21:3 26:1 
1 1 1:-0.025 2:0.14285714 3:1 5:1 13:1 14:1 15:0.1 16:27 21:3 22:5 23:3 
1 1 2:0.26666667 5:1 16:20 21:4 22:2 23:1 26:1 
0 1 1:0.475 2:0.066666667 5:1 13:1 15:0.6 16:21 21:3 22:1 23:2 26:2 
0.5190892456731981 1 1:0.8 2:0.055555556 3:1 4:1 5:1 13:3 14:2 15:1.35 16:24 17:1 19:11 21:3 22:1 23:2 
1 1 1:0.825 13:3 14:1 15:1.075 16:25 21:4 22:6 23:8 26:2 
1 1 1:-0.2 2:0.071428571 5:1 12:1 13:2 15:0.775 16:17 21:6 22:1 23:3 26:1 
0 1 1:0.8 13:3 14:1 15:1.05 16:17 21:4 22:3 23:2 26:1 
0 1 1:1.4 2:0.083333333 5:1 13:2 15:1.4 16:18 21:5 26:3 
1 1 1:-0.2 13:1 14:1 15:-0.2 16:18 18:1 19:1 21:2 22:4 26:2 
0.9528251998328512 1 1:0.65 13:2 15:0.65 16:25 21:9 22:2 23:4 26:1 
1 1 1:0.675 12:1 13:4 14:2 15:0.8 16:27 21:7 22:7 23:2 
0 1 1:0.375 12:1 13:4 15:1.1 16:27 21:5 22:2 23:4 26:4 
1 1 1:1.35 2:0.125 5:1 13:4 14:1 15:1.35 16:25 21:2 22:5 23:2 26:2 
1 1 1:-0.5 2:0.14285714 5:1 13:1 14:1 15:-0.25 16:24 19:1 20:2 21:1 22:6 26:2 
0 1 1:1.05 2:0.076923077 5:1 13:3 15:1.05 16:17 21:2 22:2 
1 0.5470388019118071 1:0.625 12:1 13:3 15:1.225 16:16 21:3 22:3 23:3 26:3 
1 1 1:1.25 13:5 14:2 15:0.75 16:27 21:4 22:6 23:3 26:4 
0 1 1:0.475 13:3 14:1 15:1.2 16:15 21:5 22:2 23:1 
0 1 1:0.975 2:0.076923077 5:1 13:3 15:0.975 16:20 21:3 22:3 23:3 26:1 
1 1 1:-0.375 12:1 16:16 18:2 19:1 21:5 22:1 23:1 
0 1 1:1.025 2:0.15 4:1 5:1 13:2 14:1 15:1.15 16:22 21:5 22:2 23:6 26:3 
0 1 1:0.475 13:3 14:1 15:0.6 16:19 19:2 21:2 22:1 24:1 26:1 
0 1 1:1.325 13:4 15:1.325 16:17 19:1 21:7 22:1 26:2 
1 1 1:-0.2 12:1 13:2 14:1 15:0.4 16:20 21:1 22:8 23:2 26:1 
0 1 1:-0.1 12:1 13:1 15:0.5 16:10 21:3 22:3 23:1 
0 1 1:0.375 13:3 14:2 15:0.5 16:14 21:2 22:1 24:1 26:2 
1 1 1:0.725 2:0.14285714 5:1 13:2 15:0.725 16:19 18:2 21:2 22:4 26:1 
1 1 1:-0.525 2:0.066666667 5:1 12:1 13:1 14:1 15:0.075 16:18 19:1 21:1 22:2 23:2 24:1 26:1 
0 1 1:0.4 2:0.23076923 5:1 13:1 15:0.4 16:18 19:3 21:1 26:1 
1 1 1:-0.4 14:1 15:-0.4 16:23 21:5 22:4 23:3 26:2 
1 0 1:1.05 12:1 13:5 14:1 15:1.65 16:18 21:5 22:3 23:4 26:1 
0 1 1:1.125 13:3 15:1.125 16:18 21:5 22:1 23:4 26:1 
0 1 1:1.25 13:3 15:1.25 16:21 21:8 22:2 23:3 26:2 
0.267531557746625 1 12:1 13:1 15:0.6 16:19 18:2 19:2 21:1 22:5 23:1 
0 1 1:0.6 13:1 15:0.6 16:18 21:3 22:2 26:4 
1 1 16:15 18:2 21:4 22:1 23:3 
1 1 1:-0.3 2:0.083333333 5:1 13:2 14:2 15:-0.3 16:16 21:4 22:2 26:2 
0 1 1:0.975 13:3 15:0.975 16:21 21:5 22:4 23:1 26:3 
1 1 1:-0.425 12:1 13:2 14:2 15:-0.175 16:13 19:1 21:4 22:1 23:3 
1 1 1:0.25 2:0.11111111 5:1 13:2 15:0.25 16:16 21:4 22:2 26:1 
0 0.6006201738539556 1:1.375 2:0.2 3:2 5:1 13:5 15:1.5 16:24 19:1 21:7 22:1 23:1 26:2 
1 1 1:0.725 2:0.047619048 5:1 13:3 14:1 15:0.85 16:22 21:9 22:3 23:2 26:3 
1 1 1:-0.725 2:0.076923077 5:1 12:1 13:2 15:0.625 16:22 18:1 19:1 21:4 22:3 23:1 
0 1 1:1.05 13:3 15:1.05 16:17 19:1 21:3 22:2 
0 1 1:0.475 13:1 15:0.6 16:8 21:2 26:2 
0.252180966028432 1 1:1.35 13:4 14:1 15:1.475 16:27 21:6 22:7 23:9 26:2 
1 0 1:0.125 12:2 13:5 14:2 15:2.1 16:29 18:1 19:2 21:4 22:5 23:1 24:1 26:1 
0.6279966007138449 1 1:1.575 13:3 14:1 15:1.2 16:18 18:1 21:3 22:6 23:5 26:2 
0 1 16:10 20:2 21:2 22:2 26:1 
0 1 1:0.15 2:0.066666667 5:1 13:1 14:1 15:0.4 16:22 17:1 19:2 21:5 22:3 26:2 
0 1 1:0.475 13:3 15:1.35 16:25 18:1 21:6 22:3 26:2 
0 1 1:0.475 13:3 15:1.45 16:25 21:6 22:4 23:3 26:2 
0 1 1:0.975 2:0.090909091 5:1 13:2 15:1.35 16:19 21:2 22:4 26:1 
0 1 1:1 2:0.058823529 5:1 13:2 15:1 16:20 18:1 21:3 22:3 26:1 
0 1 1:1.225 13:3 15:1.225 16:21 19:3 21:9 22:2 26:2 
0.1517227258037051 1 1:-0.125 14:1 15:-0.125 16:6 21:1 22:1 23:1 
1 0.7657439005649972 1:-1.55 12:1 13:4 14:3 15:0.05 16:14 21:3 22:3 23:1 26:5 
1 1 1:-0.975 2:0.0625 5:1 12:1 13:3 14:2 15:-0.375 16:20 19:1 21:4 22:2 23:1 24:1 26:2 
0 1 1:1.3 2:0.10526316 5:1 13:6 15:2.025 16:26 21:4 22:4 25:1 26:3 
0 1 1:0.4 2:0.27272727 5:1 13:1 15:0.4 16:16 21:1 26:1 
0 1 1:0.925 2:0.076923077 5:1 13:3 14:1 15:0.925 16:23 21:2 22:2 23:3 26:2 
0 1 16:11 21:1 22:2 23:1 
1 1 1:-1.9 12:1 13:2 14:2 15:-0.3 16:26 21:3 22:5 23:1 26:1 
1 1 1:-0.9 2:0.10526316 5:1 12:2 13:1 14:2 15:-0.175 16:24 18:1 19:1 21:6 22:4 23:2 
1 1 1:0.075 13:1 14:1 15:0.075 16:13 21:2 22:1 23:1 26:2 
0 1 1:0.85 13:2 15:0.85 16:6 21:2 22:1 26:2 
0 1 1:2.125 2:0.071428571 5:1 13:4 15:2.125 16:21 18:1 21:5 22:4 
0 1 1:1.65 2:0.0625 5:1 13:5 15:1.15 16:22 20:2 21:7 22:2 26:4 
1 1 1:-0.525 13:2 14:1 15:0.225 16:23 21:6 22:2 23:2 26:2 
1 1 1:-0.85 10:1 13:1 14:2 15:-0.6 16:23 19:2 21:3 22:4 23:1 26:1 
1 1 1:0.2 13:1 14:1 15:0.2 16:13 21:4 26:2 
0 1 1:1.65 13:5 15:1.15 16:20 20:2 21:7 22:2 26:4 
0.3852256145855901 1 1:-0.375 2:0.19047619 3:1 5:1 13:1 14:1 15:-0.375 16:23 17:1 19:3 21:7 22:2 23:5 24:1 26:1 
0 1 1:0.85 13:2 15:0.85 16:14 21:3 22:2 23:4 26:2 
0 0.9224972810282738 1:1.3 13:4 14:1 15:1.3 16:20 19:1 21:2 22:4 24:1 
0 1 1:0.5 13:3 15:0.625 16:25 21:5 22:2 26:1 
0 1 1:0.6 13:1 15:0.6 16:20 21:6 22:4 23:3 26:2 
0 0.6124579770486092 1:0.2 13:3 14:1 15:0.95 16:16 21:4 22:2 23:3 26:2 
1 1 1:-0.8 14:2 15:-0.8 16:8 21:2 22:1 26:1 
0 1 1:0.075 2:0.125 5:1 13:3 14:2 15:0.325 16:23 19:2 21:4 22:4 23:2 
1 1 1:-0.5 2:0.090909091 5:1 13:4 14:4 15:-1 16:25 19:1 21:7 22:4 23:3 26:3 
1 1 1:-0.5 12:1 13:3 15:0.975 16:26 21:4 22:7 23:7 26:1 
0 1 1:0.35 13:1 15:0.6 16:14 21:2 23:2 
0 0.7999124663531552 1:0.175 12:1 13:3 14:1 15:0.775 16:25 17:2 19:6 21:7 22:3 23:3 
0 1 1:1 2:0.15384615 5:1 12:1 13:5 14:1 15:1.6 16:21 21:3 22:3 23:1 24:1 26:1 
0.148550690639614 1 1:0.675 13:5 14:1 15:1.525 16:15 22:6 23:1 26:1 
1 1 1:-0.3 12:1 13:1 14:1 15:0.3 16:11 21:2 22:3 23:1 
0 1 16:7 19:1 21:1 22:2 
0 1 1:1.65 2:0.076923077 5:1 13:3 15:1.65 16:13 21:2 22:1 23:4 26:3 
0 1 1:1.15 2:0.26666667 3:1 5:1 13:3 14:1 15:1.15 16:18 21:2 22:2 23:2 26:1 
0 1 1:1.225 2:0.058823529 5:1 13:3 15:1.225 16:17 21:4 22:3 23:3 
0 1 1:1.9 2:0.043478261 5:1 13:5 15:2.5 16:23 18:1 19:2 21:5 22:4 23:6 
1 1 1:0.075 13:4 14:1 15:0.95 16:26 20:2 21:3 22:6 26:1 
1 1 1:-0.45 2:0.0625 5:1 12:1 13:1 14:1 15:0.4 16:19 21:3 22:4 23:3 24:1 26:1 
0 1 1:0.725 2:0.1 5:1 13:2 15:0.725 16:16 19:2 21:2 22:1 23:1 26:1 
1 1 1:0.075 2:0.125 5:1 12:1 13:3 14:1 15:0.8 16:19 18:1 19:1 21:3 22:4 23:1 
0.8958649053511026 1 1:0.25 13:2 15:0.625 16:24 18:1 21:3 22:2 23:5 26:3 
1 1 1:-0.275 2:0.076923077 5:1 13:4 14:3 15:0.475 16:18 18:2 21:2 22:3 23:1 26:3 
0 1 1:1 13:2 15:1 16:11 19:1 21:4 23:2 26:2 
0 0.7375578510437254 1:0.475 2:0.055555556 3:1 5:1 13:4 14:1 15:0.975 16:23 19:1 21:4 22:2 23:4 26:3 
1 1 1:0.175 2:0.04 3:1 5:1 13:4 14:2 15:0.925 16:25 21:8 22:6 23:8 26:1 
1 1 1:-0.2 2:0.058823529 5:1 13:1 14:1 15:-0.2 16:18 17:1 19:2 21:7 23:3 26:1 
0.1520360717923442 0 1:2.25 13:4 15:2.25 16:12 19:1 21:5 23:1 26:2 
1 1 1:-0.25 2:0.055555556 5:1 12:1 13:6 14:2 15:1.45 16:23 21:6 22:6 23:2 26:1 
0.8491592652800649 0 1:0.95 13:4 14:2 15:0.95 16:19 21:5 22:3 23:2 26:3 
0 1 1:0.6 13:1 15:0.6 16:16 21:3 22:2 23:1 26:1 
0 1 1:0.675 13:3 14:1 15:0.925 16:19 19:1 21:5 22:4 23:1 
0 1 1:0.5 13:2 14:1 15:0.5 16:24 19:2 21:4 22:4 23:5 26:1 
0.2014689099911885 1 1:0.5 2:0.0625 5:1 12:1 13:3 15:1.6 16:21 19:1 21:5 22:5 23:2 
0.8831508923228771 1 1:-0.125 16:8 21:1 
0 0.1777158242820315 1:2.5 2:0.090909091 5:1 13:4 15:2.5 16:20 21:3 22:1 26:2 
1 1 1:-1.125 2:0.33333333 5:1 12:1 14:1 15:-0.4 16:21 21:1 22:2 23:1 
1 1 1:0.85 2:0.05 5:1 13:6 14:2 15:1.45 16:24 21:4 22:7 23:3 24:1 
0 0.3574001235738825 1:0.125 2:0.63636364 3:1 5:1 13:1 15:0.125 16:11 17:1 19:3 21:5 23:3 26:1 
1 0.9909811060321031 1:-0.4 12:2 13:5 14:2 15:0.7 16:18 20:2 21:4 22:4 23:1 24:1 26:1 
1 1 1:-0.05 12:2 13:3 14:1 15:0.55 16:27 19:2 21:8 22:6 23:3 24:1 26:5 
1 1 1:-0.375 13:3 14:3 15:0.225 16:18 21:5 22:4 23:3 26:1 
1 1 16:16 21:2 22:1 23:1 25:1 26:3 
0 0.3153155620304648 1:1.45 2:0.05 5:1 13:5 14:2 15:2.05 16:24 18:2 21:3 22:4 26:2 
0.5822682624475842 1 1:0.275 2:0.05 5:1 12:1 13:1 14:1 15:0.4 16:31 19:2 21:7 22:4 23:1 26:1 
1 1 1:-1.3 12:1 13:2 14:1 15:0.3 16:21 19:1 21:5 22:2 23:2 26:2 
1 1 1:0.5 13:2 14:1 15:0.5 16:22 18:5 21:1 22:4 23:3 26:1 
0.00318149742776256 0 1:1.45 13:5 15:2.05 16:20 19:6 21:6 22:3 23:1 26:4 
1 1 1:0.525 2:0.076923077 5:1 13:2 15:0.525 16:16 21:7 22:1 23:1 24:1 
0.7921461897652358 1 1:0.9 13:2 14:1 15:0.65 16:19 21:8 22:2 
0 1 1:0.725 13:2 14:1 15:0.725 16:12 21:4 22:2 23:3 
1 1 1:0.8 13:3 14:2 15:0.8 16:19 21:6 22:3 23:3 26:1 
1 1 1:-0.6 12:1 13:3 14:1 15:1 16:19 21:1 22:5 23:2 24:1 26:2 
0 1 1:1.2 13:2 15:1.2 16:15 21:3 22:1 23:1 26:1 
0 1 1:0.375 13:2 15:0.375 16:22 21:4 22:2 23:3 26:3 
1 1 1:0.125 2:0.083333333 5:1 13:2 14:2 15:0.25 16:18 21:4 22:2 23:2 24:1 
1 1 1:-0.875 16:15 17:1 21:2 22:1 23:4 
0 1 1:1.575 13:3 15:1.575 16:26 21:5 22:6 23:5 
0 1 1:-0.5 2:0.066666667 5:1 13:1 14:1 15:0.25 16:19 19:7 21:3 22:2 
1 1 1:-0.525 12:1 13:1 14:1 15:0.2 16:11 19:1 21:2 22:1 23:3 26:2 
0 1 1:1.35 13:3 15:1.6 16:18 21:1 22:1 23:1 26:1 
1 1 1:-0.425 2:0.045454545 5:1 12:3 13:2 14:1 15:0.175 16:25 19:2 21:7 22:2 23:4 26:4 
0.8358359041531657 1 1:0.35 2:0.0625 5:1 12:1 13:3 15:1.325 16:30 18:1 19:1 21:2 22:9 
0 0.019700870283122 1:0.525 13:3 14:1 15:1.025 16:27 21:9 23:4 24:1 26:2 
1 1 1:-0.125 2:0.052631579 5:1 13:2 15:0.625 16:27 18:2 21:4 22:4 23:1 26:1 
1 1 1:0.225 2:0.076923077 5:1 13:2 14:2 15:0.225 16:18 19:1 21:5 22:1 23:2 
0.6780827919260891 1 1:0.6 13:4 14:1 15:0.85 16:23 21:8 22:2 23:1 26:3 
0 1 16:13 17:1 19:1 21:3 23:5 26:1 
1 1 1:-0.125 13:2 15:0.625 16:15 21:2 22:2 23:1 26:3 
1 1 1:-0.25 2:0.052631579 5:1 16:28 21:2 22:1 23:4 26:5 
1 1 1:-0.9 13:2 14:4 15:-0.9 16:17 21:3 22:5 23:4 26:1 
1 1 1:-0.85 13:2 14:1 15:-0.1 16:25 21:4 22:5 23:3 26:1 
0.8078243916527543 1 1:1.45 13:6 14:4 15:1.325 16:20 21:1 22:5 23:3 24:1 26:4 
0.3458716945598318 1 1:0.9 13:3 15:1.025 16:19 18:1 21:6 22:1 23:2 26:6 
0 1 1:0.85 13:3 15:0.85 16:23 21:9 22:1 23:1 26:4 
1 1 13:1 14:1 16:16 21:3 22:3 23:2 26:1 
0 1 1:-0.125 2:0.14285714 5:1 14:1 15:-0.125 16:9 19:1 21:1 22:1 23:1 
0.2016043630712614 1 1:0.3 2:0.043478261 5:1 13:2 14:1 15:0.3 16:28 19:1 21:6 22:4 23:3 26:2 
0 1 1:-0.25 13:1 14:2 15:-0.125 16:22 19:4 21:5 22:8 23:1 26:2 
0.7348352274257993 0.8835953962141031 1:-1.625 14:2 15:-0.875 16:27 18:2 19:6 21:2 22:3 23:9 24:1 26:1 
1 1 1:-0.275 13:1 14:2 15:-0.275 16:20 21:3 22:3 23:4 
1 0.6858400811608503 1:0.625 12:1 13:8 14:4 15:1.35 16:26 21:2 22:5 23:5 24:1 25:1 26:3 
0.5366870398708887 1 1:0.125 2:0.1 5:1 13:1 15:0.125 16:14 19:2 20:2 22:4 
0 0.5857913297281738 1:1.7 13:4 14:1 15:1.7 16:29 19:1 21:8 22:3 23:10 26:2 
1 1 1:-1.675 12:2 13:5 14:4 15:1 16:29 21:6 22:7 23:4 26:2 
0 1 1:0.225 2:0.23529412 5:1 13:2 14:1 15:0.35 16:23 17:1 19:3 20:2 21:2 23:1 24:1 26:1 
1 1 1:0.175 13:4 14:2 15:0.175 16:22 21:8 22:2 23:1 26:3 
1 1 12:1 13:2 14:1 15:0.725 16:24 18:1 21:5 22:2 23:4 26:4 
0.8184707301757685 1 1:0.025 2:0.05 5:1 13:3 14:2 15:0.775 16:23 19:1 21:9 22:2 23:4 26:3 
0 1 1:0.25 2:0.0625 5:1 13:4 15:0.5 16:22 19:2 20:2 21:4 22:3 23:1 26:1 
0 1 1:0.275 13:4 14:2 15:1.125 16:29 19:1 21:5 22:7 26:3 
0 1 1:0.675 13:1 15:0.8 16:12 23:1 26:1 
0 1 1:0.25 13:2 15:0.375 16:21 21:2 22:2 26:1 
0 1 1:1.325 13:4 15:1.325 16:22 21:5 23:3 26:5 
1 1 1:-1.4 13:1 14:2 15:-0.65 16:20 18:1 21:5 22:3 
1 1 1:-1.175 2:0.125 5:1 13:1 14:2 15:-0.425 16:9 21:1 22:3 26:1 
0 1 16:17 19:1 21:2 22:3 
0 1 1:0.45 2:0.076923077 5:1 13:2 15:0.45 16:14 19:1 21:2 22:1 26:4 
1 1 1:-0.05 2:0.0625 3:1 5:1 12:1 13:4 15:0.95 16:17 19:1 21:3 23:1 26:1 
0 1 1:0.5 13:3 15:0.75 16:18 19:1 21:6 22:2 23:2 26:2 
0 1 1:0.825 2:0.076923077 5:1 13:4 14:1 15:1.425 16:20 21:7 22:2 26:2 
1 1 1:-0.4 13:2 14:1 15:-0.15 16:23 21:7 22:2 23:5 26:1 
0 1 1:1.2 13:3 15:1.45 16:25 19:1 21:1 22:2 26:4 
0 1 1:-0.75 2:0.14285714 5:1 16:11 19:1 22:3 
0 1 1:0.925 2:0.066666667 5:1 12:1 13:3 15:1.175 16:21 19:1 21:3 22:3 26:1 
0.1449902059313266 1 1:0.4 2:0.066666667 5:1 11:1 13:2 14:1 15:0.525 16:18 21:5 22:2 26:3 
0 1 1:2.05 2:0.076923077 5:1 13:5 15:2.05 16:19 19:1 21:3 22:1 26:4 
1 1 1:-0.625 2:0.076923077 5:1 12:1 13:1 14:4 15:-1.125 16:15 21:5 22:1 23:1 24:1 26:3 
0 1 1:0.75 2:0.0625 5:1 13:4 15:0.75 16:21 21:4 22:2 23:1 26:1 
0 1 1:0.975 13:7 14:1 15:2.425 16:27 21:7 22:7 26:2 
0 0.06745097034346741 1:0.75 2:0.13333333 5:1 12:1 13:5 15:2.8 16:22 21:3 22:6 23:2 
0.5085653358193101 0.2864073215576931 1:1.85 13:6 15:1.85 16:25 19:2 21:12 22:2 23:1 26:1 
1 1 1:0.625 2:0.076923077 5:1 13:4 15:1.125 16:21 21:6 22:1 23:1 26:1 
1 0.8512515130597974 1:0.425 12:1 13:3 14:3 15:0.175 16:24 18:3 19:1 21:3 22:4 23:1 26:2 
1 1 1:-0.675 2:0.076923077 5:1 13:1 14:2 15:-0.55 16:22 21:1 22:3 26:3 
0 1 1:0.85 13:3 14:2 15:0.85 16:19 19:1 21:2 22:5 23:4 24:1 
0 1 1:1.125 13:3 14:1 15:1.125 16:10 21:2 22:2 24:1 26:1 
1 1 1:-1.225 12:1 14:1 15:-0.5 16:13 21:1 22:4 23:1 
0 1 1:0.125 13:1 15:0.125 16:6 21:3 26:1 
0 1 2:0.1 5:1 16:14 17:1 19:1 21:4 23:2 26:1 
1 1 1:0.2 2:0.043478261 5:1 13:5 14:3 15:0.325 16:23 21:6 22:3 23:6 26:4 
1 1 1:0.125 13:1 15:0.125 16:12 20:2 21:3 22:2 23:3 26:1 
0 1 1:0.4 13:1 15:0.4 16:13 19:1 21:1 22:2 26:1 
0 1 1:0.125 13:3 15:0.375 16:26 21:8 23:2 26:2 
1 1 1:-1.225 12:1 13:1 15:0.125 16:10 21:1 22:3 23:1 
0 1 1:0.175 13:5 15:2.125 16:30 21:5 22:7 23:6 26:1 
0 1 1:-0.1 12:1 13:1 15:0.5 16:10 19:1 21:5 22:2 23:1 
0.4246930117903779 0.1098843497704805 1:1.1 13:4 14:3 15:1.1 16:20 19:1 21:9 23:3 24:1 26:3 
0 1 1:0.6 13:1 15:0.6 16:9 21:1 22:1 
0 1 1:1.825 13:4 15:1.825 16:27 17:1 18:1 19:1 21:6 22:7 26:2 
0 1 1:1.475 13:3 15:2.2 16:23 19:1 21:3 22:8 23:2 26:3 
0 1 1:0.25 2:0.125 5:1 13:3 15:0.375 16:22 19:1 20:2 21:3 22:3 23:1 26:1 
1 0 1:0.75 2:0.0625 5:1 12:2 13:4 15:1.725 16:23 19:1 21:2 22:4 23:2 26:1 
0 1 2:0.15384615 5:1 16:16 17:1 19:1 21:3 22:1 23:5 26:1 
0 1 1:1.6 2:0.11764706 5:1 13:5 14:2 15:1.725 16:21 21:5 22:2 24:1 26:3 
1 1 1:0.8 13:3 14:1 15:0.8 16:12 18:3 21:2 22:1 23:1 26:1 
0 1 1:0.5 2:0.055555556 5:1 13:3 15:0.5 16:19 21:3 22:2 23:3 26:4 
0 1 1:1.2 13:2 15:1.2 16:9 19:1 21:2 23:3 26:1 
1 1 1:-1.575 2:0.055555556 5:1 12:1 13:1 14:4 15:-0.975 16:24 19:3 21:7 22:3 23:2 26:1 
0 1 1:0.525 13:2 15:0.525 16:22 21:6 22:2 23:1 26:1 
1 1 1:-0.7 13:3 14:4 15:-1.475 16:25 18:1 19:1 20:4 21:5 22:5 23:2 24:1 26:1 
1 1 1:-0.4 13:1 14:1 15:-0.4 16:8 21:1 22:1 23:1 
0 1 1:1.425 13:5 15:1.425 16:16 21:2 22:5 26:1 
1 1 1:-0.725 12:1 13:1 15:0.25 16:12 21:2 22:1 23:3 
1 1 1:0.2 13:1 15:0.2 16:17 21:3 22:2 23:2 
0 1 1:-0.4 2:0.055555556 4:1 5:1 13:2 14:2 15:-0.275 16:23 19:6 21:5 22:3 26:4 
1 1 1:-3.05 13:5 14:6 15:-1.1 16:30 19:2 21:5 22:8 23:6 26:4 
1 1 1:-1.25 13:2 14:3 15:-0.5 16:26 21:5 22:3 23:7 26:1 
1 1 1:-0.125 13:2 14:2 16:20 21:6 22:1 26:2 
0.7680110527849399 0 1:1.2 12:1 13:6 15:2.65 16:29 19:1 21:6 22:6 23:6 26:1 
0 1 1:0.875 2:0.071428571 5:1 13:2 15:1 16:22 21:2 26:1 
0.5415765655175254 1 1:1.25 2:0.12 3:2 5:1 13:5 15:1.5 16:26 19:1 21:7 22:5 26:6 
0 1 1:0.625 13:2 14:1 15:0.875 16:18 21:1 22:2 23:1 26:2 
0 0.3822680360120179 1:1 2:0.16666667 5:1 13:2 15:1 16:25 19:4 21:8 22:1 
1 1 2:0.066666667 5:1 16:22 21:3 22:1 23:2 26:2 
0 1 1:-0.75 16:11 21:4 22:1 
0 1 1:0.5 2:0.10526316 5:1 13:5 15:0.875 16:20 21:5 22:4 25:2 26:3 
0 0.009481794707796089 1:0.425 2:0.045454545 5:1 13:5 14:3 15:1.025 16:29 17:1 19:4 20:2 21:2 22:8 23:1 
0 1 1:1.35 2:0.23076923 5:1 13:4 15:1.35 16:14 21:1 22:3 23:2 26:2 
0 1 1:0.675 13:1 15:0.8 16:21 21:7 23:3 26:2 
0 1 2:0.11111111 5:1 16:14 21:3 22:2 23:1 
1 1 1:-0.05 2:0.125 5:1 13:1 14:1 15:0.075 16:15 21:4 22:2 26:1 
