svm_type c_svc
kernel_type rbf
gamma 0.04
nr_class 3
total_sv 6133
rho -0.22604 -0.107468 0.343485
label 1 2 3
nr_sv 2340 1146 2647
SV
0 0.7581533195461062 1:-0.1 8:1 14:1 15:-0.5 18:3 20:2 21:2 
1 1 1:1 13:2 14:1 15:0.75 20:6 21:1 22:8 25:3 
0 1 1:0.875 2:0.045454545 5:1 8:1 13:2 15:0.725 17:2 18:1 20:4 21:6 22:2 25:1 
1 1 1:0.875 13:3 14:2 15:0.875 20:4 21:7 22:1 25:2 
1 1 1:-1.5 12:2 13:1 14:2 15:-0.4 18:3 19:2 20:7 21:4 22:2 25:2 
0 1 1:0.55 2:0.13333333 5:1 13:2 15:0.8 18:1 20:5 21:5 22:3 
0 1 1:0.575 2:0.076923077 5:1 13:3 14:2 15:0.825 16:1 20:2 21:2 22:3 23:1 25:2 
0 1 1:1.575 13:3 15:1.7 20:1 21:3 25:2 
0 1 1:0.075 2:0.5 3:1 5:1 13:1 15:0.2 18:2 20:3 21:1 22:1 23:1 
0.09259314214276425 0 1:0.45 8:1 10:1 13:4 14:2 15:0.3 17:1 18:5 20:4 21:5 
1 0.5998702064301469 1:-0.125 12:1 13:2 14:1 15:0.6 18:1 20:5 21:3 22:4 25:3 
0 1 1:0.075 2:0.071428571 5:1 13:1 14:1 15:0.075 16:1 18:3 20:2 21:3 22:1 
0 1 1:0.4 13:2 15:0.525 17:1 20:2 21:2 25:1 
1 1 1:0.4 13:3 14:2 15:0.525 20:8 21:2 22:3 25:1 
0 1 20:4 21:1 25:1 
0 1 1:0.975 2:0.14285714 5:1 13:3 15:1.1 18:1 20:2 21:2 22:1 24:1 25:1 
0 1 1:1.275 2:0.052631579 5:1 13:5 14:1 15:1.875 16:1 20:3 21:5 22:3 25:3 
0 1 1:-0.2 2:0.125 5:1 12:1 13:1 14:1 15:0.4 16:1 18:1 20:4 21:1 22:1 25:1 
0 1 1:0.75 2:0.11111111 5:1 13:3 14:1 15:1.35 17:1 18:2 20:2 21:5 22:5 23:1 25:1 
0 1 1:1.375 2:0.058823529 5:1 13:4 15:1.375 16:1 20:3 21:4 25:3 
0 1 1:1.175 8:1 13:2 15:0.9 18:3 20:10 21:2 23:1 
1 1 1:0.75 13:7 14:4 15:0.1 19:4 20:8 21:5 25:2 
0 1 1:0.6 2:0.125 3:1 5:1 13:2 15:0.6 20:2 21:3 
1 1 20:3 21:3 22:3 25:1 
0.8195080742610898 1 1:-0.95 2:0.076923077 5:1 12:1 13:1 14:1 15:-0.075 16:1 18:1 20:3 21:2 25:2 
1 1 1:-0.375 2:0.23076923 4:1 5:1 14:1 15:-0.375 16:2 18:1 20:6 21:2 
0 1 1:0.125 2:0.16666667 5:1 13:2 14:1 15:0.125 16:1 18:4 20:2 21:4 25:1 
1 1 1:-0.2 13:4 14:1 15:0.05 20:3 21:1 25:3 
1 1 1:-0.1 13:2 14:1 15:-0.1 20:3 22:1 
0 1 1:-0.75 2:0.15384615 5:1 16:1 18:1 20:1 21:2 22:1 
0 1 2:0.25 5:1 13:1 15:0.25 18:1 20:2 21:2 22:1 25:2 
1 1 1:-3.55 13:4 14:7 15:-2.8 20:8 21:5 22:1 23:1 25:4 
1 1 1:0.875 13:4 15:0.625 20:5 21:4 22:2 25:3 
1 1 1:-1.55 12:1 13:2 14:1 15:0.4 20:7 21:5 22:7 23:1 
1 1 1:0.4 2:0.16666667 3:1 4:1 5:1 13:2 14:1 15:0.65 17:1 20:3 21:4 22:2 
0 1 1:1.775 13:4 15:1.9 20:6 21:2 25:3 
1 1 1:0.875 12:1 13:2 14:2 15:0.75 20:5 21:3 22:1 23:1 25:1 
0 1 1:0.8 2:0.0625 5:1 13:4 14:1 15:0.675 16:1 18:1 20:3 22:4 25:5 
0 1 20:3 21:2 
0.2370486725939651 0 1:1.525 2:0.6 3:4 4:1 5:1 13:6 14:1 15:2.125 20:4 21:6 22:4 
1 1 1:-0.15 13:3 14:3 15:0.1 17:1 18:1 20:4 21:4 25:3 
1 1 1:-0.15 2:0.052631579 5:1 12:1 13:1 14:2 15:-0.15 16:1 18:1 20:3 21:2 22:4 
0 1 1:1.4 2:0.071428571 5:1 13:4 15:1.525 20:4 21:2 22:1 23:1 25:2 
0 1 1:1.95 2:0.125 5:1 13:4 15:1.95 18:1 20:11 21:4 25:3 
1 1 1:0.075 12:1 13:3 14:1 15:0.8 20:1 21:4 22:1 25:3 
1 1 1:-0.275 13:1 14:2 15:-0.15 17:1 20:4 21:3 22:3 25:1 
1 1 1:0.425 13:2 14:1 15:0.425 20:1 21:3 
0 1 1:1.65 13:3 15:1.4 17:1 20:3 21:5 22:4 23:1 25:1 
0 1 1:1.225 13:4 15:1.35 20:5 21:5 22:1 25:1 
1 1 1:0.8 2:0.13333333 3:1 5:1 13:2 14:1 15:0.8 16:1 17:2 20:5 21:3 25:2 
0 1 1:1.425 2:0.1 5:1 13:2 15:0.925 18:1 20:2 21:1 25:1 
0.9284516041389698 0 1:0.4 2:0.055555556 5:1 8:1 12:1 13:4 14:4 15:0.225 16:1 18:1 20:3 21:5 22:1 
1 1 1:1.375 13:5 14:2 15:1.375 20:3 21:10 22:2 25:2 
0 1 1:0.65 2:0.045454545 5:1 13:4 14:1 15:1.525 20:8 21:6 22:3 25:4 
0 1 1:0.975 2:0.090909091 5:1 13:2 15:0.975 16:1 20:4 25:1 
0 1 1:0.725 2:0.083333333 5:1 13:2 14:1 15:0.725 16:1 18:1 20:1 25:4 
1 1 1:0.6 13:2 14:1 15:0.6 20:4 21:4 22:1 
0 1 1:0.95 13:4 14:1 15:1.7 20:4 21:4 25:1 
0 1 1:0.5 2:0.13333333 5:1 13:1 15:0.5 16:1 18:2 20:5 21:1 22:1 25:1 
1 1 1:-0.075 2:0.076923077 5:1 13:1 14:1 15:-0.075 16:1 20:3 21:1 25:1 
1 1 1:0.225 13:3 14:1 15:0.475 20:4 21:3 22:3 
0 1 1:1.625 2:0.05 5:1 13:6 15:1.875 16:1 20:4 21:3 22:4 25:5 
1 1 1:-0.1 12:1 13:5 14:3 15:1.25 20:6 21:6 22:1 
0 0.6035921833309881 1:0.45 8:1 13:3 14:1 15:0.8 20:4 21:3 22:5 23:1 25:3 
0.8473521756472171 0.336412714405498 1:0.275 8:1 13:1 14:2 15:-0.125 20:1 21:1 22:2 25:2 
0.3259163464392538 0.9206543758220287 1:0.975 13:6 14:4 15:1.6 20:10 21:3 22:3 23:2 25:3 
1 1 1:0.3 13:2 14:1 15:0.3 20:6 21:4 24:1 25:1 
0 1 1:0.65 2:0.083333333 5:1 13:2 15:0.775 16:1 20:2 21:1 22:1 25:1 
1 1 1:0.325 2:0.05 3:1 5:1 13:3 14:1 15:0.325 20:8 22:4 25:2 
1 1 1:-0.1 13:2 14:1 15:0.025 20:4 21:2 25:4 
1 1 1:-0.425 2:0.055555556 5:1 13:2 14:1 15:0.325 20:4 21:3 22:4 23:1 25:3 
0 1 1:0.6 2:0.14285714 5:1 13:1 15:0.6 18:1 20:3 21:1 25:1 
0.8549526549567943 1 1:1.325 2:0.047619048 5:1 12:1 13:4 14:1 15:2.175 17:1 20:7 21:5 22:6 25:2 
1 1 1:-5.5511151e-17 13:3 14:1 15:0.125 20:4 
0 1 1:-0.125 2:0.076923077 5:1 13:2 14:3 15:-0.125 16:1 18:2 20:1 21:2 22:1 25:1 
0.8129699327156318 0.9433335994480094 1:0.175 8:1 12:1 13:8 14:3 15:0.25 17:1 18:1 20:10 21:4 22:11 25:1 
1 1 1:-0.375 12:1 13:3 14:3 15:-0.375 20:7 21:5 22:9 25:4 
0 1 1:0.8 2:0.11764706 5:1 13:2 15:0.925 16:1 20:3 22:7 25:2 
1 1 1:0.575 13:3 14:2 15:0.575 17:1 20:6 21:3 22:3 25:1 
0 0.2368027139884519 1:0.625 6:1 12:1 13:3 15:1.325 18:2 20:4 21:4 22:4 
1 1 1:0.225 2:0.14285714 5:1 13:3 14:2 15:0.475 16:1 20:5 21:1 25:5 
1 1 1:-1.525 13:3 14:4 15:-0.65 20:4 21:3 22:2 23:1 25:1 
0 1 1:1 2:0.076923077 5:1 13:2 15:1 16:1 20:1 21:4 22:4 25:1 
1 1 1:0.625 13:2 14:1 15:0.625 20:10 21:1 22:4 25:2 
1 1 1:-1.525 13:1 14:2 15:-1.275 17:1 20:4 21:4 22:4 
0 1 1:0.975 13:2 15:1.1 20:5 21:2 22:1 25:1 
1 1 1:0.2 13:1 14:1 15:0.2 20:5 21:5 22:2 
1 1 1:-0.55 13:2 14:1 15:0.2 20:2 21:1 25:2 
1 1 1:-0.75 13:1 14:1 15:-0.75 18:1 20:3 22:1 
0 1 1:0.4 2:0.1 5:1 13:1 15:0.4 20:4 21:1 
0 1 1:0.6 13:1 15:0.6 20:6 22:3 25:2 
0 1 1:1.325 13:3 15:1.325 20:2 21:4 
1 1 1:0.925 13:5 14:1 15:1.675 20:1 21:6 25:2 
1 1 1:1.275 13:6 14:1 15:1.275 20:4 21:6 25:3 
0 1 1:0.8 13:1 15:0.8 20:3 21:1 23:1 25:1 
0.2478120056786576 0.78976735382055 1:0.65 12:1 13:5 15:1.85 18:4 20:5 21:10 22:5 23:1 25:1 
0 1 1:0.775 2:0.11111111 5:1 13:4 15:0.9 16:1 20:2 21:2 25:4 
0 1 1:0.85 13:3 15:0.975 20:5 22:3 25:2 
0 1 1:1.25 13:3 15:1.375 20:1 21:3 22:1 25:1 
1 1 1:-0.85 2:0.055555556 5:1 12:1 14:4 15:-1.1 16:1 20:6 21:1 25:2 
0 1 1:1.025 13:4 14:2 15:1.15 17:1 20:3 21:4 22:3 23:1 25:1 
1 1 1:0.1 13:1 14:1 15:0.1 20:5 21:2 22:2 
0 1 1:0.3 13:2 14:1 15:0.3 18:1 20:4 21:3 22:4 25:1 
1 1 1:-0.125 13:1 14:2 15:-0.125 20:6 21:2 22:1 23:1 25:2 
0 1 1:0.325 2:0.052631579 5:1 12:1 13:3 15:1.05 16:1 20:2 21:2 22:4 25:3 
0 1 1:0.6 2:0.071428571 5:1 13:3 14:1 15:0.6 18:1 20:5 21:1 22:1 25:2 
0 1 1:1 13:3 15:1.6 20:2 21:2 22:3 
1 1 1:0.6 2:0.14285714 5:1 13:1 15:0.6 16:1 17:2 20:4 21:3 25:1 
0.0519240538894619 0.6835861977849969 1:1.45 13:4 14:1 15:1.45 20:3 21:4 22:6 25:5 
1 1 1:0.55 12:1 13:3 14:3 15:0.8 17:2 18:1 20:6 21:3 
0 1 18:1 20:4 21:3 
0 1 1:0.95 2:0.095238095 5:1 13:2 15:0.95 20:7 22:5 25:4 
1 1 1:-0.875 21:2 
0 1 1:-0.125 18:1 20:3 21:1 25:2 
1 1 1:0.025 12:1 13:2 15:0.625 20:1 21:3 22:1 25:3 
0 1 1:1.725 2:0.058823529 5:1 13:4 15:1.725 16:1 20:5 21:2 22:4 25:2 
0 1 1:1.05 13:4 15:1.05 20:2 21:2 22:1 25:2 
0 1 1:1.1 13:2 15:1.1 18:3 20:9 25:4 
1 1 1:-1.35 12:1 13:1 14:1 20:2 21:4 22:2 
1 1 1:0.075 12:1 13:1 15:0.8 20:4 21:3 22:1 
1 1 1:0.475 13:1 15:0.6 17:3 20:1 25:1 
0 1 1:0.8 13:3 14:1 15:0.925 20:4 25:4 
1 1 1:-0.025 13:2 14:1 15:-0.025 17:1 18:1 20:4 21:2 25:2 
1 1 1:-1.3 2:0.083333333 5:1 13:1 14:3 15:-1.3 16:1 20:6 21:3 25:1 
1 1 1:-1.5 2:0.11111111 5:1 13:7 14:4 15:1.325 20:2 21:8 25:1 
0 1 13:2 14:1 15:0.75 17:1 18:1 20:5 21:3 22:5 25:1 
0 1 1:1.325 13:4 15:1.7 20:4 21:4 22:5 23:1 25:3 
0 1 1:0.65 2:0.076923077 5:1 13:3 15:0.65 16:1 20:2 21:2 22:1 25:2 
0 0.8031279710827922 1:0.675 13:4 14:4 15:0.625 17:1 18:2 20:6 21:9 22:3 23:1 25:3 
0 1 1:1.175 13:4 15:1.175 18:1 20:4 21:2 22:1 25:1 
0.0233660197834978 0 1:0.925 2:0.043478261 5:1 12:1 13:7 14:2 15:1.775 17:2 18:2 19:2 20:4 21:3 22:1 23:1 25:6 
1 1 1:0.125 2:0.066666667 5:1 13:1 15:0.125 16:1 20:4 21:3 22:3 25:2 
1 1 1:-0.2 13:3 14:1 15:0.8 17:1 20:2 21:3 22:1 23:1 25:3 
0.7744156689005608 1 1:0.25 13:1 15:0.25 18:1 20:3 21:5 25:2 
1 0 1:0.825 2:0.071428571 5:1 12:1 13:4 14:1 15:1.55 20:4 21:4 22:2 25:2 
0 1 1:1.65 13:3 15:1.4 17:1 20:3 21:5 22:4 23:1 25:1 
0 1 1:0.55 2:0.0625 5:1 13:4 15:1.55 16:1 17:1 18:3 20:3 21:2 25:2 
0 1 1:1.35 13:3 15:1.35 20:4 21:6 22:1 25:1 
0 1 1:0.85 2:0.11111111 5:1 13:2 15:0.85 16:1 18:1 20:3 21:1 25:3 
1 1 1:0.375 13:4 14:1 15:0.75 18:1 20:2 21:5 22:2 25:2 
1 1 1:-0.225 2:0.055555556 5:1 13:4 14:3 15:-0.225 18:2 20:4 21:4 22:1 23:1 25:1 
1 1 1:0.425 13:3 14:1 15:0.8 20:3 21:4 22:4 25:2 
0 1 1:1.425 13:5 14:1 15:1.425 20:3 21:3 22:1 25:5 
1 1 1:0.1 2:0.090909091 5:1 13:2 14:2 15:0.1 16:1 20:2 21:3 25:1 
0 1 1:0.6 13:1 15:0.6 20:5 25:1 
0 1 1:1.65 2:0.045454545 5:1 13:5 14:1 15:1.65 16:1 17:1 20:3 21:4 22:3 25:4 
0 1 1:0.4 13:1 15:0.4 18:1 20:3 21:3 25:1 
1 1 2:0.076923077 5:1 13:1 15:0.25 20:4 21:2 22:2 25:2 
0 1 1:0.1 6:1 7:1 13:2 15:0.5 20:4 22:3 25:4 
0 1 2:0.083333333 5:1 13:1 15:0.125 18:3 20:6 21:2 22:1 25:1 
0 1 18:1 20:5 21:2 
0 1 1:0.5 13:1 15:0.5 18:1 20:3 21:2 25:1 
0 1 1:0.475 2:0.083333333 5:1 13:1 15:0.6 16:1 20:1 23:1 24:1 25:2 
1 1 1:0.925 13:6 14:2 15:1.375 20:3 21:4 22:1 25:7 
1 0 1:-0.225 12:2 13:3 15:0.75 18:3 20:3 21:4 22:3 25:1 
0 1 1:0.975 2:0.2 5:1 13:3 15:0.975 16:1 20:7 21:2 25:3 
0 1 1:0.85 13:2 15:0.85 20:1 21:3 
0 1 1:-0.05 13:1 14:1 15:0.2 18:3 20:7 21:3 
1 1 1:0.675 13:2 14:1 15:0.675 20:4 21:3 22:5 
0 1 1:1.325 13:3 15:1.325 20:3 21:4 
0 1 1:0.85 13:2 15:0.975 20:3 22:1 23:1 25:2 
0.4204178211542992 1 1:1.275 13:4 14:1 15:1.275 20:4 21:4 22:7 25:1 
0 1 1:1.175 13:4 15:1.175 20:4 21:2 22:1 25:1 
1 1 1:0.125 13:3 14:1 15:0.125 17:1 20:3 21:4 22:1 25:1 
1 1 1:-0.1 13:1 14:1 15:-0.1 20:3 21:3 22:3 25:1 
1 1 1:-1.725 12:1 13:3 14:2 15:-0.25 20:4 21:5 22:3 25:2 
1 1 1:-0.675 2:0.11111111 3:1 5:1 12:2 13:3 14:4 15:-0.3 20:5 21:7 22:2 25:2 
0.2329234901947748 1 1:0.775 2:0.045454545 5:1 13:5 14:1 15:1.375 20:2 21:2 22:6 23:1 25:5 
0 1 1:1.5 13:3 15:1.625 20:9 21:3 24:1 25:1 
0 1 1:0.85 13:2 15:0.85 20:2 21:2 22:1 25:3 
1 1 1:-0.475 13:3 14:2 15:0.875 20:1 21:6 22:2 25:1 
0.6162416036062152 0 1:0.8 12:1 13:4 14:2 15:1.05 18:6 20:3 21:2 22:6 23:1 25:3 
1 1 20:5 22:1 25:1 
1 1 1:0.925 13:4 14:2 15:1.175 20:5 21:5 22:6 
1 1 1:0.525 13:2 15:0.525 17:1 20:3 21:2 22:3 
1 1 1:-0.3 13:1 14:2 15:-0.3 20:1 21:4 
1 1 1:-0.125 20:3 21:3 22:1 25:1 
0 1 1:-0.15 13:1 15:0.6 18:1 20:2 21:4 22:1 
1 1 1:0.55 12:1 13:3 14:1 15:1.15 17:2 20:3 21:3 22:1 25:2 
1 1 1:-0.3 13:1 14:2 15:-0.3 20:3 21:1 22:1 25:2 
0 1 1:0.125 13:1 15:0.125 17:1 18:1 20:2 21:4 22:2 
1 1 1:-0.25 12:1 13:1 14:1 19:2 20:2 21:8 22:1 25:2 
0 1 1:-0.3 13:2 15:0.45 18:1 20:6 21:2 25:1 
1 0 1:1.1 13:6 14:2 15:2.675 20:2 21:9 22:7 25:2 
0.3088185661292485 1 1:-0.375 13:2 15:0.75 20:4 25:1 
0 1 1:1.25 13:3 15:1.25 20:7 21:1 22:5 25:1 
0 1 1:0.85 13:2 15:0.85 20:6 21:2 25:2 
0 1 1:1.275 13:3 15:1.4 20:4 22:1 25:1 
0 1 1:0.65 13:2 15:0.65 20:4 21:1 22:1 25:2 
0.03983751749072675 0.24533217784916 1:3.25 2:0.038461538 5:1 13:9 15:3.5 17:1 18:2 20:3 21:4 22:5 25:5 
0 1 1:0.8 2:0.083333333 5:1 13:2 15:0.8 18:1 20:4 21:2 25:2 
0 1 1:1.175 2:0.14285714 5:1 13:4 15:1.175 16:1 18:1 20:2 21:5 
0.4135704218070022 0 1:1.8 12:2 13:5 14:1 15:2.65 18:1 20:4 21:1 22:10 25:4 
0.7940659728001053 1 1:-0.15 2:0.0625 5:1 13:1 15:0.6 20:7 21:3 22:2 25:2 
1 1 1:-0.025 13:1 14:2 15:-0.4 20:4 21:5 22:3 25:1 
0 1 1:0.4 2:0.083333333 5:1 13:1 15:0.4 18:3 20:5 21:2 25:1 
0 1 1:0.65 2:0.0625 5:1 13:2 15:0.65 16:1 20:5 21:1 25:1 
0 1 1:0.85 2:0.076923077 5:1 13:4 15:1.45 16:1 20:2 21:5 25:2 
0 1 1:0.4 2:0.083333333 5:1 13:2 14:1 15:0.4 16:1 20:4 21:1 
0 1 1:0.25 2:0.33333333 5:1 13:1 15:0.25 18:2 20:2 21:2 25:2 
0 1 1:0.875 13:2 15:1 20:2 25:1 
1 0.6948146821562767 1:-0.325 2:0.1875 3:2 4:2 5:1 10:1 12:1 13:4 14:4 15:-0.325 18:1 20:4 21:4 22:1 23:1 25:1 
1 1 1:-0.025 13:1 14:1 15:0.1 17:1 20:4 21:5 22:5 25:1 
1 1 1:0.325 13:4 14:2 15:0.575 20:3 22:1 24:1 25:7 
1 1 1:0.05 13:3 14:1 15:0.925 20:4 21:4 22:3 23:1 25:3 
0 1 1:0.525 13:4 14:1 15:1.275 20:4 21:4 22:1 25:1 
1 1 1:0.075 2:0.11111111 3:1 5:1 13:2 14:1 15:0.2 17:1 18:2 20:2 21:3 22:7 
0 1 1:-0.025 2:0.15384615 5:1 13:3 15:0.725 16:1 17:1 18:1 20:2 21:3 22:1 25:1 
0 1 1:-0.25 2:0.13333333 5:1 13:3 15:0.75 16:1 18:4 20:2 21:4 
0 1 1:0.4 13:2 14:1 15:1 20:6 21:3 22:1 25:2 
1 1 1:0.1 13:2 14:2 15:0.475 21:1 22:1 25:1 
0 1 1:0.125 13:2 14:1 15:0.375 18:2 20:3 21:2 22:2 25:6 
1 1 1:0.275 13:1 14:1 15:0.275 17:3 20:2 21:3 25:2 
0 1 1:0.6 13:1 15:0.6 20:1 21:1 25:1 
1 1 1:0.375 13:3 14:2 15:0.625 20:2 21:5 22:2 25:1 
1 1 1:0.15 13:3 14:1 15:0.15 20:7 21:5 25:2 
0 1 1:0.975 2:0.066666667 5:1 13:2 15:0.975 16:1 17:2 20:4 21:2 25:1 
1 1 1:-1 2:0.0625 5:1 14:3 15:-1 16:1 20:2 21:3 22:4 25:2 
0.563471496059777 1 1:-0.775 13:1 14:1 15:-0.275 18:2 20:2 21:2 22:3 25:2 
0 0.02438281582710097 1:0.525 13:3 14:1 15:1.275 18:2 19:2 20:5 21:3 25:1 
1 0.6539173787236647 1:-1.35 2:0.045454545 5:1 10:1 12:2 13:8 14:7 15:-0.75 17:1 19:4 20:4 21:9 22:2 23:1 25:1 
1 1 1:0.375 12:1 13:2 15:0.975 20:3 21:1 22:2 25:2 
0 1 1:1.125 13:3 14:1 15:1.125 17:1 20:9 21:5 22:8 25:4 
1 1 1:0.225 2:0.15 5:1 13:3 14:2 15:0.475 16:1 20:7 21:1 25:5 
0 1 1:0.05 13:2 14:2 15:0.05 18:1 20:3 21:2 25:1 
0 1 1:1.1 13:5 14:1 15:1.1 20:7 21:3 22:2 23:1 25:4 
0 1 1:0.4 12:1 13:2 14:1 15:0.525 18:3 20:7 21:1 
0.5022771041703982 1 8:1 14:1 15:-0.4 20:5 21:1 
0 0.1535951875323727 1:0.4 13:1 15:0.4 18:3 20:1 21:2 22:3 
0 1 1:0.65 8:1 10:1 13:2 15:0.375 17:1 20:4 22:2 24:1 25:3 
0 1 1:0.25 13:1 15:0.25 20:4 21:2 25:3 
1 1 1:-1.4 13:2 14:2 15:-0.4 18:1 20:3 21:5 25:3 
0 1 1:0.4 13:1 15:0.4 20:3 25:2 
1 1 1:-0.075 2:0.076923077 5:1 13:2 14:1 15:-0.075 16:1 20:2 21:3 22:2 
0 1 1:0.825 13:3 15:1.575 20:2 21:4 23:1 25:1 
1 1 1:0.325 2:0.15384615 5:1 8:1 12:1 13:2 15:0.525 20:1 21:5 22:2 25:1 
0 1 1:0.975 13:2 15:1.1 20:5 21:2 22:1 23:1 25:1 
0 1 1:0.425 8:1 13:2 14:1 15:0.15 20:4 21:4 22:1 25:2 
1 1 1:-0.5 14:1 15:-0.5 18:1 20:1 21:1 
1 0.6227668312810124 1:0.1 2:0.055555556 5:1 12:4 13:5 15:2.2 16:1 18:2 20:2 21:2 22:5 25:4 
0 1 1:-0.6 2:0.083333333 5:1 13:2 15:0.4 16:1 18:1 20:1 21:2 
0 1 1:0.85 13:2 15:0.85 20:3 21:1 25:2 
0 1 1:0.475 13:2 15:0.85 20:4 21:2 22:4 25:1 
0 1 1:0.25 2:0.076923077 5:1 13:5 14:1 15:1.175 16:1 20:4 21:2 23:1 25:2 
1 1 1:1.175 12:1 13:4 14:2 15:0.925 17:1 18:2 20:6 21:6 
0 1 18:1 20:3 21:1 
1 1 1:0.975 2:0.055555556 5:1 13:4 15:1.575 16:1 20:7 21:4 25:1 
1 1 1:0.1 13:2 14:3 15:0.1 20:6 21:2 22:3 23:1 
1 1 1:-0.8 2:0.0625 5:1 12:2 13:1 14:1 15:-0.075 16:1 17:1 18:1 20:6 21:1 22:1 25:1 
0 1 18:1 20:3 21:2 25:1 
0 1 1:0.6 2:0.15384615 5:1 13:1 15:0.6 16:1 17:1 20:4 21:1 25:1 
1 1 1:0.5 2:0.1 5:1 13:2 14:2 15:0.5 20:1 21:5 25:1 
0 1 1:0.925 2:0.125 5:1 13:1 15:0.8 16:1 20:1 22:1 23:1 25:1 
0 1 1:0.8 13:2 14:1 15:0.8 18:1 20:5 21:3 25:2 
1 1 1:-0.75 12:1 13:1 14:1 15:0.1 18:1 20:2 21:2 22:4 23:1 25:3 
0 1 18:3 20:1 21:1 
0 1 1:1.575 13:5 15:1.7 20:5 21:1 25:3 
0 1 1:1.25 2:0.11111111 5:1 13:3 15:1.25 16:1 20:3 21:3 22:4 25:2 
0 1 1:1.325 8:1 13:3 15:0.925 20:7 21:1 
0 1 1:0.85 13:2 15:0.85 20:2 21:1 25:2 
1 1 1:-0.375 13:4 14:3 15:1.225 20:2 21:7 22:6 25:3 
0 1 1:0.525 2:0.090909091 5:1 13:2 15:1.4 17:2 20:2 21:2 22:2 25:2 
1 1 1:0.575 13:4 14:1 15:0.575 20:2 21:3 22:8 24:1 25:4 
0 1 1:-0.125 2:0.10526316 5:1 13:1 15:0.125 18:4 20:8 21:2 22:3 
1 1 1:0.6 13:2 15:0.725 17:4 20:1 21:1 22:1 25:1 
0 1 1:1.075 13:2 15:1.2 17:1 20:3 21:2 23:1 25:1 
0 1 1:0.1 13:1 14:1 15:0.1 18:1 21:2 
1 1 1:0.025 2:0.058823529 5:1 13:4 14:1 15:1.775 20:3 21:6 22:3 25:1 
0 1 1:1.775 13:4 15:1.525 20:3 21:4 22:1 25:3 
0 1 1:-0.15 13:1 15:0.6 18:1 20:1 21:1 22:1 
0 1 1:0.975 2:0.2 5:1 13:3 15:0.975 16:1 20:7 21:2 25:3 
1 1 1:0.55 8:1 12:1 13:2 15:0.75 17:3 18:1 20:2 21:3 22:2 
0 1 1:0.625 13:1 15:0.625 20:3 21:3 
0 1 1:-0.3 2:0.076923077 5:1 13:2 15:0.45 16:1 18:1 20:6 21:3 25:1 
0 1 1:0.85 13:2 15:0.85 18:1 20:4 21:2 22:1 
1 0.6951351042769456 1:-0.7 8:1 12:1 13:2 14:1 15:0.25 20:5 21:4 22:2 25:2 
0 1 1:0.8 13:1 15:0.8 20:4 22:1 25:1 
0 1 1:0.975 2:0.4 3:1 5:1 13:3 15:0.975 16:1 20:3 25:5 
1 1 1:0.45 13:2 14:2 15:0.45 20:1 21:6 23:1 25:1 
0 1 1:0.525 13:2 15:0.525 18:2 20:5 21:1 25:1 
0 1 1:0.8 2:0.090909091 5:1 16:1 18:3 20:5 21:2 
1 1 1:-0.025 2:0.125 5:1 13:2 15:0.725 20:1 21:2 22:1 25:1 
0.24690145012078 0 1:0.25 12:1 13:6 14:3 15:2.425 18:1 20:4 21:6 22:1 25:5 
1 0 1:-0.2 12:2 13:2 14:2 15:0.9 20:5 21:2 22:5 25:2 
1 1 1:0.4 2:0.125 5:1 9:1 13:2 14:1 15:0.675 18:2 20:5 21:3 22:3 
0 1 1:0.95 13:2 14:1 15:0.575 20:4 21:1 22:6 25:2 
0 0.780156114150782 1:0.575 13:7 14:1 15:2.275 18:1 20:7 21:5 22:2 
0 1 13:1 15:0.125 18:2 20:8 21:3 22:1 23:1 
1 1 1:1.125 12:1 13:4 15:1.1 20:3 21:1 22:4 23:1 25:1 
1 1 1:0.9 12:1 13:5 15:1.5 20:4 21:8 22:3 25:1 
0 0.5847467013341512 1:0.95 2:0.076923077 5:1 13:4 14:2 15:0.95 18:1 20:1 21:1 22:4 23:1 25:1 
0 1 1:-0.025 8:1 13:1 14:1 15:-0.3 20:5 21:1 22:1 
0 0.2509059067768024 1:0.5 2:0.11111111 5:1 13:1 15:0.5 18:4 20:3 21:1 22:1 
1 1 1:0.65 12:1 13:4 15:1.25 20:4 21:5 22:2 25:3 
1 1 1:0.975 13:2 15:1.1 17:3 20:4 22:1 25:1 
0 1 1:1.2 13:2 15:1.2 20:3 21:3 25:2 
0 1 1:0.3 13:2 14:1 15:0.3 18:1 20:2 21:2 25:1 
0 1 1:-0.75 12:1 13:1 14:1 15:-0.15 18:2 20:4 21:4 22:2 25:2 
1 1 1:1.1 2:0.125 5:1 13:3 14:1 15:0.85 16:1 17:1 20:4 21:3 25:3 
1 1 1:0.325 2:0.045454545 5:1 12:1 13:5 14:1 15:1.175 16:1 20:3 21:6 22:4 24:1 25:4 
0 1 1:1.025 2:0.058823529 5:1 13:3 14:1 15:1.15 16:1 18:1 20:4 21:3 22:3 23:1 24:1 25:1 
0 1 1:0.725 13:2 15:0.85 20:3 22:4 25:2 
1 0 1:-2.125 12:1 13:2 14:2 15:-0.4 18:2 20:4 21:5 22:1 25:5 
1 1 1:-0.5 14:1 15:-0.5 20:4 21:3 22:3 
1 1 1:0.95 13:7 14:3 15:2.3 17:1 20:2 21:3 22:6 23:2 
1 1 1:0.425 2:0.055555556 5:1 13:3 14:2 15:0.425 20:4 21:4 22:4 25:3 
0 1 1:1.325 13:4 14:1 15:1.45 20:2 21:3 25:2 
1 1 1:-0.55 2:0.18181818 5:1 12:1 13:1 14:1 15:0.05 20:2 21:3 22:1 25:3 
0 1 1:1.6 13:3 15:1.6 20:5 21:1 25:1 
0 1 1:1.3 2:0.058823529 5:1 13:3 14:1 15:1.3 20:8 22:1 25:2 
1 1 1:0.225 13:2 14:1 15:0.35 20:6 21:4 22:3 23:1 
0 1 1:0.975 2:0.076923077 5:1 13:2 15:0.975 16:1 20:3 21:2 
1 1 1:-0.55 12:1 13:2 14:2 15:-0.3 18:1 20:3 21:4 22:3 
0 1 1:0.65 8:1 13:1 15:0.25 21:4 25:3 
1 1 1:-0.775 2:0.076923077 5:1 12:1 13:1 14:3 15:-0.175 16:1 20:3 21:8 22:1 
0 1 1:1.225 2:0.058823529 5:1 13:5 14:1 15:1.6 16:1 20:4 21:3 22:1 25:3 
0 1 1:0.85 2:0.071428571 5:1 13:1 15:0.6 16:1 18:1 20:3 21:1 25:4 
0 1 1:0.6 13:1 15:0.6 20:3 21:4 
0 1 1:0.8 2:0.055555556 5:1 13:2 15:0.8 16:1 20:3 21:2 22:4 25:1 
1 1 1:0.5 2:0.05 5:1 12:1 13:4 15:1.225 16:1 20:4 21:2 22:4 25:2 
0 1 1:0.275 8:1 20:2 
1 1 1:-0.275 12:1 13:3 14:1 15:0.575 20:3 21:3 22:3 25:3 
0 1 1:0.85 13:2 15:0.85 20:4 21:1 22:3 25:2 
0 1 1:0.725 2:0.11111111 5:1 13:2 15:0.85 16:1 20:2 25:1 
0 1 1:1 2:0.076923077 5:1 13:3 14:3 15:1 20:7 
1 1 1:-0.7 13:1 14:2 15:-0.7 20:5 21:2 22:1 25:1 
1 1 1:0.7 12:1 13:5 14:4 15:0.625 20:5 21:8 22:2 25:2 
1 1 1:-0.5 2:0.125 5:1 14:1 15:-0.5 20:2 21:2 25:1 
0 1 1:1.25 13:5 14:1 15:1.85 17:3 18:1 20:6 21:5 22:4 25:3 
0.3675748687854379 1 1:0.85 13:3 15:1.45 20:3 21:5 25:2 
0 1 1:1.225 2:0.041666667 5:1 13:2 15:1.35 17:2 20:6 21:1 22:6 25:4 
1 0 1:1.375 12:1 13:4 14:2 15:1.125 20:5 21:2 22:1 25:2 
1 0 1:-1.075 13:3 14:4 15:-0.2 18:3 20:6 21:3 22:1 25:1 
1 1 1:-1.4 2:0.071428571 5:1 12:1 14:2 15:-0.8 16:1 18:2 20:3 21:1 22:3 
1 1 1:0.75 8:1 13:2 14:1 15:0.35 20:4 21:6 25:1 
1 1 1:0.75 13:2 14:1 15:0.75 20:2 21:3 22:4 23:1 25:1 
0 1 1:0.275 13:1 15:0.4 18:1 20:3 21:1 22:1 25:1 
1 1 1:0.375 2:0.066666667 5:1 13:1 15:0.375 17:2 20:3 21:3 
1 1 1:-0.775 2:0.55 3:1 4:1 5:1 13:1 14:1 15:-0.025 19:2 20:6 21:4 22:1 24:1 25:3 
0 1 1:0.525 13:2 15:0.525 20:2 21:2 25:2 
0.5826803146430557 1 1:-0.175 13:5 14:4 15:-1.075 19:4 20:3 21:2 23:1 
0 0.2804553798125243 1:2.025 13:6 15:2.625 20:2 21:8 22:2 24:1 25:1 
0 1 1:0.875 2:0.066666667 5:1 13:3 15:0.875 16:1 20:6 21:2 22:1 25:3 
1 1 1:-0.75 14:2 15:-0.625 20:5 21:5 22:5 25:1 
1 1 1:0.025 13:1 14:1 15:0.15 20:8 21:3 22:1 25:2 
1 1 1:0.075 2:0.055555556 5:1 13:2 14:1 15:0.075 20:8 21:2 22:3 25:1 
0.6074380691372807 1 1:0.85 2:0.076923077 5:1 13:3 14:1 15:0.85 16:1 20:1 21:4 25:2 
1 1 1:-0.325 13:4 14:3 15:-1.1 17:1 19:4 20:3 21:2 25:3 
0 1 1:-0.175 2:0.090909091 5:1 13:2 14:1 15:-0.05 18:1 20:5 21:1 25:4 
1 1 1:0.65 12:1 13:4 15:1.25 20:4 21:3 22:2 25:4 
0 1 1:0.325 13:2 14:1 15:0.45 18:2 20:5 21:3 22:6 25:4 
0 1 1:0.15 13:2 14:1 15:0.275 18:2 20:1 21:2 
1 1 1:0.5 13:3 15:1.25 20:2 21:5 22:3 25:2 
0 0.6221404104705603 1:-0.025 12:1 13:4 15:1.45 18:1 20:3 21:3 22:7 24:1 25:3 
1 1 1:-0.5 14:1 15:-0.5 20:3 21:2 25:1 
1 1 2:0.125 5:1 13:1 15:0.125 16:1 20:4 21:1 
0 1 1:1.075 13:2 14:1 15:1.075 20:1 21:1 
0 1 1:1.425 13:5 15:1.55 17:1 20:1 21:3 22:1 25:3 
0 1 1:0.125 2:0.1875 3:1 5:1 13:1 15:0.125 16:1 18:2 20:7 21:2 22:1 25:1 
0.2897510364545507 1 1:1.05 2:0.15 5:1 13:5 15:2.4 20:3 21:8 22:3 
0 1 1:1.35 13:3 15:1.7 20:6 21:2 25:2 
0 0.1546797343381181 1:0.4 8:1 13:1 15:0.25 17:1 18:1 20:2 21:1 22:4 25:2 
1 1 1:-0.325 13:1 14:2 15:-0.075 17:1 20:2 21:1 25:2 
0.3031222924729796 0 1:3.8 8:1 13:7 14:1 15:2.9 20:5 21:1 25:2 
0 1 1:0.6 13:1 15:0.6 20:5 21:1 22:2 25:1 
0 1 1:0.5 2:0.11111111 5:1 13:3 15:0.5 16:1 17:1 20:3 21:2 22:6 25:2 
1 1 1:-1.025 12:1 13:2 14:3 15:-0.3 20:4 21:4 22:2 23:1 25:3 
0 1 1:0.975 13:5 14:2 15:0.975 20:5 21:3 22:2 23:1 25:2 
0 1 1:0.6 2:0.14285714 5:1 13:1 15:0.6 16:1 20:1 21:1 22:1 
1 1 1:-0.45 2:0.16666667 5:1 12:1 13:2 14:2 15:0.15 16:1 18:1 20:2 21:3 22:1 23:1 25:2 
0 1 1:1.175 13:5 14:1 15:1.425 20:5 21:6 22:2 25:1 
0 1 1:0.6 13:1 15:0.6 18:1 20:4 21:1 22:1 25:2 
0 1 1:1.325 13:5 14:2 15:2.05 20:7 21:7 22:1 
0 1 1:0.85 2:0.15384615 5:1 13:2 15:0.85 16:1 20:2 21:2 22:1 25:2 
0 1 1:0.45 2:0.0625 5:1 8:1 13:2 14:1 15:0.3 20:3 21:1 25:6 
1 1 1:-0.15 2:0.1 5:1 12:1 13:3 14:1 15:0.575 16:1 20:2 21:1 22:1 25:3 
0 1 1:0.4 2:0.058823529 5:1 13:2 15:0.4 16:1 18:2 20:4 21:1 22:1 25:1 
0 0.0291962977686523 1:0.8 13:4 14:1 15:0.8 18:4 20:8 21:1 
0 1 1:0.4 2:0.066666667 5:1 13:1 15:0.4 18:2 20:3 21:2 25:1 
1 1 1:-0.25 10:1 13:1 14:1 15:-0.25 20:2 21:2 25:2 
1 1 1:0.375 2:0.11764706 5:1 13:4 14:2 15:0.375 20:4 21:2 22:1 23:1 25:1 
1 1 1:-1.575 12:1 13:3 14:3 15:-0.1 20:3 21:5 22:2 25:1 
0 1 1:0.5 13:1 15:0.5 17:1 20:4 21:2 22:1 
0 0.001125889684423576 1:2.4 2:0.045454545 3:1 4:1 5:1 8:1 13:8 14:1 15:2.85 18:6 20:5 21:6 25:2 
1 1 1:0.625 12:1 13:4 15:1.225 18:1 20:4 21:3 22:2 25:1 
1 1 1:0.375 2:0.05 5:1 13:5 14:1 15:0.875 16:1 20:9 25:5 
1 1 1:0.85 2:0.066666667 5:1 13:2 15:0.85 20:2 21:4 25:1 
0 1 1:0.475 13:3 14:1 15:0.475 18:1 20:3 21:4 22:3 23:1 25:2 
1 1 1:-0.05 13:1 14:2 15:0.075 20:4 21:3 22:1 
0 1 10:1 13:1 14:1 20:2 21:1 
0 1 1:0.8 13:2 15:0.8 20:1 21:2 22:1 25:2 
1 1 1:0.725 12:1 13:6 14:1 15:1.325 17:1 20:3 21:6 22:1 
0 1 1:0.625 8:1 13:2 14:1 15:0.225 20:2 21:2 
0.803946628248463 1 1:0.525 2:0.041666667 5:1 12:1 13:4 14:2 15:0.275 18:3 20:10 21:3 22:3 
1 1 1:0.225 13:2 14:1 15:0.6 20:3 21:3 25:1 
1 1 1:0.925 13:4 14:2 15:1.25 17:2 20:3 21:7 22:1 
1 1 1:0.25 13:3 15:0.625 20:8 21:1 22:2 
0 1 1:-0.625 14:1 15:-0.75 18:5 20:1 21:2 22:2 25:2 
0 1 1:1.175 13:4 15:1.175 20:4 21:2 22:1 25:1 
1 1 1:0.6 13:2 14:1 15:0.725 20:2 21:4 25:1 
0 1 1:1 13:2 15:0.75 20:3 21:4 22:1 24:1 25:1 
0 1 1:0.85 2:0.045454545 5:1 13:4 15:1.225 16:1 20:4 21:3 22:5 25:4 
0 1 1:1 2:0.125 5:1 13:2 14:1 15:1 16:1 20:4 25:1 
0 1 1:0.55 13:2 15:0.8 20:4 22:4 25:2 
0.6456163717576945 0 1:0.025 8:2 13:1 14:2 15:-0.375 17:1 20:4 21:1 22:3 25:1 
0 0.6672337638256707 1:0.3 8:1 12:1 13:1 15:0.5 20:4 21:2 22:1 
0 1 1:0.6 13:2 15:0.725 20:1 21:2 25:1 
0 1 1:-0.375 13:1 14:1 15:-0.375 18:2 20:3 21:3 22:1 25:2 
1 1 1:-0.45 13:2 14:1 15:0.3 20:5 21:3 22:4 
1 1 1:-0.55 12:1 13:2 14:1 15:0.05 17:1 20:3 21:5 22:1 25:1 
1 1 1:0.675 12:1 13:4 14:1 15:1.4 20:3 21:3 22:8 25:2 
0 1 1:0.325 12:1 13:3 15:0.925 18:3 20:5 21:5 22:1 
0 1 1:0.85 2:0.05 5:1 13:2 15:0.85 20:3 21:2 22:5 25:3 
1 1 1:0.15 2:0.13333333 3:1 4:1 5:1 13:4 14:1 15:0.775 20:3 21:1 22:3 25:3 
0.0674576971549926 0.8185827234578178 1:-0.4 2:0.125 3:1 4:1 5:1 13:2 14:2 15:-0.4 16:1 18:3 20:5 22:6 25:2 
0 1 1:0.95 13:4 15:1.7 20:3 21:3 22:1 25:2 
1 1 1:-0.5 2:0.17647059 5:1 13:1 14:1 15:-0.5 18:2 20:5 21:2 22:1 
1 1 2:0.15 5:1 12:1 13:1 14:2 16:1 20:5 21:3 22:4 25:2 
0.9456725200807414 1 1:0.25 2:0.076923077 5:1 13:1 15:0.25 16:1 20:3 21:3 25:2 
0 1 1:0.85 2:0.14285714 5:1 13:2 15:0.85 20:5 21:2 22:1 
0.2525453372381185 1 1:0.1 2:0.25 3:1 5:1 13:3 15:0.85 20:2 21:1 22:1 
0 1 1:0.6 10:1 13:1 15:0.6 17:1 18:1 20:2 21:2 22:4 25:1 
0.796355020244059 1 1:0.525 13:2 15:0.525 20:6 21:4 25:2 
0 1 1:1.05 13:2 15:0.8 20:5 21:3 25:1 
0 1 1:0.725 13:2 15:0.725 20:4 21:1 22:3 25:1 
0 1 1:0.775 13:3 15:0.775 18:2 20:6 21:3 22:2 25:3 
0 1 1:0.825 2:0.19047619 5:1 13:3 14:1 15:0.825 16:1 18:2 20:7 21:1 22:4 25:4 
1 1 20:2 21:2 22:3 
0 1 1:0.25 13:2 15:0.5 20:4 22:3 25:4 
0 1 1:0.2 2:0.16666667 5:1 13:1 15:0.2 18:1 20:2 21:1 25:1 
0 1 1:1.275 2:0.090909091 5:1 13:2 15:1.4 16:1 21:4 22:1 
0 1 1:0.575 10:1 13:3 15:0.575 20:3 21:3 22:1 25:4 
0 1 1:0.225 2:0.083333333 3:1 5:1 12:1 13:1 15:0.6 17:1 18:4 20:3 21:1 
1 1 1:-0.4 2:0.14285714 5:1 13:1 14:2 15:-0.4 16:1 20:1 21:1 25:1 
0.5418312443403633 0.553213851722025 1:1.25 2:0.043478261 5:1 13:8 14:1 15:2.25 18:3 20:5 21:3 22:3 25:8 
1 1 1:-0.05 13:4 14:3 15:0.7 17:2 20:3 21:6 22:1 25:4 
0.6915109833926497 1 1:0.975 2:0.0625 5:1 13:5 14:2 15:0.975 20:5 21:3 22:2 25:2 
0 1 1:0.6 13:3 14:1 15:1.2 17:1 18:1 20:5 21:4 22:4 25:1 
1 1 1:-0.625 2:0.23076923 5:1 13:1 15:0.125 18:1 20:3 21:5 25:1 
0.4327593506178513 1 1:1.1 13:4 15:1.1 20:9 21:4 22:1 25:5 
1 0 1:0.1 12:1 13:4 14:1 15:1.45 18:1 20:3 21:5 22:2 25:1 
1 1 1:-0.55 12:1 13:2 14:1 15:0.05 20:3 21:3 22:2 25:1 
0 1 1:0.5 13:1 15:0.5 18:2 20:2 21:3 
1 1 20:2 22:1 
0 1 1:0.25 2:0.058823529 5:1 13:2 15:0.375 18:2 20:5 21:2 25:3 
1 1 2:0.083333333 5:1 16:1 20:2 21:1 22:3 
0 0.1763681618538998 1:1.65 9:1 13:3 15:1.8 18:2 20:6 21:5 22:3 25:2 
1 1 1:-0.3 2:0.071428571 5:1 13:3 14:3 15:-0.05 16:1 18:1 20:2 21:3 22:1 25:4 
1 1 1:-0.025 2:0.071428571 5:1 8:1 13:1 14:2 15:-0.425 18:1 20:1 21:6 22:1 
0 1 1:1.475 13:4 15:1.475 20:2 21:3 22:1 25:4 
0 1 1:0.675 2:0.052631579 5:1 13:3 14:1 15:0.8 20:6 21:3 22:2 23:1 25:3 
1 1 1:0.225 13:3 14:1 15:0.225 20:4 21:4 22:2 23:1 
1 1 1:-0.175 2:0.13333333 5:1 12:1 13:2 14:2 15:0.075 19:2 20:3 21:4 22:1 25:2 
1 1 1:-0.625 13:1 14:2 15:-0.5 20:4 21:3 24:1 
0 1 1:0.425 13:4 14:1 15:1.175 18:1 20:4 21:2 25:4 
0 1 1:0.85 2:0.14285714 4:1 5:1 13:4 14:1 15:0.85 18:1 20:2 21:3 25:2 
1 1 1:-1.7 12:1 13:2 14:2 15:-0.725 20:3 21:1 22:2 25:3 
1 1 1:-0.75 12:1 13:2 15:0.725 20:4 21:1 22:1 23:1 
0.1520613864218855 1 1:0.05 12:1 13:5 14:1 15:0.775 18:3 20:6 21:4 22:6 25:3 
0 1 1:0.6 13:1 15:0.6 20:2 21:1 25:1 
0 1 1:0.45 2:0.13333333 5:1 13:3 14:1 15:1.2 16:1 20:4 21:2 25:3 
0 1 1:0.475 13:2 14:2 15:0.6 18:1 20:6 21:2 25:3 
0 1 1:-0.35 2:0.066666667 5:1 13:1 15:0.4 18:2 20:4 21:3 22:1 
1 1 1:-0.6 12:1 20:1 21:5 22:5 25:1 
0 1 1:-0.25 2:0.1 5:1 14:1 15:-0.5 18:3 20:2 21:3 22:1 
0 1 1:1.375 2:0.0625 5:1 12:1 13:5 15:1.725 16:1 17:1 18:1 20:1 21:5 22:1 
0 1 1:1.25 2:0.058823529 5:1 13:4 15:1.5 16:1 17:1 18:2 20:5 21:1 25:5 
0 1 1:0.975 13:3 14:1 15:0.975 20:3 21:1 23:1 25:1 
0.2573049252954983 0 1:-1.55 2:0.052631579 5:1 12:1 13:2 14:3 15:-0.2 18:4 20:3 21:5 22:2 25:2 
1 1 1:0.1 2:0.05 5:1 13:4 14:2 15:0.225 20:7 21:4 22:2 23:2 25:4 
1 1 1:0.375 13:2 15:0.375 17:1 20:4 21:1 22:3 25:3 
1 1 1:0.8 13:2 15:0.8 20:5 21:3 22:8 
1 1 1:0.25 2:0.0625 5:1 13:3 14:1 15:0.25 16:1 20:2 21:2 22:2 25:3 
0 1 1:1.35 2:0.083333333 5:1 13:3 15:1.35 16:1 20:7 25:3 
0 1 1:0.875 13:2 15:1 20:1 21:3 22:3 25:1 
0 1 1:0.725 13:3 15:1.325 20:2 21:2 
0 0.2520027886263276 1:1.375 2:0.1 5:1 13:3 15:2 18:1 20:3 21:4 
0 0.3731384116499173 1:2.15 2:0.0625 5:1 13:4 15:2.15 16:1 18:1 20:5 21:2 
0.07117285518073574 1 1:0.45 13:2 14:1 15:0.7 18:2 20:3 21:7 
0 1 1:0.6 13:2 15:0.725 17:1 18:2 20:4 22:1 25:2 
0 1 1:1.45 2:0.058823529 5:1 13:3 15:1.7 20:5 21:4 22:3 25:2 
1 1 1:-1.225 2:0.05 5:1 12:1 14:1 15:-0.5 20:2 21:1 22:9 
0.1290003900724613 1 1:0.525 13:3 15:0.775 20:2 21:4 22:3 23:1 25:2 
0.1750508683322159 1 1:1.25 13:3 14:2 15:1 20:4 21:4 22:1 25:1 
0.8232457597242667 1 1:0.8 13:3 14:1 15:0.8 18:1 20:4 21:5 22:7 25:2 
0 1 1:0.3 2:0.42857143 4:1 5:1 13:1 14:1 15:0.425 16:2 20:2 21:1 22:1 25:1 
0 1 13:1 14:1 18:3 20:3 21:3 25:1 
1 1 1:0.025 13:2 14:1 15:0.15 20:3 22:1 25:3 
1 1 1:0.1 2:0.058823529 5:1 12:1 13:4 14:2 15:0.35 20:3 21:2 22:1 
0.9095965915746872 1 1:0.65 2:0.11764706 5:1 13:2 15:0.65 16:1 19:2 20:3 21:4 22:3 25:2 
0 1 1:0.45 13:2 15:0.45 18:2 20:1 25:4 
1 1 1:-1 12:1 14:1 15:-0.4 18:1 20:1 21:1 22:1 
0 1 1:1.3 13:5 15:2.1 20:7 21:3 22:9 23:1 25:4 
1 1 1:0.275 12:2 13:2 15:1 20:3 21:2 22:2 25:1 
1 1 1:0.725 13:2 14:1 15:0.475 20:4 21:3 22:1 25:1 
1 1 1:0.125 12:1 13:3 14:2 15:0.725 20:7 21:6 22:1 25:4 
1 1 1:-1.475 2:0.083333333 4:1 5:1 13:1 14:3 15:-1.475 20:4 21:5 22:2 
0 1 1:-0.525 2:0.066666667 5:1 10:1 13:1 14:2 15:-0.525 18:3 20:5 21:1 22:2 25:2 
0 1 1:0.675 2:0.16666667 5:1 13:1 15:0.8 16:1 20:2 22:1 25:1 
0.7264216980371557 0 1:1.025 13:3 15:1.025 18:6 20:3 21:1 22:2 23:1 25:1 
1 1 1:0.375 13:2 14:1 15:0.5 20:3 22:3 25:1 
1 1 12:2 13:1 15:0.6 17:3 20:5 21:2 22:2 25:2 
0 1 1:1.7 2:0.30769231 3:1 5:1 13:5 15:2.3 16:1 18:1 20:5 21:5 
1 0.05567149815822834 1:0.825 13:6 14:3 15:1.825 17:4 18:1 20:6 21:6 22:3 25:4 
1 0.2669267214475965 1:0.6 12:2 13:7 14:1 15:3 20:5 21:9 22:4 25:1 
0 1 1:0.775 13:2 15:0.525 18:1 20:5 21:1 22:3 25:2 
0 1 1:0.475 13:2 15:0.725 18:1 20:4 21:3 22:4 25:1 
0.230695588288634 1 1:0.125 2:0.058823529 5:1 12:1 13:6 14:1 15:1.375 16:1 20:2 21:2 22:2 25:4 
0 1 1:0.925 13:3 14:2 15:0.925 20:8 21:3 22:6 23:1 25:4 
0 1 1:0.675 2:0.27272727 3:1 5:1 13:2 15:0.8 20:3 21:1 22:4 
1 1 1:-0.15 2:0.055555556 5:1 13:2 14:1 15:-0.15 20:6 21:2 25:4 
0 1 1:1.075 2:0.15384615 5:1 13:2 15:1.2 16:1 18:1 20:3 21:2 22:1 23:1 25:2 
0.8901682797408248 1 1:-0.375 8:1 12:1 13:1 15:0.2 17:1 20:4 21:3 22:1 25:2 
0 1 1:0.275 13:3 14:1 15:0.65 20:4 22:4 23:1 25:5 
0 1 1:0.125 13:2 14:1 15:0.125 18:2 20:7 21:1 
1 1 1:-0.1 12:1 13:1 15:0.5 20:2 21:2 22:1 
1 1 1:1.025 2:0.05 5:1 13:3 14:1 15:1.025 17:1 20:2 21:7 22:6 25:1 
1 1 1:-1 2:0.058823529 5:1 12:1 13:1 14:2 15:-0.4 16:1 20:3 21:4 22:2 25:2 
0 1 1:0.9 13:3 15:0.9 18:1 20:7 21:2 22:7 25:2 
0 1 1:0.8 13:3 14:1 15:0.8 20:5 21:2 22:3 25:1 
0 1 1:1.2 13:4 14:1 15:1.8 19:2 20:2 21:6 25:1 
0 1 1:0.325 13:2 14:1 15:1.075 20:5 21:1 22:2 
0 1 1:1.5 2:0.071428571 5:1 13:3 15:1.25 16:1 18:1 20:3 21:2 22:1 25:2 
1 1 1:0.125 12:1 13:4 14:1 15:1.475 17:1 20:5 21:4 22:3 25:1 
0 1 1:0.975 13:3 14:2 15:0.975 20:2 21:1 25:3 
0 1 1:0.7 13:4 15:1.825 20:7 21:6 22:3 
0 1 1:0.5 13:1 15:0.5 18:3 20:1 23:1 25:1 
0 1 1:1.25 13:4 15:1.25 20:6 21:2 22:1 25:2 
0.05564151854444341 0 1:1.825 13:6 15:2.2 18:1 20:3 21:4 22:2 23:1 25:8 
0 0.08390674735272965 1:1.9 13:6 14:2 15:1.9 20:2 21:4 22:1 23:3 25:3 
1 1 1:-0.4 2:0.13333333 4:1 5:1 12:1 13:1 14:1 15:0.2 17:1 20:6 21:2 22:1 
1 1 1:-0.625 14:1 15:-0.5 17:3 18:2 20:2 21:2 22:1 
0 1 1:0.325 2:0.15 5:1 13:2 15:0.325 18:2 20:4 21:3 22:4 
0 0.6855112812049157 1:2.575 13:7 14:1 15:2.825 18:2 20:7 21:1 22:4 25:7 
0 1 1:0.875 2:0.090909091 3:1 5:1 13:3 15:1 18:1 20:2 21:2 22:1 25:1 
1 1 1:-0.225 2:0.076923077 5:1 13:2 15:0.525 16:1 20:8 21:2 25:1 
1 1 1:0.4 2:0.1 5:1 13:2 14:2 15:0.4 16:1 20:4 21:2 22:1 25:1 
0 0.6474727245917822 1:1.7 2:0.066666667 5:1 13:4 15:1.7 20:5 21:1 22:3 25:4 
1 1 1:-0.4 12:2 13:2 14:1 15:0.45 20:6 21:4 22:4 25:2 
0.7563187966908199 1 1:0.55 2:0.083333333 5:1 13:1 14:1 15:0.55 16:1 20:6 22:1 
0 1 1:1 13:2 15:1 18:1 21:4 25:1 
0 1 1:1.225 2:0.066666667 5:1 8:1 13:3 14:1 15:0.825 16:1 20:1 21:2 24:1 25:3 
1 1 1:0.125 12:1 13:2 15:0.85 20:4 21:1 22:3 25:2 
0.4365284621336716 1 1:-0.925 2:0.052631579 5:1 12:1 13:1 14:2 15:-0.325 18:4 20:5 21:4 22:1 
0 1 1:1.3 13:4 14:1 15:1.3 20:6 21:4 22:1 23:1 25:2 
0.8550955463095853 1 1:-0.025 2:0.090909091 5:1 13:1 14:1 15:-0.025 18:1 20:3 22:3 25:3 
1 1 1:1.1 2:0.125 5:1 13:4 15:1.1 16:1 20:3 21:5 22:1 25:3 
1 1 1:-0.575 12:1 13:1 14:3 15:-0.45 17:1 18:1 19:2 20:10 21:1 22:2 
0 1 1:0.75 13:2 14:1 15:0.75 20:5 21:1 22:5 25:2 
0 1 1:0.4 8:1 20:3 21:1 22:4 25:1 
0 1 1:0.4 2:0.066666667 5:1 13:1 15:0.4 16:1 20:2 21:2 25:1 
0 1 1:0.325 13:2 15:0.45 18:2 20:6 21:2 22:1 25:4 
1 1 1:0.05 13:4 14:1 15:0.8 20:4 21:4 25:1 
1 1 1:-0.775 13:1 14:1 15:0.1 20:3 21:2 22:1 25:3 
1 1 1:-0.6 2:0.16666667 5:1 12:1 13:5 14:2 15:0.25 18:3 20:5 21:6 22:8 23:1 25:2 
1 1 1:-0.425 12:1 13:2 14:1 15:0.325 20:5 21:2 22:6 25:2 
0 1 1:0.775 13:3 15:0.9 20:3 21:1 22:2 23:1 25:3 
0 1 1:1.1 2:0.083333333 5:1 13:3 14:1 15:1.1 16:1 20:4 21:1 
0 1 2:0.125 5:1 18:3 20:3 21:1 
0 1 1:1.15 8:1 13:3 14:1 15:0.75 20:5 21:1 25:4 
0 1 1:0.35 2:0.058823529 5:1 13:2 14:1 15:0.35 16:1 18:1 20:3 21:3 25:3 
0 1 1:1.825 13:5 15:1.825 20:5 21:1 22:2 25:5 
0 1 1:1.325 13:4 15:1.325 20:8 21:1 22:2 25:3 
1 1 1:-0.125 14:1 15:-0.125 17:1 20:8 21:2 
0 1 1:0.475 8:1 13:3 14:1 15:0.2 17:1 20:6 21:3 25:3 
0 1 1:0.4 12:1 13:3 15:1 18:1 20:6 21:4 22:2 25:4 
0 1 1:0.6 2:0.125 5:1 13:2 14:1 15:0.6 20:1 21:2 23:1 25:2 
0.4856345745286288 1 1:0.525 2:0.22222222 3:1 5:1 13:2 14:1 15:0.275 20:4 21:2 23:1 
1 1 1:0.15 13:2 14:1 15:0.15 20:6 21:3 25:1 
1 1 1:0.6 13:2 15:0.6 18:1 20:4 21:6 
0 1 1:0.525 8:1 13:1 15:0.25 20:2 21:1 22:3 25:3 
1 1 1:-0.675 12:2 13:3 14:1 15:0.175 20:4 21:4 22:10 25:3 
0 1 1:0.75 13:3 15:0.75 20:5 21:4 22:6 25:2 
0.220239914854082 1 1:0.35 13:2 15:1.2 20:1 21:4 
0 1 1:0.525 2:0.055555556 5:1 13:2 15:0.525 16:1 20:3 21:3 22:3 25:3 
1 1 1:-0.8 12:1 13:1 14:1 15:-0.2 20:4 22:1 25:3 
0 0.5101207255296791 1:0.4 13:2 14:2 15:0.4 18:1 19:2 20:5 21:1 22:2 25:1 
1 1 1:-0.225 13:4 14:2 15:-0.225 20:7 21:1 25:2 
0 1 1:0.65 2:0.13333333 5:1 13:2 15:0.65 16:1 18:2 20:3 21:2 25:2 
0 0.6981366261839044 1:-0.3 2:0.10526316 5:1 13:4 14:2 15:1.9 16:1 17:1 18:4 20:2 21:7 22:3 
1 1 1:0.2 2:0.083333333 5:1 13:3 14:2 15:0.2 20:4 21:1 25:3 
0 1 1:1.7 2:0.05 5:1 13:5 15:2.075 18:1 20:4 21:1 25:6 
0.1854372389176491 0 1:2.5 2:0.071428571 5:1 13:4 15:2.5 18:4 20:2 21:1 22:1 24:1 25:2 
1 1 1:0.775 13:4 14:2 15:0.775 20:3 21:5 22:1 23:1 25:1 
0 1 1:-1 2:0.13333333 5:1 12:1 14:1 15:-0.4 16:1 18:2 20:1 21:2 22:2 
0 1 1:0.85 2:0.14285714 5:1 13:2 15:0.85 16:1 20:1 21:1 25:1 
0 1 1:1.1 2:0.15384615 5:1 13:2 15:1.1 16:1 17:1 20:4 25:2 
1 0.3102894973501409 1:1.375 12:1 13:4 14:1 15:1.975 17:1 20:6 21:5 22:1 25:1 
0 1 1:1.85 2:0.047619048 5:1 13:4 15:1.85 16:1 20:7 21:2 22:6 25:4 
1 1 1:0.15 2:0.076923077 5:1 13:1 14:1 15:0.275 20:2 21:3 22:3 23:1 25:1 
1 1 1:-0.475 2:0.045454545 5:1 12:1 13:2 14:2 15:0.25 17:1 18:2 20:4 21:2 22:4 25:4 
0.7608316998454201 0 1:1.6 12:1 13:4 14:1 15:1.6 18:1 20:3 21:1 25:1 
0 1 1:1.075 2:0.076923077 5:1 13:3 15:1.2 16:1 17:1 20:1 21:1 24:1 25:1 
0 1 1:-0.15 13:1 15:0.6 18:1 20:3 21:3 
0 1 1:1.75 13:5 15:1.75 19:2 20:6 21:1 22:1 25:4 
0 1 1:0.625 13:1 15:0.625 20:3 21:3 25:1 
0 1 1:1 13:2 15:1 21:2 
1 0.9881326290291268 1:1.175 2:0.05 5:1 12:1 13:5 15:2.375 20:8 21:5 22:1 25:3 
1 1 1:0.1 13:3 14:2 15:0.1 20:2 21:3 22:1 25:3 
1 1 1:-0.275 12:1 13:1 14:1 15:0.075 20:4 21:1 22:1 23:1 25:1 
0 1 1:0.65 2:0.090909091 5:1 13:3 15:0.9 16:1 20:7 21:1 
0 1 1:0.4 2:0.1 5:1 8:1 21:1 25:1 
0 1 1:0.4 13:1 14:1 15:0.4 20:6 25:1 
1 1 1:-0.925 13:2 14:1 15:-0.175 18:1 20:1 21:4 22:1 
0 1 1:0.125 13:1 15:0.25 18:1 20:3 21:2 25:2 
1 1 1:0.1 13:1 14:1 15:0.225 20:5 21:2 22:1 25:3 
0 1 1:0.425 13:4 14:2 15:0.675 18:1 20:2 21:3 22:1 25:5 
0 1 1:1.2 13:2 15:1.2 20:3 21:4 22:3 25:1 
1 1 1:-0.525 12:1 13:1 14:1 15:0.2 17:1 18:1 20:3 21:1 22:6 
0 1 1:1.1 2:0.16666667 5:1 13:2 15:1.1 17:1 20:4 
1 1 1:0.05 2:0.043478261 5:1 13:3 14:2 15:0.3 20:8 21:3 22:2 25:3 
0 1 1:0.4 2:0.076923077 5:1 13:1 15:0.4 16:1 20:3 21:2 25:1 
0 1 1:1.175 2:0.14285714 5:1 8:1 13:1 15:0.4 16:1 20:2 25:1 
0 1 20:1 21:1 
0 1 1:0.525 13:2 15:0.525 18:1 20:5 21:3 
0 0.6427732482226909 1:0.575 2:0.3 3:2 5:1 13:3 15:1.45 18:2 20:4 21:4 
1 1 1:-1.05 13:1 14:3 15:-0.3 20:7 21:3 25:2 
1 1 1:-0.525 13:2 14:2 15:0.225 20:2 21:3 25:1 
0 1 1:0.725 13:3 14:1 15:0.85 20:3 21:1 23:1 25:1 
0 0.4347607770363577 1:-0.7 8:1 12:1 14:1 15:-0.5 18:1 20:3 21:2 22:1 
1 1 1:0.9 13:3 14:1 15:1.25 20:5 21:7 22:3 25:3 
0 1 13:1 14:1 18:1 20:2 21:1 
0.5100521500670749 1 1:1.15 2:0.066666667 5:1 12:1 13:3 15:1.5 16:1 20:4 21:4 22:2 
0 1 1:0.625 13:3 15:0.625 18:2 20:5 21:3 22:2 25:1 
1 1 1:1 2:0.090909091 3:1 5:1 12:1 13:3 15:1.6 17:1 20:4 21:3 22:1 
0 1 1:0.1 13:1 14:1 15:0.1 18:2 20:1 21:4 22:3 
1 0 1:0.325 13:5 14:3 15:0.925 20:4 21:4 22:2 25:4 
0 1 1:0.4 2:0.125 5:1 13:1 15:0.4 16:1 20:2 21:1 22:3 
0.5509737873549603 1 1:0.975 13:4 15:0.975 20:6 21:2 22:1 25:6 
0 1 1:0.325 13:2 15:0.325 20:4 21:5 22:4 24:2 
0.8282723192084139 1 1:0.125 13:2 14:1 15:0.5 20:4 21:2 22:2 25:3 
0 1 1:0.475 2:0.6 5:1 13:1 14:1 15:0.475 16:1 20:3 21:2 25:2 
1 1 1:-0.175 12:1 13:4 14:1 15:0.675 18:1 20:3 21:3 22:3 25:6 
0 1 1:-0.15 13:2 14:1 15:0.1 20:3 25:4 
0 1 1:0.4 12:1 13:1 14:1 15:0.4 18:1 20:4 21:2 25:1 
0 1 1:0.4 2:0.14285714 5:1 13:1 15:0.4 16:1 18:1 20:4 
0 1 1:1.525 2:0.066666667 5:1 13:3 15:1.65 20:7 21:4 22:2 25:1 
0 1 1:0.25 13:1 15:0.25 18:1 20:3 21:1 25:3 
0.983112536903383 1 1:0.525 13:2 15:0.525 17:1 20:5 21:3 22:1 
0 1 1:0.375 2:0.2 5:1 13:2 15:0.375 16:1 20:4 21:1 25:1 
0 1 1:-0.275 13:1 14:1 15:0.475 20:2 21:2 25:1 
0 1 1:0.6 13:1 15:0.6 18:2 20:1 21:2 22:1 23:1 25:1 
0 1 1:0.85 13:2 15:0.85 18:1 20:2 21:1 25:2 
1 1 1:-0.5 14:1 15:-0.5 18:1 20:1 21:3 23:1 
1 0.3919055069587697 1:-1.45 12:1 13:4 14:3 15:-0.4 19:2 20:4 21:4 22:2 25:3 
0 0.4637562116673017 1:0.4 2:0.076923077 5:1 12:2 13:1 14:2 15:0.2 18:3 20:6 21:1 25:1 
0 1 1:0.85 13:3 15:1.45 18:1 20:1 21:3 22:1 25:4 
1 1 1:0.425 13:4 14:2 15:0.675 18:1 20:7 21:4 22:3 25:1 
0 1 1:1.225 8:1 13:4 15:0.825 20:8 21:1 25:4 
1 1 1:0.1 2:0.045454545 5:1 13:2 15:0.85 20:2 21:3 22:8 23:1 25:2 
0 1 1:0.4 13:1 15:0.4 20:2 
0 0.294610765632196 1:1.075 13:4 15:1.95 18:1 20:10 22:3 25:4 
0.675756957688515 0.2237109457604366 1:-1.3 12:1 13:3 14:1 15:0.05 18:5 21:8 22:2 
0.06718446811418725 1 1:0.8 13:2 15:0.8 17:1 20:5 
1 1 1:-0.25 2:0.15384615 5:1 14:1 15:-0.5 18:1 19:2 20:4 21:1 
1 1 1:0.4 12:1 13:3 14:2 15:1 18:1 20:2 21:6 22:1 25:3 
0.3158626106471389 0 1:1.15 12:1 13:4 14:4 15:1.15 20:5 22:1 25:3 
0.6117416270505533 1 1:0.325 13:6 14:3 15:-0.575 19:4 20:2 21:5 25:2 
1 1 1:-0.15 13:4 14:2 15:-0.025 20:2 21:5 22:4 25:1 
1 1 1:1.55 13:6 14:2 15:2.5 20:3 21:9 25:1 
0 1 1:0.525 2:0.071428571 5:1 8:1 13:1 15:0.125 20:7 22:2 25:1 
0.06486030732675903 0 1:1.975 2:0.043478261 5:1 13:6 14:1 15:1.975 16:1 20:6 21:1 22:9 23:1 25:3 
1 1 1:-0.275 13:2 14:3 15:-0.35 20:2 21:5 22:2 25:1 
1 1 1:0.125 12:1 13:4 14:4 15:0.125 18:2 20:3 21:10 22:4 25:1 
0 1 1:1.7 8:1 13:4 14:1 15:1.9 17:1 18:1 20:5 21:9 
0 1 18:2 20:2 21:1 22:1 
0 1 1:1.45 2:0.0625 5:1 13:3 15:1.45 20:2 21:4 22:3 25:4 
0 1 1:1.625 13:5 15:1.625 20:4 21:2 25:4 
1 1 1:-0.6 12:1 13:1 14:1 20:3 21:3 22:1 
0.1426886347068803 0.3124834775673631 1:0.325 2:0.037037037 5:1 12:1 13:6 14:2 15:1.925 18:3 20:3 21:8 22:1 23:1 25:3 
0 1 1:-0.75 2:0.0625 5:1 14:1 15:-0.5 18:2 20:4 21:3 22:3 
0 1 1:0.575 2:0.090909091 5:1 13:2 15:0.575 18:1 21:3 25:1 
0 1 2:0.14285714 5:1 17:1 18:1 20:1 25:1 
0.1983360425848216 1 20:1 21:2 22:1 
1 0 1:-0.625 13:2 14:5 15:-1.025 18:2 20:3 21:2 25:4 
0 1 1:1.225 2:0.071428571 5:1 13:2 15:1.225 16:1 20:5 21:2 
1 1 1:0.2 13:2 14:1 15:0.2 21:2 23:1 25:1 
0 1 1:0.975 2:0.066666667 5:1 13:3 15:0.975 18:2 20:3 21:3 25:3 
1 1 1:0.475 13:1 15:0.6 17:1 20:2 21:2 22:5 
1 1 1:-1.925 2:0.058823529 5:1 13:4 14:5 15:-1.175 20:5 21:6 25:3 
0 0.003741700312600084 1:1.9 13:5 15:1.9 20:2 21:6 22:2 25:1 
0 1 1:0.375 13:2 15:1 20:5 22:1 25:3 
0 1 1:0.85 2:0.055555556 5:1 13:2 15:0.85 16:1 18:3 20:3 21:4 23:1 
0.04831730594200662 1 1:-0.425 2:0.29166667 3:1 5:1 13:2 14:1 15:-0.1 18:3 20:10 21:3 22:3 24:1 25:1 
1 1 1:-1 13:1 14:1 15:-0.25 20:5 21:4 22:1 25:2 
0 1 1:0.975 13:2 15:0.975 20:3 25:1 
0 1 1:0.8 13:4 15:1.05 20:2 21:4 22:4 
0 1 1:1.1 13:2 15:1.1 20:2 21:4 22:4 25:1 
1 1 1:-0.8 12:1 13:4 14:3 15:0.4 20:2 21:4 22:2 23:1 25:2 
1 1 1:-0.325 13:2 14:1 15:0.675 20:2 21:3 25:1 
0 1 1:0.85 13:5 15:1.7 20:1 21:4 22:1 25:1 
0 1 1:2.225 13:6 14:1 15:2.475 20:2 21:1 25:8 
0 1 1:0.35 2:0.083333333 5:1 12:1 13:2 15:0.6 18:2 20:3 25:2 
0 1 1:0.125 2:0.095238095 5:1 12:1 13:2 15:0.85 16:1 17:1 18:1 20:4 21:1 22:8 25:3 
1 1 1:-0.4 13:1 14:2 15:-0.4 20:4 21:5 22:5 25:1 
1 1 1:-0.65 10:1 13:1 14:1 15:0.1 20:3 21:2 25:2 
1 1 1:0.15 12:1 13:1 15:0.4 18:1 20:1 21:1 22:6 25:1 
0.2284635373135858 1 1:0.575 2:0.076923077 5:1 12:1 13:3 15:1.3 17:1 20:2 21:1 22:4 25:3 
1 1 1:0.375 13:1 14:1 15:0.375 20:4 21:3 22:3 25:1 
1 1 1:0.5 13:3 14:1 15:0.5 20:5 21:5 22:1 
1 0.9319559838157137 1:-1.8 13:5 14:4 15:-0.8 17:1 20:5 21:2 22:1 25:3 
1 1 1:-0.675 13:1 14:1 15:0.075 20:4 21:4 25:3 
1 0 1:0.325 13:4 14:3 15:0.325 17:1 18:1 20:4 21:2 22:4 23:1 25:5 
1 1 1:-1.1 12:1 14:1 15:-0.5 18:2 20:4 21:4 22:3 25:2 
0 1 1:0.025 8:1 14:1 15:-0.375 18:1 21:1 
1 1 1:-0.45 13:1 14:1 15:-0.2 18:1 20:2 21:1 
0 1 1:1 8:1 13:1 15:0.6 20:6 21:2 25:1 
0 1 1:0.75 2:0.14285714 5:1 13:3 14:1 15:1 16:1 20:5 21:2 22:3 25:1 
1 1 1:0.45 13:3 14:2 15:0.45 18:1 19:2 20:7 21:4 22:1 23:1 25:2 
0.8883907660448924 0.03132312665090737 1:0.4 12:1 13:4 15:1.125 17:1 18:3 20:2 21:5 22:1 
0 1 1:1.35 13:3 15:1.225 20:7 21:1 22:3 23:1 24:1 25:3 
1 1 1:-0.475 12:1 13:1 14:1 15:0.125 18:1 20:5 22:4 25:3 
0 1 1:1.05 13:3 15:1.05 18:1 20:1 21:3 25:2 
0 1 1:0.9 2:0.090909091 5:1 13:2 15:0.9 16:1 20:6 21:1 25:1 
0 1 1:0.7 13:4 14:3 15:0.7 20:10 21:3 22:6 23:1 25:1 
0 1 1:1.275 13:2 15:1.4 20:2 21:3 22:3 25:1 
1 1 1:0.975 2:0.045454545 5:1 13:4 14:1 15:0.975 17:1 20:10 21:4 22:1 23:1 25:3 
1 1 1:-0.45 2:0.090909091 5:1 13:1 14:1 15:-0.2 18:1 20:2 21:5 
1 1 1:0.125 2:0.083333333 5:1 12:1 13:2 14:1 15:0.725 20:3 21:3 22:1 25:3 
0 1 1:1.1 13:2 15:1.1 20:2 21:2 22:2 
0 1 1:1.275 13:3 15:2 20:1 21:5 22:5 25:1 
1 1 13:2 14:3 20:2 21:2 22:1 25:2 
1 1 1:0.3 2:0.090909091 5:1 13:3 14:1 15:0.3 20:1 21:3 22:3 23:1 25:2 
0 1 1:1.05 13:3 15:1.05 20:9 21:2 25:1 
0.2164829386794938 1 1:0.825 13:3 14:1 15:1.075 20:6 21:4 25:4 
0 0.2135481313509165 1:2.075 2:0.17647059 5:1 13:5 15:2.075 20:8 21:1 22:4 25:1 
1 0 1:0.975 12:1 13:5 14:1 15:1.575 20:5 21:4 22:2 25:4 
1 1 1:0.725 13:2 15:0.725 20:3 21:3 22:7 23:1 25:1 
1 1 1:0.55 13:3 14:2 15:1.15 20:3 21:4 22:1 
1 1 1:-1.175 13:1 14:2 15:-0.3 17:2 20:4 21:1 25:1 
0 1 1:0.25 2:0.058823529 5:1 13:1 15:0.25 16:1 18:1 20:2 21:3 25:2 
1 1 1:-0.1 2:0.071428571 5:1 13:2 14:2 15:-0.225 16:1 18:1 20:3 21:4 22:1 25:2 
0 1 1:1.225 2:0.42857143 3:1 5:1 13:2 15:1.225 20:4 21:3 22:1 
1 1 1:0.05 13:2 14:2 15:0.05 20:5 21:1 25:4 
1 1 1:0.25 2:0.058823529 5:1 13:1 15:0.375 16:1 20:5 21:3 22:3 25:2 
0 1 1:1.575 2:0.10526316 5:1 13:5 14:1 15:1.325 16:1 20:8 21:1 22:3 25:2 
1 1 1:-0.625 2:0.18181818 5:1 13:1 15:0.125 20:6 21:2 22:1 
0 0.1127733881575128 1:1.925 13:6 15:1.925 20:2 21:3 22:3 25:5 
0 1 1:0.725 13:3 15:0.85 18:1 20:4 22:1 25:2 
1 1 1:-0.25 14:1 15:-0.5 20:3 21:1 24:1 
1 1 1:0.175 13:3 14:2 15:0.175 18:1 20:5 21:3 22:4 25:2 
1 0 1:-1.575 12:1 13:3 14:4 15:-0.225 18:2 20:2 21:5 22:1 25:2 
0 1 1:0.85 2:0.058823529 5:1 13:3 15:0.85 16:1 18:2 20:4 21:1 22:1 25:3 
0 1 1:0.8 2:0.0625 5:1 13:2 15:0.8 20:6 21:2 22:3 
1 1 1:-0.5 14:1 15:-0.5 21:2 23:1 
0 1 1:1.05 13:2 15:1.05 20:6 21:2 22:1 
0 1 1:0.65 2:0.052631579 5:1 8:1 12:1 13:3 15:1.45 20:6 21:5 22:2 25:1 
0 1 1:0.75 2:0.071428571 5:1 13:3 15:1.625 16:1 20:3 21:1 22:4 25:2 
0 1 1:1 13:2 15:1 20:1 21:3 22:2 
0 1 1:1.075 13:7 14:1 15:2.875 20:8 21:8 22:3 25:3 
0 1 1:0.6 13:1 15:0.6 20:2 25:1 
1 1 1:-1.95 12:1 14:2 15:-0.6 18:3 20:2 21:2 22:1 25:1 
1 1 1:0.425 13:2 14:1 15:0.675 20:7 21:2 22:6 25:2 
0 0.8499654075314488 1:0.875 13:3 15:1 20:4 22:8 25:2 
0.6189003552528797 1 1:0.2 13:1 14:1 15:0.2 17:1 18:1 20:2 21:3 
1 1 1:0.975 2:0.071428571 5:1 13:3 15:0.975 16:1 20:5 21:4 25:2 
1 1 1:-0.275 12:1 13:4 14:3 15:0.325 19:2 20:5 21:4 22:5 25:4 
0 1 1:0.475 13:3 15:1.225 20:5 21:3 22:1 25:2 
0 0.2224061757482776 1:1.2 8:1 13:4 15:2 21:6 22:1 25:1 
1 1 1:-0.625 2:0.05 5:1 12:1 13:3 14:1 15:1.3 20:4 21:9 22:6 
0 1 1:0.975 2:0.11764706 5:1 13:2 15:1.1 16:1 17:1 18:2 20:6 21:2 22:2 25:2 
0 1 1:0.825 2:0.066666667 5:1 13:4 14:1 15:0.825 20:6 21:1 25:4 
0 1 1:0.75 13:2 15:0.875 20:2 21:3 23:1 24:1 25:2 
0 1 1:0.6 2:0.058823529 5:1 13:3 14:1 15:1.2 20:5 21:4 22:3 25:1 
1 1 1:0.1 13:1 14:1 15:0.1 20:3 21:2 
1 1 1:0.85 13:2 14:1 15:0.725 20:4 21:4 
1 1 1:0.075 13:2 14:1 15:0.075 17:1 20:7 21:6 25:1 
0.7197225144822076 0 1:1.7 2:0.076923077 5:1 13:5 14:1 15:1.7 18:1 20:8 
0 1 1:1.125 13:3 15:1.125 17:1 18:1 20:3 21:3 22:4 
1 1 1:0.4 2:0.058823529 5:1 13:1 15:0.4 16:1 20:4 22:4 25:1 
1 1 1:0.625 13:3 14:1 15:1.35 20:3 21:7 
1 1 1:0.475 13:2 14:1 15:0.475 20:4 21:2 23:1 25:1 
1 1 1:-0.8 13:1 14:2 15:-0.55 20:2 21:3 22:1 
0 1 1:0.25 13:1 15:0.25 20:3 25:1 
0 1 1:1.275 13:3 14:1 15:1.275 18:1 20:4 21:4 25:1 
1 0 1:0.175 13:3 14:3 15:0.175 18:1 20:3 21:2 22:3 25:1 
0 1 1:0.25 10:1 13:1 15:0.25 18:1 20:4 22:3 25:2 
0 0.7228851716613672 1:0.15 8:1 13:1 14:1 15:-0.25 18:2 20:3 21:6 22:1 25:2 
1 1 1:0.2 13:3 14:1 15:0.325 20:5 21:1 22:1 25:2 
1 1 1:0.125 13:2 14:1 15:0.125 20:2 21:2 22:2 25:3 
0 1 1:-0.1 12:1 13:4 15:0.75 18:1 20:2 21:4 22:1 25:4 
0 1 1:1.475 13:3 15:1.475 20:6 21:3 22:1 25:2 
1 1 1:0.4 13:2 14:1 15:1 17:1 20:2 21:8 22:3 
0 1 1:0.4 2:0.2 5:1 13:1 14:1 15:0.4 16:1 18:1 25:1 
0 1 1:1 13:2 15:1 18:1 20:3 21:1 22:1 
1 1 1:0.875 13:4 14:1 15:1.25 17:3 20:4 21:4 24:1 25:2 
1 1 1:1.275 2:0.045454545 5:1 12:1 13:5 14:1 15:1.875 16:1 20:6 21:5 22:8 23:1 25:1 
0.4000783705451181 0 1:1.875 12:2 13:6 14:1 15:2.475 20:3 21:3 22:4 23:1 25:3 
1 1 1:-1.05 2:0.058823529 5:1 12:1 13:1 14:1 15:-0.55 18:1 20:3 21:3 25:2 
0 0.8770409355993707 1:1.325 13:4 14:1 15:1.325 17:2 20:3 21:1 22:4 25:4 
0 1 1:1.85 13:6 15:1.975 20:3 21:3 25:4 
1 0 1:-0.625 2:0.058823529 5:1 8:2 14:2 15:-0.9 20:4 21:2 22:3 25:1 
1 1 1:0.25 13:1 15:0.25 19:2 20:6 21:1 22:4 25:2 
0 1 1:1.35 13:3 15:1.35 20:4 21:1 22:1 25:3 
0 1 1:0.75 2:0.066666667 5:1 13:3 15:0.75 16:1 17:1 18:1 20:2 21:2 22:1 25:2 
0 1 1:0.45 2:0.0625 5:1 8:1 13:2 14:1 15:0.3 20:3 21:1 25:6 
0.4808664343644797 1 1:-0.175 12:1 13:2 14:2 15:0.575 18:8 20:6 21:3 22:1 
0 1 1:0.5 13:1 15:0.5 18:1 20:4 21:1 25:1 
1 1 1:0.45 10:1 13:2 14:1 15:0.45 20:5 21:4 22:6 25:2 
0 1 1:0.95 2:0.083333333 5:1 13:3 15:1.2 16:1 18:1 20:2 21:1 22:2 25:4 
0 1 1:1.225 13:4 15:1.475 18:2 20:6 21:7 25:1 
0 1 1:1.375 2:0.055555556 5:1 13:5 15:1.5 16:1 18:1 20:6 21:6 22:1 25:1 
1 1 1:0.675 13:2 14:1 15:0.675 20:3 21:4 25:1 
1 1 1:0.075 13:2 14:2 15:0.2 17:1 18:1 21:2 22:3 25:1 
1 1 1:-0.125 17:2 20:3 21:3 22:1 24:1 
0.4080395620386999 1 1:-0.6 12:1 17:2 18:3 20:3 21:5 22:1 
0 1 1:0.675 2:0.16666667 3:1 5:1 13:2 15:0.8 20:1 21:1 25:1 
0 1 1:1.45 13:5 15:2.05 17:1 20:2 21:5 22:1 25:2 
0 1 1:-0.3 13:3 14:1 15:0.45 18:2 20:5 21:4 22:2 25:1 
0 0.8949252823873081 1:0.925 13:4 14:1 15:1.05 17:1 18:3 20:7 21:5 22:4 25:4 
0 1 1:0.275 13:4 14:1 15:1.025 18:1 19:2 20:6 21:4 25:2 
0 1 1:0.75 13:3 14:1 15:0.875 20:4 21:2 22:1 23:1 25:2 
0 1 1:0.35 2:0.0625 5:1 13:2 14:1 15:0.95 16:1 18:1 20:5 21:1 22:1 25:2 
0 1 2:0.25 5:1 13:1 14:1 16:1 18:1 20:3 21:2 
1 1 1:0.675 13:4 14:1 15:1.525 20:2 21:8 22:3 
0 1 1:0.475 2:0.15384615 3:1 5:1 13:2 15:0.725 17:1 20:4 21:2 22:1 
1 1 1:-0.775 2:0.1 4:1 5:1 12:1 13:1 14:3 15:-0.175 20:4 21:1 22:1 
0 1 1:0.8 13:3 15:0.925 18:1 20:4 21:1 22:1 
0 0.371080257452346 1:0.35 2:0.038461538 5:1 12:1 13:3 15:1.7 17:2 18:5 20:1 21:6 22:1 25:1 
0 1 1:0.8 2:0.16666667 5:1 13:2 15:0.8 16:1 20:3 21:2 22:1 25:1 
1 1 1:-0.475 12:1 13:2 14:1 15:0.5 20:4 21:2 22:1 25:1 
0 1 1:1.375 8:1 13:5 15:1.225 20:3 21:2 22:1 25:4 
0 1 1:0.85 13:3 15:0.85 20:4 21:3 22:6 25:3 
1 1 12:1 13:3 15:1.8 20:2 21:6 22:1 23:1 
0 1 1:0.475 13:1 14:1 15:0.475 20:4 22:1 
1 1 1:0.35 13:3 14:2 15:1.075 20:5 21:5 22:1 25:1 
0 1 1:0.775 13:2 15:0.9 20:2 21:2 
1 1 1:0.275 13:2 15:0.525 20:4 21:4 22:1 25:1 
0.2580088154798466 1 1:0.575 13:4 15:0.825 20:3 21:2 22:2 25:6 
0 1 1:1.625 13:4 15:2.225 20:1 21:5 
1 1 1:-0.6 12:1 13:2 15:0.75 17:1 20:4 21:2 22:2 23:1 
1 1 1:-0.45 12:1 13:3 14:5 15:0.15 18:1 20:3 21:3 22:6 23:1 25:3 
0 1 1:0.6 2:0.0625 5:1 13:1 15:0.6 18:1 20:5 21:1 25:1 
1 1 1:-0.5 13:1 14:2 15:-0.5 17:1 19:2 20:7 21:4 22:1 25:1 
0 0.8842011849371956 1:0.725 2:0.066666667 3:1 5:1 8:1 13:2 15:0.325 18:1 20:1 25:1 
0 1 1:1.4 2:0.0625 5:1 13:3 14:1 15:1.4 20:4 21:4 22:4 25:1 
0 1 1:1.325 2:0.11111111 5:1 13:4 14:1 15:1.45 16:1 18:1 20:9 21:1 25:3 
0 1 1:0.35 2:0.375 3:1 5:1 13:3 14:1 15:0.475 18:1 20:5 21:4 22:3 25:1 
0 0.1987877978686663 1:2 2:0.11764706 3:1 4:1 5:1 13:6 14:1 15:1.9 18:1 20:7 21:2 25:4 
1 1 1:0.9 2:0.066666667 5:1 13:3 14:1 15:0.9 16:1 20:3 21:7 25:2 
1 0 1:1.110223e-16 8:1 12:1 13:3 14:2 15:0.2 20:4 21:1 22:2 25:1 
1 1 1:-1.2 13:1 14:3 15:-1.2 20:5 21:4 22:2 
0 1 1:0.5 13:3 15:0.5 18:1 20:3 21:3 22:1 25:4 
1 1 1:0.075 12:1 13:2 14:2 15:0.075 20:6 21:2 22:1 25:3 
0 1 1:0.525 13:4 14:2 15:1.125 20:4 21:5 22:2 
0.6029406275144091 1 1:0.75 2:0.066666667 5:1 13:3 14:2 15:0.75 16:1 20:4 21:2 25:4 
0.8974608847432718 1 1:1.75 2:0.0625 5:1 13:5 15:1.75 20:5 21:5 25:2 
0 1 1:0.525 2:0.090909091 5:1 13:1 15:0.4 16:1 18:1 20:3 21:1 22:1 25:1 
1 0.449315794041619 1:-1.3 12:1 13:3 14:4 15:-0.3 20:6 21:3 23:1 25:2 
0.9626732564068832 1 1:0.5 13:1 15:0.5 17:1 20:8 21:1 22:2 
1 1 1:-0.125 2:0.5 5:1 22:1 25:2 
0.4942223330817618 0.548263121370461 1:3.65 2:0.086956522 5:1 13:10 14:2 15:3.65 18:6 20:7 21:6 22:1 25:3 
0.8284248690776429 0 1:-0.05 9:1 12:1 13:7 14:1 15:2.55 18:4 20:3 21:8 22:2 25:3 
0 1 1:0.25 2:0.071428571 5:1 13:2 15:0.25 16:1 19:1 20:2 21:3 25:2 
0 0.5491030926593956 1:1.675 13:6 14:1 15:2.025 20:6 21:3 22:3 25:1 
0.1868903052147077 1 1:-0.2 2:0.14285714 4:1 5:1 12:1 13:1 14:1 15:0.4 16:1 18:1 21:1 22:1 25:2 
0 1 1:0.6 13:1 15:0.6 20:1 21:1 25:1 
0 1 1:0.4 2:0.5 3:1 5:1 13:1 15:0.4 18:1 20:2 21:2 
1 1 1:0.75 2:0.05 5:1 13:2 14:1 15:0.75 16:1 20:4 21:2 22:7 23:1 25:1 
0 1 1:1.2 2:0.066666667 5:1 13:2 15:1.2 20:3 21:3 22:4 25:2 
1 1 1:0.4 2:0.16666667 5:1 13:1 14:1 15:0.4 16:2 20:3 23:1 25:1 
1 1 1:0.45 2:0.13333333 5:1 13:2 14:1 15:0.45 16:1 20:7 21:3 25:2 
0 1 1:0.9 2:0.11111111 5:1 13:3 15:0.9 16:1 20:4 21:1 22:3 25:1 
0 1 1:0.75 13:4 14:1 15:1.5 20:4 21:4 22:1 25:2 
1 1 1:-0.125 2:0.071428571 5:1 14:1 15:-0.125 16:1 20:5 21:2 25:2 
0.8274100109577391 1 1:1.225 13:6 15:1.625 17:1 18:1 20:7 21:6 25:1 
0 1 1:1.075 13:4 14:1 15:1.2 20:1 21:3 25:2 
1 0.6981953190924577 1:-1.225 12:1 13:7 14:3 15:1.425 20:2 21:8 22:1 25:2 
1 1 1:0.15 13:5 14:2 15:1.5 20:3 21:6 23:1 25:2 
0 1 1:0.725 13:2 15:0.725 18:1 20:1 21:2 
0.2174675654235447 1 1:1.05 13:4 15:1.175 20:5 21:4 
0 1 1:1.475 13:4 14:1 15:1.475 17:1 20:4 21:4 22:7 25:2 
0 1 1:0.6 8:1 13:1 15:0.2 20:3 21:3 22:1 
0 1 1:0.5 8:1 13:1 14:1 15:0.1 17:1 18:1 20:7 21:2 25:1 
0 1 1:0.6 13:1 15:0.6 20:3 21:3 25:1 
1 1 1:0.5 13:3 14:2 15:0.5 20:5 21:6 22:1 25:1 
0 1 1:0.65 13:2 15:0.65 20:4 21:2 25:3 
0 1 1:2.375 2:0.052631579 5:1 13:5 14:1 15:2.375 16:1 17:1 20:8 21:2 25:3 
1 1 1:0.025 13:1 14:3 15:-0.175 17:1 20:5 21:2 25:3 
0 1 1:1.5 2:0.066666667 5:1 13:4 15:2 16:1 20:2 21:2 
0 1 1:0.4 2:0.21428571 5:1 8:1 13:2 15:0.25 17:1 18:1 20:5 21:2 22:1 
0 1 1:1.225 2:0.0625 5:1 13:3 15:0.975 16:1 20:7 21:4 22:1 25:2 
0.2613966416870701 0.527880282332594 1:1.075 2:0.045454545 5:1 13:6 14:1 15:2.6 17:1 19:2 20:7 21:6 25:1 
0 1 1:0.125 12:1 13:2 15:0.725 18:2 20:4 21:6 22:3 
0 1 1:1.875 2:0.071428571 5:1 13:5 15:2 20:5 21:4 22:1 25:1 
1 1 1:-0.6 2:0.058823529 5:1 12:1 13:4 14:2 15:0.6 18:1 20:4 21:7 22:3 
0.4737166756462292 0.978564184613357 1:0.35 2:0.25 3:1 4:2 5:1 13:6 14:4 15:-0.15 18:1 20:10 21:3 22:6 25:2 
0 1 1:0.925 13:3 14:1 15:0.925 21:1 22:1 25:3 
0 1 1:1.05 2:0.13333333 5:1 13:2 15:1.05 20:6 21:1 22:1 25:2 
0 1 1:1.15 2:0.125 5:1 13:5 15:1.275 16:1 20:4 21:4 22:1 25:4 
0 1 1:0.65 13:2 14:1 15:0.525 20:2 21:2 25:2 
0 1 1:0.1 13:1 14:1 15:0.1 18:2 20:2 21:1 25:1 
1 1 1:0.75 13:4 14:1 15:1 17:1 19:2 20:3 21:6 22:1 25:1 
0 1 1:-0.025 13:2 15:0.725 18:2 20:6 21:2 25:2 
1 1 1:0.075 2:0.0625 5:1 13:3 14:4 15:-0.05 20:5 21:5 22:1 23:1 24:1 25:1 
1 1 1:1.675 13:5 14:1 15:1.675 20:5 21:3 22:12 25:4 
0 1 1:1.05 13:4 15:1.175 20:5 21:1 22:1 25:2 
0 1 1:0.275 2:0.1 5:1 13:1 14:1 15:0.275 16:1 20:2 21:1 25:1 
0 0.5336962315805953 1:1.9 8:1 13:8 14:1 15:2.2 17:1 18:1 20:7 21:9 22:2 25:1 
0 1 1:0.4 2:0.1 5:1 13:1 15:0.4 16:1 20:2 21:3 
0 1 1:1.375 8:1 13:2 14:1 15:0.725 17:2 20:2 21:3 22:1 
1 1 1:-0.5 13:1 14:1 15:-0.375 20:2 21:4 
0 1 1:0.85 2:0.083333333 5:1 13:3 15:0.975 16:1 20:6 21:5 22:1 24:1 25:3 
0 1 1:1.45 13:3 15:1.45 18:1 20:7 21:2 25:2 
1 1 1:0.775 12:1 13:4 14:1 15:1.375 20:3 21:3 22:1 
0 1 1:-0.25 13:1 14:1 15:-0.25 18:3 20:2 21:4 22:1 
0 1 1:0.25 8:1 13:1 14:1 15:-0.15 20:1 21:2 22:1 25:3 
0 1 1:0.45 2:0.076923077 5:1 13:4 14:2 15:1.175 16:1 20:4 21:3 22:1 
1 1 1:-0.3 2:0.13333333 5:1 13:1 14:1 15:-0.3 16:1 18:1 20:4 21:2 25:1 
1 1 1:-1.575 2:0.05 5:1 12:1 13:1 14:1 15:-0.1 18:4 20:3 21:4 22:6 
1 1 1:-0.25 13:1 15:0.125 20:3 21:2 22:1 25:1 
1 1 1:-0.55 2:0.21428571 5:1 13:1 14:1 15:0.2 16:1 20:4 21:2 22:3 24:1 
0 1 1:-0.15 13:1 15:0.6 18:1 20:1 21:4 22:2 
0 1 1:0.4 13:1 15:0.4 18:1 20:3 21:1 25:2 
0 1 1:-0.875 2:0.076923077 5:1 14:1 15:-0.125 16:1 18:3 21:4 22:1 
0 1 1:0.375 13:1 15:0.5 18:2 20:3 21:1 25:2 
0 1 1:1 13:3 15:1.25 20:7 21:4 22:4 25:2 
1 1 1:-1.225 2:0.076923077 5:1 14:2 15:-1.225 16:1 20:5 21:2 25:1 
1 0 1:0.725 12:2 13:4 14:2 15:0.925 17:1 18:2 20:3 21:1 22:7 25:2 
0 1 1:1.7 2:0.052631579 5:1 13:4 15:1.95 17:1 20:8 21:1 22:1 25:1 
0 1 1:0.6 13:2 15:0.975 17:1 20:1 21:3 25:2 
0 0.7596840214788175 1:1.5 2:0.047619048 5:1 13:4 15:1.5 18:1 20:4 21:4 22:3 25:3 
0 1 1:0.8 2:0.18181818 5:1 13:2 15:0.8 18:2 20:3 21:3 23:1 25:3 
0.6251866054365114 0.8715079089154141 1:1.475 2:0.13636364 5:1 13:4 15:1.6 18:7 20:2 21:2 22:5 25:4 
0.2264304306829414 0 1:0.3 13:5 14:3 15:0.3 18:2 20:4 21:4 
0.9632415422201369 1 1:-0.675 2:0.14285714 5:1 6:1 7:1 14:1 15:-0.5 18:2 21:2 22:1 
0 1 1:1.825 2:0.0625 5:1 13:4 14:1 15:1.825 16:1 20:8 21:1 25:3 
0 0.7645063904489013 1:2.625 2:0.08 5:1 8:1 13:7 15:2.35 20:6 21:5 22:6 25:4 
0.6886611800444421 0.6492510606614431 1:0.9 12:2 13:11 14:2 15:3.675 20:1 21:10 22:4 25:3 
0.004295445616332811 0 1:0.475 13:2 15:0.725 18:6 19:3 20:1 21:3 25:1 
1 1 1:-1.475 2:0.090909091 5:1 12:1 18:1 20:3 21:2 22:1 
0 1 1:0.4 2:0.090909091 5:1 13:1 15:0.4 16:1 21:1 25:1 
0.2022077971355517 1 1:0.85 13:5 14:1 15:1.2 18:1 20:4 21:6 25:2 
0 1 1:-0.1 12:1 13:1 15:0.5 18:1 20:3 21:2 22:2 
1 1 1:-0.3 13:1 14:1 15:-0.3 20:5 21:2 22:1 25:3 
1 1 1:0.025 13:2 14:1 15:0.15 17:1 20:1 21:4 25:1 
0.5027066707093958 1 1:0.4 13:2 14:1 15:0.4 17:1 19:2 20:2 21:1 22:1 23:1 25:3 
0 1 1:1.2 13:2 15:1.2 18:1 20:2 21:3 
0 1 1:2.25 2:0.055555556 5:1 13:6 15:1.75 17:1 20:6 25:5 
0 1 1:0.725 13:3 14:1 15:0.725 20:2 21:3 25:2 
0 1 1:0.725 2:0.090909091 5:1 13:2 15:0.725 16:1 18:1 20:3 21:3 
1 0 1:-0.1 12:2 13:4 14:2 15:0.75 18:1 20:3 21:5 22:1 25:3 
0 1 1:1.2 13:3 15:1.8 20:2 21:5 22:6 
0 1 1:1.3 2:0.0625 5:1 13:4 15:1.3 16:1 20:5 21:2 22:3 25:3 
0 1 1:0.6 13:2 15:0.725 17:1 18:2 20:4 21:2 22:1 25:3 
0 1 1:0.375 2:0.058823529 5:1 13:2 15:0.375 16:1 18:1 20:3 21:3 22:3 23:1 25:3 
1 1 1:-0.3 12:1 13:2 14:1 15:0.425 18:1 20:3 21:3 22:1 25:2 
1 1 1:-0.15 12:1 13:1 14:1 15:0.1 19:2 20:4 21:2 25:1 
0 1 1:0.6 13:2 14:1 15:0.6 20:7 21:2 22:2 25:1 
0 0.1585598310545028 1:0.225 2:0.29411765 3:1 5:1 13:4 15:0.975 16:1 18:5 20:4 21:3 22:1 25:2 
1 1 1:0.05 2:0.052631579 5:1 13:4 14:1 15:0.925 20:4 21:6 22:2 25:1 
0 1 1:0.3 2:0.11111111 5:1 13:5 15:1.55 16:1 18:1 20:5 21:3 22:1 25:3 
0 1 1:0.4 2:0.14285714 5:1 8:1 16:1 18:5 20:4 21:3 
0 1 1:1.375 13:5 14:1 15:1.375 20:5 21:4 22:3 25:3 
0 1 1:1.35 13:2 15:0.85 18:1 20:2 21:1 25:3 
0 1 1:1.25 2:0.33333333 3:1 5:1 13:3 15:1.25 20:5 21:1 22:1 23:1 25:2 
0 0.404031079133325 1:1.725 13:5 15:2.45 18:3 20:3 21:8 
0 1 1:1.125 2:0.086956522 5:1 13:4 14:1 15:1.125 17:1 18:2 20:8 21:3 22:4 24:1 25:1 
1 1 12:1 13:2 15:0.725 20:3 21:2 22:4 24:1 25:2 
1 1 1:-0.6 12:1 13:2 14:1 15:-1.110223e-16 20:5 21:6 22:3 25:1 
0 1 1:1.25 2:0.0625 5:1 13:3 15:1.25 16:1 20:4 25:3 
0 1 1:0.525 2:0.076923077 5:1 13:2 15:0.65 16:1 18:1 20:6 21:1 22:1 25:1 
0 1 1:0.25 2:0.0625 5:1 13:2 15:0.375 16:1 18:2 20:1 21:3 24:1 25:2 
0 1 1:1.05 2:0.058823529 5:1 10:1 13:4 14:1 15:1.05 20:7 21:3 25:4 
0 1 1:0.6 13:2 14:1 15:0.6 20:5 21:1 25:2 
0 1 1:1.775 13:4 15:1.775 20:5 21:3 22:7 23:1 25:1 
1 1 1:1.2 13:4 15:1.8 20:5 21:7 
0 1 1:-0.525 2:0.2 5:1 12:1 13:1 14:1 15:0.075 16:1 18:6 20:3 21:1 22:1 25:1 
0 1 1:0.725 10:2 13:2 15:0.725 20:1 21:4 22:2 
1 1 1:0.475 13:2 14:1 15:0.475 20:4 21:3 
0 1 1:0.125 2:0.071428571 5:1 13:1 15:0.125 16:1 18:1 20:4 21:2 22:2 25:1 
0 0.8642098247632952 1:0.55 13:4 14:1 15:1.15 18:1 20:1 21:4 22:2 
0.05741927902027599 0 1:1.3 13:5 14:2 15:1.3 18:1 20:6 21:5 22:2 25:5 
0.6519290711415551 1 1:0.125 2:0.1 5:1 13:1 15:0.125 20:3 22:1 25:3 
0 1 1:1.6 13:4 14:1 15:1.35 20:2 21:5 22:1 
1 1 1:0.025 13:2 14:3 15:0.15 20:7 21:5 22:1 25:5 
0 1 1:0.35 10:1 13:2 14:2 15:-0.15 18:1 21:2 23:1 25:1 
1 1 1:0.05 13:3 14:1 15:0.925 17:1 20:3 21:5 22:2 24:1 
0 1 1:0.4 2:0.11764706 5:1 13:1 15:0.4 18:2 20:6 21:2 22:1 25:2 
0 1 1:0.5 2:0.0625 5:1 13:4 15:1.25 18:1 20:4 21:2 22:1 25:2 
0 1 1:0.85 2:0.083333333 5:1 13:2 15:0.975 16:1 20:4 21:1 22:1 25:1 
0 1 1:1.325 2:0.10526316 5:1 8:1 13:4 15:1.3 16:1 18:1 20:9 22:1 25:2 
0 1 1:0.6 2:0.090909091 5:1 13:1 15:0.6 16:1 18:1 20:2 21:1 22:1 25:1 
1 0 1:-0.675 12:1 13:3 14:3 15:0.05 18:3 20:4 21:6 22:4 25:2 
1 1 1:0.225 13:3 14:2 15:0.6 20:4 21:1 22:4 23:1 
1 1 1:-0.125 2:0.083333333 5:1 12:1 13:4 14:3 15:-0.575 18:1 19:2 20:4 21:2 22:1 
0.1381550600778228 0.7773559585267409 1:1.2 13:4 14:2 15:0.95 20:7 21:1 22:4 25:5 
1 1 1:-0.1 13:2 14:3 15:-0.1 20:4 21:3 22:3 
1 1 1:-1 2:0.086956522 5:1 14:3 15:-1 17:1 18:1 20:7 21:4 22:5 
0.2579452529088669 0 1:0.475 13:2 15:0.725 18:6 19:3 20:1 21:3 25:1 
0 1 1:1.35 2:0.25 3:1 5:1 13:3 15:1.35 16:1 19:2 20:4 21:1 25:2 
0 1 1:1.6 8:1 13:2 15:1.2 18:1 20:5 21:4 22:7 
0 1 1:-0.375 13:2 15:0.375 18:1 20:1 21:3 25:2 
0 1 1:0.55 2:0.125 5:1 13:2 14:1 15:0.55 16:1 19:2 20:3 25:1 
0 1 1:1.65 2:0.058823529 5:1 13:3 15:1.65 16:1 20:6 21:1 22:3 25:3 
0 1 1:0.65 2:0.125 5:1 8:1 13:2 15:0.5 16:1 18:1 20:2 21:3 22:1 23:1 25:5 
1 1 1:0.275 13:2 14:1 15:0.4 20:3 21:3 
0 1 1:0.125 2:0.071428571 5:1 13:1 15:0.125 16:1 20:4 21:1 25:2 
0 1 1:0.75 8:1 13:3 15:1.8 18:1 20:4 21:5 22:5 23:1 
1 0 1:0.1 8:1 12:1 13:5 14:2 15:1.125 20:2 21:5 22:1 23:1 25:4 
0 1 1:-0.2 13:4 14:1 15:1.425 20:6 21:2 22:1 25:3 
1 1 1:-0.075 2:0.058823529 5:1 12:1 13:1 14:1 15:0.05 20:7 21:4 22:1 23:1 25:3 
0 1 1:0.475 13:1 14:1 15:0.475 20:1 21:1 22:1 25:1 
1 1 1:-0.675 2:0.11111111 5:1 14:1 15:-0.8 16:1 17:1 20:4 21:1 25:1 
0 1 1:0.5 2:0.090909091 5:1 13:2 15:0.5 16:1 18:1 20:2 21:2 25:4 
0 1 1:0.1 2:0.066666667 5:1 13:1 14:1 15:0.1 18:2 20:4 21:2 22:2 
1 1 1:0.125 2:0.083333333 5:1 13:3 14:1 15:0.725 20:6 21:3 
0 1 1:0.275 2:0.05 4:1 5:1 13:1 14:1 15:0.275 18:5 20:6 21:2 25:1 
0 1 1:0.6 2:0.23529412 5:1 13:1 15:0.6 16:1 20:2 21:1 22:1 
1 1 1:1.1 13:4 15:1.35 20:2 21:2 22:2 25:7 
0 1 1:0.85 2:0.076923077 5:1 13:3 15:0.975 16:1 20:2 21:2 22:1 25:2 
1 1 1:-0.65 13:2 15:0.85 20:6 21:2 22:6 25:4 
1 0.7633841069412444 1:1.3 8:1 13:4 14:2 15:0.9 20:4 21:4 22:7 25:6 
0 1 1:0.875 13:3 15:0.875 18:1 20:8 21:3 22:4 25:3 
0 1 1:0.325 2:0.058823529 5:1 13:2 15:0.575 18:1 20:3 21:3 22:1 25:3 
1 1 1:0.6 2:0.052631579 5:1 13:2 14:1 15:0.6 16:1 20:2 21:3 22:3 25:2 
0 1 1:-0.475 13:3 14:1 15:0.65 20:5 21:1 22:2 23:1 25:4 
0.1821962179748718 0 1:-0.35 12:1 13:2 14:1 15:0.25 18:2 20:4 21:3 22:3 
1 1 1:0.85 2:0.052631579 5:1 13:3 14:1 15:0.35 17:1 20:3 21:3 22:3 25:3 
0 1 1:0.4 2:0.5 3:1 5:1 13:1 15:0.4 20:1 21:1 22:1 25:3 
1 0 1:-1.5 12:1 13:2 14:2 15:-0.15 18:2 20:2 21:1 22:2 23:1 25:2 
0 1 1:1.225 2:0.076923077 5:1 13:2 15:1.225 16:1 20:2 21:2 25:2 
0 1 1:0.725 13:2 15:0.725 20:2 21:2 22:2 25:1 
1 1 1:-0.1 12:1 13:1 15:0.5 20:6 21:4 22:2 25:1 
0 1 1:0.575 2:0.071428571 5:1 13:3 15:0.575 20:4 21:3 22:3 25:3 
0 1 1:1.375 13:4 15:1.375 20:5 21:2 22:4 25:2 
1 1 1:0.2 8:1 9:1 13:4 14:1 15:1.2 20:3 21:6 22:3 25:4 
0 1 1:0.6 13:2 14:1 15:0.725 20:3 21:1 22:1 25:4 
0.5758170686092069 0.4078740603648023 1:1.2 13:6 14:3 15:1.35 17:2 20:4 21:3 25:5 
0 1 1:0.6 2:0.1875 5:1 13:1 15:0.6 16:1 20:2 21:1 22:1 
0 1 1:0.5 2:0.052631579 5:1 13:3 15:1.25 16:1 18:1 20:4 21:1 22:4 25:4 
0 1 1:1.2 13:4 14:1 15:1.8 20:6 21:5 22:1 25:1 
0 1 1:0.575 13:3 14:1 15:0.575 20:3 21:2 22:1 23:1 25:4 
1 1 1:-2 2:0.13333333 5:1 12:2 14:1 15:-0.4 19:2 20:3 21:6 22:2 
1 1 1:-0.55 12:1 13:5 14:2 15:0.175 17:2 18:1 20:5 21:3 22:2 23:1 25:2 
1 1 1:1.425 13:6 14:2 15:1.425 20:6 21:3 25:5 
0.09116286714747121 1 1:0.75 2:0.11111111 5:1 13:5 14:2 15:1.5 21:4 25:2 
0 1 1:1.5 13:4 15:1.25 21:3 25:3 
0 0.4332449310083706 1:1.7 2:0.083333333 5:1 13:4 15:1.7 16:1 18:1 20:2 21:2 25:2 
0 1 1:1.6 2:0.05 5:1 13:4 15:1.725 16:1 20:5 21:2 22:3 25:3 
0 1 1:-1.3 2:0.0625 5:1 12:1 14:1 15:-0.2 16:1 18:2 20:3 21:2 22:2 
0 1 1:-0.55 2:0.2 5:1 13:2 15:0.45 18:4 20:2 21:2 25:2 
1 1 1:0.95 13:2 14:1 15:0.95 21:3 22:3 25:1 
0 1 1:1.6 13:4 14:1 15:1.6 20:5 21:4 24:1 
0 1 1:1.075 13:2 14:1 15:1.075 17:1 20:4 21:2 
1 1 1:0.075 2:0.066666667 5:1 12:1 13:4 14:1 15:0.925 18:1 20:7 21:3 22:1 25:2 
1 1 1:-1 2:0.15384615 5:1 12:1 14:1 15:-0.4 16:1 18:1 20:3 21:2 22:1 
0 1 1:0.05 13:3 14:1 15:0.05 18:2 20:2 21:2 25:1 
0 1 1:-1.2 2:0.13333333 5:1 12:1 13:2 14:1 15:0.275 18:2 20:2 21:4 22:1 24:1 25:4 
0.9472744968614956 1 1:0.725 2:0.05 5:1 13:3 14:1 15:0.975 16:1 20:4 21:2 22:7 25:5 
1 1 1:0.075 13:2 14:2 15:0.075 17:2 20:5 21:3 22:3 25:2 
1 1 1:0.1 13:1 14:1 15:0.1 20:1 21:1 22:1 25:1 
0.06463402167204134 0 1:2.25 2:0.21052632 3:1 5:1 8:1 13:5 15:2.45 18:2 20:3 21:1 
0 1 1:0.975 13:5 15:1.475 20:2 21:5 22:1 25:2 
0 1 1:0.9 13:2 15:0.9 20:5 21:1 22:1 
0 1 1:0.6 13:1 15:0.6 17:1 20:4 21:1 22:3 25:1 
1 1 1:0.1 13:2 14:1 15:0.225 20:6 21:2 22:4 23:1 25:1 
0 1 1:0.525 8:1 14:1 15:-0.125 18:1 20:1 21:3 22:1 
0 1 1:-0.1 8:1 14:1 15:-0.5 20:2 21:1 
0 1 1:0.725 13:2 15:0.725 18:2 20:3 21:5 22:1 24:1 25:1 
1 1 1:0.325 2:0.076923077 5:1 13:3 14:2 15:0.325 20:4 21:1 22:1 25:1 
0 1 2:0.066666667 5:1 16:1 18:3 20:3 21:3 25:2 
1 1 1:0.75 2:0.043478261 5:1 12:1 13:4 15:1.225 17:1 18:1 20:4 21:6 22:5 25:2 
1 1 1:-0.625 8:1 12:1 13:2 15:0.45 17:1 20:2 22:1 25:3 
0 1 1:0.125 13:1 15:0.125 18:2 20:2 21:2 22:3 25:2 
1 1 1:0.8 2:0.058823529 5:1 8:1 13:3 14:2 15:1 20:1 21:11 25:1 
0 0.3465822169245091 1:1.85 13:5 15:1.85 20:5 21:3 22:4 25:6 
0.8504778919171604 1 1:0.425 12:1 13:4 15:1.775 20:10 21:6 22:9 25:6 
0 1 1:0.125 13:1 15:0.125 18:1 20:4 21:4 22:1 
0 1 1:1.65 2:0.125 5:1 13:4 15:1.65 16:1 20:5 21:3 25:3 
1 1 1:-0.625 2:0.16666667 5:1 14:1 15:-0.5 20:1 21:2 
0.5129600837278414 0.4461448133271541 1:1.725 2:0.23076923 3:2 4:1 5:1 8:2 13:7 14:1 15:1.725 18:8 20:10 21:1 22:1 23:1 25:3 
1 1 1:-0.55 2:0.037037037 5:1 13:2 14:3 15:-0.55 20:7 21:2 22:1 25:3 
1 1 1:-0.5 2:0.066666667 5:1 13:3 14:1 15:0.25 16:1 20:4 21:1 25:4 
0 1 1:1 13:2 15:1 18:2 20:6 21:2 23:1 25:1 
0 1 1:0.4 13:1 15:0.4 20:4 21:3 25:1 
1 1 1:-0.25 2:0.066666667 5:1 13:1 14:1 15:-0.25 17:1 18:1 20:3 21:2 22:4 23:1 
0 1 1:0.6 2:0.1 5:1 8:1 13:2 14:1 15:0.2 16:1 18:1 20:4 23:1 25:1 
0 1 1:0.9 2:0.16666667 5:1 13:2 15:0.9 16:1 18:1 20:6 21:1 
0 1 1:0.575 13:2 14:1 15:0.575 20:4 21:1 
0 1 1:0.45 13:2 15:0.45 20:2 21:2 22:1 25:2 
0 1 1:0.225 13:2 15:0.975 18:1 20:9 21:1 22:3 25:2 
0 1 1:0.45 13:2 15:0.45 18:1 20:1 21:3 22:1 25:3 
0 1 1:0.4 2:0.0625 5:1 13:1 15:0.4 16:1 18:1 20:5 25:3 
0 1 1:0.375 2:0.076923077 5:1 13:2 15:0.5 16:1 20:3 21:3 25:4 
0 1 1:1.05 6:1 13:3 15:0.925 18:1 20:3 21:4 22:3 
1 1 1:-0.1 2:0.066666667 5:1 12:1 13:2 14:1 15:0.5 16:1 18:1 20:6 22:1 
0 1 1:0.975 2:0.071428571 5:1 13:3 15:0.975 16:1 20:2 21:1 22:1 25:3 
0 1 1:1.25 13:4 15:1.375 20:2 21:2 22:3 25:4 
0 1 1:0.375 13:1 15:0.375 20:2 21:1 22:1 
0.9701820777802453 1 1:0.375 2:0.027777778 5:1 13:1 15:0.125 16:1 20:8 21:9 22:1 23:1 25:2 
0 1 1:1.025 2:0.05 5:1 8:1 13:2 14:1 15:0.625 20:6 21:1 22:3 25:4 
0 0.1475886842577408 1:1.575 2:0.21428571 5:1 12:1 13:5 15:2.175 16:1 20:3 21:4 22:1 25:3 
1 1 1:0.1 2:0.066666667 5:1 13:2 14:1 15:0.1 16:1 20:4 21:1 22:3 25:1 
0 1 1:0.55 2:0.090909091 5:1 13:1 14:1 15:0.425 16:1 20:3 21:1 25:1 
0.215253591472596 1 1:2.025 13:6 14:2 15:2.625 19:2 20:12 21:5 22:1 23:2 25:2 
0 1 1:0.85 13:2 15:0.85 20:2 21:2 22:1 
0 1 1:0.575 13:4 15:1.325 17:1 20:3 21:3 22:2 25:1 
1 1 1:0.275 13:4 14:1 15:1.125 17:1 20:1 21:5 22:3 
0 0.8543873132052174 1:1.075 2:0.44444444 3:2 5:1 13:3 15:1.075 18:8 20:5 21:2 25:1 
0 0.7447305999865331 1:1.15 13:3 14:1 15:1.15 17:2 18:3 20:1 21:3 
1 1 1:-0.025 10:1 13:3 14:2 15:0.35 20:2 21:4 25:3 
0 1 1:1.175 2:0.30769231 5:1 13:4 15:1.3 16:1 20:6 22:1 25:3 
0 1 1:0.975 13:1 15:0.6 20:5 21:4 25:2 
0 1 1:1.25 8:1 13:3 15:1.1 20:5 21:3 25:4 
0 1 1:0.675 2:0.18181818 5:1 13:3 14:1 15:1.275 16:1 20:5 21:2 25:1 
0 1 1:0.8 2:0.1 5:1 13:2 15:0.8 20:2 21:2 25:1 
1 1 1:0.5 2:0.055555556 5:1 12:1 13:3 15:1.35 16:1 20:5 21:5 22:4 25:1 
1 1 1:1.325 2:0.055555556 5:1 13:4 15:1.925 17:1 20:5 21:7 22:1 25:3 
0 1 1:1.2 2:0.2 3:1 5:1 13:2 15:1.2 16:1 20:5 22:2 25:2 
1 1 1:0.975 2:0.10526316 4:1 5:1 13:4 14:1 15:1.1 20:5 21:5 22:6 25:1 
1 1 1:0.875 12:1 13:4 14:2 15:1.475 20:5 21:5 22:6 25:2 
1 0 1:-1.525 2:0.076923077 3:1 5:1 12:2 13:2 14:4 15:-0.925 18:2 20:5 21:1 22:1 25:1 
0 1 1:1.075 13:3 14:1 15:1.075 20:3 21:4 22:4 
0 1 1:1.25 2:0.076923077 5:1 13:3 15:1.25 16:1 18:1 20:3 21:1 23:1 25:5 
0 1 1:0.5 2:0.11111111 3:1 5:1 8:1 13:1 14:2 15:-0.4 17:1 20:2 21:2 
1 1 1:0.25 12:1 13:3 14:1 15:0.85 20:4 21:3 22:5 23:1 25:2 
0 1 1:0.8 13:5 14:1 15:0.8 20:5 21:1 22:6 25:4 
0 1 1:0.525 2:0.15789474 5:1 13:3 15:0.775 18:1 20:5 21:2 22:1 25:1 
1 1 1:-0.125 13:5 14:2 15:1.675 18:1 20:3 21:8 23:1 25:2 
0 1 1:1 8:1 13:2 15:1.2 17:1 20:2 21:7 
0 1 1:0.85 13:2 15:0.85 20:1 25:3 
0 1 1:0.675 13:1 15:0.8 20:3 21:4 22:2 23:1 25:2 
0 1 1:1.525 2:0.076923077 5:1 13:3 15:1.525 20:3 21:1 25:2 
0.5644030392303605 1 1:-0.225 2:0.076923077 5:1 12:1 13:2 15:0.375 18:2 20:1 21:5 22:1 25:2 
0 1 1:0.375 13:1 14:1 15:0.375 20:1 21:1 25:1 
1 0.3295990694920428 1:0.275 12:1 13:7 14:4 15:0.675 19:2 20:3 21:7 22:5 25:3 
1 1 1:0.525 12:1 13:3 15:1.25 20:1 22:1 23:1 25:1 
0 1 1:0.8 2:0.071428571 5:1 13:3 15:1.4 16:1 20:2 21:3 
1 1 1:-0.15 2:0.058823529 5:1 13:1 14:2 15:-0.15 16:1 17:1 18:1 20:4 21:3 22:1 23:1 
0 1 1:0.4 2:0.14285714 5:1 13:1 15:0.4 16:1 19:2 20:1 21:1 23:1 25:2 
0.03838773216459548 0 1:1.6 12:1 13:7 15:3.3 20:9 21:5 22:2 25:4 
0 1 1:1.1 2:0.14285714 5:1 13:4 15:1.85 16:1 18:1 20:2 21:2 25:4 
0 1 1:0.6 13:1 15:0.6 18:1 20:2 21:1 22:5 25:1 
1 1 1:0.025 2:0.33333333 3:1 5:1 13:2 15:0.775 16:1 20:1 21:4 22:2 25:1 
0 1 1:1.05 13:3 15:1.05 20:4 21:2 25:3 
0 1 1:0.125 13:3 15:1.125 18:1 20:5 21:4 22:1 23:1 
1 1 1:0.025 2:0.125 5:1 13:1 14:1 15:0.15 16:1 20:5 22:1 23:1 25:4 
0.06651967163456332 0 1:1.45 8:1 13:4 14:2 15:1.65 17:1 18:4 20:1 21:6 22:6 25:1 
0 1 1:1.6 2:0.1 3:1 5:1 13:5 14:1 15:1.6 18:1 20:7 21:6 22:6 25:1 
0 0.4684286446843215 1:1.775 2:0.05 5:1 8:1 13:5 14:1 15:2.125 20:10 21:3 25:3 
0.3193610507090073 1 
0 1 1:0.375 13:1 15:0.375 18:1 20:2 21:1 22:1 
1 1 1:-0.675 2:0.083333333 5:1 13:1 14:2 15:-0.3 20:2 21:2 25:1 
1 0 1:-0.775 12:3 13:5 14:4 15:-0.275 20:6 21:3 22:1 25:1 
0 1 1:1.4 2:0.21052632 5:1 13:5 15:1.4 20:10 21:2 22:1 25:2 
1 1 1:1.025 2:0.071428571 5:1 13:4 14:2 15:1.025 20:1 21:5 22:1 23:1 
0.3184760666515001 0 1:2.225 13:5 15:2.225 18:2 20:5 21:2 25:1 
0 1 1:0.625 2:0.38461538 3:1 5:1 13:3 15:0.625 16:1 20:3 21:2 22:1 25:2 
1 1 1:-1.75 2:0.18181818 5:1 12:1 14:1 15:-0.4 16:1 18:1 20:2 21:3 22:1 25:1 
0 1 1:0.4 13:2 15:0.525 20:5 21:3 22:2 25:1 
1 1 1:-0.425 12:1 13:1 14:3 15:-0.425 20:3 21:2 
0 1 1:0.65 2:0.0625 5:1 13:2 15:0.65 16:1 20:2 21:2 22:1 25:2 
0 1 1:0.475 2:0.14285714 5:1 13:1 15:0.6 16:1 20:1 21:2 22:1 25:1 
1 1 1:-0.125 2:0.066666667 5:1 12:1 13:3 14:2 15:0.475 16:1 20:2 21:5 22:2 23:1 24:1 
0 1 1:0.7 2:0.058823529 5:1 13:2 14:1 15:0.7 16:1 18:1 20:5 21:1 
0 1 1:-0.075 13:2 14:1 15:0.675 18:2 20:5 21:2 25:1 
1 1 1:0.375 13:4 14:2 15:0.625 18:5 20:6 21:5 
1 1 1:0.125 13:1 15:0.125 20:4 21:3 22:4 25:2 
0.6235528286959163 1 1:0.125 2:0.076923077 5:1 13:1 14:1 15:0.125 16:1 20:3 23:1 25:3 
0 0.3618262525419738 1:1.7 13:6 14:1 15:2.45 20:1 21:8 22:1 24:1 25:1 
0 1 1:-1.25 2:0.15384615 5:1 13:1 14:1 15:-0.375 16:1 17:1 18:3 20:1 21:3 25:1 
0.3304519699316816 1 1:0.2 12:1 13:2 14:1 15:0.7 18:1 20:3 21:3 
0 1 1:0.925 2:0.11764706 5:1 13:3 15:1.05 18:1 20:2 21:4 22:3 25:1 
0 1 1:-0.5 2:0.043478261 5:1 12:1 13:2 14:1 15:0.5 18:6 20:4 21:1 
0 1 1:1.05 2:0.043478261 5:1 13:3 15:1.05 20:6 21:2 22:3 25:4 
1 1 1:-1.175 12:1 13:2 14:1 15:0.3 18:1 20:3 21:2 22:1 25:2 
1 1 1:0.725 2:0.05 5:1 13:4 15:1.925 20:6 21:7 22:2 23:1 25:1 
0.4249360027777307 1 1:0.175 12:1 13:2 14:1 15:1.025 17:1 18:1 20:3 21:4 22:1 25:2 
1 1 1:0.15 8:1 12:1 13:2 14:1 15:0.35 20:7 21:4 22:1 25:2 
0 1 1:0.15 8:1 13:1 15:0.625 17:1 18:1 20:5 21:2 
0 1 1:0.975 13:3 14:1 15:0.85 20:5 21:3 23:1 25:4 
0 1 1:1.125 13:5 14:1 15:1.725 20:4 21:6 
1 1 1:-0.125 13:1 14:1 15:-0.125 20:4 21:2 22:1 
0 1 1:0.8 2:0.11111111 5:1 13:1 15:0.8 16:1 17:1 21:2 22:1 25:1 
0 1 1:0.85 13:5 15:1.85 20:5 21:1 22:3 25:1 
1 1 1:0.075 10:1 13:4 14:1 15:0.95 20:3 21:3 22:6 25:3 
0.02182005422969498 0.8256596138766695 1:0.125 13:3 14:2 15:-0.125 18:5 20:5 21:6 22:3 25:2 
1 1 1:-0.6 13:2 14:1 15:0.4 20:6 21:1 22:2 23:1 25:2 
0.6525257206654318 1 1:0.85 10:1 13:2 15:0.85 19:2 20:5 21:4 22:6 
0 1 1:1.85 2:0.083333333 5:1 8:1 13:3 15:1.45 20:1 21:5 25:3 
0 1 1:1.2 2:0.083333333 5:1 13:3 15:1.325 16:1 20:2 21:3 22:1 25:1 
1 1 1:-0.65 12:1 13:4 14:2 15:0.075 18:1 20:4 21:2 22:4 
1 1 1:0.725 13:3 15:1.1 20:7 21:3 22:4 25:7 
0 1 1:1.325 2:0.058823529 5:1 13:4 14:1 15:1.45 18:1 20:9 21:1 25:3 
1 1 1:-0.75 14:1 15:-0.75 20:4 21:1 25:1 
0 1 1:1.25 2:0.052631579 5:1 13:4 15:1.375 16:1 18:2 19:3 20:6 21:4 25:1 
0 1 1:0.275 8:1 20:2 21:1 25:1 
0 1 1:0.4 2:0.090909091 5:1 13:1 15:0.4 16:1 17:1 20:5 21:1 
0 1 1:1.175 13:4 15:1.3 20:4 21:2 22:2 25:3 
1 1 1:0.2 2:0.2 5:1 13:1 14:1 15:0.2 16:1 20:5 21:1 25:1 
0 1 1:0.6 13:1 15:0.6 21:2 
0 1 1:0.25 8:1 13:1 15:0.6 20:1 21:2 
0 1 1:1.075 2:0.11111111 5:1 13:3 15:1.8 18:2 19:2 20:6 21:4 25:1 
0 1 1:1.125 13:3 15:1.125 20:3 21:2 22:2 25:1 
0 1 1:0.4 13:1 15:0.4 18:3 20:8 21:3 22:4 25:1 
0 1 1:0.575 13:4 14:2 15:1.325 20:2 21:3 23:1 25:1 
0 1 1:0.9 13:1 15:0.4 20:1 22:5 25:2 
1 1 1:0.25 2:0.058823529 5:1 12:1 13:3 14:1 15:0.875 16:1 18:1 20:1 21:3 22:4 25:1 
1 1 1:0.3 13:3 15:0.925 17:3 20:1 21:3 22:2 25:1 
0.6378540168720682 0.05807876922820425 1:2.225 12:1 13:9 15:4.025 20:4 21:9 22:1 25:4 
0 1 1:0.6 2:0.22222222 5:1 13:2 15:1.2 16:1 20:2 23:2 25:1 
0 1 1:1.375 2:0.066666667 5:1 13:3 14:1 15:1.5 16:1 20:5 21:2 22:1 25:4 
0 1 1:0.275 13:1 15:0.4 20:2 25:1 
0 1 1:-0.7 13:2 14:1 15:0.05 18:3 20:4 21:1 23:1 25:2 
1 1 1:-0.825 12:1 13:4 14:1 15:0.775 20:2 21:2 22:2 23:1 25:4 
1 0 1:0.375 12:2 13:4 14:1 15:1.35 18:2 20:7 21:4 22:5 23:1 25:3 
0 1 1:0.225 8:1 13:1 14:1 15:-0.175 17:1 18:2 20:4 21:3 22:4 23:1 25:1 
1 1 1:-0.525 2:0.066666667 5:1 12:1 13:2 14:1 15:-0.275 16:1 20:2 21:3 22:1 25:1 
1 1 1:1.225 2:0.08 5:1 13:4 15:1.35 16:1 20:5 21:5 22:1 24:1 25:5 
0 1 1:0.575 13:3 15:0.575 18:1 20:6 21:1 22:4 25:2 
1 1 1:-0.125 2:0.1 5:1 16:1 20:4 25:2 
1 0 1:-0.625 12:1 13:1 14:2 15:-0.025 18:2 20:1 21:2 22:3 25:1 
1 1 1:0.125 13:2 15:0.25 20:3 21:3 25:3 
0 1 2:0.071428571 5:1 13:3 14:1 15:0.125 16:1 18:2 20:3 21:3 22:1 25:3 
0 1 1:0.625 13:2 15:0.625 20:1 21:2 
0 1 1:0.975 2:0.1875 5:1 13:3 15:0.975 16:1 18:2 20:5 21:1 25:4 
1 1 1:-0.975 12:1 14:4 15:-1.225 17:1 20:4 21:1 
1 1 1:0.225 13:3 14:2 15:0.225 20:3 21:5 22:3 25:1 
0 1 1:1.375 2:0.13333333 5:1 13:4 14:1 15:1.375 16:1 20:5 21:3 22:3 25:2 
0 1 1:0.125 2:0.058823529 5:1 13:2 15:0.875 16:1 18:1 20:4 21:4 22:3 24:1 25:2 
0 1 1:0.65 2:0.52631579 5:1 13:2 14:1 15:0.65 16:1 18:2 20:4 21:2 22:2 25:6 
0 1 1:1.125 2:0.071428571 5:1 13:3 15:1.25 16:1 18:1 20:4 21:2 25:5 
1 1 1:0.75 2:0.066666667 5:1 13:3 14:1 15:1.35 20:1 21:6 22:3 
0 1 1:0.4 13:1 15:0.4 20:4 21:3 25:1 
1 1 1:-0.925 13:2 14:1 15:-0.175 21:6 
0.4227823575237311 1 1:0.15 2:0.055555556 5:1 13:1 14:1 15:0.15 16:1 18:2 20:8 21:3 22:1 
0 1 1:0.825 2:0.090909091 5:1 13:2 14:1 15:0.7 16:1 18:1 20:2 21:1 22:1 23:1 25:1 
0 1 1:0.975 2:0.2 5:1 13:3 15:0.975 16:1 20:7 21:2 25:3 
1 0 1:1.65 12:1 13:4 15:2.25 20:1 21:5 22:4 23:1 25:3 
0 1 1:-0.5 2:0.11111111 5:1 17:1 18:3 20:2 21:5 22:3 
1 1 1:0.525 13:3 14:2 15:0.525 20:5 21:3 23:1 
1 1 1:0.55 13:3 14:2 15:0.425 20:4 21:4 22:1 23:1 25:1 
0.3584118391342557 1 1:0.575 2:0.035714286 5:1 13:4 14:1 15:1.325 20:8 21:8 22:3 25:2 
1 1 1:0.1 13:1 14:1 15:0.1 20:3 21:1 23:1 25:2 
1 1 1:-0.3 12:1 13:3 14:3 15:0.425 20:4 21:3 22:4 23:1 
0 1 1:1.65 2:0.125 5:1 13:4 15:1.65 16:1 20:5 21:3 25:3 
0 0.06588101622609745 1:2.1 13:7 15:2.225 20:5 21:3 22:3 25:6 
0 0.2850281245780417 1:0.875 2:0.0625 5:1 13:3 15:0.875 18:6 20:3 21:1 25:6 
1 1 1:0.25 20:1 22:1 25:1 
0 1 1:1.1 2:0.066666667 5:1 13:3 15:1.225 16:1 20:4 21:1 22:1 25:3 
1 1 1:-0.425 2:0.14285714 5:1 13:1 14:1 15:-0.3 16:1 18:1 20:4 21:6 22:3 24:1 25:1 
0 1 1:1.55 13:8 15:1.675 20:3 21:5 22:5 25:2 
0 1 1:0.6 2:0.25 5:1 13:1 15:0.6 16:1 20:2 21:1 22:1 
0 1 1:1.3 2:0.090909091 5:1 13:3 14:1 15:1.05 16:1 18:1 20:2 21:1 22:1 25:4 
1 1 1:0.1 2:0.125 5:1 13:3 14:1 15:0.1 16:1 20:5 21:3 24:1 25:3 
0 1 1:0.975 13:4 15:1.1 18:1 20:3 21:1 25:1 
0 1 1:1 13:2 15:1 20:2 21:4 22:2 25:1 
0 1 1:0.6 2:0.083333333 5:1 13:1 15:0.6 16:1 20:3 25:1 
1 1 1:-0.025 2:0.14285714 3:1 5:1 13:1 14:1 15:0.1 20:3 21:5 22:3 
1 1 2:0.26666667 5:1 16:1 20:4 21:2 22:1 25:1 
0 1 1:0.475 2:0.066666667 5:1 13:1 15:0.6 16:1 20:3 21:1 22:2 25:2 
0.366358191074611 1 1:0.8 2:0.055555556 3:1 4:1 5:1 13:3 14:2 15:1.35 18:11 20:3 21:1 22:2 
1 1 1:0.825 13:3 14:1 15:1.075 20:4 21:6 22:8 25:2 
1 1 1:-0.2 2:0.071428571 5:1 12:1 13:2 15:0.775 20:6 21:1 22:3 25:1 
0 1 1:0.8 13:3 14:1 15:1.05 20:4 21:3 22:2 25:1 
0 1 1:1.4 2:0.083333333 5:1 13:2 15:1.4 20:5 25:3 
1 1 1:-0.2 13:1 14:1 15:-0.2 17:1 18:1 20:2 21:4 25:2 
1 1 1:0.65 13:2 15:0.65 20:9 21:2 22:4 25:1 
1 1 1:0.675 12:1 13:4 14:2 15:0.8 20:7 21:7 22:2 
1 1 1:1.35 2:0.125 5:1 13:4 14:1 15:1.35 20:2 21:5 22:2 25:2 
1 1 1:-0.5 2:0.14285714 5:1 13:1 14:1 15:-0.25 18:1 19:2 20:1 21:6 25:2 
0 1 1:1.05 2:0.076923077 5:1 13:3 15:1.05 20:2 21:2 
1 1 1:1.25 13:5 14:2 15:0.75 20:4 21:6 22:3 25:4 
0 1 1:0.475 13:3 14:1 15:1.2 20:5 21:2 22:1 
1 1 1:-0.375 12:1 17:2 18:1 20:5 21:1 22:1 
0 1 1:1.025 2:0.15 4:1 5:1 13:2 14:1 15:1.15 16:1 20:5 21:2 22:6 25:3 
0 1 1:1.325 13:4 15:1.325 18:1 20:7 21:1 25:2 
1 1 1:-0.2 12:1 13:2 14:1 15:0.4 20:1 21:8 22:2 25:1 
1 1 1:-0.1 12:1 13:1 15:0.5 20:3 21:3 22:1 
0 1 1:0.375 13:3 14:2 15:0.5 20:2 21:1 23:1 25:2 
1 1 1:0.725 2:0.14285714 5:1 13:2 15:0.725 17:2 20:2 21:4 25:1 
1 1 1:-0.4 14:1 15:-0.4 20:5 21:4 22:3 25:2 
0 1 1:1.125 13:3 15:1.125 20:5 21:1 22:4 25:1 
0 1 1:1.25 13:3 15:1.25 20:8 21:2 22:3 25:2 
1 1 12:1 13:1 15:0.6 17:2 18:2 20:1 21:5 22:1 
0 1 1:0.6 13:1 15:0.6 20:3 21:2 25:4 
1 1 17:2 20:4 21:1 22:3 
1 1 1:-0.3 2:0.083333333 5:1 13:2 14:2 15:-0.3 20:4 21:2 25:2 
0 1 1:0.975 13:3 15:0.975 20:5 21:4 22:1 25:3 
1 1 1:-0.425 12:1 13:2 14:2 15:-0.175 18:1 20:4 21:1 22:3 
1 1 1:0.25 2:0.11111111 5:1 13:2 15:0.25 20:4 21:2 25:1 
0 0.8703691358762204 1:1.375 2:0.2 3:2 5:1 13:5 15:1.5 18:1 20:7 21:1 22:1 25:2 
1 1 1:0.725 2:0.047619048 5:1 13:3 14:1 15:0.85 20:9 21:3 22:2 25:3 
1 1 1:-0.725 2:0.076923077 5:1 12:1 13:2 15:0.625 17:1 18:1 20:4 21:3 22:1 
0 1 1:1.05 13:3 15:1.05 18:1 20:3 21:2 
0.0433936062146154 1 1:1.35 13:4 14:1 15:1.475 20:6 21:7 22:9 25:2 
1 0 1:0.125 12:2 13:5 14:2 15:2.1 17:1 18:2 20:4 21:5 22:1 23:1 25:1 
0 1 1:1.575 13:3 14:1 15:1.2 17:1 20:3 21:6 22:5 25:2 
0.9565102524731857 1 19:2 20:2 21:2 25:1 
0 1 1:0.15 2:0.066666667 5:1 13:1 14:1 15:0.4 18:2 20:5 21:3 25:2 
0 1 1:0.875 8:1 13:3 15:1.35 17:1 20:6 21:3 25:2 
0 1 1:0.475 13:3 15:1.45 20:6 21:4 22:3 25:2 
0 1 1:0.975 2:0.090909091 5:1 13:2 15:1.35 16:1 20:2 21:4 25:1 
0 1 1:1 2:0.058823529 5:1 13:2 15:1 16:1 17:1 20:3 21:3 25:1 
1 1 1:-0.125 14:1 15:-0.125 20:1 21:1 22:1 
1 1 1:-1.55 12:1 13:4 14:3 15:0.05 20:3 21:3 22:1 25:5 
1 1 1:-0.975 2:0.0625 5:1 12:1 13:3 14:2 15:-0.375 16:1 18:1 20:4 21:2 22:1 23:1 25:2 
0 1 1:1.3 2:0.10526316 5:1 13:6 15:2.025 16:1 20:4 21:4 24:1 25:3 
0 1 1:2.125 2:0.047619048 5:1 13:7 15:2.125 20:5 21:3 22:4 25:2 
0 1 1:0.8 2:0.25 5:1 8:1 13:1 15:0.4 16:1 20:1 25:1 
0 1 1:0.925 2:0.076923077 5:1 13:3 14:1 15:0.925 16:1 20:2 21:2 22:3 25:2 
0.8655584364054312 1 20:1 21:2 22:1 
1 1 1:-1.9 12:1 13:2 14:2 15:-0.3 20:3 21:5 22:1 25:1 
1 1 1:-0.9 2:0.10526316 5:1 12:2 13:1 14:2 15:-0.175 17:1 18:1 20:6 21:4 22:2 
1 1 1:0.075 13:1 14:1 15:0.075 20:2 21:1 22:1 25:2 
0 1 1:0.85 13:2 15:0.85 20:2 21:1 25:2 
0 1 1:2.125 2:0.071428571 5:1 13:4 15:2.125 17:1 20:5 21:4 
0 1 1:1.65 2:0.0625 5:1 13:5 15:1.15 19:2 20:7 21:2 25:4 
1 1 1:-0.525 13:2 14:1 15:0.225 20:6 21:2 22:2 25:2 
1 1 1:-0.85 10:1 13:1 14:2 15:-0.6 18:2 20:3 21:4 22:1 25:1 
0 1 1:0.2 13:1 14:1 15:0.2 20:4 25:2 
0 1 1:1.65 13:5 15:1.15 19:2 20:7 21:2 25:4 
0 1 1:0.5 13:3 15:0.625 20:5 21:2 25:1 
0 1 1:1.9 13:5 15:2.5 19:1 20:4 21:2 
0 1 1:0.6 13:1 15:0.6 20:6 21:4 22:3 25:2 
1 1 1:-0.8 14:2 15:-0.8 20:2 21:1 25:1 
0 1 1:0.075 2:0.125 5:1 13:3 14:2 15:0.325 16:2 18:2 20:4 21:4 22:2 
1 1 1:-0.625 2:0.090909091 5:1 10:1 13:3 14:4 15:-1.125 18:1 20:6 21:4 22:3 25:3 
1 1 1:-0.5 12:1 13:3 15:0.975 20:4 21:7 22:7 25:1 
0 1 1:0.35 13:1 15:0.6 20:2 22:2 
0 0.6820139197844531 1:0.175 12:1 13:3 14:1 15:0.775 18:6 20:7 21:3 22:3 
0.3258317336443496 1 1:1 2:0.15384615 5:1 12:1 13:5 14:1 15:1.6 20:3 21:3 22:1 23:1 25:1 
0 1 1:1.1 13:5 15:2.3 18:1 20:5 21:8 22:3 25:3 
1 1 1:0.675 13:5 14:1 15:1.525 21:6 22:1 25:1 
1 1 1:-0.3 12:1 13:1 14:1 15:0.3 20:2 21:3 22:1 
0 1 18:1 20:1 21:2 
0 1 1:1.15 2:0.26666667 3:1 5:1 13:3 14:1 15:1.15 16:1 20:2 21:2 22:2 25:1 
0 1 1:1.225 2:0.058823529 5:1 13:3 15:1.225 16:1 20:4 21:3 22:3 
0 1 1:1.9 2:0.043478261 5:1 13:5 15:2.5 16:1 17:1 18:2 20:5 21:4 22:6 
1 1 1:0.075 13:4 14:1 15:0.95 19:2 20:3 21:6 25:1 
1 1 1:-0.45 2:0.0625 5:1 12:1 13:1 14:1 15:0.4 20:3 21:4 22:3 23:1 25:1 
0 1 1:0.725 2:0.1 5:1 13:2 15:0.725 16:1 18:2 20:2 21:1 22:1 25:1 
1 1 1:0.075 2:0.125 5:1 12:1 13:3 14:1 15:0.8 16:1 17:1 18:1 20:3 21:4 22:1 
0.4258570121940727 1 1:0.25 13:2 15:0.625 17:1 20:3 21:2 22:5 25:3 
1 1 1:-0.275 2:0.076923077 5:1 13:4 14:3 15:0.475 17:2 20:2 21:3 22:1 25:3 
1 1 1:0.175 2:0.04 3:1 5:1 13:4 14:2 15:0.925 20:8 21:6 22:8 25:1 
0.9257359775941429 1 1:-0.2 2:0.058823529 5:1 13:1 14:1 15:-0.2 18:2 20:7 22:3 25:1 
1 0 1:-0.1 2:0.058823529 5:1 8:1 12:1 13:6 14:2 15:1.45 20:5 21:5 22:2 25:1 
0.1714226357654116 0 1:0.95 13:4 14:2 15:0.95 20:5 21:3 22:2 25:3 
0 1 1:0.6 13:1 15:0.6 20:3 21:2 22:1 25:1 
0 1 1:0.675 13:3 14:1 15:0.925 18:1 20:5 21:4 22:1 
0 1 1:0.5 2:0.0625 5:1 12:1 13:3 15:1.6 18:1 20:5 21:5 22:2 
1 1 1:-0.125 20:1 
1 1 1:-1.125 2:0.33333333 5:1 12:1 14:1 15:-0.4 16:1 20:1 21:2 22:1 
1 1 1:0.85 2:0.05 5:1 13:6 14:2 15:1.45 16:1 20:4 21:7 22:3 23:1 
0 1 1:0.125 2:0.63636364 3:1 5:1 13:1 15:0.125 18:3 20:5 22:3 25:1 
1 1 1:-0.4 12:2 13:5 14:2 15:0.7 19:2 20:4 21:4 22:1 23:1 25:1 
1 0.9091207070265581 1:-0.05 12:2 13:3 14:1 15:0.55 18:2 20:8 21:6 22:3 23:1 25:5 
1 1 1:-0.375 13:3 14:3 15:0.225 20:5 21:4 22:3 25:1 
0 1 20:2 21:1 22:1 24:1 25:3 
0 1 1:1.45 2:0.05 5:1 13:5 14:2 15:2.05 16:1 17:2 20:3 21:4 25:2 
0 1 1:0.275 2:0.05 5:1 12:1 13:1 14:1 15:0.4 18:2 20:7 21:4 22:1 25:1 
1 1 1:-1.3 12:1 13:2 14:1 15:0.3 18:1 20:5 21:2 22:2 25:2 
1 1 1:0.5 13:2 14:1 15:0.5 17:5 20:1 21:4 22:3 25:1 
1 1 1:0.525 2:0.076923077 5:1 13:2 15:0.525 16:1 20:7 21:1 22:1 23:1 
0.9304653417966627 1 1:0.9 13:2 14:1 15:0.65 20:8 21:2 
0 1 1:0.725 13:2 14:1 15:0.725 20:4 21:2 22:3 
0 1 1:0.8 13:3 14:2 15:0.8 20:6 21:3 22:3 25:1 
1 1 1:-0.6 12:1 13:3 14:1 15:1 20:1 21:5 22:2 23:1 25:2 
0 1 1:1.2 13:2 15:1.2 20:3 21:1 22:1 25:1 
0 1 1:0.375 13:2 15:0.375 20:4 21:2 22:3 25:3 
1 1 1:0.125 2:0.083333333 5:1 13:2 14:2 15:0.25 20:4 21:2 22:2 23:1 
0 1 1:-0.475 8:1 20:2 21:1 22:4 
0 1 1:1.575 13:3 15:1.575 20:5 21:6 22:5 
0 1 1:-0.5 2:0.066666667 5:1 13:1 14:1 15:0.25 18:7 20:3 21:2 
1 1 1:-0.525 12:1 13:1 14:1 15:0.2 18:1 20:2 21:1 22:3 25:2 
0 0.8180794277484494 1:1.35 13:3 15:1.6 20:1 21:1 22:1 25:1 
1 1 1:-0.425 2:0.045454545 5:1 12:3 13:2 14:1 15:0.175 18:2 20:7 21:2 22:4 25:4 
1 1 1:0.225 2:0.0625 5:1 10:1 12:1 13:2 15:1.2 17:1 18:1 20:1 21:9 
0 1 1:0.525 13:3 14:1 15:1.025 20:9 22:4 23:1 25:2 
1 1 1:-0.125 2:0.052631579 5:1 13:2 15:0.625 17:2 20:4 21:4 22:1 25:1 
0 1 1:0.225 2:0.076923077 5:1 13:2 14:2 15:0.225 18:1 20:5 21:1 22:2 
1 1 1:0.6 13:4 14:1 15:0.85 20:8 21:2 22:1 25:3 
0.3549667152325728 1 18:1 20:3 22:5 25:1 
0 0.2034455667934977 1:0.275 8:1 13:2 15:0.625 20:2 21:2 22:1 25:3 
1 1 1:-0.25 2:0.052631579 5:1 20:2 21:1 22:4 25:5 
1 1 1:-0.9 13:2 14:4 15:-0.9 20:3 21:5 22:4 25:1 
1 1 1:-0.85 13:2 14:1 15:-0.1 20:4 21:5 22:3 25:1 
1 0.2328033241224757 1:1.45 13:6 14:4 15:1.325 20:1 21:5 22:3 23:1 25:4 
0 1 1:0.9 13:3 15:1.025 17:1 20:6 21:1 22:2 25:6 
0 1 1:0.85 13:3 15:0.85 20:9 21:1 22:1 25:4 
1 1 13:1 14:1 20:3 21:3 22:2 25:1 
0 1 1:-0.125 2:0.14285714 5:1 14:1 15:-0.125 18:1 20:1 21:1 22:1 
1 1 1:0.3 2:0.043478261 5:1 13:2 14:1 15:0.3 18:1 20:6 21:4 22:3 25:2 
0 0.9188920132606642 1:-0.25 13:1 14:2 15:-0.125 18:4 20:5 21:8 22:1 25:2 
0.7736723476070031 0.7786448643582454 1:-1.625 14:2 15:-0.875 17:2 18:6 20:2 21:3 22:9 23:1 25:1 
1 1 1:-0.275 13:1 14:2 15:-0.275 20:3 21:3 22:4 
1 1 1:0.625 12:1 13:8 14:4 15:1.35 20:2 21:5 22:5 23:1 24:1 25:3 
0 0.7761988272587389 1:0.525 2:0.090909091 5:1 8:1 13:1 15:0.125 18:2 19:2 21:4 
1 1 1:-1.675 12:2 13:5 14:4 15:1 20:6 21:7 22:4 25:2 
0 1 1:-1.125 13:1 14:2 15:-0.125 18:3 20:3 21:6 22:2 25:1 
0 0.4523369310949829 1:0.225 2:0.23529412 5:1 13:2 14:1 15:0.35 18:3 19:2 20:2 22:1 23:1 25:1 
1 1 1:-0.225 9:1 13:4 14:2 15:0.175 20:8 21:2 22:1 25:3 
1 1 12:1 13:2 14:1 15:0.725 17:1 20:5 21:2 22:4 25:4 
1 1 1:0.025 2:0.05 5:1 13:3 14:2 15:0.775 16:1 18:1 20:9 21:2 22:4 25:3 
0 1 1:0.25 2:0.0625 5:1 10:1 13:3 15:0.375 18:2 19:2 20:3 21:3 22:1 25:1 
1 1 1:0.275 13:4 14:2 15:1.125 18:1 20:5 21:7 25:3 
0 1 1:0.675 13:1 15:0.8 22:1 25:1 
0 1 1:0.25 13:2 15:0.375 20:2 21:2 25:1 
0 1 1:1.325 13:4 15:1.325 20:5 22:3 25:5 
1 1 1:-1 8:1 13:1 14:2 15:-0.65 17:1 20:5 21:3 
1 1 1:-1.175 2:0.125 5:1 13:1 14:2 15:-0.425 20:1 21:3 25:1 
0 1 18:1 20:2 21:3 
0 1 1:0.45 2:0.076923077 5:1 13:2 15:0.45 18:1 20:2 21:1 25:4 
0.2570218417692285 0.02918532608082794 1:0.35 2:0.0625 3:1 5:1 8:1 12:1 13:4 15:0.95 18:1 20:3 22:1 25:1 
0 1 1:0.5 13:3 15:0.75 18:1 20:6 21:2 22:2 25:2 
1 1 1:-0.4 13:2 14:1 15:-0.15 20:7 21:2 22:5 25:1 
0 1 1:-0.75 2:0.14285714 5:1 18:1 21:3 
0 1 1:0.925 2:0.066666667 5:1 12:1 13:3 15:1.175 18:1 20:3 21:3 25:1 
0 1 1:0.4 2:0.13333333 5:1 13:2 14:1 15:0.525 16:1 20:5 21:2 25:3 
1 1 1:-0.625 2:0.076923077 5:1 12:1 13:1 14:4 15:-1.125 20:5 21:1 22:1 23:1 25:3 
1 1 1:0.75 2:0.0625 5:1 13:4 15:0.75 20:4 21:2 22:1 25:1 
1 0.1112536920491971 1:0.75 2:0.13333333 5:1 12:1 13:5 15:2.8 20:3 21:6 22:2 
0.3160567808734581 0.4397452228409061 1:1.85 13:6 15:1.85 18:2 20:12 21:2 22:1 25:1 
0.5870112531048618 1 1:0.625 2:0.076923077 5:1 13:4 15:1.125 20:6 21:1 22:1 25:1 
1 1 1:0.425 12:1 13:3 14:3 15:0.175 17:3 18:1 20:3 21:4 22:1 25:2 
1 1 1:-0.675 2:0.076923077 5:1 13:1 14:2 15:-0.55 16:1 20:1 21:3 25:3 
0 1 1:0.85 13:3 14:2 15:0.85 18:1 20:2 21:5 22:4 23:1 
0 1 1:1.125 13:3 14:1 15:1.125 20:2 21:2 23:1 25:1 
1 1 1:-1.225 12:1 14:1 15:-0.5 20:1 21:4 22:1 
0 1 1:0.525 8:1 13:1 15:0.125 20:3 25:1 
0 1 2:0.1 5:1 18:1 20:4 22:2 25:1 
1 1 1:0.2 2:0.043478261 5:1 13:5 14:3 15:0.325 20:6 21:3 22:6 25:4 
1 1 1:0.125 13:1 15:0.125 19:2 20:3 21:2 22:3 25:1 
0 1 1:0.4 13:1 15:0.4 18:1 20:1 21:2 25:1 
1 1 1:0.125 13:3 15:0.375 20:8 22:2 25:2 
1 1 1:-1.225 12:1 13:1 15:0.125 20:1 21:3 22:1 
0.4489982704695114 1 1:0.175 13:5 15:2.125 20:5 21:7 22:6 25:1 
0 1 1:-0.1 12:1 13:1 15:0.5 18:1 20:5 21:2 22:1 
0.2004035629363723 0.5541505427681093 1:1.25 12:1 13:7 15:1.85 20:4 21:5 22:2 25:4 
0 1 1:0.6 13:1 15:0.6 20:1 21:1 
0 1 1:1.825 13:4 15:1.825 17:1 18:1 20:6 21:7 25:2 
0 1 1:1.475 13:3 15:2.2 18:1 20:3 21:8 22:2 25:3 
0 1 1:0.25 2:0.125 5:1 13:3 15:0.375 18:1 19:2 20:3 21:3 22:1 25:1 
1 0 1:0.75 2:0.0625 5:1 12:2 13:4 15:1.725 18:1 20:2 21:4 22:2 25:1 
0 1 2:0.15384615 5:1 18:1 20:3 21:1 22:5 25:1 
0 1 1:1.6 2:0.11764706 5:1 13:5 14:2 15:1.725 16:1 20:5 21:2 23:1 25:3 
1 1 1:0.8 13:3 14:1 15:0.8 17:3 20:2 21:1 22:1 25:1 
0 1 1:0.5 2:0.055555556 5:1 13:3 15:0.5 20:3 21:2 22:3 25:4 
1 1 1:-1.575 2:0.055555556 5:1 12:1 13:1 14:4 15:-0.975 18:3 20:7 21:3 22:2 25:1 
0 1 1:0.525 13:2 15:0.525 20:6 21:2 22:1 25:1 
1 1 1:-0.7 13:3 14:4 15:-1.475 17:1 18:1 19:4 20:5 21:5 22:2 23:1 25:1 
1 1 1:-0.4 13:1 14:1 15:-0.4 20:1 21:1 22:1 
0 1 1:1.425 13:5 15:1.425 20:2 21:5 25:1 
1 1 1:-0.725 12:1 13:1 15:0.25 20:2 21:1 22:3 
0 1 1:0.2 13:1 15:0.2 20:3 21:2 22:2 
0 0.8386020117530799 1:-0.4 2:0.055555556 4:1 5:1 13:2 14:2 15:-0.275 18:6 20:5 21:3 25:4 
1 1 1:-3.05 13:5 14:6 15:-1.1 18:2 20:5 21:8 22:6 25:4 
1 1 1:-1.25 13:2 14:3 15:-0.5 20:5 21:3 22:7 25:1 
1 1 1:-0.125 13:2 14:2 20:6 21:1 25:2 
1 0.05691835148676759 1:1.2 12:1 13:6 15:2.65 18:1 20:6 21:6 22:6 25:1 
0 1 1:0.875 2:0.071428571 5:1 13:2 15:1 20:2 25:1 
0.8663545242141034 1 1:1.25 2:0.12 3:2 5:1 13:5 15:1.5 18:1 20:7 21:5 25:6 
0 1 1:0.625 13:2 14:1 15:0.875 20:1 21:2 22:1 25:2 
1 1 2:0.066666667 5:1 16:1 20:3 21:1 22:2 25:2 
1 1 1:-0.75 20:4 21:1 
0 1 1:0.9 2:0.1 5:1 8:1 13:5 15:0.875 16:1 20:5 21:4 24:2 25:3 
0 1 1:1.35 2:0.23076923 5:1 13:4 15:1.35 16:1 20:1 21:3 22:2 25:2 
0 1 1:0.675 13:1 15:0.8 20:7 22:3 25:2 
0 0.158444240576034 1:0.6 13:1 15:0.6 18:2 20:2 21:3 22:3 25:1 
0 1 2:0.11111111 5:1 20:3 21:2 22:1 
1 1 1:-0.05 2:0.125 5:1 13:1 14:1 15:0.075 20:4 21:2 25:1 
0 1 1:0.8 2:0.18181818 5:1 8:1 13:1 15:0.4 16:1 20:1 25:1 
1 1 1:-0.2 12:1 13:1 15:0.4 20:1 21:4 22:3 
0 1 1:0.6 2:0.28571429 5:1 13:1 15:0.6 20:3 21:1 
0 1 1:0.85 13:2 15:0.85 20:6 21:2 22:1 25:4 
0 1 1:0.6 2:0.125 5:1 13:1 15:0.6 20:7 22:1 25:1 
0 1 2:0.1 5:1 16:1 20:2 21:1 
1 1 1:1.2 12:1 13:4 14:1 15:1.8 20:7 21:2 25:4 
0 1 1:0.6 13:1 15:0.6 18:2 20:3 21:3 22:1 25:1 
1 0.5654824438680199 1:0.225 2:0.066666667 5:1 12:1 13:5 14:5 15:-0.225 19:2 20:6 21:4 22:1 
1 1 1:0.125 2:0.076923077 5:1 13:2 15:0.25 20:6 21:4 
0 1 20:1 
0 1 1:0.7 13:2 14:1 15:0.45 18:1 20:7 22:1 25:3 
0 1 1:0.725 2:0.052631579 5:1 13:2 14:1 15:0.725 18:1 20:6 21:5 22:1 25:3 
1 1 1:-0.425 13:4 14:2 15:1.325 20:6 21:5 22:8 25:2 
0 0.4019991877869214 1:0.725 2:0.28571429 3:1 5:1 8:1 13:3 15:0.575 18:8 20:2 21:3 25:1 
0 1 1:0.65 2:0.055555556 5:1 13:2 15:0.775 16:1 18:1 20:3 21:1 22:1 25:2 
0 1 1:0.975 13:2 15:0.975 18:1 20:1 21:4 22:2 25:1 
1 1 1:-0.875 2:0.16666667 5:1 20:3 25:2 
0 1 1:1.275 13:4 14:1 15:1.275 20:3 21:3 25:1 
0 1 1:1.075 2:0.071428571 5:1 13:2 15:1.2 20:4 21:2 22:2 25:2 
0 1 1:0.9 2:0.18181818 3:1 5:1 13:2 15:0.9 20:2 21:2 22:3 
1 1 1:1 2:0.058823529 5:1 13:3 15:1.25 20:1 21:4 22:5 25:2 
0 1 1:0.75 2:0.11111111 5:1 13:2 14:1 15:0.75 16:1 20:4 21:1 22:5 25:2 
0 1 1:1.65 12:1 13:3 14:1 15:1.525 17:1 20:7 21:2 25:3 
0 1 1:0.675 13:2 15:0.8 20:4 22:3 
0 1 1:0.55 13:1 15:0.8 20:3 21:1 22:4 25:4 
0.08446498503703988 0.8910981305774374 1:0.775 10:1 13:4 14:2 15:0.775 17:1 20:6 21:2 22:2 25:3 
0 1 1:0.375 13:2 15:0.625 18:4 20:4 21:7 22:1 24:1 25:1 
1 1 2:0.5 5:1 12:1 13:1 15:0.6 16:1 20:3 21:2 22:2 25:1 
0 1 1:1.125 13:3 15:1.125 17:1 20:6 21:2 22:5 25:3 
0 1 1:0.85 13:2 15:0.85 20:4 21:2 22:3 25:4 
1 1 1:0.125 2:0.058823529 5:1 20:3 21:2 22:3 
0 1 1:0.75 2:0.066666667 5:1 13:5 14:1 15:1 20:3 21:2 22:4 25:4 
0 1 1:-0.375 13:1 14:1 15:-0.375 18:2 20:3 21:1 
1 1 1:-1.5 13:1 14:1 18:2 20:4 21:1 22:5 25:2 
0 1 1:2.35 2:0.038461538 5:1 13:8 15:2.6 20:8 21:3 22:1 25:6 
0 1 1:1.475 13:3 15:1.35 20:4 21:3 22:2 25:1 
0 1 1:0.7 13:2 15:0.7 18:1 20:4 21:1 22:3 
0 1 1:-0.25 18:6 20:3 21:2 22:1 25:1 
0 1 1:0.8 2:0.071428571 5:1 8:1 13:1 15:0.4 20:3 21:1 22:5 25:1 
0 1 1:0.725 13:2 15:0.725 20:3 22:3 25:1 
1 1 1:0.55 2:0.125 5:1 13:1 14:1 15:0.55 16:1 20:4 21:1 22:5 25:2 
0 1 1:0.1 2:0.076923077 5:1 13:2 15:0.85 16:1 18:1 20:3 21:3 22:1 23:1 
0 1 1:0.575 13:3 15:0.575 20:2 25:3 
0 1 1:1.3 13:5 14:2 15:1.3 20:5 21:6 22:2 25:2 
0 1 1:1.125 13:3 15:1.125 18:1 20:1 21:4 
0 1 1:0.525 2:0.071428571 5:1 13:2 15:0.65 16:1 18:1 20:4 21:3 
1 1 1:0.025 2:0.15384615 5:1 13:2 14:1 15:0.025 16:1 20:2 21:2 22:1 25:1 
0 1 1:1.05 13:4 14:1 15:1.05 18:2 20:5 21:6 25:3 
0 1 1:-0.35 8:1 18:1 20:1 21:2 22:1 
0 1 1:1.7 2:0.1 3:1 5:1 13:3 15:1.7 20:2 21:4 22:2 
1 1 1:0.25 13:3 14:4 15:0.4 20:3 21:4 22:3 23:1 25:3 
0 1 1:0.075 2:0.14285714 5:1 13:2 14:1 15:0.2 18:1 20:4 21:3 22:1 25:1 
1 1 1:0.075 13:1 14:1 15:0.075 18:1 20:5 21:3 22:5 
1 1 1:-0.475 13:1 14:1 15:-0.475 20:2 21:3 22:2 25:1 
1 1 1:-0.225 13:2 14:2 15:-0.475 20:4 21:2 22:3 25:1 
1 1 1:0.1 2:0.066666667 5:1 13:1 14:1 15:0.1 18:1 20:5 21:5 
0.6037848124685453 1 1:-0.075 13:3 14:2 15:5.5511151e-17 18:2 20:1 21:10 25:1 
0 1 1:-0.125 2:0.125 5:1 18:2 20:5 21:1 
1 1 1:-0.375 2:0.037037037 5:1 13:2 14:2 15:-0.375 20:9 21:3 22:10 25:2 
1 1 1:-0.75 2:0.1 5:1 14:1 15:-0.75 16:1 20:4 21:2 
0 1 1:0.225 2:0.125 5:1 13:1 15:0.6 20:2 21:1 22:2 25:1 
1 1 1:-0.8 13:1 14:1 15:-0.675 20:4 21:2 22:1 
0 1 1:0.625 2:0.05 5:1 13:3 15:0.875 16:1 18:2 20:5 21:1 22:8 
0 0.3880579511377402 1:1.15 2:0.15384615 3:1 4:1 5:1 13:7 14:4 15:0.875 16:1 20:1 21:4 22:1 25:2 
0 1 1:0.35 2:0.14285714 5:1 13:1 15:0.6 19:3 20:3 21:1 25:2 
0 1 1:1.4 2:0.058823529 5:1 13:5 15:1.525 18:1 20:3 21:3 22:1 23:1 25:1 
1 1 1:0.75 13:4 14:1 15:0.75 20:3 21:4 25:2 
1 1 1:-1.425 14:2 15:-1.3 20:2 21:2 22:2 
1 1 1:0.375 13:2 14:1 15:0.125 20:3 21:4 22:2 
0 1 1:0.725 13:3 15:1.1 18:1 20:5 21:4 22:1 25:6 
0 1 1:0.1 13:2 14:1 15:0.7 18:2 20:2 21:5 22:1 
0 1 18:4 20:7 22:2 
0 1 1:-0.375 2:0.066666667 5:1 13:1 14:1 15:-0.375 18:7 20:1 21:4 25:2 
0 1 1:0.9 13:3 14:1 15:1.025 17:1 18:1 20:6 21:4 22:1 23:1 25:1 
0 1 1:-0.15 2:0.066666667 5:1 13:2 14:1 15:-0.15 18:2 20:6 21:2 22:1 25:1 
1 1 1:-0.025 13:2 14:1 15:-0.025 18:1 20:5 21:4 22:1 25:3 
0 1 1:1.375 13:3 15:1.375 20:4 21:5 25:2 
1 1 1:0.325 13:2 14:1 15:0.325 17:2 20:3 21:1 25:1 
0 1 1:0.975 13:4 14:1 15:0.975 20:5 21:2 23:1 25:3 
0 1 1:1.75 8:1 13:3 15:0.85 20:3 21:5 25:1 
0 1 1:0.3 2:0.16666667 5:1 13:3 14:1 15:0.425 16:1 18:1 20:3 21:1 22:2 25:2 
0 1 1:0.35 13:3 14:1 15:1 20:4 21:3 22:3 24:1 25:3 
0 1 1:0.05 13:2 15:0.8 20:3 22:4 25:3 
1 1 1:0.2 13:1 14:1 15:0.2 20:5 21:3 22:5 25:1 
1 0 1:-1.05 12:1 13:7 14:4 15:0.3 20:5 21:5 22:2 25:4 
0.3321238237406826 1 1:-0.05 12:1 13:1 15:0.2 18:1 20:3 21:1 
1 1 1:0.525 2:0.11764706 5:1 13:3 14:1 15:0.65 20:2 21:2 22:4 25:2 
0.03106073731959116 1 1:-0.75 18:2 20:4 21:7 22:1 
0 1 1:-1 2:0.11764706 5:1 12:1 14:1 15:-0.4 18:4 20:4 21:2 22:1 
1 1 1:-0.75 13:4 14:2 15:1.25 18:1 20:11 21:4 22:6 23:1 
1 1 1:-0.15 13:1 15:0.6 20:1 21:3 22:1 25:1 
0 1 1:1 13:4 15:1.125 20:4 21:2 22:5 25:3 
1 1 1:1.075 13:2 15:1.2 20:1 21:3 22:5 
0 1 1:1.1 2:0.16666667 5:1 13:2 15:1.1 16:1 20:1 21:2 
1 1 1:0.15 13:6 14:2 15:0.8 17:1 20:4 21:5 22:3 25:4 
0 1 1:1.55 2:0.058823529 5:1 13:3 15:1.8 20:2 21:5 22:4 25:2 
0 0.05124309782381455 1:1.95 13:5 14:1 15:1.95 17:1 18:1 20:4 21:4 22:4 
1 1 1:-0.125 13:2 14:1 18:1 20:3 21:3 22:2 25:2 
0 1 1:1.225 13:3 15:0.975 18:1 20:4 21:2 22:1 25:3 
0 1 1:1.5 2:0.058823529 5:1 13:3 15:1.25 16:1 17:1 20:4 21:2 25:4 
0 1 1:0.725 2:0.076923077 5:1 13:2 15:0.725 16:1 20:3 21:2 22:3 
1 1 1:0.3 12:1 13:4 14:1 15:1.5 20:3 21:6 22:2 25:2 
0 1 1:0.85 2:0.13333333 5:1 13:3 15:1.1 16:1 18:2 21:3 25:4 
0 1 1:0.25 13:2 15:0.375 18:2 20:5 21:2 22:2 
0 1 1:0.525 13:2 15:0.525 17:2 18:2 20:3 21:2 25:1 
1 1 1:0.25 12:1 13:2 15:0.85 20:4 21:4 22:2 23:1 25:2 
0 1 1:1.2 13:2 15:1.2 20:3 21:3 25:2 
0 1 1:1.225 2:0.18181818 5:1 13:2 15:1.225 16:1 20:3 21:2 25:1 
0 1 1:0.925 2:0.05 5:1 13:4 14:1 15:1.05 18:2 20:5 21:5 22:4 25:1 
1 1 2:0.14285714 5:1 13:1 14:1 20:1 25:2 
1 1 1:0.675 13:6 14:2 15:0.925 18:1 20:7 21:5 22:1 23:1 25:3 
1 1 1:0.075 12:1 13:1 14:1 15:0.2 20:7 21:1 22:1 25:1 
0 1 1:-0.25 2:0.0625 5:1 18:3 20:2 21:2 23:1 25:1 
1 1 1:1.575 12:1 13:7 15:2.05 17:2 20:8 21:4 22:3 25:2 
0 1 1:1.4 13:3 15:1.4 20:3 23:1 25:2 
0 1 1:1.7 13:5 14:1 15:1.7 20:5 21:2 23:1 25:2 
0 1 1:1.225 2:0.11111111 5:1 13:3 14:1 15:0.725 16:1 18:2 20:4 21:2 22:1 23:1 25:2 
1 1 2:0.076923077 5:1 13:1 15:0.125 17:2 20:2 21:2 23:1 
0 1 1:0.8 2:0.10526316 5:1 10:1 13:3 15:0.925 17:2 18:1 20:3 21:4 25:1 
1 1 1:0.65 2:0.1 5:1 13:3 15:0.65 17:1 20:2 21:2 25:1 
0 1 1:0.55 2:0.0625 5:1 13:1 15:0.8 20:3 21:1 22:3 25:4 
0 1 1:0.95 13:3 15:1.325 20:5 21:3 22:2 25:1 
0 1 1:0.25 2:0.090909091 5:1 13:1 15:0.25 16:1 20:1 22:1 25:2 
0 1 1:0.3 13:2 14:1 15:0.3 17:1 18:4 20:5 21:5 25:4 
1 1 1:-0.6 12:1 13:1 14:1 20:1 21:2 22:2 25:2 
0 1 1:0.625 8:1 13:2 14:1 15:0.225 20:3 21:2 22:4 
0 1 1:0.475 13:2 15:1.2 20:3 21:4 22:1 23:1 
1 1 1:-0.975 2:0.055555556 5:1 12:1 13:2 14:2 15:0.25 18:2 20:4 21:5 22:1 
1 1 1:0.3 2:0.090909091 5:1 13:2 14:3 15:-0.1 18:1 20:3 21:3 25:1 
1 1 1:0.2 13:1 14:2 15:-0.2 18:2 20:2 21:5 22:3 25:2 
1 1 1:-0.125 13:1 14:1 15:0.125 20:1 21:3 22:2 25:2 
1 1 1:0.15 8:1 13:2 14:1 15:-0.25 17:1 20:2 21:2 22:3 25:2 
1 0.2158185757081361 1:-0.8 12:3 13:3 14:3 15:-0.075 18:2 20:2 21:5 22:5 25:3 
0 1 1:0.7 2:0.071428571 5:1 13:2 14:1 15:0.7 20:7 21:1 22:3 25:1 
0 1 1:1.125 13:3 15:1.125 17:1 20:7 21:4 22:8 25:2 
1 1 1:0.975 13:5 14:2 15:0.975 20:4 21:5 22:3 25:5 
0.5419917614653565 0 1:1.325 2:0.2 3:2 5:1 13:7 15:2.375 20:1 21:7 22:1 25:2 
0.99487660834923 0.7175883306982866 1:-1.075 13:3 14:2 15:0.425 18:2 20:6 21:6 22:2 23:1 25:4 
0 1 1:0.75 13:4 14:1 15:0.875 18:1 20:5 21:2 22:1 23:1 25:3 
0 1 1:0.6 13:1 15:0.6 20:1 21:1 
0.2562026488180158 0 1:0.525 12:1 13:3 14:1 15:1.375 17:1 18:3 20:1 21:8 22:3 
0 0.6092482102503927 1:1.475 8:1 12:1 13:8 14:2 15:3.125 20:6 21:12 22:1 25:2 
0 1 1:1.125 13:5 15:1.125 18:1 20:8 21:3 25:2 
1 1 1:1.225 2:0.076923077 5:1 13:5 14:1 15:1.225 16:1 20:5 21:5 25:1 
1 1 1:-0.5 13:1 14:2 15:-0.5 21:1 22:2 25:2 
1 1 1:-0.85 12:1 13:1 14:1 15:-0.6 18:1 20:6 21:3 22:1 
0 1 1:0.4 2:0.22222222 5:1 13:4 14:2 15:0.65 20:1 21:1 22:1 23:1 24:1 25:5 
1 1 1:-1.375 14:1 15:-0.5 18:3 20:1 21:1 
0 1 1:0.725 2:0.0625 5:1 13:2 15:0.725 16:1 18:1 20:4 21:1 22:1 25:1 
0 1 1:1.625 2:0.047619048 5:1 13:4 14:1 15:1.625 20:6 21:3 22:7 
0 1 1:0.35 13:3 14:1 15:1 20:4 21:3 22:3 24:1 25:3 
0 1 1:-0.75 18:1 20:3 21:1 22:1 
0 1 1:1.05 2:0.11764706 5:1 8:1 13:3 15:0.775 16:1 17:1 18:1 20:5 21:3 
0 0.4929775862778442 1:0.6 2:0.16666667 5:1 13:2 15:1.2 18:7 20:6 21:3 25:1 
0 1 1:0.25 13:1 15:0.25 20:2 21:2 25:2 
1 1 1:0.125 2:0.26666667 3:1 5:1 13:3 14:1 15:0.25 20:6 21:1 22:1 25:1 
0.4741879884995823 1 1:0.75 2:0.055555556 5:1 13:2 14:1 15:0.75 16:1 20:5 21:1 22:6 25:2 
0 1 1:1.225 2:0.11764706 5:1 13:5 15:1.475 18:1 20:3 21:5 25:3 
1 1 1:-0.75 13:1 14:1 15:-0.625 20:2 21:1 22:1 23:1 
0.05257539176565149 0 1:1.95 12:1 13:4 15:1.95 17:1 18:2 20:4 22:1 25:3 
1 1 1:0.35 2:0.05 5:1 13:2 14:1 15:0.6 20:4 21:4 22:5 24:1 25:2 
0 0.5853472742577644 1:1.475 2:0.11111111 5:1 13:4 15:1.85 16:1 17:1 18:2 20:6 21:1 22:1 25:1 
1 1 1:0.175 2:0.0625 5:1 13:4 14:1 15:0.425 20:3 21:5 22:1 23:1 25:2 
0.5302202312990983 1 1:-0.575 10:1 13:1 14:2 15:-0.575 18:3 20:4 21:5 22:2 23:1 
0 1 1:0.125 2:0.53846154 5:1 13:1 15:0.125 20:4 21:1 
1 1 1:-0.3 13:1 14:1 15:-0.3 20:3 21:2 22:1 
1 0 1:0.725 12:1 13:4 14:1 15:1.45 20:4 21:3 22:4 23:1 25:2 
1 1 1:0.225 2:0.055555556 5:1 13:2 14:1 15:0.225 16:1 20:3 21:6 22:4 
0 1 1:0.375 13:1 15:0.375 20:3 21:2 22:1 
1 1 1:-0.375 10:1 12:2 13:1 15:0.6 17:2 18:2 20:3 22:2 
0 1 1:0.6 2:0.125 5:1 13:1 15:0.6 18:1 20:1 21:1 
1 1 1:0.025 13:3 14:3 15:0.025 18:1 20:8 21:5 22:1 25:3 
0 1 1:0.8 2:0.28571429 5:1 13:1 15:0.8 16:2 20:4 21:1 22:1 25:1 
0 1 1:0.8 8:1 13:1 15:0.4 20:1 21:1 22:4 
0.9253689635305131 1 1:1.125 13:3 15:1.125 20:1 21:5 22:2 
1 0 1:0.975 12:1 13:5 14:1 15:1.575 20:4 21:4 22:2 25:5 
1 1 1:-0.25 2:0.066666667 5:1 12:1 13:3 15:0.725 20:4 21:4 22:1 25:2 
0 1 1:0.6 13:1 15:0.6 20:3 21:3 22:1 
0 1 2:0.2 5:1 18:1 20:1 21:1 
0 1 1:0.525 8:1 13:1 15:0.125 20:2 21:1 25:2 
1 1 1:-0.375 2:0.14285714 5:1 13:2 15:0.375 20:3 21:4 25:2 
0 1 1:1.15 2:0.125 5:1 13:4 14:1 15:1.95 20:8 21:3 22:1 25:1 
0 1 1:0.675 2:0.083333333 5:1 13:2 14:1 15:0.675 16:1 18:2 20:4 22:1 
0 1 1:0.75 2:0.090909091 5:1 13:2 15:1 20:2 21:1 22:2 25:1 
0 1 1:1.3 13:3 15:0.925 18:1 20:6 21:1 25:2 
0 1 1:0.275 13:1 14:1 15:0.275 18:1 20:5 21:2 22:2 
0 1 1:0.8 13:1 15:0.8 18:1 20:1 22:1 
1 1 1:-0.625 13:2 14:3 15:-0.625 20:3 21:5 22:3 25:1 
0 1 1:0.4 13:1 14:1 15:0.15 18:4 20:3 21:2 23:1 
0 1 1:1 2:0.14285714 5:1 13:4 14:1 15:1 16:1 20:4 21:2 22:5 25:1 
0 1 1:0.9 2:0.058823529 5:1 13:2 14:1 15:0.9 16:1 18:1 20:4 21:5 22:3 25:1 
0 1 1:0.775 13:2 15:0.525 17:1 18:1 20:6 21:2 22:4 25:1 
1 1 1:-0.6 13:5 14:3 15:0.15 20:7 21:3 22:1 25:2 
1 1 1:-0.25 13:4 14:1 15:1.1 20:5 21:6 22:3 24:1 25:1 
0 1 1:0.925 13:4 14:1 15:1.675 20:2 21:3 22:5 
0 1 1:1.2 13:2 15:1.2 18:1 20:4 21:2 
1 0.495771981652682 1:-0.025 2:0.068965517 3:2 5:1 12:3 13:4 14:3 15:0.95 18:3 20:8 21:5 22:1 
1 1 1:0.425 2:0.22222222 3:1 5:1 13:2 14:1 15:0.425 20:6 21:5 22:3 
1 1 1:0.475 2:0.034482759 5:1 13:2 14:1 15:0.475 17:1 19:2 20:10 21:5 22:5 25:2 
0 1 1:0.375 2:0.10526316 5:1 13:3 15:0.5 16:1 18:1 20:3 21:2 22:4 25:4 
0 1 2:0.11111111 5:1 13:1 14:1 16:1 20:1 21:1 
0 1 1:0.4 13:1 15:0.4 17:1 18:2 20:2 
1 1 1:0.325 2:0.071428571 5:1 13:2 14:1 15:0.325 16:1 20:2 21:4 22:5 
0 1 1:0.2 12:1 13:2 15:0.8 18:1 20:3 21:2 22:1 25:2 
0 1 1:1.05 13:4 14:1 15:1.05 18:2 20:5 21:6 25:3 
0.5873710868705542 1 2:0.1 5:1 18:2 20:4 21:3 22:8 24:1 
1 1 1:-0.1 13:1 14:1 15:-0.1 20:2 21:3 22:1 23:1 25:2 
1 1 1:0.25 2:0.052631579 5:1 18:1 20:5 22:7 25:2 
0 1 1:1.6 2:0.076923077 5:1 13:4 15:1.6 16:1 18:1 20:2 21:2 22:1 25:4 
1 1 1:0.125 13:1 14:1 15:0.125 18:1 20:2 21:4 22:2 25:2 
0 0.8004568070711229 1:1.25 13:4 15:1.25 18:1 20:7 21:1 22:1 25:1 
0 1 1:0.4 8:1 18:1 20:3 
1 1 1:0.075 13:1 14:1 15:0.075 17:1 20:8 21:1 22:3 25:2 
0 1 13:1 14:1 18:1 20:3 21:1 22:1 
0 1 1:0.825 13:3 15:1.325 17:1 20:2 21:2 25:1 
1 1 1:-0.275 12:1 13:2 15:0.325 20:2 21:6 22:1 25:2 
1 1 1:0.8 13:4 14:3 15:0.8 20:7 21:4 22:9 25:2 
0 1 1:0.6 13:1 15:0.6 20:2 21:2 22:1 25:1 
1 1 1:-1.425 2:0.0625 5:1 13:1 14:2 15:0.075 20:3 21:8 22:1 
0 1 1:-0.575 2:0.0625 5:1 12:1 13:3 15:0.775 18:1 20:3 21:3 22:1 25:3 
0 0.4761377672221391 1:0.925 2:0.052631579 5:1 13:7 14:3 15:2 20:1 21:7 22:1 23:1 25:3 
1 1 1:-1.9 12:1 13:2 14:2 15:-0.3 18:1 20:2 21:3 22:2 23:1 25:2 
1 1 1:-0.75 2:0.090909091 5:1 20:2 21:2 22:2 25:1 
1 1 1:0.2 13:1 15:0.2 20:1 21:1 22:1 
0 1 1:0.35 2:0.0625 5:1 13:2 14:1 15:0.6 20:4 21:3 22:3 24:1 25:2 
0 1 1:0.6 2:0.16666667 5:1 13:1 15:0.6 18:3 20:2 
0 1 1:0.675 8:1 13:3 14:1 15:0.275 20:2 21:2 22:2 
1 1 1:-0.375 13:1 14:1 15:-0.375 20:5 21:2 22:2 25:1 
0 1 1:0.5 2:0.071428571 5:1 13:2 14:1 15:0.5 20:2 21:2 22:1 25:3 
0 1 1:0.725 8:1 13:2 14:1 15:0.7 17:1 20:6 21:5 25:1 
0 1 1:0.6 2:0.16666667 5:1 13:1 15:0.6 16:1 20:6 22:1 
1 1 1:0.375 13:2 14:1 15:0.5 20:1 21:2 22:1 
0 1 1:1.25 2:0.0625 5:1 13:3 15:1.25 20:4 21:1 22:4 25:4 
0 1 1:1.175 8:1 13:3 15:0.775 20:5 21:3 22:2 24:1 25:3 
1 1 1:-0.1 2:0.0625 5:1 13:2 14:2 15:-0.1 17:2 20:2 21:3 22:1 
0.310750753145665 0 1:1.7 13:4 14:1 15:1.7 17:1 18:5 20:9 21:1 25:2 
1 1 1:0.9 2:0.066666667 5:1 13:3 14:1 15:1.025 16:1 17:2 20:4 21:1 22:4 25:1 
1 1 1:-0.5 2:0.055555556 5:1 12:1 13:3 15:1.45 16:1 18:1 20:3 21:6 22:3 25:2 
0 0.02379882238453502 1:2.15 13:7 15:2.75 18:6 20:7 21:4 22:1 24:1 25:2 
0 1 1:0.75 2:0.08 3:2 5:1 13:4 14:1 15:1.35 20:8 21:4 22:7 25:2 
1 1 1:-0.65 13:1 14:1 15:0.225 20:2 21:1 25:2 
1 1 1:0.375 12:1 13:4 14:2 15:0.975 20:7 21:6 22:3 25:2 
0 1 1:1.525 2:0.052631579 5:1 13:3 15:1.525 18:1 20:7 21:3 22:4 23:1 24:1 25:1 
1 1 1:-0.275 8:1 13:1 14:1 15:0.075 20:3 21:2 22:4 25:3 
1 1 1:0.925 2:0.0625 5:1 13:4 14:2 15:0.925 20:5 21:3 22:1 25:2 
0 1 1:0.6 13:1 15:0.6 18:1 20:2 21:1 22:2 
1 1 1:0.2 13:1 14:1 15:0.2 20:2 21:4 22:2 25:2 
1 1 1:-1.3 13:2 14:3 15:-0.55 20:6 21:2 25:3 
