svm_type c_svc
kernel_type rbf
gamma 0.0769231
nr_class 3
total_sv 6204
rho 0.0536271 -0.388465 -0.124526
label 1 -1 0
nr_sv 2335 1036 2833
SV
0 1 0:0 1:0 2:0 3:0 4:0 5:0 6:1 7:0 8:0 9:0 10:0 11:1 12:1 13:0.071428571 
0 1 0:0.058823529 1:1 2:0 3:1 4:0 5:0 6:0 7:0 8:0 9:0 10:0 11:1 12:0 13:0.29166667 
0 1 0:0 1:0 2:0 3:0 4:0 5:0 6:0 7:0 8:0 9:0 10:0 11:0 12:0 13:0 
1 1 0:0.055555556 1:1 2:1 3:1 4:0 5:0 6:0 7:0 8:0 9:0 10:2 11:1 12:1 13:0.25 
0 1 0:0.076923077 1:1 2:1 3:1 4:1 5:0 6:0 7:0 8:0 9:0 10:0 11:1 12:1 13:0.17156863 
0 1 0:0 1:0 2:0 3:0 4:0 5:0 6:0 7:0 8:0 9:0 10:0 11:0 12:0 13:0 
0 1 0:0.23529412 1:4 2:1 3:1 4:1 5:0 6:1 7:0 8:0 9:0 10:0 11:0 12:0 13:0 
1 1 0:0.14285714 1:1 2:1 3:1 4:0 5:0 6:0 7:0 8:0 9:0 10:0 11:1 12:1 13:0.037037037 
0 1 0:0 1:0 2:0 3:0 4:0 5:0 6:0 7:0 8:0 9:0 10:0 11:0 12:0 13:0 
0 1 0:0.57142857 1:4 2:2 3:1 4:0 5:0 6:0 7:0 8:0 9:0 10:0 11:1 12:0 13:0.5 
0 1 0:0.11111111 1:1 2:1 3:1 4:1 5:0 6:0 7:0 8:0 9:0 10:0 11:0 12:0 13:0 
1 1 0:0 1:0 2:0 3:0 4:0 5:0 6:0 7:0 8:0 9:0 10:0 11:1 12:1 13:0.097222222 
0 1 0:0 1:0 2:0 3:0 4:0 5:0 6:0 7:0 8:0 9:0 10:0 11:1 12:1 13:0.43274854 
0 1 0:0 1:0 2:0 3:0 4:0 5:0 6:0 7:0 8:0 9:0 10:0 11:0 12:0 13:0 
0 1 0:0.14285714 1:2 2:2 3:1 4:1 5:0 6:0 7:0 8:0 9:0 10:0 11:0 12:0 13:0 
1 1 0:0.066666667 1:1 2:1 3:1 4:0 5:0 6:0 7:0 8:0 9:0 10:0 11:1 12:1 13:0.085899152 
0 1 0:0.13333333 1:2 2:1 3:1 4:0 5:0 6:0 7:0 8:0 9:0 10:0 11:1 12:0 13:0.17647059 
1 1 0:0.066666667 1:1 2:1 3:1 4:0 5:0 6:0 7:0 8:0 9:0 10:0 11:1 12:1 13:0 
0 1 0:0 1:0 2:0 3:0 4:0 5:0 6:0 7:0 8:0 9:0 10:0 11:0 12:0 13:0 
0 1 0:0.052631579 1:1 2:1 3:1 4:1 5:0 6:0 7:0 8:0 9:0 10:1 11:0 12:0 13:0 
0 1 0:0.14285714 1:1 2:1 3:1 4:1 5:0 6:0 7:0 8:0 9:0 10:0 11:1 12:1 13:0.125 
0 1 0:0 1:0 2:0 3:0 4:0 5:0 6:0 7:0 8:0 9:0 10:0 11:1 12:0 13:0.15909091 
0 1 0:0.1875 1:3 2:3 3:1 4:0 5:0 6:0 7:0 8:0 9:0 10:0 11:1 12:1 13:0.2125 
1 1 0:0 1:0 2:0 3:0 4:0 5:0 6:0 7:0 8:0 9:0 10:0 11:1 12:1 13:0.13970588 
0 1 0:0 1:0 2:0 3:0 4:0 5:0 6:0 7:0 8:0 9:0 10:0 11:0 12:0 13:0 
0 1 0:0.15 1:3 2:2 3:1 4:0 5:0 6:0 7:0 8:0 9:0 10:0 11:0 12:0 13:0 
0 1 0:0 1:0 2:0 3:0 4:0 5:0 6:0 7:0 8:0 9:0 10:0 11:1 12:1 13:0.16666667 
0 1 0:0.076923077 1:1 2:0 3:1 4:0 5:0 6:0 7:0 8:0 9:0 10:0 11:1 12:1 13:0.21212121 
1 1 0:0.083333333 1:1 2:1 3:1 4:0 5:0 6:0 7:0 8:0 9:0 10:0 11:0 12:0 13:0 
1 1 0:0 1:0 2:0 3:0 4:0 5:0 6:0 7:0 8:0 9:0 10:1 11:1 12:1 13:0.37297466 
0 1 0:0.083333333 1:1 2:1 3:1 4:1 5:0 6:0 7:0 8:0 9:0 10:0 11:1 12:1 13:0.17857143 
1 1 0:0 1:0 2:0 3:0 4:0 5:0 6:0 7:0 8:0 9:0 10:0 11:1 12:1 13:0.053571429 
1 1 0:0 1:0 2:0 3:0 4:0 5:0 6:0 7:0 8:0 9:0 10:1 11:1 12:1 13:0.14545455 
1 1 0:0.076923077 1:1 2:1 3:1 4:0 5:0 6:0 7:0 8:0 9:0 10:0 11:1 12:1 13:0 
0 1 0:0 1:0 2:0 3:0 4:0 5:0 6:0 7:0 8:0 9:0 10:0 11:1 12:0 13:0.5 
0 1 0:0.42857143 1:6 2:4 3:1 4:0 5:0 6:0 7:0 8:0 9:0 10:0 11:0 12:0 13:0 
1 1 0:0 1:0 2:0 3:0 4:0 5:0 6:0 7:0 8:0 9:0 10:0 11:1 12:1 13:0.071428571 
1 1 0:0.052631579 1:1 2:1 3:1 4:1 5:1 6:0 7:0 8:0 9:0 10:1 11:1 12:1 13:0 
0 1 0:0.066666667 1:1 2:0 3:1 4:0 5:0 6:0 7:0 8:0 9:0 10:0 11:1 12:1 13:0.11363636 
1 1 0:0.13333333 1:2 2:2 3:1 4:0 5:0 6:0 7:0 8:0 9:0 10:0 11:1 12:1 13:0.085899152 
1 1 0:0.15789474 1:3 2:3 3:1 4:2 5:2 6:0 7:0 8:0 9:0 10:0 11:1 12:1 13:0.2 
1 1 0:0 1:0 2:0 3:0 4:0 5:0 6:0 7:0 8:0 9:0 10:1 11:0 12:0 13:0 
0 1 0:0 1:0 2:0 3:0 4:0 5:0 6:0 7:0 8:0 9:0 10:0 11:0 12:0 13:0 
1 1 0:0 1:0 2:0 3:0 4:0 5:0 6:0 7:0 8:0 9:0 10:0 11:1 12:1 13:0.085899152 
0 1 0:0 1:0 2:0 3:0 4:1 5:0 6:0 7:0 8:0 9:0 10:0 11:1 12:1 13:-0.038461538 
0 1 0:0 1:0 2:0 3:0 4:0 5:0 6:0 7:0 8:0 9:0 10:0 11:1 12:1 13:0.14545455 
0 1 0:0 1:0 2:0 3:0 4:0 5:0 6:0 7:0 8:0 9:0 10:0 11:0 12:0 13:0 
0 1 0:0.15384615 1:2 2:2 3:1 4:0 5:0 6:0 7:0 8:0 9:0 10:0 11:1 12:1 13:0.14705882 
0 1 0:0.0625 1:1 2:0 3:1 4:1 5:0 6:0 7:0 8:0 9:0 10:0 11:0 12:0 13:0 
1 1 0:0 1:0 2:0 3:0 4:0 5:0 6:0 7:0 8:0 9:0 10:0 11:1 12:1 13:0.035714286 
0 1 0:0.045454545 1:1 2:1 3:1 4:0 5:0 6:0 7:0 8:0 9:0 10:0 11:1 12:0 13:0.25 
0 1 0:0.076923077 1:1 2:1 3:1 4:1 5:0 6:0 7:0 8:0 9:0 10:0 11:0 12:0 13:0 
1 1 0:0 1:0 2:0 3:0 4:0 5:0 6:0 7:0 8:0 9:0 10:0 11:1 12:1 13:0.085899152 
0 1 0:0 1:0 2:0 3:0 4:0 5:0 6:0 7:0 8:0 9:0 10:0 11:1 12:1 13:0.175 
0 1 0:0.125 1:2 2:2 3:1 4:0 5:0 6:0 7:0 8:0 9:0 10:0 11:1 12:0 13:0.5 
1 1 0:0.058823529 1:1 2:1 3:1 4:0 5:0 6:0 7:0 8:0 9:0 10:0 11:1 12:1 13:0.047619048 
0 1 0:0 1:0 2:0 3:0 4:0 5:0 6:0 7:0 8:0 9:0 10:0 11:0 12:0 13:0 
0 1 0:0.083333333 1:1 2:1 3:1 4:0 5:0 6:0 7:0 8:0 9:0 10:0 11:1 12:1 13:0.21428571 
0 1 0:0.090909091 1:1 2:0 3:1 4:1 5:0 6:0 7:0 8:0 9:0 10:0 11:0 12:0 13:0 
0 1 0:0 1:0 2:0 3:0 4:0 5:0 6:0 7:0 8:0 9:0 10:0 11:0 12:0 13:0 
0 1 0:0.076923077 1:1 2:1 3:1 4:0 5:0 6:0 7:0 8:0 9:0 10:0 11:1 12:1 13:0.10377358 
1 1 0:0 1:0 2:0 3:0 4:0 5:0 6:0 7:0 8:0 9:0 10:0 11:1 12:1 13:0.12974684 
0 1 0:0.16666667 1:2 2:1 3:1 4:1 5:1 6:0 7:0 8:0 9:0 10:0 11:0 12:0 13:0 
0 1 0:0.066666667 1:1 2:0 3:1 4:0 5:0 6:0 7:0 8:0 9:0 10:1 11:0 12:0 13:0 
1 1 0:0 1:0 2:0 3:0 4:1 5:1 6:0 7:0 8:0 9:0 10:0 11:1 12:1 13:0.070512821 
0 1 0:0.055555556 1:1 2:0 3:1 4:0 5:0 6:0 7:0 8:0 9:0 10:0 11:0 12:0 13:0 
1 1 0:0.14285714 1:1 2:1 3:1 4:0 5:0 6:0 7:0 8:0 9:0 10:0 11:1 12:1 13:0.083333333 
1 1 0:0.083333333 1:1 2:1 3:1 4:0 5:0 6:0 7:0 8:0 9:0 10:1 11:1 12:1 13:0.1 
1 1 0:0 1:0 2:0 3:0 4:0 5:0 6:0 7:0 8:0 9:0 10:0 11:1 12:1 13:-0.058467742 
1 1 0:0.0625 1:1 2:1 3:1 4:1 5:1 6:0 7:0 8:0 9:0 10:0 11:1 12:1 13:0.13068182 
1 1 0:0.14285714 1:2 2:2 3:1 4:0 5:0 6:0 7:0 8:0 9:0 10:0 11:1 12:1 13:0.1016297 
1 1 0:0 1:0 2:0 3:0 4:1 5:1 6:0 7:0 8:0 9:0 10:0 11:1 12:1 13:0 
1 1 0:0 1:0 2:0 3:0 4:1 5:1 6:0 7:0 8:0 9:0 10:1 11:0 12:0 13:0 
1 1 0:0.17647059 1:3 2:3 3:1 4:0 5:0 6:0 7:0 8:0 9:0 10:0 11:1 12:1 13:-0.0875 
1 1 0:0 1:0 2:0 3:0 4:0 5:0 6:0 7:0 8:0 9:0 10:0 11:1 12:1 13:-0.15625 
1 1 0:0.076923077 1:1 2:1 3:1 4:0 5:0 6:0 7:0 8:0 9:0 10:0 11:1 12:1 13:0.085899152 
0 1 0:0 1:0 2:0 3:0 4:0 5:0 6:0 7:0 8:0 9:0 10:0 11:1 12:1 13:0.16477273 
0 1 0:0 1:0 2:0 3:0 4:0 5:0 6:0 7:0 8:0 9:0 10:0 11:0 12:0 13:0 
0 1 0:0 1:0 2:0 3:0 4:0 5:0 6:0 7:0 8:0 9:0 10:0 11:1 12:1 13:0.17857143 
0 1 0:0 1:0 2:0 3:0 4:0 5:0 6:0 7:0 8:0 9:0 10:0 11:0 12:0 13:0 
0 1 0:0 1:0 2:0 3:0 4:0 5:0 6:0 7:0 8:0 9:0 10:0 11:0 12:0 13:0 
0 1 0:0 1:0 2:0 3:0 4:0 5:0 6:0 7:0 8:0 9:0 10:0 11:0 12:0 13:0 
1 1 0:0 1:0 2:0 3:0 4:1 5:1 6:0 7:0 8:0 9:0 10:0 11:1 12:1 13:0.16666667 
0 1 0:0 1:0 2:0 3:0 4:0 5:0 6:0 7:0 8:0 9:0 10:0 11:1 12:1 13:0.16666667 
0 1 0:0 1:0 2:0 3:0 4:0 5:0 6:0 7:0 8:0 9:0 10:0 11:1 12:0 13:0.5 
0 1 0:0.14285714 1:2 2:1 3:1 4:0 5:0 6:0 7:0 8:0 9:0 10:0 11:0 12:0 13:0 
1 1 0:0 1:0 2:0 3:0 4:0 5:0 6:0 7:0 8:0 9:0 10:0 11:1 12:1 13:0.075 
0 1 0:0.11111111 1:2 2:2 3:1 4:0 5:0 6:0 7:0 8:0 9:0 10:0 11:1 12:0 13:0.34615385 
1 1 0:0 1:0 2:0 3:0 4:0 5:0 6:0 7:0 8:0 9:0 10:1 11:0 12:0 13:0 
1 1 0:0 1:0 2:0 3:0 4:1 5:1 6:0 7:0 8:0 9:0 10:0 11:1 12:1 13:0.071428571 
0 1 0:0 1:0 2:0 3:0 4:0 5:0 6:0 7:0 8:0 9:0 10:0 11:1 12:0 13:0.125 
0 1 0:0.052631579 1:1 2:1 3:1 4:0 5:0 6:0 7:0 8:0 9:0 10:1 11:1 12:0 13:0.16666667 
0 1 0:0 1:0 2:0 3:0 4:0 5:0 6:0 7:0 8:0 9:0 10:0 11:1 12:0 13:0.45 
0 1 0:0 1:0 2:0 3:0 4:0 5:0 6:0 7:0 8:0 9:0 10:0 11:0 12:0 13:0 
1 1 0:0 1:0 2:0 3:0 4:1 5:1 6:0 7:0 8:0 9:0 10:0 11:1 12:1 13:0.014285714 
0 1 0:0 1:0 2:0 3:0 4:0 5:0 6:0 7:0 8:0 9:0 10:0 11:0 12:0 13:0 
1 1 0:0.047619048 1:1 2:1 3:1 4:0 5:0 6:0 7:0 8:0 9:0 10:1 11:1 12:1 13:0.25 
0 1 0:0.076923077 1:1 2:0 3:1 4:0 5:0 6:0 7:0 8:0 9:0 10:0 11:1 12:0 13:0.15909091 
0 1 0:0 1:0 2:0 3:0 4:0 5:0 6:0 7:0 8:0 9:0 10:0 11:0 12:0 13:0 
0 1 0:0 1:0 2:0 3:0 4:0 5:0 6:0 7:0 8:0 9:0 10:0 11:0 12:0 13:0 
0 1 0:0 1:0 2:0 3:0 4:0 5:0 6:0 7:0 8:0 9:0 10:0 11:1 12:0 13:0.23913043 
0 1 0:0 1:0 2:0 3:0 4:0 5:0 6:0 7:0 8:0 9:0 10:0 11:0 12:0 13:0 
1 1 0:0.052631579 1:1 2:1 3:1 4:0 5:0 6:0 7:0 8:0 9:0 10:0 11:1 12:1 13:0.041666667 
1 1 0:0 1:0 2:0 3:0 4:0 5:0 6:0 7:0 8:0 9:0 10:0 11:1 12:1 13:-0.023809524 
0 1 0:0 1:0 2:0 3:0 4:1 5:0 6:0 7:0 8:0 9:0 10:1 11:0 12:0 13:0 
0 1 0:0.0625 1:1 2:1 3:1 4:0 5:0 6:0 7:0 8:0 9:0 10:0 11:1 12:0 13:0.16666667 
0 1 0:0 1:0 2:0 3:0 4:0 5:0 6:0 7:0 8:0 9:0 10:0 11:1 12:1 13:0.1875 
0 1 0:0 1:0 2:0 3:0 4:0 5:0 6:0 7:0 8:0 9:0 10:0 11:1 12:1 13:0.25 
1 1 0:0 1:0 2:0 3:0 4:0 5:0 6:0 7:0 8:0 9:0 10:1 11:1 12:1 13:0.075 
1 1 0:0 1:0 2:0 3:0 4:0 5:0 6:0 7:0 8:0 9:0 10:0 11:1 12:1 13:0.085899152 
0 1 0:0.21428571 1:3 2:1 3:1 4:0 5:0 6:0 7:0 8:0 9:0 10:0 11:0 12:0 13:0 
1 1 0:0 1:0 2:0 3:0 4:0 5:0 6:0 7:0 8:0 9:0 10:1 11:1 12:1 13:-0.1 
1 1 0:0 1:0 2:0 3:0 4:1 5:1 6:0 7:0 8:0 9:0 10:0 11:0 12:0 13:0 
0 1 0:0 1:0 2:0 3:0 4:0 5:0 6:0 7:0 8:0 9:0 10:0 11:1 12:0 13:0.375 
0 1 0:0 1:0 2:0 3:0 4:0 5:0 6:0 7:0 8:0 9:0 10:0 11:1 12:1 13:0.21818182 
1 1 0:0.055555556 1:1 2:1 3:1 4:0 5:0 6:0 7:0 8:0 9:0 10:0 11:1 12:1 13:-0.066666667 
0 1 0:0.10526316 1:2 2:0 3:1 4:0 5:0 6:0 7:0 8:0 9:0 10:0 11:1 12:1 13:0.085899152 
0 1 0:0.071428571 1:1 2:1 3:1 4:0 5:0 6:0 7:0 8:0 9:0 10:0 11:1 12:1 13:0.15789474 
0 1 0:0 1:0 2:0 3:0 4:0 5:0 6:0 7:0 8:0 9:0 10:0 11:0 12:0 13:0 
0 1 0:0 1:0 2:0 3:0 4:0 5:0 6:0 7:0 8:0 9:0 10:0 11:0 12:0 13:0 
0 1 0:0.076923077 1:1 2:1 3:1 4:0 5:0 6:0 7:0 8:0 9:0 10:0 11:1 12:1 13:0.1875 
0 1 0:0.045454545 1:1 2:0 3:1 4:0 5:0 6:0 7:0 8:0 9:0 10:0 11:0 12:0 13:0 
1 1 0:0.076923077 1:1 2:1 3:1 4:0 5:0 6:0 7:0 8:0 9:0 10:0 11:1 12:1 13:0.041666667 
0 1 0:0 1:0 2:0 3:0 4:0 5:0 6:0 7:0 8:0 9:0 10:0 11:0 12:0 13:0 
1 1 0:0 1:0 2:0 3:0 4:0 5:0 6:0 7:0 8:0 9:0 10:0 11:1 12:1 13:0.078125 
1 1 0:0.0625 1:1 2:1 3:1 4:0 5:0 6:0 7:0 8:0 9:0 10:1 11:0 12:0 13:0 
1 1 0:0 1:0 2:0 3:0 4:0 5:0 6:0 7:0 8:0 9:0 10:0 11:1 12:1 13:-0.038461538 
0 1 0:0.052631579 1:1 2:1 3:1 4:0 5:0 6:0 7:0 8:0 9:0 10:0 11:1 12:1 13:0.2037037 
0 1 0:0.066666667 1:1 2:0 3:1 4:0 5:0 6:0 7:0 8:0 9:0 10:0 11:0 12:0 13:0 
0 1 0:0 1:0 2:0 3:0 4:0 5:0 6:0 7:0 8:0 9:0 10:0 11:0 12:0 13:0 
0 1 0:0.1 1:2 2:2 3:1 4:1 5:0 6:0 7:0 8:0 9:0 10:0 11:1 12:1 13:0.22222222 
0 1 0:0 1:0 2:0 3:0 4:0 5:0 6:0 7:0 8:0 9:0 10:0 11:1 12:1 13:0.5 
0 1 0:0 1:0 2:0 3:0 4:0 5:0 6:0 7:0 8:0 9:0 10:0 11:0 12:0 13:0 
0 1 0:0 1:0 2:0 3:0 4:0 5:0 6:0 7:0 8:0 9:0 10:0 11:0 12:0 13:0 
0 1 0:0 1:0 2:0 3:0 4:0 5:0 6:0 7:0 8:0 9:0 10:0 11:1 12:0 13:0.5 
1 1 0:0.071428571 1:1 2:1 3:1 4:0 5:0 6:0 7:0 8:0 9:0 10:0 11:1 12:1 13:-0.0048076923 
1 1 0:0 1:0 2:0 3:0 4:0 5:0 6:0 7:0 8:0 9:0 10:0 11:1 12:1 13:0.076923077 
0 1 0:0.052631579 1:1 2:1 3:1 4:0 5:0 6:0 7:0 8:0 9:0 10:0 11:1 12:0 13:0.1 
1 1 0:0 1:0 2:0 3:0 4:0 5:0 6:0 7:0 8:0 9:0 10:0 11:1 12:1 13:0 
0 1 0:0.076923077 1:1 2:0 3:1 4:0 5:0 6:0 7:0 8:0 9:0 10:0 11:0 12:0 13:0 
1 1 0:0 1:0 2:0 3:0 4:1 5:1 6:0 7:0 8:0 9:0 10:0 11:0 12:0 13:0 
1 1 0:0.090909091 1:1 2:1 3:1 4:0 5:0 6:0 7:0 8:0 9:0 10:0 11:0 12:0 13:0 
0 1 0:0 1:0 2:0 3:0 4:0 5:0 6:0 7:0 8:0 9:0 10:0 11:1 12:0 13:0.125 
1 1 0:0 1:0 2:0 3:0 4:0 5:0 6:0 7:0 8:0 9:0 10:0 11:1 12:1 13:0.055555556 
1 1 0:0.052631579 1:1 2:1 3:1 4:1 5:1 6:0 7:0 8:0 9:0 10:1 11:1 12:1 13:0.12658228 
1 1 0:0 1:0 2:0 3:0 4:0 5:0 6:0 7:0 8:0 9:0 10:0 11:1 12:1 13:0.085899152 
0 1 0:0 1:0 2:0 3:0 4:0 5:0 6:0 7:0 8:0 9:0 10:0 11:1 12:1 13:0.14724576 
0 1 0:0 1:0 2:0 3:0 4:0 5:0 6:0 7:0 8:0 9:0 10:0 11:0 12:0 13:0 
1 1 0:0 1:0 2:0 3:0 4:0 5:0 6:0 7:0 8:0 9:0 10:2 11:1 12:1 13:-0.008175278 
0 1 0:0.17647059 1:3 2:2 3:1 4:0 5:0 6:0 7:0 8:0 9:0 10:0 11:1 12:1 13:0.58896396 
0 1 0:0 1:0 2:0 3:0 4:0 5:0 6:0 7:0 8:0 9:0 10:0 11:0 12:0 13:0 
0 1 0:0 1:0 2:0 3:0 4:0 5:0 6:0 7:0 8:0 9:0 10:0 11:1 12:1 13:0.26470588 
1 1 0:0 1:0 2:0 3:0 4:0 5:0 6:0 7:0 8:0 9:0 10:0 11:1 12:1 13:0.085899152 
0 1 0:0 1:0 2:0 3:0 4:0 5:0 6:0 7:0 8:0 9:0 10:0 11:1 12:1 13:0.21818182 
0 1 0:0 1:0 2:0 3:0 4:0 5:0 6:0 7:0 8:0 9:0 10:0 11:0 12:0 13:0 
0 1 0:0 1:0 2:0 3:0 4:0 5:0 6:0 7:0 8:0 9:0 10:0 11:0 12:0 13:0 
1 1 0:0 1:0 2:0 3:0 4:0 5:0 6:0 7:0 8:0 9:0 10:0 11:1 12:1 13:0.12096774 
1 0 0:0 1:0 2:0 3:0 4:0 5:0 6:1 7:0 8:0 9:0 10:1 11:1 12:1 13:0.10135135 
1 1 0:0 1:0 2:0 3:0 4:0 5:0 6:0 7:0 8:0 9:0 10:0 11:1 12:1 13:-0.03125 
0 1 0:0.083333333 1:1 2:0 3:1 4:0 5:0 6:0 7:0 8:0 9:0 10:0 11:1 12:1 13:-0.083333333 
0 1 0:0 1:0 2:0 3:0 4:0 5:0 6:0 7:0 8:0 9:0 10:0 11:1 12:1 13:0.14285714 
1 1 0:0.058823529 1:1 2:0 3:1 4:0 5:0 6:0 7:0 8:0 9:0 10:1 11:1 12:1 13:-0.55288462 
0 1 0:0.3 1:3 2:2 3:1 4:1 5:0 6:0 7:0 8:0 9:0 10:1 11:1 12:1 13:0.140625 
0 1 0:0.055555556 1:1 2:0 3:1 4:0 5:0 6:0 7:0 8:0 9:0 10:0 11:1 12:1 13:0.16666667 
0 1 0:0 1:0 2:0 3:0 4:0 5:0 6:0 7:0 8:0 9:0 10:0 11:1 12:1 13:0.14163237 
0 1 0:0 1:0 2:0 3:0 4:0 5:0 6:0 7:0 8:0 9:0 10:0 11:1 12:1 13:0.1744186 
0 1 0:0.076923077 1:1 2:0 3:1 4:0 5:0 6:0 7:0 8:0 9:0 10:0 11:0 12:0 13:0 
0 1 0:0 1:0 2:0 3:0 4:0 5:0 6:0 7:0 8:0 9:0 10:0 11:0 12:0 13:0 
0 1 0:0.090909091 1:1 2:0 3:1 4:0 5:0 6:1 7:0 8:0 9:0 10:0 11:0 12:0 13:0 
1 1 0:0 1:0 2:0 3:0 4:0 5:0 6:0 7:0 8:0 9:0 10:0 11:1 12:1 13:0.05801105 
0 1 0:0 1:0 2:0 3:0 4:0 5:0 6:0 7:0 8:0 9:0 10:0 11:0 12:0 13:0 
0 1 0:0 1:0 2:0 3:0 4:0 5:0 6:0 7:0 8:0 9:0 10:0 11:1 12:1 13:0.14545455 
0 1 0:0.090909091 1:1 2:0 3:1 4:0 5:0 6:0 7:0 8:0 9:0 10:0 11:0 12:0 13:0 
0 1 0:0 1:0 2:0 3:0 4:0 5:0 6:0 7:0 8:0 9:0 10:0 11:1 12:1 13:0.15306122 
1 1 0:0 1:0 2:0 3:0 4:0 5:0 6:0 7:0 8:0 9:0 10:1 11:1 12:1 13:0.10818713 
0 1 0:0 1:0 2:0 3:0 4:0 5:0 6:0 7:0 8:0 9:0 10:0 11:1 12:1 13:0.2 
1 1 0:0 1:0 2:0 3:0 4:0 5:0 6:0 7:0 8:0 9:0 10:1 11:1 12:1 13:0.055555556 
0 1 0:0 1:0 2:0 3:0 4:0 5:0 6:0 7:0 8:0 9:0 10:0 11:0 12:0 13:0 
1 1 0:0 1:0 2:0 3:0 4:0 5:0 6:0 7:0 8:0 9:0 10:0 11:1 12:1 13:0.085899152 
0 1 0:0 1:0 2:0 3:0 4:0 5:0 6:0 7:0 8:0 9:0 10:0 11:1 12:0 13:0.5 
0 1 0:0 1:0 2:0 3:0 4:0 5:0 6:0 7:0 8:0 9:0 10:0 11:0 12:0 13:0 
0 1 0:0 1:0 2:0 3:0 4:0 5:0 6:0 7:0 8:0 9:0 10:0 11:1 12:1 13:0.32142857 
0 1 0:0 1:0 2:0 3:0 4:1 5:0 6:0 7:0 8:0 9:0 10:0 11:1 12:1 13:0.015151515 
1 1 0:0.04 1:1 2:1 3:1 4:0 5:0 6:0 7:0 8:0 9:0 10:1 11:1 12:1 13:0.25 
0 1 0:0.05 1:1 2:1 3:1 4:0 5:0 6:0 7:0 8:0 9:0 10:0 11:0 12:0 13:0 
0 1 0:0.14285714 1:2 2:2 3:1 4:0 5:0 6:0 7:0 8:0 9:0 10:0 11:1 12:1 13:0.14108352 
1 1 0:0 1:0 2:0 3:0 4:0 5:0 6:0 7:0 8:0 9:0 10:1 11:0 12:0 13:0 
0 1 0:0.076923077 1:1 2:0 3:1 4:0 5:0 6:0 7:0 8:0 9:0 10:0 11:1 12:1 13:0.17857143 
1 1 0:0 1:0 2:0 3:0 4:0 5:0 6:0 7:0 8:0 9:0 10:0 11:1 12:1 13:-0.125 
0 1 0:0.055555556 1:1 2:1 3:1 4:0 5:0 6:0 7:0 8:0 9:0 10:0 11:0 12:0 13:0 
0 1 0:0.058823529 1:1 2:1 3:1 4:0 5:0 6:0 7:0 8:0 9:0 10:0 11:1 12:1 13:0.23863636 
0 1 0:0.14285714 1:2 2:2 3:1 4:0 5:0 6:0 7:0 8:0 9:0 10:0 11:0 12:0 13:0 
1 1 0:0.2 1:2 2:2 3:1 4:0 5:0 6:0 7:0 8:0 9:0 10:0 11:0 12:0 13:0 
0 1 0:0 1:0 2:0 3:0 4:0 5:0 6:0 7:0 8:0 9:0 10:0 11:0 12:0 13:0 
1 1 0:0.125 1:2 2:2 3:1 4:0 5:0 6:0 7:0 8:1 9:0 10:1 11:0 12:0 13:0 
1 1 0:0 1:0 2:0 3:0 4:0 5:0 6:0 7:0 8:0 9:0 10:0 11:1 12:1 13:-0.045454545 
0 1 0:0 1:0 2:0 3:0 4:0 5:0 6:0 7:0 8:0 9:0 10:0 11:0 12:0 13:0 
0 1 0:0.125 1:2 2:1 3:1 4:1 5:0 6:0 7:0 8:0 9:0 10:0 11:1 12:1 13:0.085899152 
0 1 0:0.15384615 1:2 2:2 3:1 4:0 5:0 6:0 7:0 8:0 9:0 10:0 11:1 12:0 13:0.5625 
0 1 0:0.055555556 1:1 2:0 3:1 4:0 5:0 6:0 7:0 8:0 9:0 10:0 11:1 12:0 13:0.5 
0 1 0:0.14285714 1:2 2:2 3:1 4:1 5:0 6:0 7:0 8:0 9:0 10:0 11:0 12:0 13:0 
0 1 0:0 1:0 2:0 3:0 4:0 5:0 6:0 7:0 8:0 9:0 10:0 11:1 12:1 13:0.16477273 
0 1 0:0 1:0 2:0 3:0 4:0 5:0 6:0 7:0 8:0 9:0 10:0 11:1 12:1 13:0.14545455 
1 1 0:0 1:0 2:0 3:0 4:0 5:0 6:0 7:0 8:0 9:0 10:0 11:1 12:1 13:0.125 
1 1 0:0 1:0 2:0 3:0 4:0 5:0 6:0 7:0 8:0 9:0 10:0 11:1 12:1 13:0.0625 
1 1 0:0 1:0 2:0 3:0 4:0 5:0 6:0 7:0 8:0 9:0 10:0 11:1 12:1 13:-0.12962963 
0 1 0:0 1:0 2:0 3:0 4:0 5:0 6:0 7:0 8:0 9:0 10:0 11:0 12:0 13:0 
0.9745095627502739 1 0:0.076923077 1:1 2:1 3:1 4:0 5:0 6:0 7:0 8:0 9:0 10:0 11:1 12:1 13:0.1016297 
0 1 0:0 1:0 2:0 3:0 4:0 5:0 6:0 7:0 8:0 9:0 10:0 11:1 12:1 13:0.18965517 
0 1 0:0 1:0 2:0 3:0 4:1 5:0 6:0 7:0 8:0 9:0 10:0 11:1 12:1 13:0.028846154 
0 1 0:0 1:0 2:0 3:0 4:0 5:0 6:0 7:0 8:0 9:0 10:0 11:1 12:0 13:0.5 
0 1 0:0 1:0 2:0 3:0 4:0 5:0 6:0 7:0 8:0 9:0 10:0 11:0 12:0 13:0 
1 1 0:0 1:0 2:0 3:0 4:0 5:0 6:0 7:0 8:0 9:0 10:2 11:0 12:0 13:0 
1 1 0:0 1:0 2:0 3:0 4:0 5:0 6:0 7:0 8:0 9:0 10:1 11:1 12:1 13:0.16666667 
0 1 0:0.38461538 1:5 2:4 3:1 4:0 5:0 6:0 7:0 8:1 9:0 10:0 11:0 12:0 13:0 
0 1 0:0 1:0 2:0 3:0 4:0 5:0 6:0 7:0 8:0 9:0 10:0 11:1 12:1 13:0.18571429 
1 1 0:0.17647059 1:3 2:3 3:1 4:0 5:0 6:0 7:0 8:0 9:0 10:0 11:1 12:1 13:-0.0875 
0 1 0:0 1:0 2:0 3:0 4:0 5:0 6:0 7:0 8:0 9:0 10:0 11:1 12:1 13:0.46969697 
1 1 0:0.0625 1:1 2:1 3:1 4:0 5:0 6:0 7:0 8:0 9:0 10:1 11:0 12:0 13:0 
0 1 0:0 1:0 2:0 3:0 4:0 5:0 6:0 7:0 8:0 9:0 10:0 11:1 12:1 13:0.24450549 
1 1 0:0 1:0 2:0 3:0 4:0 5:0 6:0 7:0 8:0 9:0 10:1 11:1 12:1 13:0.17259174 
0 1 0:0 1:0 2:0 3:0 4:0 5:0 6:0 7:0 8:0 9:0 10:0 11:0 12:0 13:0 
0 1 0:0 1:0 2:0 3:0 4:0 5:0 6:0 7:0 8:0 9:0 10:0 11:0 12:0 13:0 
0 1 0:0 1:0 2:0 3:0 4:0 5:0 6:0 7:0 8:0 9:0 10:0 11:0 12:0 13:0 
1 1 0:0 1:0 2:0 3:0 4:0 5:0 6:0 7:0 8:0 9:0 10:0 11:1 12:1 13:-0.071428571 
0 1 0:0 1:0 2:0 3:0 4:0 5:0 6:0 7:0 8:0 9:0 10:0 11:1 12:1 13:0.14705882 
0 1 0:0 1:0 2:0 3:0 4:0 5:0 6:0 7:0 8:0 9:0 10:0 11:0 12:0 13:0 
0 1 0:0.083333333 1:1 2:1 3:1 4:0 5:0 6:0 7:0 8:0 9:0 10:0 11:1 12:0 13:0.34615385 
0 1 0:0 1:0 2:0 3:0 4:0 5:0 6:0 7:0 8:0 9:0 10:0 11:1 12:1 13:0.16666667 
0 1 0:0 1:0 2:0 3:0 4:0 5:0 6:0 7:0 8:0 9:0 10:0 11:1 12:1 13:0.14285714 
0 1 0:0 1:0 2:0 3:0 4:0 5:0 6:0 7:0 8:0 9:0 10:0 11:1 12:1 13:0.25 
0 0.4737120640060263 0:0 1:0 2:0 3:0 4:0 5:0 6:1 7:0 8:0 9:0 10:0 11:1 12:1 13:0.12096774 
0 1 0:0 1:0 2:0 3:0 4:0 5:0 6:0 7:0 8:0 9:0 10:0 11:0 12:0 13:0 
1 1 0:0.058823529 1:1 2:1 3:1 4:0 5:0 6:0 7:0 8:0 9:0 10:4 11:1 12:0 13:0.27777778 
0 1 0:0.076923077 1:1 2:1 3:1 4:0 5:0 6:0 7:0 8:0 9:0 10:0 11:1 12:0 13:0.5 
0 1 0:0 1:0 2:0 3:0 4:0 5:0 6:0 7:0 8:0 9:0 10:0 11:1 12:1 13:0.18421053 
1 1 0:0 1:0 2:0 3:0 4:0 5:0 6:0 7:0 8:0 9:0 10:0 11:1 12:1 13:0.076923077 
0 1 0:0.076923077 1:1 2:1 3:1 4:0 5:0 6:0 7:0 8:0 9:0 10:0 11:1 12:0 13:0.5 
0 1 0:0 1:0 2:0 3:0 4:0 5:0 6:0 7:0 8:0 9:0 10:0 11:1 12:1 13:0.28205128 
0 1 0:0.083333333 1:2 2:1 3:1 4:0 5:0 6:0 7:0 8:0 9:0 10:0 11:1 12:1 13:0.085899152 
0 1 0:0 1:0 2:0 3:0 4:0 5:0 6:0 7:0 8:0 9:0 10:0 11:1 12:1 13:0.14545455 
0 1 0:0.16666667 1:2 2:2 3:1 4:0 5:0 6:1 7:0 8:0 9:0 10:1 11:1 12:1 13:-0.008175278 
1 1 0:0.058823529 1:1 2:1 3:1 4:0 5:0 6:0 7:0 8:0 9:0 10:2 11:1 12:1 13:0.14163237 
1 1 0:0 1:0 2:0 3:0 4:0 5:0 6:0 7:0 8:0 9:0 10:0 11:1 12:1 13:0 
0 1 0:0.15384615 1:2 2:1 3:1 4:0 5:0 6:0 7:0 8:0 9:0 10:0 11:1 12:1 13:0.1744186 
0 1 0:0.125 1:1 2:1 3:1 4:0 5:0 6:0 7:0 8:0 9:0 10:0 11:1 12:0 13:0.5 
0 1 0:0 1:0 2:0 3:0 4:0 5:0 6:0 7:0 8:0 9:0 10:0 11:0 12:0 13:0 
0 1 0:0.1 1:1 2:1 3:1 4:0 5:0 6:1 7:0 8:0 9:0 10:0 11:0 12:0 13:0 
1 1 0:0 1:0 2:0 3:0 4:0 5:0 6:0 7:0 8:0 9:0 10:1 11:0 12:0 13:0 
1 1 0:0 1:0 2:0 3:0 4:0 5:0 6:0 7:0 8:0 9:0 10:0 11:1 12:1 13:0.1016297 
1 1 0:0 1:0 2:0 3:0 4:0 5:0 6:0 7:0 8:0 9:0 10:0 11:1 12:1 13:0.11521739 
0 1 0:0 1:0 2:0 3:0 4:1 5:0 6:0 7:0 8:0 9:0 10:0 11:1 12:1 13:0.0625 
1 1 0:0.42857143 1:6 2:6 3:1 4:0 5:0 6:0 7:0 8:0 9:0 10:0 11:1 12:1 13:0 
0 1 0:0.058823529 1:1 2:1 3:1 4:0 5:0 6:0 7:0 8:0 9:0 10:0 11:1 12:1 13:0.16666667 
1 1 0:0.125 1:2 2:2 3:1 4:0 5:0 6:0 7:0 8:0 9:0 10:0 11:1 12:1 13:0.085899152 
0 1 0:0 1:0 2:0 3:0 4:0 5:0 6:0 7:0 8:0 9:0 10:0 11:1 12:1 13:0.14545455 
1 1 0:0 1:0 2:0 3:0 4:0 5:0 6:0 7:0 8:0 9:0 10:0 11:1 12:1 13:0.1016297 
1 1 0:0 1:0 2:0 3:0 4:0 5:0 6:0 7:0 8:0 9:0 10:0 11:1 12:1 13:0.085899152 
0 1 0:0 1:0 2:0 3:0 4:0 5:0 6:0 7:0 8:0 9:0 10:0 11:0 12:0 13:0 
1 1 0:0 1:0 2:0 3:0 4:0 5:0 6:0 7:0 8:0 9:0 10:0 11:1 12:1 13:0.085899152 
0 1 0:0.10526316 1:2 2:0 3:1 4:1 5:0 6:0 7:0 8:0 9:0 10:0 11:0 12:0 13:0 
0 1 0:0 1:0 2:0 3:0 4:0 5:0 6:0 7:0 8:0 9:0 10:0 11:0 12:0 13:0 
0 1 0:0.0625 1:1 2:1 3:1 4:1 5:0 6:0 7:0 8:0 9:0 10:0 11:0 12:0 13:0 
0 1 0:0 1:0 2:0 3:0 4:0 5:0 6:0 7:0 8:0 9:0 10:0 11:0 12:0 13:0 
1 1 0:0 1:0 2:0 3:0 4:0 5:0 6:0 7:0 8:0 9:0 10:0 11:1 12:1 13:0.085899152 
0 1 0:0.071428571 1:1 2:0 3:1 4:0 5:0 6:0 7:0 8:0 9:0 10:0 11:0 12:0 13:0 
0 1 0:0 1:0 2:0 3:0 4:0 5:0 6:0 7:0 8:0 9:0 10:0 11:0 12:0 13:0 
0 0.6054030160544555 0:0 1:0 2:0 3:0 4:2 5:1 6:0 7:0 8:0 9:0 10:0 11:1 12:0 13:0.16666667 
0 1 0:0 1:0 2:0 3:0 4:0 5:0 6:1 7:0 8:0 9:0 10:0 11:1 12:1 13:-0.125 
0 1 0:0.17647059 1:3 2:2 3:1 4:0 5:0 6:0 7:0 8:0 9:0 10:0 11:1 12:1 13:0.58896396 
0 1 0:0 1:0 2:0 3:0 4:0 5:0 6:0 7:0 8:0 9:0 10:0 11:0 12:0 13:0 
0 1 0:0.071428571 1:1 2:1 3:1 4:0 5:0 6:0 7:0 8:0 9:0 10:0 11:1 12:1 13:0.18965517 
1 1 0:0 1:0 2:0 3:0 4:0 5:0 6:0 7:0 8:0 9:0 10:1 11:0 12:0 13:0 
0 1 0:0 1:0 2:0 3:0 4:1 5:0 6:0 7:0 8:0 9:0 10:0 11:1 12:1 13:0.076923077 
0 1 0:0.41666667 1:5 2:4 3:1 4:0 5:0 6:0 7:0 8:0 9:0 10:0 11:0 12:0 13:0 
0 1 0:0 1:0 2:0 3:0 4:0 5:0 6:0 7:0 8:0 9:0 10:0 11:0 12:0 13:0 
0.3560231289562767 1 0:0 1:0 2:0 3:0 4:1 5:1 6:0 7:0 8:0 9:0 10:0 11:1 12:1 13:0.29222973 
1 1 0:0.090909091 1:1 2:1 3:1 4:0 5:0 6:0 7:0 8:0 9:0 10:0 11:0 12:0 13:0 
0 1 0:0.090909091 1:1 2:0 3:1 4:0 5:0 6:0 7:0 8:0 9:0 10:0 11:0 12:0 13:0 
0 1 0:0.125 1:1 2:1 3:1 4:0 5:0 6:0 7:0 8:0 9:0 10:0 11:1 12:1 13:0.25 
1 1 0:0 1:0 2:0 3:0 4:0 5:0 6:0 7:0 8:0 9:0 10:1 11:0 12:0 13:0 
1 1 0:0 1:0 2:0 3:0 4:0 5:0 6:0 7:0 8:0 9:0 10:2 11:0 12:0 13:0 
0 1 0:0.23076923 1:3 2:0 3:1 4:0 5:0 6:0 7:1 8:0 9:0 10:0 11:1 12:0 13:0.5 
0 1 0:0 1:0 2:0 3:0 4:0 5:0 6:0 7:0 8:0 9:0 10:0 11:0 12:0 13:0 
1 1 0:0 1:0 2:0 3:0 4:1 5:1 6:0 7:0 8:0 9:0 10:0 11:1 12:1 13:0.085899152 
0 1 0:0 1:0 2:0 3:0 4:0 5:0 6:0 7:0 8:0 9:0 10:0 11:0 12:0 13:0 
1 1 0:0 1:0 2:0 3:0 4:0 5:0 6:0 7:0 8:0 9:0 10:1 11:0 12:0 13:0 
1 1 0:0 1:0 2:0 3:0 4:0 5:0 6:0 7:0 8:0 9:0 10:1 11:0 12:0 13:0 
1 1 0:0.11111111 1:1 2:1 3:1 4:1 5:1 6:0 7:0 8:0 9:0 10:0 11:0 12:0 13:0 
0 1 0:0.11111111 1:1 2:0 3:1 4:0 5:0 6:0 7:0 8:0 9:0 10:0 11:0 12:0 13:0 
0 1 0:0 1:0 2:0 3:0 4:0 5:0 6:0 7:0 8:0 9:0 10:0 11:0 12:0 13:0 
0 1 0:0 1:0 2:0 3:0 4:0 5:0 6:0 7:0 8:0 9:0 10:0 11:1 12:1 13:0.14545455 
1 1 0:0 1:0 2:0 3:0 4:0 5:0 6:0 7:0 8:0 9:0 10:1 11:1 12:1 13:0.19444444 
0 1 0:0 1:0 2:0 3:0 4:0 5:0 6:1 7:0 8:0 9:0 10:0 11:1 12:1 13:0 
0 1 0:0 1:0 2:0 3:0 4:0 5:0 6:0 7:0 8:0 9:0 10:0 11:1 12:0 13:0.5 
0 1 0:0 1:0 2:0 3:0 4:0 5:0 6:0 7:0 8:0 9:0 10:0 11:1 12:1 13:0.14163237 
1 1 0:0 1:0 2:0 3:0 4:0 5:0 6:0 7:0 8:0 9:0 10:1 11:1 12:1 13:0.13636364 
0 1 0:0.15384615 1:2 2:2 3:1 4:0 5:0 6:0 7:0 8:0 9:0 10:0 11:1 12:1 13:0.21686747 
0 1 0:0.21428571 1:3 2:3 3:1 4:0 5:0 6:0 7:0 8:0 9:0 10:1 11:1 12:0 13:0.5 
0 1 0:0.083333333 1:1 2:0 3:1 4:1 5:0 6:0 7:0 8:0 9:0 10:0 11:0 12:0 13:0 
1 1 0:0 1:0 2:0 3:0 4:0 5:0 6:0 7:0 8:0 9:0 10:0 11:1 12:1 13:0.085899152 
0 1 0:0.058823529 1:1 2:1 3:1 4:0 5:0 6:0 7:0 8:0 9:0 10:0 11:0 12:0 13:0 
0 1 0:0.083333333 1:1 2:1 3:1 4:0 5:0 6:0 7:0 8:0 9:0 10:0 11:1 12:1 13:0.11521739 
1 1 0:0 1:0 2:0 3:0 4:0 5:0 6:0 7:0 8:0 9:0 10:1 11:0 12:0 13:0 
0 1 0:0.0625 1:1 2:1 3:1 4:0 5:0 6:0 7:0 8:0 9:0 10:0 11:0 12:0 13:0 
1 1 0:0 1:0 2:0 3:0 4:0 5:0 6:0 7:0 8:0 9:0 10:0 11:1 12:1 13:0.085899152 
1 1 0:0 1:0 2:0 3:0 4:0 5:0 6:0 7:0 8:0 9:0 10:1 11:1 12:1 13:0.16666667 
1 1 0:0 1:0 2:0 3:0 4:0 5:0 6:0 7:0 8:0 9:0 10:0 11:1 12:1 13:0.085899152 
1 1 0:0 1:0 2:0 3:0 4:0 5:0 6:0 7:0 8:0 9:0 10:0 11:1 12:1 13:0 
1 1 0:0.22222222 1:2 2:2 3:1 4:1 5:1 6:0 7:0 8:0 9:0 10:1 11:1 12:1 13:-0.008175278 
0 1 0:0.055555556 1:1 2:0 3:1 4:0 5:0 6:0 7:0 8:0 9:0 10:0 11:1 12:0 13:0.25 
0 1 0:0 1:0 2:0 3:0 4:0 5:0 6:0 7:0 8:0 9:0 10:0 11:1 12:1 13:0.1625 
0 1 0:0.066666667 1:1 2:1 3:1 4:3 5:2 6:0 7:0 8:0 9:0 10:0 11:1 12:1 13:0.125 
0 1 0:0.14285714 1:2 2:2 3:1 4:0 5:0 6:0 7:0 8:1 9:0 10:0 11:0 12:0 13:0 
1 1 0:0 1:0 2:0 3:0 4:0 5:0 6:0 7:0 8:0 9:0 10:0 11:1 12:1 13:0.12286689 
1 1 0:0.11111111 1:1 2:1 3:1 4:0 5:0 6:0 7:0 8:0 9:0 10:1 11:1 12:1 13:0.029411765 
0 1 0:0.052631579 1:1 2:1 3:1 4:0 5:0 6:0 7:0 8:0 9:0 10:0 11:1 12:1 13:0.10714286 
0 1 0:0.066666667 1:1 2:1 3:1 4:0 5:0 6:0 7:0 8:0 9:0 10:0 11:1 12:1 13:0.58896396 
0 1 0:0 1:0 2:0 3:0 4:0 5:0 6:0 7:0 8:0 9:0 10:0 11:1 12:1 13:0.16666667 
0 1 0:0.10526316 1:2 2:1 3:1 4:0 5:0 6:0 7:0 8:0 9:0 10:0 11:1 12:1 13:0.125 
1 1 0:0 1:0 2:0 3:0 4:0 5:0 6:0 7:0 8:0 9:0 10:1 11:0 12:0 13:0 
1 1 0:0.086956522 1:2 2:2 3:1 4:0 5:0 6:0 7:0 8:0 9:0 10:1 11:1 12:1 13:0.25 
1 1 0:0.083333333 1:1 2:1 3:1 4:0 5:0 6:0 7:0 8:0 9:0 10:1 11:0 12:0 13:0 
0 1 0:0 1:0 2:0 3:0 4:0 5:0 6:0 7:0 8:0 9:0 10:0 11:0 12:0 13:0 
1 1 0:0.1 1:1 2:1 3:1 4:0 5:0 6:0 7:0 8:0 9:0 10:0 11:1 12:1 13:0.069444444 
1 1 0:0 1:0 2:0 3:0 4:0 5:0 6:0 7:0 8:0 9:0 10:0 11:1 12:1 13:0.010204082 
1 1 0:0 1:0 2:0 3:0 4:0 5:0 6:0 7:0 8:0 9:0 10:1 11:1 12:1 13:0.140625 
1 1 0:0.1 1:1 2:1 3:1 4:1 5:1 6:0 7:0 8:0 9:0 10:0 11:1 12:1 13:0.085899152 
0 1 0:0.045454545 1:1 2:0 3:1 4:0 5:0 6:0 7:0 8:0 9:0 10:0 11:0 12:0 13:0 
1 1 0:0 1:0 2:0 3:0 4:0 5:0 6:0 7:0 8:0 9:0 10:1 11:1 12:1 13:0.085899152 
0 1 0:0 1:0 2:0 3:0 4:0 5:0 6:0 7:0 8:0 9:0 10:0 11:0 12:0 13:0 
1 1 0:0.071428571 1:1 2:1 3:1 4:0 5:0 6:0 7:0 8:0 9:0 10:1 11:1 12:1 13:0.091240876 
0 1 0:0 1:0 2:0 3:0 4:0 5:0 6:0 7:0 8:0 9:0 10:0 11:0 12:0 13:0 
0 1 0:0.05 1:1 2:0 3:1 4:0 5:0 6:0 7:0 8:0 9:0 10:0 11:1 12:0 13:0.5 
0 1 0:0 1:0 2:0 3:0 4:0 5:0 6:0 7:0 8:0 9:0 10:0 11:1 12:0 13:0.33333333 
0.8261097955350305 1 0:0.42857143 1:12 2:8 3:1 4:0 5:0 6:0 7:0 8:0 9:0 10:0 11:0 12:0 13:0 
0 1 0:0 1:0 2:0 3:0 4:0 5:0 6:0 7:0 8:0 9:0 10:0 11:1 12:1 13:0.18344371 
0 1 0:0 1:0 2:0 3:0 4:0 5:0 6:0 7:0 8:0 9:0 10:0 11:0 12:0 13:0 
0 1 0:0 1:0 2:0 3:0 4:0 5:0 6:0 7:0 8:0 9:0 10:0 11:0 12:0 13:0 
0 1 0:0.058823529 1:1 2:1 3:1 4:0 5:0 6:0 7:0 8:0 9:0 10:0 11:1 12:1 13:0.12601626 
1 1 0:0 1:0 2:0 3:0 4:0 5:0 6:0 7:0 8:0 9:0 10:0 11:1 12:1 13:-0.12916667 
0 1 0:0 1:0 2:0 3:0 4:0 5:0 6:0 7:0 8:0 9:0 10:0 11:1 12:1 13:0.26 
0 1 0:0.055555556 1:1 2:1 3:1 4:0 5:0 6:0 7:0 8:0 9:0 10:0 11:1 12:1 13:0.14285714 
0 1 0:0.083333333 1:1 2:1 3:1 4:2 5:1 6:0 7:0 8:0 9:0 10:0 11:1 12:1 13:0.2125 
0 1 0:0 1:0 2:0 3:0 4:0 5:0 6:0 7:0 8:0 9:0 10:0 11:1 12:1 13:0.14163237 
0 1 0:0.1 1:1 2:1 3:1 4:0 5:0 6:0 7:0 8:0 9:0 10:0 11:1 12:0 13:0.25 
1 1 0:0 1:0 2:0 3:0 4:0 5:0 6:0 7:0 8:0 9:0 10:0 11:1 12:1 13:0.1016297 
1 1 0:0.058823529 1:1 2:1 3:1 4:0 5:0 6:0 7:0 8:0 9:0 10:1 11:1 12:1 13:0.125 
0 1 0:0 1:0 2:0 3:0 4:0 5:0 6:0 7:0 8:0 9:0 10:0 11:0 12:0 13:0 
0 1 0:0 1:0 2:0 3:0 4:0 5:0 6:0 7:0 8:0 9:0 10:0 11:1 12:1 13:0.18965517 
0 1 0:0 1:0 2:0 3:0 4:0 5:0 6:0 7:0 8:0 9:0 10:0 11:1 12:1 13:0.17259174 
1 1 0:0 1:0 2:0 3:0 4:0 5:0 6:0 7:0 8:0 9:0 10:0 11:1 12:1 13:0.1016297 
0 1 0:0 1:0 2:0 3:0 4:1 5:0 6:0 7:0 8:0 9:0 10:1 11:0 12:0 13:0 
0 1 0:0 1:0 2:0 3:0 4:1 5:1 6:0 7:0 8:0 9:0 10:0 11:1 12:0 13:0.5 
0 1 0:0.066666667 1:1 2:1 3:1 4:1 5:0 6:0 7:0 8:0 9:0 10:0 11:1 12:1 13:0.17259174 
1 1 0:0.15789474 1:3 2:3 3:1 4:1 5:1 6:0 7:0 8:0 9:0 10:0 11:1 12:1 13:0.10927152 
0 1 0:0 1:0 2:0 3:0 4:0 5:0 6:0 7:0 8:0 9:0 10:0 11:1 12:1 13:0.52840909 
0 1 0:0.1 1:2 2:2 3:1 4:0 5:0 6:0 7:0 8:0 9:0 10:0 11:0 12:0 13:0 
0 1 0:0 1:0 2:0 3:0 4:0 5:0 6:1 7:0 8:0 9:0 10:0 11:1 12:1 13:0.090909091 
0 1 0:0 1:0 2:0 3:0 4:0 5:0 6:0 7:0 8:0 9:0 10:0 11:0 12:0 13:0 
1 1 0:0 1:0 2:0 3:0 4:0 5:0 6:0 7:0 8:0 9:0 10:0 11:1 12:1 13:0.085899152 
1 1 0:0 1:0 2:0 3:0 4:0 5:0 6:0 7:0 8:0 9:0 10:0 11:1 12:1 13:0.075 
0 1 0:0.14285714 1:2 2:1 3:1 4:0 5:0 6:0 7:0 8:0 9:0 10:0 11:1 12:1 13:0.055555556 
0 1 0:0 1:0 2:0 3:0 4:0 5:0 6:0 7:0 8:0 9:0 10:0 11:0 12:0 13:0 
1 1 0:0 1:0 2:0 3:0 4:1 5:1 6:0 7:0 8:0 9:0 10:0 11:1 12:1 13:0.1875 
0 1 0:0.14285714 1:1 2:1 3:1 4:0 5:0 6:0 7:0 8:0 9:0 10:0 11:1 12:1 13:0.14724576 
0 1 0:0.18181818 1:2 2:2 3:1 4:0 5:0 6:0 7:0 8:0 9:0 10:1 11:1 12:0 13:0.5 
1 1 0:0 1:0 2:0 3:0 4:0 5:0 6:0 7:0 8:0 9:0 10:2 11:1 12:1 13:0.20833333 
1 1 0:0 1:0 2:0 3:0 4:0 5:0 6:0 7:0 8:0 9:0 10:0 11:1 12:1 13:0.13333333 
0 1 0:0.0625 1:1 2:1 3:1 4:1 5:0 6:0 7:0 8:0 9:0 10:0 11:1 12:1 13:0.12286689 
1 1 0:0 1:0 2:0 3:0 4:0 5:0 6:0 7:0 8:0 9:0 10:0 11:1 12:1 13:0.085899152 
1 1 0:0.2 1:2 2:2 3:1 4:0 5:0 6:0 7:0 8:0 9:0 10:0 11:1 12:1 13:0.097744361 
0 1 0:0.052631579 1:1 2:1 3:1 4:0 5:0 6:1 7:0 8:0 9:0 10:0 11:1 12:1 13:0.14163237 
1 1 0:0.090909091 1:1 2:1 3:1 4:0 5:0 6:0 7:0 8:0 9:0 10:1 11:1 12:1 13:-0.05 
0 1 0:0 1:0 2:0 3:0 4:0 5:0 6:0 7:0 8:0 9:0 10:0 11:0 12:0 13:0 
1 1 0:0 1:0 2:0 3:0 4:0 5:0 6:0 7:0 8:0 9:0 10:0 11:1 12:1 13:0.085899152 
1 1 0:0 1:0 2:0 3:0 4:0 5:0 6:0 7:0 8:0 9:0 10:0 11:1 12:1 13:0.031914894 
0 1 0:0.055555556 1:1 2:1 3:1 4:0 5:0 6:0 7:0 8:0 9:0 10:0 11:1 12:0 13:0.11538462 
1 1 0:0 1:0 2:0 3:0 4:0 5:0 6:0 7:0 8:0 9:0 10:0 11:1 12:1 13:0.13636364 
0 1 0:0.10526316 1:2 2:1 3:1 4:2 5:1 6:0 7:0 8:0 9:0 10:0 11:1 12:1 13:0.071428571 
1 1 0:0 1:0 2:0 3:0 4:0 5:0 6:0 7:0 8:0 9:0 10:1 11:0 12:0 13:0 
0 1 0:0.052631579 1:1 2:1 3:1 4:0 5:0 6:1 7:0 8:0 9:0 10:0 11:1 12:1 13:0.0625 
1 1 0:0 1:0 2:0 3:0 4:1 5:1 6:0 7:0 8:0 9:0 10:1 11:1 12:1 13:-0.008175278 
0 1 0:0.055555556 1:1 2:1 3:1 4:0 5:0 6:0 7:0 8:0 9:0 10:0 11:1 12:0 13:0.22222222 
0.02379061498059637 0.3627882983721074 0:0.066666667 1:1 2:1 3:1 4:7 5:2 6:0 7:0 8:0 9:0 10:0 11:1 12:1 13:0.58896396 
0 1 0:0 1:0 2:0 3:0 4:2 5:1 6:0 7:0 8:0 9:0 10:0 11:0 12:0 13:0 
1 1 0:0 1:0 2:0 3:0 4:0 5:0 6:0 7:0 8:0 9:0 10:0 11:1 12:1 13:-0.12916667 
0 1 0:0 1:0 2:0 3:0 4:0 5:0 6:0 7:0 8:1 9:0 10:0 11:1 12:1 13:0.075 
0 1 0:0 1:0 2:0 3:0 4:0 5:0 6:0 7:0 8:0 9:0 10:0 11:1 12:1 13:0.16666667 
1 1 0:0 1:0 2:0 3:0 4:0 5:0 6:0 7:0 8:0 9:0 10:1 11:1 12:1 13:0.46607143 
0 1 0:0.043478261 1:1 2:0 3:1 4:0 5:0 6:0 7:0 8:0 9:0 10:1 11:1 12:1 13:-0.0625 
1 1 0:0 1:0 2:0 3:0 4:0 5:0 6:0 7:0 8:0 9:0 10:0 11:1 12:1 13:0.10927152 
0 1 0:0 1:0 2:0 3:0 4:2 5:1 6:0 7:0 8:0 9:0 10:0 11:0 12:0 13:0 
0 1 0:0 1:0 2:0 3:0 4:0 5:0 6:0 7:0 8:0 9:0 10:0 11:0 12:0 13:0 
0 1 0:0 1:0 2:0 3:0 4:0 5:0 6:1 7:0 8:0 9:0 10:0 11:1 12:1 13:0.052631579 
0 1 0:0 1:0 2:0 3:0 4:0 5:0 6:0 7:0 8:0 9:0 10:0 11:1 12:0 13:0.46428571 
1 1 0:0 1:0 2:0 3:0 4:0 5:0 6:0 7:0 8:0 9:0 10:0 11:1 12:1 13:0.13461538 
0 1 0:0 1:0 2:0 3:0 4:0 5:0 6:0 7:0 8:0 9:0 10:0 11:0 12:0 13:0 
0 1 0:0.090909091 1:1 2:0 3:1 4:0 5:0 6:0 7:0 8:0 9:0 10:0 11:0 12:0 13:0 
1 1 0:0.071428571 1:1 2:1 3:1 4:0 5:0 6:0 7:0 8:0 9:0 10:0 11:1 12:1 13:-0.06122449 
1 1 0:0.11111111 1:1 2:1 3:1 4:0 5:0 6:0 7:0 8:0 9:0 10:0 11:1 12:1 13:0.045454545 
0 1 0:0 1:0 2:0 3:0 4:0 5:0 6:0 7:0 8:0 9:0 10:0 11:0 12:0 13:0 
0 0.5521705786210523 0:0.11111111 1:1 2:1 3:1 4:0 5:0 6:1 7:0 8:0 9:0 10:1 11:0 12:0 13:0 
0 1 0:0 1:0 2:0 3:0 4:0 5:0 6:0 7:0 8:0 9:0 10:0 11:0 12:0 13:0 
0 1 0:0 1:0 2:0 3:0 4:0 5:0 6:0 7:0 8:0 9:0 10:0 11:1 12:0 13:0.25 
0 1 0:0 1:0 2:0 3:0 4:0 5:0 6:0 7:0 8:0 9:0 10:0 11:1 12:1 13:0.17857143 
0 1 0:0.066666667 1:1 2:1 3:1 4:0 5:0 6:0 7:0 8:0 9:0 10:0 11:0 12:0 13:0 
1 1 0:0 1:0 2:0 3:0 4:0 5:0 6:0 7:0 8:0 9:0 10:1 11:1 12:1 13:0.10927152 
1 1 0:0 1:0 2:0 3:0 4:0 5:0 6:0 7:0 8:0 9:0 10:1 11:0 12:0 13:0 
1 1 0:0 1:0 2:0 3:0 4:0 5:0 6:0 7:0 8:0 9:0 10:1 11:1 12:1 13:0.085899152 
0 1 0:0.11764706 1:2 2:2 3:1 4:2 5:1 6:0 7:0 8:0 9:0 10:0 11:1 12:1 13:0.25 
0 1 0:0.125 1:2 2:2 3:1 4:0 5:0 6:0 7:0 8:0 9:0 10:0 11:1 12:1 13:0.28125 
0 1 0:0 1:0 2:0 3:0 4:0 5:0 6:0 7:0 8:0 9:0 10:0 11:0 12:0 13:0 
0 1 0:0.0625 1:1 2:0 3:1 4:1 5:1 6:0 7:0 8:0 9:0 10:0 11:0 12:0 13:0 
0 1 0:0.17647059 1:3 2:3 3:1 4:1 5:0 6:0 7:0 8:0 9:0 10:0 11:1 12:1 13:0.0625 
1 1 0:0.17647059 1:3 2:3 3:1 4:0 5:0 6:0 7:0 8:0 9:0 10:1 11:1 12:1 13:0.03125 
0 1 0:0.0625 1:1 2:1 3:1 4:0 5:0 6:0 7:0 8:0 9:0 10:0 11:1 12:1 13:0.325 
0 1 0:0.14285714 1:2 2:1 3:1 4:0 5:0 6:0 7:0 8:0 9:0 10:0 11:1 12:0 13:0.16666667 
1 1 0:0 1:0 2:0 3:0 4:0 5:0 6:0 7:0 8:0 9:0 10:1 11:1 12:1 13:0.125 
0 1 0:0.14285714 1:2 2:1 3:1 4:1 5:0 6:0 7:0 8:0 9:0 10:0 11:0 12:0 13:0 
0 0.8063487329541322 0:0 1:0 2:0 3:0 4:0 5:0 6:0 7:0 8:1 9:0 10:0 11:0 12:0 13:0 
0 1 0:0 1:0 2:0 3:0 4:0 5:0 6:0 7:0 8:0 9:0 10:0 11:0 12:0 13:0 
1 1 0:0 1:0 2:0 3:0 4:0 5:0 6:0 7:0 8:0 9:0 10:0 11:1 12:1 13:0.13636364 
0 1 0:0.21052632 1:4 2:4 3:1 4:0 5:0 6:0 7:0 8:0 9:0 10:0 11:1 12:0 13:0.5 
1 1 0:0 1:0 2:0 3:0 4:0 5:0 6:0 7:0 8:0 9:0 10:0 11:1 12:1 13:0.10883621 
0 1 0:0 1:0 2:0 3:0 4:1 5:0 6:0 7:0 8:0 9:0 10:0 11:1 12:1 13:0.05801105 
1 1 0:0 1:0 2:0 3:0 4:0 5:0 6:0 7:0 8:0 9:0 10:0 11:1 12:1 13:0.13461538 
0 1 0:0.066666667 1:1 2:0 3:1 4:0 5:0 6:0 7:0 8:0 9:0 10:0 11:1 12:1 13:0.045454545 
0 1 0:0.066666667 1:1 2:1 3:1 4:0 5:0 6:0 7:0 8:0 9:0 10:0 11:1 12:1 13:0.16666667 
0.75403975754215 0.3942059893910332 0:0 1:0 2:0 3:0 4:1 5:1 6:0 7:0 8:1 9:0 10:0 11:0 12:0 13:0 
1 1 0:0.090909091 1:1 2:1 3:1 4:0 5:0 6:0 7:0 8:0 9:0 10:0 11:0 12:0 13:0 
1 1 0:0.090909091 1:1 2:1 3:1 4:0 5:0 6:0 7:0 8:0 9:0 10:0 11:0 12:0 13:0 
0 1 0:0.052631579 1:1 2:1 3:1 4:1 5:0 6:0 7:0 8:0 9:0 10:0 11:0 12:0 13:0 
0 1 0:0 1:0 2:0 3:0 4:0 5:0 6:0 7:0 8:0 9:0 10:0 11:0 12:0 13:0 
1 1 0:0.0625 1:1 2:1 3:1 4:1 5:1 6:0 7:0 8:0 9:0 10:0 11:1 12:1 13:0.1875 
0 1 0:0 1:0 2:0 3:0 4:0 5:0 6:0 7:0 8:0 9:0 10:0 11:0 12:0 13:0 
0 1 0:0.23076923 1:3 2:2 3:1 4:0 5:0 6:0 7:0 8:0 9:0 10:0 11:1 12:1 13:0 
0 1 0:0.043478261 1:1 2:1 3:1 4:0 5:0 6:0 7:0 8:0 9:0 10:0 11:1 12:0 13:0.5 
1 1 0:0 1:0 2:0 3:0 4:0 5:0 6:0 7:0 8:0 9:0 10:1 11:1 12:1 13:-0.008175278 
0 1 0:0 1:0 2:0 3:0 4:0 5:0 6:0 7:0 8:0 9:0 10:0 11:0 12:0 13:0 
0 1 0:0 1:0 2:0 3:0 4:1 5:0 6:0 7:0 8:0 9:0 10:0 11:1 12:1 13:-0.0048076923 
0 1 0:0.055555556 1:1 2:1 3:1 4:0 5:0 6:0 7:0 8:0 9:0 10:0 11:1 12:1 13:0.175 
1 1 0:0 1:0 2:0 3:0 4:0 5:0 6:0 7:0 8:0 9:0 10:1 11:0 12:0 13:0 
0 1 0:0.18181818 1:2 2:2 3:1 4:1 5:0 6:0 7:0 8:0 9:0 10:0 11:1 12:1 13:0.3 
0 1 0:0.0625 1:1 2:0 3:1 4:0 5:0 6:0 7:0 8:0 9:0 10:0 11:0 12:0 13:0 
1 1 0:0 1:0 2:0 3:0 4:0 5:0 6:0 7:1 8:0 9:0 10:0 11:0 12:0 13:0 
0 1 0:0.15384615 1:2 2:1 3:1 4:0 5:0 6:0 7:0 8:0 9:0 10:0 11:1 12:0 13:0.45 
0 1 0:0 1:0 2:0 3:0 4:0 5:0 6:0 7:0 8:0 9:0 10:0 11:1 12:0 13:0.5 
1 1 0:0.125 1:2 2:2 3:1 4:0 5:0 6:0 7:0 8:0 9:0 10:0 11:1 12:1 13:0.11904762 
1 1 0:0.083333333 1:1 2:1 3:1 4:0 5:0 6:0 7:0 8:0 9:0 10:0 11:0 12:0 13:0 
0 1 0:0.083333333 1:1 2:0 3:1 4:0 5:0 6:1 7:0 8:0 9:0 10:0 11:0 12:0 13:0 
0 1 0:0 1:0 2:0 3:0 4:0 5:0 6:0 7:0 8:0 9:0 10:0 11:0 12:0 13:0 
1 1 0:0.058823529 1:1 2:1 3:1 4:0 5:0 6:0 7:0 8:0 9:0 10:0 11:1 12:1 13:0.0625 
0 1 0:0 1:0 2:0 3:0 4:0 5:0 6:0 7:0 8:0 9:0 10:0 11:1 12:1 13:0.31818182 
0 1 0:0 1:0 2:0 3:0 4:0 5:0 6:0 7:0 8:0 9:0 10:0 11:1 12:0 13:0.3 
1 1 0:0.076923077 1:1 2:1 3:1 4:0 5:0 6:0 7:0 8:0 9:0 10:1 11:0 12:0 13:0 
0 1 0:0 1:0 2:0 3:0 4:0 5:0 6:0 7:0 8:0 9:0 10:0 11:0 12:0 13:0 
1 1 0:0 1:0 2:0 3:0 4:0 5:0 6:0 7:0 8:0 9:0 10:0 11:1 12:1 13:0.054455446 
0 1 0:0.125 1:2 2:0 3:1 4:0 5:0 6:0 7:0 8:0 9:0 10:1 11:1 12:1 13:0.125 
1 1 0:0.083333333 1:1 2:1 3:1 4:0 5:0 6:0 7:0 8:0 9:0 10:1 11:0 12:0 13:0 
1 1 0:0 1:0 2:0 3:0 4:0 5:0 6:0 7:0 8:0 9:0 10:1 11:1 12:1 13:0.23529412 
1 1 0:0 1:0 2:0 3:0 4:0 5:0 6:0 7:0 8:0 9:0 10:1 11:0 12:0 13:0 
0 1 0:0 1:0 2:0 3:0 4:0 5:0 6:0 7:0 8:0 9:0 10:0 11:1 12:0 13:0.4375 
0 1 0:0.11764706 1:2 2:1 3:1 4:0 5:0 6:0 7:0 8:0 9:0 10:0 11:1 12:1 13:0.029411765 
1 1 0:0 1:0 2:0 3:0 4:0 5:0 6:0 7:0 8:0 9:0 10:1 11:0 12:0 13:0 
1 1 0:0 1:0 2:0 3:0 4:0 5:0 6:0 7:0 8:0 9:0 10:0 11:1 12:1 13:-0.098214286 
0 1 0:0.083333333 1:1 2:0 3:1 4:0 5:0 6:0 7:0 8:0 9:0 10:0 11:0 12:0 13:0 
1 1 0:0 1:0 2:0 3:0 4:0 5:0 6:0 7:0 8:0 9:0 10:1 11:0 12:0 13:0 
0 1 0:0.071428571 1:1 2:1 3:1 4:0 5:0 6:0 7:0 8:0 9:0 10:0 11:1 12:1 13:0.21818182 
0 1 0:0 1:0 2:0 3:0 4:0 5:0 6:0 7:0 8:0 9:0 10:0 11:1 12:1 13:0.32142857 
0 1 0:0.066666667 1:1 2:0 3:1 4:0 5:0 6:0 7:0 8:0 9:0 10:1 11:1 12:1 13:0.052631579 
0 1 0:0 1:0 2:0 3:0 4:0 5:0 6:0 7:0 8:0 9:0 10:0 11:1 12:1 13:0.14163237 
0 1 0:0 1:0 2:0 3:0 4:0 5:0 6:0 7:0 8:0 9:0 10:0 11:0 12:0 13:0 
1 1 0:0 1:0 2:0 3:0 4:0 5:0 6:0 7:0 8:0 9:0 10:0 11:1 12:1 13:0.1016297 
1 1 0:0.052631579 1:1 2:1 3:1 4:0 5:0 6:0 7:0 8:0 9:0 10:0 11:1 12:1 13:-0.13095238 
0 1 0:0.058823529 1:1 2:0 3:1 4:0 5:0 6:0 7:0 8:0 9:0 10:0 11:1 12:0 13:0.25 
0 1 0:0.083333333 1:1 2:1 3:1 4:0 5:0 6:0 7:0 8:0 9:0 10:0 11:1 12:1 13:0.58896396 
0 1 0:0 1:0 2:0 3:0 4:0 5:0 6:0 7:0 8:0 9:0 10:0 11:0 12:0 13:0 
1 1 0:0 1:0 2:0 3:0 4:0 5:0 6:0 7:0 8:0 9:0 10:0 11:1 12:1 13:0.097744361 
0 1 0:0.055555556 1:1 2:1 3:1 4:0 5:0 6:0 7:0 8:0 9:0 10:0 11:0 12:0 13:0 
1 1 0:0.066666667 1:1 2:1 3:1 4:0 5:0 6:0 7:0 8:0 9:0 10:0 11:1 12:1 13:0.085899152 
0 1 0:0.058823529 1:1 2:1 3:1 4:0 5:0 6:0 7:0 8:0 9:0 10:0 11:1 12:1 13:0.35 
0 1 0:0 1:0 2:0 3:0 4:1 5:1 6:0 7:0 8:0 9:0 10:0 11:1 12:0 13:0.25 
0 1 0:0 1:0 2:0 3:0 4:0 5:0 6:0 7:0 8:0 9:0 10:0 11:1 12:0 13:0.5 
0 1 0:0.055555556 1:1 2:0 3:1 4:0 5:0 6:0 7:0 8:0 9:0 10:0 11:0 12:0 13:0 
0 1 0:0.066666667 1:1 2:1 3:1 4:1 5:0 6:0 7:0 8:0 9:0 10:1 11:0 12:0 13:0 
1 1 0:0.058823529 1:1 2:1 3:1 4:0 5:0 6:0 7:0 8:0 9:0 10:1 11:1 12:1 13:0.054455446 
1 1 0:0 1:0 2:0 3:0 4:0 5:0 6:0 7:0 8:0 9:0 10:0 11:1 12:1 13:0.0625 
0 1 0:0 1:0 2:0 3:0 4:0 5:0 6:0 7:0 8:0 9:0 10:0 11:0 12:0 13:0 
1 1 0:0 1:0 2:0 3:0 4:0 5:0 6:0 7:0 8:0 9:0 10:0 11:1 12:1 13:0.12 
1 1 0:0 1:0 2:0 3:0 4:0 5:0 6:0 7:0 8:0 9:0 10:0 11:1 12:1 13:0.13513514 
1 1 0:0.083333333 1:1 2:1 3:1 4:0 5:0 6:0 7:0 8:0 9:0 10:0 11:0 12:0 13:0 
0 1 0:0.11111111 1:2 2:1 3:1 4:0 5:0 6:0 7:0 8:0 9:0 10:0 11:1 12:1 13:0.11363636 
0 1 0:0.14285714 1:2 2:2 3:1 4:0 5:0 6:0 7:0 8:0 9:0 10:0 11:0 12:0 13:0 
0 1 0:0 1:0 2:0 3:0 4:0 5:0 6:0 7:0 8:0 9:0 10:0 11:1 12:1 13:0.13978495 
0 1 0:0.071428571 1:1 2:1 3:1 4:0 5:0 6:0 7:0 8:0 9:0 10:0 11:1 12:1 13:0.17857143 
0 1 0:0 1:0 2:0 3:0 4:0 5:0 6:0 7:0 8:0 9:0 10:1 11:1 12:0 13:0.1875 
0 1 0:0.052631579 1:1 2:1 3:1 4:1 5:0 6:0 7:0 8:0 9:0 10:0 11:1 12:1 13:0.1125 
1 1 0:0 1:0 2:0 3:0 4:0 5:0 6:0 7:0 8:0 9:0 10:2 11:1 12:0 13:0.25 
0 1 0:0 1:0 2:0 3:0 4:0 5:0 6:0 7:0 8:0 9:0 10:0 11:0 12:0 13:0 
1 1 0:0 1:0 2:0 3:0 4:0 5:0 6:0 7:0 8:0 9:0 10:1 11:0 12:0 13:0 
0 1 0:0.083333333 1:1 2:1 3:1 4:0 5:0 6:0 7:0 8:0 9:0 10:0 11:1 12:0 13:0.5 
1 1 0:0 1:0 2:0 3:0 4:0 5:0 6:0 7:0 8:0 9:0 10:0 11:1 12:1 13:0.085899152 
0 1 0:0.05 1:1 2:1 3:1 4:3 5:2 6:0 7:0 8:1 9:0 10:0 11:0 12:0 13:0 
0 1 0:0.076923077 1:1 2:0 3:1 4:0 5:0 6:0 7:0 8:0 9:0 10:0 11:1 12:1 13:0.085899152 
1 1 0:0.16666667 1:1 2:1 3:1 4:0 5:0 6:0 7:0 8:0 9:0 10:0 11:1 12:1 13:0 
0 1 0:0 1:0 2:0 3:0 4:0 5:0 6:0 7:0 8:0 9:0 10:0 11:1 12:1 13:0.25 
1 1 0:0 1:0 2:0 3:0 4:0 5:0 6:0 7:0 8:0 9:0 10:2 11:0 12:0 13:0 
0 1 0:0.28571429 1:4 2:4 3:1 4:0 5:0 6:0 7:0 8:0 9:0 10:0 11:1 12:1 13:0.37297466 
1 1 0:0 1:0 2:0 3:0 4:0 5:0 6:0 7:0 8:0 9:0 10:1 11:1 12:1 13:0.016666667 
0 1 0:0 1:0 2:0 3:0 4:0 5:0 6:0 7:0 8:0 9:0 10:0 11:0 12:0 13:0 
1 1 0:0 1:0 2:0 3:0 4:0 5:0 6:0 7:0 8:0 9:0 10:1 11:1 12:1 13:0.085899152 
0 1 0:0 1:0 2:0 3:0 4:0 5:0 6:0 7:0 8:0 9:0 10:0 11:0 12:0 13:0 
1 1 0:0 1:0 2:0 3:0 4:0 5:0 6:0 7:0 8:0 9:0 10:2 11:1 12:1 13:0.10927152 
0 1 0:0 1:0 2:0 3:0 4:0 5:0 6:0 7:0 8:0 9:0 10:0 11:0 12:0 13:0 
0 1 0:0 1:0 2:0 3:0 4:0 5:0 6:0 7:0 8:0 9:0 10:0 11:1 12:0 13:0.5 
1 1 0:0.3 1:3 2:3 3:1 4:0 5:0 6:0 7:0 8:0 9:0 10:0 11:1 12:1 13:0.14163237 
0 1 0:0.11764706 1:2 2:1 3:1 4:0 5:0 6:0 7:0 8:0 9:0 10:0 11:0 12:0 13:0 
0 1 0:0.15384615 1:2 2:1 3:1 4:0 5:0 6:0 7:0 8:0 9:0 10:0 11:1 12:1 13:0 
1 1 0:0 1:0 2:0 3:0 4:0 5:0 6:0 7:0 8:0 9:0 10:2 11:1 12:1 13:0.11111111 
1 1 0:0 1:0 2:0 3:0 4:0 5:0 6:0 7:0 8:0 9:0 10:1 11:1 12:1 13:-0.008175278 
0 1 0:0 1:0 2:0 3:0 4:0 5:0 6:0 7:0 8:0 9:0 10:0 11:0 12:0 13:0 
1 1 0:0.066666667 1:1 2:1 3:1 4:0 5:0 6:0 7:0 8:0 9:0 10:1 11:1 12:1 13:0 
0 1 0:0 1:0 2:0 3:0 4:0 5:0 6:0 7:0 8:0 9:0 10:0 11:1 12:0 13:0.25 
0 1 0:0 1:0 2:0 3:0 4:0 5:0 6:0 7:0 8:0 9:0 10:0 11:1 12:0 13:0.33333333 
0 1 0:0 1:0 2:0 3:0 4:0 5:0 6:0 7:0 8:0 9:0 10:0 11:1 12:1 13:0.24450549 
0 1 0:0 1:0 2:0 3:0 4:0 5:0 6:1 7:0 8:0 9:0 10:0 11:1 12:1 13:0.0625 
0 1 0:0 1:0 2:0 3:0 4:0 5:0 6:0 7:0 8:0 9:0 10:0 11:0 12:0 13:0 
0 1 0:0.125 1:2 2:2 3:1 4:0 5:0 6:0 7:0 8:0 9:0 10:0 11:1 12:0 13:0.5 
0 1 0:0 1:0 2:0 3:0 4:0 5:0 6:0 7:0 8:0 9:0 10:0 11:0 12:0 13:0 
0 1 0:0.076923077 1:1 2:1 3:1 4:0 5:0 6:0 7:0 8:0 9:0 10:0 11:1 12:1 13:0.3255814 
1 1 0:0 1:0 2:0 3:0 4:0 5:0 6:0 7:0 8:0 9:0 10:1 11:1 12:1 13:0.125 
0 1 0:0 1:0 2:0 3:0 4:1 5:0 6:0 7:0 8:0 9:0 10:0 11:1 12:1 13:0.027027027 
0 1 0:0 1:0 2:0 3:0 4:0 5:0 6:0 7:0 8:0 9:0 10:0 11:0 12:0 13:0 
0 1 0:0.14285714 1:1 2:0 3:1 4:0 5:0 6:0 7:0 8:0 9:0 10:0 11:0 12:0 13:0 
0 1 0:0.066666667 1:1 2:1 3:1 4:1 5:0 6:0 7:0 8:0 9:0 10:0 11:1 12:1 13:0.028846154 
0 1 0:0 1:0 2:0 3:0 4:0 5:0 6:0 7:0 8:0 9:0 10:0 11:0 12:0 13:0 
0 1 0:0 1:0 2:0 3:0 4:0 5:0 6:0 7:0 8:0 9:0 10:0 11:1 12:1 13:0.26923077 
1 1 0:0.0625 1:1 2:1 3:1 4:0 5:0 6:0 7:0 8:0 9:0 10:1 11:0 12:0 13:0 
0 1 0:0 1:0 2:0 3:0 4:0 5:0 6:0 7:0 8:0 9:0 10:0 11:0 12:0 13:0 
0 1 0:0.15 1:3 2:1 3:1 4:1 5:0 6:0 7:0 8:0 9:0 10:0 11:0 12:0 13:0 
0 1 0:0 1:0 2:0 3:0 4:0 5:0 6:1 7:0 8:0 9:0 10:0 11:1 12:1 13:0.085899152 
0 1 0:0.071428571 1:1 2:1 3:1 4:0 5:0 6:0 7:0 8:0 9:0 10:0 11:1 12:0 13:0.5 
0 1 0:0.071428571 1:1 2:1 3:1 4:0 5:0 6:0 7:0 8:0 9:0 10:0 11:1 12:0 13:0.5 
0 1 0:0.071428571 1:1 2:0 3:1 4:0 5:0 6:0 7:0 8:0 9:0 10:0 11:0 12:0 13:0 
1 1 0:0 1:0 2:0 3:0 4:0 5:0 6:0 7:0 8:0 9:0 10:2 11:0 12:0 13:0 
1 1 0:0.066666667 1:1 2:1 3:1 4:0 5:0 6:0 7:0 8:0 9:0 10:0 11:1 12:1 13:0.075 
0 1 0:0 1:0 2:0 3:0 4:0 5:0 6:0 7:0 8:0 9:0 10:0 11:1 12:1 13:0.21428571 
1 1 0:0 1:0 2:0 3:0 4:0 5:0 6:0 7:0 8:0 9:0 10:0 11:1 12:1 13:0.036585366 
0 1 0:0 1:0 2:0 3:0 4:4 5:3 6:0 7:0 8:0 9:0 10:1 11:1 12:0 13:0.5 
1 1 0:0 1:0 2:0 3:0 4:0 5:0 6:0 7:0 8:0 9:0 10:0 11:1 12:1 13:0.125 
0 1 0:0 1:0 2:0 3:0 4:0 5:0 6:0 7:0 8:0 9:0 10:0 11:0 12:0 13:0 
0 1 0:0.11111111 1:1 2:0 3:1 4:0 5:0 6:0 7:0 8:0 9:0 10:0 11:1 12:1 13:0.1875 
1 1 0:0 1:0 2:0 3:0 4:0 5:0 6:0 7:0 8:0 9:0 10:0 11:1 12:1 13:0.092592593 
0 1 0:0.14285714 1:2 2:2 3:1 4:0 5:0 6:0 7:0 8:0 9:0 10:0 11:1 12:0 13:0.5 
1 1 0:0 1:0 2:0 3:0 4:0 5:0 6:0 7:0 8:0 9:0 10:1 11:0 12:0 13:0 
0 1 0:0 1:0 2:0 3:0 4:0 5:0 6:0 7:0 8:0 9:0 10:0 11:1 12:1 13:0.21428571 
0 1 0:0.047619048 1:1 2:1 3:1 4:0 5:0 6:0 7:0 8:0 9:0 10:0 11:1 12:1 13:0.14705882 
1 1 0:0 1:0 2:0 3:0 4:0 5:0 6:0 7:0 8:0 9:0 10:0 11:1 12:1 13:-0.045454545 
0 1 0:0 1:0 2:0 3:0 4:0 5:0 6:0 7:0 8:0 9:0 10:0 11:1 12:1 13:0.14516129 
0 1 0:0 1:0 2:0 3:0 4:0 5:0 6:0 7:0 8:0 9:0 10:0 11:0 12:0 13:0 
0 1 0:0 1:0 2:0 3:0 4:0 5:0 6:0 7:0 8:0 9:0 10:0 11:1 12:0 13:0.28571429 
1 1 0:0 1:0 2:0 3:0 4:0 5:0 6:0 7:0 8:0 9:0 10:1 11:1 12:1 13:0.234375 
1 1 0:0 1:0 2:0 3:0 4:1 5:1 6:0 7:0 8:0 9:0 10:1 11:1 12:1 13:0 
0 1 0:0.066666667 1:1 2:0 3:1 4:0 5:0 6:0 7:0 8:0 9:0 10:0 11:0 12:0 13:0 
0 1 0:0.066666667 1:1 2:1 3:1 4:0 5:0 6:0 7:0 8:0 9:0 10:0 11:1 12:0 13:0.5 
1 1 0:0 1:0 2:0 3:0 4:0 5:0 6:0 7:0 8:0 9:0 10:1 11:1 12:1 13:-0.008175278 
0 1 0:0.11111111 1:1 2:1 3:1 4:0 5:0 6:0 7:0 8:0 9:0 10:0 11:1 12:0 13:0.125 
0 1 0:0.071428571 1:1 2:1 3:1 4:0 5:0 6:0 7:0 8:0 9:0 10:0 11:1 12:1 13:0.18859649 
0 1 0:0.11764706 1:2 2:1 3:1 4:0 5:0 6:0 7:0 8:0 9:0 10:0 11:1 12:0 13:0.076923077 
1 1 0:0.090909091 1:1 2:1 3:1 4:0 5:0 6:0 7:0 8:0 9:0 10:0 11:0 12:0 13:0 
1 1 0:0.047619048 1:1 2:1 3:1 4:0 5:0 6:0 7:0 8:0 9:0 10:0 11:0 12:0 13:0 
0 1 0:0 1:0 2:0 3:0 4:1 5:1 6:0 7:0 8:0 9:0 10:0 11:1 12:0 13:0.33333333 
0 1 0:0 1:0 2:0 3:0 4:0 5:0 6:0 7:0 8:0 9:0 10:0 11:1 12:1 13:0.19117647 
0 1 0:0 1:0 2:0 3:0 4:0 5:0 6:1 7:0 8:0 9:0 10:0 11:1 12:1 13:-0.055555556 
1 1 0:0.11111111 1:1 2:1 3:1 4:1 5:1 6:0 7:0 8:0 9:0 10:0 11:0 12:0 13:0 
1 1 0:0 1:0 2:0 3:0 4:0 5:0 6:0 7:0 8:0 9:0 10:0 11:1 12:1 13:-0.055555556 
0 1 0:0 1:0 2:0 3:0 4:0 5:0 6:0 7:0 8:0 9:0 10:0 11:0 12:0 13:0 
1 0 0:0 1:0 2:0 3:0 4:1 5:0 6:0 7:0 8:0 9:0 10:2 11:1 12:1 13:0.15 
0 1 0:0 1:0 2:0 3:0 4:0 5:0 6:0 7:0 8:0 9:0 10:0 11:1 12:1 13:0.17672414 
0 1 0:0 1:0 2:0 3:0 4:0 5:0 6:0 7:0 8:0 9:0 10:0 11:0 12:0 13:0 
1 1 0:0 1:0 2:0 3:0 4:0 5:0 6:0 7:0 8:0 9:0 10:0 11:1 12:1 13:0.11666667 
0 1 0:0.058823529 1:1 2:1 3:1 4:0 5:0 6:0 7:0 8:0 9:0 10:0 11:1 12:0 13:0.15 
1 1 0:0 1:0 2:0 3:0 4:0 5:0 6:0 7:0 8:0 9:0 10:1 11:1 12:1 13:0.038461538 
0 1 0:0 1:0 2:0 3:0 4:0 5:0 6:0 7:0 8:0 9:0 10:0 11:1 12:1 13:0.18344371 
0 1 0:0 1:0 2:0 3:0 4:0 5:0 6:0 7:0 8:0 9:0 10:0 11:0 12:0 13:0 
0 1 0:0.125 1:2 2:1 3:1 4:0 5:0 6:0 7:0 8:0 9:0 10:0 11:1 12:1 13:0.46607143 
0 1 0:0 1:0 2:0 3:0 4:0 5:0 6:1 7:0 8:0 9:0 10:0 11:1 12:1 13:0.085899152 
0 1 0:0.095238095 1:2 2:1 3:1 4:0 5:0 6:0 7:0 8:0 9:0 10:0 11:1 12:1 13:0.14724576 
0 0.5409477175301179 0:0 1:0 2:0 3:0 4:0 5:0 6:0 7:0 8:0 9:0 10:0 11:1 12:1 13:0.58896396 
0 1 0:0 1:0 2:0 3:0 4:0 5:0 6:1 7:0 8:0 9:0 10:0 11:1 12:1 13:0.097744361 
0 1 0:0.052631579 1:1 2:0 3:1 4:0 5:0 6:0 7:0 8:0 9:0 10:0 11:1 12:0 13:0.375 
1 1 0:0.071428571 1:1 2:1 3:1 4:0 5:0 6:0 7:0 8:0 9:0 10:0 11:0 12:0 13:0 
1 1 0:0 1:0 2:0 3:0 4:0 5:0 6:0 7:0 8:0 9:0 10:0 11:1 12:1 13:0.085899152 
0 1 0:0.125 1:2 2:1 3:1 4:0 5:0 6:0 7:0 8:0 9:0 10:1 11:1 12:1 13:-0.008175278 
1 1 0:0 1:0 2:0 3:0 4:0 5:0 6:0 7:0 8:0 9:0 10:1 11:0 12:0 13:0 
1 1 0:0.1 1:2 2:2 3:1 4:0 5:0 6:0 7:0 8:0 9:0 10:0 11:1 12:1 13:0.1016297 
1 1 0:0.083333333 1:1 2:1 3:1 4:0 5:0 6:0 7:0 8:0 9:0 10:0 11:0 12:0 13:0 
1 1 0:0.047619048 1:1 2:1 3:1 4:0 5:0 6:0 7:0 8:0 9:0 10:1 11:0 12:0 13:0 
0 1 0:0 1:0 2:0 3:0 4:0 5:0 6:0 7:0 8:0 9:0 10:0 11:0 12:0 13:0 
1 1 0:0 1:0 2:0 3:0 4:0 5:0 6:0 7:0 8:0 9:0 10:0 11:1 12:1 13:0.033333333 
1 1 0:0.071428571 1:1 2:1 3:1 4:0 5:0 6:0 7:0 8:0 9:0 10:0 11:1 12:1 13:0.027027027 
0 1 0:0 1:0 2:0 3:0 4:0 5:0 6:0 7:0 8:0 9:0 10:0 11:0 12:0 13:0 
1 1 0:0.15 1:3 2:3 3:1 4:0 5:0 6:0 7:0 8:0 9:0 10:0 11:1 12:1 13:0.090909091 
1 1 0:0.047619048 1:1 2:1 3:1 4:0 5:0 6:0 7:0 8:0 9:0 10:0 11:0 12:0 13:0 
0 1 0:0 1:0 2:0 3:0 4:0 5:0 6:0 7:0 8:0 9:0 10:0 11:1 12:1 13:0.14545455 
1 1 0:0 1:0 2:0 3:0 4:0 5:0 6:0 7:0 8:0 9:0 10:1 11:0 12:0 13:0 
1 1 0:0 1:0 2:0 3:0 4:0 5:0 6:0 7:0 8:0 9:0 10:0 11:1 12:1 13:0 
0 1 0:0.071428571 1:1 2:1 3:1 4:0 5:0 6:0 7:0 8:0 9:0 10:0 11:1 12:0 13:0.46428571 
0 1 0:0.0625 1:1 2:1 3:1 4:0 5:0 6:0 7:0 8:0 9:0 10:0 11:1 12:1 13:0.1016297 
0 1 0:0.058823529 1:1 2:1 3:1 4:0 5:0 6:0 7:0 8:0 9:0 10:0 11:1 12:0 13:0.25 
1 1 0:0 1:0 2:0 3:0 4:0 5:0 6:0 7:0 8:0 9:0 10:0 11:1 12:1 13:0.13970588 
1 1 0:0.11111111 1:1 2:1 3:1 4:0 5:0 6:0 7:0 8:0 9:0 10:0 11:1 12:1 13:0.074324324 
0 1 0:0 1:0 2:0 3:0 4:0 5:0 6:0 7:0 8:0 9:0 10:0 11:0 12:0 13:0 
0 1 0:0 1:0 2:0 3:0 4:0 5:0 6:0 7:0 8:0 9:0 10:0 11:0 12:0 13:0 
0 1 0:0 1:0 2:0 3:0 4:0 5:0 6:0 7:0 8:0 9:0 10:0 11:0 12:0 13:0 
0 1 0:0 1:0 2:0 3:0 4:0 5:0 6:0 7:0 8:0 9:0 10:0 11:0 12:0 13:0 
1 1 0:0 1:0 2:0 3:0 4:0 5:0 6:0 7:0 8:0 9:0 10:0 11:1 12:1 13:0.085899152 
1 1 0:0 1:0 2:0 3:0 4:0 5:0 6:0 7:0 8:0 9:0 10:1 11:0 12:0 13:0 
1 1 0:0.33333333 1:2 2:2 3:1 4:0 5:0 6:0 7:0 8:0 9:0 10:0 11:0 12:0 13:0 
0 1 0:0.052631579 1:1 2:0 3:1 4:0 5:0 6:0 7:0 8:0 9:0 10:0 11:1 12:1 13:0.074626866 
0 1 0:0.090909091 1:1 2:1 3:1 4:0 5:0 6:0 7:0 8:0 9:0 10:0 11:1 12:0 13:0.25 
0 1 0:0.14285714 1:1 2:1 3:1 4:0 5:0 6:1 7:0 8:0 9:0 10:0 11:1 12:1 13:0.11538462 
0 1 0:0 1:0 2:0 3:0 4:0 5:0 6:0 7:0 8:0 9:0 10:0 11:1 12:0 13:0.25 
0 1 0:0 1:0 2:0 3:0 4:0 5:0 6:0 7:0 8:0 9:0 10:0 11:1 12:1 13:0.15384615 
0 1 0:0.15789474 1:3 2:3 3:1 4:0 5:0 6:0 7:0 8:0 9:0 10:0 11:0 12:0 13:0 
0 1 0:0 1:0 2:0 3:0 4:0 5:0 6:0 7:0 8:0 9:0 10:0 11:0 12:0 13:0 
0 1 0:0 1:0 2:0 3:0 4:0 5:0 6:0 7:0 8:0 9:0 10:0 11:1 12:1 13:0.23636364 
0 1 0:0 1:0 2:0 3:0 4:0 5:0 6:0 7:0 8:0 9:0 10:0 11:0 12:0 13:0 
0 1 0:0 1:0 2:0 3:0 4:0 5:0 6:0 7:0 8:0 9:0 10:0 11:0 12:0 13:0 
0 1 0:0 1:0 2:0 3:0 4:0 5:0 6:0 7:0 8:0 9:0 10:0 11:1 12:1 13:0.32142857 
0 1 0:0 1:0 2:0 3:0 4:0 5:0 6:0 7:0 8:0 9:0 10:0 11:0 12:0 13:0 
0 1 0:0 1:0 2:0 3:0 4:0 5:0 6:0 7:0 8:0 9:0 10:0 11:1 12:1 13:0.37297466 
1 1 0:0 1:0 2:0 3:0 4:2 5:2 6:0 7:0 8:0 9:0 10:0 11:1 12:1 13:0.17857143 
1 1 0:0.083333333 1:1 2:1 3:1 4:0 5:0 6:0 7:0 8:0 9:0 10:1 11:1 12:1 13:-0.008175278 
1 1 0:0 1:0 2:0 3:0 4:0 5:0 6:0 7:0 8:0 9:0 10:0 11:1 12:1 13:-0.125 
0 1 0:0 1:0 2:0 3:0 4:0 5:0 6:0 7:0 8:0 9:0 10:0 11:0 12:0 13:0 
1 1 0:0.11111111 1:1 2:1 3:1 4:1 5:1 6:0 7:0 8:0 9:0 10:1 11:1 12:1 13:0.10883621 
0 1 0:0 1:0 2:0 3:0 4:0 5:0 6:0 7:0 8:0 9:0 10:0 11:0 12:0 13:0 
0 1 0:0 1:0 2:0 3:0 4:0 5:0 6:0 7:0 8:0 9:0 10:0 11:1 12:1 13:0.38175676 
1 1 0:0.16666667 1:1 2:1 3:1 4:0 5:0 6:0 7:0 8:0 9:0 10:0 11:1 12:1 13:0.071428571 
0 1 0:0 1:0 2:0 3:0 4:0 5:0 6:0 7:0 8:0 9:0 10:0 11:0 12:0 13:0 
0 1 0:0 1:0 2:0 3:0 4:0 5:0 6:0 7:0 8:0 9:0 10:0 11:1 12:0 13:0.25 
1 1 0:0 1:0 2:0 3:0 4:1 5:1 6:0 7:0 8:0 9:0 10:0 11:1 12:1 13:0.1875 
0 1 0:0.47368421 1:9 2:7 3:1 4:0 5:0 6:0 7:0 8:0 9:0 10:0 11:1 12:1 13:0.1875 
1 1 0:0.058823529 1:1 2:1 3:1 4:0 5:0 6:0 7:0 8:0 9:0 10:0 11:1 12:1 13:0.08 
0 1 0:0 1:0 2:0 3:0 4:0 5:0 6:0 7:0 8:0 9:0 10:0 11:1 12:1 13:0.43274854 
1 1 0:0 1:0 2:0 3:0 4:0 5:0 6:0 7:0 8:0 9:0 10:1 11:0 12:0 13:0 
1 1 0:0.11111111 1:1 2:1 3:1 4:0 5:0 6:0 7:0 8:0 9:0 10:0 11:0 12:0 13:0 
1 1 0:0.05 1:1 2:1 3:1 4:0 5:0 6:0 7:0 8:0 9:0 10:0 11:0 12:0 13:0 
0 1 0:0 1:0 2:0 3:0 4:0 5:0 6:0 7:0 8:0 9:0 10:0 11:1 12:1 13:0.18859649 
0 1 0:0 1:0 2:0 3:0 4:0 5:0 6:0 7:0 8:0 9:0 10:0 11:0 12:0 13:0 
1 1 0:0 1:0 2:0 3:0 4:0 5:0 6:0 7:0 8:0 9:0 10:0 11:1 12:1 13:0.080645161 
0 1 0:0.15384615 1:2 2:2 3:1 4:0 5:0 6:0 7:0 8:0 9:0 10:0 11:1 12:1 13:0.15625 
0 1 0:0 1:0 2:0 3:0 4:0 5:0 6:0 7:0 8:0 9:0 10:0 11:0 12:0 13:0 
0 1 0:0 1:0 2:0 3:0 4:0 5:0 6:0 7:0 8:0 9:0 10:0 11:0 12:0 13:0 
0 1 0:0 1:0 2:0 3:0 4:0 5:0 6:0 7:0 8:0 9:0 10:0 11:1 12:1 13:0.58896396 
0 1 0:0.055555556 1:1 2:1 3:1 4:1 5:0 6:0 7:0 8:0 9:0 10:0 11:1 12:1 13:0.1016297 
1 1 0:0.038461538 1:1 2:1 3:1 4:0 5:0 6:0 7:0 8:0 9:0 10:1 11:0 12:0 13:0 
1 0 0:0.090909091 1:1 2:1 3:1 4:0 5:0 6:0 7:0 8:0 9:0 10:2 11:1 12:1 13:0.7625 
0 1 0:0 1:0 2:0 3:0 4:0 5:0 6:0 7:0 8:0 9:0 10:0 11:1 12:1 13:0.37297466 
0 1 0:0 1:0 2:0 3:0 4:0 5:0 6:0 7:0 8:0 9:0 10:0 11:0 12:0 13:0 
0 1 0:0.058823529 1:1 2:0 3:1 4:0 5:0 6:0 7:0 8:0 9:0 10:0 11:1 12:1 13:0.095744681 
0 1 0:0 1:0 2:0 3:0 4:0 5:0 6:0 7:0 8:0 9:0 10:0 11:0 12:0 13:0 
0 1 0:0 1:0 2:0 3:0 4:3 5:2 6:0 7:0 8:0 9:0 10:0 11:1 12:0 13:0.4 
0 1 0:0 1:0 2:0 3:0 4:0 5:0 6:0 7:0 8:0 9:0 10:0 11:0 12:0 13:0 
1 1 0:0 1:0 2:0 3:0 4:0 5:0 6:0 7:0 8:0 9:0 10:1 11:1 12:1 13:0.14545455 
1 1 0:0 1:0 2:0 3:0 4:0 5:0 6:0 7:0 8:0 9:0 10:1 11:1 12:1 13:0.033333333 
0 1 0:0 1:0 2:0 3:0 4:0 5:0 6:0 7:0 8:0 9:0 10:0 11:0 12:0 13:0 
1 1 0:0 1:0 2:0 3:0 4:0 5:0 6:0 7:0 8:0 9:0 10:1 11:0 12:0 13:0 
1 1 0:0 1:0 2:0 3:0 4:0 5:0 6:0 7:0 8:0 9:0 10:0 11:1 12:1 13:0.10377358 
0 1 0:0 1:0 2:0 3:0 4:0 5:0 6:0 7:0 8:0 9:0 10:0 11:1 12:0 13:0.2 
0 1 0:0.0625 1:1 2:1 3:1 4:0 5:0 6:0 7:0 8:0 9:0 10:0 11:1 12:1 13:0.22222222 
1 1 0:0 1:0 2:0 3:0 4:0 5:0 6:0 7:0 8:0 9:0 10:1 11:0 12:0 13:0 
0 1 0:0.055555556 1:1 2:1 3:1 4:1 5:0 6:0 7:0 8:0 9:0 10:0 11:1 12:1 13:0.0625 
0 1 0:0 1:0 2:0 3:0 4:0 5:0 6:0 7:0 8:0 9:0 10:0 11:0 12:0 13:0 
1 1 0:0 1:0 2:0 3:0 4:0 5:0 6:0 7:0 8:0 9:0 10:1 11:1 12:1 13:-0.008175278 
1 1 0:0.045454545 1:1 2:1 3:1 4:0 5:0 6:0 7:0 8:0 9:0 10:0 11:1 12:1 13:0.085899152 
0 1 0:0.083333333 1:1 2:1 3:1 4:0 5:0 6:0 7:0 8:0 9:0 10:0 11:1 12:0 13:0.25 
0 1 0:0 1:0 2:0 3:0 4:0 5:0 6:0 7:0 8:0 9:0 10:0 11:0 12:0 13:0 
0 1 0:0.076923077 1:1 2:0 3:1 4:0 5:0 6:0 7:0 8:0 9:0 10:0 11:0 12:0 13:0 
0 1 0:0.1 1:1 2:0 3:1 4:0 5:0 6:0 7:0 8:0 9:0 10:0 11:0 12:0 13:0 
0 1 0:0 1:0 2:0 3:0 4:0 5:0 6:0 7:0 8:0 9:0 10:0 11:1 12:1 13:0.16666667 
0 1 0:0 1:0 2:0 3:0 4:0 5:0 6:0 7:0 8:0 9:0 10:0 11:0 12:0 13:0 
0 1 0:0.13333333 1:2 2:2 3:1 4:0 5:0 6:0 7:0 8:0 9:0 10:0 11:1 12:0 13:0.25 
0 1 0:0 1:0 2:0 3:0 4:0 5:0 6:0 7:0 8:0 9:0 10:0 11:0 12:0 13:0 
1 1 0:0.16666667 1:2 2:2 3:1 4:0 5:0 6:0 7:0 8:0 9:0 10:0 11:0 12:0 13:0 
0 1 0:0 1:0 2:0 3:0 4:0 5:0 6:0 7:0 8:0 9:0 10:0 11:1 12:0 13:0.5 
0 1 0:0 1:0 2:0 3:0 4:0 5:0 6:0 7:0 8:0 9:0 10:0 11:1 12:1 13:0.20512821 
1 1 0:0 1:0 2:0 3:0 4:0 5:0 6:0 7:0 8:0 9:0 10:0 11:1 12:1 13:-0.076923077 
0 1 0:0.05 1:1 2:1 3:1 4:0 5:0 6:0 7:0 8:0 9:0 10:0 11:1 12:1 13:0.37297466 
0 1 0:0 1:0 2:0 3:0 4:1 5:0 6:0 7:0 8:0 9:0 10:0 11:1 12:1 13:0.022727273 
0 1 0:0 1:0 2:0 3:0 4:0 5:0 6:0 7:0 8:0 9:0 10:0 11:0 12:0 13:0 
1 1 0:0 1:0 2:0 3:0 4:0 5:0 6:0 7:0 8:0 9:0 10:0 11:1 12:1 13:0.13461538 
0 1 0:0 1:0 2:0 3:0 4:0 5:0 6:0 7:0 8:0 9:0 10:0 11:1 12:0 13:0.39583333 
0 1 0:0 1:0 2:0 3:0 4:0 5:0 6:0 7:0 8:0 9:0 10:0 11:1 12:1 13:0.14516129 
1 1 0:0.071428571 1:1 2:1 3:1 4:0 5:0 6:0 7:0 8:0 9:0 10:1 11:1 12:1 13:0.085899152 
0 1 0:0 1:0 2:0 3:0 4:0 5:0 6:0 7:0 8:0 9:0 10:0 11:0 12:0 13:0 
0.1289965161551134 0.120302926648875 0:0.3 1:6 2:4 3:1 4:2 5:1 6:0 7:0 8:0 9:0 10:0 11:1 12:0 13:0.46428571 
1 1 0:0 1:0 2:0 3:0 4:0 5:0 6:0 7:0 8:0 9:0 10:0 11:1 12:1 13:0.085899152 
0 1 0:0 1:0 2:0 3:0 4:0 5:0 6:0 7:0 8:0 9:0 10:0 11:1 12:0 13:0.25 
0 1 0:0 1:0 2:0 3:0 4:0 5:0 6:0 7:0 8:0 9:0 10:0 11:1 12:1 13:0.18859649 
0 1 0:0 1:0 2:0 3:0 4:0 5:0 6:0 7:0 8:0 9:0 10:0 11:0 12:0 13:0 
0 1 0:0.076923077 1:1 2:1 3:1 4:0 5:0 6:0 7:0 8:0 9:0 10:0 11:1 12:1 13:0.14545455 
0 1 0:0.125 1:1 2:0 3:1 4:0 5:0 6:0 7:0 8:0 9:0 10:0 11:1 12:0 13:0.5 
0 1 0:0.125 1:2 2:1 3:1 4:0 5:0 6:0 7:0 8:0 9:0 10:1 11:1 12:1 13:0.1016297 
0 1 0:0 1:0 2:0 3:0 4:0 5:0 6:0 7:0 8:0 9:0 10:0 11:0 12:0 13:0 
0 1 0:0.11764706 1:2 2:1 3:1 4:0 5:0 6:0 7:0 8:0 9:0 10:0 11:0 12:0 13:0 
0 1 0:0 1:0 2:0 3:0 4:0 5:0 6:0 7:0 8:0 9:0 10:0 11:1 12:0 13:0.5 
1 1 0:0 1:0 2:0 3:0 4:0 5:0 6:0 7:0 8:1 9:0 10:1 11:0 12:0 13:0 
1 1 0:0.125 1:1 2:1 3:1 4:0 5:0 6:0 7:0 8:0 9:0 10:1 11:1 12:1 13:0.1875 
1 1 0:0 1:0 2:0 3:0 4:0 5:0 6:0 7:0 8:0 9:0 10:0 11:1 12:1 13:0.016666667 
0 1 0:0 1:0 2:0 3:0 4:0 5:0 6:0 7:0 8:0 9:0 10:0 11:1 12:1 13:0.19354839 
0 1 0:0.058823529 1:1 2:1 3:1 4:0 5:0 6:0 7:0 8:0 9:0 10:0 11:0 12:0 13:0 
0 1 0:0.11111111 1:2 2:1 3:1 4:0 5:0 6:0 7:0 8:0 9:0 10:0 11:0 12:0 13:0 
1 1 0:0 1:0 2:0 3:0 4:0 5:0 6:0 7:0 8:0 9:0 10:1 11:0 12:0 13:0 
0 1 0:0 1:0 2:0 3:0 4:0 5:0 6:0 7:0 8:0 9:0 10:0 11:0 12:0 13:0 
0 1 0:0.066666667 1:1 2:0 3:1 4:0 5:0 6:0 7:0 8:0 9:0 10:0 11:0 12:0 13:0 
0 1 0:0.13333333 1:2 2:1 3:1 4:1 5:0 6:0 7:0 8:0 9:0 10:0 11:0 12:0 13:0 
0 1 0:0 1:0 2:0 3:0 4:0 5:0 6:0 7:0 8:0 9:0 10:0 11:0 12:0 13:0 
0 1 0:0.047619048 1:1 2:0 3:1 4:0 5:0 6:0 7:0 8:0 9:0 10:1 11:0 12:0 13:0 
0 1 0:0 1:0 2:0 3:0 4:0 5:0 6:0 7:0 8:0 9:0 10:0 11:0 12:0 13:0 
1 1 0:0 1:0 2:0 3:0 4:0 5:0 6:0 7:0 8:0 9:0 10:1 11:1 12:1 13:0.14724576 
0 1 0:0 1:0 2:0 3:0 4:0 5:0 6:0 7:0 8:0 9:0 10:0 11:1 12:0 13:0.5 
1 1 0:0 1:0 2:0 3:0 4:0 5:0 6:0 7:0 8:0 9:0 10:1 11:0 12:0 13:0 
0 1 0:0 1:0 2:0 3:0 4:0 5:0 6:0 7:0 8:0 9:0 10:0 11:1 12:1 13:0.32142857 
0 1 0:0 1:0 2:0 3:0 4:0 5:0 6:0 7:0 8:0 9:0 10:0 11:0 12:0 13:0 
1 1 0:0 1:0 2:0 3:0 4:0 5:0 6:0 7:0 8:0 9:0 10:0 11:1 12:1 13:0.085899152 
0 1 0:0.05 1:1 2:1 3:1 4:0 5:0 6:0 7:0 8:0 9:0 10:0 11:1 12:1 13:0.14163237 
1 1 0:0.083333333 1:1 2:1 3:1 4:0 5:0 6:0 7:0 8:0 9:0 10:0 11:0 12:0 13:0 
1 1 0:0 1:0 2:0 3:0 4:0 5:0 6:0 7:0 8:0 9:0 10:0 11:1 12:1 13:-0.10606061 
0 1 0:0 1:0 2:0 3:0 4:0 5:0 6:0 7:0 8:0 9:0 10:0 11:1 12:1 13:0.14516129 
0 1 0:0.071428571 1:1 2:1 3:1 4:1 5:0 6:0 7:0 8:0 9:0 10:0 11:0 12:0 13:0 
1 1 0:0 1:0 2:0 3:0 4:0 5:0 6:0 7:0 8:0 9:0 10:0 11:1 12:1 13:0.13978495 
0 1 0:0.25 1:2 2:2 3:1 4:0 5:0 6:0 7:0 8:0 9:0 10:0 11:1 12:1 13:0.24450549 
0 1 0:0 1:0 2:0 3:0 4:0 5:0 6:0 7:0 8:0 9:0 10:0 11:0 12:0 13:0 
1 1 0:0.083333333 1:1 2:1 3:1 4:0 5:0 6:0 7:0 8:0 9:0 10:0 11:1 12:1 13:-0.20138889 
0 1 0:0 1:0 2:0 3:0 4:0 5:0 6:0 7:0 8:0 9:0 10:0 11:1 12:1 13:0.14705882 
0 1 0:0 1:0 2:0 3:0 4:0 5:0 6:0 7:0 8:0 9:0 10:0 11:0 12:0 13:0 
0 1 0:0.17647059 1:3 2:1 3:1 4:0 5:0 6:0 7:0 8:0 9:0 10:0 11:1 12:1 13:0.085899152 
0 1 0:0.2 1:3 2:2 3:1 4:0 5:0 6:0 7:0 8:0 9:0 10:0 11:1 12:1 13:0.074660633 
1 1 0:0 1:0 2:0 3:0 4:0 5:0 6:0 7:0 8:0 9:0 10:1 11:0 12:0 13:0 
0 1 0:0.11764706 1:2 2:2 3:1 4:0 5:0 6:0 7:0 8:0 9:0 10:0 11:1 12:1 13:0.52840909 
1 1 0:0 1:0 2:0 3:0 4:0 5:0 6:0 7:0 8:0 9:0 10:0 11:1 12:1 13:0.085899152 
1 1 0:0 1:0 2:0 3:0 4:0 5:0 6:0 7:0 8:0 9:0 10:0 11:1 12:1 13:0.0125 
0 1 0:0.058823529 1:1 2:1 3:1 4:1 5:0 6:0 7:0 8:0 9:0 10:0 11:1 12:1 13:0.15217391 
0 1 0:0.076923077 1:1 2:1 3:1 4:0 5:0 6:0 7:0 8:0 9:0 10:0 11:1 12:1 13:0.14724576 
0 1 0:0.375 1:6 2:0 3:1 4:0 5:0 6:0 7:0 8:0 9:0 10:0 11:1 12:0 13:0.25 
1 1 0:0 1:0 2:0 3:0 4:0 5:0 6:0 7:0 8:0 9:0 10:0 11:1 12:1 13:0.092592593 
0 1 0:0.13333333 1:2 2:2 3:1 4:0 5:0 6:0 7:0 8:0 9:0 10:0 11:1 12:0 13:0.5 
0 1 0:0.2 1:4 2:3 3:1 4:0 5:0 6:0 7:0 8:0 9:0 10:0 11:0 12:0 13:0 
0 1 0:0.14285714 1:2 2:0 3:1 4:0 5:0 6:0 7:0 8:0 9:0 10:0 11:0 12:0 13:0 
0 1 0:0 1:0 2:0 3:0 4:0 5:0 6:0 7:0 8:0 9:0 10:0 11:0 12:0 13:0 
0 1 0:0 1:0 2:0 3:0 4:0 5:0 6:0 7:0 8:0 9:0 10:0 11:1 12:1 13:0.14163237 
0 1 0:0 1:0 2:0 3:0 4:1 5:0 6:0 7:0 8:0 9:0 10:1 11:0 12:0 13:0 
0 1 0:0.066666667 1:1 2:1 3:1 4:0 5:0 6:0 7:0 8:0 9:0 10:0 11:1 12:1 13:0.26315789 
0 1 0:0.071428571 1:1 2:1 3:1 4:0 5:0 6:0 7:0 8:0 9:0 10:0 11:1 12:1 13:0.46969697 
0 1 0:0.058823529 1:1 2:1 3:1 4:0 5:0 6:1 7:0 8:0 9:0 10:0 11:1 12:1 13:0.1016297 
1 1 0:0 1:0 2:0 3:0 4:0 5:0 6:0 7:0 8:0 9:0 10:0 11:1 12:1 13:0.036585366 
0 1 0:0.083333333 1:1 2:1 3:1 4:1 5:0 6:0 7:0 8:0 9:0 10:0 11:0 12:0 13:0 
0 1 0:0.076923077 1:1 2:1 3:1 4:0 5:0 6:0 7:0 8:0 9:0 10:0 11:1 12:1 13:0.11538462 
0 1 0:0 1:0 2:0 3:0 4:0 5:0 6:0 7:0 8:0 9:0 10:0 11:0 12:0 13:0 
0 1 0:0 1:0 2:0 3:0 4:0 5:0 6:0 7:0 8:0 9:0 10:0 11:1 12:1 13:0.17864078 
0 1 0:0 1:0 2:0 3:0 4:0 5:0 6:0 7:0 8:0 9:0 10:0 11:0 12:0 13:0 
1 1 0:0 1:0 2:0 3:0 4:0 5:0 6:0 7:0 8:0 9:0 10:1 11:1 12:1 13:0.29166667 
1 1 0:0 1:0 2:0 3:0 4:0 5:0 6:0 7:0 8:0 9:0 10:0 11:1 12:1 13:0.0625 
0 1 0:0 1:0 2:0 3:0 4:1 5:0 6:0 7:0 8:0 9:0 10:0 11:1 12:1 13:-0.14285714 
0 1 0:0 1:0 2:0 3:0 4:0 5:0 6:0 7:0 8:0 9:0 10:0 11:1 12:0 13:0.125 
1 1 0:0.076923077 1:1 2:1 3:1 4:0 5:0 6:0 7:0 8:0 9:0 10:0 11:1 12:1 13:0.085714286 
1 1 0:0.058823529 1:1 2:1 3:1 4:0 5:0 6:0 7:0 8:0 9:0 10:1 11:0 12:0 13:0 
1 1 0:0 1:0 2:0 3:0 4:0 5:0 6:0 7:0 8:1 9:0 10:1 11:0 12:0 13:0 
0 1 0:0.066666667 1:1 2:0 3:1 4:1 5:0 6:0 7:0 8:0 9:0 10:1 11:0 12:0 13:0 
0 1 0:0 1:0 2:0 3:0 4:0 5:0 6:0 7:0 8:0 9:0 10:0 11:0 12:0 13:0 
0 1 0:0.11111111 1:2 2:1 3:1 4:0 5:0 6:0 7:0 8:0 9:0 10:0 11:1 12:1 13:0.14163237 
1 1 0:0.058823529 1:1 2:1 3:1 4:1 5:1 6:0 7:0 8:0 9:0 10:0 11:1 12:1 13:0.036585366 
0 1 0:0 1:0 2:0 3:0 4:0 5:0 6:0 7:0 8:0 9:0 10:0 11:1 12:1 13:0.35 
1 1 0:0 1:0 2:0 3:0 4:0 5:0 6:0 7:0 8:0 9:0 10:0 11:1 12:1 13:0.11684783 
0 1 0:0.15789474 1:3 2:3 3:1 4:1 5:0 6:0 7:0 8:0 9:0 10:1 11:1 12:1 13:0.15591398 
1 1 0:0 1:0 2:0 3:0 4:1 5:1 6:0 7:0 8:0 9:0 10:0 11:0 12:0 13:0 
1 1 0:0.1 1:2 2:2 3:1 4:0 5:0 6:0 7:0 8:0 9:0 10:0 11:1 12:1 13:0.071428571 
1 1 0:0 1:0 2:0 3:0 4:0 5:0 6:0 7:0 8:0 9:0 10:0 11:1 12:1 13:0.12790698 
0 1 0:0 1:0 2:0 3:0 4:0 5:0 6:0 7:0 8:0 9:0 10:0 11:1 12:0 13:0.5 
1 1 0:0 1:0 2:0 3:0 4:0 5:0 6:0 7:0 8:0 9:0 10:0 11:1 12:1 13:0.036585366 
1 1 0:0 1:0 2:0 3:0 4:1 5:1 6:0 7:0 8:0 9:0 10:0 11:1 12:1 13:0.16923077 
0 1 0:0.1 1:1 2:0 3:1 4:0 5:0 6:0 7:0 8:0 9:0 10:0 11:0 12:0 13:0 
0 1 0:0.11111111 1:1 2:1 3:1 4:0 5:0 6:0 7:0 8:0 9:0 10:0 11:1 12:1 13:0.5 
0 1 0:0 1:0 2:0 3:0 4:1 5:1 6:0 7:0 8:0 9:0 10:0 11:1 12:0 13:0.25 
0 1 0:0 1:0 2:0 3:0 4:0 5:0 6:0 7:0 8:0 9:0 10:0 11:0 12:0 13:0 
0 1 0:0.083333333 1:1 2:0 3:1 4:0 5:0 6:0 7:0 8:0 9:0 10:0 11:1 12:1 13:0.2037037 
1 1 0:0 1:0 2:0 3:0 4:0 5:0 6:0 7:0 8:0 9:0 10:0 11:1 12:1 13:0.032258065 
0 1 0:0 1:0 2:0 3:0 4:0 5:0 6:0 7:0 8:0 9:0 10:0 11:0 12:0 13:0 
1 1 0:0 1:0 2:0 3:0 4:0 5:0 6:0 7:0 8:0 9:0 10:0 11:1 12:1 13:0.11666667 
1 1 0:0 1:0 2:0 3:0 4:1 5:1 6:0 7:0 8:0 9:0 10:1 11:1 12:1 13:-0.008175278 
1 1 0:0 1:0 2:0 3:0 4:0 5:0 6:0 7:0 8:0 9:0 10:0 11:1 12:1 13:0.11363636 
0 1 0:0 1:0 2:0 3:0 4:0 5:0 6:0 7:0 8:0 9:0 10:0 11:0 12:0 13:0 
0 1 0:0 1:0 2:0 3:0 4:0 5:0 6:0 7:0 8:0 9:0 10:0 11:1 12:1 13:0.29487179 
0 1 0:0 1:0 2:0 3:0 4:0 5:0 6:0 7:0 8:0 9:0 10:0 11:0 12:0 13:0 
0 1 0:0 1:0 2:0 3:0 4:0 5:0 6:0 7:0 8:0 9:0 10:0 11:0 12:0 13:0 
0 1 0:0.125 1:2 2:1 3:1 4:3 5:2 6:0 7:0 8:0 9:0 10:0 11:1 12:1 13:0.23636364 
1 1 0:0.071428571 1:1 2:1 3:1 4:0 5:0 6:0 7:0 8:0 9:0 10:1 11:1 12:1 13:0.085899152 
1 1 0:0.05 1:1 2:1 3:1 4:0 5:0 6:0 7:0 8:0 9:0 10:2 11:0 12:0 13:0 
0 1 0:0 1:0 2:0 3:0 4:0 5:0 6:0 7:0 8:0 9:0 10:0 11:1 12:1 13:0.17259174 
1 1 0:0 1:0 2:0 3:0 4:0 5:0 6:0 7:0 8:0 9:0 10:0 11:1 12:1 13:-0.045454545 
1 1 0:0 1:0 2:0 3:0 4:0 5:0 6:0 7:0 8:0 9:0 10:0 11:1 12:1 13:0 
0 1 0:0.083333333 1:1 2:1 3:1 4:0 5:0 6:0 7:0 8:0 9:0 10:0 11:1 12:1 13:0.12601626 
0 0.2542408689660452 0:0.052631579 1:1 2:1 3:1 4:0 5:0 6:1 7:0 8:0 9:0 10:0 11:1 12:1 13:0.14163237 
0 1 0:0 1:0 2:0 3:0 4:0 5:0 6:0 7:0 8:0 9:0 10:0 11:0 12:0 13:0 
1 1 0:0 1:0 2:0 3:0 4:0 5:0 6:0 7:0 8:0 9:0 10:1 11:1 12:1 13:0.27777778 
1 0 0:0 1:0 2:0 3:0 4:0 5:0 6:1 7:0 8:0 9:0 10:1 11:1 12:1 13:0.085899152 
1 1 0:0 1:0 2:0 3:0 4:0 5:0 6:0 7:0 8:0 9:0 10:0 11:1 12:1 13:0.12916667 
0 1 0:0 1:0 2:0 3:0 4:0 5:0 6:0 7:0 8:0 9:0 10:0 11:1 12:1 13:0.18859649 
0 1 0:0 1:0 2:0 3:0 4:0 5:0 6:0 7:0 8:0 9:0 10:0 11:0 12:0 13:0 
0 1 0:0 1:0 2:0 3:0 4:0 5:0 6:0 7:0 8:0 9:0 10:0 11:1 12:1 13:0.25 
0 1 0:0.055555556 1:1 2:1 3:1 4:0 5:0 6:0 7:0 8:0 9:0 10:0 11:1 12:0 13:0.5 
0 1 0:0 1:0 2:0 3:0 4:0 5:0 6:0 7:0 8:0 9:0 10:0 11:0 12:0 13:0 
1 1 0:0 1:0 2:0 3:0 4:0 5:0 6:0 7:0 8:0 9:0 10:0 11:1 12:1 13:0.1016297 
0 1 0:0 1:0 2:0 3:0 4:0 5:0 6:0 7:0 8:0 9:0 10:0 11:0 12:0 13:0 
0 1 0:0 1:0 2:0 3:0 4:0 5:0 6:0 7:0 8:0 9:0 10:0 11:0 12:0 13:0 
0 1 0:0 1:0 2:0 3:0 4:0 5:0 6:0 7:0 8:0 9:0 10:0 11:0 12:0 13:0 
1 1 0:0 1:0 2:0 3:0 4:0 5:0 6:0 7:0 8:0 9:0 10:1 11:0 12:0 13:0 
0 1 0:0.1 1:1 2:0 3:1 4:0 5:0 6:0 7:0 8:0 9:0 10:0 11:0 12:0 13:0 
0 1 0:0 1:0 2:0 3:0 4:0 5:0 6:0 7:0 8:1 9:0 10:0 11:1 12:1 13:0.1016297 
1 1 0:0 1:0 2:0 3:0 4:0 5:0 6:0 7:0 8:0 9:0 10:0 11:1 12:1 13:0.08 
0 1 0:0 1:0 2:0 3:0 4:0 5:0 6:0 7:0 8:0 9:0 10:0 11:1 12:1 13:0.14545455 
0 1 0:0 1:0 2:0 3:0 4:0 5:0 6:0 7:0 8:0 9:0 10:0 11:1 12:1 13:0.15591398 
0 1 0:0 1:0 2:0 3:0 4:0 5:0 6:0 7:0 8:0 9:0 10:0 11:1 12:0 13:0.090909091 
0 1 0:0.125 1:1 2:1 3:1 4:1 5:0 6:0 7:0 8:0 9:0 10:0 11:1 12:1 13:0.0625 
0 1 0:0.076923077 1:1 2:1 3:1 4:0 5:0 6:0 7:0 8:0 9:0 10:0 11:1 12:1 13:0.14724576 
1 1 0:0.30769231 1:4 2:4 3:1 4:0 5:0 6:0 7:0 8:0 9:0 10:0 11:1 12:1 13:0.033613445 
1 1 0:0.055555556 1:1 2:1 3:1 4:1 5:1 6:0 7:0 8:0 9:0 10:0 11:1 12:1 13:0.085899152 
0.8559354569318585 1 0:0.14285714 1:2 2:2 3:1 4:0 5:0 6:0 7:0 8:0 9:0 10:0 11:0 12:0 13:0 
1 1 0:0.0625 1:1 2:1 3:1 4:0 5:0 6:0 7:0 8:0 9:0 10:1 11:0 12:0 13:0 
0 1 0:0 1:0 2:0 3:0 4:0 5:0 6:0 7:0 8:0 9:0 10:0 11:1 12:0 13:0.5 
1 1 0:0 1:0 2:0 3:0 4:0 5:0 6:0 7:0 8:0 9:0 10:1 11:1 12:1 13:0.43274854 
1 1 0:0.22222222 1:2 2:2 3:1 4:0 5:0 6:0 7:0 8:0 9:0 10:0 11:1 12:1 13:-0.1 
0 1 0:0 1:0 2:0 3:0 4:0 5:0 6:0 7:0 8:0 9:0 10:0 11:0 12:0 13:0 
1 1 0:0 1:0 2:0 3:0 4:0 5:0 6:0 7:0 8:0 9:0 10:0 11:1 12:1 13:0.1016297 
0 1 0:0.15384615 1:2 2:2 3:1 4:0 5:0 6:0 7:0 8:0 9:0 10:0 11:1 12:1 13:0.15277778 
0 1 0:0.0625 1:1 2:1 3:1 4:0 5:0 6:0 7:0 8:0 9:0 10:0 11:1 12:0 13:0.5 
0 1 0:0.15789474 1:3 2:1 3:1 4:0 5:0 6:0 7:0 8:0 9:0 10:0 11:1 12:1 13:0.20512821 
0 1 0:0 1:0 2:0 3:0 4:0 5:0 6:0 7:0 8:0 9:0 10:0 11:1 12:1 13:0.14724576 
0 1 0:0 1:0 2:0 3:0 4:0 5:0 6:0 7:0 8:0 9:0 10:0 11:0 12:0 13:0 
0 1 0:0 1:0 2:0 3:0 4:0 5:0 6:0 7:0 8:0 9:0 10:0 11:0 12:0 13:0 
0 1 0:0.047619048 1:1 2:1 3:1 4:0 5:0 6:0 7:0 8:0 9:0 10:0 11:1 12:1 13:0.24450549 
1 1 0:0 1:0 2:0 3:0 4:0 5:0 6:0 7:0 8:0 9:0 10:1 11:0 12:0 13:0 
0 1 0:0.052631579 1:1 2:0 3:1 4:0 5:0 6:0 7:0 8:0 9:0 10:0 11:1 12:1 13:0.21818182 
1 1 0:0.076923077 1:1 2:1 3:1 4:0 5:0 6:0 7:0 8:0 9:0 10:0 11:0 12:0 13:0 
0 1 0:0 1:0 2:0 3:0 4:0 5:0 6:0 7:0 8:0 9:0 10:0 11:0 12:0 13:0 
0 1 0:0.058823529 1:1 2:1 3:1 4:0 5:0 6:0 7:0 8:0 9:0 10:0 11:0 12:0 13:0 
0 1 0:0.38461538 1:5 2:4 3:1 4:0 5:0 6:0 7:0 8:0 9:0 10:0 11:1 12:1 13:0.25 
0 1 0:0.2 1:2 2:2 3:1 4:0 5:0 6:0 7:0 8:0 9:0 10:0 11:1 12:1 13:0.37297466 
0 1 0:0.058823529 1:1 2:1 3:1 4:0 5:0 6:0 7:0 8:0 9:0 10:0 11:0 12:0 13:0 
0 1 0:0.066666667 1:1 2:1 3:1 4:0 5:0 6:0 7:0 8:0 9:0 10:0 11:1 12:1 13:0.13636364 
0 1 0:0 1:0 2:0 3:0 4:0 5:0 6:0 7:0 8:0 9:0 10:0 11:1 12:1 13:0.25 
0 1 0:0 1:0 2:0 3:0 4:0 5:0 6:0 7:0 8:0 9:0 10:0 11:1 12:1 13:0.19599515 
1 1 0:0 1:0 2:0 3:0 4:0 5:0 6:0 7:0 8:0 9:0 10:0 11:1 12:1 13:0.085899152 
0 1 0:0 1:0 2:0 3:0 4:0 5:0 6:0 7:0 8:0 9:0 10:0 11:0 12:0 13:0 
0 1 0:0.076923077 1:1 2:1 3:1 4:0 5:0 6:0 7:0 8:0 9:0 10:0 11:1 12:0 13:0.5 
0 1 0:0.071428571 1:1 2:1 3:1 4:1 5:0 6:0 7:0 8:0 9:0 10:0 11:0 12:0 13:0 
1 1 0:0 1:0 2:0 3:0 4:0 5:0 6:0 7:0 8:0 9:0 10:1 11:1 12:1 13:0.11904762 
1 0 0:0 1:0 2:0 3:0 4:0 5:0 6:1 7:0 8:0 9:0 10:1 11:0 12:0 13:0 
0 1 0:0 1:0 2:0 3:0 4:0 5:0 6:0 7:0 8:0 9:0 10:0 11:0 12:0 13:0 
0 1 0:0.5 1:3 2:0 3:1 4:0 5:0 6:0 7:0 8:0 9:0 10:0 11:1 12:1 13:0.25 
0 1 0:0 1:0 2:0 3:0 4:1 5:0 6:0 7:0 8:0 9:0 10:0 11:1 12:1 13:0.0625 
0 1 0:0 1:0 2:0 3:0 4:0 5:0 6:0 7:0 8:0 9:0 10:0 11:0 12:0 13:0 
0 1 0:0.1 1:2 2:2 3:1 4:0 5:0 6:0 7:0 8:0 9:0 10:0 11:0 12:0 13:0 
1 1 0:0 1:0 2:0 3:0 4:0 5:0 6:0 7:1 8:0 9:0 10:1 11:0 12:0 13:0 
0 1 0:0.058823529 1:1 2:1 3:1 4:0 5:0 6:0 7:0 8:0 9:0 10:0 11:1 12:0 13:0.5 
1 1 0:0 1:0 2:0 3:0 4:0 5:0 6:0 7:0 8:0 9:0 10:0 11:1 12:1 13:0.1016297 
1 1 0:0.055555556 1:1 2:1 3:1 4:0 5:0 6:0 7:0 8:0 9:0 10:1 11:1 12:1 13:0.090909091 
0 1 0:0 1:0 2:0 3:0 4:0 5:0 6:0 7:0 8:0 9:0 10:0 11:1 12:1 13:0.14545455 
0 0.6157776946295037 0:0.41666667 1:5 2:3 3:1 4:3 5:0 6:0 7:0 8:0 9:0 10:0 11:1 12:1 13:0.3255814 
0 1 0:0.058823529 1:1 2:1 3:1 4:0 5:0 6:0 7:0 8:0 9:0 10:0 11:1 12:1 13:0.1016297 
0 1 0:0.055555556 1:1 2:1 3:1 4:1 5:1 6:0 7:0 8:0 9:0 10:0 11:1 12:0 13:0.5 
0 1 0:0.14285714 1:2 2:2 3:1 4:0 5:0 6:0 7:0 8:0 9:0 10:0 11:1 12:1 13:0.70643939 
0 1 0:0.15 1:3 2:2 3:1 4:0 5:0 6:0 7:0 8:0 9:0 10:0 11:1 12:1 13:0.1016297 
0 1 0:0.0625 1:1 2:1 3:1 4:0 5:0 6:0 7:0 8:0 9:0 10:0 11:1 12:0 13:0.5 
0 1 0:0.11111111 1:2 2:1 3:1 4:2 5:1 6:0 7:0 8:0 9:0 10:0 11:1 12:1 13:0.21818182 
0 1 0:0 1:0 2:0 3:0 4:0 5:0 6:0 7:0 8:0 9:0 10:0 11:1 12:1 13:0.14163237 
0 1 0:0 1:0 2:0 3:0 4:0 5:0 6:0 7:0 8:0 9:0 10:0 11:1 12:1 13:0.58896396 
1 1 0:0 1:0 2:0 3:0 4:0 5:0 6:0 7:0 8:0 9:0 10:1 11:0 12:0 13:0 
1 1 0:0 1:0 2:0 3:0 4:0 5:0 6:0 7:0 8:0 9:0 10:0 11:1 12:1 13:0.085899152 
0 1 0:0 1:0 2:0 3:0 4:0 5:0 6:0 7:0 8:0 9:0 10:0 11:1 12:1 13:0.29487179 
1 1 0:0 1:0 2:0 3:0 4:0 5:0 6:0 7:0 8:0 9:0 10:0 11:1 12:1 13:0.10927152 
0 1 0:0 1:0 2:0 3:0 4:0 5:0 6:0 7:0 8:0 9:0 10:0 11:0 12:0 13:0 
0 1 0:0 1:0 2:0 3:0 4:0 5:0 6:0 7:0 8:0 9:0 10:0 11:0 12:0 13:0 
0 1 0:0 1:0 2:0 3:0 4:0 5:0 6:0 7:0 8:0 9:0 10:0 11:1 12:1 13:0.16856061 
1 1 0:0 1:0 2:0 3:0 4:0 5:0 6:0 7:0 8:0 9:0 10:0 11:1 12:1 13:0.085899152 
0 1 0:0 1:0 2:0 3:0 4:0 5:0 6:0 7:0 8:0 9:0 10:0 11:1 12:1 13:0.3255814 
0 1 0:0.052631579 1:1 2:1 3:1 4:0 5:0 6:0 7:0 8:0 9:0 10:0 11:1 12:1 13:0.19 
0 1 0:0 1:0 2:0 3:0 4:0 5:0 6:0 7:0 8:0 9:0 10:0 11:0 12:0 13:0 
1 1 0:0.043478261 1:1 2:1 3:1 4:0 5:0 6:0 7:0 8:0 9:0 10:0 11:1 12:1 13:0.085899152 
1 1 0:0 1:0 2:0 3:0 4:0 5:0 6:0 7:0 8:0 9:0 10:1 11:0 12:0 13:0 
0 1 0:0.066666667 1:1 2:1 3:1 4:0 5:0 6:0 7:0 8:0 9:0 10:0 11:1 12:0 13:0.25 
0 1 0:0.071428571 1:1 2:1 3:1 4:0 5:0 6:0 7:0 8:0 9:0 10:0 11:1 12:1 13:0.46969697 
0 1 0:0 1:0 2:0 3:0 4:0 5:0 6:0 7:0 8:0 9:0 10:0 11:0 12:0 13:0 
1 1 0:0.076923077 1:1 2:1 3:1 4:0 5:0 6:0 7:0 8:0 9:0 10:1 11:1 12:1 13:-0.008175278 
0 1 0:0.22222222 1:4 2:4 3:1 4:0 5:0 6:0 7:0 8:0 9:0 10:0 11:1 12:1 13:0.085899152 
0 1 0:0.15384615 1:2 2:2 3:1 4:0 5:0 6:0 7:0 8:0 9:0 10:0 11:1 12:1 13:0.14163237 
0 1 0:0 1:0 2:0 3:0 4:0 5:0 6:0 7:0 8:0 9:0 10:0 11:1 12:1 13:0.46969697 
1 1 0:0 1:0 2:0 3:0 4:0 5:0 6:0 7:0 8:0 9:0 10:0 11:1 12:1 13:0.055555556 
0 1 0:0 1:0 2:0 3:0 4:0 5:0 6:0 7:0 8:0 9:0 10:0 11:0 12:0 13:0 
0 1 0:0.125 1:1 2:0 3:1 4:0 5:0 6:0 7:0 8:0 9:0 10:0 11:1 12:1 13:0.068965517 
1 1 0:0 1:0 2:0 3:0 4:0 5:0 6:0 7:0 8:0 9:0 10:0 11:1 12:1 13:0.1016297 
1 1 0:0 1:0 2:0 3:0 4:0 5:0 6:0 7:0 8:0 9:0 10:0 11:1 12:1 13:0.085899152 
0 1 0:0 1:0 2:0 3:0 4:0 5:0 6:0 7:0 8:0 9:0 10:0 11:0 12:0 13:0 
1 1 0:0.071428571 1:1 2:1 3:1 4:0 5:0 6:0 7:0 8:0 9:0 10:1 11:1 12:1 13:0.37297466 
0 1 0:0 1:0 2:0 3:0 4:0 5:0 6:0 7:0 8:0 9:0 10:0 11:1 12:0 13:0.25 
0 1 0:0.125 1:1 2:0 3:1 4:1 5:0 6:0 7:0 8:0 9:0 10:0 11:1 12:1 13:0 
0 1 0:0.090909091 1:1 2:1 3:1 4:0 5:0 6:0 7:0 8:0 9:0 10:0 11:1 12:0 13:0.47222222 
0 1 0:0.066666667 1:1 2:0 3:1 4:0 5:0 6:0 7:0 8:0 9:0 10:0 11:0 12:0 13:0 
0 1 0:0.1 1:1 2:1 3:1 4:0 5:0 6:0 7:0 8:0 9:0 10:0 11:1 12:1 13:0.19642857 
0 1 0:0.10526316 1:2 2:0 3:1 4:0 5:0 6:0 7:0 8:0 9:0 10:0 11:1 12:1 13:0.24450549 
0.9533883857371129 1 0:0.16666667 1:3 2:3 3:1 4:0 5:0 6:0 7:0 8:0 9:0 10:0 11:1 12:1 13:0.18181818 
0 1 0:0 1:0 2:0 3:0 4:0 5:0 6:0 7:0 8:0 9:0 10:0 11:1 12:1 13:0.58896396 
1 1 0:0 1:0 2:0 3:0 4:0 5:0 6:0 7:0 8:0 9:0 10:1 11:1 12:1 13:0.085899152 
0 1 0:0.083333333 1:1 2:1 3:1 4:0 5:0 6:0 7:0 8:0 9:0 10:0 11:1 12:1 13:0.23333333 
0 1 0:0.058823529 1:1 2:0 3:1 4:0 5:0 6:0 7:0 8:0 9:0 10:1 11:0 12:0 13:0 
0 1 0:0.055555556 1:1 2:0 3:1 4:0 5:0 6:0 7:0 8:0 9:0 10:1 11:1 12:1 13:-0.008175278 
0 1 0:0 1:0 2:0 3:0 4:0 5:0 6:0 7:0 8:0 9:0 10:0 11:1 12:1 13:0.14285714 
0 1 0:0.3 1:3 2:2 3:1 4:0 5:0 6:0 7:0 8:0 9:0 10:0 11:1 12:1 13:0.11521739 
0 1 0:0.076923077 1:1 2:1 3:1 4:1 5:0 6:0 7:0 8:0 9:0 10:0 11:1 12:1 13:0.1016297 
1 1 0:0 1:0 2:0 3:0 4:0 5:0 6:0 7:0 8:0 9:0 10:0 11:1 12:1 13:0.085899152 
0 1 0:0 1:0 2:0 3:0 4:0 5:0 6:0 7:0 8:0 9:0 10:0 11:1 12:0 13:0.25 
0 1 0:0.11111111 1:1 2:1 3:1 4:0 5:0 6:0 7:0 8:0 9:0 10:0 11:1 12:1 13:0.16666667 
0 1 0:0 1:0 2:0 3:0 4:0 5:0 6:0 7:0 8:0 9:0 10:0 11:1 12:0 13:0.5 
1 1 0:0 1:0 2:0 3:0 4:0 5:0 6:0 7:0 8:0 9:0 10:0 11:1 12:1 13:0.085899152 
0 1 0:0.076923077 1:1 2:1 3:1 4:0 5:0 6:0 7:0 8:0 9:0 10:0 11:1 12:0 13:0.5 
1 1 0:0 1:0 2:0 3:0 4:0 5:0 6:0 7:0 8:0 9:0 10:1 11:0 12:0 13:0 
0 1 0:0.055555556 1:1 2:0 3:1 4:0 5:0 6:0 7:0 8:0 9:0 10:0 11:1 12:1 13:0.014285714 
0 1 0:0.0625 1:1 2:1 3:1 4:0 5:0 6:0 7:0 8:0 9:0 10:0 11:1 12:0 13:0.5 
0 1 0:0 1:0 2:0 3:0 4:0 5:0 6:0 7:0 8:0 9:0 10:0 11:0 12:0 13:0 
0 1 0:0.16666667 1:3 2:1 3:1 4:0 5:0 6:0 7:0 8:0 9:0 10:0 11:1 12:1 13:0.11111111 
0 1 0:0.076923077 1:1 2:1 3:1 4:0 5:0 6:0 7:0 8:0 9:0 10:0 11:1 12:1 13:0.58896396 
1 1 0:0 1:0 2:0 3:0 4:0 5:0 6:0 7:0 8:0 9:0 10:2 11:1 12:1 13:0.085899152 
1 1 0:0.05 1:1 2:1 3:1 4:0 5:0 6:0 7:0 8:0 9:0 10:0 11:0 12:0 13:0 
1 1 0:0.090909091 1:1 2:1 3:1 4:0 5:0 6:0 7:0 8:0 9:0 10:1 11:0 12:0 13:0 
1 1 0:0.083333333 1:1 2:1 3:1 4:0 5:0 6:0 7:0 8:0 9:0 10:0 11:0 12:0 13:0 
0 1 0:0 1:0 2:0 3:0 4:0 5:0 6:0 7:0 8:0 9:0 10:0 11:1 12:0 13:0.16666667 
0 1 0:0 1:0 2:0 3:0 4:0 5:0 6:0 7:0 8:0 9:0 10:0 11:1 12:0 13:0.2 
0 1 0:0 1:0 2:0 3:0 4:0 5:0 6:0 7:0 8:0 9:0 10:0 11:1 12:1 13:0.21621622 
0 1 0:0 1:0 2:0 3:0 4:0 5:0 6:0 7:0 8:0 9:0 10:0 11:0 12:0 13:0 
0 1 0:0 1:0 2:0 3:0 4:0 5:0 6:0 7:0 8:0 9:0 10:0 11:0 12:0 13:0 
0 1 0:0.055555556 1:1 2:0 3:1 4:0 5:0 6:0 7:0 8:0 9:0 10:0 11:0 12:0 13:0 
0 1 0:0.071428571 1:1 2:0 3:1 4:0 5:0 6:0 7:0 8:0 9:0 10:0 11:1 12:1 13:0.13970588 
0 1 0:0.071428571 1:1 2:1 3:1 4:0 5:0 6:0 7:0 8:0 9:0 10:0 11:1 12:0 13:0.5 
0 1 0:0 1:0 2:0 3:0 4:0 5:0 6:0 7:0 8:0 9:0 10:0 11:0 12:0 13:0 
0 1 0:0.083333333 1:1 2:0 3:1 4:0 5:0 6:0 7:0 8:0 9:0 10:0 11:1 12:1 13:0.085899152 
0 1 0:0.055555556 1:1 2:1 3:1 4:0 5:0 6:0 7:0 8:0 9:0 10:0 11:1 12:1 13:0.12903226 
0 1 0:0.05 1:1 2:0 3:1 4:0 5:0 6:0 7:0 8:0 9:0 10:0 11:1 12:1 13:0.14285714 
1 1 0:0.14285714 1:2 2:2 3:1 4:0 5:0 6:0 7:0 8:0 9:0 10:0 11:1 12:1 13:0.074660633 
0 1 0:0.11764706 1:2 2:2 3:1 4:0 5:0 6:1 7:0 8:0 9:0 10:0 11:0 12:0 13:0 
1 1 0:0 1:0 2:0 3:0 4:0 5:0 6:0 7:0 8:0 9:0 10:0 11:1 12:1 13:0.085899152 
0 1 0:0 1:0 2:0 3:0 4:0 5:0 6:0 7:0 8:0 9:0 10:0 11:1 12:1 13:0.58896396 
0 0.8336994363967358 0:0.30769231 1:4 2:3 3:1 4:0 5:0 6:0 7:0 8:0 9:0 10:0 11:1 12:1 13:0.73157895 
1 1 0:0 1:0 2:0 3:0 4:0 5:0 6:0 7:0 8:0 9:0 10:0 11:1 12:1 13:0.085899152 
0 1 0:0.095238095 1:2 2:1 3:1 4:2 5:2 6:0 7:0 8:0 9:0 10:0 11:1 12:1 13:0.085899152 
1 1 0:0.058823529 1:1 2:1 3:1 4:0 5:0 6:0 7:0 8:0 9:0 10:1 11:1 12:1 13:0.1016297 
0 1 0:0.058823529 1:1 2:0 3:1 4:1 5:0 6:0 7:0 8:0 9:0 10:0 11:0 12:0 13:0 
1 1 0:0 1:0 2:0 3:0 4:0 5:0 6:0 7:0 8:0 9:0 10:1 11:1 12:1 13:-0.24038462 
0 1 0:0.0625 1:1 2:1 3:1 4:0 5:0 6:0 7:0 8:0 9:0 10:0 11:1 12:0 13:0.5 
0 1 0:0.083333333 1:1 2:1 3:1 4:0 5:0 6:0 7:0 8:0 9:0 10:0 11:1 12:1 13:0.125 
0 1 0:0.066666667 1:1 2:1 3:1 4:0 5:0 6:0 7:0 8:0 9:0 10:0 11:0 12:0 13:0 
0 1 0:0 1:0 2:0 3:0 4:0 5:0 6:0 7:0 8:0 9:0 10:0 11:1 12:1 13:0.14285714 
1 1 0:0 1:0 2:0 3:0 4:0 5:0 6:0 7:0 8:0 9:0 10:0 11:1 12:1 13:0 
0 1 0:0.17647059 1:3 2:2 3:1 4:0 5:0 6:0 7:0 8:0 9:0 10:1 11:1 12:0 13:0.125 
0 1 0:0 1:0 2:0 3:0 4:0 5:0 6:0 7:0 8:0 9:0 10:0 11:0 12:0 13:0 
1 1 0:0 1:0 2:0 3:0 4:1 5:1 6:0 7:0 8:0 9:0 10:1 11:0 12:0 13:0 
1 1 0:0 1:0 2:0 3:0 4:0 5:0 6:0 7:0 8:0 9:0 10:0 11:1 12:1 13:0 
0 1 0:0 1:0 2:0 3:0 4:0 5:0 6:0 7:0 8:0 9:0 10:0 11:0 12:0 13:0 
1 1 0:0.066666667 1:1 2:1 3:1 4:0 5:0 6:0 7:0 8:0 9:0 10:0 11:1 12:1 13:0.03125 
1 1 0:0 1:0 2:0 3:0 4:0 5:0 6:0 7:0 8:0 9:0 10:0 11:1 12:1 13:0.085899152 
1 1 0:0 1:0 2:0 3:0 4:0 5:0 6:0 7:0 8:0 9:0 10:0 11:1 12:1 13:0.039215686 
0 1 0:0.090909091 1:1 2:0 3:1 4:0 5:0 6:0 7:0 8:0 9:0 10:0 11:1 12:1 13:0.14108352 
0 1 0:0 1:0 2:0 3:0 4:0 5:0 6:0 7:0 8:0 9:0 10:0 11:0 12:0 13:0 
0 1 0:0 1:0 2:0 3:0 4:0 5:0 6:0 7:0 8:0 9:0 10:0 11:1 12:1 13:0.14545455 
1 1 0:0 1:0 2:0 3:0 4:0 5:0 6:0 7:0 8:0 9:0 10:0 11:1 12:1 13:0.13970588 
0 1 0:0 1:0 2:0 3:0 4:0 5:0 6:0 7:0 8:0 9:0 10:0 11:0 12:0 13:0 
0 1 0:0.11111111 1:2 2:1 3:1 4:0 5:0 6:0 7:0 8:0 9:0 10:0 11:1 12:1 13:0 
0 1 0:0.055555556 1:1 2:0 3:1 4:1 5:0 6:0 7:0 8:0 9:0 10:0 11:0 12:0 13:0 
0 1 0:0.076923077 1:1 2:1 3:1 4:1 5:0 6:0 7:0 8:0 9:0 10:0 11:1 12:1 13:0.070512821 
0 1 0:0 1:0 2:0 3:0 4:0 5:0 6:0 7:0 8:0 9:0 10:0 11:0 12:0 13:0 
0 1 0:0.11764706 1:2 2:2 3:1 4:0 5:0 6:1 7:0 8:0 9:0 10:0 11:1 12:1 13:0.074660633 
1 1 0:0.090909091 1:1 2:1 3:1 4:0 5:0 6:0 7:0 8:0 9:0 10:0 11:1 12:1 13:0 
1 1 0:0 1:0 2:0 3:0 4:0 5:0 6:0 7:0 8:0 9:0 10:0 11:1 12:1 13:0.1016297 
1 1 0:0.090909091 1:1 2:1 3:1 4:0 5:0 6:0 7:0 8:0 9:0 10:1 11:0 12:0 13:0 
0 1 0:0 1:0 2:0 3:0 4:0 5:0 6:0 7:0 8:0 9:0 10:0 11:1 12:0 13:0.5 
0 1 0:0 1:0 2:0 3:0 4:0 5:0 6:0 7:0 8:0 9:0 10:0 11:1 12:0 13:0.5 
0 1 0:0.125 1:2 2:1 3:1 4:0 5:0 6:0 7:0 8:0 9:0 10:0 11:1 12:1 13:0.080645161 
1 1 0:0.0625 1:1 2:1 3:1 4:0 5:0 6:0 7:0 8:0 9:0 10:0 11:1 12:1 13:0.038461538 
0 1 0:0.21428571 1:3 2:2 3:1 4:0 5:0 6:0 7:0 8:0 9:0 10:0 11:1 12:1 13:0.26923077 
0 1 0:0 1:0 2:0 3:0 4:0 5:0 6:1 7:0 8:0 9:0 10:0 11:1 12:1 13:0.085899152 
0 1 0:0 1:0 2:0 3:0 4:0 5:0 6:0 7:0 8:0 9:0 10:0 11:0 12:0 13:0 
1 1 0:0.11111111 1:1 2:1 3:1 4:0 5:0 6:0 7:0 8:0 9:0 10:0 11:1 12:1 13:0.06122449 
0 1 0:0.052631579 1:1 2:1 3:1 4:0 5:0 6:0 7:0 8:0 9:0 10:0 11:1 12:1 13:0.23333333 
0 1 0:0 1:0 2:0 3:0 4:0 5:0 6:0 7:0 8:0 9:0 10:0 11:0 12:0 13:0 
1 1 0:0.0625 1:1 2:1 3:1 4:0 5:0 6:0 7:0 8:0 9:0 10:0 11:1 12:1 13:0.053571429 
1 1 0:0 1:0 2:0 3:0 4:0 5:0 6:0 7:0 8:0 9:0 10:0 11:1 12:1 13:0.1016297 
1 0 0:0 1:0 2:0 3:0 4:0 5:0 6:1 7:0 8:0 9:0 10:1 11:0 12:0 13:0 
0 1 0:0 1:0 2:0 3:0 4:0 5:0 6:0 7:0 8:1 9:0 10:0 11:0 12:0 13:0 
0 1 0:0 1:0 2:0 3:0 4:0 5:0 6:0 7:0 8:0 9:0 10:0 11:1 12:1 13:0.14163237 
0 1 0:0.0625 1:1 2:0 3:1 4:0 5:0 6:0 7:0 8:0 9:0 10:1 11:1 12:1 13:-0.008175278 
1 1 0:0 1:0 2:0 3:0 4:0 5:0 6:0 7:0 8:0 9:0 10:0 11:1 12:1 13:0.0125 
0 1 0:0.090909091 1:1 2:1 3:1 4:0 5:0 6:0 7:0 8:0 9:0 10:0 11:1 12:1 13:0.17346939 
1 0 0:0 1:0 2:0 3:0 4:0 5:0 6:1 7:0 8:0 9:0 10:1 11:1 12:1 13:0 
0 1 0:0.083333333 1:1 2:1 3:1 4:1 5:0 6:0 7:0 8:0 9:0 10:0 11:0 12:0 13:0 
0 1 0:0.076923077 1:1 2:0 3:1 4:0 5:0 6:0 7:0 8:0 9:0 10:0 11:1 12:1 13:0.085899152 
0 1 0:0.058823529 1:1 2:1 3:1 4:1 5:1 6:0 7:0 8:0 9:0 10:0 11:1 12:0 13:0.5 
0 1 0:0.2 1:4 2:3 3:1 4:0 5:0 6:0 7:0 8:0 9:0 10:0 11:0 12:0 13:0 
0 1 0:0.1 1:1 2:1 3:1 4:0 5:0 6:0 7:0 8:0 9:0 10:0 11:1 12:1 13:0.13636364 
0 1 0:0 1:0 2:0 3:0 4:0 5:0 6:0 7:0 8:0 9:0 10:0 11:1 12:1 13:0.1875 
1 1 0:0 1:0 2:0 3:0 4:0 5:0 6:0 7:0 8:0 9:0 10:0 11:1 12:1 13:0 
1 1 0:0 1:0 2:0 3:0 4:0 5:0 6:0 7:0 8:0 9:0 10:0 11:1 12:1 13:0.038461538 
1 1 0:0 1:0 2:0 3:0 4:0 5:0 6:0 7:0 8:0 9:0 10:0 11:1 12:1 13:0.085899152 
0 1 0:0.058823529 1:1 2:1 3:1 4:0 5:0 6:0 7:0 8:0 9:0 10:0 11:1 12:1 13:0.13636364 
1 1 0:0 1:0 2:0 3:0 4:0 5:0 6:0 7:0 8:0 9:0 10:0 11:1 12:1 13:0.125 
0 1 0:0.083333333 1:1 2:0 3:1 4:0 5:0 6:0 7:0 8:0 9:0 10:1 11:0 12:0 13:0 
0 1 0:0.4 1:2 2:1 3:1 4:0 5:0 6:0 7:0 8:0 9:0 10:0 11:1 12:1 13:0.11521739 
0 1 0:0 1:0 2:0 3:0 4:2 5:1 6:0 7:0 8:0 9:0 10:1 11:0 12:0 13:0 
0 1 0:0.058823529 1:1 2:0 3:1 4:0 5:0 6:1 7:0 8:0 9:0 10:2 11:0 12:0 13:0 
0 1 0:0 1:0 2:0 3:0 4:0 5:0 6:0 7:0 8:0 9:0 10:0 11:0 12:0 13:0 
1 1 0:0 1:0 2:0 3:0 4:0 5:0 6:0 7:0 8:0 9:0 10:1 11:0 12:0 13:0 
0 1 0:0 1:0 2:0 3:0 4:0 5:0 6:0 7:0 8:0 9:0 10:0 11:0 12:0 13:0 
1 1 0:0 1:0 2:0 3:0 4:0 5:0 6:1 7:1 8:0 9:0 10:0 11:0 12:0 13:0 
0 1 0:0.083333333 1:1 2:0 3:1 4:0 5:0 6:0 7:0 8:0 9:0 10:0 11:1 12:1 13:0.28461538 
0 1 0:0 1:0 2:0 3:0 4:0 5:0 6:0 7:0 8:0 9:0 10:0 11:0 12:0 13:0 
0.2357982852779973 1 0:0.15 1:3 2:3 3:1 4:0 5:0 6:0 7:0 8:0 9:0 10:0 11:0 12:0 13:0 
1 1 0:0.21428571 1:3 2:3 3:1 4:0 5:0 6:0 7:0 8:0 9:0 10:0 11:0 12:0 13:0 
0 1 0:0 1:0 2:0 3:0 4:0 5:0 6:0 7:0 8:0 9:0 10:0 11:1 12:1 13:0.15306122 
0 1 0:0 1:0 2:0 3:0 4:0 5:0 6:0 7:0 8:0 9:0 10:0 11:1 12:0 13:0.33333333 
1 1 0:0.11764706 1:2 2:2 3:1 4:2 5:1 6:0 7:0 8:0 9:0 10:1 11:0 12:0 13:0 
1 1 0:0 1:0 2:0 3:0 4:0 5:0 6:0 7:0 8:0 9:0 10:1 11:0 12:0 13:0 
0 1 0:0.04 1:1 2:1 3:1 4:0 5:0 6:0 7:0 8:0 9:0 10:0 11:1 12:1 13:0.10135135 
1 1 0:0.090909091 1:1 2:1 3:1 4:0 5:0 6:0 7:0 8:0 9:0 10:0 11:1 12:1 13:0.05801105 
0 1 0:0.1 1:1 2:0 3:1 4:0 5:0 6:1 7:0 8:0 9:0 10:0 11:0 12:0 13:0 
0 1 0:0 1:0 2:0 3:0 4:0 5:0 6:0 7:0 8:0 9:0 10:0 11:0 12:0 13:0 
0 1 0:0.090909091 1:1 2:1 3:1 4:0 5:0 6:0 7:0 8:0 9:0 10:0 11:1 12:1 13:0.46969697 
0 1 0:0 1:0 2:0 3:0 4:0 5:0 6:0 7:0 8:0 9:0 10:0 11:0 12:0 13:0 
0 1 0:0.055555556 1:1 2:1 3:1 4:0 5:0 6:0 7:0 8:0 9:0 10:0 11:1 12:1 13:0.13978495 
1 1 0:0 1:0 2:0 3:0 4:0 5:0 6:0 7:0 8:0 9:0 10:0 11:1 12:1 13:-0.055555556 
0 1 0:0.27272727 1:3 2:2 3:1 4:1 5:1 6:0 7:0 8:0 9:0 10:0 11:1 12:1 13:0.35 
1 1 0:0 1:0 2:0 3:0 4:0 5:0 6:0 7:0 8:0 9:0 10:0 11:1 12:1 13:0.1016297 
1 1 0:0 1:0 2:0 3:0 4:0 5:0 6:0 7:0 8:0 9:0 10:0 11:1 12:1 13:0.085899152 
0 0.7263463779226395 0:0.45 1:9 2:5 3:1 4:0 5:0 6:0 7:0 8:0 9:0 10:0 11:0 12:0 13:0 
1 1 0:0.0625 1:1 2:1 3:1 4:0 5:0 6:0 7:0 8:0 9:0 10:1 11:1 12:1 13:0.092592593 
0 1 0:0.13333333 1:2 2:1 3:1 4:0 5:0 6:0 7:0 8:0 9:0 10:1 11:1 12:1 13:0.025641026 
0 1 0:0.066666667 1:1 2:1 3:1 4:0 5:0 6:0 7:0 8:0 9:0 10:1 11:1 12:0 13:0.41666667 
1 1 0:0.090909091 1:1 2:1 3:1 4:0 5:0 6:0 7:0 8:0 9:0 10:0 11:1 12:1 13:0.1016297 
0 1 0:0 1:0 2:0 3:0 4:0 5:0 6:0 7:0 8:0 9:0 10:0 11:0 12:0 13:0 
1 1 0:0 1:0 2:0 3:0 4:0 5:0 6:0 7:0 8:0 9:0 10:0 11:1 12:1 13:0.097222222 
0 0.748802003855622 0:0.14285714 1:4 2:3 3:1 4:0 5:0 6:1 7:0 8:0 9:0 10:0 11:1 12:1 13:0.12974684 
0 1 0:0 1:0 2:0 3:0 4:0 5:0 6:0 7:0 8:0 9:0 10:0 11:0 12:0 13:0 
1 1 0:0 1:0 2:0 3:0 4:0 5:0 6:0 7:0 8:0 9:0 10:0 11:1 12:1 13:0.10795455 
0 1 0:0.055555556 1:1 2:0 3:1 4:0 5:0 6:0 7:0 8:0 9:0 10:0 11:1 12:1 13:0.1016297 
0 1 0:0 1:0 2:0 3:0 4:1 5:0 6:0 7:0 8:0 9:0 10:0 11:1 12:1 13:-0.13888889 
0 1 0:0 1:0 2:0 3:0 4:0 5:0 6:0 7:0 8:0 9:0 10:0 11:1 12:0 13:0.5 
1 1 0:0 1:0 2:0 3:0 4:0 5:0 6:0 7:0 8:0 9:0 10:0 11:1 12:1 13:0.09375 
0 1 0:0.071428571 1:1 2:1 3:1 4:2 5:1 6:0 7:0 8:0 9:0 10:0 11:1 12:1 13:0.010204082 
0 1 0:0 1:0 2:0 3:0 4:0 5:0 6:0 7:0 8:0 9:0 10:0 11:0 12:0 13:0 
1 1 0:0.052631579 1:1 2:1 3:1 4:0 5:0 6:0 7:0 8:0 9:0 10:0 11:1 12:1 13:0.010204082 
0 1 0:0.11764706 1:2 2:1 3:1 4:1 5:1 6:0 7:0 8:0 9:0 10:1 11:1 12:1 13:-0.008175278 
0 1 0:0 1:0 2:0 3:0 4:0 5:0 6:0 7:0 8:0 9:0 10:0 11:0 12:0 13:0 
0 1 0:0 1:0 2:0 3:0 4:0 5:0 6:0 7:0 8:0 9:0 10:0 11:1 12:0 13:0.5 
1 1 0:0 1:0 2:0 3:0 4:0 5:0 6:0 7:0 8:0 9:0 10:1 11:0 12:0 13:0 
0 1 0:0 1:0 2:0 3:0 4:0 5:0 6:0 7:0 8:0 9:0 10:0 11:1 12:0 13:0.5 
0 1 0:0 1:0 2:0 3:0 4:0 5:0 6:0 7:0 8:0 9:0 10:0 11:0 12:0 13:0 
0 1 0:0.33333333 1:1 2:0 3:1 4:0 5:0 6:0 7:0 8:0 9:0 10:0 11:1 12:0 13:0.16666667 
0 1 0:0.035714286 1:1 2:0 3:1 4:0 5:0 6:0 7:0 8:0 9:0 10:0 11:1 12:1 13:0.15591398 
0 1 0:0.071428571 1:1 2:1 3:1 4:0 5:0 6:0 7:0 8:0 9:0 10:0 11:1 12:1 13:0.24450549 
0 1 0:0 1:0 2:0 3:0 4:0 5:0 6:0 7:0 8:0 9:0 10:0 11:0 12:0 13:0 
0 1 0:0.083333333 1:1 2:0 3:1 4:0 5:0 6:0 7:0 8:0 9:0 10:0 11:1 12:1 13:0.1016297 
1 1 0:0.2 1:2 2:2 3:1 4:0 5:0 6:0 7:0 8:0 9:0 10:0 11:0 12:0 13:0 
1 1 0:0.10526316 1:2 2:2 3:1 4:0 5:0 6:0 7:0 8:0 9:0 10:0 11:1 12:1 13:0.085899152 
0 1 0:0 1:0 2:0 3:0 4:0 5:0 6:0 7:0 8:0 9:0 10:0 11:0 12:0 13:0 
0 1 0:0 1:0 2:0 3:0 4:0 5:0 6:0 7:0 8:0 9:0 10:0 11:0 12:0 13:0 
0 1 0:0.052631579 1:1 2:1 3:1 4:0 5:0 6:0 7:0 8:0 9:0 10:0 11:1 12:1 13:0.41666667 
1 1 0:0.083333333 1:1 2:1 3:1 4:1 5:1 6:0 7:0 8:0 9:0 10:0 11:0 12:0 13:0 
0 1 0:0.076923077 1:1 2:1 3:1 4:0 5:0 6:0 7:0 8:0 9:0 10:0 11:1 12:1 13:0.12286689 
1 1 0:0.041666667 1:1 2:1 3:1 4:0 5:0 6:0 7:0 8:0 9:0 10:0 11:1 12:1 13:0.090909091 
0 1 0:0.21428571 1:3 2:1 3:1 4:0 5:0 6:0 7:0 8:0 9:0 10:1 11:1 12:0 13:0.21428571 
0 1 0:0 1:0 2:0 3:0 4:0 5:0 6:0 7:0 8:0 9:0 10:0 11:0 12:0 13:0 
1 1 0:0.083333333 1:1 2:1 3:1 4:0 5:0 6:0 7:0 8:0 9:0 10:1 11:1 12:1 13:-0.008175278 
0 1 0:0 1:0 2:0 3:0 4:0 5:0 6:0 7:0 8:0 9:0 10:0 11:1 12:1 13:0.37297466 
0 1 0:0 1:0 2:0 3:0 4:0 5:0 6:0 7:0 8:0 9:0 10:0 11:1 12:1 13:0.2 
1 1 0:0 1:0 2:0 3:0 4:0 5:0 6:0 7:0 8:0 9:0 10:0 11:1 12:1 13:0 
0.3551392576832064 0.7197925562150786 0:0.40909091 1:9 2:5 3:1 4:1 5:1 6:0 7:0 8:0 9:0 10:0 11:0 12:0 13:0 
0 1 0:0 1:0 2:0 3:0 4:0 5:0 6:0 7:0 8:0 9:0 10:0 11:0 12:0 13:0 
0 0.9898526413203607 0:0 1:0 2:0 3:0 4:0 5:0 6:0 7:0 8:1 9:0 10:0 11:0 12:0 13:0 
0 1 0:0.25 1:3 2:3 3:1 4:0 5:0 6:0 7:0 8:0 9:0 10:0 11:1 12:0 13:0.25 
0 0.2894475986293075 0:0 1:0 2:0 3:0 4:1 5:0 6:0 7:0 8:0 9:0 10:0 11:0 12:0 13:0 
0 1 0:0.125 1:2 2:1 3:1 4:0 5:0 6:0 7:0 8:0 9:0 10:0 11:1 12:1 13:0.28125 
0 1 0:0.0625 1:1 2:1 3:1 4:0 5:0 6:0 7:0 8:0 9:0 10:0 11:0 12:0 13:0 
0 1 0:0.083333333 1:1 2:0 3:1 4:0 5:0 6:0 7:0 8:0 9:0 10:0 11:1 12:0 13:0.5 
1 1 0:0.076923077 1:1 2:1 3:1 4:0 5:0 6:0 7:0 8:0 9:0 10:1 11:1 12:1 13:0.25 
0 1 0:0.066666667 1:1 2:0 3:1 4:0 5:0 6:0 7:0 8:0 9:0 10:0 11:1 12:1 13:0.085899152 
0 1 0:0.13333333 1:2 2:2 3:1 4:1 5:0 6:0 7:0 8:0 9:0 10:0 11:0 12:0 13:0 
0 1 0:0.18181818 1:2 2:1 3:1 4:0 5:0 6:0 7:0 8:0 9:0 10:0 11:1 12:1 13:0.37297466 
1 1 0:0 1:0 2:0 3:0 4:0 5:0 6:0 7:0 8:0 9:0 10:1 11:1 12:1 13:-0.008175278 
1 1 0:0.090909091 1:1 2:0 3:1 4:0 5:0 6:0 7:0 8:0 9:0 10:2 11:1 12:1 13:-0.008175278 
0 1 0:0 1:0 2:0 3:0 4:0 5:0 6:0 7:0 8:0 9:0 10:0 11:1 12:1 13:0.46607143 
0 1 0:0.066666667 1:1 2:1 3:1 4:0 5:0 6:0 7:0 8:0 9:0 10:0 11:1 12:1 13:0.58896396 
0 1 0:0.125 1:1 2:1 3:1 4:0 5:0 6:1 7:0 8:0 9:0 10:0 11:0 12:0 13:0 
1 1 0:0 1:0 2:0 3:0 4:0 5:0 6:0 7:0 8:0 9:0 10:1 11:0 12:0 13:0 
0 1 0:0.055555556 1:1 2:0 3:1 4:0 5:0 6:0 7:0 8:0 9:0 10:0 11:1 12:1 13:0.1016297 
0 1 0:0 1:0 2:0 3:0 4:0 5:0 6:0 7:0 8:0 9:0 10:0 11:0 12:0 13:0 
0 1 0:0.11764706 1:2 2:2 3:1 4:0 5:0 6:0 7:0 8:0 9:0 10:0 11:1 12:0 13:0.39583333 
0 1 0:0 1:0 2:0 3:0 4:0 5:0 6:0 7:0 8:0 9:0 10:0 11:0 12:0 13:0 
0 1 0:0 1:0 2:0 3:0 4:0 5:0 6:0 7:0 8:0 9:0 10:0 11:1 12:0 13:0.25 
0 1 0:0 1:0 2:0 3:0 4:1 5:0 6:0 7:0 8:0 9:0 10:0 11:1 12:1 13:0.074660633 
1 1 0:0.1 1:1 2:1 3:1 4:0 5:0 6:0 7:0 8:0 9:0 10:1 11:0 12:0 13:0 
0 1 0:0 1:0 2:0 3:0 4:0 5:0 6:0 7:0 8:0 9:0 10:0 11:1 12:0 13:0.21428571 
0 1 0:0 1:0 2:0 3:0 4:0 5:0 6:0 7:0 8:0 9:0 10:0 11:1 12:0 13:0.33333333 
1 1 0:0 1:0 2:0 3:0 4:0 5:0 6:0 7:0 8:0 9:0 10:1 11:0 12:0 13:0 
0 1 0:0 1:0 2:0 3:0 4:0 5:0 6:0 7:0 8:0 9:0 10:0 11:1 12:0 13:0.5 
0 1 0:0 1:0 2:0 3:0 4:1 5:0 6:0 7:0 8:0 9:0 10:1 11:0 12:0 13:0 
1 1 0:0.15384615 1:2 2:2 3:1 4:0 5:0 6:0 7:0 8:0 9:0 10:0 11:1 12:1 13:0 
0 1 0:0 1:0 2:0 3:0 4:0 5:0 6:0 7:0 8:0 9:0 10:0 11:0 12:0 13:0 
0 1 0:0.0625 1:1 2:1 3:1 4:0 5:0 6:0 7:0 8:0 9:0 10:0 11:1 12:0 13:0.23076923 
0 1 0:0.071428571 1:1 2:1 3:1 4:0 5:0 6:0 7:0 8:0 9:0 10:0 11:1 12:1 13:0.14724576 
0 1 0:0.14285714 1:1 2:1 3:1 4:0 5:0 6:0 7:0 8:0 9:0 10:0 11:1 12:1 13:0.14285714 
1 1 0:0 1:0 2:0 3:0 4:0 5:0 6:0 7:0 8:0 9:0 10:1 11:1 12:1 13:0.23214286 
0 1 0:0 1:0 2:0 3:0 4:0 5:0 6:0 7:0 8:0 9:0 10:0 11:1 12:0 13:0.25 
0 1 0:0.14285714 1:2 2:1 3:1 4:0 5:0 6:0 7:0 8:0 9:0 10:0 11:1 12:1 13:0.43274854 
0 1 0:0 1:0 2:0 3:0 4:0 5:0 6:0 7:0 8:0 9:0 10:0 11:0 12:0 13:0 
0 1 0:0.28571429 1:4 2:3 3:1 4:0 5:0 6:0 7:0 8:0 9:0 10:0 11:1 12:1 13:0.17156863 
1 1 0:0 1:0 2:0 3:0 4:0 5:0 6:0 7:0 8:0 9:0 10:0 11:1 12:1 13:0.070512821 
0 1 0:0.13333333 1:2 2:1 3:1 4:0 5:0 6:0 7:0 8:0 9:0 10:0 11:0 12:0 13:0 
0 1 0:0.076923077 1:2 2:2 3:1 4:0 5:0 6:1 7:0 8:0 9:0 10:0 11:1 12:1 13:0.14545455 
0 1 0:0.10526316 1:2 2:2 3:1 4:0 5:0 6:0 7:0 8:0 9:0 10:0 11:0 12:0 13:0 
0 0.8164803668758597 0:0 1:0 2:0 3:0 4:1 5:0 6:0 7:0 8:0 9:0 10:0 11:0 12:0 13:0 
1 1 0:0 1:0 2:0 3:0 4:0 5:0 6:0 7:0 8:0 9:0 10:0 11:1 12:1 13:0 
1 0.1646336957294113 0:0 1:0 2:0 3:0 4:0 5:0 6:0 7:0 8:0 9:0 10:3 11:1 12:0 13:0.5 
1 1 0:0.0625 1:1 2:1 3:1 4:0 5:0 6:0 7:0 8:0 9:0 10:0 11:1 12:1 13:0.090909091 
0 1 0:0 1:0 2:0 3:0 4:0 5:0 6:0 7:0 8:0 9:0 10:0 11:0 12:0 13:0 
0 1 0:0.16666667 1:2 2:1 3:1 4:0 5:0 6:0 7:0 8:0 9:0 10:1 11:1 12:1 13:0.14163237 
0 1 0:0 1:0 2:0 3:0 4:0 5:0 6:0 7:0 8:0 9:0 10:0 11:0 12:0 13:0 
0 1 0:0 1:0 2:0 3:0 4:0 5:0 6:0 7:0 8:0 9:0 10:1 11:1 12:0 13:0.25 
0 1 0:0.25 1:1 2:1 3:1 4:0 5:0 6:0 7:0 8:0 9:0 10:0 11:1 12:1 13:0.18181818 
0 1 0:0 1:0 2:0 3:0 4:0 5:0 6:0 7:0 8:0 9:0 10:0 11:0 12:0 13:0 
1 1 0:0.071428571 1:1 2:1 3:1 4:0 5:0 6:0 7:0 8:0 9:0 10:1 11:1 12:1 13:0.24074074 
0 1 0:0 1:0 2:0 3:0 4:0 5:0 6:0 7:0 8:0 9:0 10:0 11:0 12:0 13:0 
1 1 0:0 1:0 2:0 3:0 4:0 5:0 6:0 7:0 8:0 9:0 10:0 11:1 12:1 13:0.10818713 
0 1 0:0.047619048 1:1 2:1 3:1 4:1 5:0 6:0 7:0 8:0 9:0 10:0 11:0 12:0 13:0 
0 1 0:0 1:0 2:0 3:0 4:0 5:0 6:0 7:0 8:0 9:0 10:0 11:0 12:0 13:0 
0 1 0:0 1:0 2:0 3:0 4:1 5:0 6:0 7:0 8:0 9:0 10:0 11:1 12:1 13:0.071428571 
0 1 0:0 1:0 2:0 3:0 4:0 5:0 6:0 7:0 8:0 9:0 10:0 11:0 12:0 13:0 
0 1 0:0.071428571 1:1 2:1 3:1 4:0 5:0 6:0 7:0 8:0 9:0 10:0 11:1 12:0 13:0.33333333 
1 1 0:0 1:0 2:0 3:0 4:0 5:0 6:0 7:0 8:0 9:0 10:0 11:1 12:1 13:0.085899152 
0 1 0:0.125 1:2 2:1 3:1 4:1 5:0 6:0 7:0 8:0 9:0 10:0 11:0 12:0 13:0 
0 1 0:0 1:0 2:0 3:0 4:0 5:0 6:0 7:0 8:0 9:0 10:0 11:0 12:0 13:0 
1 1 0:0.1 1:1 2:1 3:1 4:0 5:0 6:0 7:0 8:0 9:0 10:1 11:1 12:1 13:-0.008175278 
0 1 0:0 1:0 2:0 3:0 4:0 5:0 6:0 7:0 8:0 9:0 10:0 11:1 12:1 13:0.234375 
0 1 0:0.13333333 1:2 2:0 3:1 4:1 5:0 6:0 7:0 8:0 9:0 10:0 11:1 12:0 13:0.076923077 
0 1 0:0.058823529 1:1 2:1 3:1 4:0 5:0 6:0 7:0 8:0 9:0 10:0 11:1 12:1 13:0.16666667 
1 1 0:0 1:0 2:0 3:0 4:0 5:0 6:0 7:0 8:0 9:0 10:1 11:1 12:1 13:0.085899152 
0 1 0:0 1:0 2:0 3:0 4:0 5:0 6:0 7:0 8:0 9:0 10:0 11:0 12:0 13:0 
1 1 0:0.074074074 1:2 2:2 3:1 4:0 5:0 6:0 7:0 8:0 9:0 10:0 11:1 12:1 13:0.081818182 
0 1 0:0 1:0 2:0 3:0 4:0 5:0 6:0 7:0 8:0 9:0 10:0 11:0 12:0 13:0 
0 1 0:0.05 1:1 2:0 3:1 4:0 5:0 6:0 7:0 8:0 9:0 10:0 11:1 12:1 13:0.29251701 
1 1 0:0 1:0 2:0 3:0 4:0 5:0 6:0 7:0 8:0 9:0 10:1 11:0 12:0 13:0 
1 1 0:0 1:0 2:0 3:0 4:0 5:0 6:0 7:0 8:0 9:0 10:0 11:1 12:1 13:0.03125 
1 1 0:0 1:0 2:0 3:0 4:0 5:0 6:0 7:0 8:0 9:0 10:0 11:1 12:1 13:0.085899152 
1 1 0:0 1:0 2:0 3:0 4:0 5:0 6:0 7:0 8:0 9:0 10:0 11:1 12:1 13:0.0625 
1 1 0:0.125 1:1 2:1 3:1 4:0 5:0 6:0 7:0 8:0 9:0 10:0 11:1 12:1 13:0.076923077 
0 1 0:0.071428571 1:1 2:0 3:1 4:0 5:0 6:0 7:0 8:0 9:0 10:0 11:1 12:1 13:0.093333333 
0 1 0:0 1:0 2:0 3:0 4:0 5:0 6:0 7:0 8:0 9:0 10:0 11:0 12:0 13:0 
0 1 0:0 1:0 2:0 3:0 4:0 5:0 6:0 7:0 8:0 9:0 10:0 11:0 12:0 13:0 
1 1 0:0 1:0 2:0 3:0 4:0 5:0 6:0 7:0 8:0 9:0 10:0 11:1 12:1 13:0.1016297 
0 1 0:0 1:0 2:0 3:0 4:0 5:0 6:0 7:0 8:1 9:0 10:0 11:0 12:0 13:0 
0 1 0:0.11111111 1:1 2:0 3:1 4:0 5:0 6:1 7:0 8:0 9:0 10:0 11:0 12:0 13:0 
0 0.3556620907647737 0:0 1:0 2:0 3:0 4:0 5:0 6:0 7:0 8:0 9:0 10:1 11:1 12:0 13:0.5 
0 1 0:0.076923077 1:1 2:1 3:1 4:0 5:0 6:0 7:0 8:0 9:0 10:0 11:1 12:1 13:0.14108352 
1 1 0:0 1:0 2:0 3:0 4:0 5:0 6:0 7:0 8:0 9:0 10:1 11:0 12:0 13:0 
0 1 0:0 1:0 2:0 3:0 4:0 5:0 6:0 7:0 8:0 9:0 10:0 11:1 12:0 13:0.28571429 
1 1 0:0 1:0 2:0 3:0 4:1 5:1 6:0 7:0 8:0 9:0 10:0 11:1 12:1 13:0.092592593 
0 1 0:0 1:0 2:0 3:0 4:0 5:0 6:0 7:0 8:0 9:0 10:0 11:0 12:0 13:0 
0.2062481434000526 0.6752904690761425 0:0 1:0 2:0 3:0 4:0 5:0 6:1 7:0 8:0 9:0 10:1 11:0 12:0 13:0 
1 1 0:0.095238095 1:2 2:2 3:1 4:0 5:0 6:0 7:0 8:0 9:0 10:1 11:1 12:1 13:0.125 
0 1 0:0.052631579 1:1 2:1 3:1 4:0 5:0 6:0 7:0 8:0 9:0 10:0 11:0 12:0 13:0 
1 1 0:0.076923077 1:1 2:1 3:1 4:0 5:0 6:0 7:0 8:0 9:0 10:1 11:1 12:1 13:-0.008175278 
0 1 0:0 1:0 2:0 3:0 4:0 5:0 6:0 7:0 8:0 9:0 10:0 11:1 12:1 13:0.40178571 
0 1 0:0.125 1:2 2:2 3:1 4:0 5:0 6:0 7:0 8:0 9:0 10:0 11:1 12:1 13:0.31818182 
0 1 0:0 1:0 2:0 3:0 4:0 5:0 6:0 7:0 8:0 9:0 10:0 11:0 12:0 13:0 
1 1 0:0 1:0 2:0 3:0 4:0 5:0 6:0 7:0 8:0 9:0 10:0 11:1 12:1 13:0.10818713 
0 1 0:0.083333333 1:2 2:1 3:1 4:1 5:0 6:0 7:0 8:0 9:0 10:0 11:0 12:0 13:0 
0 1 0:0 1:0 2:0 3:0 4:0 5:0 6:0 7:0 8:0 9:0 10:0 11:1 12:1 13:0.15306122 
0 1 0:0 1:0 2:0 3:0 4:0 5:0 6:0 7:0 8:0 9:0 10:0 11:1 12:1 13:0.16666667 
0 1 0:0 1:0 2:0 3:0 4:0 5:0 6:0 7:0 8:0 9:0 10:0 11:0 12:0 13:0 
0 1 0:0.076923077 1:1 2:1 3:1 4:0 5:0 6:0 7:0 8:0 9:0 10:0 11:1 12:1 13:0.13970588 
0 1 0:0 1:0 2:0 3:0 4:0 5:0 6:0 7:0 8:0 9:0 10:0 11:0 12:0 13:0 
0 1 0:0.071428571 1:2 2:1 3:1 4:0 5:0 6:0 7:0 8:0 9:0 10:1 11:1 12:1 13:0.085899152 
0 1 0:0.25 1:2 2:1 3:1 4:0 5:0 6:0 7:0 8:0 9:0 10:0 11:1 12:1 13:0.16666667 
1 1 0:0.14285714 1:2 2:2 3:1 4:0 5:0 6:0 7:0 8:0 9:0 10:0 11:1 12:1 13:0.1 
0 1 0:0 1:0 2:0 3:0 4:0 5:0 6:0 7:0 8:0 9:0 10:0 11:0 12:0 13:0 
0 1 0:0.083333333 1:2 2:2 3:1 4:0 5:0 6:0 7:0 8:0 9:0 10:0 11:1 12:1 13:0.58896396 
1 1 0:0 1:0 2:0 3:0 4:0 5:0 6:0 7:0 8:0 9:0 10:1 11:0 12:0 13:0 
0 1 0:0 1:0 2:0 3:0 4:0 5:0 6:0 7:0 8:0 9:0 10:0 11:1 12:0 13:0.25 
1 1 0:0 1:0 2:0 3:0 4:0 5:0 6:0 7:0 8:0 9:0 10:2 11:1 12:1 13:0.17864078 
0 1 0:0 1:0 2:0 3:0 4:0 5:0 6:1 7:0 8:0 9:0 10:0 11:1 12:1 13:0.1016297 
1 1 0:0.052631579 1:1 2:1 3:1 4:0 5:0 6:0 7:0 8:0 9:0 10:1 11:1 12:1 13:0 
0 1 0:0.16666667 1:3 2:3 3:1 4:0 5:0 6:0 7:0 8:0 9:0 10:0 11:1 12:0 13:0.3 
1 1 0:0 1:0 2:0 3:0 4:1 5:1 6:0 7:0 8:0 9:0 10:0 11:0 12:0 13:0 
1 1 0:0.071428571 1:1 2:1 3:1 4:0 5:0 6:0 7:0 8:0 9:0 10:0 11:1 12:1 13:0 
0 1 0:0 1:0 2:0 3:0 4:0 5:0 6:0 7:0 8:0 9:0 10:0 11:0 12:0 13:0 
1 1 0:0.058823529 1:1 2:1 3:1 4:0 5:0 6:0 7:0 8:0 9:0 10:0 11:1 12:1 13:0.0625 
0 1 0:0.1 1:1 2:1 3:1 4:0 5:0 6:0 7:0 8:0 9:0 10:0 11:1 12:1 13:0.10927152 
0 1 0:0.2 1:3 2:2 3:1 4:0 5:0 6:0 7:0 8:0 9:0 10:0 11:1 12:1 13:0.58896396 
1 1 0:0 1:0 2:0 3:0 4:0 5:0 6:0 7:0 8:0 9:0 10:1 11:0 12:0 13:0 
1 1 0:0 1:0 2:0 3:0 4:1 5:1 6:0 7:0 8:0 9:0 10:2 11:0 12:0 13:0 
0 1 0:0.25 1:2 2:1 3:1 4:0 5:0 6:0 7:0 8:0 9:0 10:0 11:0 12:0 13:0 
0 1 0:0.066666667 1:1 2:1 3:1 4:0 5:0 6:0 7:0 8:0 9:0 10:0 11:1 12:1 13:0.17647059 
0 1 0:0.076923077 1:1 2:1 3:1 4:0 5:0 6:0 7:0 8:0 9:0 10:0 11:1 12:1 13:0.58896396 
0 1 0:0.0625 1:1 2:0 3:1 4:0 5:0 6:0 7:0 8:0 9:0 10:0 11:1 12:1 13:0.05801105 
0 1 0:0 1:0 2:0 3:0 4:0 5:0 6:0 7:0 8:0 9:0 10:0 11:1 12:0 13:0.5 
0 1 0:0 1:0 2:0 3:0 4:2 5:1 6:0 7:0 8:0 9:0 10:0 11:1 12:1 13:-0.125 
0 1 0:0.055555556 1:1 2:1 3:1 4:0 5:0 6:0 7:0 8:0 9:0 10:0 11:1 12:1 13:0.12286689 
0 1 0:0.125 1:1 2:1 3:1 4:0 5:0 6:0 7:0 8:0 9:0 10:0 11:1 12:1 13:0.32142857 
0 1 0:0.17647059 1:3 2:2 3:1 4:0 5:0 6:0 7:0 8:0 9:0 10:0 11:1 12:1 13:0.58896396 
1 1 0:0 1:0 2:0 3:0 4:0 5:0 6:0 7:0 8:0 9:0 10:1 11:1 12:1 13:0.085899152 
0.2674274854278451 1 0:0.11111111 1:2 2:2 3:1 4:0 5:0 6:0 7:0 8:0 9:0 10:0 11:0 12:0 13:0 
0 1 0:0 1:0 2:0 3:0 4:0 5:0 6:0 7:0 8:0 9:0 10:0 11:0 12:0 13:0 
1 1 0:0 1:0 2:0 3:0 4:0 5:0 6:0 7:0 8:0 9:0 10:0 11:1 12:1 13:0.090909091 
0 1 0:0 1:0 2:0 3:0 4:0 5:0 6:0 7:0 8:0 9:0 10:0 11:1 12:0 13:0.25 
0 1 0:0.05 1:1 2:0 3:1 4:0 5:0 6:0 7:0 8:0 9:0 10:0 11:0 12:0 13:0 
0 1 0:0 1:0 2:0 3:0 4:0 5:0 6:0 7:0 8:0 9:0 10:0 11:1 12:0 13:0.5 
0 1 0:0 1:0 2:0 3:0 4:1 5:0 6:0 7:0 8:0 9:0 10:1 11:0 12:0 13:0 
1 1 0:0.08 1:2 2:2 3:1 4:0 5:0 6:0 7:0 8:0 9:0 10:0 11:0 12:0 13:0 
0 1 0:0.16666667 1:1 2:1 3:1 4:0 5:0 6:1 7:0 8:0 9:0 10:0 11:1 12:1 13:0.13978495 
0 1 0:0.076923077 1:1 2:0 3:1 4:0 5:0 6:0 7:0 8:0 9:0 10:0 11:1 12:1 13:0.18859649 
0.52828974228237 1 0:0 1:0 2:0 3:0 4:0 5:0 6:0 7:0 8:0 9:0 10:0 11:1 12:1 13:0.13978495 
0 1 0:0.071428571 1:1 2:1 3:1 4:0 5:0 6:0 7:0 8:0 9:0 10:0 11:1 12:0 13:0.16666667 
0 1 0:0.15789474 1:3 2:2 3:1 4:0 5:0 6:0 7:0 8:0 9:0 10:0 11:1 12:1 13:0.18965517 
0 1 0:0.058823529 1:1 2:1 3:1 4:0 5:0 6:0 7:0 8:0 9:0 10:0 11:1 12:1 13:0.14108352 
0 1 0:0 1:0 2:0 3:0 4:0 5:0 6:0 7:0 8:0 9:0 10:0 11:1 12:1 13:0.17808219 
0 1 0:0.2 1:4 2:3 3:1 4:0 5:0 6:0 7:0 8:0 9:0 10:0 11:0 12:0 13:0 
0 1 0:0.11111111 1:1 2:1 3:1 4:0 5:0 6:0 7:0 8:0 9:0 10:0 11:1 12:0 13:0.125 
0 1 0:0.14285714 1:2 2:1 3:1 4:0 5:0 6:0 7:0 8:0 9:0 10:0 11:1 12:0 13:0.25 
0 1 0:0 1:0 2:0 3:0 4:0 5:0 6:0 7:0 8:0 9:0 10:0 11:0 12:0 13:0 
0 1 0:0.11111111 1:1 2:0 3:1 4:0 5:0 6:0 7:0 8:0 9:0 10:0 11:0 12:0 13:0 
0 1 0:0 1:0 2:0 3:0 4:0 5:0 6:0 7:0 8:0 9:0 10:0 11:1 12:1 13:0.14163237 
0 1 0:0 1:0 2:0 3:0 4:1 5:0 6:0 7:0 8:0 9:0 10:0 11:1 12:1 13:0.068527919 
1 1 0:0.071428571 1:1 2:1 3:1 4:0 5:0 6:0 7:0 8:0 9:0 10:0 11:0 12:0 13:0 
0 1 0:0.2 1:3 2:2 3:1 4:0 5:0 6:0 7:0 8:0 9:0 10:0 11:0 12:0 13:0 
0 1 0:0.25 1:4 2:2 3:1 4:0 5:0 6:0 7:0 8:0 9:0 10:0 11:1 12:0 13:0.5 
0 1 0:0 1:0 2:0 3:0 4:0 5:0 6:0 7:0 8:0 9:0 10:0 11:0 12:0 13:0 
1 1 0:0.076923077 1:1 2:1 3:1 4:2 5:2 6:0 7:0 8:0 9:0 10:0 11:0 12:0 13:0 
0 1 0:0 1:0 2:0 3:0 4:0 5:0 6:0 7:0 8:0 9:0 10:0 11:0 12:0 13:0 
1 1 0:0.0625 1:1 2:1 3:1 4:0 5:0 6:0 7:0 8:0 9:0 10:0 11:1 12:1 13:0.0625 
1 1 0:0 1:0 2:0 3:0 4:0 5:0 6:0 7:0 8:0 9:0 10:0 11:1 12:1 13:-0.045454545 
0 1 0:0.0625 1:1 2:1 3:1 4:0 5:0 6:0 7:0 8:0 9:0 10:0 11:0 12:0 13:0 
0 1 0:0 1:0 2:0 3:0 4:0 5:0 6:0 7:0 8:0 9:0 10:0 11:0 12:0 13:0 
0 1 0:0 1:0 2:0 3:0 4:0 5:0 6:0 7:0 8:0 9:0 10:0 11:0 12:0 13:0 
1 1 0:0 1:0 2:0 3:0 4:0 5:0 6:0 7:0 8:0 9:0 10:1 11:1 12:1 13:0.038461538 
0 1 0:0.052631579 1:1 2:1 3:1 4:0 5:0 6:0 7:0 8:0 9:0 10:0 11:0 12:0 13:0 
0 1 0:0.13333333 1:2 2:1 3:1 4:0 5:0 6:0 7:0 8:0 9:0 10:0 11:1 12:1 13:0.14163237 
0 1 0:0.055555556 1:1 2:1 3:1 4:0 5:0 6:0 7:0 8:0 9:0 10:0 11:0 12:0 13:0 
0 1 0:0 1:0 2:0 3:0 4:0 5:0 6:0 7:0 8:0 9:0 10:0 11:1 12:1 13:0.35 
1 1 0:0 1:0 2:0 3:0 4:0 5:0 6:1 7:0 8:0 9:0 10:1 11:1 12:1 13:-0.008175278 
0 1 0:0 1:0 2:0 3:0 4:0 5:0 6:0 7:0 8:0 9:0 10:0 11:1 12:1 13:0.14163237 
1 1 0:0 1:0 2:0 3:0 4:0 5:0 6:0 7:0 8:0 9:0 10:0 11:1 12:1 13:-0.11538462 
0 1 0:0.17647059 1:3 2:2 3:1 4:1 5:0 6:0 7:0 8:0 9:0 10:0 11:1 12:1 13:0.175 
0 1 0:0.071428571 1:1 2:0 3:1 4:0 5:0 6:0 7:0 8:0 9:0 10:0 11:0 12:0 13:0 
0 1 0:0 1:0 2:0 3:0 4:0 5:0 6:0 7:0 8:0 9:0 10:0 11:1 12:1 13:0.18344371 
1 1 0:0 1:0 2:0 3:0 4:0 5:0 6:0 7:0 8:0 9:0 10:1 11:1 12:1 13:0.25 
1 1 0:0 1:0 2:0 3:0 4:0 5:0 6:0 7:0 8:0 9:0 10:1 11:1 12:1 13:-0.008175278 
0 1 0:0.17647059 1:3 2:3 3:1 4:0 5:0 6:0 7:0 8:0 9:0 10:0 11:0 12:0 13:0 
0 1 0:0 1:0 2:0 3:0 4:0 5:0 6:0 7:0 8:0 9:0 10:0 11:1 12:1 13:0.14163237 
1 1 0:0 1:0 2:0 3:0 4:0 5:0 6:0 7:0 8:0 9:0 10:0 11:1 12:1 13:0.1016297 
0 1 0:0 1:0 2:0 3:0 4:0 5:0 6:1 7:0 8:0 9:0 10:1 11:0 12:0 13:0 
0 1 0:0 1:0 2:0 3:0 4:0 5:0 6:0 7:0 8:0 9:0 10:0 11:1 12:1 13:0.28947368 
0 1 0:0 1:0 2:0 3:0 4:0 5:0 6:0 7:0 8:0 9:0 10:0 11:1 12:0 13:0.5 
1 1 0:0 1:0 2:0 3:0 4:0 5:0 6:0 7:0 8:0 9:0 10:1 11:0 12:0 13:0 
0 1 0:0 1:0 2:0 3:0 4:0 5:0 6:0 7:0 8:0 9:0 10:0 11:1 12:1 13:0.43274854 
1 1 0:0 1:0 2:0 3:0 4:0 5:0 6:0 7:0 8:0 9:0 10:0 11:1 12:1 13:0.11521739 
1 1 0:0.071428571 1:1 2:1 3:1 4:0 5:0 6:0 7:0 8:0 9:0 10:0 11:0 12:0 13:0 
0 1 0:0 1:0 2:0 3:0 4:1 5:0 6:0 7:0 8:0 9:0 10:0 11:0 12:0 13:0 
0 1 0:0 1:0 2:0 3:0 4:0 5:0 6:0 7:0 8:0 9:0 10:0 11:1 12:1 13:0.21052632 
0 1 0:0 1:0 2:0 3:0 4:0 5:0 6:0 7:0 8:0 9:0 10:0 11:1 12:1 13:0.46607143 
1 1 0:0.083333333 1:1 2:1 3:1 4:0 5:0 6:0 7:0 8:0 9:0 10:0 11:0 12:0 13:0 
0 1 0:0.17647059 1:3 2:2 3:1 4:0 5:0 6:0 7:0 8:0 9:0 10:0 11:0 12:0 13:0 
0 1 0:0 1:0 2:0 3:0 4:0 5:0 6:0 7:0 8:0 9:0 10:0 11:1 12:1 13:0.234375 
1 1 0:0.071428571 1:1 2:1 3:1 4:0 5:0 6:0 7:0 8:0 9:0 10:1 11:1 12:1 13:0.17948718 
0 1 0:0 1:0 2:0 3:0 4:0 5:0 6:1 7:0 8:0 9:0 10:0 11:1 12:1 13:0.085899152 
0 1 0:0.055555556 1:1 2:0 3:1 4:0 5:0 6:0 7:0 8:0 9:0 10:0 11:0 12:0 13:0 
1 1 0:0 1:0 2:0 3:0 4:0 5:0 6:0 7:0 8:0 9:0 10:2 11:0 12:0 13:0 
0 1 0:0 1:0 2:0 3:0 4:0 5:0 6:0 7:0 8:0 9:0 10:0 11:0 12:0 13:0 
1 1 0:0 1:0 2:0 3:0 4:0 5:0 6:0 7:0 8:0 9:0 10:0 11:1 12:1 13:0.13888889 
1 1 0:0.047619048 1:1 2:1 3:1 4:0 5:0 6:0 7:0 8:0 9:0 10:0 11:1 12:1 13:-0.0087719298 
0 1 0:0 1:0 2:0 3:0 4:0 5:0 6:0 7:0 8:0 9:0 10:0 11:1 12:0 13:0.25 
1 1 0:0.083333333 1:1 2:1 3:1 4:0 5:0 6:0 7:0 8:0 9:0 10:0 11:0 12:0 13:0 
0 1 0:0.0625 1:1 2:1 3:1 4:0 5:0 6:0 7:0 8:0 9:0 10:0 11:1 12:0 13:0.2 
0 1 0:0 1:0 2:0 3:0 4:0 5:0 6:0 7:0 8:0 9:0 10:0 11:1 12:1 13:0.32142857 
1 1 0:0 1:0 2:0 3:0 4:0 5:0 6:0 7:0 8:0 9:0 10:1 11:0 12:0 13:0 
0.6949766869538923 1 0:0.043478261 1:1 2:1 3:1 4:0 5:0 6:0 7:0 8:0 9:0 10:1 11:1 12:1 13:0.37297466 
0 1 0:0.11111111 1:2 2:1 3:1 4:0 5:0 6:0 7:0 8:0 9:0 10:0 11:1 12:1 13:0.085899152 
1 1 0:0.043478261 1:1 2:1 3:1 4:0 5:0 6:0 7:0 8:0 9:0 10:0 11:0 12:0 13:0 
1 1 0:0.15789474 1:3 2:3 3:1 4:1 5:1 6:1 7:0 8:0 9:0 10:0 11:0 12:0 13:0 
1 1 0:0.052631579 1:1 2:1 3:1 4:0 5:0 6:0 7:0 8:0 9:0 10:0 11:1 12:1 13:0.048387097 
0 1 0:0 1:0 2:0 3:0 4:0 5:0 6:0 7:0 8:0 9:0 10:0 11:0 12:0 13:0 
1 1 0:0 1:0 2:0 3:0 4:0 5:0 6:0 7:0 8:0 9:0 10:1 11:1 12:1 13:-0.008175278 
1 1 0:0.11111111 1:2 2:2 3:1 4:0 5:0 6:0 7:0 8:0 9:0 10:2 11:0 12:0 13:0 
0 1 0:0 1:0 2:0 3:0 4:0 5:0 6:0 7:0 8:0 9:0 10:0 11:1 12:1 13:0.17873303 
0 0.6722859925253839 0:0 1:0 2:0 3:0 4:0 5:0 6:0 7:0 8:0 9:0 10:0 11:1 12:1 13:0.58896396 
0 1 0:0.1 1:2 2:1 3:1 4:0 5:0 6:0 7:0 8:0 9:0 10:0 11:0 12:0 13:0 
0 1 0:0.0625 1:1 2:1 3:1 4:0 5:0 6:0 7:0 8:0 9:0 10:0 11:0 12:0 13:0 
0 1 0:0.066666667 1:1 2:1 3:1 4:0 5:0 6:0 7:0 8:0 9:0 10:0 11:0 12:0 13:0 
0 1 0:0 1:0 2:0 3:0 4:0 5:0 6:0 7:0 8:0 9:0 10:0 11:0 12:0 13:0 
0 1 0:0 1:0 2:0 3:0 4:0 5:0 6:0 7:0 8:0 9:0 10:0 11:1 12:0 13:0.5 
0 1 0:0 1:0 2:0 3:0 4:0 5:0 6:0 7:0 8:0 9:0 10:0 11:1 12:0 13:0.3 
0 1 0:0 1:0 2:0 3:0 4:0 5:0 6:0 7:0 8:0 9:0 10:0 11:1 12:1 13:0.17259174 
1 1 0:0.066666667 1:1 2:1 3:1 4:0 5:0 6:0 7:0 8:0 9:0 10:0 11:1 12:1 13:-0.0625 
0 1 0:0.066666667 1:1 2:1 3:1 4:0 5:0 6:0 7:0 8:0 9:0 10:0 11:0 12:0 13:0 
0 1 0:0 1:0 2:0 3:0 4:1 5:1 6:0 7:0 8:0 9:0 10:0 11:1 12:0 13:0.5 
0 1 0:0 1:0 2:0 3:0 4:0 5:0 6:0 7:0 8:0 9:0 10:0 11:1 12:1 13:0.14444444 
0 1 0:0 1:0 2:0 3:0 4:0 5:0 6:0 7:0 8:0 9:0 10:0 11:1 12:1 13:0.14516129 
0 1 0:0.13333333 1:2 2:2 3:1 4:1 5:0 6:0 7:0 8:0 9:0 10:0 11:1 12:1 13:-0.1625 
0 1 0:0 1:0 2:0 3:0 4:0 5:0 6:0 7:0 8:0 9:0 10:0 11:0 12:0 13:0 
1 1 0:0 1:0 2:0 3:0 4:0 5:0 6:0 7:0 8:0 9:0 10:1 11:1 12:1 13:0.19117647 
0 1 0:0 1:0 2:0 3:0 4:0 5:0 6:0 7:0 8:0 9:0 10:0 11:0 12:0 13:0 
1 1 0:0.14285714 1:2 2:2 3:1 4:0 5:0 6:0 7:0 8:0 9:0 10:1 11:0 12:0 13:0 
1 1 0:0 1:0 2:0 3:0 4:0 5:0 6:0 7:0 8:0 9:0 10:0 11:1 12:1 13:0.085899152 
1 1 0:0 1:0 2:0 3:0 4:0 5:0 6:0 7:0 8:0 9:0 10:0 11:1 12:1 13:0.085899152 
0 1 0:0 1:0 2:0 3:0 4:0 5:0 6:0 7:0 8:0 9:0 10:0 11:0 12:0 13:0 
1 1 0:0 1:0 2:0 3:0 4:0 5:0 6:0 7:0 8:0 9:0 10:1 11:1 12:1 13:-0.008175278 
1 1 0:0 1:0 2:0 3:0 4:0 5:0 6:0 7:0 8:0 9:0 10:0 11:1 12:1 13:0.047619048 
0 1 0:0.2 1:4 2:4 3:1 4:0 5:0 6:0 7:0 8:0 9:0 10:0 11:0 12:0 13:0 
0 1 0:0.076923077 1:1 2:1 3:1 4:0 5:0 6:0 7:0 8:0 9:0 10:0 11:1 12:1 13:0.21428571 
0 1 0:0 1:0 2:0 3:0 4:0 5:0 6:0 7:0 8:0 9:0 10:0 11:0 12:0 13:0 
1 1 0:0.076923077 1:1 2:1 3:1 4:0 5:0 6:0 7:0 8:0 9:0 10:0 11:0 12:0 13:0 
0 1 0:0.16666667 1:2 2:1 3:1 4:0 5:0 6:0 7:0 8:0 9:0 10:1 11:1 12:1 13:0.13970588 
1 1 0:0 1:0 2:0 3:0 4:0 5:0 6:0 7:0 8:0 9:0 10:0 11:1 12:1 13:0.054455446 
0 1 0:0.1 1:1 2:1 3:1 4:0 5:0 6:0 7:0 8:0 9:0 10:0 11:1 12:1 13:0.13068182 
0 1 0:0 1:0 2:0 3:0 4:0 5:0 6:0 7:0 8:0 9:0 10:0 11:1 12:1 13:0.43867925 
0 1 0:0.066666667 1:1 2:1 3:1 4:1 5:0 6:0 7:0 8:0 9:0 10:0 11:0 12:0 13:0 
0 1 0:0 1:0 2:0 3:0 4:0 5:0 6:0 7:0 8:0 9:0 10:0 11:1 12:1 13:0.47608025 
0 1 0:0 1:0 2:0 3:0 4:0 5:0 6:0 7:0 8:0 9:0 10:0 11:1 12:1 13:0.47608025 
1 1 0:0 1:0 2:0 3:0 4:0 5:0 6:0 7:0 8:0 9:0 10:0 11:1 12:1 13:0.125 
0 1 0:0.10344828 1:3 2:3 3:1 4:0 5:0 6:1 7:0 8:0 9:0 10:0 11:1 12:1 13:0.085899152 
0 1 0:0 1:0 2:0 3:0 4:0 5:0 6:0 7:0 8:0 9:0 10:0 11:1 12:0 13:0.5 
0 1 0:0 1:0 2:0 3:0 4:0 5:0 6:0 7:0 8:0 9:0 10:0 11:0 12:0 13:0 
1 1 0:0.090909091 1:1 2:1 3:1 4:0 5:0 6:0 7:0 8:0 9:0 10:1 11:0 12:0 13:0 
0 1 0:0 1:0 2:0 3:0 4:0 5:0 6:0 7:0 8:0 9:0 10:0 11:1 12:1 13:0.14285714 
0 1 0:0.058823529 1:1 2:0 3:1 4:0 5:0 6:0 7:0 8:0 9:0 10:0 11:0 12:0 13:0 
1 1 0:0.23529412 1:4 2:4 3:1 4:0 5:0 6:0 7:0 8:0 9:0 10:1 11:1 12:1 13:0.11363636 
1 1 0:0.090909091 1:2 2:2 3:1 4:0 5:0 6:0 7:0 8:0 9:0 10:0 11:1 12:1 13:0.085899152 
0 1 0:0.54545455 1:6 2:5 3:1 4:1 5:0 6:0 7:0 8:0 9:0 10:0 11:0 12:0 13:0 
0 1 0:0 1:0 2:0 3:0 4:1 5:0 6:0 7:0 8:0 9:0 10:1 11:0 12:0 13:0 
1 1 0:0 1:0 2:0 3:0 4:0 5:0 6:0 7:0 8:0 9:0 10:0 11:1 12:1 13:0.085899152 
0 1 0:0 1:0 2:0 3:0 4:0 5:0 6:0 7:0 8:0 9:0 10:0 11:1 12:0 13:0.5 
1 1 0:0.055555556 1:1 2:1 3:1 4:0 5:0 6:0 7:0 8:0 9:0 10:0 11:1 12:1 13:0.085899152 
