svm_type c_svc
kernel_type rbf
gamma 0.0714286
nr_class 3
total_sv 6225
rho 0.0862859 -0.352794 -0.128133
label 1 -1 0
nr_sv 2343 1042 2840
SV
0 1 7:1 12:1 13:1 14:0.071428571 
0 1 1:0.058823529 2:1 4:1 12:1 14:0.29166667 
0 1 
1 1 1:0.055555556 2:1 3:1 4:1 11:2 12:1 13:1 14:0.25 
0 1 1:0.076923077 2:1 3:1 4:1 5:1 12:1 13:1 14:0.17156863 
0 1 
0 0.4411084263673693 1:0.23529412 2:4 3:1 4:1 5:1 7:1 
1 1 1:0.14285714 2:1 3:1 4:1 12:1 13:1 14:0.037037037 
0 1 
0 1 1:0.57142857 2:4 3:2 4:1 12:1 14:0.5 
0 1 1:0.11111111 2:1 3:1 4:1 5:1 
1 1 12:1 13:1 14:0.097222222 
0 1 12:1 13:1 14:0.43274854 
0 1 
0 1 1:0.14285714 2:2 3:2 4:1 5:1 
1 1 1:0.066666667 2:1 3:1 4:1 12:1 13:1 14:0.085899152 
0 1 1:0.13333333 2:2 3:1 4:1 12:1 14:0.17647059 
1 1 1:0.066666667 2:1 3:1 4:1 12:1 13:1 
0 1 
0 1 1:0.052631579 2:1 3:1 4:1 5:1 11:1 
0 1 1:0.14285714 2:1 3:1 4:1 5:1 12:1 13:1 14:0.125 
0 1 12:1 14:0.15909091 
0 1 1:0.1875 2:3 3:3 4:1 12:1 13:1 14:0.2125 
1 1 12:1 13:1 14:0.13970588 
0 1 
0 1 1:0.15 2:3 3:2 4:1 
0 1 12:1 13:1 14:0.16666667 
0 1 1:0.076923077 2:1 4:1 12:1 13:1 14:0.21212121 
1 1 1:0.083333333 2:1 3:1 4:1 
1 1 11:1 12:1 13:1 14:0.37297466 
0 1 1:0.083333333 2:1 3:1 4:1 5:1 12:1 13:1 14:0.17857143 
1 1 12:1 13:1 14:0.053571429 
1 1 11:1 12:1 13:1 14:0.14545455 
1 1 1:0.076923077 2:1 3:1 4:1 12:1 13:1 
0 1 12:1 14:0.5 
0 1 1:0.42857143 2:6 3:4 4:1 
1 1 12:1 13:1 14:0.071428571 
1 1 1:0.052631579 2:1 3:1 4:1 5:1 6:1 11:1 12:1 13:1 
0 1 1:0.066666667 2:1 4:1 12:1 13:1 14:0.11363636 
1 1 1:0.13333333 2:2 3:2 4:1 12:1 13:1 14:0.085899152 
1 1 1:0.15789474 2:3 3:3 4:1 5:2 6:2 12:1 13:1 14:0.2 
1 1 11:1 
0 1 
1 1 12:1 13:1 14:0.085899152 
0 1 5:1 12:1 13:1 14:-0.038461538 
0 1 12:1 13:1 14:0.14545455 
0 1 
0 1 1:0.15384615 2:2 3:2 4:1 12:1 13:1 14:0.14705882 
0 1 1:0.0625 2:1 4:1 5:1 
1 1 12:1 13:1 14:0.035714286 
0 1 1:0.045454545 2:1 3:1 4:1 12:1 14:0.25 
0 1 1:0.076923077 2:1 3:1 4:1 5:1 
1 1 12:1 13:1 14:0.085899152 
0 1 12:1 13:1 14:0.175 
0 1 1:0.125 2:2 3:2 4:1 12:1 14:0.5 
1 1 1:0.058823529 2:1 3:1 4:1 12:1 13:1 14:0.047619048 
0 1 
0 1 1:0.083333333 2:1 3:1 4:1 12:1 13:1 14:0.21428571 
0 1 1:0.090909091 2:1 4:1 5:1 
0 1 
0 1 1:0.076923077 2:1 3:1 4:1 12:1 13:1 14:0.10377358 
1 1 12:1 13:1 14:0.12974684 
0 1 1:0.16666667 2:2 3:1 4:1 5:1 6:1 
0 1 1:0.066666667 2:1 4:1 11:1 
1 1 5:1 6:1 12:1 13:1 14:0.070512821 
0 1 1:0.055555556 2:1 4:1 
1 1 1:0.14285714 2:1 3:1 4:1 12:1 13:1 14:0.083333333 
1 1 1:0.083333333 2:1 3:1 4:1 11:1 12:1 13:1 14:0.1 
1 1 12:1 13:1 14:-0.058467742 
1 1 1:0.0625 2:1 3:1 4:1 5:1 6:1 12:1 13:1 14:0.13068182 
1 1 1:0.14285714 2:2 3:2 4:1 12:1 13:1 14:0.1016297 
1 1 5:1 6:1 12:1 13:1 
1 1 5:1 6:1 11:1 
1 1 1:0.17647059 2:3 3:3 4:1 12:1 13:1 14:-0.0875 
1 1 12:1 13:1 14:-0.15625 
1 1 1:0.076923077 2:1 3:1 4:1 12:1 13:1 14:0.085899152 
0 1 12:1 13:1 14:0.16477273 
0 1 
0 1 12:1 13:1 14:0.17857143 
0 1 
0 1 
0 1 
1 1 5:1 6:1 12:1 13:1 14:0.16666667 
0 1 12:1 13:1 14:0.16666667 
0 1 12:1 14:0.5 
0 1 1:0.14285714 2:2 3:1 4:1 
1 1 12:1 13:1 14:0.075 
0 1 1:0.11111111 2:2 3:2 4:1 12:1 14:0.34615385 
1 1 11:1 
1 1 5:1 6:1 12:1 13:1 14:0.071428571 
0 1 12:1 14:0.125 
0 1 1:0.052631579 2:1 3:1 4:1 11:1 12:1 14:0.16666667 
0 1 12:1 14:0.45 
0 1 
1 1 5:1 6:1 12:1 13:1 14:0.014285714 
0 1 
1 1 1:0.047619048 2:1 3:1 4:1 11:1 12:1 13:1 14:0.25 
0 1 1:0.076923077 2:1 4:1 12:1 14:0.15909091 
0 1 
0 1 
0 1 12:1 14:0.23913043 
0 1 
1 1 1:0.052631579 2:1 3:1 4:1 12:1 13:1 14:0.041666667 
1 1 12:1 13:1 14:-0.023809524 
0 1 5:1 11:1 
0 1 1:0.0625 2:1 3:1 4:1 12:1 14:0.16666667 
0 1 12:1 13:1 14:0.1875 
0 1 12:1 13:1 14:0.25 
1 1 11:1 12:1 13:1 14:0.075 
1 1 12:1 13:1 14:0.085899152 
0 1 1:0.21428571 2:3 3:1 4:1 
1 1 11:1 12:1 13:1 14:-0.1 
1 1 5:1 6:1 
0 1 12:1 14:0.375 
0 1 12:1 13:1 14:0.21818182 
1 1 1:0.055555556 2:1 3:1 4:1 12:1 13:1 14:-0.066666667 
0 1 1:0.10526316 2:2 4:1 12:1 13:1 14:0.085899152 
0 1 1:0.071428571 2:1 3:1 4:1 12:1 13:1 14:0.15789474 
0 1 
0 1 
0 1 1:0.076923077 2:1 3:1 4:1 12:1 13:1 14:0.1875 
0 1 1:0.045454545 2:1 4:1 
1 1 1:0.076923077 2:1 3:1 4:1 12:1 13:1 14:0.041666667 
0 1 
1 1 12:1 13:1 14:0.078125 
1 1 1:0.0625 2:1 3:1 4:1 11:1 
1 1 12:1 13:1 14:-0.038461538 
0 1 1:0.052631579 2:1 3:1 4:1 12:1 13:1 14:0.2037037 
0 1 1:0.066666667 2:1 4:1 
0 1 
0 1 1:0.1 2:2 3:2 4:1 5:1 12:1 13:1 14:0.22222222 
0 1 12:1 13:1 14:0.5 
0 1 
0 1 
0 1 12:1 14:0.5 
1 1 1:0.071428571 2:1 3:1 4:1 12:1 13:1 14:-0.0048076923 
1 1 12:1 13:1 14:0.076923077 
0 1 1:0.052631579 2:1 3:1 4:1 12:1 14:0.1 
1 1 12:1 13:1 
0 1 1:0.076923077 2:1 4:1 
1 1 5:1 6:1 
1 1 1:0.090909091 2:1 3:1 4:1 
0 1 12:1 14:0.125 
1 1 12:1 13:1 14:0.055555556 
1 1 1:0.052631579 2:1 3:1 4:1 5:1 6:1 11:1 12:1 13:1 14:0.12658228 
1 1 12:1 13:1 14:0.085899152 
0 1 12:1 13:1 14:0.14724576 
0 1 
1 1 11:2 12:1 13:1 14:-0.008175278 
0 1 1:0.17647059 2:3 3:2 4:1 12:1 13:1 14:0.58896396 
0 1 
0 1 12:1 13:1 14:0.26470588 
1 1 12:1 13:1 14:0.085899152 
0 1 12:1 13:1 14:0.21818182 
0 1 
0 1 
1 1 12:1 13:1 14:0.12096774 
1 0 7:1 11:1 12:1 13:1 14:0.10135135 
1 1 12:1 13:1 14:-0.03125 
0 1 1:0.083333333 2:1 4:1 12:1 13:1 14:-0.083333333 
0 1 12:1 13:1 14:0.14285714 
1 1 1:0.058823529 2:1 4:1 11:1 12:1 13:1 14:-0.55288462 
0 1 1:0.3 2:3 3:2 4:1 5:1 11:1 12:1 13:1 14:0.140625 
0 1 1:0.055555556 2:1 4:1 12:1 13:1 14:0.16666667 
0 1 12:1 13:1 14:0.14163237 
0 1 12:1 13:1 14:0.1744186 
0 1 1:0.076923077 2:1 4:1 
0 1 
0 1 1:0.090909091 2:1 4:1 7:1 
1 1 12:1 13:1 14:0.05801105 
0 1 
0 1 12:1 13:1 14:0.14545455 
0 1 1:0.090909091 2:1 4:1 
0 1 12:1 13:1 14:0.15306122 
1 1 11:1 12:1 13:1 14:0.10818713 
0 1 12:1 13:1 14:0.2 
1 1 11:1 12:1 13:1 14:0.055555556 
0 1 
1 1 12:1 13:1 14:0.085899152 
0 1 12:1 14:0.5 
0 1 
0 1 12:1 13:1 14:0.32142857 
0 1 5:1 12:1 13:1 14:0.015151515 
1 1 1:0.04 2:1 3:1 4:1 11:1 12:1 13:1 14:0.25 
0 1 1:0.05 2:1 3:1 4:1 
0 1 1:0.14285714 2:2 3:2 4:1 12:1 13:1 14:0.14108352 
1 1 11:1 
0 1 1:0.076923077 2:1 4:1 12:1 13:1 14:0.17857143 
1 1 12:1 13:1 14:-0.125 
0 1 1:0.055555556 2:1 3:1 4:1 
0 1 1:0.058823529 2:1 3:1 4:1 12:1 13:1 14:0.23863636 
0 1 1:0.14285714 2:2 3:2 4:1 
1 1 1:0.2 2:2 3:2 4:1 
0 1 
1 1 1:0.125 2:2 3:2 4:1 9:1 11:1 
1 1 12:1 13:1 14:-0.045454545 
0 1 
0 1 1:0.125 2:2 3:1 4:1 5:1 12:1 13:1 14:0.085899152 
0 1 1:0.15384615 2:2 3:2 4:1 12:1 14:0.5625 
0 1 1:0.055555556 2:1 4:1 12:1 14:0.5 
0 1 1:0.14285714 2:2 3:2 4:1 5:1 
0 1 12:1 13:1 14:0.16477273 
0 1 12:1 13:1 14:0.14545455 
1 1 12:1 13:1 14:0.125 
1 1 12:1 13:1 14:0.0625 
1 1 12:1 13:1 14:-0.12962963 
0 1 
1 1 1:0.076923077 2:1 3:1 4:1 12:1 13:1 14:0.1016297 
0 1 12:1 13:1 14:0.18965517 
0 1 5:1 12:1 13:1 14:0.028846154 
0 1 12:1 14:0.5 
0 1 
1 1 11:2 
1 1 11:1 12:1 13:1 14:0.16666667 
0 1 1:0.38461538 2:5 3:4 4:1 9:1 
0 1 12:1 13:1 14:0.18571429 
1 1 1:0.17647059 2:3 3:3 4:1 12:1 13:1 14:-0.0875 
0 1 12:1 13:1 14:0.46969697 
1 1 1:0.0625 2:1 3:1 4:1 11:1 
0 1 12:1 13:1 14:0.24450549 
1 1 11:1 12:1 13:1 14:0.17259174 
0 1 
0 1 
0 1 
1 1 12:1 13:1 14:-0.071428571 
0 1 12:1 13:1 14:0.14705882 
0 1 
0 1 1:0.083333333 2:1 3:1 4:1 12:1 14:0.34615385 
0 1 12:1 13:1 14:0.16666667 
0 1 12:1 13:1 14:0.14285714 
0 1 12:1 13:1 14:0.25 
0 1 
1 1 1:0.058823529 2:1 3:1 4:1 11:4 12:1 14:0.27777778 
0 1 1:0.076923077 2:1 3:1 4:1 12:1 14:0.5 
0 1 12:1 13:1 14:0.18421053 
1 1 12:1 13:1 14:0.076923077 
0 1 1:0.076923077 2:1 3:1 4:1 12:1 14:0.5 
0 1 12:1 13:1 14:0.28205128 
0 1 1:0.083333333 2:2 3:1 4:1 12:1 13:1 14:0.085899152 
0 1 12:1 13:1 14:0.14545455 
0.4283133254892149 1 1:0.16666667 2:2 3:2 4:1 7:1 11:1 12:1 13:1 14:-0.008175278 
1 1 1:0.058823529 2:1 3:1 4:1 11:2 12:1 13:1 14:0.14163237 
1 1 12:1 13:1 
0 1 1:0.15384615 2:2 3:1 4:1 12:1 13:1 14:0.1744186 
0 1 1:0.125 2:1 3:1 4:1 12:1 14:0.5 
0 1 
0 1 1:0.1 2:1 3:1 4:1 7:1 
1 1 11:1 
1 1 12:1 13:1 14:0.1016297 
1 1 12:1 13:1 14:0.11521739 
0 1 5:1 12:1 13:1 14:0.0625 
1 1 1:0.42857143 2:6 3:6 4:1 12:1 13:1 
0 1 1:0.058823529 2:1 3:1 4:1 12:1 13:1 14:0.16666667 
1 1 1:0.125 2:2 3:2 4:1 12:1 13:1 14:0.085899152 
0 1 12:1 13:1 14:0.14545455 
1 1 12:1 13:1 14:0.1016297 
1 1 12:1 13:1 14:0.085899152 
0 1 
1 1 12:1 13:1 14:0.085899152 
0 1 1:0.10526316 2:2 4:1 5:1 
0 0.05711636727134838 9:1 
0 1 
0 1 1:0.0625 2:1 3:1 4:1 5:1 
0 1 
1 1 12:1 13:1 14:0.085899152 
0 1 1:0.071428571 2:1 4:1 
0 1 
0 0.2676551677261924 5:2 6:1 12:1 14:0.16666667 
0 1 7:1 12:1 13:1 14:-0.125 
0 1 1:0.17647059 2:3 3:2 4:1 12:1 13:1 14:0.58896396 
0 1 
0 1 1:0.071428571 2:1 3:1 4:1 12:1 13:1 14:0.18965517 
1 1 11:1 
0 1 5:1 12:1 13:1 14:0.076923077 
0 1 1:0.41666667 2:5 3:4 4:1 
0 1 
0.8692674385732951 1 5:1 6:1 12:1 13:1 14:0.29222973 
1 1 1:0.090909091 2:1 3:1 4:1 
0 1 1:0.090909091 2:1 4:1 
0 1 1:0.125 2:1 3:1 4:1 12:1 13:1 14:0.25 
1 1 11:1 
1 1 11:2 
0 1 1:0.23076923 2:3 4:1 8:1 12:1 14:0.5 
0 1 
1 1 5:1 6:1 12:1 13:1 14:0.085899152 
0 1 
1 1 11:1 
1 1 11:1 
1 1 1:0.11111111 2:1 3:1 4:1 5:1 6:1 
0 1 1:0.11111111 2:1 4:1 
0 1 
0 1 12:1 13:1 14:0.14545455 
1 1 11:1 12:1 13:1 14:0.19444444 
0 1 12:1 13:1 14:0.58896396 
0 1 7:1 12:1 13:1 
0 1 12:1 14:0.5 
0 1 12:1 13:1 14:0.14163237 
1 1 11:1 12:1 13:1 14:0.13636364 
0 1 1:0.15384615 2:2 3:2 4:1 12:1 13:1 14:0.21686747 
0 1 1:0.21428571 2:3 3:3 4:1 11:1 12:1 14:0.5 
0 1 1:0.083333333 2:1 4:1 5:1 
1 1 12:1 13:1 14:0.085899152 
0 1 1:0.058823529 2:1 3:1 4:1 
0 1 1:0.083333333 2:1 3:1 4:1 12:1 13:1 14:0.11521739 
1 1 11:1 
0 1 1:0.0625 2:1 3:1 4:1 
1 1 12:1 13:1 14:0.085899152 
1 1 11:1 12:1 13:1 14:0.16666667 
1 1 12:1 13:1 14:0.085899152 
1 1 12:1 13:1 
1 1 1:0.22222222 2:2 3:2 4:1 5:1 6:1 11:1 12:1 13:1 14:-0.008175278 
0 1 1:0.055555556 2:1 4:1 12:1 14:0.25 
0 1 12:1 13:1 14:0.1625 
0 1 1:0.066666667 2:1 3:1 4:1 5:3 6:2 12:1 13:1 14:0.125 
0 1 1:0.14285714 2:2 3:2 4:1 9:1 
1 1 12:1 13:1 14:0.12286689 
1 1 1:0.11111111 2:1 3:1 4:1 11:1 12:1 13:1 14:0.029411765 
0 1 1:0.052631579 2:1 3:1 4:1 12:1 13:1 14:0.10714286 
0 1 1:0.066666667 2:1 3:1 4:1 12:1 13:1 14:0.58896396 
0 1 12:1 13:1 14:0.16666667 
0 1 1:0.10526316 2:2 3:1 4:1 12:1 13:1 14:0.125 
1 1 11:1 
1 1 1:0.086956522 2:2 3:2 4:1 11:1 12:1 13:1 14:0.25 
1 1 1:0.083333333 2:1 3:1 4:1 11:1 
0 1 
1 1 1:0.1 2:1 3:1 4:1 12:1 13:1 14:0.069444444 
1 1 12:1 13:1 14:0.010204082 
1 1 11:1 12:1 13:1 14:0.140625 
1 1 1:0.1 2:1 3:1 4:1 5:1 6:1 12:1 13:1 14:0.085899152 
0 1 1:0.045454545 2:1 4:1 
1 1 11:1 12:1 13:1 14:0.085899152 
0 1 
1 1 1:0.071428571 2:1 3:1 4:1 11:1 12:1 13:1 14:0.091240876 
0 1 
0 1 1:0.05 2:1 4:1 12:1 14:0.5 
0 1 12:1 14:0.33333333 
0.8313600023758716 1 1:0.42857143 2:12 3:8 4:1 
0 1 12:1 13:1 14:0.18344371 
0 1 
0 1 
0 1 1:0.058823529 2:1 3:1 4:1 12:1 13:1 14:0.12601626 
1 1 12:1 13:1 14:-0.12916667 
0 1 12:1 13:1 14:0.26 
0 1 1:0.055555556 2:1 3:1 4:1 12:1 13:1 14:0.14285714 
0 1 1:0.083333333 2:1 3:1 4:1 5:2 6:1 12:1 13:1 14:0.2125 
0 1 12:1 13:1 14:0.14163237 
0 1 1:0.1 2:1 3:1 4:1 12:1 14:0.25 
1 1 12:1 13:1 14:0.1016297 
1 1 1:0.058823529 2:1 3:1 4:1 11:1 12:1 13:1 14:0.125 
0 1 
0 1 12:1 13:1 14:0.18965517 
0 1 12:1 13:1 14:0.17259174 
1 1 12:1 13:1 14:0.1016297 
0 1 5:1 11:1 
0 1 5:1 6:1 12:1 14:0.5 
0 1 1:0.066666667 2:1 3:1 4:1 5:1 12:1 13:1 14:0.17259174 
1 1 1:0.15789474 2:3 3:3 4:1 5:1 6:1 12:1 13:1 14:0.10927152 
0 1 12:1 13:1 14:0.52840909 
0 1 1:0.1 2:2 3:2 4:1 
0 1 7:1 12:1 13:1 14:0.090909091 
0 1 
1 1 12:1 13:1 14:0.085899152 
1 1 12:1 13:1 14:0.075 
0 1 1:0.14285714 2:2 3:1 4:1 12:1 13:1 14:0.055555556 
0 1 
1 1 5:1 6:1 12:1 13:1 14:0.1875 
0 1 1:0.14285714 2:1 3:1 4:1 12:1 13:1 14:0.14724576 
0 1 1:0.18181818 2:2 3:2 4:1 11:1 12:1 14:0.5 
1 1 11:2 12:1 13:1 14:0.20833333 
1 1 12:1 13:1 14:0.13333333 
0 1 1:0.0625 2:1 3:1 4:1 5:1 12:1 13:1 14:0.12286689 
1 1 12:1 13:1 14:0.085899152 
1 1 1:0.2 2:2 3:2 4:1 12:1 13:1 14:0.097744361 
0 0.005869348448981576 1:0.052631579 2:1 3:1 4:1 7:1 12:1 13:1 14:0.14163237 
1 1 1:0.090909091 2:1 3:1 4:1 11:1 12:1 13:1 14:-0.05 
0 1 
1 1 12:1 13:1 14:0.085899152 
1 1 12:1 13:1 14:0.031914894 
0 1 1:0.055555556 2:1 3:1 4:1 12:1 14:0.11538462 
1 1 12:1 13:1 14:0.13636364 
0 1 9:1 
0 1 1:0.10526316 2:2 3:1 4:1 5:2 6:1 12:1 13:1 14:0.071428571 
1 1 11:1 
0 1 1:0.052631579 2:1 3:1 4:1 7:1 12:1 13:1 14:0.0625 
1 1 5:1 6:1 11:1 12:1 13:1 14:-0.008175278 
0 1 1:0.055555556 2:1 3:1 4:1 12:1 14:0.22222222 
0 0.434492228865437 1:0.066666667 2:1 3:1 4:1 5:7 6:2 12:1 13:1 14:0.58896396 
0 1 5:2 6:1 
1 1 12:1 13:1 14:-0.12916667 
0 1 9:1 12:1 13:1 14:0.075 
0 1 12:1 13:1 14:0.16666667 
1 1 11:1 12:1 13:1 14:0.46607143 
0 1 1:0.043478261 2:1 4:1 11:1 12:1 13:1 14:-0.0625 
1 1 12:1 13:1 14:0.10927152 
0 1 5:2 6:1 
0 1 
0 1 7:1 12:1 13:1 14:0.052631579 
0 1 12:1 14:0.46428571 
1 1 12:1 13:1 14:0.13461538 
0 1 
0 1 1:0.090909091 2:1 4:1 
1 1 1:0.071428571 2:1 3:1 4:1 12:1 13:1 14:-0.06122449 
1 1 1:0.11111111 2:1 3:1 4:1 12:1 13:1 14:0.045454545 
0 1 
0 0.6165387378967043 1:0.11111111 2:1 3:1 4:1 7:1 11:1 
0 1 
0 1 12:1 14:0.25 
0 1 12:1 13:1 14:0.17857143 
1 1 1:0.066666667 2:1 3:1 4:1 
1 1 11:1 12:1 13:1 14:0.10927152 
1 1 11:1 
1 1 11:1 12:1 13:1 14:0.085899152 
0 1 1:0.11764706 2:2 3:2 4:1 5:2 6:1 12:1 13:1 14:0.25 
0 1 1:0.125 2:2 3:2 4:1 12:1 13:1 14:0.28125 
0 1 
0 1 1:0.0625 2:1 4:1 5:1 6:1 
0 1 1:0.17647059 2:3 3:3 4:1 5:1 12:1 13:1 14:0.0625 
1 1 1:0.17647059 2:3 3:3 4:1 11:1 12:1 13:1 14:0.03125 
0 1 1:0.0625 2:1 3:1 4:1 12:1 13:1 14:0.325 
0 1 1:0.14285714 2:2 3:1 4:1 12:1 14:0.16666667 
1 1 11:1 12:1 13:1 14:0.125 
0 1 1:0.14285714 2:2 3:1 4:1 5:1 
0 1 9:1 
0 1 
1 1 12:1 13:1 14:0.13636364 
0 1 1:0.21052632 2:4 3:4 4:1 12:1 14:0.5 
1 1 12:1 13:1 14:0.10883621 
0 1 5:1 12:1 13:1 14:0.05801105 
1 1 12:1 13:1 14:0.13461538 
0 1 1:0.066666667 2:1 4:1 12:1 13:1 14:0.045454545 
0 1 1:0.066666667 2:1 3:1 4:1 12:1 13:1 14:0.16666667 
0.8527774012606227 0.0709539249426642 5:1 6:1 9:1 
1 1 1:0.090909091 2:1 3:1 4:1 
1 1 1:0.090909091 2:1 3:1 4:1 
0 1 1:0.052631579 2:1 3:1 4:1 5:1 
0 1 
1 1 1:0.0625 2:1 3:1 4:1 5:1 6:1 12:1 13:1 14:0.1875 
0 1 
0 1 1:0.23076923 2:3 3:2 4:1 12:1 13:1 
0 1 1:0.043478261 2:1 3:1 4:1 12:1 14:0.5 
1 1 11:1 12:1 13:1 14:-0.008175278 
0 1 
0 1 5:1 12:1 13:1 14:-0.0048076923 
0 1 1:0.055555556 2:1 3:1 4:1 12:1 13:1 14:0.175 
1 1 11:1 
0 1 1:0.18181818 2:2 3:2 4:1 5:1 12:1 13:1 14:0.3 
0 1 1:0.0625 2:1 4:1 
1 1 8:1 
0 1 1:0.15384615 2:2 3:1 4:1 12:1 14:0.45 
0 1 12:1 14:0.5 
1 1 1:0.125 2:2 3:2 4:1 12:1 13:1 14:0.11904762 
1 1 1:0.083333333 2:1 3:1 4:1 
0 1 1:0.083333333 2:1 4:1 7:1 
0 1 
1 1 1:0.058823529 2:1 3:1 4:1 12:1 13:1 14:0.0625 
0 1 12:1 13:1 14:0.31818182 
0 1 12:1 14:0.3 
1 1 1:0.076923077 2:1 3:1 4:1 11:1 
0 1 
1 1 12:1 13:1 14:0.054455446 
0 1 1:0.125 2:2 4:1 11:1 12:1 13:1 14:0.125 
1 1 1:0.083333333 2:1 3:1 4:1 11:1 
1 1 11:1 12:1 13:1 14:0.23529412 
1 1 11:1 
0 1 12:1 14:0.4375 
0 1 1:0.11764706 2:2 3:1 4:1 12:1 13:1 14:0.029411765 
1 1 11:1 
1 1 12:1 13:1 14:-0.098214286 
0 1 1:0.083333333 2:1 4:1 
1 1 11:1 
0 1 1:0.071428571 2:1 3:1 4:1 12:1 13:1 14:0.21818182 
0 1 12:1 13:1 14:0.32142857 
0 1 1:0.066666667 2:1 4:1 11:1 12:1 13:1 14:0.052631579 
0 1 12:1 13:1 14:0.14163237 
0 1 
1 1 12:1 13:1 14:0.1016297 
1 1 1:0.052631579 2:1 3:1 4:1 12:1 13:1 14:-0.13095238 
0 1 1:0.058823529 2:1 4:1 12:1 14:0.25 
0 1 1:0.083333333 2:1 3:1 4:1 12:1 13:1 14:0.58896396 
0 1 
1 1 12:1 13:1 14:0.097744361 
0 1 1:0.055555556 2:1 3:1 4:1 
1 1 1:0.066666667 2:1 3:1 4:1 12:1 13:1 14:0.085899152 
0 1 1:0.058823529 2:1 3:1 4:1 12:1 13:1 14:0.35 
0 1 5:1 6:1 12:1 14:0.25 
0 1 12:1 14:0.5 
0 1 1:0.055555556 2:1 4:1 
0 1 1:0.066666667 2:1 3:1 4:1 5:1 11:1 
1 1 1:0.058823529 2:1 3:1 4:1 11:1 12:1 13:1 14:0.054455446 
1 1 12:1 13:1 14:0.0625 
0 1 
1 1 12:1 13:1 14:0.12 
1 1 12:1 13:1 14:0.13513514 
1 1 1:0.083333333 2:1 3:1 4:1 
0 1 1:0.11111111 2:2 3:1 4:1 12:1 13:1 14:0.11363636 
0 1 1:0.14285714 2:2 3:2 4:1 
0 1 12:1 13:1 14:0.13978495 
0 1 1:0.071428571 2:1 3:1 4:1 12:1 13:1 14:0.17857143 
0 1 11:1 12:1 14:0.1875 
0 1 1:0.052631579 2:1 3:1 4:1 5:1 12:1 13:1 14:0.1125 
1 1 11:2 12:1 14:0.25 
0 1 
1 1 11:1 
0 1 1:0.083333333 2:1 3:1 4:1 12:1 14:0.5 
1 1 12:1 13:1 14:0.085899152 
0 1 1:0.05 2:1 3:1 4:1 5:3 6:2 9:1 
0 1 1:0.076923077 2:1 4:1 12:1 13:1 14:0.085899152 
1 1 1:0.16666667 2:1 3:1 4:1 12:1 13:1 
0 1 12:1 13:1 14:0.25 
1 1 11:2 
0 1 1:0.28571429 2:4 3:4 4:1 12:1 13:1 14:0.37297466 
1 1 11:1 12:1 13:1 14:0.016666667 
0 1 
1 1 11:1 12:1 13:1 14:0.085899152 
0 1 
1 1 11:2 12:1 13:1 14:0.10927152 
0 1 
0 1 12:1 14:0.5 
1 1 1:0.3 2:3 3:3 4:1 12:1 13:1 14:0.14163237 
0 1 1:0.11764706 2:2 3:1 4:1 
0 1 1:0.15384615 2:2 3:1 4:1 12:1 13:1 
1 1 11:2 12:1 13:1 14:0.11111111 
1 1 11:1 12:1 13:1 14:-0.008175278 
0 1 
1 1 1:0.066666667 2:1 3:1 4:1 11:1 12:1 13:1 
0 1 12:1 14:0.25 
0 1 12:1 14:0.33333333 
0 1 12:1 13:1 14:0.24450549 
0 1 7:1 12:1 13:1 14:0.0625 
0 1 
0 1 1:0.125 2:2 3:2 4:1 12:1 14:0.5 
0 1 
0 1 1:0.076923077 2:1 3:1 4:1 12:1 13:1 14:0.3255814 
1 1 11:1 12:1 13:1 14:0.125 
0 1 5:1 12:1 13:1 14:0.027027027 
0 1 
0 1 1:0.14285714 2:1 4:1 
0 1 1:0.066666667 2:1 3:1 4:1 5:1 12:1 13:1 14:0.028846154 
0 1 
0 1 12:1 13:1 14:0.26923077 
1 1 1:0.0625 2:1 3:1 4:1 11:1 
0 1 
0 1 1:0.15 2:3 3:1 4:1 5:1 
0 1 7:1 12:1 13:1 14:0.085899152 
0 1 1:0.071428571 2:1 3:1 4:1 12:1 14:0.5 
0 1 1:0.071428571 2:1 3:1 4:1 12:1 14:0.5 
0 0.1749248152941507 1:0.090909091 2:1 3:1 4:1 12:1 14:0.56617647 
0 1 1:0.071428571 2:1 4:1 
1 1 11:2 
1 1 1:0.066666667 2:1 3:1 4:1 12:1 13:1 14:0.075 
0 1 12:1 13:1 14:0.21428571 
1 1 12:1 13:1 14:0.036585366 
0 1 5:4 6:3 11:1 12:1 14:0.5 
1 1 12:1 13:1 14:0.125 
0 1 
0 1 1:0.11111111 2:1 4:1 12:1 13:1 14:0.1875 
1 1 12:1 13:1 14:0.092592593 
0 1 1:0.14285714 2:2 3:2 4:1 12:1 14:0.5 
1 1 11:1 
0 1 12:1 13:1 14:0.21428571 
0 1 1:0.047619048 2:1 3:1 4:1 12:1 13:1 14:0.14705882 
1 1 12:1 13:1 14:-0.045454545 
0 1 12:1 13:1 14:0.14516129 
0 1 
0 1 12:1 14:0.28571429 
1 1 11:1 12:1 13:1 14:0.234375 
1 1 5:1 6:1 11:1 12:1 13:1 
0 1 1:0.066666667 2:1 4:1 
0 1 1:0.066666667 2:1 3:1 4:1 12:1 14:0.5 
1 1 11:1 12:1 13:1 14:-0.008175278 
0 1 1:0.11111111 2:1 3:1 4:1 12:1 14:0.125 
0 1 1:0.071428571 2:1 3:1 4:1 12:1 13:1 14:0.18859649 
0 1 1:0.11764706 2:2 3:1 4:1 12:1 14:0.076923077 
1 1 1:0.090909091 2:1 3:1 4:1 
0 1 1:0.047619048 2:1 3:1 4:1 
0 1 5:1 6:1 12:1 14:0.33333333 
0 1 12:1 13:1 14:0.19117647 
0 1 7:1 12:1 13:1 14:-0.055555556 
1 1 1:0.11111111 2:1 3:1 4:1 5:1 6:1 
1 1 12:1 13:1 14:-0.055555556 
0 1 
1 0 5:1 11:2 12:1 13:1 14:0.15 
0 1 12:1 13:1 14:0.17672414 
0 1 
1 1 12:1 13:1 14:0.11666667 
0 1 1:0.058823529 2:1 3:1 4:1 12:1 14:0.15 
1 1 11:1 12:1 13:1 14:0.038461538 
0 1 12:1 13:1 14:0.18344371 
0 1 
0 1 1:0.125 2:2 3:1 4:1 12:1 13:1 14:0.46607143 
0 1 7:1 12:1 13:1 14:0.085899152 
0 1 1:0.095238095 2:2 3:1 4:1 12:1 13:1 14:0.14724576 
0 1 12:1 13:1 14:0.58896396 
0 1 7:1 12:1 13:1 14:0.097744361 
0 1 1:0.052631579 2:1 4:1 12:1 14:0.375 
1 1 1:0.071428571 2:1 3:1 4:1 
1 1 12:1 13:1 14:0.085899152 
0 1 1:0.125 2:2 3:1 4:1 11:1 12:1 13:1 14:-0.008175278 
1 1 11:1 
1 1 1:0.1 2:2 3:2 4:1 12:1 13:1 14:0.1016297 
1 1 1:0.083333333 2:1 3:1 4:1 
1 1 1:0.047619048 2:1 3:1 4:1 11:1 
0 1 
1 1 12:1 13:1 14:0.033333333 
1 1 1:0.071428571 2:1 3:1 4:1 12:1 13:1 14:0.027027027 
0 1 
1 1 1:0.15 2:3 3:3 4:1 12:1 13:1 14:0.090909091 
0 1 1:0.047619048 2:1 3:1 4:1 
0 1 12:1 13:1 14:0.14545455 
1 1 11:1 
1 1 12:1 13:1 
0 1 1:0.071428571 2:1 3:1 4:1 12:1 14:0.46428571 
0 1 1:0.0625 2:1 3:1 4:1 12:1 13:1 14:0.1016297 
0 1 1:0.058823529 2:1 3:1 4:1 12:1 14:0.25 
1 1 12:1 13:1 14:0.13970588 
1 1 1:0.11111111 2:1 3:1 4:1 12:1 13:1 14:0.074324324 
0 1 
0 1 
0 1 
0 1 
1 1 12:1 13:1 14:0.085899152 
1 1 11:1 
1 1 1:0.33333333 2:2 3:2 4:1 
0 1 1:0.052631579 2:1 4:1 12:1 13:1 14:0.074626866 
0 1 1:0.090909091 2:1 3:1 4:1 12:1 14:0.25 
0 1 1:0.14285714 2:1 3:1 4:1 7:1 12:1 13:1 14:0.11538462 
0 1 12:1 14:0.25 
0 1 12:1 13:1 14:0.15384615 
0 1 1:0.15789474 2:3 3:3 4:1 
0 1 
0 1 12:1 13:1 14:0.23636364 
0 1 
0 1 
0 1 12:1 13:1 14:0.32142857 
0 1 
0 1 12:1 13:1 14:0.37297466 
1 1 5:2 6:2 12:1 13:1 14:0.17857143 
1 1 1:0.083333333 2:1 3:1 4:1 11:1 12:1 13:1 14:-0.008175278 
1 1 12:1 13:1 14:-0.125 
0 1 
1 1 1:0.11111111 2:1 3:1 4:1 5:1 6:1 11:1 12:1 13:1 14:0.10883621 
0 1 
0 1 12:1 13:1 14:0.38175676 
1 1 1:0.16666667 2:1 3:1 4:1 12:1 13:1 14:0.071428571 
0 1 
0 1 12:1 14:0.25 
1 1 5:1 6:1 12:1 13:1 14:0.1875 
0 1 1:0.47368421 2:9 3:7 4:1 12:1 13:1 14:0.1875 
1 1 1:0.058823529 2:1 3:1 4:1 12:1 13:1 14:0.08 
0 1 12:1 13:1 14:0.43274854 
1 1 11:1 
1 1 1:0.11111111 2:1 3:1 4:1 
0 1 1:0.05 2:1 3:1 4:1 
0 1 12:1 13:1 14:0.18859649 
0 1 
1 1 12:1 13:1 14:0.080645161 
0 1 1:0.15384615 2:2 3:2 4:1 12:1 13:1 14:0.15625 
0 1 
0 1 
0 1 12:1 13:1 14:0.58896396 
0 1 1:0.055555556 2:1 3:1 4:1 5:1 12:1 13:1 14:0.1016297 
1 1 1:0.038461538 2:1 3:1 4:1 11:1 
1 0 1:0.090909091 2:1 3:1 4:1 11:2 12:1 13:1 14:0.7625 
0 1 12:1 13:1 14:0.37297466 
0 1 
0 1 1:0.058823529 2:1 4:1 12:1 13:1 14:0.095744681 
0 1 
0 1 5:3 6:2 12:1 14:0.4 
0 1 
1 1 11:1 12:1 13:1 14:0.14545455 
1 1 11:1 12:1 13:1 14:0.033333333 
0 1 
1 1 11:1 
1 1 12:1 13:1 14:0.10377358 
0 1 12:1 14:0.2 
0 1 1:0.0625 2:1 3:1 4:1 12:1 13:1 14:0.22222222 
1 1 11:1 
0 1 1:0.055555556 2:1 3:1 4:1 5:1 12:1 13:1 14:0.0625 
0 1 
1 1 11:1 12:1 13:1 14:-0.008175278 
1 1 1:0.045454545 2:1 3:1 4:1 12:1 13:1 14:0.085899152 
0 1 1:0.083333333 2:1 3:1 4:1 12:1 14:0.25 
0 1 
0 1 1:0.076923077 2:1 4:1 
0 1 1:0.1 2:1 4:1 
0 1 12:1 13:1 14:0.16666667 
0 1 
0 1 1:0.13333333 2:2 3:2 4:1 12:1 14:0.25 
0 1 
0 1 1:0.16666667 2:2 3:2 4:1 
0 1 12:1 14:0.5 
0 1 12:1 13:1 14:0.20512821 
1 1 12:1 13:1 14:-0.076923077 
0 1 1:0.05 2:1 3:1 4:1 12:1 13:1 14:0.37297466 
0 1 5:1 12:1 13:1 14:0.022727273 
0.06130459921053475 1 
1 1 12:1 13:1 14:0.13461538 
0 1 12:1 14:0.39583333 
0 1 12:1 13:1 14:0.14516129 
1 1 1:0.071428571 2:1 3:1 4:1 11:1 12:1 13:1 14:0.085899152 
0 1 
1 1 12:1 13:1 14:0.085899152 
0 1 12:1 14:0.25 
0 1 12:1 13:1 14:0.18859649 
0 1 
0 1 1:0.076923077 2:1 3:1 4:1 12:1 13:1 14:0.14545455 
0 1 1:0.125 2:1 4:1 12:1 14:0.5 
0 1 1:0.125 2:2 3:1 4:1 11:1 12:1 13:1 14:0.1016297 
0 1 
0 1 1:0.11764706 2:2 3:1 4:1 
0 1 12:1 14:0.5 
1 1 9:1 11:1 
1 1 1:0.125 2:1 3:1 4:1 11:1 12:1 13:1 14:0.1875 
1 1 12:1 13:1 14:0.016666667 
0 1 12:1 13:1 14:0.19354839 
0 1 1:0.058823529 2:1 3:1 4:1 
0 1 1:0.11111111 2:2 3:1 4:1 
1 1 11:1 
0 1 
0 1 1:0.066666667 2:1 4:1 
0 1 1:0.13333333 2:2 3:1 4:1 5:1 
0 1 
0 1 1:0.047619048 2:1 4:1 11:1 
0 1 
1 1 11:1 12:1 13:1 14:0.14724576 
0 1 12:1 14:0.5 
1 1 11:1 
0 1 12:1 13:1 14:0.32142857 
0 1 
1 1 12:1 13:1 14:0.085899152 
0 1 1:0.05 2:1 3:1 4:1 12:1 13:1 14:0.14163237 
1 1 1:0.083333333 2:1 3:1 4:1 
1 1 12:1 13:1 14:-0.10606061 
0 1 12:1 13:1 14:0.14516129 
0 1 1:0.071428571 2:1 3:1 4:1 5:1 
0 1 12:1 13:1 14:0.13978495 
0 1 1:0.25 2:2 3:2 4:1 12:1 13:1 14:0.24450549 
0 1 
1 1 1:0.083333333 2:1 3:1 4:1 12:1 13:1 14:-0.20138889 
0 1 12:1 13:1 14:0.14705882 
0 1 
0 1 1:0.17647059 2:3 3:1 4:1 12:1 13:1 14:0.085899152 
0 1 1:0.2 2:3 3:2 4:1 12:1 13:1 14:0.074660633 
1 1 11:1 
0 1 1:0.11764706 2:2 3:2 4:1 12:1 13:1 14:0.52840909 
1 1 12:1 13:1 14:0.085899152 
1 1 12:1 13:1 14:0.0125 
0 1 1:0.058823529 2:1 3:1 4:1 5:1 12:1 13:1 14:0.15217391 
0 1 1:0.076923077 2:1 3:1 4:1 12:1 13:1 14:0.14724576 
0 1 1:0.375 2:6 4:1 12:1 14:0.25 
1 1 12:1 13:1 14:0.092592593 
0 1 1:0.13333333 2:2 3:2 4:1 12:1 14:0.5 
0 1 1:0.2 2:4 3:3 4:1 
0 1 1:0.14285714 2:2 4:1 
0 1 
0 1 12:1 13:1 14:0.14163237 
0 1 5:1 11:1 
0 1 1:0.066666667 2:1 3:1 4:1 12:1 13:1 14:0.26315789 
0 1 1:0.071428571 2:1 3:1 4:1 12:1 13:1 14:0.46969697 
0 1 1:0.058823529 2:1 3:1 4:1 7:1 12:1 13:1 14:0.1016297 
1 1 12:1 13:1 14:0.036585366 
0 1 1:0.083333333 2:1 3:1 4:1 5:1 
0 1 1:0.076923077 2:1 3:1 4:1 12:1 13:1 14:0.11538462 
0 1 
0 1 12:1 13:1 14:0.17864078 
0 1 
1 1 11:1 12:1 13:1 14:0.29166667 
1 1 12:1 13:1 14:0.0625 
0 1 5:1 12:1 13:1 14:-0.14285714 
0 1 12:1 14:0.125 
1 1 1:0.076923077 2:1 3:1 4:1 12:1 13:1 14:0.085714286 
1 1 1:0.058823529 2:1 3:1 4:1 11:1 
1 1 9:1 11:1 
0 1 1:0.066666667 2:1 4:1 5:1 11:1 
0 1 
0 1 1:0.11111111 2:2 3:1 4:1 12:1 13:1 14:0.14163237 
1 1 1:0.058823529 2:1 3:1 4:1 5:1 6:1 12:1 13:1 14:0.036585366 
0 1 12:1 13:1 14:0.35 
1 1 12:1 13:1 14:0.11684783 
0 1 1:0.15789474 2:3 3:3 4:1 5:1 11:1 12:1 13:1 14:0.15591398 
1 1 5:1 6:1 
1 1 1:0.1 2:2 3:2 4:1 12:1 13:1 14:0.071428571 
1 1 12:1 13:1 14:0.12790698 
0 1 12:1 14:0.5 
1 1 12:1 13:1 14:0.036585366 
1 1 5:1 6:1 12:1 13:1 14:0.16923077 
0 1 1:0.1 2:1 4:1 
0 1 1:0.11111111 2:1 3:1 4:1 12:1 13:1 14:0.5 
0 1 5:1 6:1 12:1 14:0.25 
0 1 
0 1 1:0.083333333 2:1 4:1 12:1 13:1 14:0.2037037 
1 1 12:1 13:1 14:0.032258065 
0 1 
1 1 12:1 13:1 14:0.11666667 
1 1 5:1 6:1 11:1 12:1 13:1 14:-0.008175278 
1 1 12:1 13:1 14:0.11363636 
0 1 
0 1 12:1 13:1 14:0.29487179 
0 1 
0 1 
0 1 1:0.125 2:2 3:1 4:1 5:3 6:2 12:1 13:1 14:0.23636364 
1 1 1:0.071428571 2:1 3:1 4:1 11:1 12:1 13:1 14:0.085899152 
1 1 1:0.05 2:1 3:1 4:1 11:2 
0 1 12:1 13:1 14:0.17259174 
1 1 12:1 13:1 14:-0.045454545 
1 1 12:1 13:1 
0 1 1:0.083333333 2:1 3:1 4:1 12:1 13:1 14:0.12601626 
0 1 1:0.052631579 2:1 3:1 4:1 7:1 12:1 13:1 14:0.14163237 
0 1 
1 1 11:1 12:1 13:1 14:0.27777778 
1 0 7:1 11:1 12:1 13:1 14:0.085899152 
1 1 12:1 13:1 14:0.12916667 
0 1 12:1 13:1 14:0.18859649 
0 1 
0 1 12:1 13:1 14:0.25 
0 1 1:0.055555556 2:1 3:1 4:1 12:1 14:0.5 
0 1 
1 1 12:1 13:1 14:0.1016297 
0 1 
0 1 
0 1 
1 1 11:1 
0 1 1:0.1 2:1 4:1 
0 1 9:1 12:1 13:1 14:0.1016297 
1 1 12:1 13:1 14:0.08 
0 1 12:1 13:1 14:0.14545455 
0 1 12:1 13:1 14:0.15591398 
0 1 12:1 14:0.090909091 
0 1 1:0.125 2:1 3:1 4:1 5:1 12:1 13:1 14:0.0625 
0 1 1:0.076923077 2:1 3:1 4:1 12:1 13:1 14:0.14724576 
1 1 1:0.30769231 2:4 3:4 4:1 12:1 13:1 14:0.033613445 
1 1 1:0.055555556 2:1 3:1 4:1 5:1 6:1 12:1 13:1 14:0.085899152 
0 1 1:0.14285714 2:2 3:2 4:1 
1 1 1:0.0625 2:1 3:1 4:1 11:1 
0 1 12:1 14:0.5 
1 1 11:1 12:1 13:1 14:0.43274854 
1 1 1:0.22222222 2:2 3:2 4:1 12:1 13:1 14:-0.1 
0 1 
1 1 12:1 13:1 14:0.1016297 
0 1 1:0.15384615 2:2 3:2 4:1 12:1 13:1 14:0.15277778 
0 1 1:0.0625 2:1 3:1 4:1 12:1 14:0.5 
0 1 1:0.15789474 2:3 3:1 4:1 12:1 13:1 14:0.20512821 
0 1 12:1 13:1 14:0.14724576 
0 1 
0 1 
0 1 1:0.047619048 2:1 3:1 4:1 12:1 13:1 14:0.24450549 
1 1 11:1 
0 1 1:0.052631579 2:1 4:1 12:1 13:1 14:0.21818182 
1 1 1:0.076923077 2:1 3:1 4:1 
0 1 
0 1 1:0.058823529 2:1 3:1 4:1 
0 1 1:0.38461538 2:5 3:4 4:1 12:1 13:1 14:0.25 
-0 1 1:0.2 2:2 3:2 4:1 12:1 13:1 14:0.37297466 
0 1 1:0.058823529 2:1 3:1 4:1 
0 1 1:0.066666667 2:1 3:1 4:1 12:1 13:1 14:0.13636364 
0 1 12:1 13:1 14:0.25 
0 1 12:1 13:1 14:0.19599515 
1 1 12:1 13:1 14:0.085899152 
0 1 
0 1 1:0.076923077 2:1 3:1 4:1 12:1 14:0.5 
0 1 1:0.071428571 2:1 3:1 4:1 5:1 
1 1 11:1 12:1 13:1 14:0.11904762 
0.9638946411292103 0 7:1 11:1 
0 1 
0 1 1:0.5 2:3 4:1 12:1 13:1 14:0.25 
0 1 5:1 12:1 13:1 14:0.0625 
0 1 
0 1 1:0.1 2:2 3:2 4:1 
1 1 8:1 11:1 
0 1 1:0.058823529 2:1 3:1 4:1 12:1 14:0.5 
1 1 12:1 13:1 14:0.1016297 
1 1 1:0.055555556 2:1 3:1 4:1 11:1 12:1 13:1 14:0.090909091 
0 1 12:1 13:1 14:0.14545455 
0 0.6718158124803734 1:0.41666667 2:5 3:3 4:1 5:3 12:1 13:1 14:0.3255814 
0 1 1:0.058823529 2:1 3:1 4:1 12:1 13:1 14:0.1016297 
0 1 1:0.055555556 2:1 3:1 4:1 5:1 6:1 12:1 14:0.5 
0 1 1:0.14285714 2:2 3:2 4:1 12:1 13:1 14:0.70643939 
0 1 1:0.15 2:3 3:2 4:1 12:1 13:1 14:0.1016297 
0 1 1:0.0625 2:1 3:1 4:1 12:1 14:0.5 
0 1 1:0.11111111 2:2 3:1 4:1 5:2 6:1 12:1 13:1 14:0.21818182 
0 1 12:1 13:1 14:0.14163237 
0 1 12:1 13:1 14:0.58896396 
1 1 11:1 
1 1 12:1 13:1 14:0.085899152 
0 1 12:1 13:1 14:0.29487179 
1 1 12:1 13:1 14:0.10927152 
0 1 
0 1 
0 1 12:1 13:1 14:0.16856061 
1 1 12:1 13:1 14:0.085899152 
0 1 12:1 13:1 14:0.3255814 
0 1 1:0.052631579 2:1 3:1 4:1 12:1 13:1 14:0.19 
0 1 
1 1 1:0.043478261 2:1 3:1 4:1 12:1 13:1 14:0.085899152 
1 1 11:1 
0 1 1:0.066666667 2:1 3:1 4:1 12:1 14:0.25 
0 1 1:0.071428571 2:1 3:1 4:1 12:1 13:1 14:0.46969697 
0 1 
1 1 1:0.076923077 2:1 3:1 4:1 11:1 12:1 13:1 14:-0.008175278 
0.1415260893016654 1 1:0.22222222 2:4 3:4 4:1 12:1 13:1 14:0.085899152 
0 1 1:0.15384615 2:2 3:2 4:1 12:1 13:1 14:0.14163237 
0 1 12:1 13:1 14:0.46969697 
1 1 12:1 13:1 14:0.055555556 
0 1 
0 1 1:0.125 2:1 4:1 12:1 13:1 14:0.068965517 
1 1 12:1 13:1 14:0.1016297 
1 1 12:1 13:1 14:0.085899152 
0 1 
1 1 1:0.071428571 2:1 3:1 4:1 11:1 12:1 13:1 14:0.37297466 
0 1 12:1 14:0.25 
0 1 1:0.125 2:1 4:1 5:1 12:1 13:1 
0 1 1:0.090909091 2:1 3:1 4:1 12:1 14:0.47222222 
0 1 1:0.066666667 2:1 4:1 
0 1 1:0.1 2:1 3:1 4:1 12:1 13:1 14:0.19642857 
0 1 1:0.10526316 2:2 4:1 12:1 13:1 14:0.24450549 
0.7161249117435909 1 1:0.16666667 2:3 3:3 4:1 12:1 13:1 14:0.18181818 
0 1 12:1 13:1 14:0.58896396 
1 1 11:1 12:1 13:1 14:0.085899152 
0 1 1:0.083333333 2:1 3:1 4:1 12:1 13:1 14:0.23333333 
0 1 1:0.058823529 2:1 4:1 11:1 
0 1 1:0.055555556 2:1 4:1 11:1 12:1 13:1 14:-0.008175278 
0 1 12:1 13:1 14:0.14285714 
0 1 1:0.3 2:3 3:2 4:1 12:1 13:1 14:0.11521739 
0 1 1:0.076923077 2:1 3:1 4:1 5:1 12:1 13:1 14:0.1016297 
1 1 12:1 13:1 14:0.085899152 
0 1 12:1 14:0.25 
0 1 1:0.11111111 2:1 3:1 4:1 12:1 13:1 14:0.16666667 
0 1 12:1 14:0.5 
1 1 12:1 13:1 14:0.085899152 
0 1 1:0.076923077 2:1 3:1 4:1 12:1 14:0.5 
1 1 11:1 
0 1 1:0.055555556 2:1 4:1 12:1 13:1 14:0.014285714 
0 1 1:0.0625 2:1 3:1 4:1 12:1 14:0.5 
0 1 
0 1 1:0.16666667 2:3 3:1 4:1 12:1 13:1 14:0.11111111 
0 1 1:0.076923077 2:1 3:1 4:1 12:1 13:1 14:0.58896396 
1 1 11:2 12:1 13:1 14:0.085899152 
0 1 1:0.05 2:1 3:1 4:1 
1 1 1:0.090909091 2:1 3:1 4:1 11:1 
1 1 1:0.083333333 2:1 3:1 4:1 
0 1 12:1 14:0.16666667 
0 1 12:1 14:0.2 
0 1 12:1 13:1 14:0.21621622 
0 1 
0 1 
0 1 1:0.055555556 2:1 4:1 
0 1 1:0.071428571 2:1 4:1 12:1 13:1 14:0.13970588 
0 1 1:0.071428571 2:1 3:1 4:1 12:1 14:0.5 
0 1 
0 1 1:0.083333333 2:1 4:1 12:1 13:1 14:0.085899152 
0 1 1:0.055555556 2:1 3:1 4:1 12:1 13:1 14:0.12903226 
0 1 1:0.05 2:1 4:1 12:1 13:1 14:0.14285714 
1 1 1:0.14285714 2:2 3:2 4:1 12:1 13:1 14:0.074660633 
0 1 1:0.11764706 2:2 3:2 4:1 7:1 
1 1 12:1 13:1 14:0.085899152 
0 1 12:1 13:1 14:0.58896396 
0 1 1:0.30769231 2:4 3:3 4:1 12:1 13:1 14:0.73157895 
1 1 12:1 13:1 14:0.085899152 
0 1 1:0.095238095 2:2 3:1 4:1 5:2 6:2 12:1 13:1 14:0.085899152 
1 1 1:0.058823529 2:1 3:1 4:1 11:1 12:1 13:1 14:0.1016297 
0 1 1:0.058823529 2:1 4:1 5:1 
1 1 11:1 12:1 13:1 14:-0.24038462 
0 1 1:0.0625 2:1 3:1 4:1 12:1 14:0.5 
0 1 1:0.083333333 2:1 3:1 4:1 12:1 13:1 14:0.125 
1 1 1:0.066666667 2:1 3:1 4:1 
0 1 12:1 13:1 14:0.14285714 
1 1 12:1 13:1 
0 1 1:0.17647059 2:3 3:2 4:1 11:1 12:1 14:0.125 
0 1 
1 1 5:1 6:1 11:1 
1 1 12:1 13:1 
0 1 
1 1 1:0.066666667 2:1 3:1 4:1 12:1 13:1 14:0.03125 
1 1 12:1 13:1 14:0.085899152 
1 1 12:1 13:1 14:0.039215686 
0 1 1:0.090909091 2:1 4:1 12:1 13:1 14:0.14108352 
0 1 
0 1 12:1 13:1 14:0.14545455 
1 1 12:1 13:1 14:0.13970588 
0 1 
0 1 1:0.11111111 2:2 3:1 4:1 12:1 13:1 
0 1 1:0.055555556 2:1 4:1 5:1 
0 1 1:0.076923077 2:1 3:1 4:1 5:1 12:1 13:1 14:0.070512821 
0 1 
0 1 1:0.11764706 2:2 3:2 4:1 7:1 12:1 13:1 14:0.074660633 
1 1 1:0.090909091 2:1 3:1 4:1 12:1 13:1 
1 1 12:1 13:1 14:0.1016297 
1 1 1:0.090909091 2:1 3:1 4:1 11:1 
0 1 12:1 14:0.5 
0 0.1020071381730633 7:1 
0 1 12:1 14:0.5 
0 1 1:0.125 2:2 3:1 4:1 12:1 13:1 14:0.080645161 
1 1 1:0.0625 2:1 3:1 4:1 12:1 13:1 14:0.038461538 
0 1 1:0.21428571 2:3 3:2 4:1 12:1 13:1 14:0.26923077 
0 1 7:1 12:1 13:1 14:0.085899152 
0 1 
1 1 1:0.11111111 2:1 3:1 4:1 12:1 13:1 14:0.06122449 
0 1 1:0.052631579 2:1 3:1 4:1 12:1 13:1 14:0.23333333 
0 1 
1 1 1:0.0625 2:1 3:1 4:1 12:1 13:1 14:0.053571429 
1 1 12:1 13:1 14:0.1016297 
0 0.2115316699337395 7:1 11:1 
0 0.96558204853304 9:1 
0 1 12:1 13:1 14:0.14163237 
0 1 1:0.0625 2:1 4:1 11:1 12:1 13:1 14:-0.008175278 
1 1 12:1 13:1 14:0.0125 
0 1 1:0.090909091 2:1 3:1 4:1 12:1 13:1 14:0.17346939 
1 0 7:1 11:1 12:1 13:1 
0 1 1:0.083333333 2:1 3:1 4:1 5:1 
0 1 1:0.076923077 2:1 4:1 12:1 13:1 14:0.085899152 
0 1 1:0.058823529 2:1 3:1 4:1 5:1 6:1 12:1 14:0.5 
0 1 1:0.2 2:4 3:3 4:1 
0 1 1:0.1 2:1 3:1 4:1 12:1 13:1 14:0.13636364 
0 1 12:1 13:1 14:0.1875 
1 1 12:1 13:1 
1 1 12:1 13:1 14:0.038461538 
1 1 12:1 13:1 14:0.085899152 
0 1 1:0.058823529 2:1 3:1 4:1 12:1 13:1 14:0.13636364 
1 1 12:1 13:1 14:0.125 
0 1 1:0.083333333 2:1 4:1 11:1 
0 1 1:0.4 2:2 3:1 4:1 12:1 13:1 14:0.11521739 
0 1 5:2 6:1 11:1 
0 1 1:0.058823529 2:1 4:1 7:1 11:2 
0 1 
1 1 11:1 
0 0.3718389877350481 5:1 
0 1 
1 1 7:1 8:1 
0 1 1:0.083333333 2:1 4:1 12:1 13:1 14:0.28461538 
0 1 
0 1 1:0.15 2:3 3:3 4:1 
1 1 1:0.21428571 2:3 3:3 4:1 
0 1 12:1 13:1 14:0.15306122 
0 1 12:1 14:0.33333333 
1 1 1:0.11764706 2:2 3:2 4:1 5:2 6:1 11:1 
1 1 11:1 
0 1 1:0.04 2:1 3:1 4:1 12:1 13:1 14:0.10135135 
1 1 1:0.090909091 2:1 3:1 4:1 12:1 13:1 14:0.05801105 
0 1 1:0.1 2:1 4:1 7:1 
0 1 
0 1 1:0.090909091 2:1 3:1 4:1 12:1 13:1 14:0.46969697 
0 1 
0 1 1:0.055555556 2:1 3:1 4:1 12:1 13:1 14:0.13978495 
1 1 12:1 13:1 14:-0.055555556 
0 1 1:0.27272727 2:3 3:2 4:1 5:1 6:1 12:1 13:1 14:0.35 
1 1 12:1 13:1 14:0.1016297 
1 1 12:1 13:1 14:0.085899152 
0 0.6043511470645684 1:0.45 2:9 3:5 4:1 
1 1 1:0.0625 2:1 3:1 4:1 11:1 12:1 13:1 14:0.092592593 
0 1 1:0.13333333 2:2 3:1 4:1 11:1 12:1 13:1 14:0.025641026 
0 0.5367831944557586 5:1 
0 1 1:0.066666667 2:1 3:1 4:1 11:1 12:1 14:0.41666667 
1 1 1:0.090909091 2:1 3:1 4:1 12:1 13:1 14:0.1016297 
0 1 
1 1 12:1 13:1 14:0.097222222 
0 1 1:0.14285714 2:4 3:3 4:1 7:1 12:1 13:1 14:0.12974684 
0 1 
1 1 12:1 13:1 14:0.10795455 
0 1 1:0.055555556 2:1 4:1 12:1 13:1 14:0.1016297 
0 1 5:1 12:1 13:1 14:-0.13888889 
0 1 12:1 14:0.5 
1 1 12:1 13:1 14:0.09375 
0 1 1:0.071428571 2:1 3:1 4:1 5:2 6:1 12:1 13:1 14:0.010204082 
0 1 
1 1 1:0.052631579 2:1 3:1 4:1 12:1 13:1 14:0.010204082 
0 1 1:0.11764706 2:2 3:1 4:1 5:1 6:1 11:1 12:1 13:1 14:-0.008175278 
0 1 
0 1 12:1 14:0.5 
1 1 11:1 
0 1 12:1 14:0.5 
0 1 
0 1 1:0.33333333 2:1 4:1 12:1 14:0.16666667 
0 1 1:0.035714286 2:1 4:1 12:1 13:1 14:0.15591398 
0 1 1:0.071428571 2:1 3:1 4:1 12:1 13:1 14:0.24450549 
0 1 
0 1 1:0.083333333 2:1 4:1 12:1 13:1 14:0.1016297 
1 1 1:0.2 2:2 3:2 4:1 
1 1 1:0.10526316 2:2 3:2 4:1 12:1 13:1 14:0.085899152 
0 1 
0 1 
0 1 1:0.052631579 2:1 3:1 4:1 12:1 13:1 14:0.41666667 
1 1 1:0.083333333 2:1 3:1 4:1 5:1 6:1 
0 1 1:0.076923077 2:1 3:1 4:1 12:1 13:1 14:0.12286689 
1 1 1:0.041666667 2:1 3:1 4:1 12:1 13:1 14:0.090909091 
0 1 1:0.21428571 2:3 3:1 4:1 11:1 12:1 14:0.21428571 
0 1 
1 1 1:0.083333333 2:1 3:1 4:1 11:1 12:1 13:1 14:-0.008175278 
0 1 12:1 13:1 14:0.37297466 
0 1 12:1 13:1 14:0.2 
1 1 12:1 13:1 
0.416785662283393 0.844278201322038 1:0.40909091 2:9 3:5 4:1 5:1 6:1 
0 1 
0 1 9:1 
0 1 1:0.25 2:3 3:3 4:1 12:1 14:0.25 
0 1 5:1 
0 1 1:0.125 2:2 3:1 4:1 12:1 13:1 14:0.28125 
1 1 1:0.0625 2:1 3:1 4:1 
0 1 1:0.083333333 2:1 4:1 12:1 14:0.5 
1 1 1:0.076923077 2:1 3:1 4:1 11:1 12:1 13:1 14:0.25 
0 1 1:0.066666667 2:1 4:1 12:1 13:1 14:0.085899152 
0 1 1:0.13333333 2:2 3:2 4:1 5:1 
0 1 1:0.18181818 2:2 3:1 4:1 12:1 13:1 14:0.37297466 
1 1 11:1 12:1 13:1 14:-0.008175278 
1 1 1:0.090909091 2:1 4:1 11:2 12:1 13:1 14:-0.008175278 
0 1 12:1 13:1 14:0.46607143 
0 1 1:0.066666667 2:1 3:1 4:1 12:1 13:1 14:0.58896396 
0 1 1:0.125 2:1 3:1 4:1 7:1 
1 1 11:1 
0 1 1:0.055555556 2:1 4:1 12:1 13:1 14:0.1016297 
0 1 
0 1 1:0.11764706 2:2 3:2 4:1 12:1 14:0.39583333 
0 1 
0 1 12:1 14:0.25 
0 1 5:1 12:1 13:1 14:0.074660633 
1 1 1:0.1 2:1 3:1 4:1 11:1 
0 1 12:1 14:0.21428571 
0 1 12:1 14:0.33333333 
1 1 11:1 
0 1 12:1 14:0.5 
0 1 5:1 11:1 
1 1 1:0.15384615 2:2 3:2 4:1 12:1 13:1 
0 1 
0 1 1:0.0625 2:1 3:1 4:1 12:1 14:0.23076923 
0 1 1:0.071428571 2:1 3:1 4:1 12:1 13:1 14:0.14724576 
0 1 1:0.14285714 2:1 3:1 4:1 12:1 13:1 14:0.14285714 
1 1 11:1 12:1 13:1 14:0.23214286 
0 1 12:1 14:0.25 
0 1 1:0.14285714 2:2 3:1 4:1 12:1 13:1 14:0.43274854 
0 1 
0 1 1:0.28571429 2:4 3:3 4:1 12:1 13:1 14:0.17156863 
1 1 12:1 13:1 14:0.070512821 
0 1 1:0.13333333 2:2 3:1 4:1 
0 1 1:0.076923077 2:2 3:2 4:1 7:1 12:1 13:1 14:0.14545455 
0 1 1:0.10526316 2:2 3:2 4:1 
0 1 5:1 
1 1 12:1 13:1 
1 0.07082361518121767 11:3 12:1 14:0.5 
1 1 1:0.0625 2:1 3:1 4:1 12:1 13:1 14:0.090909091 
0 1 
0 1 1:0.16666667 2:2 3:1 4:1 11:1 12:1 13:1 14:0.14163237 
0 1 
0 1 11:1 12:1 14:0.25 
0 1 1:0.25 2:1 3:1 4:1 12:1 13:1 14:0.18181818 
0 1 
1 1 1:0.071428571 2:1 3:1 4:1 11:1 12:1 13:1 14:0.24074074 
0 1 
1 1 12:1 13:1 14:0.10818713 
0 1 1:0.047619048 2:1 3:1 4:1 5:1 
0 1 
0 1 5:1 12:1 13:1 14:0.071428571 
0 1 
0 1 1:0.071428571 2:1 3:1 4:1 12:1 14:0.33333333 
1 1 12:1 13:1 14:0.085899152 
0 1 1:0.125 2:2 3:1 4:1 5:1 
0 1 
1 1 1:0.1 2:1 3:1 4:1 11:1 12:1 13:1 14:-0.008175278 
0 1 12:1 13:1 14:0.234375 
0 1 1:0.13333333 2:2 4:1 5:1 12:1 14:0.076923077 
0 1 1:0.058823529 2:1 3:1 4:1 12:1 13:1 14:0.16666667 
1 1 11:1 12:1 13:1 14:0.085899152 
0 1 
1 1 1:0.074074074 2:2 3:2 4:1 12:1 13:1 14:0.081818182 
0 1 
0 1 1:0.05 2:1 4:1 12:1 13:1 14:0.29251701 
1 1 11:1 
1 1 12:1 13:1 14:0.03125 
1 1 12:1 13:1 14:0.085899152 
1 1 12:1 13:1 14:0.0625 
1 1 1:0.125 2:1 3:1 4:1 12:1 13:1 14:0.076923077 
0 1 1:0.071428571 2:1 4:1 12:1 13:1 14:0.093333333 
0 1 
0 1 
1 1 12:1 13:1 14:0.1016297 
0 1 9:1 
0 1 1:0.11111111 2:1 4:1 7:1 
0 0.2045357934384115 11:1 12:1 14:0.5 
0 1 1:0.076923077 2:1 3:1 4:1 12:1 13:1 14:0.14108352 
1 1 11:1 
0 1 12:1 14:0.28571429 
1 1 5:1 6:1 12:1 13:1 14:0.092592593 
0 1 
1 1 1:0.095238095 2:2 3:2 4:1 11:1 12:1 13:1 14:0.125 
0 1 1:0.052631579 2:1 3:1 4:1 
1 1 1:0.076923077 2:1 3:1 4:1 11:1 12:1 13:1 14:-0.008175278 
0 1 12:1 13:1 14:0.40178571 
0 1 1:0.125 2:2 3:2 4:1 12:1 13:1 14:0.31818182 
0 1 
1 1 12:1 13:1 14:0.10818713 
0 1 1:0.083333333 2:2 3:1 4:1 5:1 
0 1 12:1 13:1 14:0.15306122 
0 1 12:1 13:1 14:0.16666667 
0 1 
0 1 1:0.076923077 2:1 3:1 4:1 12:1 13:1 14:0.13970588 
0 1 
0 1 1:0.071428571 2:2 3:1 4:1 11:1 12:1 13:1 14:0.085899152 
0 1 1:0.25 2:2 3:1 4:1 12:1 13:1 14:0.16666667 
1 1 1:0.14285714 2:2 3:2 4:1 12:1 13:1 14:0.1 
0 1 
0 1 1:0.083333333 2:2 3:2 4:1 12:1 13:1 14:0.58896396 
1 1 11:1 
0 1 12:1 14:0.25 
1 1 11:2 12:1 13:1 14:0.17864078 
0 1 7:1 12:1 13:1 14:0.1016297 
1 1 1:0.052631579 2:1 3:1 4:1 11:1 12:1 13:1 
0 1 1:0.16666667 2:3 3:3 4:1 12:1 14:0.3 
1 1 5:1 6:1 
1 1 1:0.071428571 2:1 3:1 4:1 12:1 13:1 
0 1 
1 1 1:0.058823529 2:1 3:1 4:1 12:1 13:1 14:0.0625 
0 1 1:0.1 2:1 3:1 4:1 12:1 13:1 14:0.10927152 
0 1 1:0.2 2:3 3:2 4:1 12:1 13:1 14:0.58896396 
1 1 11:1 
1 1 5:1 6:1 11:2 
0 1 1:0.25 2:2 3:1 4:1 
0 1 1:0.066666667 2:1 3:1 4:1 12:1 13:1 14:0.17647059 
0 1 1:0.076923077 2:1 3:1 4:1 12:1 13:1 14:0.58896396 
0 1 1:0.0625 2:1 4:1 12:1 13:1 14:0.05801105 
0 1 12:1 14:0.5 
0 1 5:2 6:1 12:1 13:1 14:-0.125 
0 1 1:0.055555556 2:1 3:1 4:1 12:1 13:1 14:0.12286689 
0 1 1:0.125 2:1 3:1 4:1 12:1 13:1 14:0.32142857 
0 1 1:0.17647059 2:3 3:2 4:1 12:1 13:1 14:0.58896396 
1 1 11:1 12:1 13:1 14:0.085899152 
0.9914870294699906 1 1:0.11111111 2:2 3:2 4:1 
0 1 
1 1 12:1 13:1 14:0.090909091 
0 1 12:1 14:0.25 
0 1 1:0.05 2:1 4:1 
0 1 12:1 14:0.5 
0 1 5:1 11:1 
0 1 1:0.08 2:2 3:2 4:1 
0 1 1:0.16666667 2:1 3:1 4:1 7:1 12:1 13:1 14:0.13978495 
0 1 1:0.076923077 2:1 4:1 12:1 13:1 14:0.18859649 
0.6830802900424451 1 12:1 13:1 14:0.13978495 
0 1 1:0.071428571 2:1 3:1 4:1 12:1 14:0.16666667 
0 1 1:0.15789474 2:3 3:2 4:1 12:1 13:1 14:0.18965517 
0 1 1:0.058823529 2:1 3:1 4:1 12:1 13:1 14:0.14108352 
0 1 12:1 13:1 14:0.17808219 
0 1 1:0.2 2:4 3:3 4:1 
0 1 1:0.11111111 2:1 3:1 4:1 12:1 14:0.125 
0 1 1:0.14285714 2:2 3:1 4:1 12:1 14:0.25 
0 1 
0 1 1:0.11111111 2:1 4:1 
0 1 12:1 13:1 14:0.14163237 
0 1 5:1 12:1 13:1 14:0.068527919 
1 1 1:0.071428571 2:1 3:1 4:1 
0 1 1:0.2 2:3 3:2 4:1 
0 1 1:0.25 2:4 3:2 4:1 12:1 14:0.5 
0 1 
1 1 1:0.076923077 2:1 3:1 4:1 5:2 6:2 
0 1 
1 1 1:0.0625 2:1 3:1 4:1 12:1 13:1 14:0.0625 
1 1 12:1 13:1 14:-0.045454545 
1 1 1:0.0625 2:1 3:1 4:1 
0 1 
0 1 
1 1 11:1 12:1 13:1 14:0.038461538 
0 1 1:0.052631579 2:1 3:1 4:1 
0 1 1:0.13333333 2:2 3:1 4:1 12:1 13:1 14:0.14163237 
0 1 1:0.055555556 2:1 3:1 4:1 
0 1 12:1 13:1 14:0.35 
1 1 7:1 11:1 12:1 13:1 14:-0.008175278 
0 1 12:1 13:1 14:0.14163237 
1 1 12:1 13:1 14:-0.11538462 
0 1 1:0.17647059 2:3 3:2 4:1 5:1 12:1 13:1 14:0.175 
0 1 1:0.071428571 2:1 4:1 
0 1 12:1 13:1 14:0.18344371 
1 1 11:1 12:1 13:1 14:0.25 
1 1 11:1 12:1 13:1 14:-0.008175278 
1 1 1:0.17647059 2:3 3:3 4:1 
0 1 12:1 13:1 14:0.14163237 
0 0.5660024859486608 1:0.0625 2:1 3:1 4:1 7:1 11:1 12:1 13:1 
1 1 12:1 13:1 14:0.1016297 
0 0.9170007212771487 7:1 11:1 
0 1 12:1 13:1 14:0.28947368 
0 1 12:1 14:0.5 
1 1 11:1 
0 1 12:1 13:1 14:0.43274854 
1 1 12:1 13:1 14:0.11521739 
1 1 1:0.071428571 2:1 3:1 4:1 
0 1 5:1 
0 1 12:1 13:1 14:0.21052632 
0 1 12:1 13:1 14:0.46607143 
1 1 1:0.083333333 2:1 3:1 4:1 
0 1 1:0.17647059 2:3 3:2 4:1 
0 1 12:1 13:1 14:0.234375 
1 1 1:0.071428571 2:1 3:1 4:1 11:1 12:1 13:1 14:0.17948718 
0 1 7:1 12:1 13:1 14:0.085899152 
0 1 1:0.055555556 2:1 4:1 
1 1 11:2 
0 1 
1 1 12:1 13:1 14:0.13888889 
1 1 1:0.047619048 2:1 3:1 4:1 12:1 13:1 14:-0.0087719298 
0 1 12:1 14:0.25 
1 1 1:0.083333333 2:1 3:1 4:1 
0 1 1:0.0625 2:1 3:1 4:1 12:1 14:0.2 
0 1 12:1 13:1 14:0.32142857 
1 1 11:1 
1 1 1:0.043478261 2:1 3:1 4:1 11:1 12:1 13:1 14:0.37297466 
0 1 1:0.11111111 2:2 3:1 4:1 12:1 13:1 14:0.085899152 
1 1 1:0.043478261 2:1 3:1 4:1 
1 1 1:0.15789474 2:3 3:3 4:1 5:1 6:1 7:1 
1 1 1:0.052631579 2:1 3:1 4:1 12:1 13:1 14:0.048387097 
0 1 
1 1 11:1 12:1 13:1 14:-0.008175278 
1 1 1:0.11111111 2:2 3:2 4:1 11:2 
0 1 12:1 13:1 14:0.17873303 
0 1 12:1 13:1 14:0.58896396 
0 1 1:0.1 2:2 3:1 4:1 
0.3069887007710058 1 1:0.0625 2:1 3:1 4:1 
1 1 1:0.066666667 2:1 3:1 4:1 
0 1 
0 1 12:1 14:0.5 
0 1 12:1 14:0.3 
0 1 12:1 13:1 14:0.17259174 
1 1 1:0.066666667 2:1 3:1 4:1 12:1 13:1 14:-0.0625 
1 1 1:0.066666667 2:1 3:1 4:1 
0 1 5:1 6:1 12:1 14:0.5 
0 1 12:1 13:1 14:0.14444444 
0 1 12:1 13:1 14:0.14516129 
0 1 1:0.13333333 2:2 3:2 4:1 5:1 12:1 13:1 14:-0.1625 
0 1 
1 1 11:1 12:1 13:1 14:0.19117647 
0 1 
1 1 1:0.14285714 2:2 3:2 4:1 11:1 
1 1 12:1 13:1 14:0.085899152 
1 1 12:1 13:1 14:0.085899152 
0 1 
1 1 11:1 12:1 13:1 14:-0.008175278 
1 1 12:1 13:1 14:0.047619048 
0 1 1:0.2 2:4 3:4 4:1 
0 1 1:0.076923077 2:1 3:1 4:1 12:1 13:1 14:0.21428571 
0 1 
1 1 1:0.076923077 2:1 3:1 4:1 
0 1 1:0.16666667 2:2 3:1 4:1 11:1 12:1 13:1 14:0.13970588 
1 1 12:1 13:1 14:0.054455446 
0 1 1:0.1 2:1 3:1 4:1 12:1 13:1 14:0.13068182 
0 1 12:1 13:1 14:0.43867925 
0 1 1:0.066666667 2:1 3:1 4:1 5:1 
0 1 12:1 13:1 14:0.47608025 
0 1 12:1 13:1 14:0.47608025 
1 1 12:1 13:1 14:0.125 
0 1 1:0.10344828 2:3 3:3 4:1 7:1 12:1 13:1 14:0.085899152 
0 1 12:1 14:0.5 
0 1 
1 1 1:0.090909091 2:1 3:1 4:1 11:1 
0 1 12:1 13:1 14:0.14285714 
0 1 1:0.058823529 2:1 4:1 
1 1 1:0.23529412 2:4 3:4 4:1 11:1 12:1 13:1 14:0.11363636 
1 1 1:0.090909091 2:2 3:2 4:1 12:1 13:1 14:0.085899152 
0 1 1:0.54545455 2:6 3:5 4:1 5:1 
0 1 5:1 11:1 
1 1 12:1 13:1 14:0.085899152 
0 1 12:1 14:0.5 
1 1 1:0.055555556 2:1 3:1 4:1 12:1 13:1 14:0.085899152 
1 1 1:0.076923077 2:1 3:1 4:1 11:1 
1 1 11:1 
1 1 1:0.071428571 2:1 3:1 4:1 12:1 13:1 14:0.04 
1 1 12:1 13:1 
0 1 12:1 13:1 14:0.58896396 
0 1 
0 1 1:0.15384615 2:2 3:1 4:1 12:1 13:1 14:0.1016297 
1 1 11:1 12:1 13:1 14:0.15789474 
1 1 11:1 
0 1 
1 1 12:1 13:1 14:0.10080645 
0 1 1:0.055555556 2:1 3:1 4:1 
1 1 11:1 12:1 13:1 14:-0.008175278 
0 1 11:1 12:1 14:0.25 
0 1 5:1 
1 1 1:0.071428571 2:1 3:1 4:1 11:3 12:1 13:1 14:-0.008175278 
1 1 1:0.047619048 2:1 3:1 4:1 9:1 11:1 
0 1 1:0.071428571 2:1 3:1 4:1 12:1 13:1 14:0.125 
0 1 
0 1 1:0.090909091 2:1 4:1 12:1 14:0.5 
0 1 12:1 13:1 14:0.17873303 
0 1 12:1 13:1 14:0.32142857 
0 1 1:0.14285714 2:3 3:2 4:1 12:1 13:1 14:0.125 
1 1 12:1 13:1 14:0.085899152 
1 1 12:1 13:1 14:-0.16666667 
1 1 12:1 13:1 
0 1 12:1 13:1 14:0.28205128 
0 1 12:1 13:1 14:0.46969697 
1 1 1:0.14285714 2:1 3:1 4:1 
0 1 1:0.045454545 2:1 3:1 4:1 12:1 13:1 14:0.109375 
0 1 
0 1 1:0.14285714 2:2 3:2 4:1 
1 1 12:1 13:1 14:-0.075 
1 1 12:1 13:1 14:0.125 
1 1 11:1 
0 1 1:0.0625 2:1 3:1 4:1 7:1 12:1 13:1 14:0.12903226 
0 1 12:1 13:1 14:0.21052632 
1 1 5:1 6:1 11:2 
1 1 12:1 13:1 14:0.125 
0 1 1:0.19047619 2:4 3:2 4:1 
0 1 8:1 12:1 14:0.5 
1 1 11:1 12:1 13:1 14:0.14545455 
0 1 1:0.058823529 2:1 3:1 4:1 12:1 14:0.16666667 
1 1 12:1 13:1 14:0.085899152 
0 1 12:1 14:0.45 
0 1 5:1 
1 1 12:1 13:1 14:0.1016297 
0 1 7:1 12:1 13:1 14:-0.075 
1 1 1:0.11111111 2:1 3:1 4:1 
0 1 12:1 13:1 14:0.26923077 
0 1 
0 1 1:0.05 2:1 3:1 4:1 5:2 6:1 
1 1 12:1 13:1 14:-0.027777778 
0 1 5:1 
0 1 1:0.14285714 2:1 3:1 4:1 12:1 14:0.5 
0 1 12:1 14:0.5 
0 1 1:0.16666667 2:2 3:1 4:1 
1 1 1:0.083333333 2:1 3:1 4:1 
1 1 1:0.071428571 2:1 3:1 4:1 11:1 12:1 13:1 14:0.2 
0 1 1:0.11764706 2:2 3:1 4:1 12:1 13:1 14:0.15789474 
1 1 11:1 12:1 13:1 14:0.085899152 
0 1 12:1 13:1 14:0.14772727 
1 1 1:0.045454545 2:1 3:1 4:1 
0 1 
1 1 1:0.076923077 2:1 3:1 4:1 12:1 13:1 14:-0.045454545 
0 1 
0 1 12:1 13:1 14:0.14285714 
1 1 11:1 12:1 13:1 14:0.140625 
0 1 1:0.076923077 2:1 4:1 
0 1 
1 1 1:0.090909091 2:1 3:1 4:1 
0 1 1:0.16666667 2:2 3:1 4:1 12:1 13:1 14:0.085899152 
0 1 1:0.045454545 2:1 3:1 4:1 5:2 6:1 
0 1 
0 1 12:1 13:1 14:0.14545455 
1 1 5:1 6:1 12:1 13:1 14:0.03125 
1 1 12:1 13:1 14:0.0125 
1 1 11:1 12:1 13:1 14:-0.008175278 
0 1 12:1 13:1 14:0.14285714 
1 1 11:1 12:1 13:1 14:-0.008175278 
1 1 11:1 
0 1 7:1 12:1 13:1 14:0.1016297 
0 1 
1 1 12:1 13:1 14:0.092592593 
0 0.7565130236470199 1:0.125 2:3 3:1 4:1 12:1 14:0.5 
1 1 1:0.05 2:1 3:1 4:1 11:1 
0 1 1:0.1875 2:3 3:2 4:1 12:1 13:1 14:0.17259174 
0 1 
0 1 1:0.071428571 2:1 4:1 5:1 6:1 12:1 13:1 14:0.1016297 
0 1 
1 1 12:1 13:1 14:0.088235294 
0 1 
0 1 12:1 13:1 14:0.140625 
0 1 1:0.083333333 2:1 4:1 12:1 13:1 14:0.14285714 
0 1 12:1 13:1 14:0.16666667 
1 1 11:1 12:1 13:1 14:-0.008175278 
1 1 12:1 13:1 14:-0.051020408 
1 1 12:1 13:1 14:0.085899152 
0 1 
0 1 1:0.15384615 2:2 3:1 4:1 5:1 12:1 13:1 14:0.025 
1 1 11:1 12:1 13:1 14:0.13333333 
0 1 1:0.0625 2:1 4:1 
0 1 1:0.15789474 2:3 3:2 4:1 12:1 13:1 14:0.054455446 
0 1 1:0.17391304 2:4 3:3 4:1 12:1 13:1 14:0.14724576 
0 1 1:0.076923077 2:1 3:1 4:1 12:1 14:0.5 
1 1 12:1 13:1 14:0.026315789 
0 1 1:0.041666667 2:1 3:1 4:1 5:1 6:1 12:1 14:0.5 
0 1 1:0.16666667 2:2 3:1 4:1 12:1 13:1 14:0.13888889 
0 1 5:1 12:1 13:1 14:0.025 
0 1 1:0.2 2:2 3:1 4:1 12:1 14:0.25 
0 1 
0 1 1:0.11111111 2:1 4:1 12:1 13:1 14:0.14545455 
1 1 12:1 13:1 14:0.10135135 
0 1 1:0.125 2:1 4:1 12:1 13:1 14:0.28125 
0 1 1:0.125 2:2 3:2 4:1 5:1 6:1 7:1 12:1 13:1 14:0.21428571 
1 1 11:1 
1 1 1:0.25 2:2 3:2 4:1 
0 1 1:0.13333333 2:2 3:2 4:1 5:1 12:1 14:0.1875 
1 1 1:0.076923077 2:1 3:1 4:1 5:3 6:3 12:1 13:1 14:0.14285714 
1 1 11:1 12:1 13:1 14:0.13978495 
1 1 12:1 13:1 14:0.061643836 
1 1 1:0.066666667 2:1 3:1 4:1 11:1 
0 1 5:2 6:1 
0 1 12:1 13:1 14:0.2 
0 1 1:0.047619048 2:1 3:1 4:1 
1 1 12:1 13:1 14:0.10416667 
0 1 1:0.0625 2:1 3:1 4:1 12:1 13:1 14:0.11521739 
1 1 5:1 6:1 12:1 13:1 
0 1 1:0.2 2:1 3:1 4:1 12:1 13:1 14:0.14108352 
0 1 
0 1 1:0.058823529 2:1 3:1 4:1 
0 1 1:0.16666667 2:2 3:1 4:1 5:1 
1 1 1:0.066666667 2:1 3:1 4:1 
1 1 1:0.066666667 2:1 3:1 4:1 
0 1 1:0.11764706 2:2 3:2 4:1 
0 1 12:1 13:1 14:0.19354839 
0 1 5:1 
0 1 
0 1 1:0.4 2:6 3:5 4:1 11:1 
0 1 12:1 14:0.14583333 
1 1 1:0.055555556 2:1 3:1 4:1 12:1 13:1 14:0.027777778 
0 1 1:0.083333333 2:1 3:1 4:1 5:1 12:1 13:1 14:0.19599515 
0 1 12:1 13:1 14:0.17873303 
1 1 12:1 13:1 14:0.1016297 
0 1 1:0.1 2:2 3:1 4:1 
1 1 5:1 6:1 
0 1 5:1 
0 1 1:0.15789474 2:3 3:3 4:1 5:1 
1 1 5:1 6:1 12:1 13:1 14:0.28205128 
0 1 
0 1 12:1 13:1 14:0.1875 
0 1 12:1 13:1 14:0.35586735 
0 1 1:0.14285714 2:2 3:1 4:1 12:1 13:1 14:0.125 
0 1 1:0.076923077 2:1 4:1 7:1 
1 1 12:1 13:1 14:0.13793103 
0 1 1:0.11111111 2:2 3:1 4:1 
1 1 1:0.066666667 2:1 3:1 4:1 12:1 13:1 14:0.074660633 
0 1 12:1 13:1 14:0.28885135 
0 1 
0 1 1:0.076923077 2:1 3:1 4:1 12:1 14:0.5 
0 1 1:0.10526316 2:2 3:2 4:1 12:1 13:1 14:0.16666667 
0 1 12:1 13:1 14:0.17857143 
0 1 
0 1 1:0.14285714 2:1 4:1 12:1 13:1 14:0.085899152 
1 1 12:1 13:1 14:0.1016297 
0 1 
0 1 1:0.15384615 2:2 3:2 4:1 
0 1 
1 1 11:1 12:1 13:1 14:0.074660633 
0 1 12:1 14:0.33333333 
0 1 12:1 14:0.33333333 
1 1 1:0.058823529 2:1 3:1 4:1 12:1 13:1 14:0.085899152 
0 1 
0 1 
0 1 1:0.1 2:2 3:1 4:1 5:1 6:1 12:1 13:1 14:0.10526316 
0 1 1:0.083333333 2:1 3:1 4:1 12:1 13:1 14:0.17873303 
0 1 1:0.11111111 2:1 3:1 4:1 12:1 14:0.33333333 
0 1 1:0.076923077 2:1 4:1 12:1 14:0.375 
0 1 
1 1 5:1 6:1 12:1 13:1 14:-0.24038462 
1 1 1:0.083333333 2:1 3:1 4:1 
0 1 1:0.13333333 2:2 3:2 4:1 12:1 14:0.5 
0.8970903592025636 1 1:0.076923077 2:2 3:2 4:1 
0 1 1:0.052631579 2:1 3:1 4:1 12:1 13:1 14:0.1509434 
0 1 1:0.083333333 2:1 4:1 5:1 
0 1 1:0.16666667 2:2 3:1 4:1 7:1 
0 1 12:1 14:0.33333333 
0 1 5:1 12:1 13:1 
0 1 1:0.066666667 2:1 4:1 
1 1 5:1 6:1 12:1 13:1 
1 1 1:0.11764706 2:2 3:2 4:1 
1 1 5:1 6:1 12:1 13:1 14:-0.090909091 
0 1 1:0.055555556 2:1 4:1 12:1 13:1 14:0.25 
1 1 1:0.071428571 2:1 3:1 4:1 
0 1 
0 1 1:0.071428571 2:1 3:1 4:1 12:1 13:1 14:0.11666667 
0 1 
1 1 12:1 13:1 14:-0.083333333 
1 1 12:1 13:1 14:0.11666667 
0 0.9793185210552766 7:1 
0 1 1:0.18181818 2:2 3:1 4:1 5:1 6:1 12:1 13:1 14:0.045454545 
1 1 5:1 6:1 
0 1 
1 1 11:1 
0 1 
0 1 1:0.13333333 2:2 3:1 4:1 12:1 13:1 14:0.097222222 
0 1 1:0.090909091 2:2 3:1 4:1 11:1 12:1 13:1 14:0.03125 
1 1 12:1 13:1 14:0.085899152 
1 1 12:1 13:1 14:0.085899152 
1 1 12:1 13:1 14:0.125 
0 1 1:0.066666667 2:1 3:1 4:1 7:1 12:1 13:1 14:0.10526316 
0 1 12:1 13:1 14:0.16477273 
0 1 1:0.2 2:3 3:3 4:1 12:1 14:0.5625 
0 1 5:2 6:1 
0 1 1:0.055555556 2:1 3:1 4:1 12:1 13:1 14:0.16477273 
1 1 12:1 13:1 
0 1 1:0.16666667 2:1 3:1 4:1 12:1 13:1 14:0.37297466 
0 1 
1 1 11:1 
0 1 1:0.05 2:1 3:1 4:1 
0 1 7:1 12:1 13:1 14:0.1016297 
0 1 
0 1 12:1 13:1 14:0.18421053 
1 1 5:1 6:1 
0 1 1:0.043478261 2:1 3:1 4:1 12:1 13:1 14:0.20588235 
1 1 11:1 12:1 13:1 14:0.085899152 
0 1 1:0.071428571 2:1 3:1 4:1 5:1 
0 1 
0.266246206675475 1 
1 1 11:1 12:1 13:1 14:0.43274854 
0.1097495274046685 1 1:0.16666667 2:2 3:2 4:1 
1 1 1:0.052631579 2:1 3:1 4:1 5:1 6:1 12:1 13:1 14:0.2 
1 1 1:0.14285714 2:2 3:2 4:1 5:1 6:1 
0 1 1:0.066666667 2:1 3:1 4:1 12:1 13:1 14:0.17873303 
0 1 12:1 14:0.11111111 
1 1 1:0.0625 2:1 3:1 4:1 12:1 13:1 14:0.085899152 
1 1 
1 1 1:0.047619048 2:1 3:1 4:1 11:1 
1 1 11:1 
0 1 12:1 14:0.5 
1 0 7:1 11:1 12:1 13:1 14:0.085899152 
0 1 5:1 
0 1 1:0.083333333 2:1 3:1 4:1 5:2 6:1 
0 1 1:0.11764706 2:2 4:1 9:1 
0 1 1:0.14285714 2:1 3:1 4:1 12:1 13:1 14:0.14108352 
0 1 1:0.05 2:1 3:1 4:1 5:1 
1 1 12:1 13:1 14:0.035714286 
0 1 1:0.058823529 2:1 3:1 4:1 12:1 13:1 14:0.21818182 
0 1 12:1 13:1 14:0.43274854 
1 1 5:2 6:2 11:1 12:1 13:1 14:0.085899152 
0 1 7:1 
1 1 5:1 6:1 
0 1 1:0.13333333 2:2 3:1 4:1 5:4 6:2 11:1 
0 1 1:0.071428571 2:1 3:1 4:1 12:1 13:1 14:0.125 
1 1 
1 1 
0 1 1:0.083333333 2:1 3:1 4:1 7:1 
0 1 7:1 
1 1 
1 1 11:3 
0 1 1:0.083333333 2:1 4:1 5:1 
1 1 11:1 12:1 13:1 
0 1 12:1 13:1 14:0.19345238 
0 1 1:0.071428571 2:1 4:1 12:1 13:1 14:0.085899152 
0 1 1:0.0625 2:1 3:1 4:1 12:1 13:1 14:0.17857143 
0 1 1:0.14285714 2:2 3:1 4:1 5:1 
0 0.338476118426675 5:6 6:2 12:1 13:1 14:0.15384615 
0 1 5:1 
1 1 
1 1 11:1 
0 1 1:0.0625 2:1 3:1 4:1 
0 1 7:1 11:1 
0 1 1:0.0625 2:1 3:1 4:1 
0 1 12:1 13:1 14:0.19354839 
1 1 
0 1 1:0.21052632 2:4 3:2 4:1 5:1 6:1 
0 1 1:0.090909091 2:1 4:1 12:1 13:1 14:0.053571429 
1 1 1:0.05 2:1 3:1 4:1 12:1 13:1 14:0.0625 
1 1 
1 1 5:1 6:1 12:1 13:1 14:0.16666667 
0 1 1:0.043478261 2:1 3:1 4:1 12:1 13:1 14:0.26470588 
0.9521745583984638 1 1:0.14285714 2:3 3:3 4:1 
0 1 12:1 13:1 14:0.25 
0 1 1:0.066666667 2:1 3:1 4:1 12:1 14:0.5 
0 1 12:1 13:1 14:0.43478261 
0 1 1:0.058823529 2:1 3:1 4:1 12:1 13:1 14:0.17857143 
0 1 1:0.0625 2:1 3:1 4:1 
0 1 1:0.0625 2:1 4:1 12:1 13:1 14:0.1875 
0 1 5:1 
0 1 1:0.10526316 2:2 3:2 4:1 
0 1 9:1 
0 1 12:1 14:0.5 
0 1 11:1 12:1 14:0.4 
0 1 1:0.05 2:1 3:1 4:1 12:1 14:0.5 
1 1 9:1 11:1 
1 1 1:0.090909091 2:1 3:1 4:1 
1 1 12:1 13:1 14:0.020833333 
0 1 1:0.23529412 2:4 3:3 4:1 12:1 14:0.125 
0 1 12:1 13:1 14:0.46607143 
0.03327538100995563 1 1:0.11111111 2:2 3:2 4:1 7:1 11:1 
1 1 
0 1 1:0.058823529 2:1 4:1 11:1 
0 1 1:0.0625 2:1 4:1 11:1 
0 1 12:1 13:1 14:0.47608025 
0 1 1:0.13333333 2:2 3:1 4:1 12:1 13:1 14:0.15178571 
1 1 12:1 13:1 14:0.11111111 
1 1 1:0.052631579 2:1 3:1 4:1 12:1 13:1 14:0.085899152 
0 1 1:0.14285714 2:1 3:1 4:1 7:1 12:1 13:1 14:0.13333333 
0 1 1:0.1 2:2 3:2 4:1 
0 1 1:0.076923077 2:1 3:1 4:1 12:1 13:1 14:0.14108352 
1 1 1:0.090909091 2:1 3:1 4:1 
0.8557899226458033 1 1:0.071428571 2:1 3:1 4:1 12:1 13:1 14:0.1016297 
1 1 
1 1 
0 1 12:1 13:1 14:0.28205128 
0 1 1:0.1 2:2 3:2 4:1 5:1 
0 1 12:1 13:1 14:0.203125 
1 1 1:0.18181818 2:2 3:2 4:1 12:1 13:1 14:0.080645161 
0 1 1:0.066666667 2:1 3:1 4:1 12:1 14:0.5 
0 1 7:1 
1 1 12:1 13:1 14:0.074660633 
0 1 12:1 14:0.25 
1 1 
1 1 1:0.083333333 2:2 3:2 4:1 11:1 12:1 13:1 14:0.16666667 
0 1 1:0.18181818 2:4 3:2 4:1 
0 1 1:0.05 2:1 4:1 
0.6788955248743014 1 1:0.095238095 2:2 3:2 4:1 
0 1 1:0.16666667 2:3 3:2 4:1 
0 1 1:0.11111111 2:1 3:1 4:1 12:1 14:0.3125 
0 1 12:1 14:0.3125 
0 1 1:0.083333333 2:1 3:1 4:1 5:1 12:1 14:0.16666667 
1 1 11:1 
0 1 12:1 13:1 14:0.17857143 
0 1 1:0.15789474 2:3 3:2 4:1 
1 1 
1 1 1:0.10526316 2:2 3:2 4:1 5:1 6:1 
0 1 1:0.083333333 2:1 3:1 4:1 12:1 13:1 14:0.17259174 
0 1 7:1 12:1 13:1 14:-0.055555556 
0 1 12:1 13:1 14:0.17259174 
0 1 12:1 13:1 14:0.14516129 
0 1 1:0.090909091 2:1 3:1 4:1 12:1 14:0.16666667 
0 1 12:1 14:0.5 
1 1 
1 1 5:1 6:1 11:1 
1 1 1:0.043478261 2:1 3:1 4:1 
0 1 1:0.1 2:1 3:1 4:1 12:1 14:0.27777778 
0 1 1:0.05 2:1 3:1 4:1 
0 1 1:0.2173913 2:5 3:4 4:1 5:1 11:1 
1 1 1:0.0625 2:1 3:1 4:1 11:1 
1 1 1:0.047619048 2:1 3:1 4:1 5:1 6:1 12:1 13:1 14:0.085899152 
1 1 11:1 
0 1 12:1 14:0.5 
0 1 1:0.28571429 2:4 3:4 4:1 7:1 
1 1 12:1 13:1 14:0.092592593 
0 1 1:0.1 2:1 3:1 4:1 12:1 13:1 14:0.2 
0 1 12:1 13:1 14:0.19354839 
0 1 1:0.11764706 2:2 3:1 4:1 
1 1 1:0.125 2:1 3:1 4:1 
0 1 7:1 
1 1 
0 1 1:0.071428571 2:1 3:1 4:1 12:1 14:0.25 
0 1 12:1 13:1 14:0.22619048 
1 1 1:0.13333333 2:2 3:2 4:1 
1 1 
0 1 1:0.0625 2:1 3:1 4:1 
0 1 11:1 12:1 14:0.25 
0 1 1:0.05 2:1 4:1 5:1 12:1 13:1 
1 1 
1 1 1:0.058823529 2:1 3:1 4:1 12:1 13:1 14:0.09375 
1 1 1:0.047619048 2:1 3:1 4:1 11:1 12:1 13:1 14:0.085899152 
1 1 11:1 12:1 13:1 14:0.081081081 
1 1 
0 1 1:0.14285714 2:3 3:3 4:1 12:1 14:0.46428571 
1 1 
1 1 11:1 12:1 13:1 14:0.085899152 
1 1 1:0.13333333 2:2 3:2 4:1 12:1 13:1 14:0.1016297 
0 1 7:1 
1 1 
0 1 1:0.058823529 2:1 3:1 4:1 
0 1 12:1 14:0.5 
0 1 12:1 14:0.25 
1 1 12:1 13:1 14:0.125 
0 1 1:0.0625 2:1 3:1 4:1 12:1 13:1 14:0.25 
1 1 1:0.1 2:2 3:2 4:1 12:1 13:1 14:0.1016297 
0 0.4041196223625798 11:1 12:1 14:0.5 
1 1 
1 1 12:1 13:1 
1 0 7:1 11:2 12:1 13:1 14:0.20833333 
0 1 1:0.15789474 2:3 3:2 4:1 12:1 13:1 14:0.1 
1 1 11:1 12:1 13:1 14:0.33333333 
1 1 1:0.090909091 2:1 3:1 4:1 12:1 13:1 14:0.085714286 
0 1 12:1 13:1 14:0.1875 
1 1 1:0.047619048 2:1 3:1 4:1 12:1 13:1 
1 1 11:1 
0 1 1:0.16666667 2:2 3:1 4:1 
0 1 1:0.055555556 2:1 3:1 4:1 12:1 13:1 14:0.22222222 
1 1 
0 1 1:0.052631579 2:1 3:1 4:1 5:1 
1 1 
0 1 12:1 13:1 14:0.375 
0 1 1:0.041666667 2:1 4:1 
0 1 1:0.3125 2:5 3:4 4:1 8:1 12:1 13:1 14:0.375 
1 1 1:0.076923077 2:1 3:1 4:1 11:2 12:1 13:1 14:0.12974684 
1 1 
0 1 1:0.15789474 2:3 3:2 4:1 
1 1 
0 1 12:1 13:1 14:0.23529412 
0 1 12:1 14:0.45 
0 1 1:0.041666667 2:1 3:1 4:1 12:1 14:0.5 
1 1 12:1 13:1 14:0.044117647 
1 1 1:0.33333333 2:4 3:4 4:1 12:1 13:1 
1 1 1:0.6 2:6 3:6 4:1 12:1 13:1 14:0.11538462 
0 1 1:0.083333333 2:1 3:1 4:1 12:1 13:1 14:0.2037037 
1 1 
1 1 
0 1 12:1 13:1 14:0.43274854 
0 1 1:0.125 2:2 3:1 4:1 12:1 14:0.22727273 
0 1 1:0.058823529 2:1 3:1 4:1 12:1 13:1 14:0.43274854 
0 1 1:0.11111111 2:1 4:1 
1 1 12:1 13:1 
1 1 
0.726232672680586 1 7:1 11:1 
1 1 11:2 12:1 13:1 14:0.14108352 
0 1 1:0.090909091 2:1 3:1 4:1 12:1 13:1 14:0.18344371 
0 1 1:0.13333333 2:2 3:2 4:1 5:1 12:1 13:1 14:0.1016297 
0 1 12:1 13:1 14:0.15 
0 1 12:1 13:1 14:0.15789474 
1 1 
1 1 11:1 12:1 13:1 14:0.085899152 
1 1 1:0.125 2:2 3:2 4:1 12:1 13:1 14:0.080645161 
1 1 
1 1 11:1 
0 1 5:1 
1 1 11:1 12:1 13:1 14:0.14018692 
1 1 
0 1 12:1 14:0.33333333 
0 1 12:1 14:0.5 
1 1 1:0.052631579 2:1 3:1 4:1 11:1 12:1 13:1 14:-0.049435028 
1 1 
0 1 12:1 14:0.5 
0 1 11:1 12:1 14:0.25 
0 1 12:1 13:1 14:0.14163237 
0 1 5:1 12:1 13:1 14:0.074660633 
0 1 1:0.083333333 2:1 3:1 4:1 12:1 14:0.33333333 
1 1 12:1 13:1 14:0.125 
0 1 1:0.22222222 2:4 3:3 4:1 12:1 14:0.375 
0 1 1:0.28571429 2:2 3:1 4:1 12:1 13:1 14:0.24450549 
0 1 12:1 14:0.125 
0 1 1:0.066666667 2:1 3:1 4:1 5:1 
0 1 1:0.0625 2:1 3:1 4:1 
0 1 1:0.11111111 2:1 3:1 4:1 5:1 12:1 13:1 14:0.092592593 
1 1 
0 1 1:0.058823529 2:1 3:1 4:1 12:1 14:0.5 
0 1 7:1 
1 1 
0 1 1:0.1 2:1 3:1 4:1 12:1 13:1 14:0.58896396 
0 1 12:1 13:1 14:0.15625 
0 1 12:1 14:0.5 
1 1 12:1 13:1 14:0.11627907 
0 1 1:0.1 2:1 3:1 4:1 12:1 13:1 14:0.14163237 
0 1 1:0.052631579 2:1 3:1 4:1 12:1 13:1 14:0.23863636 
0 1 7:1 
1 1 11:1 12:1 13:1 14:-0.008175278 
1 1 12:1 13:1 14:-0.045454545 
0 1 1:0.076923077 2:1 3:1 4:1 12:1 13:1 14:0.19599515 
0 1 1:0.043478261 2:1 3:1 4:1 12:1 14:0.33333333 
0 1 1:0.11111111 2:2 3:2 4:1 12:1 13:1 14:0.14108352 
0 1 1:0.23076923 2:3 3:1 4:1 12:1 14:0.16666667 
1 1 12:1 13:1 14:0.125 
0 1 1:0.076923077 2:2 3:1 4:1 5:1 6:1 12:1 13:1 
0 1 1:0.11111111 2:2 3:2 4:1 5:1 6:1 12:1 13:1 14:0.7625 
0 1 12:1 14:0.5 
1 1 12:1 13:1 14:0.083333333 
1 1 
0 1 5:1 12:1 13:1 14:0.041666667 
1 1 11:1 12:1 13:1 14:0.085899152 
1 1 11:2 12:1 14:0.44444444 
0 1 1:0.2 2:5 3:4 4:1 12:1 13:1 14:0.22222222 
1 1 1:0.052631579 2:1 3:1 4:1 11:1 12:1 13:1 14:0.099264706 
1 1 12:1 13:1 14:-0.125 
1 1 11:1 12:1 13:1 14:0.28205128 
1 1 
1 1 12:1 13:1 14:0.1016297 
1 1 1:0.090909091 2:1 3:1 4:1 
0 1 1:0.055555556 2:1 4:1 11:1 12:1 13:1 14:0.19444444 
0 1 1:0.071428571 2:1 4:1 11:1 12:1 13:1 14:-0.083333333 
1 1 1:0.11111111 2:1 3:1 4:1 
1 1 
0 1 1:0.125 2:2 3:2 4:1 7:1 12:1 13:1 14:0.22222222 
0 1 7:1 12:1 13:1 14:0.091240876 
1 1 11:1 
0 1 1:0.15384615 2:2 3:1 4:1 5:1 
0 1 1:0.045454545 2:1 4:1 12:1 13:1 14:0.19387755 
1 1 11:1 
1 1 
0 0.2810794416492786 1:0.066666667 2:1 4:1 5:2 6:1 11:1 12:1 13:1 
0 1 1:0.071428571 2:1 3:1 4:1 12:1 13:1 14:0.11538462 
1 1 12:1 13:1 
0 1 1:0.076923077 2:1 3:1 4:1 12:1 13:1 14:0.24450549 
1 1 11:1 12:1 13:1 14:0.14285714 
1 1 1:0.055555556 2:1 3:1 4:1 11:1 12:1 13:1 14:-0.008175278 
0 1 12:1 14:0.5 
0 1 1:0.071428571 2:1 4:1 12:1 14:0.5 
0 1 12:1 13:1 14:0.14108352 
0 1 12:1 13:1 14:0.14108352 
1 1 1:0.076923077 2:1 3:1 4:1 11:1 12:1 13:1 14:0.21818182 
0 1 1:0.066666667 2:1 4:1 5:1 
1 1 11:1 12:1 13:1 14:-0.008175278 
1 1 1:0.23529412 2:4 3:4 4:1 12:1 13:1 14:-0.125 
0.5000454815874725 1 1:0.14285714 2:2 3:1 4:1 5:6 6:4 12:1 13:1 14:0.1875 
1 1 
0 1 5:1 
0 1 7:1 12:1 13:1 14:0.11111111 
1 1 1:0.11111111 2:1 3:1 4:1 12:1 13:1 14:0.085899152 
1 1 1:0.125 2:3 3:3 4:1 11:1 12:1 13:1 14:0.17372881 
0.2038796833316948 1 1:0.39130435 2:9 3:8 4:1 12:1 13:1 14:0.1686747 
0.2901324003462964 0 11:2 12:1 14:0.65972222 
1 1 11:1 12:1 13:1 14:-0.16666667 
0 0.4872386137459133 1:0.29411765 2:5 3:3 4:1 7:1 
0 1 1:0.090909091 2:1 3:1 4:1 7:1 
1 1 11:1 12:1 13:1 14:0.18344371 
1 0 1:0.066666667 2:1 3:1 4:1 7:1 8:1 12:1 13:1 14:0.21153846 
1 1 12:1 13:1 14:0.085899152 
0 1 12:1 14:0.5 
0 1 7:1 
1 1 12:1 13:1 14:0.10416667 
0 1 5:1 
0.2829940419930919 1 1:0.4 2:6 3:6 4:1 
0 1 1:0.14285714 2:2 3:1 4:1 12:1 13:1 14:0.14163237 
0 1 1:0.052631579 2:1 3:1 4:1 12:1 13:1 14:0.12286689 
1 1 11:1 
1 1 1:0.13333333 2:2 3:2 4:1 
0 1 1:0.13333333 2:2 3:1 4:1 11:1 
1 1 
1 1 
0 1 9:1 
1 1 11:1 
0 1 1:0.090909091 2:1 4:1 
0 1 12:1 14:0.5 
1 1 12:1 13:1 14:0.074660633 
0 1 1:0.125 2:2 3:1 4:1 11:1 12:1 14:0.125 
1 1 
0 1 1:0.23529412 2:4 3:2 4:1 12:1 14:0.5 
0 1 5:1 12:1 14:0.1 
1 1 11:1 
1 1 12:1 13:1 14:0.125 
1 1 1:0.15384615 2:2 3:1 4:1 11:2 
0 1 1:0.058823529 2:1 3:1 4:1 12:1 13:1 14:0.28205128 
0 1 1:0.15384615 2:2 3:2 4:1 12:1 13:1 14:0.17259174 
1 1 1:0.05 2:1 3:1 4:1 5:1 6:1 
0 1 7:1 12:1 13:1 14:0.085899152 
0.9270503131566027 1 1:0.086956522 2:2 3:2 4:1 
1 1 12:1 13:1 14:-0.16666667 
0 1 1:0.090909091 2:1 4:1 5:1 
1 1 5:1 6:1 12:1 13:1 14:0.23511905 
0.5862031893938243 0.3038249974165 1:0.23529412 2:4 4:1 5:7 12:1 14:0.5 
1 1 
0 1 12:1 13:1 14:0.14724576 
0 1 1:0.045454545 2:1 3:1 4:1 12:1 14:0.5 
1 1 
0 1 1:0.18181818 2:2 3:2 4:1 5:2 6:2 7:1 12:1 14:0.5 
0 1 12:1 13:1 14:0.14285714 
1 1 11:1 12:1 13:1 14:0.2125 
0 1 5:1 12:1 13:1 
1 1 1:0.066666667 2:1 3:1 4:1 
0 1 12:1 13:1 14:0.18181818 
1 1 12:1 13:1 14:0.085899152 
0 1 1:0.38461538 2:5 3:5 4:1 12:1 13:1 14:0.25 
1 1 12:1 13:1 14:0.051724138 
1 1 7:1 11:1 
0 1 12:1 13:1 14:0.2875 
0 1 1:0.05 2:1 4:1 
1 1 
1 1 
0 1 1:0.14285714 2:1 3:1 4:1 12:1 14:0.22727273 
0 1 1:0.066666667 2:1 3:1 4:1 12:1 14:0.5 
1 1 11:1 
1 1 1:0.055555556 2:1 3:1 4:1 5:1 6:1 12:1 13:1 14:0.1016297 
0 1 1:0.13333333 2:2 3:2 4:1 12:1 13:1 14:0.14705882 
1 1 11:1 
1 1 
0 1 1:0.0625 2:1 3:1 4:1 12:1 14:0.5 
0 1 1:0.071428571 2:1 3:1 4:1 5:2 6:1 12:1 13:1 14:-0.3625 
0 1 1:0.35714286 2:5 3:3 4:1 7:1 
1 1 
1 1 1:0.083333333 2:1 3:1 4:1 11:1 12:1 13:1 14:-0.008175278 
0 1 1:0.14285714 2:1 4:1 5:1 
0 1 12:1 14:0.25 
0 1 1:0.625 2:5 3:5 4:1 12:1 13:1 14:0.1 
1 1 12:1 13:1 14:-0.049435028 
1 0 8:1 9:1 11:1 12:1 13:1 14:0.20512821 
0 1 1:0.19230769 2:5 4:1 12:1 14:0.5 
0 1 1:0.15 2:3 3:2 4:1 11:1 12:1 14:0.3875 
0 1 1:0.083333333 2:1 4:1 7:1 
0 1 1:0.16666667 2:2 3:1 4:1 12:1 14:0.25 
0 1 5:1 
1 1 1:0.058823529 2:1 3:1 4:1 12:1 13:1 14:0.1 
0 1 5:1 11:1 
0 1 12:1 14:0.25 
0 1 1:0.090909091 2:1 4:1 7:1 
0 1 1:0.11764706 2:2 3:1 4:1 11:1 12:1 14:0.25 
0 1 1:0.071428571 2:1 3:1 4:1 12:1 14:0.5625 
0 1 12:1 14:0.16666667 
1 1 1:0.23529412 2:4 3:4 4:1 11:1 12:1 13:1 14:0.085899152 
0 1 1:0.071428571 2:1 4:1 12:1 14:0.45 
1 1 
1 1 
1 1 1:0.055555556 2:1 3:1 4:1 11:1 12:1 13:1 14:0.092592593 
0 1 1:0.05 2:1 4:1 5:1 
0 1 1:0.11111111 2:1 3:1 4:1 12:1 14:0.25 
0 1 11:1 12:1 14:0.47222222 
1 1 1:0.071428571 2:1 3:1 4:1 12:1 13:1 14:0.092592593 
0 1 12:1 14:0.5 
1 1 
1 1 
0 1 7:1 12:1 13:1 14:0.1016297 
0 1 1:0.18181818 2:2 4:1 
0 1 12:1 13:1 14:0.17808219 
1 1 
1 1 1:0.125 2:3 3:3 4:1 12:1 13:1 14:0.13978495 
0 1 12:1 13:1 14:0.14545455 
0 1 5:2 6:1 12:1 13:1 14:0.070512821 
1 1 1:0.055555556 2:1 3:1 4:1 5:1 6:1 
1 1 1:0.071428571 2:1 3:1 4:1 5:1 6:1 12:1 13:1 14:0.041666667 
0 1 1:0.055555556 2:1 3:1 4:1 
0 1 5:1 
1 1 11:1 
1 1 1:0.0625 2:1 3:1 4:1 12:1 13:1 14:0.085899152 
1 1 11:1 12:1 13:1 14:0.1016297 
0 1 1:0.066666667 2:1 3:1 4:1 5:1 11:1 
1 1 
1 1 1:0.052631579 2:1 3:1 4:1 12:1 13:1 14:0.070512821 
0 1 12:1 13:1 14:0.23529412 
1 1 
1 1 
0 1 1:0.047619048 2:1 4:1 12:1 14:0.5 
0 1 1:0.045454545 2:1 4:1 12:1 14:0.5 
0 1 1:0.16666667 2:1 3:1 4:1 12:1 13:1 14:0.19230769 
0 1 12:1 13:1 14:0.14108352 
0 1 1:0.14285714 2:2 3:2 4:1 5:1 
1 1 11:1 
0 1 7:1 12:1 13:1 14:-0.24038462 
1 1 
1 1 
1 1 1:0.33333333 2:1 3:1 4:1 12:1 13:1 14:0.05801105 
0 1 12:1 13:1 14:0.46969697 
1 1 
0 1 12:1 13:1 14:0.2 
1 1 1:0.071428571 2:1 3:1 4:1 12:1 13:1 14:0.083333333 
1 1 12:1 13:1 14:0.12601626 
1 1 
1 1 1:0.11764706 2:2 3:2 4:1 
0 1 1:0.05 2:1 3:1 4:1 12:1 14:0.5 
0 1 1:0.125 2:2 3:1 4:1 12:1 13:1 14:0.46607143 
0 1 1:0.15384615 2:2 3:1 4:1 11:1 
0 1 1:0.066666667 2:1 3:1 4:1 5:3 6:1 
0 1 1:0.083333333 2:1 4:1 12:1 14:0.5 
0 1 1:0.11111111 2:2 3:1 4:1 11:1 12:1 13:1 14:0.23529412 
0 1 1:0.11111111 2:2 3:1 4:1 11:1 12:1 13:1 14:0.23529412 
0 1 1:0.055555556 2:1 3:1 4:1 5:2 6:1 11:1 
0 1 12:1 13:1 14:0.14018692 
1 1 12:1 13:1 14:0.1016297 
1 1 12:1 13:1 14:0.085899152 
1 1 1:0.058823529 2:1 3:1 4:1 12:1 13:1 14:0.097744361 
1 1 1:0.1875 2:3 3:3 4:1 12:1 13:1 14:0.1016297 
0 1 1:0.0625 2:1 4:1 5:2 6:1 11:1 12:1 13:1 14:-0.008175278 
1 1 
1 1 
0 1 1:0.14285714 2:1 3:1 4:1 12:1 14:0.25 
0 1 7:1 
0 1 1:0.11764706 2:2 3:2 4:1 12:1 13:1 14:0.16666667 
1 1 12:1 13:1 14:0.11538462 
0 1 12:1 14:0.2 
0 1 1:0.0625 2:1 4:1 
0 1 7:1 
1 1 12:1 13:1 14:0.085899152 
1 1 11:2 
0 1 7:1 
0 1 12:1 13:1 14:0.14705882 
0 1 1:0.076923077 2:1 3:1 4:1 12:1 14:0.25 
1 1 1:0.058823529 2:1 3:1 4:1 12:1 13:1 14:0.085899152 
0 1 1:0.083333333 2:1 3:1 4:1 12:1 13:1 14:0.25 
0 1 1:0.083333333 2:1 4:1 12:1 13:1 14:0.46969697 
0 1 12:1 14:0.41666667 
0 1 12:1 14:0.5 
0 1 1:0.21052632 2:4 3:3 4:1 11:1 12:1 13:1 14:0.16666667 
1 1 12:1 13:1 14:0.08 
0 1 5:1 
0 1 12:1 13:1 14:0.14724576 
1 1 12:1 13:1 14:0.12790698 
0 1 1:0.10714286 2:3 3:3 4:1 7:1 12:1 13:1 14:0.085899152 
1 1 
1 1 12:1 13:1 14:0.10377358 
0 1 1:0.18181818 2:2 3:1 4:1 5:1 
0 1 7:1 
1 1 1:0.071428571 2:1 3:1 4:1 11:1 12:1 13:1 14:0.031914894 
0 1 1:0.22222222 2:4 3:2 4:1 5:2 
1 1 12:1 13:1 14:0.085899152 
0 1 12:1 13:1 14:0.14545455 
0 1 1:0.066666667 2:1 3:1 4:1 12:1 13:1 14:0.14163237 
0 1 1:0.13636364 2:3 3:3 4:1 12:1 14:0.16666667 
0 1 7:1 
0 1 12:1 14:0.375 
1 1 11:1 12:1 13:1 14:0.20833333 
1 1 11:1 
0 1 7:1 
0 1 12:1 13:1 14:0.14705882 
0 1 7:1 
0 1 1:0.14285714 2:3 3:3 4:1 12:1 13:1 14:0.7625 
0 1 12:1 13:1 14:0.28205128 
0 1 1:0.10526316 2:2 4:1 
1 1 1:0.076923077 2:1 3:1 4:1 11:1 12:1 13:1 14:-0.008175278 
0 1 12:1 14:0.47222222 
0 1 1:0.26666667 2:4 3:2 4:1 5:1 12:1 13:1 14:0.078125 
0 1 1:0.15384615 2:2 4:1 12:1 14:0.4 
0 1 5:1 11:1 
1 1 
1 1 1:0.125 2:1 3:1 4:1 12:1 13:1 14:0.1016297 
0 1 12:1 13:1 14:0.18344371 
0 1 1:0.071428571 2:1 4:1 12:1 14:0.5 
1 1 
0 1 1:0.11111111 2:2 3:1 4:1 5:1 6:1 12:1 13:1 14:0.2125 
1 1 11:1 12:1 13:1 14:0.43274854 
1 1 1:0.15 2:3 3:3 4:1 12:1 13:1 14:0.071428571 
0 1 5:1 
1 1 7:1 11:1 
0 1 5:1 12:1 13:1 14:0.068493151 
0 1 1:0.18181818 2:2 3:2 4:1 5:1 12:1 13:1 14:0.24450549 
0 1 12:1 13:1 14:0.58896396 
0 1 1:0.19047619 2:4 3:3 4:1 12:1 14:0.5 
0.1315857313480168 0 1:0.2962963 2:8 3:3 4:1 5:1 11:1 12:1 13:1 14:-0.008175278 
1 1 
0 1 1:0.066666667 2:1 3:1 4:1 5:1 6:1 7:1 12:1 13:1 14:0.070512821 
0 1 1:0.071428571 2:1 4:1 12:1 14:0.1 
0 1 1:0.076923077 2:1 3:1 4:1 12:1 14:0.5 
0 1 12:1 14:0.22222222 
0 1 1:0.16666667 2:1 4:1 
1 1 
1 1 1:0.066666667 2:1 3:1 4:1 11:1 12:1 13:1 14:0.22222222 
1 1 
1 1 1:0.083333333 2:1 3:1 4:1 
1 1 
0 1 12:1 14:0.5 
1 1 12:1 13:1 14:0.12658228 
0 1 1:0.35714286 2:5 3:5 4:1 12:1 13:1 14:0.055555556 
1 1 12:1 13:1 14:0.1 
1 1 
0 1 1:0.076923077 2:1 3:1 4:1 12:1 14:0.3 
1 1 
1 1 11:1 12:1 13:1 14:0.085899152 
0 1 12:1 14:0.5 
0 1 5:1 12:1 13:1 14:0.037735849 
1 1 1:0.090909091 2:2 3:2 4:1 11:2 
0 1 1:0.0625 2:1 3:1 4:1 12:1 13:1 14:0.1125 
0 1 1:0.14285714 2:2 3:1 4:1 12:1 13:1 
0 1 7:1 
0 1 12:1 13:1 14:0.25 
0 1 1:0.083333333 2:1 3:1 4:1 12:1 13:1 14:0.14724576 
1 1 
1 1 
0 1 1:0.28571429 2:4 3:3 4:1 12:1 13:1 14:0.29251701 
0 1 1:0.083333333 2:1 3:1 4:1 12:1 13:1 14:0.17259174 
1 1 5:1 6:1 12:1 13:1 14:0.076923077 
1 1 
0 1 1:0.090909091 2:1 3:1 4:1 12:1 14:0.5 
0 1 7:1 12:1 13:1 14:0.085899152 
0 1 12:1 14:0.27777778 
1 1 12:1 13:1 14:0.13978495 
1 1 11:2 12:1 13:1 14:-0.008175278 
1 1 12:1 13:1 14:0.085899152 
0 1 1:0.11111111 2:1 4:1 
0 1 1:0.13333333 2:2 3:1 4:1 12:1 13:1 14:0.18859649 
0 1 1:0.0625 2:1 4:1 12:1 14:0.5 
0 1 12:1 14:0.45 
0 1 5:1 12:1 13:1 
1 1 7:1 11:1 
1 1 
0 1 9:1 12:1 13:1 14:0.11666667 
1 1 12:1 13:1 14:0.10714286 
1 1 
1 1 1:0.11111111 2:2 3:2 4:1 11:1 
0 1 12:1 13:1 14:0.18421053 
0 1 9:1 12:1 13:1 14:0.085899152 
0 1 1:0.066666667 2:1 4:1 12:1 13:1 14:0.041666667 
1 1 12:1 13:1 14:0.13829787 
1 1 12:1 13:1 14:0.125 
1 1 
0 1 1:0.058823529 2:1 3:1 4:1 
0 1 1:0.45454545 2:5 3:5 4:1 12:1 13:1 14:0.21153846 
0 1 9:1 
0 1 1:0.076923077 2:1 3:1 4:1 12:1 14:0.5 
1 1 1:0.14285714 2:2 3:2 4:1 12:1 13:1 14:-0.089285714 
1 1 1:0.090909091 2:1 3:1 4:1 11:1 12:1 13:1 14:0.085899152 
0 1 1:0.1 2:1 4:1 5:1 
0 1 1:0.125 2:2 3:1 4:1 
0 1 1:0.047619048 2:1 3:1 4:1 12:1 13:1 14:0.17864078 
0 1 1:0.090909091 2:1 3:1 4:1 5:1 12:1 13:1 14:0.18181818 
1 1 
0 1 12:1 13:1 14:0.26086957 
1 1 1:0.066666667 2:1 3:1 4:1 12:1 13:1 14:-0.072115385 
1 1 1:0.2 2:2 3:2 4:1 11:1 12:1 13:1 14:-0.008175278 
0 1 5:2 6:1 
0 1 1:0.066666667 2:1 3:1 4:1 12:1 14:0.5 
0 1 12:1 14:0.5 
1 1 11:1 12:1 13:1 14:-0.008175278 
1 1 
0 1 1:0.047619048 2:1 4:1 12:1 13:1 14:0.15789474 
0 1 12:1 13:1 14:0.15714286 
0 1 12:1 13:1 14:0.25 
0 1 1:0.052631579 2:1 4:1 12:1 14:0.5 
0 1 1:0.13333333 2:2 4:1 5:2 6:1 
0 1 7:1 
1 1 11:1 
0 1 1:0.15384615 2:2 3:2 4:1 12:1 13:1 14:0.14163237 
0 1 11:1 12:1 14:0.5 
1 1 1:0.047619048 2:1 3:1 4:1 12:1 13:1 14:0.096774194 
0 1 1:0.052631579 2:1 3:1 4:1 12:1 13:1 14:0.11521739 
0 1 1:0.0625 2:1 3:1 4:1 12:1 13:1 14:0.25 
0 1 1:0.083333333 2:1 3:1 4:1 12:1 13:1 14:0.37297466 
0 1 1:0.090909091 2:1 3:1 4:1 12:1 13:1 14:0.10714286 
1 1 1:0.076923077 2:1 3:1 4:1 
1 1 12:1 13:1 14:0.1016297 
0 1 1:0.12 2:3 3:2 4:1 12:1 13:1 14:0.19 
0 1 1:0.11764706 2:2 3:2 4:1 12:1 14:0.5 
0 1 1:0.1 2:1 3:1 4:1 12:1 13:1 14:0.25 
0 1 5:1 11:1 
1 1 
1 1 1:0.035714286 2:1 3:1 4:1 
0 1 12:1 13:1 14:0.29166667 
1 1 
1 1 
1 1 11:1 
0 1 7:1 
1 1 1:0.05 2:1 3:1 4:1 11:1 12:1 13:1 14:-0.008175278 
0 1 1:0.11111111 2:2 3:1 4:1 11:1 12:1 13:1 14:-0.008175278 
0 1 9:1 12:1 13:1 14:0.10927152 
1 1 12:1 13:1 14:0.12601626 
1 1 12:1 13:1 14:0.11521739 
0 1 12:1 13:1 14:0.15591398 
0 1 12:1 14:0.5 
0 1 1:0.22222222 2:4 3:3 4:1 12:1 13:1 14:0.17864078 
1 1 1:0.090909091 2:1 3:1 4:1 11:1 12:1 13:1 14:-0.008175278 
0 1 12:1 13:1 14:0.17808219 
1 1 
1 1 12:1 13:1 14:0.085899152 
0 1 1:0.055555556 2:1 3:1 4:1 5:1 12:1 13:1 14:0.085899152 
1 1 11:1 12:1 13:1 14:-0.008175278 
0 1 5:1 
0 1 1:0.04 2:1 4:1 12:1 13:1 
1 1 
1 1 12:1 13:1 14:0.1016297 
0 1 1:0.090909091 2:1 4:1 11:1 
1 1 1:0.052631579 2:1 3:1 4:1 12:1 13:1 
1 1 
1 1 7:1 11:1 
0 1 1:0.076923077 2:1 3:1 4:1 12:1 14:0.5 
0 1 12:1 13:1 14:0.19387755 
1 1 
0 1 7:1 
0 1 7:1 12:1 13:1 14:0.037735849 
0 1 1:0.05 2:1 3:1 4:1 12:1 14:0.5 
0 1 12:1 13:1 14:0.24450549 
0 1 1:0.055555556 2:1 4:1 5:2 6:1 12:1 13:1 14:0.125 
0 1 1:0.071428571 2:1 3:1 4:1 12:1 13:1 14:0.18859649 
0 1 1:0.38461538 2:5 3:5 4:1 12:1 13:1 14:0.16666667 
0 1 1:0.083333333 2:1 4:1 12:1 14:0.25 
0 1 12:1 14:0.45 
1 1 7:1 8:1 12:1 13:1 14:0.085899152 
1 1 
1 1 11:1 12:1 13:1 14:0.074660633 
0 1 1:0.10526316 2:2 3:1 4:1 11:1 12:1 14:0.25 
0 1 7:1 
1 1 1:0.058823529 2:1 3:1 4:1 12:1 13:1 14:-0.033333333 
1 1 12:1 13:1 
1 1 11:1 
1 1 12:1 13:1 14:-0.089285714 
1 1 11:1 
0 1 1:0.125 2:3 3:3 4:1 12:1 14:0.5 
1 1 
0 1 1:0.045454545 2:1 3:1 4:1 12:1 14:0.5 
0 1 12:1 14:0.5 
0 1 12:1 14:0.5 
0 1 1:0.066666667 2:1 3:1 4:1 12:1 14:0.5 
0 1 1:0.047619048 2:1 3:1 4:1 9:1 
1 1 12:1 13:1 14:0.085899152 
0 1 1:0.16666667 2:3 3:1 4:1 12:1 14:0.05 
0 1 5:1 
1 1 
1 1 
0.6012581788430119 1 1:0.42857143 2:6 3:6 4:1 12:1 13:1 14:0.078125 
0 1 1:0.25 2:2 3:1 4:1 
0 1 1:0.071428571 2:1 3:1 4:1 12:1 13:1 14:0.10597826 
0 0.2820769653933263 7:1 
0 1 1:0.055555556 2:1 3:1 4:1 
0 1 1:0.21052632 2:4 3:2 4:1 5:2 
1 1 1:0.11111111 2:2 3:2 4:1 12:1 13:1 
0 0.8207565551823076 5:1 12:1 13:1 14:0.085899152 
1 1 
1 1 1:0.071428571 2:1 3:1 4:1 12:1 13:1 14:0.07 
1 1 1:0.058823529 2:1 3:1 4:1 12:1 13:1 
0 1 12:1 13:1 14:0.18181818 
0 1 1:0.0625 2:1 3:1 4:1 12:1 14:0.125 
0 1 1:0.090909091 2:2 3:2 4:1 12:1 14:0.33333333 
1 1 12:1 13:1 14:0.085899152 
1 1 
0 1 5:1 
1 1 12:1 13:1 14:0.076923077 
1 1 
1 1 11:1 12:1 13:1 14:0.20833333 
0 1 1:0.058823529 2:1 3:1 4:1 12:1 13:1 14:0.1016297 
1 1 11:1 
0 1 11:1 12:1 14:0.5 
0 1 12:1 13:1 14:0.43274854 
0 1 1:0.0625 2:1 3:1 4:1 5:1 12:1 13:1 14:0.125 
0 1 12:1 13:1 14:0.2037037 
0 1 1:0.0625 2:1 3:1 4:1 12:1 14:0.5 
1 1 12:1 13:1 14:0.11111111 
1 1 1:0.090909091 2:1 3:1 4:1 
1 1 1:0.21428571 2:3 3:3 4:1 7:1 11:1 
0 1 1:0.071428571 2:1 3:1 4:1 12:1 13:1 14:0.17156863 
0 1 1:0.25 2:4 3:3 4:1 12:1 14:0.5 
0 1 1:0.16666667 2:2 3:2 4:1 12:1 13:1 14:0.13068182 
0 1 12:1 14:0.45 
1 1 1:0.25 2:3 3:3 4:1 
1 1 1:0.11111111 2:2 3:2 4:1 
0 1 1:0.05 2:1 3:1 4:1 12:1 14:0.5 
1 1 1:0.052631579 2:1 3:1 4:1 12:1 13:1 14:0.1 
0 1 1:0.066666667 2:1 3:1 4:1 5:1 12:1 13:1 
0 1 5:1 
1 1 12:1 13:1 
1 1 5:1 6:1 12:1 13:1 
0 1 11:1 12:1 14:0.47222222 
1 1 1:0.083333333 2:1 3:1 4:1 
0 1 1:0.28571429 2:4 3:2 4:1 
0 1 12:1 13:1 14:0.23809524 
0 1 1:0.38461538 2:5 3:5 4:1 12:1 13:1 14:0.088235294 
0 1 1:0.052631579 2:1 3:1 4:1 
1 1 11:1 
1 1 11:1 
1 1 1:0.14285714 2:2 3:2 4:1 5:2 6:2 
1 1 12:1 13:1 14:0.08974359 
0 1 12:1 13:1 14:0.18341709 
0 1 1:0.066666667 2:1 4:1 12:1 14:0.25 
0 1 1:0.058823529 2:1 3:1 4:1 12:1 13:1 14:0.18181818 
1 1 1:0.076923077 2:1 3:1 4:1 12:1 13:1 14:0.1016297 
1 1 
1 1 1:0.1 2:1 3:1 4:1 
0 1 1:0.0625 2:1 3:1 4:1 
1 1 
1 1 11:2 12:1 13:1 14:0.026315789 
1 1 1:0.076923077 2:1 3:1 4:1 
1 1 11:1 12:1 13:1 14:-0.008175278 
1 1 1:0.11764706 2:2 3:2 4:1 
0 1 12:1 14:0.5 
0.3823257326425863 0 1:0.052631579 2:1 3:1 4:1 5:1 11:2 12:1 13:1 14:0.20833333 
0 1 1:0.058823529 2:1 3:1 4:1 
1 1 
0 1 1:0.0625 2:1 3:1 4:1 
0 1 12:1 13:1 14:0.23809524 
0 1 1:0.083333333 2:1 3:1 4:1 11:1 12:1 14:0.46428571 
0 1 1:0.16666667 2:1 3:1 4:1 12:1 13:1 14:0.10635359 
1 1 1:0.043478261 2:1 3:1 4:1 
0 1 1:0.055555556 2:1 3:1 4:1 
1 1 5:2 6:2 11:1 12:1 13:1 14:0.05 
1 1 1:0.10526316 2:2 3:2 4:1 12:1 13:1 14:0.0625 
0 1 12:1 13:1 14:0.16666667 
0 1 12:1 13:1 14:0.23809524 
1 1 12:1 13:1 14:0.041666667 
0 1 1:0.0625 2:1 3:1 4:1 5:1 
1 1 
1 1 
1 1 1:0.14285714 2:1 3:1 4:1 
0 1 12:1 13:1 14:0.25 
0 1 12:1 13:1 14:0.23809524 
0 1 1:0.0625 2:1 3:1 4:1 5:4 6:2 12:1 13:1 14:0.1016297 
0 1 1:0.05 2:1 3:1 4:1 
1 1 1:0.055555556 2:1 3:1 4:1 11:1 12:1 13:1 14:0.15217391 
0 1 1:0.17647059 2:3 3:2 4:1 11:1 
0 1 1:0.071428571 2:1 3:1 4:1 5:1 
0 1 12:1 13:1 14:0.16477273 
0 1 1:0.16666667 2:1 3:1 4:1 12:1 13:1 14:0.2 
1 1 
1 1 12:1 13:1 14:0.020833333 
1 1 12:1 13:1 14:0.085899152 
1 1 
0 1 1:0.14285714 2:2 3:2 4:1 5:1 
1 1 1:0.11764706 2:2 3:2 4:1 12:1 13:1 14:0.085899152 
1 1 
-0 1 13:1 14:-0.5 
-1 1 12:1 13:1 14:0.038461538 
-1 1 11:1 12:1 13:1 14:0.034482759 
-1 1 12:1 13:1 14:-0.35887097 
-1 1 
-1 1 
-1 1 11:1 
-0 1 1:0.14285714 2:2 3:2 4:1 11:1 13:1 14:-0.5 
-0 1 1:0.071428571 2:1 3:1 4:1 5:1 6:1 13:1 14:-0.5 
-1 1 11:1 
-1 1 12:1 13:1 14:-0.055555556 
-1 1 5:1 6:1 
-1 1 1:0.037037037 2:1 3:1 4:1 
-1 1 12:1 13:1 14:0.12096774 
-0 1 6:1 12:1 13:1 14:0.1016297 
-1 1 12:1 13:1 14:0.16666667 
-1 1 1:0.071428571 2:1 3:1 4:1 12:1 13:1 14:-0.12962963 
-1 1 1:0.11111111 2:2 3:2 4:1 12:1 13:1 14:-0.0875 
-1 1 11:1 
-0 1 1:0.071428571 2:1 3:1 4:1 5:1 6:1 13:1 14:-0.5 
-1 1 5:1 6:1 
-0.4660498669372068 1 11:2 
-1 1 11:1 12:1 13:1 14:-0.008175278 
-1 1 5:1 6:1 12:1 13:1 14:-0.16666667 
-1 1 8:1 
-1 1 5:1 6:1 12:1 13:1 14:0.14108352 
-0 1 13:1 14:-0.5 
-1 1 1:0.058823529 2:1 3:1 4:1 12:1 13:1 14:-0.027777778 
-1 1 11:1 
-1 1 
-1 1 1:0.083333333 2:1 3:1 4:1 11:1 12:1 13:1 14:0.2 
-0.5007284640426309 1 1:0.11111111 2:1 3:2 4:1 12:1 13:1 14:0.025 
-1 1 12:1 13:1 14:0.068493151 
-1 1 11:1 12:1 13:1 
-1 1 12:1 13:1 14:0.052631579 
-0.1152187137899632 1 1:0.16666667 3:1 4:1 
-1 1 
-0 1 6:1 12:1 13:1 14:0.085899152 
-0 1 5:1 6:2 12:1 13:1 14:0.052631579 
-1 1 
-1 1 
-1 1 1:0.066666667 2:1 3:1 4:1 12:1 13:1 14:0.11170213 
-1 1 
-1 1 11:1 12:1 13:1 14:0.17647059 
-1 1 11:1 12:1 13:1 14:-0.008175278 
-1 1 12:1 13:1 14:0.085899152 
-1 1 11:1 12:1 13:1 14:0.085899152 
-1 1 11:1 
-1 1 12:1 13:1 
-1 1 1:0.071428571 3:1 4:1 
-1 1 11:1 12:1 13:1 14:0.10080645 
-1 1 12:1 13:1 14:0.068527919 
-1 1 1:0.071428571 2:1 3:1 4:1 
-1 1 12:1 13:1 14:-0.12962963 
-1 1 1:0.047619048 2:1 3:1 4:1 11:1 12:1 13:1 
-1 1 12:1 13:1 
-1 1 11:1 
-0 1 1:0.058823529 3:1 4:1 12:1 13:1 14:-0.038461538 
-1 1 1:0.041666667 2:1 3:1 4:1 12:1 13:1 14:-0.24038462 
-1 1 11:1 12:1 13:1 14:0.085899152 
-1 1 1:0.076923077 2:1 3:1 4:1 11:1 12:1 13:1 14:0.12 
-1 1 12:1 13:1 14:-0.045454545 
-1 1 1:0.18181818 2:2 3:2 4:1 7:1 13:1 14:-0.875 
-1 1 12:1 13:1 14:-0.12962963 
-1 1 1:0.066666667 2:1 3:1 4:1 11:1 12:1 13:1 14:0.09375 
-1 1 1:0.10526316 2:2 3:2 4:1 12:1 13:1 14:0.033613445 
-1 1 12:1 13:1 14:0.085899152 
-1 1 1:0.055555556 2:1 3:1 4:1 
-1 1 
-1 1 12:1 13:1 14:0.097744361 
-1 1 
-1 1 12:1 13:1 14:0.14545455 
-1 1 5:1 6:2 12:1 13:1 14:0.10927152 
-1 1 1:0.14285714 2:2 3:2 4:1 11:1 12:1 13:1 14:0.097222222 
-1 1 12:1 13:1 14:0.085899152 
-0 1 13:1 14:-0.5 
-1 1 1:0.076923077 3:1 4:1 
-1 1 1:0.076923077 2:1 3:1 4:1 5:1 6:1 
-1 1 12:1 13:1 14:-0.12962963 
-0 1 1:0.13333333 2:1 3:2 4:1 13:1 14:-0.5 
-0.3842839708572723 1 1:0.125 3:1 4:1 
-1 1 1:0.15789474 2:3 3:3 4:1 5:2 6:2 12:1 13:1 
-1 1 12:1 13:1 14:0.1016297 
-1 1 6:1 
-1 1 11:1 
-1 1 11:1 12:1 13:1 14:0.091240876 
-1 1 1:0.083333333 3:1 4:1 
-1 1 12:1 13:1 14:0.045454545 
-0 1 1:0.22222222 2:1 3:2 4:1 5:1 6:1 
-1 1 
-1 1 11:1 
-0 1 1:0.05 3:1 4:1 12:1 13:1 14:0.085899152 
-0 1 1:0.1 3:1 4:1 12:1 13:1 14:-0.12962963 
-0 1 13:1 14:-0.5 
-1 1 5:1 6:1 12:1 13:1 14:0.085899152 
-0 1 13:1 14:-0.5 
-1 1 1:0.076923077 2:1 3:1 4:1 13:1 14:-0.1577381 
-1 1 1:0.055555556 2:1 3:1 4:1 11:1 12:1 13:1 14:0.13114754 
-0 1 1:0.125 3:2 4:1 
-1 1 11:2 12:1 13:1 14:0.16666667 
-0 1 8:1 11:1 
-1 1 12:1 13:1 14:-0.275 
-1 1 
-1 1 11:1 12:1 13:1 14:0.7625 
-1 1 1:0.16666667 2:3 3:3 4:1 5:1 6:1 
-1 1 12:1 13:1 14:0.075 
-1 1 1:0.15789474 2:2 3:3 4:1 12:1 13:1 14:0.2 
-1 1 1:0.071428571 2:1 3:1 4:1 
-0 1 1:0.17647059 2:2 3:3 4:1 6:1 12:1 13:1 14:-0.076923077 
-1 1 12:1 13:1 14:0.085899152 
-0 1 1:0.13043478 2:1 3:3 4:1 11:1 12:1 13:1 14:-0.008175278 
-1 1 12:1 13:1 14:-0.54166667 
-1 1 11:2 
-1 1 12:1 13:1 14:-0.2 
-1 1 12:1 13:1 14:0.1 
-1 1 6:1 
-1 1 1:0.058823529 2:1 3:1 4:1 
-1 1 12:1 13:1 
-1 1 1:0.047619048 2:1 3:1 4:1 11:1 12:1 13:1 14:0.15277778 
-1 1 11:1 
-0 1 1:0.076923077 3:1 4:1 12:1 13:1 14:-0.25 
-1 1 
-1 1 11:1 12:1 13:1 14:0.11666667 
-1 1 12:1 13:1 14:0.1125 
-1 1 1:0.058823529 2:1 3:1 4:1 11:2 
-1 1 1:0.125 2:2 3:2 4:1 
-1 1 
-1 1 12:1 13:1 14:-0.24038462 
-1 1 12:1 13:1 14:0.125 
-1 1 11:1 12:1 13:1 14:-0.008175278 
-1 1 1:0.14285714 2:1 3:1 4:1 12:1 13:1 14:0.031914894 
-1 1 11:2 
-1 1 12:1 13:1 14:0.085899152 
-1 1 
-1 1 11:2 12:1 13:1 14:0.26923077 
-1 1 12:1 13:1 14:0.1016297 
-1 1 11:1 
-1 1 6:1 
-1 1 12:1 13:1 14:-0.25 
-1 1 11:1 
-1 1 6:1 12:1 13:1 14:0.25 
-1 1 1:0.083333333 2:1 3:1 4:1 11:1 12:1 13:1 14:0.13970588 
-1 1 
-1 1 1:0.083333333 2:1 3:1 4:1 12:1 13:1 
-1 1 8:1 12:1 13:1 14:0.085899152 
-1 1 11:1 
-1 1 12:1 13:1 14:0.043478261 
-1 1 12:1 13:1 14:0.10818713 
-1 1 1:0.058823529 2:1 3:1 4:1 12:1 13:1 14:0.1016297 
-1 1 11:1 12:1 13:1 14:0.069444444 
-1 1 11:1 
-1 1 
-0 1 1:0.125 2:1 3:1 4:1 11:1 13:1 14:-0.25 
-1 1 11:1 
-1 1 1:0.11764706 2:2 3:2 4:1 5:1 6:1 11:1 
-1 1 12:1 13:1 
-1 1 11:1 12:1 13:1 14:-0.041666667 
-1 1 1:0.076923077 2:1 3:1 4:1 12:1 13:1 14:0.18333333 
-1 1 12:1 13:1 14:0.031914894 
-1 1 1:0.045454545 2:1 3:1 4:1 11:1 12:1 13:1 14:0.014285714 
-1 1 1:0.1 3:1 4:1 12:1 13:1 14:0.30327869 
-0 0.3725706174551656 13:1 14:-0.8125 
-0 1 1:0.058823529 2:1 3:1 4:1 13:1 14:-0.875 
-1 1 
-1 1 11:1 
-1 1 1:0.1 2:2 3:2 4:1 12:1 13:1 14:0.085899152 
-1 1 1:0.33333333 2:2 3:2 4:1 9:1 12:1 13:1 14:-0.24038462 
-1 1 11:1 12:1 13:1 14:0.2037037 
-1 1 1:0.045454545 2:1 3:1 4:1 11:1 12:1 13:1 14:0.014285714 
-1 1 
-1 1 1:0.0625 2:1 3:1 4:1 12:1 13:1 
-1 1 12:1 13:1 14:-0.055555556 
-1 1 12:1 13:1 14:0.037037037 
-1 1 12:1 13:1 14:0.0625 
-0 1 1:0.05 2:1 3:1 4:1 13:1 14:-0.6875 
-0 1 13:1 14:-0.8125 
-1 1 1:0.066666667 2:1 3:1 4:1 11:1 
-1 1 13:1 14:-0.25 
-0 1 5:1 6:2 11:1 
-1 1 11:1 
-1 1 12:1 13:1 14:0.1 
-1 1 1:0.35714286 2:5 3:5 4:1 7:1 11:1 13:1 14:-0.5 
-1 1 1:0.038461538 2:1 3:1 4:1 11:2 
-1 1 11:1 
-1 1 5:1 6:1 12:1 13:1 14:0.7625 
-1 1 1:0.076923077 2:1 3:1 4:1 
-1 1 1:0.16666667 2:3 3:3 4:1 12:1 13:1 14:-0.0875 
-1 1 
-1 1 11:1 
-1 1 12:1 13:1 14:0.17857143 
-1 1 
-1 1 
-1 1 1:0.071428571 2:1 3:1 4:1 11:1 12:1 13:1 14:0.085899152 
-1 1 12:1 13:1 14:0.11538462 
-1 1 11:1 12:1 13:1 14:0.16666667 
-1 1 1:0.090909091 2:1 3:1 4:1 11:1 
-1 1 12:1 13:1 
-1 1 11:1 12:1 13:1 14:0.1 
-1 1 1:0.14285714 2:1 3:1 4:1 11:1 12:1 13:1 14:0.085899152 
-1 1 1:0.090909091 2:1 3:1 4:1 12:1 13:1 14:0.25 
-1 1 1:0.066666667 2:1 3:1 4:1 12:1 13:1 14:0.041666667 
-1 1 1:0.038461538 2:1 3:1 4:1 5:2 6:2 12:1 13:1 
-1 1 1:0.090909091 2:1 3:1 4:1 11:1 12:1 13:1 14:-0.12962963 
-0 1 1:0.071428571 3:1 4:1 11:1 12:1 13:1 14:0.20833333 
-1 1 
-1 1 11:1 12:1 13:1 14:0.10927152 
-1 1 12:1 13:1 
-1 1 1:0.1 2:1 3:1 4:1 12:1 13:1 
-1 1 11:1 12:1 13:1 14:0.032258065 
-0 1 8:1 12:1 13:1 14:-0.25 
-1 1 1:0.14285714 2:2 3:2 4:1 12:1 13:1 14:0.25 
-0 1 1:0.13043478 2:1 3:3 4:1 11:1 
-1 1 11:1 
-1 1 
-1 1 12:1 13:1 14:0.015625 
-0 1 1:0.047619048 2:1 3:1 4:1 11:1 13:1 14:-0.16666667 
-1 1 1:0.11111111 2:1 3:1 4:1 12:1 13:1 14:-0.055555556 
-1 1 12:1 13:1 14:0.17259174 
-1 1 11:1 
-1 1 6:1 
-1 1 11:1 12:1 13:1 14:0.1016297 
-1 1 12:1 13:1 
-1 1 12:1 13:1 14:0.14108352 
-1 1 1:0.055555556 2:1 3:1 4:1 5:1 6:1 12:1 13:1 14:0.10135135 
-1 1 11:1 12:1 13:1 14:0.24450549 
-1 1 12:1 13:1 14:0.078947368 
-1 1 1:0.052631579 2:1 3:1 4:1 6:1 12:1 13:1 14:0.085899152 
-1 1 6:1 
-1 1 12:1 13:1 14:0.17647059 
-1 1 12:1 13:1 14:0.10927152 
-1 1 1:0.16666667 2:2 3:2 4:1 8:1 11:1 
-1 1 11:1 12:1 13:1 14:0.18344371 
-1 1 12:1 13:1 14:-0.125 
-1 1 1:0.041666667 2:1 3:1 4:1 11:2 
-1 1 12:1 13:1 14:0.069148936 
-1 1 
-1 1 12:1 13:1 14:0.045454545 
-1 1 
-1 1 11:2 12:1 13:1 14:0.14163237 
-1 1 11:1 12:1 13:1 14:0.052631579 
-1 1 12:1 13:1 14:-0.0076923077 
-1 1 12:1 13:1 14:0.076923077 
-1 1 1:0.5 2:4 3:4 4:1 12:1 13:1 14:0.15591398 
-1 1 1:0.047619048 2:1 3:1 4:1 11:1 12:1 13:1 14:-0.0048076923 
-1 1 1:0.125 2:1 3:1 4:1 12:1 13:1 14:0.071428571 
-1 1 12:1 13:1 14:-0.10606061 
-0 1 1:0.11764706 2:1 3:2 4:1 5:1 6:1 12:1 13:1 14:0.052631579 
-1 1 12:1 13:1 14:-0.10606061 
-0.8334858511000676 1 1:0.375 2:6 3:6 4:1 5:4 6:4 
-1 1 1:0.3 2:2 3:3 4:1 12:1 13:1 14:0.16477273 
-1 1 1:0.11111111 2:2 3:2 4:1 
-0 1 1:0.066666667 2:1 3:1 4:1 13:1 14:-0.5 
-1 1 11:2 12:1 13:1 14:0.25 
-1 1 1:0.090909091 2:1 3:1 4:1 11:1 12:1 13:1 14:0.085899152 
-1 1 12:1 13:1 14:0.11627907 
-1 1 1:0.058823529 2:1 3:1 4:1 11:2 
-1 1 1:0.13333333 2:2 3:2 4:1 6:1 12:1 13:1 14:0.11666667 
-1 1 11:2 12:1 13:1 14:0.1 
-1 1 11:1 12:1 13:1 14:0.085899152 
-1 1 
-1 1 1:0.11764706 2:2 3:2 4:1 11:1 
-1 1 
-1 1 12:1 13:1 14:0.1875 
-1 1 12:1 13:1 14:0.085899152 
-1 1 11:1 12:1 13:1 14:0.085899152 
-1 1 1:0.055555556 2:1 3:1 4:1 11:2 
-1 1 12:1 13:1 14:0.036585366 
-1 1 11:1 
-1 1 
-0 1 1:0.071428571 2:1 3:1 4:1 13:1 14:-0.5 
-1 1 11:1 12:1 13:1 14:0.041666667 
-1 1 12:1 13:1 14:0.025 
-1 1 12:1 13:1 14:0.070512821 
-1 1 
-1 1 1:0.066666667 2:1 3:1 4:1 5:1 6:1 12:1 13:1 14:0.052631579 
-1 1 7:1 11:2 12:1 13:1 14:0.085899152 
-1 1 5:1 6:1 12:1 13:1 14:0.12286689 
-1 1 1:0.076923077 2:1 3:1 4:1 
-1 1 1:0.13333333 2:2 3:2 4:1 12:1 13:1 14:-0.1 
-1 1 1:0.076923077 2:1 3:1 4:1 12:1 13:1 14:0.085899152 
-1 1 1:0.0625 2:1 3:1 4:1 12:1 13:1 14:0.11666667 
-0 1 13:1 14:-0.5 
-1 1 1:0.11764706 2:2 3:2 4:1 11:1 12:1 13:1 14:0.10135135 
-1 1 1:0.071428571 2:1 3:1 4:1 12:1 13:1 14:0.11666667 
-1 1 11:2 
-1 1 12:1 13:1 14:0.10883621 
-1 1 11:1 12:1 13:1 14:0.051724138 
-1 1 12:1 13:1 14:0.085899152 
-0.08394817121848308 1 1:0.25 2:2 3:2 4:1 5:2 6:2 13:1 14:-0.5 
-1 1 1:0.0625 2:1 3:1 4:1 
-1 1 11:1 12:1 13:1 
-1 1 11:1 12:1 13:1 14:-0.008175278 
-1 1 11:1 12:1 13:1 14:-0.008175278 
-1 1 7:1 11:1 
-1 1 
-1 1 12:1 13:1 14:0.030612245 
-1 1 1:0.13333333 2:2 3:2 4:1 12:1 13:1 14:0.24450549 
-1 1 1:0.10526316 2:2 3:2 4:1 12:1 13:1 14:-0.035714286 
-1 1 12:1 13:1 14:0.085899152 
-1 1 5:1 6:1 12:1 13:1 14:0.036585366 
-1 1 12:1 13:1 14:-0.088235294 
-1 1 12:1 13:1 14:-0.55288462 
-1 1 12:1 13:1 14:-0.10606061 
-1 1 11:1 12:1 13:1 14:-0.125 
-1 1 1:0.083333333 3:1 4:1 12:1 13:1 14:0.28205128 
-1 1 
-1 1 11:2 
-1 1 1:0.14285714 2:1 3:1 4:1 12:1 13:1 14:0.0625 
-1 1 1:0.071428571 2:1 3:1 4:1 6:1 12:1 13:1 14:0.085899152 
-1 1 11:2 
-1 1 12:1 13:1 14:-0.0087719298 
-1 1 12:1 13:1 14:0.085899152 
-1 1 12:1 13:1 14:-0.049435028 
-1 1 11:2 
-1 1 5:1 6:1 
-1 1 12:1 13:1 14:-0.11111111 
-1 1 1:0.18181818 2:2 3:2 4:1 12:1 13:1 14:0.085899152 
-1 1 11:1 
-1 1 
-0 1 8:1 11:1 
-1 1 11:1 12:1 13:1 14:0.18421053 
-1 1 12:1 13:1 14:0.13287905 
-0 1 6:1 12:1 13:1 14:0.085899152 
-1 1 1:0.071428571 2:1 3:1 4:1 5:1 6:1 
-1 1 1:0.11764706 2:1 3:2 4:1 12:1 13:1 14:0.052631579 
-1 1 11:1 12:1 13:1 14:0.1016297 
-1 1 12:1 13:1 14:-0.21428571 
-0 1 1:0.083333333 3:1 4:1 12:1 13:1 
-0 1 1:0.090909091 3:1 4:1 11:1 
-1 1 1:0.090909091 2:1 3:1 4:1 
-0 1 6:1 12:1 13:1 14:0.085899152 
-0.3546084802303705 0 11:2 12:1 13:1 14:0.085899152 
-1 1 1:0.052631579 2:1 3:1 4:1 11:1 
-1 1 
-1 1 5:1 6:1 12:1 13:1 14:0.04 
-0 1 13:1 14:-0.5 
-0 1 13:1 14:-0.5 
-1 1 11:1 
-1 1 1:0.055555556 2:1 3:1 4:1 11:1 
-1 1 12:1 13:1 14:0.016666667 
-1 1 5:1 6:1 11:1 12:1 13:1 14:0.031914894 
-1 1 11:1 12:1 13:1 14:-0.24038462 
-1 1 1:0.058823529 2:1 3:1 4:1 11:2 12:1 13:1 14:0.085899152 
-0 1 13:1 14:-0.5 
-1 1 11:1 12:1 13:1 14:0.054455446 
-1 1 12:1 13:1 14:0.085899152 
-1 1 11:1 
-1 1 11:1 
-1 1 12:1 13:1 14:-0.125 
-1 1 11:1 
-1 1 11:1 12:1 13:1 14:-0.15 
-1 1 
-0 1 13:1 14:-0.39285714 
-0 1 13:1 14:-0.5 
-1 1 5:1 6:1 12:1 13:1 14:-0.20454545 
-1 1 1:0.076923077 2:1 3:1 4:1 11:1 12:1 13:1 14:0.074660633 
-1 1 11:1 12:1 13:1 
-1 1 1:0.090909091 2:2 3:2 4:1 12:1 13:1 14:0.037037037 
-1 1 12:1 13:1 14:0.14285714 
-1 1 1:0.066666667 2:1 3:1 4:1 8:1 12:1 13:1 14:0.11764706 
-1 1 11:1 12:1 13:1 14:0.21818182 
-1 1 11:1 12:1 13:1 14:0.085899152 
-0 1 1:0.071428571 2:1 3:1 4:1 13:1 14:-0.5 
-1 1 12:1 13:1 14:-0.24038462 
-1 1 1:0.083333333 2:1 3:1 4:1 5:1 6:1 12:1 13:1 
-1 1 1:0.076923077 2:1 3:1 4:1 
-1 1 1:0.10526316 2:2 3:2 4:1 11:3 
-0 1 1:0.10526316 2:1 3:2 4:1 11:1 12:1 13:1 14:-0.55288462 
-1 1 1:0.11111111 2:1 3:2 4:1 5:2 6:2 
-1 1 12:1 13:1 
-1 1 12:1 13:1 14:0.085899152 
-1 1 12:1 13:1 14:-0.10606061 
-1 1 11:1 12:1 13:1 14:-0.008175278 
-1 1 12:1 13:1 14:0.078125 
-1 1 12:1 13:1 14:-0.17943548 
-1 1 1:0.0625 2:1 3:1 4:1 11:1 12:1 13:1 14:0.085899152 
-1 1 5:1 6:1 11:1 12:1 13:1 14:0.0625 
-1 1 1:0.066666667 3:1 4:1 
-0.5095384550484616 1 1:0.31578947 2:4 3:6 4:1 5:2 6:2 12:1 13:1 14:-0.1 
-1 1 1:0.066666667 3:1 4:1 12:1 13:1 14:0.10927152 
-1 1 12:1 13:1 14:-0.14285714 
-1 1 1:0.076923077 2:1 3:1 4:1 12:1 13:1 
-1 1 1:0.11764706 2:2 3:2 4:1 12:1 13:1 14:0.1016297 
-1 1 1:0.066666667 2:1 3:1 4:1 11:1 12:1 13:1 
-1 1 12:1 13:1 14:0.054455446 
-1 1 1:0.05 2:1 3:1 4:1 12:1 13:1 
-1 1 
-1 1 12:1 13:1 14:0.12771739 
-1 1 1:0.066666667 2:1 3:1 4:1 11:1 
-1 1 11:2 
-1 1 11:1 12:1 13:1 14:0.085899152 
-1 1 8:1 12:1 13:1 14:0.085899152 
-1 1 1:0.055555556 2:1 3:1 4:1 12:1 13:1 14:0.085899152 
-1 1 1:0.125 2:2 3:2 4:1 12:1 13:1 14:0.16477273 
-1 1 12:1 13:1 14:0.32142857 
-1 1 11:1 
-1 1 1:0.14285714 2:2 3:3 4:1 
-1 1 11:1 12:1 13:1 14:0.085899152 
-0 1 1:0.055555556 2:1 3:1 4:1 5:1 6:1 13:1 14:-0.5 
-1 1 11:1 
-0 1 1:0.066666667 2:1 3:1 4:1 11:1 13:1 14:-0.5 
-0 1 1:0.090909091 3:2 4:1 11:1 
-1 1 12:1 13:1 14:0.1875 
-1 1 1:0.15384615 2:2 3:2 4:1 11:1 12:1 13:1 14:0.2 
-0 1 1:0.076923077 3:1 4:1 11:1 
-1 1 
-1 1 
-1 1 12:1 13:1 14:-0.10606061 
-1 1 1:0.066666667 2:1 3:1 4:1 12:1 13:1 14:0.1 
-1 1 1:0.0625 2:1 3:1 4:1 11:1 
-1 1 1:0.41666667 2:5 3:5 4:1 11:1 12:1 13:1 14:0.097222222 
-1 1 
-1 1 
-1 1 11:1 12:1 13:1 14:0.17873303 
-1 1 8:1 12:1 13:1 14:0.19599515 
-1 1 11:1 
-1 1 12:1 13:1 14:-0.10606061 
-1 1 12:1 13:1 14:-0.275 
-1 0 1:0.076923077 2:1 3:1 4:1 11:3 12:1 13:1 14:0.085899152 
-1 1 11:1 12:1 13:1 14:0.17259174 
-1 1 12:1 13:1 14:0.085899152 
-1 1 12:1 13:1 14:-0.10606061 
-1 1 1:0.14285714 2:2 3:2 4:1 
-0 1 1:0.047619048 3:1 4:1 5:1 6:1 
-1 1 12:1 13:1 14:0.074660633 
-1 1 12:1 13:1 14:0.0625 
-1 1 12:1 13:1 14:0.12 
-1 1 12:1 13:1 14:0.11153846 
-1 1 
-1 1 1:0.090909091 2:1 3:1 4:1 11:1 12:1 13:1 14:0.085899152 
-1 1 11:1 
-1 1 5:1 6:1 12:1 13:1 14:0.14545455 
-1 1 11:1 
-1 1 12:1 13:1 14:0.074660633 
-1 1 11:1 12:1 13:1 14:0.11538462 
-1 1 12:1 13:1 14:0.041666667 
-1 1 11:1 12:1 13:1 14:0.325 
-1 1 12:1 13:1 14:0.1016297 
-1 1 1:0.16666667 2:4 3:4 4:1 11:1 12:1 13:1 14:-0.0875 
-0 1 13:1 14:-0.36363636 
-1 1 
-1 1 
-0 1 6:1 12:1 13:1 14:0.054455446 
-0 1 1:0.125 2:1 3:2 4:1 11:1 
-1 1 11:1 12:1 13:1 14:0.0079365079 
-1 1 11:1 
-1 1 11:1 12:1 13:1 14:0.13934426 
-1 1 6:1 
-1 1 1:0.090909091 2:1 3:1 4:1 5:1 6:1 12:1 13:1 14:0.21428571 
-1 1 1:0.42857143 2:5 3:6 4:1 12:1 13:1 14:0.03125 
-0 1 6:1 12:1 13:1 14:0.085899152 
-1 1 
-0 1 1:0.18181818 2:2 3:2 4:1 11:1 13:1 14:-0.5 
-0 1 13:1 14:-0.375 
-1 0.4084734661217087 11:2 12:1 13:1 14:0.085899152 
-1 1 11:1 12:1 13:1 14:-0.13095238 
-1 1 1:0.0625 2:1 3:1 4:1 12:1 13:1 14:0.1016297 
-1 1 1:0.11111111 2:1 3:1 4:1 12:1 13:1 14:-0.049435028 
-1 1 11:1 
-1 1 12:1 13:1 14:0.0625 
-0 1 1:0.11764706 2:1 3:2 4:1 11:1 12:1 13:1 14:-0.008175278 
-1 1 1:0.058823529 3:1 4:1 
-1 1 11:1 12:1 13:1 14:0.14163237 
-1 1 5:1 6:1 11:1 12:1 13:1 14:0.071428571 
-0 0.5070257308180106 11:3 
-1 1 11:1 12:1 13:1 14:0.085899152 
-1 1 12:1 13:1 14:0.13970588 
-1 1 11:1 12:1 13:1 14:0.125 
-1 1 12:1 13:1 14:0.085899152 
-1 1 11:1 
-1 1 1:0.1 2:1 3:1 4:1 8:1 12:1 13:1 14:0.085899152 
-1 1 11:1 12:1 13:1 14:0.25 
-1 1 1:0.11111111 2:1 3:1 4:1 12:1 13:1 14:0.085899152 
-1 1 12:1 13:1 14:0.070512821 
-1 1 1:0.058823529 2:1 3:1 4:1 11:2 12:1 13:1 14:0.085899152 
-0 0.8079320012170492 6:1 12:1 13:1 14:0.05 
-1 1 12:1 13:1 14:0.055555556 
-1 1 12:1 13:1 14:0.085899152 
-1 1 
-1 1 5:1 6:1 11:1 12:1 13:1 14:-0.1 
-1 1 1:0.076923077 2:1 3:1 4:1 11:1 12:1 13:1 
-1 1 1:0.066666667 2:1 3:1 4:1 11:2 
-1 1 1:0.066666667 2:1 3:1 4:1 7:1 13:1 14:-0.5 
-1 1 1:0.25 2:2 3:2 4:1 12:1 13:1 14:0.21428571 
-1 1 12:1 13:1 14:0.055555556 
-1 1 12:1 13:1 14:0.14545455 
-1 1 
-1 1 11:1 12:1 13:1 14:-0.008175278 
-1 1 1:0.066666667 2:1 3:1 4:1 13:1 14:-0.2 
-1 1 
-1 1 12:1 13:1 14:0.10927152 
-1 1 1:0.066666667 2:1 3:1 4:1 11:1 12:1 13:1 14:0.026315789 
-0 1 6:1 12:1 13:1 14:0.05 
-1 1 12:1 13:1 
-1 1 1:0.058823529 2:1 3:1 4:1 
-1 1 1:0.05 2:1 3:1 4:1 12:1 13:1 14:-0.041666667 
-1 1 11:1 12:1 13:1 14:0.14163237 
-1 1 11:1 
-1 1 13:1 14:-0.15 
-1 1 1:0.0625 2:1 3:1 4:1 
-1 1 12:1 13:1 14:0.085899152 
-1 1 12:1 13:1 14:0.085899152 
-1 1 12:1 13:1 14:0.031914894 
-1 1 5:1 6:1 
-1 1 8:1 
-1 1 1:0.2 2:2 3:2 4:1 6:1 12:1 13:1 14:0.31818182 
-1 1 1:0.055555556 2:1 3:1 4:1 
-0 1 11:1 13:1 14:-0.25 
-1 1 12:1 13:1 14:0.17647059 
-1 1 8:1 
-1 1 7:1 11:1 
-1 1 1:0.090909091 2:1 3:1 4:1 
-1 1 1:0.066666667 2:1 3:1 4:1 13:1 14:-0.16666667 
-1 1 11:2 12:1 13:1 14:0.24450549 
-1 1 6:1 
-1 1 12:1 13:1 14:0.0079365079 
-1 1 11:2 
-1 1 11:1 12:1 13:1 14:-0.075 
-1 1 6:1 
-0 1 1:0.052631579 3:1 4:1 12:1 13:1 14:0.085899152 
-1 1 
-1 1 
-1 1 1:0.076923077 2:1 3:1 4:1 6:1 
-1 1 11:1 
-1 1 11:1 
-1 1 11:1 12:1 13:1 14:0.125 
-1 1 5:1 6:1 11:2 
-1 1 6:1 12:1 13:1 14:0.19599515 
-1 1 1:0.13333333 2:2 3:2 4:1 12:1 13:1 14:-0.1 
-0 1 1:0.066666667 3:1 4:1 11:1 
-1 1 1:0.076923077 2:1 3:1 4:1 5:1 6:1 12:1 13:1 14:0.080645161 
-1 1 11:1 12:1 13:1 14:-0.008175278 
-0 1 6:1 11:1 
-1 1 11:1 12:1 13:1 14:0.076923077 
-0 1 1:0.066666667 3:1 4:1 11:1 
-1 1 1:0.055555556 2:1 3:1 4:1 12:1 13:1 14:0.13888889 
-1 1 11:1 
-1 1 11:1 
-1 1 
-0 1 1:0.071428571 2:1 3:1 4:1 6:1 12:1 13:1 14:0.070512821 
-1 1 1:0.10526316 2:2 3:2 4:1 13:1 14:-0.5 
-1 1 12:1 13:1 14:0.29251701 
-1 0.6378316613832725 5:2 6:3 11:1 12:1 13:1 
-1 1 5:1 6:1 11:2 
-1 1 1:0.2 2:3 3:3 4:1 5:1 6:1 11:1 12:1 13:1 14:-0.16666667 
-0 1 1:0.1 3:1 4:1 8:1 12:1 13:1 14:0.18344371 
-0.9171789953571089 1 1:0.071428571 2:1 3:1 4:1 6:1 
-1 1 1:0.058823529 2:1 3:1 4:1 5:2 6:2 11:1 
-0 1 1:0.04 3:1 4:1 12:1 13:1 14:0.033613445 
-1 1 11:1 12:1 13:1 14:-0.008175278 
-1 1 11:1 12:1 13:1 14:-0.10526316 
-0 1 1:0.125 2:1 3:2 4:1 12:1 13:1 14:-0.045454545 
-1 1 11:1 12:1 13:1 14:-0.008175278 
-1 1 1:0.11764706 2:2 3:2 4:1 12:1 13:1 14:0.14285714 
-1 1 1:0.052631579 2:1 3:1 4:1 11:2 12:1 13:1 14:0.085899152 
-1 1 12:1 13:1 14:-0.125 
-1 1 1:0.083333333 2:1 3:1 4:1 12:1 13:1 
-1 1 11:1 
-1 1 11:1 
-1 1 11:1 
-0 1 13:1 14:-0.8125 
-1 1 1:0.055555556 2:1 3:1 4:1 5:1 6:1 12:1 13:1 14:0.085899152 
-1 1 11:1 12:1 13:1 14:-0.085714286 
-1 1 1:0.11111111 2:1 3:1 4:1 11:1 12:1 13:1 14:-0.16666667 
-1 1 1:0.058823529 2:1 3:1 4:1 11:1 
-1 1 5:1 6:1 11:1 12:1 13:1 14:0.13970588 
-1 1 12:1 13:1 14:0.1016297 
-1 1 11:1 12:1 13:1 
-1 1 8:1 12:1 13:1 14:0.074660633 
-1 1 12:1 13:1 14:-0.12962963 
-1 1 12:1 13:1 14:0.085899152 
-1 1 1:0.16666667 2:2 3:2 4:1 12:1 13:1 14:0.080645161 
-1 1 5:1 6:1 11:1 12:1 13:1 14:0.096385542 
-0 1 1:0.11111111 2:2 3:2 4:1 5:1 6:2 12:1 13:1 14:0.10416667 
-1 1 12:1 13:1 14:-0.027777778 
-1 1 11:2 
-1 1 11:1 12:1 13:1 14:-0.008175278 
-0 0.4525625706677403 1:0.052631579 2:1 3:1 4:1 8:1 11:1 12:1 13:1 14:-0.008175278 
-0 1 1:0.14285714 2:1 3:1 4:1 13:1 14:-0.5 
-0 1 1:0.125 2:1 3:2 4:1 13:1 14:-0.25 
-1 1 11:1 12:1 13:1 14:0.085899152 
-1 1 11:2 
-1 1 12:1 13:1 14:0.035714286 
-1 1 1:0.1 2:1 3:1 4:1 6:1 12:1 13:1 14:0.43274854 
-1 1 1:0.1 3:1 4:1 12:1 13:1 14:0.38175676 
-1 1 
-1 1 
-1 1 8:1 12:1 13:1 14:0.085899152 
-1 1 1:0.1 2:2 3:2 4:1 6:1 
-1 1 12:1 13:1 14:0.26923077 
-1 1 12:1 13:1 14:0.140625 
-0 1 13:1 14:-0.5 
-0 0.9093616212858819 13:1 14:-0.8125 
-1 1 1:0.1 2:1 3:1 4:1 11:1 12:1 13:1 14:0.085899152 
-1 1 1:0.066666667 2:1 3:1 4:1 11:1 
-1 1 1:0.15789474 2:3 3:3 4:1 12:1 13:1 
-1 1 1:0.0625 2:1 3:1 4:1 12:1 13:1 14:0.085899152 
-1 1 1:0.083333333 2:1 3:1 4:1 12:1 13:1 14:-0.15789474 
-1 1 12:1 13:1 14:-0.16666667 
-1 1 11:1 12:1 13:1 14:-0.15 
-1 1 1:0.055555556 2:1 3:1 4:1 12:1 13:1 14:0.079545455 
-1 1 12:1 13:1 14:-0.74537037 
-1 1 11:1 12:1 13:1 14:0.14163237 
-1 1 11:2 
-1 1 11:1 12:1 13:1 14:-0.008175278 
-1 1 12:1 13:1 14:0.085899152 
-1 1 1:0.11764706 2:2 3:2 4:1 5:1 6:1 
-1 1 1:0.055555556 2:1 3:1 4:1 11:1 12:1 13:1 14:-0.008175278 
-1 1 1:0.0625 2:1 3:1 4:1 11:1 
-1 1 1:0.076923077 2:1 3:1 4:1 11:2 
-1 1 11:1 
-1 1 1:0.052631579 2:1 3:1 4:1 11:1 
-0 1 1:0.13333333 2:1 3:2 4:1 11:1 12:1 13:1 14:-0.13095238 
-1 1 11:1 12:1 13:1 14:-0.008175278 
-1 1 1:0.05 2:1 3:1 4:1 
-1 1 13:1 14:-0.16666667 
-1 1 12:1 13:1 14:0.17857143 
-1 1 1:0.125 2:2 3:2 4:1 13:1 14:-0.5 
-1 1 1:0.13043478 2:3 3:3 4:1 12:1 13:1 14:0.0625 
-0 1 1:0.1 2:1 3:1 4:1 13:1 14:-0.5 
-1 1 12:1 13:1 14:0.085899152 
-1 1 1:0.083333333 2:1 3:1 4:1 5:1 6:1 12:1 13:1 14:-0.1 
-1 1 12:1 13:1 14:-0.083333333 
-1 1 1:0.125 2:2 3:2 4:1 11:2 
-1 1 11:1 12:1 13:1 14:0.085899152 
-1 1 1:0.2 2:1 3:1 4:1 12:1 13:1 14:-0.0625 
-1 1 1:0.071428571 2:1 3:1 4:1 
-1 1 1:0.0625 2:1 3:1 4:1 5:1 6:1 11:1 
-1 1 12:1 13:1 
-1 1 1:0.083333333 2:1 3:1 4:1 12:1 13:1 14:0.09375 
-1 1 1:0.14285714 2:2 3:2 4:1 12:1 13:1 14:0.065789474 
-1 1 1:0.18181818 2:2 3:2 4:1 11:1 
-1 1 1:0.095238095 2:2 3:2 4:1 
-1 1 
-1 1 1:0.066666667 2:1 3:1 4:1 13:1 14:-0.25 
-1 1 1:0.066666667 2:1 3:1 4:1 12:1 13:1 14:0.11538462 
-1 1 12:1 13:1 14:0.054455446 
-0 1 1:0.095238095 2:1 3:2 4:1 5:1 6:1 13:1 14:-0.3 
-0 1 1:0.055555556 2:1 3:1 4:1 6:1 
-1 1 1:0.11111111 2:2 3:2 4:1 12:1 13:1 14:-0.125 
-1 1 11:1 
-1 1 12:1 13:1 14:-0.25 
-1 1 1:0.058823529 2:1 3:1 4:1 11:1 
-1 1 12:1 13:1 14:0.026315789 
-1 1 
-1 1 1:0.045454545 2:1 3:1 4:1 11:1 12:1 13:1 14:0.13287905 
-1 1 1:0.11111111 2:1 3:2 4:1 
-1 1 1:0.055555556 2:1 3:1 4:1 12:1 13:1 14:0.13888889 
-1 1 
-1 1 1:0.125 2:2 3:2 4:1 
-1 1 12:1 13:1 14:0.080645161 
-1 1 12:1 13:1 14:-0.16666667 
-1 1 11:1 
-1 1 11:1 12:1 13:1 14:0.17259174 
-1 1 12:1 13:1 14:-0.14285714 
-0 1 6:1 12:1 13:1 14:0.1016297 
-1 1 1:0.6 2:6 3:6 4:1 11:1 12:1 13:1 14:0.21428571 
-1 1 1:0.15 2:3 3:3 4:1 12:1 13:1 14:0.038461538 
-1 1 12:1 13:1 14:-0.16666667 
-1 1 13:1 14:-0.16666667 
-1 1 1:0.15789474 2:2 3:3 4:1 12:1 13:1 14:-0.125 
-1 1 1:0.071428571 2:1 3:1 4:1 5:1 6:1 12:1 13:1 14:0.14285714 
-1 1 1:0.14285714 2:2 3:2 4:1 11:1 12:1 13:1 14:-0.008175278 
-1 1 1:0.0625 3:1 4:1 
-1 1 12:1 13:1 14:0.10714286 
-1 1 
-1 1 11:1 12:1 13:1 14:0.13970588 
-0 1 1:0.0625 2:1 3:1 4:1 6:1 
-0 1 6:1 11:1 
-1 1 1:0.0625 2:1 3:1 4:1 12:1 13:1 14:0.14108352 
-0 1 6:1 12:1 13:1 14:0.1 
-1 1 1:0.090909091 2:1 3:1 4:1 
-0 1 13:1 14:-0.5 
-1 1 1:0.1 2:2 3:2 4:1 12:1 13:1 14:-0.15 
-1 1 12:1 13:1 14:-0.090909091 
-1 1 12:1 13:1 14:0.085899152 
-0 1 1:0.066666667 2:1 3:1 4:1 13:1 14:-0.5 
-1 1 12:1 13:1 14:0.074660633 
-0 1 13:1 14:-0.775 
-1 1 1:0.071428571 2:1 3:1 4:1 11:1 
-1 1 1:0.055555556 2:1 3:1 4:1 11:1 12:1 13:1 14:-0.15789474 
-1 1 1:0.10526316 2:2 3:2 4:1 
-1 1 1:0.083333333 2:1 3:1 4:1 
-1 1 12:1 13:1 14:0.048387097 
-1 1 1:0.18181818 2:2 3:2 4:1 8:1 11:1 12:1 13:1 14:0.015151515 
-1 1 11:2 12:1 13:1 14:0.085899152 
-1 1 12:1 13:1 14:-0.055555556 
-1 1 
-0 1 1:0.0625 2:1 3:1 4:1 13:1 14:-0.5 
-1 1 12:1 13:1 14:0.13970588 
-1 1 1:0.05 3:1 4:1 
-1 1 1:0.10526316 2:2 3:2 4:1 
-1 1 6:1 12:1 13:1 14:0.46969697 
-1 1 6:1 
-0 1 5:2 6:2 11:1 13:1 14:-0.5 
-1 1 
-0 1 13:1 14:-0.5 
-1 1 1:0.045454545 3:1 4:1 12:1 13:1 14:0.31818182 
-0.5914461675512894 1 1:0.047619048 2:1 3:1 4:1 13:1 14:-0.33333333 
-1 1 12:1 13:1 14:0.1 
-1 1 1:0.1 2:1 3:1 4:1 11:1 
-1 1 5:1 6:1 11:1 12:1 13:1 14:0.125 
-1 1 1:0.095238095 2:2 3:2 4:1 5:1 6:1 11:2 
-1 1 1:0.071428571 2:1 3:1 4:1 11:2 12:1 13:1 14:-0.055555556 
-0 1 1:0.055555556 3:1 4:1 12:1 13:1 14:-0.74537037 
-1 1 12:1 13:1 14:0.13333333 
-1 1 12:1 13:1 14:0.17259174 
-1 1 1:0.14285714 2:1 3:1 4:1 
-1 1 1:0.16666667 2:2 3:2 4:1 5:1 6:1 
-1 1 1:0.052631579 3:1 4:1 
-1 1 12:1 13:1 14:0.095744681 
-1 1 11:1 12:1 13:1 14:0.025 
-0 1 1:0.047619048 2:1 3:1 4:1 6:1 12:1 13:1 14:0.035714286 
-0 1 5:1 6:1 11:3 
-0 1 8:1 12:1 13:1 14:-0.1 
-1 1 12:1 13:1 14:0.085899152 
-0 1 8:1 11:1 
-1 1 1:0.11111111 2:2 3:2 4:1 12:1 13:1 14:0.074074074 
-1 1 12:1 13:1 14:0.10714286 
-1 1 
-1 1 7:1 12:1 13:1 14:0.17259174 
-1 1 12:1 13:1 14:0.1016297 
-1 1 1:0.0625 2:1 3:1 4:1 11:1 
-1 1 1:0.066666667 2:1 3:1 4:1 11:1 
-1 1 1:0.058823529 2:1 3:1 4:1 11:1 12:1 13:1 14:0.17864078 
-1 1 1:0.052631579 2:1 3:1 4:1 
-1 1 11:1 
-1 1 
-1 1 1:0.095238095 2:1 3:2 4:1 
-1 1 
-1 1 1:0.11764706 2:2 3:2 4:1 
-0 1 1:0.10526316 2:1 3:2 4:1 11:1 12:1 13:1 14:0.1875 
-1 1 
-1 1 
-0 1 1:0.17647059 2:2 3:3 4:1 6:1 11:1 12:1 13:1 14:-0.088235294 
-0 1 1:0.055555556 2:1 3:1 4:1 5:1 6:2 12:1 13:1 14:-0.2 
-0 1 1:0.076923077 3:1 4:1 12:1 13:1 14:0.085899152 
-1 1 11:2 
-1 1 12:1 13:1 14:0.175 
-1 1 8:1 
-1 1 11:1 12:1 13:1 14:-0.03125 
-0 1 8:1 11:1 
-1 1 12:1 13:1 14:0.010204082 
-1 1 11:1 12:1 13:1 14:0.085899152 
-1 1 1:0.052631579 2:1 3:1 4:1 12:1 13:1 14:0.24450549 
-0 1 11:1 12:1 13:1 14:-0.74537037 
-1 1 5:1 6:1 12:1 13:1 14:-0.125 
-1 1 
-1 1 8:1 12:1 13:1 14:0.085899152 
-1 1 1:0.076923077 2:1 3:1 4:1 8:1 12:1 13:1 14:0.24450549 
-1 1 
-1 1 
-1 1 
-1 1 11:1 12:1 13:1 14:0.13068182 
-1 1 
-1 1 7:1 11:1 
-1 1 11:1 
-1 1 12:1 13:1 
-1 1 
-0 1 1:0.13333333 3:2 4:1 
-1 1 12:1 13:1 14:0.21052632 
-0 1 13:1 14:-0.5 
-1 1 1:0.16666667 2:2 3:2 4:1 11:1 
-1 1 12:1 13:1 14:0.2 
-1 1 11:1 
-0 1 1:0.086956522 2:2 3:2 4:1 6:1 11:1 
-1 1 12:1 13:1 14:0.11111111 
-1 1 1:0.076923077 2:1 3:1 4:1 11:1 12:1 13:1 14:-0.33333333 
-1 1 
-0 1 1:0.0625 2:1 3:1 4:1 13:1 14:-0.33333333 
-1 1 5:1 6:1 12:1 13:1 14:0.071428571 
-1 1 11:1 
-0 0.07887584342988119 6:1 11:1 
-1 1 9:1 
-1 1 1:0.11111111 2:1 3:2 4:1 
-1 1 1:0.0625 2:1 3:1 4:1 11:1 
-1 1 11:1 12:1 13:1 14:0.025 
-1 1 1:0.13333333 2:2 3:2 4:1 
-1 1 12:1 13:1 14:0.085899152 
-1 1 11:1 
-1 1 6:1 
-1 1 12:1 13:1 14:0.037037037 
-1 1 1:0.076923077 2:1 3:1 4:1 
-0.01270438517445264 1 1:0.090909091 2:1 3:1 4:1 6:1 12:1 13:1 14:0.085899152 
-1 1 8:1 12:1 13:1 14:0.10818713 
-1 1 1:0.076923077 2:1 3:1 4:1 12:1 13:1 14:-0.045454545 
-1 1 1:0.0625 2:1 3:1 4:1 
-1 1 11:1 
-1 1 11:1 12:1 13:1 14:-0.058467742 
-1 1 1:0.058823529 2:1 3:1 4:1 12:1 13:1 14:-0.125 
-1 1 1:0.0625 2:1 3:1 4:1 5:1 6:1 
-1 1 11:1 12:1 13:1 14:-0.16666667 
-1 1 12:1 13:1 14:0.075 
-0 1 6:1 12:1 13:1 14:0.085899152 
-0 1 1:0.125 2:1 3:3 4:1 12:1 13:1 14:-0.037037037 
-1 1 1:0.071428571 3:1 4:1 12:1 13:1 14:0.092592593 
-1 1 1:0.076923077 2:1 3:1 4:1 12:1 13:1 14:-0.035714286 
-1 1 11:1 12:1 13:1 14:0.0625 
-1 1 1:0.076923077 3:1 4:1 12:1 13:1 14:0.12658228 
-1 1 1:0.066666667 2:1 3:1 4:1 12:1 13:1 14:-0.2 
-1 1 12:1 13:1 14:0.125 
-1 1 1:0.0625 2:1 3:1 4:1 11:2 12:1 13:1 14:-0.008175278 
-1 1 
-1 1 1:0.16666667 2:1 3:1 4:1 
-1 1 1:0.055555556 2:1 3:1 4:1 12:1 13:1 14:0.10576923 
-1 1 11:2 
-1 1 11:1 12:1 13:1 14:0.10135135 
-1 1 11:1 12:1 13:1 14:0.085899152 
-1 1 12:1 13:1 14:0.17857143 
-1 1 12:1 13:1 14:0.14285714 
-1 1 1:0.071428571 2:1 3:1 4:1 12:1 13:1 14:0.041666667 
-1 1 12:1 13:1 14:0.14163237 
-1 1 
-1 1 5:1 6:1 12:1 13:1 14:0.1125 
-1 1 11:1 12:1 13:1 14:0.125 
-1 1 13:1 14:-0.1875 
-1 1 5:1 6:1 
-1 1 1:0.14285714 2:1 3:1 4:1 11:1 
-1 1 1:0.17647059 2:3 3:3 4:1 5:2 6:2 12:1 13:1 14:0.03125 
-1 1 12:1 13:1 14:0.25 
-1 1 1:0.076923077 2:1 3:1 4:1 6:1 12:1 13:1 14:0.19117647 
-1 1 1:0.041666667 2:1 3:1 4:1 11:1 
-1 1 5:1 6:1 13:1 14:-0.25 
-1 1 1:0.25 2:1 3:1 4:1 12:1 13:1 14:0.125 
-0 1 13:1 14:-0.5 
-1 1 11:1 12:1 13:1 14:-0.008175278 
-1 1 12:1 13:1 14:0.070512821 
-1 1 6:1 
-0 1 1:0.0625 2:1 3:1 4:1 13:1 14:-0.33333333 
-0 1 1:0.18181818 2:1 3:2 4:1 11:1 
-1 1 11:1 
-1 1 11:1 
-1 1 12:1 13:1 14:-0.13095238 
