svm_type c_svc
kernel_type rbf
gamma 0.0666667
nr_class 3
total_sv 6488
rho 0.122458 -0.223264 0.274711
label 1 -1 0
nr_sv 2491 1078 2919
SV
1 1 12:1 13:1 14:0.071428571 
0 1 1:0.058823529 2:1 4:1 12:1 14:0.29166667 
0 1 1:0.045454545 2:1 4:1 
0 1 
1 1 1:0.052631579 2:1 3:1 4:1 11:2 12:1 13:1 14:0.25 
0 1 
0 1 1:0.22222222 2:4 3:1 4:1 
1 1 1:0.14285714 2:1 3:1 4:1 12:1 13:1 14:0.016666667 
0 1 15:1 
0 1 1:0.57142857 2:4 3:2 4:1 12:1 14:0.5 
0 1 7:1 11:1 
0 1 1:0.11111111 2:1 3:1 4:1 5:1 
0 1 
0 1 
1 1 12:1 13:1 14:0.097222222 
0 1 12:1 13:1 14:0.43274854 
0 1 
0 1 1:0.14285714 2:2 3:2 4:1 5:1 
1 1 1:0.0625 2:1 3:1 4:1 12:1 13:1 14:0.086395451 
0 1 1:0.13333333 2:2 3:2 4:1 12:1 14:0.17647059 
1 1 1:0.0625 2:1 3:1 4:1 12:1 13:1 
0 1 12:1 14:0.5 
0 1 
0 1 1:0.14285714 2:1 3:1 4:1 5:1 12:1 13:1 14:0.125 
0 1 12:1 14:0.15909091 
1 1 1:0.066666667 2:1 3:1 4:1 11:1 12:1 13:1 14:0.11764706 
0 1 1:0.1875 2:3 3:3 4:1 12:1 13:1 14:0.2125 
0 1 12:1 13:1 14:0.15277778 
1 1 1:0.076923077 2:1 3:1 4:1 
0 1 
0 1 1:0.14285714 2:3 3:2 4:1 15:1 
0 1 12:1 13:1 14:0.16666667 
0 1 1:0.071428571 2:1 4:1 12:1 13:1 14:0.21212121 
0 1 1:0.28571429 2:4 3:3 4:1 7:1 12:1 13:1 14:0.18181818 
0 1 
1 0.3372739757237403 11:1 12:1 13:1 14:0.37204724 
0 1 
1 1 12:1 13:1 14:0.053571429 
1 1 11:1 12:1 13:1 14:0.15609756 
1 1 1:0.076923077 2:1 3:1 4:1 12:1 13:1 
0 1 12:1 14:0.5 
0 1 1:0.42857143 2:6 3:4 4:1 
1 1 12:1 13:1 14:0.058823529 
0 1 12:1 14:0.33333333 
0 1 12:1 14:0.5 15:1 
1 1 1:0.047619048 2:1 3:1 4:1 5:1 6:1 11:1 12:1 13:1 
0 1 1:0.066666667 2:1 4:1 12:1 13:1 14:0.11363636 
1 1 1:0.13333333 2:2 3:2 4:1 12:1 13:1 14:0.086395451 
0 1 1:0.086956522 2:2 3:2 4:1 5:1 12:1 13:1 14:0.2 
1 1 11:1 
0 1 
1 1 12:1 13:1 14:0.086395451 
0 1 5:1 12:1 13:1 14:-0.038461538 
0 1 12:1 13:1 14:0.15609756 
0 1 
0 1 1:0.15384615 2:2 3:2 4:1 12:1 13:1 14:0.14705882 
1 1 1:0.055555556 2:1 3:1 4:1 11:1 
1 1 12:1 13:1 14:0.035714286 
0 1 1:0.041666667 2:1 3:1 4:1 12:1 14:0.25 
0 1 1:0.071428571 2:1 3:1 4:1 5:1 
1 1 12:1 13:1 14:0.086395451 
0 1 12:1 13:1 14:0.175 
0 1 
0 1 1:0.125 2:2 3:2 4:1 12:1 14:0.5 
1 1 1:0.058823529 2:1 3:1 4:1 12:1 13:1 14:0.047619048 
0 1 
0 1 1:0.071428571 2:1 3:1 4:1 12:1 13:1 14:0.21428571 
1 1 11:1 12:1 13:1 14:0.041666667 
0 1 
0 1 1:0.083333333 2:1 4:1 
1 0 7:1 11:1 12:1 13:1 14:0.15384615 
0 1 
1 1 1:0.076923077 2:1 3:1 4:1 12:1 13:1 14:0.10377358 
0 1 12:1 13:1 14:0.12893082 
0 1 1:0.16666667 2:2 3:1 4:1 5:1 6:1 
0 1 1:0.066666667 2:1 4:1 11:1 
1 1 12:1 13:1 14:0.073619632 
0 1 1:0.052631579 2:1 4:1 
1 1 1:0.14285714 2:1 3:1 4:1 12:1 13:1 14:0.083333333 
0 1 1:0.066666667 2:1 4:1 11:1 12:1 13:1 14:0.1 
1 1 12:1 13:1 14:-0.058467742 
1 1 1:0.0625 2:1 3:1 4:1 5:1 6:1 12:1 13:1 14:0.13068182 
1 1 11:2 
1 1 1:0.14285714 2:2 3:2 4:1 12:1 13:1 14:0.10682261 
1 1 5:1 6:1 12:1 13:1 
1 1 5:1 6:1 11:1 
1 1 1:0.15789474 2:3 3:3 4:1 12:1 13:1 14:-0.0875 
1 1 12:1 13:1 14:-0.125 
1 1 1:0.076923077 2:1 3:1 4:1 12:1 13:1 14:0.086395451 
0 1 12:1 13:1 14:0.16477273 
0 1 
0 1 12:1 13:1 14:0.44370229 
0 1 
0 1 
0 1 
0 1 12:1 13:1 14:0.19230769 
0 1 
0 1 12:1 14:0.5 
0 1 1:0.14285714 2:2 3:1 4:1 
1 1 12:1 13:1 14:0.075 
0 1 1:0.029411765 2:1 4:1 11:1 12:1 13:1 14:0.086395451 
0 1 1:0.10526316 2:2 3:2 4:1 12:1 14:0.34615385 
1 1 11:1 15:1 
0 1 12:1 14:0.125 
0 1 1:0.047619048 2:1 3:1 4:1 11:1 12:1 14:0.16666667 
1 1 11:1 
0 1 12:1 14:0.45 
0 1 
0 1 5:1 12:1 13:1 14:0.014285714 
0 1 
0 1 7:1 12:1 13:1 14:0.11585366 
0 1 7:1 
0 1 1:0.047619048 2:1 3:1 4:1 11:1 12:1 13:1 14:0.34375 
0 1 1:0.076923077 2:1 4:1 12:1 14:0.15909091 
0 1 
0 1 
0 1 11:1 12:1 14:0.23913043 
0 1 
1 1 1:0.052631579 2:1 3:1 4:1 12:1 13:1 14:0.041666667 
1 1 12:1 13:1 14:-0.023809524 
0 1 12:1 13:1 14:0.33333333 
0 1 1:0.0625 2:1 3:1 4:1 12:1 14:0.16666667 
0 1 12:1 13:1 14:0.1627907 
0 1 12:1 13:1 14:0.25 
1 1 11:1 12:1 13:1 14:0.075 
1 1 12:1 13:1 14:0.086395451 
0 1 1:0.2 2:3 3:1 4:1 
1 1 11:1 12:1 13:1 14:-0.16666667 
0 1 
0 1 12:1 14:0.375 
0 1 12:1 13:1 14:0.21818182 
1 1 1:0.055555556 2:1 3:1 4:1 12:1 13:1 14:-0.03125 
0 1 1:0.10526316 2:2 4:1 12:1 13:1 14:0.086395451 
0 1 1:0.066666667 2:1 3:1 4:1 12:1 13:1 14:0.15789474 
0 1 
0 1 
0 1 1:0.076923077 2:1 3:1 4:1 12:1 13:1 14:0.1627907 
0 1 1:0.041666667 2:1 4:1 
0 1 12:1 13:1 14:0.1627907 
1 1 1:0.076923077 2:1 3:1 4:1 12:1 13:1 14:0.041666667 
0 1 
1 1 12:1 13:1 14:0.078125 
1 1 1:0.0625 2:1 3:1 4:1 11:1 
1 1 12:1 13:1 14:-0.038461538 
0 1 1:0.052631579 2:1 3:1 4:1 12:1 13:1 14:0.2037037 
0 1 1:0.066666667 2:1 4:1 
0 1 
0 1 1:0.095238095 2:2 3:2 4:1 5:1 12:1 13:1 14:0.22222222 
0 1 12:1 13:1 14:0.5 
0 1 1:0.052631579 2:1 3:1 4:1 12:1 14:0.34615385 
0 1 
0 1 
0 1 12:1 14:0.5 
1 1 1:0.071428571 2:1 3:1 4:1 12:1 13:1 14:-0.0048076923 
1 1 12:1 13:1 14:0.077922078 
0 1 1:0.04 2:1 4:1 12:1 13:1 14:0.12601626 
0 1 1:0.05 2:1 3:1 4:1 12:1 14:0.1 
1 1 12:1 13:1 
0 1 1:0.071428571 2:1 4:1 
1 1 5:1 6:1 
1 1 1:0.090909091 2:1 3:1 4:1 
0 1 12:1 14:0.125 
1 1 12:1 13:1 14:0.055555556 
0 1 1:0.045454545 2:1 3:1 4:1 5:1 12:1 13:1 14:0.11585366 
0 1 12:1 13:1 14:0.21818182 
1 1 12:1 13:1 14:0.086395451 
0 1 12:1 13:1 14:0.1417004 
0 1 
1 1 11:2 12:1 13:1 14:0.016756433 
0 1 1:0.16666667 2:3 3:2 4:1 12:1 13:1 14:0.58761682 
0 1 
0 1 12:1 13:1 14:0.26470588 
1 1 12:1 13:1 14:0.086395451 
0 1 12:1 13:1 14:0.21818182 
0 1 
0 1 
1 1 12:1 13:1 14:0.11206897 
1 0.2540904821808726 7:1 11:1 12:1 13:1 14:0.080188679 
1 1 12:1 13:1 14:-0.03125 
0 1 
0 1 1:0.076923077 2:1 4:1 12:1 13:1 14:-0.1 
0 1 12:1 13:1 14:0.14285714 
1 1 11:2 12:1 13:1 14:-0.55288462 
1 1 1:0.15384615 2:2 3:2 4:1 11:2 12:1 13:1 14:0.140625 
0 1 1:0.052631579 2:1 4:1 12:1 13:1 14:0.16666667 
0 1 12:1 13:1 14:0.14114011 
0 1 12:1 13:1 14:0.14893617 
0 1 1:0.071428571 2:1 4:1 15:1 
1 1 11:1 
0 1 1:0.090909091 2:1 4:1 
1 1 12:1 13:1 14:0.058333333 
0 1 
0 1 12:1 13:1 14:0.15609756 
0 1 1:0.090909091 2:1 4:1 
0 1 12:1 13:1 14:0.15306122 
1 1 11:1 12:1 13:1 14:0.10818713 15:2 
0 1 12:1 13:1 14:0.2 
0 1 
1 1 11:1 12:1 13:1 14:0.055555556 
0 1 
1 1 12:1 13:1 14:0.086395451 
0 1 12:1 14:0.5 
0 1 
0 1 12:1 13:1 14:0.32142857 
0 1 5:1 12:1 13:1 14:0.015151515 
1 1 1:0.037037037 2:1 3:1 4:1 11:1 12:1 13:1 14:0.25 
0 1 1:0.045454545 2:1 3:1 4:1 
0 1 1:0.14285714 2:2 3:2 4:1 12:1 13:1 14:0.13945578 
1 1 11:2 
0 1 1:0.076923077 2:1 4:1 12:1 13:1 14:0.17857143 
1 1 12:1 13:1 14:-0.125 
0 1 1:0.041666667 2:1 4:1 12:1 13:1 14:0.12601626 
0 1 1:0.055555556 2:1 3:1 4:1 
0 1 1:0.058823529 2:1 3:1 4:1 12:1 13:1 14:0.23863636 
1 1 1:0.066666667 2:1 3:1 4:1 
1 1 1:0.2 2:2 3:2 4:1 
0 1 
1 1 1:0.095238095 2:2 3:2 4:1 11:2 
1 1 12:1 13:1 14:-0.048780488 
0 1 
0 1 1:0.15384615 2:2 3:2 4:1 12:1 14:0.5625 
0 0.937793559904773 1:0.055555556 2:1 4:1 12:1 14:0.5 
0 1 1:0.125 2:2 3:2 4:1 5:1 
0 1 12:1 13:1 14:0.16477273 
0 1 12:1 13:1 14:0.15609756 
1 1 12:1 13:1 14:0.125 
1 1 12:1 13:1 14:0.0625 
1 1 12:1 13:1 14:-0.12962963 
0 1 12:1 13:1 14:0.44370229 
1 1 1:0.076923077 2:1 3:1 4:1 12:1 13:1 14:0.10682261 
0 1 12:1 13:1 14:0.18965517 
0 1 5:1 12:1 13:1 14:0.028846154 
0 1 1:0.090909091 2:1 3:1 4:1 7:1 
0 1 12:1 14:0.5 
0 1 
1 1 9:1 11:2 
1 1 11:1 12:1 13:1 14:0.16666667 
0 1 1:0.25 2:5 3:4 4:1 11:2 
0 1 12:1 13:1 14:0.18571429 
1 1 1:0.15789474 2:3 3:3 4:1 12:1 13:1 14:-0.0875 
0 1 12:1 13:1 14:0.47058824 
1 1 1:0.0625 2:1 3:1 4:1 11:1 
0 1 12:1 13:1 14:0.2431694 
1 1 11:1 12:1 13:1 14:0.17348398 
0 1 
0 1 
0 1 9:1 
0 1 
1 1 12:1 13:1 14:-0.071428571 
0 1 12:1 13:1 14:0.14705882 
0 1 
0 1 1:0.066666667 2:1 3:1 4:1 12:1 14:0.34615385 
0 1 12:1 13:1 14:0.16666667 
0 1 12:1 13:1 14:0.14285714 
1 1 1:0.18181818 2:2 3:2 4:1 11:1 12:1 13:1 14:0.12 
0 1 12:1 13:1 14:0.25 
1 1 12:1 13:1 14:0.11206897 
0 1 
1 0.2502962369995409 1:0.058823529 2:1 3:1 4:1 11:4 12:1 14:0.27777778 
0 1 1:0.076923077 2:1 3:1 4:1 12:1 14:0.5 
0 1 12:1 13:1 14:0.18421053 
1 1 12:1 13:1 14:0.077922078 
0 1 1:0.076923077 2:1 3:1 4:1 12:1 14:0.5 
0 1 1:0.0625 2:1 3:1 4:1 7:1 12:1 13:1 14:0.15609756 
0 1 12:1 13:1 14:0.28205128 
1 1 1:0.083333333 2:2 3:2 4:1 12:1 13:1 14:0.086395451 
0 1 12:1 13:1 14:0.15609756 
1 1 1:0.14285714 2:2 3:2 4:1 11:1 12:1 13:1 14:0.016756433 
1 1 1:0.052631579 2:1 3:1 4:1 11:2 12:1 13:1 14:0.14114011 
1 1 12:1 13:1 
0 1 1:0.15384615 2:2 3:1 4:1 12:1 13:1 14:0.14893617 
0 1 1:0.125 2:1 3:1 4:1 12:1 14:0.5 
0 1 1:0.055555556 2:1 3:1 4:1 
0 1 
1 1 1:0.1 2:1 3:1 4:1 
1 1 11:1 
1 1 12:1 13:1 14:0.10682261 
1 1 12:1 13:1 14:0.11496746 
0 1 5:1 12:1 13:1 14:0.0625 
1 1 1:0.42857143 2:6 3:6 4:1 12:1 13:1 
0 1 1:0.055555556 2:1 3:1 4:1 12:1 13:1 14:0.16666667 
1 1 1:0.11764706 2:2 3:2 4:1 12:1 13:1 14:0.086395451 
0 1 
0 1 12:1 13:1 14:0.15609756 
1 1 12:1 13:1 14:0.10682261 
0 1 1:0.045454545 2:1 4:1 
1 1 12:1 13:1 14:0.086395451 
0 1 
1 1 12:1 13:1 14:0.086395451 
1 1 11:1 
0 1 1:0.068965517 2:2 4:1 
1 1 11:1 
0 1 15:1 
0 1 1:0.0625 2:1 3:1 4:1 5:1 
0 1 
1 1 12:1 13:1 14:0.086395451 
0 1 1:0.058823529 2:1 4:1 
0 1 
1 1 12:1 13:1 14:-0.125 
0 1 1:0.16666667 2:3 3:2 4:1 12:1 13:1 14:0.58761682 
1 1 11:1 
0 1 
0 1 1:0.071428571 2:1 3:1 4:1 12:1 13:1 14:0.18965517 
1 1 11:1 
1 1 11:1 
0 1 1:0.38461538 2:5 3:4 4:1 
0 1 
0 1 12:1 13:1 14:0.29222973 
1 1 1:0.090909091 2:1 3:1 4:1 
0 1 1:0.083333333 2:1 4:1 
0 1 1:0.125 2:1 3:1 4:1 12:1 13:1 14:0.25 
1 1 11:1 
1 1 11:2 
0 0.242345499259233 1:0.25 2:3 4:1 12:1 14:0.5 
0 1 
0 1 15:1 
1 1 11:1 
1 1 11:1 
0 1 1:0.11111111 2:1 4:1 
0 1 
0 1 1:0.090909091 2:1 4:1 
0 1 
0 1 12:1 13:1 14:0.15609756 
1 1 11:1 12:1 13:1 14:0.19444444 
0.3739922291457404 1 7:1 12:1 13:1 
0 1 12:1 14:0.5 
0 1 12:1 13:1 14:0.14114011 
1 1 11:1 12:1 13:1 14:0.13636364 
0 1 1:0.14285714 2:2 3:2 4:1 12:1 13:1 14:0.13268523 
0 1 1:0.1875 2:3 3:3 4:1 11:1 12:1 14:0.5 
0 1 1:0.076923077 2:1 4:1 
1 1 12:1 13:1 14:0.086395451 
0 1 1:0.052631579 2:1 3:1 4:1 
0 1 1:0.083333333 2:1 3:1 4:1 12:1 13:1 14:0.11496746 
1 1 11:1 
0 1 1:0.058823529 2:1 3:1 4:1 
1 1 12:1 13:1 14:0.086395451 
1 1 11:1 12:1 13:1 14:0.16666667 
1 1 12:1 13:1 14:0.086395451 
1 1 12:1 13:1 
0 1 1:0.055555556 2:1 4:1 12:1 14:0.25 
0 1 12:1 13:1 14:0.1625 
1 1 1:0.11764706 2:2 3:2 4:1 11:1 15:1 
1 1 11:1 12:1 13:1 14:0.12286689 
0 1 
1 1 1:0.11111111 2:1 3:1 4:1 11:1 12:1 13:1 14:0.0625 
0 1 1:0.05 2:1 3:1 4:1 12:1 13:1 14:0.10714286 
0 1 1:0.066666667 2:1 3:1 4:1 12:1 13:1 14:0.58761682 
0 1 12:1 13:1 14:0.16666667 
0 1 1:0.045454545 2:1 3:1 4:1 12:1 13:1 14:0.125 
1 1 11:1 
0 1 1:0.058823529 2:1 4:1 11:1 
0 1 1:0.086956522 2:2 3:2 4:1 11:1 12:1 13:1 14:0.34375 
0 1 12:1 13:1 14:0.16666667 
1 1 11:2 
1 1 11:1 
0 1 
1 1 1:0.1 2:1 3:1 4:1 12:1 13:1 14:0.069444444 
1 1 12:1 13:1 14:0.010204082 
1 1 11:1 12:1 13:1 14:0.140625 
1 1 12:1 13:1 14:0.086395451 
0 1 1:0.043478261 2:1 4:1 
1 1 11:1 12:1 13:1 14:0.086395451 
0 1 
1 1 1:0.071428571 2:1 3:1 4:1 11:1 12:1 13:1 14:0.091240876 
0 1 12:1 13:1 14:0.2 
0 1 
0 1 12:1 14:0.3 
0.9029237670376519 1 1:0.35483871 2:11 3:8 4:1 
0 1 12:1 13:1 14:0.18410596 
0 1 
0 1 
0 1 1:0.055555556 2:1 3:1 4:1 12:1 13:1 14:0.12601626 
1 1 12:1 13:1 14:-0.12916667 
0 1 12:1 13:1 14:0.26 
0 1 
0 1 1:0.055555556 2:1 3:1 4:1 12:1 13:1 14:0.14285714 
0 1 1:0.076923077 2:1 3:1 4:1 12:1 13:1 14:0.2125 
0 1 12:1 13:1 14:0.14114011 
0 1 1:0.090909091 2:1 3:1 4:1 12:1 14:0.25 
1 1 12:1 13:1 14:0.10682261 
1 1 11:1 12:1 13:1 14:0.125 
0 1 
0 1 12:1 13:1 14:0.18965517 
0 1 12:1 13:1 14:0.17348398 
1 1 12:1 13:1 14:0.10682261 
1 1 1:0.15789474 2:3 3:3 4:1 12:1 13:1 14:0.10951327 
0 1 12:1 13:1 14:0.52840909 
0 1 1:0.1 2:2 3:2 4:1 
1 1 12:1 13:1 14:0.090909091 
0 1 
1 1 12:1 13:1 14:0.086395451 
1 1 12:1 13:1 14:0.075 
0 1 1:0.14285714 2:2 3:1 4:1 12:1 13:1 14:0.055555556 
0 1 
1 1 5:1 6:1 12:1 13:1 14:0.1875 
0 1 1:0.14285714 2:1 3:1 4:1 12:1 13:1 14:0.1417004 
0 1 12:1 13:1 14:0.20833333 
0 1 12:1 13:1 14:0.13333333 
0 1 1:0.058823529 2:1 3:1 4:1 12:1 13:1 14:0.12286689 
1 1 12:1 13:1 14:0.086395451 
1 1 1:0.18181818 2:2 3:2 4:1 12:1 13:1 14:0.097744361 
0 1 1:0.047619048 2:1 3:1 4:1 12:1 13:1 14:0.14114011 
1 1 1:0.083333333 2:1 3:1 4:1 11:1 12:1 13:1 
0 1 
1 1 12:1 13:1 14:0.086395451 
1 1 12:1 13:1 14:0.031914894 
0 1 1:0.055555556 2:1 3:1 4:1 12:1 14:0.11538462 
0 1 12:1 13:1 14:0.13636364 
1 1 11:1 12:1 13:1 14:0.14114011 
1 1 11:1 
1 1 11:1 
0 1 12:1 14:0.5 
0 1 1:0.05 2:1 3:1 4:1 7:1 12:1 13:1 14:0.11684783 
0 1 1:0.076923077 2:1 4:1 
1 1 5:1 6:1 11:1 12:1 13:1 14:0.016756433 
0 1 1:0.05 2:1 3:1 4:1 12:1 14:0.22222222 
1 1 12:1 13:1 14:-0.12916667 
0 1 12:1 13:1 14:0.16666667 
0 1 12:1 13:1 14:0.25 
0 1 1:0.04 2:1 4:1 11:1 12:1 13:1 14:-0.0625 
0 1 12:1 13:1 14:0.44370229 
1 1 12:1 13:1 14:0.10951327 
0 1 
1 1 12:1 13:1 14:0.052631579 
0 1 12:1 14:0.46428571 
0 1 12:1 13:1 14:0.13461538 
0 1 12:1 13:1 14:0.1627907 
0 1 
0 1 1:0.090909091 2:1 4:1 
1 1 1:0.0625 2:1 3:1 4:1 12:1 13:1 14:-0.051020408 
1 1 1:0.11111111 2:1 3:1 4:1 12:1 13:1 14:0.045454545 
0 1 
1 1 11:1 
0 1 1:0.090909091 2:1 3:1 4:1 7:1 11:1 
0 1 
0 1 12:1 14:0.25 
0 1 12:1 13:1 14:0.16666667 
1 1 1:0.066666667 2:1 3:1 4:1 
1 1 11:1 12:1 13:1 14:0.10951327 
1 1 11:1 
1 1 11:1 12:1 13:1 14:0.086395451 
0 1 1:0.11111111 2:2 3:2 4:1 12:1 13:1 14:0.25 
0 1 1:0.125 2:2 3:2 4:1 12:1 13:1 14:0.2734375 
0 1 
0 1 1:0.0625 2:1 4:1 
0 1 1:0.17647059 2:3 3:3 4:1 5:1 12:1 13:1 14:0.0625 
1 1 1:0.15789474 2:3 3:3 4:1 11:1 12:1 13:1 14:0.03125 
0 1 1:0.0625 2:1 3:1 4:1 12:1 13:1 14:0.325 
0 1 1:0.14285714 2:2 3:1 4:1 12:1 14:0.16666667 
1 1 11:1 12:1 13:1 14:0.125 
0 1 1:0.14285714 2:2 3:1 4:1 5:1 
1 1 11:1 
0 1 
0 1 12:1 13:1 14:0.13636364 
0 1 12:1 13:1 14:0.18627451 
0 1 1:0.2 2:4 3:4 4:1 12:1 14:0.5 
1 1 12:1 13:1 14:0.10883621 
0 1 5:1 12:1 13:1 14:0.058333333 
0 1 12:1 13:1 14:0.13461538 
0 1 1:0.055555556 2:1 4:1 11:1 12:1 13:1 14:0.045454545 
0 1 1:0.16666667 2:1 4:1 12:1 13:1 14:0.18965517 
0 1 1:0.066666667 2:1 3:1 4:1 12:1 13:1 14:0.16666667 
1 1 11:1 12:1 13:1 14:0.11666667 
1 1 1:0.071428571 2:1 3:1 4:1 11:1 
1 1 1:0.090909091 2:1 3:1 4:1 
0 1 1:0.047619048 2:1 3:1 4:1 5:1 
0 1 
1 1 1:0.0625 2:1 3:1 4:1 5:1 6:1 12:1 13:1 14:0.1875 
0 1 
0 1 1:0.23076923 2:3 3:2 4:1 12:1 13:1 
0 1 12:1 14:0.5 
1 1 11:1 12:1 13:1 14:0.016756433 
0 1 
0 1 5:1 12:1 13:1 14:-0.0048076923 
0 1 1:0.052631579 2:1 3:1 4:1 12:1 13:1 14:0.175 
1 1 11:1 
0 0.1404627243732628 1:0.18181818 2:2 3:2 4:1 5:1 12:1 13:1 14:0.3 
0 1 1:0.0625 2:1 4:1 
0 1 
0 1 1:0.14285714 2:2 3:1 4:1 12:1 14:0.45 
0 1 12:1 14:0.5 
0 1 1:0.058823529 2:1 3:1 4:1 12:1 13:1 14:0.11904762 
1 1 1:0.076923077 2:1 3:1 4:1 
0 1 1:0.083333333 2:1 4:1 
0 1 
0 1 1:0.055555556 2:1 3:1 4:1 12:1 13:1 14:0.11684783 
0 1 12:1 13:1 14:0.3 
0 1 12:1 14:0.3 
1 1 1:0.071428571 2:1 3:1 4:1 11:1 
0 1 
1 1 12:1 13:1 14:0.054455446 
0 1 1:0.125 2:2 4:1 12:1 13:1 14:0.125 
1 1 1:0.083333333 2:1 3:1 4:1 11:1 
1 1 11:1 12:1 13:1 14:0.23529412 
1 1 11:1 
0 1 12:1 14:0.4375 
0 1 
0 1 1:0.11111111 2:2 3:1 4:1 12:1 13:1 14:0.029411765 
1 1 11:1 
0 1 12:1 13:1 14:0.25 
1 1 12:1 13:1 14:-0.098214286 
0 1 1:0.083333333 2:1 4:1 
1 1 11:1 
1 1 1:0.058823529 2:1 3:1 4:1 11:1 
0 1 1:0.0625 2:1 3:1 4:1 12:1 13:1 14:0.21818182 
0 1 12:1 13:1 14:0.32142857 
0 1 1:0.0625 2:1 4:1 11:1 12:1 13:1 14:0.052631579 
0 1 12:1 13:1 14:0.14114011 
0 1 
1 1 12:1 13:1 14:0.10682261 
1 1 1:0.05 2:1 3:1 4:1 12:1 13:1 14:-0.12195122 
0 1 1:0.058823529 2:1 4:1 12:1 14:0.25 
0 1 1:0.066666667 2:1 3:1 4:1 12:1 13:1 14:0.58761682 
0 1 
1 1 12:1 13:1 14:0.097744361 
0 1 1:0.055555556 2:1 3:1 4:1 
1 1 12:1 13:1 14:0.086395451 
0 1 1:0.058823529 2:1 3:1 4:1 12:1 13:1 14:0.35 
0 1 12:1 14:0.25 
0 1 12:1 14:0.5 
0 1 1:0.04 2:1 4:1 
1 1 11:1 12:1 13:1 14:0.054455446 
1 1 12:1 13:1 14:0.0625 
0 1 
0 0.2457936537052338 1:0.375 2:6 3:3 4:1 12:1 13:1 14:0.12286689 
1 1 12:1 13:1 14:0.12 
0 1 12:1 13:1 14:0.13513514 
0 1 
0 1 1:0.11111111 2:2 3:1 4:1 12:1 13:1 14:0.16666667 
1 1 1:0.14285714 2:2 3:2 4:1 
0 1 12:1 13:1 14:0.13783784 
0 1 12:1 13:1 14:0.21428571 
0 1 1:0.066666667 2:1 3:1 4:1 12:1 13:1 14:0.17857143 
0 1 11:1 12:1 14:0.1875 
0 1 1:0.05 2:1 3:1 4:1 5:1 12:1 13:1 14:0.1125 
1 0 11:2 12:1 14:0.25 
0 1 
1 1 11:1 
0 1 1:0.083333333 2:1 3:1 4:1 12:1 14:0.5 
1 1 12:1 13:1 14:0.086395451 
0 1 1:0.071428571 2:1 4:1 12:1 13:1 14:0.086395451 
1 1 1:0.16666667 2:1 3:1 4:1 12:1 13:1 
0 1 12:1 13:1 14:0.32142857 
1 1 12:1 13:1 14:0.16666667 15:1 
1 1 11:2 15:1 
0 1 1:0.25 2:4 3:4 4:1 12:1 13:1 14:0.37204724 
1 1 12:1 13:1 14:0.016666667 
0 1 
0 1 1:0.1875 2:3 3:2 4:1 5:1 12:1 13:1 14:0.22222222 
1 1 11:1 12:1 13:1 14:0.086395451 
0 1 
1 1 11:2 12:1 13:1 14:0.10951327 
0 1 
0 1 12:1 14:0.5 
1 1 1:0.3 2:3 3:3 4:1 12:1 13:1 14:0.14114011 
0 1 
0 1 1:0.11111111 2:2 3:1 4:1 
0 1 1:0.15384615 2:2 3:1 4:1 12:1 13:1 
1 1 11:1 15:1 
0 1 12:1 14:0.5 
1 1 11:2 12:1 13:1 14:0.11111111 
1 1 11:1 12:1 13:1 14:0.016756433 
0 1 
1 1 1:0.066666667 2:1 3:1 4:1 11:1 12:1 13:1 
0 1 12:1 14:0.25 
0 1 12:1 14:0.5 
0 1 12:1 13:1 14:0.2431694 
1 1 12:1 13:1 14:0.11684783 
0 1 
0 1 1:0.11764706 2:2 3:2 4:1 12:1 14:0.5 
0 1 
0 1 1:0.071428571 2:1 3:1 4:1 12:1 13:1 14:0.3255814 
1 1 11:1 12:1 13:1 14:0.125 
0 1 5:1 12:1 13:1 14:0.027027027 
0 1 
0 1 1:0.14285714 2:1 4:1 
0 1 1:0.0625 2:1 3:1 4:1 5:1 12:1 13:1 14:0.028846154 
0 1 
0 1 12:1 13:1 14:0.26923077 
1 1 1:0.0625 2:1 3:1 4:1 11:1 
0 1 
0 1 1:0.15 2:3 3:1 4:1 5:1 
1 1 12:1 13:1 14:0.086395451 
0 1 1:0.11111111 2:2 3:1 4:1 11:1 
0 1 1:0.071428571 2:1 3:1 4:1 12:1 14:0.5 
0 1 1:0.071428571 2:1 3:1 4:1 12:1 14:0.5 
0 1 1:0.090909091 2:1 3:1 4:1 12:1 14:0.5625 
0 1 1:0.0625 2:1 4:1 
1 1 11:2 
1 1 1:0.066666667 2:1 3:1 4:1 12:1 13:1 14:0.075 
0 1 12:1 13:1 14:0.21428571 
1 1 12:1 13:1 14:0.036585366 
0 1 1:0.058823529 2:1 3:1 4:1 12:1 13:1 14:0.17808219 
1 1 12:1 13:1 14:0.125 
0 1 
0 1 1:0.11111111 2:1 4:1 12:1 13:1 14:0.1875 
1 1 12:1 13:1 14:0.092592593 
0 1 1:0.13333333 2:2 3:2 4:1 12:1 14:0.5 
1 1 11:1 
0 1 12:1 13:1 14:0.21428571 
0 1 
0 1 12:1 13:1 14:0.22058824 
0 1 1:0.047619048 2:1 3:1 4:1 12:1 13:1 14:0.14705882 
1 1 12:1 13:1 14:-0.045454545 
0 1 12:1 13:1 14:0.14516129 
0 1 
0 1 12:1 14:0.28571429 
1 1 11:1 12:1 13:1 14:0.13268523 
0 1 1:0.0625 2:1 4:1 
0 1 1:0.066666667 2:1 3:1 4:1 12:1 14:0.5 
1 1 11:1 12:1 13:1 14:0.016756433 
0 1 
0 1 1:0.11111111 2:1 3:1 4:1 12:1 14:0.125 
0 1 12:1 13:1 14:0.19 
0 1 1:0.066666667 2:1 3:1 4:1 12:1 13:1 14:0.18103448 
0 1 1:0.11111111 2:2 3:1 4:1 12:1 14:0.083333333 
1 1 1:0.083333333 2:1 3:1 4:1 
0 1 1:0.047619048 2:1 3:1 4:1 
0 1 12:1 13:1 14:0.19117647 
1 1 12:1 13:1 14:-0.055555556 
0 1 1:0.11111111 2:1 3:1 4:1 12:1 13:1 14:0.1417004 
1 1 12:1 13:1 14:-0.055555556 
0 1 
0 1 12:1 13:1 14:0.17021277 
1 0 5:1 11:2 12:1 13:1 14:0.15 
0 1 12:1 13:1 14:0.13815789 
0 1 
1 1 12:1 13:1 14:0.11666667 
0 1 1:0.055555556 2:1 3:1 4:1 12:1 14:0.15 
1 1 11:1 12:1 13:1 14:0.038461538 
0 1 12:1 13:1 14:0.18410596 
0 1 
0 1 1:0.11764706 2:2 3:1 4:1 12:1 13:1 14:0.46607143 
1 1 12:1 13:1 14:0.086395451 
0 1 1:0.095238095 2:2 3:1 4:1 12:1 13:1 14:0.1417004 
1 1 12:1 13:1 14:0.097744361 
0 1 1:0.047619048 2:1 4:1 12:1 14:0.375 
1 1 1:0.058823529 2:1 3:1 4:1 
1 1 12:1 13:1 14:0.086395451 
0 1 1:0.125 2:2 3:1 4:1 11:1 12:1 13:1 14:0.016756433 
0 1 1:0.14285714 2:2 3:1 4:1 12:1 13:1 14:0.43274854 
1 1 11:1 
0 1 1:0.095238095 2:2 3:2 4:1 12:1 13:1 14:0.10682261 
1 1 1:0.083333333 2:1 3:1 4:1 
1 1 11:1 
1 1 11:1 
1 1 12:1 13:1 14:0.033333333 
1 1 1:0.071428571 2:1 3:1 4:1 12:1 13:1 14:0.027027027 
0 1 
1 1 1:0.15 2:3 3:3 4:1 12:1 13:1 14:0.090909091 
0 1 
0 1 12:1 13:1 14:0.15609756 
1 1 11:1 
0 1 1:0.066666667 2:1 4:1 
1 1 12:1 13:1 
0 1 1:0.071428571 2:1 3:1 4:1 12:1 14:0.46428571 
1 1 1:0.0625 2:1 3:1 4:1 12:1 13:1 14:0.10682261 
0 1 1:0.058823529 2:1 3:1 4:1 12:1 14:0.25 
0 1 7:1 
0 1 12:1 13:1 14:0.15277778 
1 1 1:0.11111111 2:1 3:1 4:1 12:1 13:1 14:0.074324324 
0 1 
0 1 
0 1 
0 1 
1 1 12:1 13:1 14:0.086395451 
1 1 11:1 
1 1 1:0.25 2:2 3:2 4:1 
0 1 1:0.05 2:1 4:1 12:1 13:1 14:0.074626866 
0 1 1:0.090909091 2:1 3:1 4:1 12:1 14:0.25 
0 1 1:0.14285714 2:1 3:1 4:1 12:1 13:1 14:0.11538462 
0 1 12:1 14:0.25 
0 1 12:1 13:1 14:0.15384615 
1 1 1:0.125 2:3 3:3 4:1 
0 1 
0 1 12:1 13:1 14:0.25 
0 1 
0 1 
0 1 12:1 13:1 14:0.32142857 
0 1 
0 1 12:1 13:1 14:0.37204724 
1 1 1:0.083333333 2:1 3:1 4:1 11:1 12:1 13:1 14:0.016756433 
1 1 12:1 13:1 14:-0.125 
0 1 
1 1 1:0.083333333 2:1 3:1 4:1 11:1 12:1 13:1 14:0.10883621 
0 1 
0 1 12:1 13:1 14:0.38175676 
1 1 1:0.16666667 2:1 3:1 4:1 12:1 13:1 14:0.071428571 
0 1 
0 1 12:1 14:0.25 
0 1 12:1 13:1 14:0.1875 
0 1 1:0.47368421 2:9 3:7 4:1 12:1 13:1 14:0.1627907 
1 1 1:0.055555556 2:1 3:1 4:1 12:1 13:1 14:0.08 
0 1 12:1 13:1 14:0.43274854 
1 1 11:1 
1 1 1:0.11111111 2:1 3:1 4:1 
0 1 1:0.047619048 2:1 3:1 4:1 
0 1 12:1 13:1 14:0.18103448 
0 1 
1 1 12:1 13:1 14:0.080645161 
0 1 1:0.15384615 2:2 3:2 4:1 12:1 13:1 14:0.15625 
0 1 
0 1 
0 1 1:0.055555556 2:1 3:1 4:1 12:1 13:1 14:0.10682261 
1 1 11:1 
0 1 12:1 13:1 14:0.37204724 15:1 
0 1 
0 1 1:0.055555556 2:1 3:1 4:1 
0 1 
0 1 1:0.055555556 2:1 4:1 12:1 13:1 14:0.095744681 
0 1 
0 1 
1 1 11:1 12:1 13:1 14:0.15609756 
1 1 11:1 12:1 13:1 14:0.033333333 
0 1 
1 1 11:1 
1 1 12:1 13:1 14:0.10377358 
0 1 12:1 14:0.2 
0 1 1:0.0625 2:1 4:1 12:1 14:0.5 
0 1 1:0.058823529 2:1 3:1 4:1 12:1 13:1 14:0.22222222 
1 1 11:1 
0 1 
0 0.2781769891661683 5:1 12:1 13:1 14:0.0625 
0 1 
1 1 11:1 12:1 13:1 14:0.016756433 
1 1 1:0.037037037 2:1 3:1 4:1 11:1 12:1 13:1 14:0.19135802 
0 1 1:0.083333333 2:1 3:1 4:1 12:1 14:0.25 
0 1 
0 1 
0 1 1:0.11764706 2:2 3:1 4:1 12:1 14:0.42857143 
0 1 1:0.076923077 2:1 4:1 
0 1 1:0.1 2:1 4:1 
0 1 12:1 13:1 14:0.16666667 
0 1 
0 1 1:0.071428571 2:1 3:1 4:1 12:1 14:0.25 
0 1 11:1 12:1 14:0.0625 
0 1 
1 1 1:0.071428571 2:1 3:1 4:1 
0 1 12:1 14:0.5 
0 1 12:1 13:1 14:0.20512821 
1 1 12:1 13:1 14:-0.076923077 
0 1 1:0.05 2:1 3:1 4:1 12:1 13:1 14:0.37204724 
1 1 12:1 13:1 14:0.022727273 
0 1 
0 1 12:1 13:1 14:0.13461538 
0 1 12:1 14:0.39583333 
0 1 12:1 13:1 14:0.15714286 
1 1 11:1 12:1 13:1 14:0.086395451 
0 1 
1 1 12:1 13:1 14:0.086395451 
0 1 12:1 14:0.25 
0 1 12:1 13:1 14:0.18103448 
1 0 7:1 11:2 12:1 13:1 14:0.086395451 
0 1 
0 1 1:0.076923077 2:1 3:1 4:1 12:1 13:1 14:0.15609756 
0 1 1:0.090909091 2:1 4:1 11:1 12:1 13:1 14:0.19135802 
0 1 1:0.11111111 2:2 3:1 4:1 11:1 
0 1 
0 1 1:0.11764706 2:2 3:1 4:1 
1 1 11:1 12:1 13:1 14:0.19135802 
1 1 11:2 
1 1 1:0.11111111 2:1 3:1 4:1 11:1 12:1 13:1 14:0.1875 
1 1 12:1 13:1 14:0.016666667 
0 1 12:1 13:1 14:0.15609756 
0 1 12:1 13:1 14:0.19354839 
0 1 
0 1 1:0.1 2:2 3:1 4:1 
1 1 11:1 
0 1 12:1 14:0.25 
0 1 
0 1 
0 1 1:0.2 2:3 3:1 4:1 12:1 14:0.5 
0 1 1:0.0625 2:1 4:1 
0 1 1:0.13333333 2:2 3:1 4:1 5:1 
0 1 
0 1 1:0.038461538 2:1 4:1 11:1 
0 1 
1 1 11:1 12:1 13:1 14:0.1417004 
0 1 12:1 14:0.5 
1 1 11:1 
0 1 12:1 13:1 14:0.31481481 
0 1 
1 1 12:1 13:1 14:0.086395451 
0 1 1:0.043478261 2:1 3:1 4:1 12:1 13:1 14:0.14114011 
1 1 1:0.058823529 2:1 3:1 4:1 
1 1 12:1 13:1 14:-0.10606061 
0 1 12:1 13:1 14:0.15714286 
0 1 1:0.071428571 2:1 3:1 4:1 5:1 
0 1 12:1 13:1 14:0.13783784 
0 1 1:0.11111111 2:1 3:1 4:1 12:1 13:1 14:0.2431694 
0 1 
1 1 1:0.083333333 2:1 3:1 4:1 12:1 13:1 14:-0.20138889 
0 1 12:1 13:1 14:0.14705882 
0 1 
0 1 1:0.17647059 2:3 3:1 4:1 12:1 13:1 14:0.086395451 
0 1 1:0.2 2:3 3:2 4:1 12:1 13:1 14:0.074660633 
1 1 11:1 
0 1 1:0.11111111 2:2 3:2 4:1 12:1 13:1 14:0.52840909 
1 1 12:1 13:1 14:0.086395451 
1 1 12:1 13:1 14:0.0125 
0 1 1:0.076923077 2:1 3:1 4:1 12:1 13:1 14:0.1417004 
0 1 1:0.375 2:6 4:1 12:1 14:0.25 
0 1 12:1 13:1 14:0.13268523 
0 1 1:0.13333333 2:2 3:2 4:1 12:1 14:0.5 
0 1 1:0.18181818 2:4 3:3 4:1 
0 1 1:0.14285714 2:2 4:1 
0 1 
0 1 12:1 13:1 14:0.14114011 
0 1 1:0.0625 2:1 3:1 4:1 12:1 13:1 14:0.26315789 
0 1 1:0.071428571 2:1 3:1 4:1 12:1 13:1 14:0.47058824 
0.2310894229788163 1 1:0.058823529 2:1 3:1 4:1 12:1 13:1 14:0.10682261 
1 1 12:1 13:1 14:0.036585366 
0 1 
0 1 1:0.052631579 2:1 4:1 11:1 
0 1 1:0.076923077 2:1 3:1 4:1 12:1 13:1 14:0.11538462 
0 1 
0 1 12:1 13:1 14:0.17864078 
0 1 
0 0.6245642886775611 1:0.10526316 2:2 4:1 7:1 11:1 
1 1 11:1 12:1 13:1 14:0.29166667 
1 1 12:1 13:1 14:0.0625 
0 1 5:1 12:1 13:1 14:-0.14285714 
0 1 12:1 14:0.125 
1 1 1:0.076923077 2:1 3:1 4:1 12:1 13:1 14:0.085714286 
1 1 11:1 
1 1 11:2 
0 1 
0 1 1:0.10526316 2:2 3:1 4:1 12:1 13:1 14:0.14114011 
0 1 1:0.058823529 2:1 4:1 5:1 12:1 13:1 14:0.036585366 
0 1 12:1 13:1 14:0.33333333 15:1 
1 1 12:1 13:1 14:0.11684783 
0 1 1:0.15789474 2:3 3:3 4:1 5:1 11:1 12:1 13:1 14:0.1407767 
0 1 
1 1 1:0.1 2:2 3:2 4:1 12:1 13:1 14:0.071428571 
0 1 12:1 13:1 14:0.12790698 
0 1 12:1 14:0.5 
1 1 12:1 13:1 14:0.036585366 
0 1 1:0.1 2:1 4:1 
0 1 1:0.11111111 2:1 3:1 4:1 12:1 13:1 14:0.5 
0 1 5:1 6:1 12:1 14:0.25 
0 1 
0 1 1:0.083333333 2:1 4:1 12:1 13:1 14:0.2037037 
1 1 9:1 12:1 13:1 14:0.032258065 
0 1 
0 1 
1 1 12:1 13:1 14:0.11666667 
0 1 1:0.083333333 2:1 3:1 4:1 12:1 13:1 14:0.29222973 
1 1 12:1 13:1 14:0.11363636 
0 1 
0 1 12:1 13:1 14:0.29487179 
0 1 
0 1 1:0.090909091 2:1 4:1 5:1 
0 1 
1 1 1:0.071428571 2:1 3:1 4:1 11:1 12:1 13:1 14:0.086395451 
1 1 1:0.05 2:1 3:1 4:1 11:2 
0 1 5:1 
0 1 12:1 13:1 14:0.17348398 
0 1 1:0.055555556 2:1 4:1 
1 1 9:1 11:1 12:1 13:1 14:0.071428571 15:1 
1 1 12:1 13:1 14:-0.045454545 
1 1 12:1 13:1 
0 1 1:0.083333333 2:1 3:1 4:1 12:1 13:1 14:0.12601626 
0 1 1:0.047619048 2:1 3:1 4:1 12:1 13:1 14:0.14114011 
0 1 
1 1 11:1 12:1 13:1 14:0.27777778 
1 0 7:1 11:1 12:1 13:1 14:0.086395451 
1 1 11:1 12:1 13:1 14:0.12916667 
0 1 12:1 13:1 14:0.18103448 
0 1 9:1 
0 1 12:1 13:1 14:0.25 
0 1 12:1 14:0.41666667 
0 1 1:0.055555556 2:1 3:1 4:1 12:1 14:0.5 
0 1 
1 1 12:1 13:1 14:0.10682261 
0 1 
0 1 
0 1 
1 1 11:1 
0 1 1:0.1 2:1 4:1 
1 1 11:1 12:1 13:1 14:0.10682261 
1 1 12:1 13:1 14:0.08 
0 1 
1 1 12:1 13:1 14:0.11666667 
0 1 12:1 13:1 14:0.15609756 
0 1 12:1 13:1 14:0.1407767 
0 1 12:1 14:0.090909091 
0 1 1:0.076923077 2:1 3:1 4:1 12:1 13:1 14:0.1417004 
1 1 1:0.23076923 2:3 3:3 4:1 12:1 13:1 14:0.046728972 
0 1 1:0.13333333 2:2 3:2 4:1 
1 1 1:0.0625 2:1 3:1 4:1 11:1 
0 1 12:1 14:0.5 
0.2338905144899277 0 11:1 12:1 13:1 14:0.43274854 
1 1 1:0.22222222 2:2 3:2 4:1 12:1 13:1 14:-0.1 
0 1 12:1 13:1 14:0.3 
0 1 
1 1 12:1 13:1 14:0.10682261 
0 1 1:0.13333333 2:2 3:2 4:1 12:1 13:1 14:0.15277778 
0 1 1:0.0625 2:1 3:1 4:1 12:1 14:0.5 
0 1 1:0.15789474 2:3 3:1 4:1 12:1 13:1 14:0.20512821 
0 1 12:1 13:1 14:0.1417004 
0 1 
0 1 
0 1 12:1 13:1 14:0.2431694 
1 1 11:1 
0 1 1:0.052631579 2:1 4:1 12:1 13:1 14:0.21818182 
1 1 1:0.076923077 2:1 3:1 4:1 
0 1 
0 1 1:0.041666667 2:1 3:1 4:1 
1 1 1:0.058823529 2:1 3:1 4:1 
0 1 1:0.095238095 2:2 3:1 4:1 12:1 14:0.33333333 
0 1 1:0.38461538 2:5 3:4 4:1 12:1 13:1 14:0.25 
0 1 1:0.18181818 2:2 3:2 4:1 12:1 13:1 14:0.37204724 
0 1 1:0.055555556 2:1 3:1 4:1 
0 1 1:0.066666667 2:1 3:1 4:1 12:1 13:1 14:0.15 
0 1 12:1 13:1 14:0.25 
0 1 12:1 13:1 14:0.19599515 
1 1 12:1 13:1 14:0.086395451 
0 1 
0 1 1:0.071428571 2:1 3:1 4:1 12:1 14:0.5 
0 1 1:0.071428571 2:1 3:1 4:1 5:1 
1 1 11:1 12:1 13:1 14:0.11904762 
1 1 11:1 
0 1 
0 1 1:0.5 2:3 4:1 12:1 13:1 14:0.25 
0 1 
0 1 1:0.086956522 2:2 3:2 4:1 
1 1 11:1 15:1 
0 1 1:0.058823529 2:1 3:1 4:1 12:1 14:0.5 
1 1 12:1 13:1 14:0.10682261 
1 1 1:0.055555556 2:1 3:1 4:1 11:1 12:1 13:1 14:0.090909091 
0 1 12:1 13:1 14:0.15609756 
0.04657756361113063 1 1:0.058823529 2:1 3:1 4:1 12:1 13:1 14:0.10682261 
0 1 1:0.055555556 2:1 3:1 4:1 12:1 14:0.5 
0 1 1:0.14285714 2:2 3:2 4:1 12:1 13:1 14:0.70643939 
0 1 1:0.11111111 2:2 3:1 4:1 12:1 13:1 14:0.18410596 
0 1 1:0.15 2:3 3:2 4:1 12:1 13:1 14:0.10682261 
0 1 1:0.0625 2:1 3:1 4:1 12:1 14:0.5 
0 1 1:0.055555556 2:1 3:1 4:1 12:1 13:1 14:0.21818182 
0 1 12:1 13:1 14:0.14114011 
1 1 11:1 
1 1 12:1 13:1 14:0.086395451 
0 1 12:1 13:1 14:0.29487179 
1 1 12:1 13:1 14:0.10951327 
0 1 7:1 
0 1 
0 1 
0 1 
0 1 
0 1 12:1 13:1 14:0.16856061 
1 1 12:1 13:1 14:0.086395451 
0 1 12:1 13:1 14:0.3255814 
0 1 1:0.045454545 2:1 3:1 4:1 12:1 13:1 14:0.13268523 
0 1 
1 1 1:0.043478261 2:1 3:1 4:1 12:1 13:1 14:0.086395451 
0 1 1:0.21428571 2:3 4:1 5:1 
1 1 11:1 
0 1 1:0.066666667 2:1 3:1 4:1 12:1 14:0.25 
0 1 1:0.125 2:2 3:1 4:1 5:1 
0 1 1:0.0625 2:1 3:1 4:1 12:1 13:1 14:0.47058824 
0 1 
1 1 1:0.076923077 2:1 3:1 4:1 11:1 12:1 13:1 14:0.016756433 
1 1 1:0.22222222 2:4 3:4 4:1 12:1 13:1 14:0.086395451 
0 1 
0 1 1:0.14285714 2:2 3:2 4:1 12:1 13:1 14:0.14114011 
0 1 12:1 13:1 14:0.47058824 
1 1 12:1 13:1 14:0.055555556 
0 1 
0 1 1:0.1 2:1 4:1 12:1 13:1 14:0.068965517 
1 1 12:1 13:1 14:0.10682261 
1 1 12:1 13:1 14:0.086395451 
0 1 
0 1 1:0.058823529 2:1 3:1 4:1 11:1 12:1 13:1 14:0.37204724 
0 1 12:1 14:0.25 
1 1 12:1 13:1 
0 1 1:0.090909091 2:1 3:1 4:1 12:1 14:0.47222222 
0 1 7:1 12:1 13:1 14:0.17348398 
0 1 1:0.066666667 2:1 4:1 
0 1 1:0.1 2:1 3:1 4:1 12:1 13:1 14:0.19642857 
0 1 7:1 12:1 13:1 14:0.25 
0 1 1:0.10526316 2:2 4:1 12:1 13:1 14:0.2431694 
0 1 1:0.057142857 2:2 3:2 4:1 12:1 13:1 14:0.18181818 
1 1 11:1 12:1 13:1 14:0.086395451 
0 1 
0 1 1:0.071428571 2:1 3:1 4:1 12:1 13:1 14:0.23333333 
0 1 1:0.11764706 2:2 3:2 4:1 5:1 12:1 13:1 14:0.21818182 
0 1 1:0.058823529 2:1 4:1 11:1 
0 1 1:0.055555556 2:1 4:1 11:1 12:1 13:1 14:0.016756433 
0 1 12:1 13:1 14:0.14285714 
0 1 1:0.3 2:3 3:2 4:1 12:1 13:1 14:0.11496746 
0 1 1:0.076923077 2:1 3:1 4:1 5:1 12:1 13:1 14:0.10682261 
1 1 12:1 13:1 14:0.086395451 
0 1 12:1 14:0.25 
0 1 1:0.11111111 2:1 3:1 4:1 12:1 13:1 14:0.16666667 
0 1 12:1 14:0.5 
1 1 12:1 13:1 14:0.086395451 
0 1 1:0.076923077 2:1 3:1 4:1 12:1 14:0.5 
1 1 11:2 
0 1 1:0.05 2:1 4:1 12:1 13:1 14:0.014285714 
0 1 1:0.058823529 2:1 3:1 4:1 12:1 13:1 14:0.13268523 
0 1 
0 1 1:0.15789474 2:3 3:1 4:1 12:1 13:1 14:0.11111111 
0 1 1:0.16666667 2:1 3:1 4:1 5:2 6:1 12:1 13:1 14:0.1875 
0 1 1:0.0625 2:1 3:1 4:1 12:1 13:1 14:0.58761682 
0 1 1:0.11111111 2:2 4:1 12:1 13:1 14:0.14266667 
1 1 11:2 12:1 13:1 14:0.086395451 
0 1 
1 1 1:0.090909091 2:1 3:1 4:1 11:1 15:1 
0.6061125973557631 1 1:0.083333333 2:1 3:1 4:1 15:1 
0 1 12:1 14:0.16666667 
0 1 12:1 14:0.2 
0 1 12:1 13:1 14:0.21621622 
0 1 
0 1 
0 1 
0 1 1:0.052631579 2:1 4:1 
1 0 11:2 12:1 13:1 14:0.19135802 
0 1 1:0.071428571 2:1 4:1 12:1 13:1 14:0.15277778 
0 1 5:1 
0 1 1:0.066666667 2:1 3:1 4:1 12:1 14:0.5 
0 1 
0 1 1:0.083333333 2:1 4:1 12:1 13:1 14:0.086395451 
0 1 1:0.052631579 2:1 3:1 4:1 12:1 13:1 14:0.12903226 
0 1 1:0.047619048 2:1 4:1 12:1 13:1 14:0.13636364 
0 1 1:0.13333333 2:2 3:1 4:1 12:1 13:1 14:0.074660633 
0 1 1:0.11764706 2:2 3:2 4:1 
1 1 12:1 13:1 14:0.086395451 
0 1 1:0.30769231 2:4 3:3 4:1 12:1 13:1 14:0.73307292 
1 1 12:1 13:1 14:0.086395451 
1 1 1:0.058823529 2:1 3:1 4:1 11:1 12:1 13:1 14:0.10682261 
0 1 
1 1 11:1 12:1 13:1 14:-0.23529412 
0 1 1:0.058823529 2:1 3:1 4:1 12:1 14:0.5 
0 1 1:0.076923077 2:1 3:1 4:1 12:1 13:1 14:0.125 
1 1 1:0.055555556 2:1 3:1 4:1 11:1 12:1 13:1 14:0.26923077 
0 1 12:1 13:1 14:0.171875 
0 1 12:1 13:1 14:0.14285714 
1 1 12:1 13:1 
0 1 1:0.17647059 2:3 3:2 4:1 11:1 12:1 14:0.125 
1 1 11:2 
0 1 
1 1 5:1 6:1 11:1 
1 1 12:1 13:1 
0 1 
1 1 1:0.066666667 2:1 3:1 4:1 12:1 13:1 14:0.03125 
1 1 12:1 13:1 14:0.086395451 
1 1 12:1 13:1 14:0.039215686 
0 1 1:0.090909091 2:1 4:1 12:1 13:1 14:0.13945578 
0 1 
0 1 12:1 13:1 14:0.15609756 
0 1 9:1 12:1 13:1 14:0.15277778 
0 1 
0 1 1:0.11111111 2:2 3:1 4:1 12:1 13:1 
0 1 1:0.076923077 2:1 3:1 4:1 5:1 12:1 13:1 14:0.073619632 
0 1 
1 1 1:0.10526316 2:2 3:2 4:1 12:1 13:1 14:0.074660633 
1 1 1:0.090909091 2:1 3:1 4:1 12:1 13:1 
0 1 11:1 12:1 14:0.15789474 
1 1 12:1 13:1 14:0.10682261 
1 1 1:0.076923077 2:1 3:1 4:1 11:1 
1 1 1:0.0625 2:1 3:1 4:1 11:1 
0 1 12:1 14:0.5 
0 1 
0 1 12:1 14:0.5 
0 1 1:0.125 2:2 3:1 4:1 12:1 13:1 14:0.083333333 
1 1 12:1 13:1 14:0.038461538 
0 1 1:0.21428571 2:3 3:2 4:1 12:1 13:1 14:0.26923077 
1 1 12:1 13:1 14:0.086395451 
0 1 
1 1 1:0.11111111 2:1 3:1 4:1 12:1 13:1 14:0.10682261 
0 1 1:0.052631579 2:1 3:1 4:1 12:1 13:1 14:0.23333333 
0 1 
0 1 1:0.18181818 2:2 3:1 4:1 12:1 14:0.1 
1 1 1:0.0625 2:1 3:1 4:1 12:1 13:1 14:0.053571429 
1 1 12:1 13:1 14:0.10682261 
0 0.4343189311983814 5:1 
0 1 12:1 13:1 14:0.15609756 
1 1 11:1 
1 1 11:1 
0 1 12:1 13:1 14:0.14114011 
0 1 1:0.052631579 2:1 4:1 11:1 12:1 13:1 14:-0.02764977 
1 1 12:1 13:1 14:0.0125 
0 1 1:0.090909091 2:1 3:1 4:1 12:1 13:1 14:0.17114094 
0 1 12:1 13:1 14:0.13268523 
0 1 1:0.083333333 2:1 3:1 4:1 5:1 
0 1 1:0.083333333 2:1 4:1 12:1 13:1 14:0.18410596 
0 1 1:0.076923077 2:1 4:1 12:1 13:1 14:0.086395451 
0 1 1:0.2 2:4 3:3 4:1 
0 1 12:1 13:1 14:0.47058824 
0 1 12:1 14:0.21428571 
0 1 1:0.1 2:1 3:1 4:1 12:1 13:1 14:0.13636364 
0 1 12:1 13:1 14:0.13268523 
0 1 
1 1 12:1 13:1 
1 1 12:1 13:1 14:0.038461538 
1 1 12:1 13:1 14:0.086395451 
0 1 1:0.058823529 2:1 3:1 4:1 12:1 13:1 14:0.13636364 
1 1 12:1 13:1 14:0.125 
0 1 1:0.071428571 2:1 4:1 11:1 
0 1 1:0.4 2:2 3:1 4:1 12:1 13:1 14:0.11496746 
0 1 1:0.058823529 2:1 4:1 11:2 15:1 
0 1 
1 1 11:1 
1 1 1:0.076923077 2:1 3:1 4:1 12:1 13:1 14:0.10576923 
0 1 
1 1 15:1 
0 1 1:0.076923077 2:1 4:1 12:1 13:1 14:0.28461538 
0 1 
1 1 1:0.15 2:3 3:3 4:1 
1 1 1:0.21428571 2:3 3:3 4:1 
0 1 12:1 13:1 14:0.15306122 
0 1 12:1 14:0.33333333 
1 1 1:0.11111111 2:2 3:2 4:1 11:2 12:1 13:1 14:0.016756433 
1 1 11:1 
1 1 12:1 13:1 14:0.080188679 
1 1 1:0.083333333 2:1 3:1 4:1 12:1 13:1 14:0.058333333 
0 1 
0 1 1:0.1 2:1 4:1 
0 1 
0 1 1:0.083333333 2:1 3:1 4:1 12:1 13:1 14:0.47058824 
0 1 
0 1 1:0.052631579 2:1 3:1 4:1 12:1 13:1 14:0.13783784 
1 1 12:1 13:1 14:-0.055555556 
1 1 12:1 13:1 14:0.10682261 
1 1 12:1 13:1 14:0.086395451 
0 0.5271229898753809 1:0.45 2:9 3:5 4:1 
1 1 1:0.0625 2:1 3:1 4:1 11:1 12:1 13:1 14:0.090909091 
0 1 1:0.13333333 2:2 3:1 4:1 11:1 12:1 13:1 14:0.025641026 
1 1 1:0.076923077 2:1 3:1 4:1 12:1 13:1 14:0.10682261 
0 1 
1 1 12:1 13:1 14:0.097222222 
0 1 1:0.125 2:2 3:1 4:1 5:1 
0 1 1:0.13333333 2:4 3:3 4:1 12:1 13:1 14:0.12893082 
0 1 
1 1 12:1 13:1 14:0.10795455 
0 1 
0 1 5:1 12:1 13:1 14:-0.13888889 
0 1 12:1 13:1 14:0.18421053 
0 1 12:1 13:1 14:0.12962963 
0 1 12:1 14:0.5 
1 1 12:1 13:1 14:0.09375 
0 1 
1 1 1:0.052631579 2:1 3:1 4:1 12:1 13:1 14:0.010204082 
1 1 1:0.05 2:1 3:1 4:1 5:1 6:1 11:1 12:1 13:1 14:0.016756433 
0 1 11:1 12:1 14:0.15 
0 1 
0 1 1:0.043478261 2:1 4:1 
0 1 12:1 14:0.5 
1 1 11:1 12:1 13:1 14:0.13268523 
1 0 5:2 6:1 11:1 12:1 13:1 14:0.18341709 
0 1 12:1 14:0.5 
0 1 
0 1 1:0.33333333 2:1 4:1 12:1 14:0.16666667 
0 1 1:0.035714286 2:1 4:1 12:1 13:1 14:0.1407767 
0 1 1:0.066666667 2:1 3:1 4:1 12:1 13:1 14:0.2431694 
0 1 
0 1 1:0.083333333 2:1 4:1 12:1 13:1 14:0.10682261 
0 1 1:0.090909091 2:1 3:1 4:1 12:1 14:0.5 
0 1 1:0.16666667 2:2 3:1 4:1 
1 1 1:0.10526316 2:2 3:2 4:1 12:1 13:1 14:0.086395451 
0 1 
0 1 
0 1 1:0.052631579 2:1 3:1 4:1 12:1 13:1 14:0.41666667 
1 1 1:0.071428571 2:1 3:1 4:1 
0 1 1:0.071428571 2:1 3:1 4:1 12:1 13:1 14:0.12286689 
0 1 12:1 14:0.3 
1 1 1:0.02173913 2:1 3:1 4:1 12:1 13:1 14:0.090909091 
0 1 1:0.11764706 2:2 3:1 4:1 12:1 13:1 14:0.10682261 
0 1 1:0.2 2:3 3:1 4:1 11:1 12:1 14:0.21428571 
0 1 
1 1 1:0.083333333 2:1 3:1 4:1 11:1 12:1 13:1 14:0.016756433 
0 1 12:1 13:1 14:0.37204724 
0 1 12:1 13:1 14:0.2 
1 1 12:1 13:1 
0.05699986831558668 0.2943979471456754 1:0.40909091 2:9 3:5 4:1 5:1 
0 1 
1 1 11:1 
0 1 1:0.21428571 2:3 3:3 4:1 12:1 14:0.25 
0 1 12:1 14:0.5 
0 1 12:1 14:0.5 
0 1 1:0.125 2:2 3:1 4:1 12:1 13:1 14:0.2734375 
1 1 1:0.0625 2:1 3:1 4:1 
0 1 1:0.076923077 2:1 4:1 12:1 14:0.5 
1 1 1:0.052631579 2:1 3:1 4:1 11:1 12:1 13:1 14:0.25 
0 1 1:0.0625 2:1 4:1 12:1 13:1 14:0.086395451 
0 1 1:0.13333333 2:2 3:2 4:1 5:1 
0 1 1:0.18181818 2:2 3:1 4:1 12:1 13:1 14:0.37204724 
1 1 11:1 12:1 13:1 14:0.016756433 
1 1 1:0.076923077 2:1 4:1 11:2 12:1 13:1 14:-0.02764977 
0 1 12:1 13:1 14:0.46607143 
0 1 1:0.0625 2:1 3:1 4:1 12:1 13:1 14:0.58761682 
1 1 1:0.125 2:1 3:1 4:1 
1 1 11:1 
0 1 1:0.052631579 2:1 4:1 12:1 13:1 14:0.10682261 
0 1 
0 1 1:0.11111111 2:2 3:2 4:1 12:1 14:0.39583333 
0 1 
0 1 
0 1 1:0.125 2:2 3:1 4:1 5:1 
0 1 12:1 14:0.5 
1 1 1:0.090909091 2:1 3:1 4:1 11:1 
0 1 12:1 14:0.21428571 
0 1 12:1 14:0.33333333 
1 1 11:1 15:1 
0 1 12:1 14:0.5 
1 1 1:0.14285714 2:2 3:2 4:1 12:1 13:1 
0 1 
0 1 1:0.0625 2:1 3:1 4:1 12:1 14:0.23076923 
0 1 1:0.071428571 2:1 3:1 4:1 12:1 13:1 14:0.1417004 
0 1 1:0.14285714 2:1 3:1 4:1 12:1 13:1 14:0.14285714 
1 1 11:1 12:1 13:1 14:0.23636364 
0 1 12:1 14:0.25 
0 1 1:0.13333333 2:2 3:1 4:1 12:1 13:1 14:0.43274854 
0 1 
0 1 1:0.28571429 2:4 3:3 4:1 12:1 13:1 14:0.17156863 
1 1 12:1 13:1 14:0.073619632 
0 1 1:0.13333333 2:2 3:1 4:1 
0 1 1:0.037037037 2:1 3:1 4:1 12:1 13:1 14:0.15609756 
1 1 11:1 12:1 13:1 14:0.19230769 
0 1 1:0.048780488 2:2 3:2 4:1 
0 1 
1 1 12:1 13:1 14:0.088888889 
1 1 12:1 13:1 
1 0 11:3 12:1 14:0.5 
1 1 1:0.0625 2:1 3:1 4:1 12:1 13:1 14:0.090909091 
0 1 
0 1 1:0.16666667 2:2 3:1 4:1 11:1 12:1 13:1 14:0.14114011 
0 1 
0 1 11:1 12:1 14:0.25 
0 1 1:0.25 2:1 3:1 4:1 12:1 13:1 14:0.18181818 
0 1 
1 1 1:0.071428571 2:1 3:1 4:1 11:1 12:1 13:1 14:0.24074074 
0 1 
1 1 12:1 13:1 14:0.10818713 
0 1 1:0.043478261 2:1 3:1 4:1 5:1 
0 1 
0 1 
0 1 1:0.066666667 2:1 3:1 4:1 12:1 14:0.33333333 
1 1 12:1 13:1 14:0.086395451 
0 1 1:0.125 2:2 3:1 4:1 5:1 
1 1 11:1 
1 1 1:0.1 2:1 3:1 4:1 11:1 12:1 13:1 14:0.016756433 
0 1 12:1 13:1 14:0.13268523 
1 1 1:0.045454545 2:1 3:1 4:1 11:1 12:1 13:1 14:0.19135802 
1 1 11:1 12:1 13:1 14:0.086395451 
0 1 
0 1 
1 1 1:0.071428571 2:2 3:2 4:1 12:1 13:1 14:0.081818182 
0 1 
0 1 1:0.05 2:1 4:1 12:1 13:1 14:0.29251701 
1 1 11:1 
1 1 12:1 13:1 14:0.125 
1 1 12:1 13:1 14:0.03125 
1 1 12:1 13:1 14:0.086395451 
1 1 12:1 13:1 14:0.0625 
1 1 1:0.125 2:1 3:1 4:1 12:1 13:1 14:0.077922078 
0 1 1:0.071428571 2:1 4:1 12:1 13:1 14:0.092105263 
0 1 
1 0 7:1 11:1 12:1 13:1 14:0.086395451 
0 1 
1 1 12:1 13:1 14:0.10682261 
1 1 11:1 
0 1 7:1 
0 1 1:0.1 2:1 4:1 
0 1 1:0.076923077 2:1 3:1 4:1 12:1 13:1 14:0.13945578 
1 1 11:1 
0 1 12:1 14:0.28571429 
1 1 12:1 13:1 14:0.092592593 
0 1 
0 1 1:0.05 2:1 4:1 12:1 14:0.33333333 
1 1 11:1 
1 1 1:0.045454545 2:1 3:1 4:1 11:1 12:1 13:1 14:0.125 
0 1 12:1 13:1 14:0.14266667 
0 1 
0 1 1:0.052631579 2:1 3:1 4:1 
1 1 1:0.066666667 2:1 3:1 4:1 11:1 12:1 13:1 14:0.016756433 
0 1 12:1 13:1 14:0.40178571 
0 1 1:0.11764706 2:2 3:2 4:1 12:1 13:1 14:0.31818182 
0 1 
1 1 12:1 13:1 14:0.10818713 
0 1 1:0.043478261 2:1 3:1 4:1 
0 1 12:1 13:1 14:0.15306122 
0 1 12:1 13:1 14:0.16666667 
0 1 
1 1 1:0.0625 2:1 3:1 4:1 11:1 12:1 13:1 14:0.19135802 
0 1 
0.7159904858655332 1 1:0.03125 2:1 4:1 11:2 12:1 13:1 14:0.086395451 
0 1 1:0.25 2:2 3:1 4:1 12:1 13:1 14:0.16666667 
1 1 1:0.14285714 2:2 3:2 4:1 12:1 13:1 14:0.1 
0 1 
0 1 1:0.08 2:2 3:2 4:1 12:1 13:1 14:0.58761682 
1 1 11:1 
0 1 12:1 14:0.25 
1 1 11:2 12:1 13:1 14:0.17864078 
1 1 12:1 13:1 14:0.10682261 
1 1 1:0.052631579 2:1 3:1 4:1 11:1 12:1 13:1 14:0.027777778 
0 1 1:0.057142857 2:2 3:2 4:1 12:1 14:0.3 
1 1 12:1 13:1 
1 1 1:0.071428571 2:1 3:1 4:1 12:1 13:1 
0 1 
0 1 1:0.055555556 2:1 3:1 4:1 12:1 13:1 14:0.11684783 
0 1 1:0.090909091 2:1 3:1 4:1 12:1 13:1 14:0.10951327 
0 1 1:0.1875 2:3 3:2 4:1 12:1 13:1 14:0.58761682 
1 1 11:1 
1 1 5:1 6:1 
0 1 1:0.2 2:2 3:1 4:1 12:1 13:1 14:0.19599515 
0 1 1:0.22222222 2:2 3:1 4:1 
0 1 1:0.0625 2:1 3:1 4:1 12:1 13:1 14:0.17647059 
0.1114672526280942 0 1:0.5 2:9 3:4 4:1 12:1 13:1 14:0.76281056 
0 1 1:0.071428571 2:1 3:1 4:1 12:1 13:1 14:0.58761682 
0 1 1:0.0625 2:1 4:1 12:1 13:1 14:0.058333333 
0 1 12:1 14:0.5 
0 1 1:0.055555556 2:1 3:1 4:1 12:1 13:1 14:0.12286689 
0 1 1:0.125 2:1 3:1 4:1 12:1 13:1 14:0.32142857 
0 1 1:0.16666667 2:3 3:2 4:1 12:1 13:1 14:0.58761682 
1 1 11:1 12:1 13:1 14:0.086395451 
0 1 1:0.11111111 2:2 3:2 4:1 
0 1 
1 1 12:1 13:1 14:0.090909091 
0 1 12:1 14:0.25 
0 1 1:0.05 2:1 4:1 
0 1 12:1 14:0.5 
0 1 
0 1 
0 1 1:0.16666667 2:1 3:1 4:1 7:1 12:1 13:1 14:0.13783784 
0 1 1:0.066666667 2:1 4:1 12:1 13:1 14:0.18103448 
0 1 12:1 13:1 14:0.13783784 
0 1 1:0.066666667 2:1 3:1 4:1 12:1 14:0.16666667 
0 1 1:0.15789474 2:3 3:2 4:1 12:1 13:1 14:0.2 
0 1 12:1 13:1 14:0.13945578 
0 1 12:1 13:1 14:0.17808219 
0 1 1:0.2 2:4 3:3 4:1 
0 1 1:0.1 2:1 3:1 4:1 12:1 14:0.125 
0 1 1:0.13333333 2:2 3:1 4:1 12:1 14:0.25 
0 1 
0 1 1:0.11111111 2:1 4:1 
0 1 12:1 13:1 14:0.14114011 
1 1 12:1 13:1 14:0.068527919 
1 1 1:0.071428571 2:1 3:1 4:1 
0 1 1:0.2 2:3 3:2 4:1 
0 1 1:0.23529412 2:4 3:2 4:1 12:1 14:0.5 
0 1 
0 1 
0 1 1:0.0625 2:1 3:1 4:1 12:1 13:1 14:0.11684783 
1 1 12:1 13:1 14:-0.045454545 
1 1 1:0.0625 2:1 3:1 4:1 
0 1 
0 1 
1 1 11:1 12:1 13:1 14:0.038461538 
0 1 1:0.071428571 2:1 4:1 11:1 12:1 13:1 14:0.048387097 
0 1 1:0.052631579 2:1 3:1 4:1 
0 1 1:0.125 2:2 3:1 4:1 12:1 13:1 14:0.14114011 
0 1 1:0.055555556 2:1 3:1 4:1 
0 1 11:1 12:1 14:0.29411765 
0 1 12:1 13:1 14:0.33333333 15:1 
1 1 11:1 12:1 13:1 14:0.016756433 
0 1 12:1 13:1 14:0.14114011 
1 1 1:0.0625 2:1 3:1 4:1 
1 1 11:1 12:1 13:1 14:-0.11538462 
0 1 1:0.17647059 2:3 3:2 4:1 5:1 12:1 13:1 14:0.175 
0 1 
0 1 1:0.04 2:1 4:1 
0 1 12:1 13:1 14:0.18410596 
1 1 11:1 12:1 13:1 14:0.25 
1 1 11:1 12:1 13:1 14:0.016756433 
1 1 1:0.17647059 2:3 3:3 4:1 
0 1 12:1 13:1 14:0.14114011 
1 1 1:0.0625 2:1 3:1 4:1 11:1 12:1 13:1 
0 1 1:0.13636364 2:3 3:3 4:1 12:1 14:0.5 
1 1 12:1 13:1 14:0.10682261 
1 1 11:1 
0 1 12:1 13:1 14:0.28947368 
0 1 12:1 14:0.5 
1 1 11:1 
0 1 12:1 13:1 14:0.43274854 
1 1 12:1 13:1 14:0.11496746 
1 1 1:0.071428571 2:1 3:1 4:1 
0 1 12:1 13:1 14:0.46607143 
1 1 1:0.083333333 2:1 3:1 4:1 
0 1 1:0.17647059 2:3 3:2 4:1 
0 1 12:1 13:1 14:0.234375 
1 1 1:0.0625 2:1 3:1 4:1 11:1 12:1 13:1 14:0.17948718 
1 1 12:1 13:1 14:0.086395451 
0 1 
0 1 1:0.055555556 2:1 4:1 
1 1 11:2 
0 1 
0 1 12:1 13:1 14:0.13888889 
1 1 1:0.047619048 2:1 3:1 4:1 12:1 13:1 14:-0.0087719298 15:1 
0 1 
0 1 12:1 14:0.25 
1 1 1:0.058823529 2:1 3:1 4:1 
0 1 1:0.0625 2:1 3:1 4:1 12:1 14:0.2 
0 1 12:1 13:1 14:0.25 
0 1 12:1 13:1 14:0.32142857 
1 1 11:1 
0 1 1:0.043478261 2:1 3:1 4:1 11:1 12:1 13:1 14:0.37204724 
0 1 1:0.10526316 2:2 3:1 4:1 12:1 13:1 14:0.086395451 
0 1 1:0.041666667 2:1 3:1 4:1 
1 1 1:0.15789474 2:3 3:3 4:1 
1 1 1:0.052631579 2:1 3:1 4:1 12:1 13:1 14:0.048387097 
0 1 
1 1 11:1 12:1 13:1 14:0.016756433 
1 1 1:0.1 2:2 3:2 4:1 11:2 
0 1 12:1 13:1 14:0.17873303 
0 1 1:0.1 2:2 3:1 4:1 
1 1 1:0.0625 2:1 3:1 4:1 
1 1 1:0.0625 2:1 3:1 4:1 
0 1 9:1 
0 1 12:1 14:0.5 
0 1 11:1 12:1 14:0.3 
0 1 12:1 13:1 14:0.17348398 
0 1 1:0.27777778 2:5 3:4 4:1 12:1 13:1 14:0.083333333 15:1 
1 1 1:0.055555556 2:1 3:1 4:1 12:1 13:1 14:-0.0625 
0 1 12:1 13:1 14:0.28205128 
0 1 
1 1 1:0.066666667 2:1 3:1 4:1 
0 1 12:1 13:1 14:0.14444444 
1 1 11:1 12:1 13:1 14:0.15609756 
0 1 12:1 13:1 14:0.14516129 
0 1 
0 1 1:0.1 2:2 3:2 4:1 5:1 12:1 13:1 14:-0.1625 
0 1 1:0.076923077 2:1 4:1 12:1 13:1 14:0.086395451 
0 1 
1 1 11:1 12:1 13:1 14:0.19117647 
0 1 
1 1 1:0.14285714 2:2 3:2 4:1 11:1 
1 1 12:1 13:1 14:0.086395451 
1 1 12:1 13:1 14:0.086395451 
1 1 15:1 
1 1 11:1 12:1 13:1 14:0.016756433 
1 1 12:1 13:1 14:0.052631579 
0 1 1:0.21052632 2:4 3:4 4:1 
0 1 1:0.066666667 2:1 3:1 4:1 12:1 13:1 14:0.21428571 
0 1 
1 1 1:0.076923077 2:1 3:1 4:1 
0 1 1:0.13333333 2:2 3:1 4:1 11:1 12:1 13:1 14:0.15277778 
1 1 12:1 13:1 14:0.054455446 
1 1 1:0.083333333 2:1 3:1 4:1 
0 1 12:1 13:1 14:0.43867925 
0 1 1:0.0625 2:1 3:1 4:1 5:1 
1 1 12:1 13:1 14:0.10818713 15:1 
0 1 12:1 13:1 14:0.48355263 
1 1 1:0.043478261 2:1 3:1 4:1 11:1 12:1 13:1 14:0.10951327 
0 1 12:1 13:1 14:0.48355263 
1 1 12:1 13:1 14:0.125 
1 1 1:0.083333333 2:3 3:3 4:1 12:1 13:1 14:0.086395451 
0 1 12:1 14:0.5 
0 1 
1 1 1:0.066666667 2:1 3:1 4:1 11:1 
0 1 12:1 13:1 14:0.14266667 
0 1 1:0.058823529 2:1 4:1 
1 1 1:0.23529412 2:4 3:4 4:1 11:1 12:1 13:1 14:0.073529412 
1 1 1:0.090909091 2:2 3:2 4:1 12:1 13:1 14:0.086395451 
1 1 11:2 12:1 13:1 14:0.016756433 
1 1 12:1 13:1 14:0.086395451 
0 1 12:1 14:0.5 
0 1 1:0.047619048 2:1 3:1 4:1 
1 1 1:0.066666667 2:1 3:1 4:1 11:1 
1 1 11:1 
0 1 12:1 13:1 14:0.17857143 
1 1 1:0.071428571 2:1 3:1 4:1 12:1 13:1 14:0.04 
1 1 12:1 13:1 
0 1 12:1 13:1 14:0.44370229 
0 1 1:0.13333333 2:2 3:1 4:1 12:1 13:1 14:0.10682261 
1 1 11:1 12:1 13:1 14:0.15789474 
0 1 
0 1 12:1 14:0.5 15:1 
1 1 12:1 13:1 14:0.10080645 
0 1 1:0.055555556 2:1 3:1 4:1 
1 1 11:1 12:1 13:1 14:0.016756433 
0 1 11:1 12:1 14:0.25 
1 1 1:0.058823529 2:1 3:1 4:1 11:3 12:1 13:1 14:0.016756433 
1 1 1:0.041666667 2:1 3:1 4:1 11:2 
0 1 1:0.0625 2:1 3:1 4:1 12:1 13:1 14:0.44370229 
0 1 12:1 13:1 14:0.44370229 
0 1 1:0.076923077 2:1 4:1 12:1 14:0.5 
0 1 12:1 13:1 14:0.17873303 
0 1 12:1 13:1 14:0.32142857 15:1 
0 1 12:1 13:1 14:0.13934426 
0 1 1:0.14285714 2:3 3:2 4:1 12:1 13:1 14:0.125 
1 1 12:1 13:1 14:0.086395451 
1 1 12:1 13:1 14:-0.16666667 
1 1 12:1 13:1 
0 1 12:1 13:1 14:0.28205128 
0 1 12:1 13:1 14:0.47058824 
1 1 1:0.14285714 2:1 3:1 4:1 
0 1 1:0.041666667 2:1 3:1 4:1 12:1 13:1 14:0.109375 
0 1 
1 1 1:0.14285714 2:2 3:2 4:1 
1 1 12:1 13:1 14:-0.075 
1 1 12:1 13:1 14:0.125 
1 1 11:1 
0 1 1:0.0625 2:1 3:1 4:1 12:1 13:1 14:0.12903226 
0 1 12:1 13:1 14:0.44370229 
1 1 11:2 
1 1 12:1 13:1 14:0.125 
0 1 1:0.19047619 2:4 3:2 4:1 15:1 
1 1 1:0.055555556 2:1 3:1 4:1 11:1 
0 1 12:1 14:0.5 
1 1 11:1 12:1 13:1 14:0.15609756 
0 1 1:0.055555556 2:1 3:1 4:1 12:1 14:0.16666667 
0 1 
1 1 12:1 13:1 14:0.086395451 
0 1 12:1 14:0.45 
1 1 12:1 13:1 14:0.10682261 
1 1 12:1 13:1 14:-0.075 
1 1 1:0.1 2:1 3:1 4:1 
0 1 12:1 13:1 14:0.26923077 
0 1 
1 1 1:0.05 2:1 3:1 4:1 5:1 6:1 
0 1 1:0.05 2:1 3:1 4:1 
1 1 12:1 13:1 
0 1 1:0.14285714 2:1 3:1 4:1 12:1 14:0.5 
0 1 12:1 14:0.5 15:1 
0 1 1:0.15384615 2:2 3:1 4:1 
1 1 1:0.076923077 2:1 3:1 4:1 
1 1 1:0.0625 2:1 3:1 4:1 11:1 12:1 13:1 14:0.2 
0 1 1:0.083333333 2:1 4:1 12:1 14:0.25 
0 1 12:1 14:0.5 
0 1 1:0.11764706 2:2 3:1 4:1 12:1 13:1 14:0.15789474 
1 1 11:1 12:1 13:1 14:0.14765101 
0 1 12:1 13:1 14:0.14772727 
0 1 1:0.047619048 2:1 3:1 4:1 
1 1 11:1 
1 1 1:0.071428571 2:1 3:1 4:1 12:1 13:1 14:-0.045454545 
0 1 
0 1 12:1 13:1 14:0.14266667 
1 1 11:1 12:1 13:1 14:0.140625 
0 1 12:1 13:1 14:0.18181818 
0 1 1:0.0625 2:1 4:1 12:1 13:1 14:0.44370229 
0 1 
1 1 1:0.090909091 2:1 3:1 4:1 15:1 
0 1 1:0.16666667 2:2 3:1 4:1 12:1 13:1 14:0.086395451 
1 1 1:0.043478261 2:1 3:1 4:1 5:1 6:1 
0 1 
0 1 12:1 13:1 14:0.15609756 
1 1 5:1 6:1 12:1 13:1 14:0.03125 
1 1 11:1 12:1 13:1 14:0.0125 
1 1 11:1 12:1 13:1 14:0.016756433 
0 1 12:1 13:1 14:0.14266667 
1 1 11:1 12:1 13:1 14:0.016756433 
1 1 11:1 
1 1 12:1 13:1 14:0.10682261 
1 1 15:1 
1 1 12:1 13:1 14:0.092592593 
1 1 1:0.043478261 2:1 3:1 4:1 11:2 
0 1 1:0.1875 2:3 3:2 4:1 12:1 13:1 14:0.17348398 
0 1 
0 1 1:0.066666667 2:1 4:1 5:1 6:1 12:1 13:1 14:0.10682261 
0 1 5:1 12:1 13:1 
0 1 
1 1 12:1 13:1 14:0.088235294 
0 1 
0 1 12:1 13:1 14:0.140625 
0 1 1:0.083333333 2:1 4:1 12:1 13:1 14:0.14266667 
0 1 12:1 13:1 14:0.16666667 
1 1 11:1 12:1 13:1 14:0.016756433 
1 1 12:1 13:1 14:-0.051020408 
0 1 1:0.083333333 2:1 3:1 4:1 12:1 13:1 14:0.26 
1 1 12:1 13:1 14:0.086395451 
0 1 
1 1 1:0.071428571 2:1 3:1 4:1 12:1 13:1 14:0.025 
1 1 12:1 13:1 14:0.12286689 
1 1 11:1 12:1 13:1 14:0.13333333 
0 1 1:0.0625 2:1 4:1 
0 1 1:0.14285714 2:3 3:2 4:1 12:1 13:1 14:0.054455446 
0 1 1:0.125 2:3 3:3 4:1 12:1 13:1 14:0.1417004 
0 1 1:0.071428571 2:1 3:1 4:1 12:1 14:0.5 
1 1 12:1 13:1 14:0.026315789 
0 1 1:0.15384615 2:2 3:1 4:1 12:1 13:1 14:0.13888889 
0 1 5:1 12:1 13:1 14:0.027777778 
0 1 1:0.2 2:2 3:1 4:1 12:1 14:0.25 
0 1 
0 1 1:0.11111111 2:1 4:1 12:1 13:1 14:0.15609756 
1 1 12:1 13:1 14:0.080188679 
0 1 1:0.125 2:1 4:1 12:1 13:1 14:0.2734375 
0 1 1:0.125 2:2 3:2 4:1 12:1 13:1 14:0.21428571 
1 1 11:1 
1 1 1:0.25 2:2 3:2 4:1 
0 1 1:0.13333333 2:2 3:2 4:1 5:1 12:1 14:0.16666667 
1 1 11:1 12:1 13:1 14:0.13783784 
1 1 12:1 13:1 14:0.06 
1 1 1:0.058823529 2:1 3:1 4:1 11:1 
0 1 
1 1 1:0.071428571 2:1 3:1 4:1 
0.3251125352195429 0.4830834257659781 5:2 6:1 
0 1 12:1 13:1 14:0.13268523 
0 1 1:0.045454545 2:1 3:1 4:1 
1 1 12:1 13:1 14:0.109375 
0 1 1:0.17647059 2:3 3:2 4:1 5:1 
0 1 1:0.0625 2:1 3:1 4:1 12:1 13:1 14:0.11496746 
1 1 12:1 13:1 14:0.125 
0 1 
0 1 1:0.2 2:1 3:1 4:1 12:1 13:1 14:0.13945578 
0 1 
0 1 1:0.055555556 2:1 3:1 4:1 
0 1 1:0.16666667 2:2 3:1 4:1 5:1 
1 1 1:0.0625 2:1 3:1 4:1 
1 1 1:0.0625 2:1 3:1 4:1 
0 1 1:0.11764706 2:2 3:2 4:1 
0 1 12:1 13:1 14:0.19354839 
0 1 
0 1 
0 1 12:1 14:0.14583333 
1 1 1:0.055555556 2:1 3:1 4:1 12:1 13:1 14:0.027777778 
0 1 12:1 13:1 14:0.17873303 
1 1 12:1 13:1 14:0.10682261 
0 1 1:0.052631579 2:2 3:1 4:1 
0 0.480226914026791 5:1 
0 1 
0 1 1:0.15789474 2:3 3:3 4:1 5:1 
0 1 12:1 13:1 14:0.28205128 
0 1 
0 1 12:1 13:1 14:0.1875 
0 1 12:1 13:1 14:0.39402174 
0 1 1:0.14285714 2:2 3:1 4:1 12:1 13:1 14:0.125 
0 1 1:0.076923077 2:1 4:1 
0 1 12:1 13:1 14:0.16071429 
0 1 1:0.11111111 2:2 3:1 4:1 
1 1 1:0.066666667 2:1 3:1 4:1 12:1 13:1 14:0.074660633 
0 1 12:1 13:1 14:0.29222973 
0 1 
0 1 1:0.076923077 2:1 3:1 4:1 12:1 14:0.5 
0 1 1:0.10526316 2:2 3:2 4:1 12:1 13:1 14:0.16666667 
0 1 12:1 13:1 14:0.17857143 
0 1 5:1 
0 1 
0 1 
0 1 1:0.14285714 2:1 4:1 12:1 13:1 14:0.086395451 
1 1 12:1 13:1 14:0.10682261 
0 1 
1 1 1:0.15384615 2:2 3:2 4:1 
0 1 
1 1 11:1 12:1 13:1 14:0.074660633 
0 1 12:1 14:0.33333333 
0 1 12:1 14:0.33333333 
1 1 1:0.058823529 2:1 3:1 4:1 12:1 13:1 14:0.086395451 
0 1 
0 1 
0 1 1:0.083333333 2:1 3:1 4:1 12:1 13:1 14:0.17873303 
0 1 1:0.11111111 2:1 3:1 4:1 12:1 14:0.33333333 
0 1 1:0.076923077 2:1 4:1 12:1 14:0.375 
0 1 
1 1 12:1 13:1 14:-0.23529412 
1 1 1:0.071428571 2:1 3:1 4:1 
0 1 1:0.125 2:2 3:2 4:1 12:1 14:0.5 
0.1147831228670628 1 1:0.076923077 2:2 3:2 4:1 
0 1 1:0.052631579 2:1 3:1 4:1 12:1 13:1 14:0.1509434 
0 1 1:0.083333333 2:1 4:1 5:1 
1 0 11:2 12:1 13:1 14:0.73307292 
0 1 1:0.16666667 2:2 3:1 4:1 
0 1 12:1 14:0.33333333 
0 1 5:1 12:1 13:1 
0 1 1:0.058823529 2:1 4:1 
1 1 12:1 13:1 
1 1 1:0.05 2:1 3:1 4:1 11:1 
1 1 12:1 13:1 14:-0.1 
0 1 1:0.055555556 2:1 4:1 12:1 13:1 14:0.25 
0 1 
0 1 
1 1 12:1 13:1 14:0.11666667 
0 1 
1 1 12:1 13:1 14:-0.083333333 
1 1 12:1 13:1 14:0.11666667 
0 1 
0 1 
0 1 1:0.18181818 2:2 3:1 4:1 12:1 13:1 14:0.045454545 
1 1 5:1 6:1 
0 1 
1 1 11:1 
1 1 11:1 
0 1 1:0.13333333 2:2 3:1 4:1 12:1 13:1 14:0.080357143 
0 1 1:0.090909091 2:2 3:1 4:1 11:1 12:1 13:1 14:0.03125 
1 1 12:1 13:1 14:0.086395451 
1 1 12:1 13:1 14:0.086395451 
1 1 12:1 13:1 14:0.125 
0 1 1:0.066666667 2:1 3:1 4:1 7:1 12:1 13:1 14:0.10526316 
0 1 12:1 13:1 14:0.16477273 
0 1 1:0.2 2:3 3:3 4:1 12:1 14:0.5625 
0 1 5:1 
0 1 1:0.055555556 2:1 3:1 4:1 12:1 13:1 14:0.16477273 
1 1 12:1 13:1 
0 1 1:0.16666667 2:1 3:1 4:1 12:1 13:1 14:0.37204724 
0 1 
0 1 
0 1 1:0.05 2:1 3:1 4:1 
1 1 12:1 13:1 14:0.10682261 
0 1 
0 1 12:1 13:1 14:0.18421053 
0 1 
0 1 1:0.043478261 2:1 3:1 4:1 12:1 13:1 14:0.20588235 
1 1 11:1 12:1 13:1 14:0.086395451 
0 1 1:0.066666667 2:1 3:1 4:1 5:1 
0 1 
0 1 
0.6280937383896629 0 11:1 12:1 13:1 14:0.43274854 
1 1 1:0.16666667 2:2 3:2 4:1 
1 1 1:0.14285714 2:2 3:2 4:1 
0 1 1:0.052631579 2:1 3:1 4:1 12:1 13:1 14:0.17873303 
0 1 12:1 14:0.11111111 
1 1 1:0.0625 2:1 3:1 4:1 12:1 13:1 14:0.086395451 
0 1 
1 1 1:0.045454545 2:1 3:1 4:1 11:1 
1 1 11:1 
0 1 12:1 14:0.5 
1 1 11:1 12:1 13:1 14:0.086395451 
0 1 5:1 
0 1 1:0.1 2:2 4:1 11:1 
0 1 1:0.14285714 2:1 3:1 4:1 12:1 13:1 14:0.13945578 
0 1 1:0.05 2:1 3:1 4:1 
1 1 12:1 13:1 14:0.035714286 
0 1 1:0.058823529 2:1 3:1 4:1 12:1 13:1 14:0.21818182 
0 1 12:1 13:1 14:0.43274854 
1 1 11:1 12:1 13:1 14:0.086395451 
0 1 
0 1 5:1 
1 1 1:0.0625 2:1 3:1 4:1 11:1 12:1 13:1 14:0.109375 
0 1 1:0.071428571 2:1 3:1 4:1 12:1 13:1 14:0.125 
0 1 
0 1 
0 1 
0 1 
0 1 
1 1 11:3 
0 1 1:0.083333333 2:1 4:1 5:1 
1 1 11:1 12:1 13:1 
0 1 12:1 13:1 14:0.1875 
0 1 1:0.066666667 2:1 4:1 12:1 13:1 14:0.086395451 
0 1 12:1 13:1 14:0.17857143 
0 0.004147222626951613 1:0.08 2:2 3:1 4:1 5:1 
0 0.9372714870453346 5:6 6:1 12:1 13:1 14:0.15384615 
0 1 5:1 
0 1 
1 1 11:1 
1 1 1:0.058823529 2:1 3:1 4:1 
1 1 11:1 
0 1 1:0.055555556 2:1 3:1 4:1 
0 1 12:1 13:1 14:0.19354839 
0 1 
1 1 11:1 12:1 13:1 14:0.19387755 
0 1 1:0.2 2:4 3:2 4:1 5:1 
0 1 1:0.090909091 2:1 4:1 12:1 13:1 14:0.053571429 
0 1 1:0.05 2:1 3:1 4:1 12:1 13:1 14:0.11684783 
0 1 
0 1 1:0.043478261 2:1 3:1 4:1 12:1 13:1 14:0.26666667 
0 1 1:0.052631579 2:1 3:1 4:1 5:1 
0 1 1:0.17391304 2:4 3:3 4:1 7:1 12:1 13:1 14:0.18333333 
0 1 1:0.055555556 2:1 3:1 4:1 
1 1 1:0.14285714 2:3 3:3 4:1 
0 1 12:1 13:1 14:0.26666667 
0 1 1:0.2 2:4 3:2 4:1 12:1 14:0.5 
0 1 1:0.066666667 2:1 3:1 4:1 12:1 14:0.5 
0 1 5:1 12:1 13:1 14:-0.017857143 
1 1 11:1 12:1 13:1 14:0.19135802 
0 1 12:1 13:1 14:0.17857143 
0 1 1:0.05 2:1 3:1 4:1 
0 1 1:0.058823529 2:1 4:1 12:1 13:1 14:0.1875 
0 1 5:1 
1 1 1:0.076923077 2:2 3:2 4:1 
1 1 12:1 13:1 14:0.086395451 
0 1 1:0.066666667 2:1 4:1 12:1 14:0.5 
1 1 11:1 
1 1 1:0.058823529 2:1 3:1 4:1 
0 1 12:1 14:0.5 
0 1 1:0.05 2:1 3:1 4:1 12:1 14:0.5 
0 0.5152922210229869 5:1 12:1 13:1 14:0.19354839 15:3 
1 1 11:3 
1 1 1:0.090909091 2:1 3:1 4:1 
1 1 12:1 13:1 14:0.020833333 
0 1 1:0.23529412 2:4 3:3 4:1 12:1 14:0.2 
0 1 12:1 14:0.46428571 
0 1 12:1 13:1 14:0.46607143 
1 1 1:0.11111111 2:2 3:2 4:1 11:1 
0 1 
0 1 1:0.055555556 2:1 4:1 11:1 
0 1 1:0.0625 2:1 4:1 11:1 
0 1 12:1 13:1 14:0.48355263 15:1 
0 1 1:0.125 2:2 3:1 4:1 12:1 13:1 14:0.13657407 
1 1 12:1 13:1 14:0.11111111 
1 1 1:0.052631579 2:1 3:1 4:1 12:1 13:1 14:0.086395451 
0 1 12:1 13:1 14:0.13333333 
0 1 1:0.1 2:2 3:2 4:1 
0 1 1:0.076923077 2:1 3:1 4:1 12:1 13:1 14:0.13945578 
1 1 1:0.090909091 2:1 3:1 4:1 
1 1 1:0.071428571 2:1 3:1 4:1 12:1 13:1 14:0.10682261 15:1 
0 1 
0 1 12:1 14:0.46428571 
0 1 
0 1 12:1 13:1 14:0.28205128 
0 1 1:0.1 2:2 3:2 4:1 5:1 
0 1 12:1 13:1 14:0.203125 
1 1 1:0.18181818 2:2 3:2 4:1 12:1 13:1 14:0.080645161 
0 1 1:0.066666667 2:1 3:1 4:1 12:1 14:0.5 
0 1 
1 1 5:1 6:1 12:1 13:1 14:0.14705882 
1 1 12:1 13:1 14:0.074660633 15:1 
0 1 12:1 14:0.25 
0 1 
1 0.845722542114116 1:0.0625 2:2 3:2 4:1 11:3 12:1 13:1 14:0.16666667 
0 1 1:0.18181818 2:4 3:2 4:1 
0 1 1:0.05 2:1 4:1 
1 1 1:0.026315789 2:1 3:1 4:1 
0 1 1:0.090909091 2:2 3:2 4:1 
0 1 1:0.11111111 2:1 3:1 4:1 12:1 14:0.3125 
0 1 12:1 14:0.3125 
0 1 12:1 13:1 14:0.26923077 
1 1 11:1 
0 1 12:1 13:1 14:0.17857143 
0 1 1:0.15789474 2:3 3:2 4:1 
0 1 1:0.055555556 2:1 4:1 
0 1 5:1 
0 1 
0 1 1:0.10526316 2:2 3:2 4:1 
0 1 1:0.076923077 2:1 3:1 4:1 12:1 13:1 14:0.17348398 
1 1 7:1 12:1 13:1 14:-0.055555556 
0 1 12:1 13:1 14:0.17348398 
0 1 12:1 13:1 14:0.14516129 
0 1 1:0.090909091 2:1 3:1 4:1 12:1 14:0.16666667 
0 1 12:1 14:0.5 
0 1 
0 1 12:1 13:1 14:0.1875 
0 1 
1 1 11:1 
0 1 1:0.043478261 2:1 3:1 4:1 
0 1 1:0.1 2:1 3:1 4:1 12:1 14:0.27777778 
0 1 1:0.05 2:1 3:1 4:1 
0 0.9792153626475234 1:0.2173913 2:5 3:4 4:1 5:1 11:1 
1 1 1:0.058823529 2:1 3:1 4:1 11:1 
0 1 1:0.035714286 2:1 3:1 4:1 5:1 12:1 13:1 14:0.086395451 
1 1 11:1 
0 1 12:1 14:0.5 
0 1 1:0.2 2:4 3:4 4:1 7:1 
1 1 12:1 13:1 14:0.092592593 
0 1 1:0.1 2:1 3:1 4:1 12:1 13:1 14:0.2 
0 1 12:1 13:1 14:0.19354839 
0 1 1:0.11764706 2:2 3:1 4:1 
1 1 1:0.125 2:1 3:1 4:1 
0 1 7:1 
0 1 
0 1 1:0.066666667 2:1 4:1 12:1 14:0.25 
0 1 12:1 13:1 14:0.22619048 
0.8126925001318959 1 1:0.13333333 2:2 3:2 4:1 
0 1 
0.5993576474024587 1 1:0.058823529 2:1 3:1 4:1 
0 1 12:1 13:1 14:0.15609756 
0 1 11:1 12:1 14:0.25 
0 1 1:0.05 2:1 4:1 5:1 12:1 13:1 
0 1 
1 1 1:0.055555556 2:1 3:1 4:1 12:1 13:1 14:0.09375 
1 1 1:0.045454545 2:1 3:1 4:1 11:1 12:1 13:1 14:0.086395451 
1 1 11:1 12:1 13:1 14:0.081081081 
0 1 
0 1 1:0.090909091 2:2 3:2 4:1 12:1 14:0.46428571 
0 1 
1 1 11:1 12:1 13:1 14:0.086395451 
1 1 1:0.13333333 2:2 3:2 4:1 12:1 13:1 14:0.10682261 
0 1 
-0 1 
0 1 1:0.05 2:1 3:1 4:1 
0 1 12:1 14:0.5 
0 1 12:1 14:0.25 
0 1 12:1 13:1 14:0.44370229 
0 1 1:0.0625 2:1 3:1 4:1 12:1 13:1 14:0.34375 
0 1 1:0.1 2:2 3:2 4:1 12:1 13:1 14:0.10682261 
0 1 7:1 12:1 13:1 14:0.0625 
0 1 
1 1 12:1 13:1 
1 0 11:2 12:1 13:1 14:0.20833333 
0 1 1:0.15 2:3 3:2 4:1 12:1 13:1 14:0.078947368 
1 1 11:1 12:1 13:1 14:0.33333333 
1 1 1:0.083333333 2:1 3:1 4:1 12:1 13:1 14:0.085714286 
0 1 12:1 13:1 14:0.1875 
1 1 1:0.047619048 2:1 3:1 4:1 12:1 13:1 
1 1 11:1 
1 1 1:0.090909091 2:1 3:1 4:1 
0.002960078180854881 1 5:2 6:1 
1 1 12:1 13:1 14:0.09375 
0 1 1:0.055555556 2:1 3:1 4:1 12:1 13:1 14:0.22222222 
0 1 
0 1 1:0.047619048 2:1 3:1 4:1 5:1 
0 1 
0 1 12:1 13:1 14:0.375 
0 1 1:0.041666667 2:1 4:1 
1 1 1:0.076923077 2:1 3:1 4:1 11:2 12:1 13:1 14:0.12893082 
0 1 
0 1 1:0.15789474 2:3 3:2 4:1 
0 1 
0 1 12:1 13:1 14:0.14114011 
0 1 12:1 13:1 14:0.23529412 
0 1 12:1 14:0.45 
0 1 1:0.11764706 2:2 3:1 4:1 
0 1 1:0.041666667 2:1 3:1 4:1 12:1 14:0.5 
1 1 12:1 13:1 14:0.044117647 
1 1 1:0.33333333 2:4 3:4 4:1 12:1 13:1 
1 1 1:0.6 2:6 3:6 4:1 12:1 13:1 14:0.11538462 
0 1 1:0.083333333 2:1 3:1 4:1 12:1 13:1 14:0.2037037 
0 1 
0 1 
0 1 12:1 13:1 14:0.43274854 
0 1 1:0.125 2:2 3:1 4:1 12:1 14:0.22727273 
0 1 1:0.058823529 2:1 3:1 4:1 12:1 13:1 14:0.43274854 
0 1 1:0.11111111 2:1 4:1 
1 1 12:1 13:1 14:0.125 
0 1 12:1 13:1 14:0.37204724 
1 1 12:1 13:1 14:0.10951327 
0 1 
0 1 7:1 15:2 
1 1 11:2 12:1 13:1 14:0.13945578 
0 1 1:0.090909091 2:1 3:1 4:1 12:1 13:1 14:0.18410596 
0.4444654700809618 1 1:0.125 2:2 3:2 4:1 12:1 13:1 14:0.10682261 
0 1 12:1 13:1 14:0.15 
1 1 12:1 13:1 14:0.15789474 15:1 
0.8355197953650871 1 
1 1 11:1 12:1 13:1 14:0.086395451 
1 1 1:0.125 2:2 3:2 4:1 12:1 13:1 14:0.083333333 
1 1 
1 1 11:1 
0 1 5:1 
1 1 11:1 12:1 13:1 14:0.14018692 
1 1 
0 1 12:1 14:0.33333333 
0 0.6442961756833268 1:0.25 2:4 3:1 4:1 5:5 6:2 12:1 14:0.5 
0 1 12:1 14:0.5 
1 1 1:0.05 2:1 3:1 4:1 11:1 
1 1 
0 1 12:1 14:0.5 
0.8513093857029086 0 5:1 6:1 12:1 13:1 14:0.73307292 
0 1 11:1 12:1 14:0.25 
0 1 12:1 13:1 14:0.14114011 
0 1 1:0.083333333 2:1 3:1 4:1 12:1 14:0.33333333 
1 1 12:1 13:1 14:0.125 
0 1 1:0.22222222 2:4 3:3 4:1 12:1 14:0.375 
0 1 1:0.28571429 2:2 3:1 4:1 12:1 13:1 14:0.2431694 
0 1 12:1 13:1 14:0.21875 
0 1 12:1 14:0.125 
0 1 1:0.066666667 2:1 3:1 4:1 5:1 
0 1 1:0.055555556 2:1 3:1 4:1 
1 1 1:0.25 2:2 3:2 4:1 5:2 6:2 12:1 14:0.5 
0 1 1:0.11111111 2:1 3:1 4:1 5:1 12:1 13:1 14:0.092592593 
1 1 
0 1 1:0.058823529 2:1 3:1 4:1 12:1 14:0.5 
1 1 
1 1 
0 1 1:0.090909091 2:1 3:1 4:1 12:1 13:1 14:0.58761682 
0 1 1:0.066666667 2:1 3:1 4:1 12:1 13:1 14:0.3 
0 1 12:1 13:1 14:0.15625 
0 1 12:1 14:0.5 
1 1 12:1 13:1 14:0.11627907 
0 1 1:0.1 2:1 3:1 4:1 12:1 13:1 14:0.14114011 
0 1 1:0.05 2:1 3:1 4:1 12:1 13:1 14:0.23863636 
0 1 1:0.15 2:3 3:2 4:1 5:2 6:1 11:1 
1 1 
1 1 11:1 12:1 13:1 14:0.016756433 
1 1 12:1 13:1 14:-0.048780488 
0 1 1:0.076923077 2:1 3:1 4:1 12:1 13:1 14:0.19599515 
0 1 1:0.043478261 2:1 3:1 4:1 12:1 14:0.33333333 
0 1 1:0.095238095 2:2 3:2 4:1 12:1 13:1 14:0.13945578 
0 1 7:1 12:1 13:1 14:0.14018692 
0 1 1:0.23076923 2:3 3:1 4:1 12:1 14:0.16666667 
1 1 12:1 13:1 14:0.125 
1 1 1:0.11111111 2:2 3:2 4:1 5:1 6:1 12:1 13:1 14:0.76281056 
0 1 12:1 14:0.5 
1 1 12:1 13:1 14:0.083333333 
1 1 
0 1 5:1 12:1 13:1 14:0.041666667 
0 1 1:0.058823529 2:1 3:1 4:1 15:1 
1 1 11:1 12:1 13:1 14:0.086395451 
0 1 11:1 12:1 14:0.25 
0 1 1:0.2 2:5 3:4 4:1 12:1 13:1 14:0.22222222 
1 1 1:0.047619048 2:1 3:1 4:1 11:1 12:1 13:1 14:0.099264706 
0 1 12:1 13:1 14:0.13178295 
1 1 12:1 13:1 14:-0.125 
1 1 11:1 12:1 13:1 14:0.28205128 
1 1 15:2 
1 1 12:1 13:1 14:0.10682261 
0 1 1:0.090909091 2:1 3:1 4:1 12:1 13:1 14:0.11111111 
1 1 11:1 
0 1 1:0.055555556 2:1 4:1 11:1 12:1 13:1 14:0.19444444 
-0 1 1:0.071428571 2:1 4:1 11:1 12:1 13:1 14:-0.083333333 
1 1 1:0.0625 2:1 3:1 4:1 
1 1 
0 1 1:0.10526316 2:2 3:2 4:1 12:1 13:1 14:0.44370229 
0 1 7:1 12:1 13:1 14:0.091240876 
1 1 11:1 
0 1 1:0.15384615 2:2 3:1 4:1 5:1 
0 1 1:0.041666667 2:1 4:1 12:1 13:1 14:0.19387755 15:1 
1 1 11:1 
1 1 
0 1 1:0.066666667 2:1 3:1 4:1 12:1 13:1 14:0.11538462 
1 1 12:1 13:1 
0 1 1:0.066666667 2:1 3:1 4:1 12:1 13:1 14:0.2431694 
1 1 11:1 12:1 13:1 14:0.14285714 
1 1 1:0.052631579 2:1 3:1 4:1 11:1 12:1 13:1 14:0.016756433 
0 1 12:1 14:0.5 
0 1 1:0.066666667 2:1 4:1 12:1 14:0.5 
0 1 12:1 13:1 14:0.13945578 
0 1 12:1 13:1 14:0.13945578 
1 1 1:0.076923077 2:1 3:1 4:1 11:1 12:1 13:1 14:0.21818182 
1 1 11:1 12:1 13:1 14:0.016756433 
1 1 1:0.22222222 2:4 3:4 4:1 12:1 13:1 14:-0.125 
1 1 
0 1 5:1 
1 1 12:1 13:1 14:0.11111111 
1 1 1:0.11111111 2:1 3:1 4:1 12:1 13:1 14:0.086395451 
1 1 1:0.12 2:3 3:3 4:1 11:1 12:1 13:1 14:0.168 
0 1 1:0.33333333 2:8 3:7 4:1 12:1 13:1 14:0.1686747 
1 1 11:1 12:1 13:1 14:-0.16666667 
0 1 1:0.23809524 2:5 3:3 4:1 
0 1 1:0.0625 2:1 3:1 4:1 12:1 14:0.42857143 
1 1 1:0.076923077 2:1 3:1 4:1 
1 1 11:1 12:1 13:1 14:0.18410596 
0 1 1:0.066666667 2:1 3:1 4:1 12:1 13:1 14:0.21153846 
1 1 12:1 13:1 14:0.086395451 
0 1 12:1 14:0.5 
1 1 
1 1 12:1 13:1 14:0.1 
0 1 1:0.052631579 2:1 3:1 4:1 12:1 13:1 14:0.14705882 
0 1 5:1 
0.228390071015196 1 1:0.4 2:6 3:6 4:1 
0 1 1:0.14285714 2:2 3:1 4:1 12:1 13:1 14:0.14114011 
0 1 1:0.052631579 2:1 3:1 4:1 12:1 13:1 14:0.12286689 
1 1 11:1 
0.6329202483038588 1 1:0.058823529 2:1 3:1 4:1 
0 1 1:0.13333333 2:2 3:1 4:1 11:1 
1 1 
1 1 
1 1 11:1 
1 1 12:1 13:1 14:0.125 
0 1 1:0.066666667 2:1 4:1 
1 1 11:1 
0 1 1:0.090909091 2:1 4:1 
0 1 12:1 14:0.5 
1 1 12:1 13:1 14:0.074660633 
0 1 1:0.125 2:2 3:1 4:1 11:1 12:1 14:0.125 
1 1 
0 1 1:0.23529412 2:4 3:2 4:1 12:1 14:0.5 
1 1 11:1 
1 1 12:1 13:1 14:0.125 
0 1 1:0.14285714 2:2 3:1 4:1 11:1 15:1 
0 1 1:0.058823529 2:1 3:1 4:1 12:1 13:1 14:0.28205128 
0 1 1:0.15384615 2:2 3:2 4:1 12:1 13:1 14:0.17348398 
0 1 1:0.05 2:1 3:1 4:1 5:1 
0 1 7:1 12:1 13:1 14:0.086395451 
0 1 1:0.086956522 2:2 3:2 4:1 
1 1 12:1 13:1 14:-0.16666667 
1 1 
1 1 5:1 6:1 12:1 13:1 14:0.23511905 
0.7225502544184993 0.6072905564278525 1:0.23529412 2:4 3:1 4:1 5:7 6:1 12:1 14:0.5 
1 1 
0 1 12:1 13:1 14:0.1417004 
0 1 1:0.045454545 2:1 3:1 4:1 12:1 14:0.5 
1 1 
0 1 12:1 13:1 14:0.14285714 
1 1 11:1 12:1 13:1 14:0.2125 
0 1 5:1 12:1 13:1 
0 1 1:0.055555556 2:1 3:1 4:1 
0 1 12:1 13:1 14:0.18181818 
1 1 12:1 13:1 14:0.086395451 
0 1 1:0.38461538 2:5 3:5 4:1 12:1 13:1 14:0.25 15:1 
1 1 12:1 13:1 14:0.051724138 
1 1 11:1 
0 1 12:1 13:1 14:0.2875 
0 1 1:0.047619048 2:1 4:1 
1 1 15:1 
1 1 
0 1 1:0.125 2:1 3:1 4:1 12:1 14:0.22727273 
0 1 1:0.058823529 2:1 3:1 4:1 12:1 14:0.5 
1 1 11:1 
0 1 1:0.055555556 2:1 3:1 4:1 12:1 14:0.5 
0 1 1:0.055555556 2:1 3:1 4:1 12:1 13:1 14:0.10682261 
0 1 12:1 13:1 14:0.44370229 
0 1 1:0.13333333 2:2 3:2 4:1 12:1 13:1 14:0.14705882 
1 1 11:1 
1 1 
0 1 1:0.0625 2:1 3:1 4:1 12:1 14:0.5 
1 1 1:0.071428571 2:1 3:1 4:1 5:2 6:1 12:1 13:1 14:-0.3625 
0 1 1:0.3125 2:5 3:3 4:1 
1 1 11:1 
1 1 1:0.076923077 2:1 3:1 4:1 11:1 12:1 13:1 14:0.016756433 
0 1 1:0.11111111 2:1 4:1 
0 1 12:1 14:0.25 
0.3790701894876184 1 1:0.625 2:5 3:5 4:1 12:1 13:1 14:0.1 
1 1 
1 0 11:2 12:1 13:1 14:0.20512821 
0 1 1:0.17857143 2:5 4:1 12:1 14:0.5 
0 0.1063705326295635 1:0.13043478 2:3 3:2 4:1 11:1 12:1 14:0.3875 
0 1 1:0.071428571 2:1 4:1 
0 1 1:0.16666667 2:2 3:1 4:1 12:1 14:0.25 
1 1 
1 1 1:0.058823529 2:1 3:1 4:1 12:1 13:1 14:0.1 
0 1 12:1 14:0.25 
0 1 1:0.090909091 2:1 4:1 
0 1 1:0.090909091 2:2 3:1 4:1 11:1 12:1 14:0.25 
0 1 12:1 14:0.16666667 15:1 
1 1 1:0.21052632 2:4 3:4 4:1 11:1 12:1 13:1 14:0.086395451 15:1 
0 1 1:0.071428571 2:1 4:1 12:1 14:0.45 
1 1 
1 1 
1 1 1:0.047619048 2:1 3:1 4:1 11:1 12:1 13:1 14:0.092592593 
0 1 1:0.11111111 2:1 3:1 4:1 12:1 14:0.25 
1 1 1:0.066666667 2:1 3:1 4:1 12:1 13:1 14:0.092592593 
0 1 12:1 14:0.5 
1 1 
1 1 
1 1 
1 1 12:1 13:1 14:0.10682261 
0 1 1:0.071428571 2:1 4:1 11:1 
0 1 12:1 13:1 14:0.17808219 
1 1 
0.8132677862043269 1 1:0.12 2:3 3:3 4:1 12:1 13:1 14:0.13783784 
1 1 12:1 13:1 14:0.086395451 
0 1 12:1 13:1 14:0.15609756 
0 1 1:0.055555556 2:1 3:1 4:1 5:1 
1 1 1:0.0625 2:1 3:1 4:1 12:1 13:1 14:0.041666667 
0 1 1:0.055555556 2:1 3:1 4:1 
0 1 5:1 
1 1 11:1 
1 1 1:0.055555556 2:1 3:1 4:1 12:1 13:1 14:0.086395451 
1 1 11:1 
1 1 1:0.0625 2:1 3:1 4:1 11:1 
1 1 
1 1 1:0.052631579 2:1 3:1 4:1 12:1 13:1 14:0.073619632 
0 1 12:1 13:1 14:0.23529412 
1 1 
0 1 5:1 
1 1 
0 1 1:0.045454545 2:1 4:1 12:1 13:1 14:-0.02173913 
0 1 1:0.16666667 2:1 3:1 4:1 12:1 13:1 14:0.19230769 
0 1 12:1 13:1 14:0.13945578 
0 1 1:0.14285714 2:2 3:2 4:1 5:1 
1 1 11:1 
1 1 12:1 13:1 14:-0.23529412 
1 1 
1 1 
0 1 1:0.25 2:1 3:1 4:1 12:1 13:1 14:0.13268523 
0 1 12:1 13:1 14:0.47058824 
1 1 
0 1 12:1 13:1 14:0.2 
1 1 1:0.071428571 2:1 3:1 4:1 12:1 13:1 14:0.076923077 
0.9859088462922548 1 12:1 13:1 14:0.12601626 
1 1 
0 1 1:0.11764706 2:2 3:2 4:1 
0 1 1:0.047619048 2:1 3:1 4:1 12:1 14:0.5 
1 1 1:0.076923077 2:1 3:1 4:1 
0 1 1:0.11111111 2:2 3:1 4:1 12:1 13:1 14:0.46607143 
0 1 1:0.13333333 2:2 3:1 4:1 11:1 
0 1 1:0.076923077 2:1 4:1 12:1 14:0.5 
0 1 1:0.11111111 2:2 3:1 4:1 11:1 12:1 13:1 14:0.23529412 
0 1 1:0.11111111 2:2 3:1 4:1 11:1 12:1 13:1 14:0.23529412 
0 1 12:1 13:1 14:0.14114011 
0 1 12:1 13:1 14:0.14018692 
1 1 12:1 13:1 14:0.10682261 
1 1 12:1 13:1 14:0.086395451 
1 1 1:0.055555556 2:1 3:1 4:1 12:1 13:1 14:0.097744361 
0 1 1:0.066666667 2:1 4:1 12:1 14:0.25 
0 1 1:0.11111111 2:2 3:2 4:1 12:1 13:1 14:0.10682261 
0 1 1:0.055555556 2:1 4:1 11:1 12:1 13:1 14:0.016756433 
1 1 
1 1 
0 1 1:0.14285714 2:1 3:1 4:1 12:1 14:0.25 
1 1 
0 1 1:0.11111111 2:2 3:2 4:1 12:1 13:1 14:0.16666667 
1 1 12:1 13:1 14:0.11538462 
0 1 12:1 14:0.2 
0 1 1:0.0625 2:1 4:1 
1 1 
1 1 12:1 13:1 14:0.086395451 
1 1 11:2 
1 1 
0 1 12:1 13:1 14:0.14705882 
0 1 1:0.076923077 2:1 3:1 4:1 12:1 14:0.25 
1 1 1:0.055555556 2:1 3:1 4:1 12:1 13:1 14:0.086395451 
0 1 1:0.071428571 2:1 3:1 4:1 12:1 13:1 14:0.25 
0 1 1:0.083333333 2:1 4:1 12:1 13:1 14:0.47058824 
0 1 12:1 14:0.41666667 
0 1 12:1 14:0.5 
1 1 1:0.090909091 2:2 3:2 4:1 5:1 6:1 12:1 13:1 14:0.375 
0 1 1:0.21052632 2:4 3:3 4:1 11:1 12:1 13:1 14:0.16666667 
1 1 12:1 13:1 14:0.08 
0 1 5:1 
0 1 12:1 13:1 14:0.1417004 
1 1 12:1 13:1 14:0.10714286 
0 1 12:1 13:1 14:0.12790698 
0.846596922427563 1 1:0.10714286 2:3 3:3 4:1 7:1 12:1 13:1 14:0.086395451 
0 1 9:1 
1 1 12:1 13:1 14:0.10377358 
0.5860417142639039 1 1:0.076923077 2:1 3:1 4:1 5:2 6:1 12:1 13:1 14:0.042553191 
1 1 
1 1 1:0.058823529 2:1 3:1 4:1 11:1 12:1 13:1 14:0.031914894 
0 1 1:0.21052632 2:4 3:2 4:1 5:2 6:1 
1 1 12:1 13:1 14:0.086395451 
0 1 12:1 13:1 14:0.15609756 
0 1 1:0.066666667 2:1 3:1 4:1 12:1 13:1 14:0.14114011 
0 1 1:0.13636364 2:3 3:3 4:1 12:1 14:0.16666667 
1 1 
0 1 12:1 14:0.375 
1 1 11:1 12:1 13:1 14:0.20833333 
1 1 11:1 15:1 
1 1 
0 1 11:1 12:1 14:0.16666667 
0 1 12:1 13:1 14:0.14705882 
1 1 
0 1 1:0.14285714 2:3 3:3 4:1 12:1 13:1 14:0.76281056 
0 1 12:1 13:1 14:0.28205128 
0 1 1:0.10526316 2:2 4:1 
1 1 1:0.076923077 2:1 3:1 4:1 11:1 12:1 13:1 14:0.016756433 
0 1 12:1 13:1 14:0.25 
0 1 12:1 14:0.47222222 
0 1 1:0.26666667 2:4 3:2 4:1 12:1 13:1 14:0.078125 
0 1 1:0.071428571 2:1 3:1 4:1 12:1 13:1 14:0.58761682 
0 1 1:0.13333333 2:2 4:1 12:1 14:0.4 
0 1 5:1 
1 1 
1 1 1:0.125 2:1 3:1 4:1 12:1 13:1 14:0.10682261 
0 1 12:1 13:1 14:0.13268523 
0 1 1:0.066666667 2:1 4:1 12:1 14:0.5 
1 1 11:1 12:1 13:1 14:0.1417004 
1 1 
0 1 1:0.11111111 2:2 3:1 4:1 5:1 6:1 12:1 13:1 14:0.2125 
0.9417868378872142 0 11:1 12:1 13:1 14:0.43274854 
1 1 1:0.15 2:3 3:3 4:1 12:1 13:1 14:0.071428571 
0 1 5:1 
1 1 11:1 
0 1 1:0.18181818 2:2 3:2 4:1 5:1 12:1 13:1 14:0.2431694 
0 1 1:0.13636364 2:3 3:2 4:1 12:1 14:0.5 
0 1 1:0.066666667 2:1 3:1 4:1 12:1 14:0.5 
0.001770059884239119 0 1:0.2962963 2:8 3:3 4:1 5:1 11:1 12:1 13:1 14:0.016756433 
1 1 
1 1 1:0.058823529 2:1 3:1 4:1 5:1 6:1 12:1 13:1 14:0.073619632 
0 1 1:0.0625 2:1 4:1 12:1 14:0.076923077 
0 1 1:0.076923077 2:1 3:1 4:1 12:1 14:0.5 
0 1 12:1 14:0.22222222 
0 1 1:0.125 2:1 4:1 
1 1 
1 1 1:0.066666667 2:1 3:1 4:1 11:1 12:1 13:1 14:0.22222222 
1 1 
1 1 1:0.083333333 2:1 3:1 4:1 
1 1 
0 1 12:1 14:0.5 
1 1 12:1 13:1 14:0.11585366 
0.48754075012617 0.6968807237142809 5:2 6:1 
0 1 1:0.33333333 2:5 3:5 4:1 12:1 13:1 14:0.16666667 
1 1 12:1 13:1 14:0.086206897 
1 1 
0 1 1:0.0625 2:1 3:1 4:1 12:1 14:0.3 
1 1 
1 1 11:1 12:1 13:1 14:0.086395451 
0 1 12:1 13:1 14:0.13268523 
0 1 5:1 12:1 13:1 14:0.03271028 
0 1 1:0.083333333 2:2 3:1 4:1 11:2 
0 1 1:0.0625 2:1 3:1 4:1 12:1 13:1 14:0.1125 
0 1 1:0.125 2:2 3:1 4:1 12:1 13:1 
0.4507690334546514 1 15:1 
0 1 12:1 13:1 14:0.25 
0 1 1:0.083333333 2:1 3:1 4:1 12:1 13:1 14:0.1417004 
1 1 
1 1 
0 1 1:0.26666667 2:4 3:3 4:1 12:1 13:1 14:0.13268523 
0 1 1:0.076923077 2:1 3:1 4:1 12:1 13:1 14:0.17348398 
1 1 5:1 6:1 12:1 13:1 14:0.077922078 
1 1 
0 1 1:0.090909091 2:1 3:1 4:1 12:1 14:0.5 
0 1 7:1 12:1 13:1 14:0.086395451 
0 1 12:1 14:0.27777778 
0 1 12:1 13:1 14:0.13783784 
1 1 11:2 12:1 13:1 14:0.016756433 
1 1 12:1 13:1 14:0.086395451 
1 1 1:0.13333333 2:2 3:2 4:1 5:1 6:1 11:1 12:1 13:1 14:0.1125 
0 1 1:0.11111111 2:1 4:1 
0 1 1:0.13333333 2:2 3:1 4:1 12:1 13:1 14:0.18103448 
0 1 1:0.0625 2:1 4:1 12:1 14:0.5 
0 1 12:1 14:0.45 
0 1 5:1 12:1 13:1 
0 1 1:0.11111111 2:1 4:1 12:1 13:1 14:0.10377358 
1 1 11:1 
1 1 
1 1 11:1 12:1 13:1 14:0.11666667 
1 1 12:1 13:1 14:0.10714286 
1 1 
0 1 1:0.10526316 2:2 3:1 4:1 11:1 
0 1 12:1 13:1 14:0.18421053 
1 1 11:1 12:1 13:1 14:0.086395451 
0 1 1:0.066666667 2:1 4:1 12:1 13:1 14:0.041666667 
0 1 12:1 13:1 14:0.13829787 
1 1 12:1 13:1 14:0.125 
1 1 
0 1 1:0.05 2:1 3:1 4:1 
0 1 1:0.41666667 2:5 3:5 4:1 12:1 13:1 14:0.21153846 
1 1 11:1 
0 1 1:0.071428571 2:1 3:1 4:1 12:1 14:0.5 
1 1 1:0.13333333 2:2 3:2 4:1 12:1 13:1 14:-0.089285714 
1 1 1:0.090909091 2:1 3:1 4:1 11:1 12:1 13:1 14:0.086395451 
0 1 1:0.1 2:1 4:1 5:1 
0 1 1:0.13333333 2:2 3:1 4:1 9:1 
0 1 1:0.047619048 2:1 3:1 4:1 12:1 13:1 14:0.17864078 
1 1 
0 1 12:1 13:1 14:0.26086957 
1 1 1:0.066666667 2:1 3:1 4:1 12:1 13:1 14:-0.072115385 
1 1 1:0.2 2:2 3:2 4:1 11:1 12:1 13:1 14:0.016756433 
0 1 1:0.066666667 2:1 3:1 4:1 12:1 14:0.5 
0 1 12:1 14:0.5 
1 1 11:1 12:1 13:1 14:0.016756433 
1 1 
0 1 1:0.045454545 2:1 4:1 12:1 13:1 14:0.15789474 
0 1 12:1 13:1 14:0.15714286 
0 1 12:1 13:1 14:0.25 
0 1 1:0.125 2:2 3:1 4:1 5:1 6:1 
1 1 
1 1 11:1 
0 1 1:0.15384615 2:2 3:2 4:1 12:1 13:1 14:0.14114011 
1 1 1:0.041666667 2:1 3:1 4:1 12:1 13:1 14:0.092307692 
0 1 1:0.052631579 2:1 3:1 4:1 12:1 13:1 14:0.11496746 
0 1 1:0.0625 2:1 3:1 4:1 12:1 13:1 14:0.34375 
0 1 1:0.083333333 2:1 3:1 4:1 12:1 13:1 14:0.37204724 
0 1 1:0.083333333 2:1 3:1 4:1 12:1 13:1 14:0.10714286 
1 1 1:0.076923077 2:1 3:1 4:1 
1 1 12:1 13:1 14:0.10682261 
0 1 1:0.12 2:3 3:2 4:1 12:1 13:1 14:0.19 
0 1 1:0.11764706 2:2 3:2 4:1 12:1 14:0.5 
0 1 1:0.1 2:1 3:1 4:1 12:1 13:1 14:0.25 
1 0 5:1 11:2 
1 1 
0.6132900594254734 1 1:0.035714286 2:1 3:1 4:1 
0 1 12:1 13:1 14:0.29166667 
1 1 
1 1 
1 1 11:1 
1 1 
1 1 1:0.05 2:1 3:1 4:1 11:1 12:1 13:1 14:0.016756433 
0 1 1:0.058823529 2:1 4:1 11:1 12:1 13:1 14:0.016756433 
1 1 11:1 12:1 13:1 14:0.10951327 
0.2982308193558865 1 12:1 13:1 14:0.12601626 
1 1 12:1 13:1 14:0.11496746 
0 1 12:1 13:1 14:0.1407767 
0 1 12:1 14:0.5 
0 1 1:0.22222222 2:4 3:3 4:1 12:1 13:1 14:0.17864078 
1 1 1:0.076923077 2:1 3:1 4:1 11:1 12:1 13:1 14:0.016756433 
0 1 12:1 13:1 14:0.17808219 
1 1 
1 1 12:1 13:1 14:0.086395451 
1 1 1:0.047619048 2:1 3:1 4:1 12:1 13:1 14:0.086395451 
0 1 1:0.066666667 2:1 3:1 4:1 12:1 13:1 14:0.2037037 
0 1 1:0.058823529 2:1 4:1 
1 1 11:1 12:1 13:1 14:0.016756433 
0 1 1:0.04 2:1 4:1 12:1 13:1 
1 1 
1 1 12:1 13:1 14:0.10682261 
0 1 1:0.0625 2:1 4:1 11:1 
1 1 1:0.052631579 2:1 3:1 4:1 12:1 13:1 
1 1 
1 1 11:1 
0 1 1:0.066666667 2:1 3:1 4:1 12:1 14:0.5 
0 1 12:1 13:1 14:0.19387755 
1 1 
1 1 11:1 12:1 13:1 14:0.15384615 
0 1 7:1 
1 1 12:1 13:1 14:0.03271028 15:1 
0 1 1:0.047619048 2:1 3:1 4:1 12:1 14:0.5 
0 1 12:1 13:1 14:0.2431694 
0 1 1:0.058823529 2:1 3:1 4:1 12:1 13:1 14:0.18103448 
0 1 1:0.38461538 2:5 3:5 4:1 12:1 13:1 14:0.16666667 
0 1 1:0.083333333 2:1 4:1 12:1 14:0.25 
0 1 12:1 14:0.45 
1 1 12:1 13:1 14:0.086395451 
1 1 
1 1 11:1 12:1 13:1 14:0.086395451 
1 1 11:1 12:1 13:1 14:0.074660633 
0 1 1:0.10526316 2:2 3:1 4:1 11:1 12:1 14:0.25 
1 1 
1 1 1:0.058823529 2:1 3:1 4:1 12:1 13:1 14:-0.033333333 
1 1 12:1 13:1 
1 1 11:1 
1 1 12:1 13:1 14:-0.089285714 
1 1 11:1 
0 1 7:1 12:1 13:1 14:0.030612245 
0 1 1:0.125 2:3 3:3 4:1 12:1 14:0.5 
1 1 
0 1 12:1 14:0.5 
0 1 12:1 14:0.5 
0 1 12:1 14:0.5 
0 1 1:0.0625 2:1 3:1 4:1 12:1 14:0.5 
1 1 1:0.038461538 2:1 3:1 4:1 11:1 
1 1 12:1 13:1 14:0.086395451 
0 1 1:0.16666667 2:3 3:1 4:1 12:1 14:0.05 
0 1 5:1 
0 1 1:0.076923077 2:1 4:1 
1 1 
1 1 
1 0.9432827090967927 1:0.35294118 2:6 3:6 4:1 11:1 12:1 13:1 14:0.19135802 
0 1 1:0.25 2:2 3:1 4:1 
1 1 1:0.071428571 2:1 3:1 4:1 12:1 13:1 14:0.10597826 
1 1 
0 1 1:0.055555556 2:1 3:1 4:1 
0 1 1:0.2 2:4 3:2 4:1 5:2 6:1 
1 1 1:0.095238095 2:2 3:2 4:1 12:1 13:1 
0 1 5:1 12:1 13:1 14:0.086395451 15:1 
1 1 
1 1 1:0.0625 2:1 3:1 4:1 12:1 13:1 14:0.07 
1 1 1:0.058823529 2:1 3:1 4:1 12:1 13:1 
0 1 12:1 13:1 14:0.18181818 
0 1 1:0.0625 2:1 3:1 4:1 12:1 14:0.125 
1 1 
0 1 1:0.090909091 2:2 3:2 4:1 12:1 14:0.33333333 
1 1 11:1 12:1 13:1 14:0.086395451 
1 1 
1 1 
1 1 12:1 13:1 14:0.076923077 
1 1 
1 1 11:1 12:1 13:1 14:0.20833333 
0 1 1:0.058823529 2:1 3:1 4:1 12:1 13:1 14:0.10682261 
1 1 11:1 
0 1 7:1 12:1 13:1 14:0.1407767 
0 1 12:1 13:1 14:0.43274854 
0 1 1:0.058823529 2:1 3:1 4:1 12:1 13:1 14:0.125 
0 1 12:1 13:1 14:0.2037037 
0 1 1:0.0625 2:1 3:1 4:1 12:1 14:0.5 
1 1 12:1 13:1 14:0.11111111 
1 1 11:1 
1 1 1:0.15789474 2:3 3:3 4:1 11:1 
0 1 1:0.071428571 2:1 3:1 4:1 12:1 13:1 14:0.17156863 
0 1 1:0.23529412 2:4 3:3 4:1 12:1 14:0.5 
0 1 1:0.16666667 2:2 3:2 4:1 12:1 13:1 14:0.13068182 
0 1 12:1 14:0.45454545 
1 1 1:0.25 2:3 3:3 4:1 
0 1 1:0.11111111 2:2 3:2 4:1 
0 1 1:0.05 2:1 3:1 4:1 12:1 14:0.5 
0 1 12:1 14:0.5 
1 1 1:0.05 2:1 3:1 4:1 12:1 13:1 14:0.1 
0 1 1:0.066666667 2:1 3:1 4:1 5:1 12:1 13:1 14:0.033333333 
0 1 5:1 
1 1 12:1 13:1 
0 1 5:1 12:1 13:1 
1 1 1:0.076923077 2:1 3:1 4:1 
0 1 1:0.052631579 2:1 3:1 4:1 12:1 13:1 14:0.3 
0 1 1:0.28571429 2:4 3:2 4:1 
0 1 12:1 13:1 14:0.26315789 
0 1 1:0.38461538 2:5 3:5 4:1 12:1 13:1 14:0.088235294 
0 1 1:0.052631579 2:1 3:1 4:1 15:1 
1 1 11:1 
1 1 11:1 
1 1 1:0.14285714 2:2 3:2 4:1 5:1 6:1 
1 1 12:1 13:1 14:0.08974359 
0 1 12:1 13:1 14:0.18341709 
0 1 1:0.066666667 2:1 4:1 12:1 14:0.25 
0 1 1:0.052631579 2:1 3:1 4:1 12:1 13:1 14:0.1875 
0 1 1:0.055555556 2:1 3:1 4:1 12:1 13:1 14:0.10682261 
1 1 
1 1 1:0.1 2:1 3:1 4:1 
0 1 1:0.052631579 2:1 3:1 4:1 
1 1 
1 1 11:2 12:1 13:1 14:0.026315789 
1 1 1:0.076923077 2:1 3:1 4:1 
1 1 11:1 12:1 13:1 14:0.016756433 
0 1 1:0.11111111 2:2 3:2 4:1 
0 1 12:1 14:0.5 
1 1 1:0.055555556 2:1 3:1 4:1 11:2 12:1 13:1 14:0.20833333 
0 1 1:0.045454545 2:1 3:1 4:1 
1 1 
1 1 1:0.052631579 2:1 3:1 4:1 11:1 
0 1 12:1 13:1 14:0.26315789 
1 1 1:0.16666667 2:1 3:1 4:1 12:1 13:1 14:0.10576923 
0 1 1:0.043478261 2:1 3:1 4:1 
0 1 1:0.055555556 2:1 3:1 4:1 
0 1 1:0.10526316 2:2 3:2 4:1 12:1 13:1 14:0.11684783 
1 1 12:1 13:1 14:0.125 
0 1 12:1 13:1 14:0.26315789 
1 1 12:1 13:1 14:0.041666667 
1 1 1:0.0625 2:1 3:1 4:1 
1 1 
0 1 1:0.14285714 2:3 3:3 4:1 11:1 12:1 14:0.45 
1 1 
1 1 1:0.14285714 2:1 3:1 4:1 
0 1 12:1 13:1 14:0.25 
0 1 12:1 13:1 14:0.26315789 
0 1 1:0.058823529 2:1 3:1 4:1 
0 1 1:0.045454545 2:1 3:1 4:1 
1 1 1:0.055555556 2:1 3:1 4:1 11:1 12:1 13:1 14:0.15217391 
0 1 1:0.17647059 2:3 3:2 4:1 11:1 
0 1 1:0.071428571 2:1 3:1 4:1 5:1 
0 1 12:1 13:1 14:0.16477273 
0 1 1:0.16666667 2:1 3:1 4:1 12:1 13:1 14:0.2 
1 1 
0 1 1:0.055555556 2:1 3:1 4:1 
1 1 12:1 13:1 14:0.020833333 
1 1 12:1 13:1 14:0.086395451 
0 1 
0 1 1:0.0625 2:1 3:1 4:1 12:1 13:1 14:0.28 
0 1 1:0.14285714 2:2 3:2 4:1 5:1 
1 1 1:0.10526316 2:2 3:2 4:1 12:1 13:1 14:0.086395451 
0 1 
-0 1 13:1 14:-0.5 
-1 0 11:2 12:1 13:1 14:0.016756433 
-1 1 12:1 13:1 14:0.038461538 
-1 1 11:1 12:1 13:1 14:0.032258065 
-1 1 12:1 13:1 14:-0.35887097 
-1 1 
-1 1 
-1 1 11:1 
-0 1 1:0.14285714 2:2 3:2 4:1 11:1 13:1 14:-0.5 
-1 1 11:1 
-1 1 12:1 13:1 14:-0.055555556 
-1 1 
-1 1 1:0.035714286 2:1 3:1 4:1 
-1 1 12:1 13:1 14:0.11206897 
-1 1 12:1 13:1 14:0.10682261 
-1 1 12:1 13:1 14:0.16666667 
-1 1 1:0.066666667 2:1 3:1 4:1 12:1 13:1 14:-0.12962963 
-1 1 1:0.1 2:2 3:2 4:1 12:1 13:1 14:-0.0875 
-1 1 11:1 
-1 1 5:1 6:1 
-1 1 11:2 
-1 1 11:1 12:1 13:1 14:0.016756433 
-1 1 12:1 13:1 14:-0.16666667 
-1 1 
-0 1 6:1 12:1 13:1 14:0.13945578 
-0 1 13:1 14:-0.5 
-1 1 1:0.058823529 2:1 3:1 4:1 12:1 13:1 14:-0.026315789 
-1 1 11:1 
-1 1 
-1 1 1:0.083333333 2:1 3:1 4:1 11:1 12:1 13:1 14:0.2 
-0 1 1:0.11111111 2:1 3:2 4:1 12:1 13:1 14:0.025 
-1 1 12:1 13:1 14:0.068493151 
-1 1 11:1 12:1 13:1 
-1 1 12:1 13:1 14:0.052631579 
-1 1 1:0.16666667 3:1 4:1 15:1 
-1 1 
-0 1 6:1 12:1 13:1 14:0.086395451 
-0 1 11:1 12:1 13:1 14:-0.75961538 
-0 1 6:1 12:1 13:1 14:0.052631579 
-1 1 
-1 1 
-1 1 1:0.0625 2:1 3:1 4:1 12:1 13:1 14:0.11052632 
-1 1 
-1 1 11:1 12:1 13:1 14:0.17647059 
-1 1 11:1 12:1 13:1 14:0.016756433 
-1 1 12:1 13:1 14:0.086395451 15:1 
-1 1 11:1 12:1 13:1 14:0.086395451 
-1 1 11:1 
-1 1 12:1 13:1 
-1 1 1:0.071428571 3:1 4:1 15:1 
-1 1 11:1 12:1 13:1 14:0.10080645 
-1 1 12:1 13:1 14:0.068527919 
-1 1 1:0.071428571 2:1 3:1 4:1 
-1 1 12:1 13:1 14:-0.12962963 
-1 1 1:0.047619048 2:1 3:1 4:1 11:1 12:1 13:1 
-1 1 12:1 13:1 14:0.125 
-1 1 11:1 
-1 1 11:1 
-0 1 1:0.058823529 3:1 4:1 12:1 13:1 14:-0.038461538 
-1 1 1:0.041666667 2:1 3:1 4:1 12:1 13:1 14:-0.23529412 
-1 1 11:1 12:1 13:1 14:0.086395451 
-1 1 1:0.0625 2:1 3:1 4:1 11:1 12:1 13:1 14:0.095238095 15:1 
-0.07978605879555749 1 1:0.2 2:2 3:2 4:1 6:1 11:1 12:1 13:1 14:0.016756433 
-1 1 12:1 13:1 14:-0.048780488 
-0 1 1:0.15384615 2:2 3:2 4:1 13:1 14:-0.875 
-1 1 12:1 13:1 14:-0.12962963 
-1 1 1:0.058823529 2:1 3:1 4:1 12:1 13:1 14:0.09375 
-1 1 1:0.10526316 2:2 3:2 4:1 12:1 13:1 14:0.046728972 
-1 1 12:1 13:1 14:0.086395451 
-1 1 1:0.055555556 2:1 3:1 4:1 
-1 1 
-1 1 12:1 13:1 14:0.097744361 
-1 1 
-1 1 12:1 13:1 14:0.15609756 
-1 1 1:0.125 2:2 3:2 4:1 11:1 12:1 13:1 14:0.080357143 
-1 1 12:1 13:1 14:0.086395451 
-0 1 13:1 14:-0.5 
-1 1 1:0.071428571 3:1 4:1 
-1 1 1:0.076923077 2:1 3:1 4:1 
-1 1 12:1 13:1 14:-0.12962963 
-0 1 1:0.125 2:1 3:2 4:1 13:1 14:-0.5 
-1 1 1:0.11111111 3:1 4:1 
-1 1 1:0.15 2:3 3:3 4:1 5:1 6:1 12:1 13:1 
-1 1 12:1 13:1 14:0.10682261 
-0.02038038957474452 1 6:1 
-1 1 11:1 
-1 1 11:1 12:1 13:1 14:0.091240876 
-1 1 5:1 6:1 11:1 12:1 13:1 14:0.19135802 
-1 1 1:0.076923077 3:1 4:1 
-0 1 1:0.071428571 2:1 3:1 4:1 6:1 11:1 
-1 1 12:1 13:1 14:0.045454545 
-0 1 1:0.22222222 2:1 3:2 4:1 5:1 6:1 15:1 
-1 1 
-1 1 11:1 
-0 1 1:0.05 3:1 4:1 12:1 13:1 14:0.086395451 15:1 
-0 1 1:0.1 3:1 4:1 12:1 13:1 14:-0.12962963 
-0 1 13:1 14:-0.5 
-0 1 1:0.045454545 3:1 4:1 12:1 13:1 14:0.069148936 15:1 
-0 1 6:1 12:1 13:1 14:0.086395451 
-0 1 13:1 14:-0.5 
-1 1 1:0.076923077 2:1 3:1 4:1 13:1 14:-0.1577381 
-1 1 1:0.052631579 2:1 3:1 4:1 11:1 12:1 13:1 14:0.13114754 
-0 1 1:0.125 3:2 4:1 
-1 1 11:2 12:1 13:1 14:0.16666667 
-1 1 11:2 12:1 13:1 14:0.086395451 
-1 1 11:1 
-1 1 12:1 13:1 14:-0.275 
-1 1 
-1 1 11:1 12:1 13:1 14:0.76281056 
-1 1 1:0.15 2:3 3:3 4:1 5:1 6:1 
-1 1 12:1 13:1 14:0.075 
-1 1 1:0.15 2:2 3:3 4:1 12:1 13:1 14:0.2 
-1 1 1:0.066666667 2:1 3:1 4:1 
-0 1 1:0.17647059 2:2 3:3 4:1 6:1 12:1 13:1 14:-0.2 
-1 1 12:1 13:1 14:0.086395451 
-0 1 1:0.13043478 2:1 3:3 4:1 11:1 12:1 13:1 14:0.016756433 
-1 1 12:1 13:1 14:-0.54166667 
-1 1 11:2 
-1 1 12:1 13:1 14:-0.2 
-1 1 12:1 13:1 14:0.1 
-0.3120101472202185 1 6:1 
-1 1 1:0.058823529 2:1 3:1 4:1 
-1 1 12:1 13:1 
-1 1 1:0.043478261 2:1 3:1 4:1 11:1 12:1 13:1 14:0.15277778 
-1 1 11:1 
-0 1 1:0.076923077 3:1 4:1 12:1 13:1 14:-0.25 
-1 1 
-1 1 
-0 1 13:1 14:-0.5 
-1 1 11:1 12:1 13:1 14:0.11666667 
-1 1 12:1 13:1 14:0.1125 
-1 1 11:2 
-1 1 1:0.125 2:2 3:2 4:1 
-1 1 
-1 1 12:1 13:1 14:-0.23529412 
-1 1 12:1 13:1 14:0.125 
-1 1 11:1 12:1 13:1 14:0.016756433 
-1 1 1:0.14285714 2:1 3:1 4:1 12:1 13:1 14:0.031914894 
-1 1 11:2 
-1 1 12:1 13:1 14:0.086395451 
-1 1 11:1 
-1 1 11:2 12:1 13:1 14:0.26923077 
-1 1 12:1 13:1 14:0.10682261 
-1 1 11:1 
-0 1 6:1 
-1 1 12:1 13:1 14:-0.25 
-1 1 11:1 
-1 1 6:1 12:1 13:1 14:0.25 
-1 1 1:0.083333333 2:1 3:1 4:1 11:1 12:1 13:1 14:0.15277778 
-1 1 
-1 1 1:0.071428571 2:1 3:1 4:1 12:1 13:1 
-1 1 12:1 13:1 14:0.086395451 
-0 1 1:0.1 2:1 3:2 4:1 6:1 15:1 
-1 1 11:1 
-1 1 12:1 13:1 14:0.043478261 
-1 1 12:1 13:1 14:0.10818713 
-1 1 11:2 12:1 13:1 14:0.086395451 
-1 1 1:0.058823529 2:1 3:1 4:1 12:1 13:1 14:0.10682261 
-1 1 11:1 12:1 13:1 14:0.069444444 
-1 1 11:1 
-1 1 
-0 1 1:0.125 2:1 3:1 4:1 11:1 13:1 14:-0.25 
-1 1 11:1 
-0 1 1:0.11764706 2:1 3:2 4:1 6:1 11:1 
-1 1 12:1 13:1 14:0.027777778 
-1 1 11:1 12:1 13:1 14:-0.041666667 
-1 1 1:0.076923077 2:1 3:1 4:1 12:1 13:1 14:0.18518519 15:1 
-1 1 12:1 13:1 14:0.031914894 
-1 1 1:0.041666667 2:1 3:1 4:1 11:1 12:1 13:1 14:0.014285714 
-1 1 1:0.1 3:1 4:1 12:1 13:1 14:0.30327869 15:1 
-0 1 6:1 11:1 
-1 1 
-1 1 11:1 
-1 1 1:0.1 2:2 3:2 4:1 12:1 13:1 14:0.086395451 
-1 1 1:0.22222222 2:2 3:2 4:1 11:1 12:1 13:1 14:-0.23529412 
-1 1 11:1 12:1 13:1 14:0.2037037 15:1 
-1 1 1:0.045454545 2:1 3:1 4:1 11:1 12:1 13:1 14:0.014285714 
-1 1 
-1 1 1:0.0625 2:1 3:1 4:1 12:1 13:1 
-0 1 1:0.25 2:1 3:4 4:1 11:1 12:1 13:1 14:0.086395451 
-1 1 12:1 13:1 14:-0.055555556 
-1 1 12:1 13:1 14:0.037037037 
-1 1 12:1 13:1 14:0.11684783 
-0 1 1:0.05 2:1 3:1 4:1 13:1 14:-0.6875 
-1 0.6151416653660022 11:3 
-0 0.6546661383439533 13:1 14:-0.8125 
-1 1 1:0.066666667 2:1 3:1 4:1 11:1 
-0 1 13:1 14:-0.5 
-1 1 13:1 14:-0.28571429 
-1 1 11:1 
-1 1 12:1 13:1 14:0.1 
-1 1 1:0.35714286 2:5 3:5 4:1 7:1 11:1 13:1 14:-0.5 15:1 
-1 1 1:0.038461538 2:1 3:1 4:1 11:2 
-1 1 11:1 
-1 1 12:1 13:1 14:0.76281056 
-1 1 1:0.071428571 2:1 3:1 4:1 
-1 1 1:0.15789474 2:3 3:3 4:1 12:1 13:1 14:-0.0875 
-1 1 
-1 1 11:1 
-1 1 12:1 13:1 14:0.44370229 
-1 1 
-1 1 
-1 1 1:0.066666667 2:1 3:1 4:1 11:1 12:1 13:1 14:0.086395451 
-1 1 12:1 13:1 14:0.11538462 
-1 1 11:1 12:1 13:1 14:0.16666667 
-1 1 1:0.090909091 2:1 3:1 4:1 11:1 
-1 1 12:1 13:1 
-1 1 11:1 12:1 13:1 14:0.1 
-1 1 1:0.14285714 2:1 3:1 4:1 11:1 12:1 13:1 14:0.086395451 
-1 1 1:0.090909091 2:1 3:1 4:1 12:1 13:1 14:0.25 
-1 1 1:0.066666667 2:1 3:1 4:1 12:1 13:1 14:0.041666667 
-1 1 1:0.038461538 2:1 3:1 4:1 12:1 13:1 
-1 1 1:0.090909091 2:1 3:1 4:1 11:1 12:1 13:1 14:-0.12962963 
-0 1 1:0.071428571 3:1 4:1 11:1 12:1 13:1 14:0.20833333 
-1 1 
-1 1 11:1 12:1 13:1 14:0.10951327 
-1 1 12:1 13:1 
-1 1 1:0.1 2:1 3:1 4:1 12:1 13:1 
-1 1 11:1 12:1 13:1 14:0.032258065 
-1 1 12:1 13:1 14:-0.25 
-1 1 1:0.13333333 2:2 3:2 4:1 12:1 13:1 14:0.25 
-0 1 1:0.11538462 2:1 3:3 4:1 11:1 
-1 1 11:1 
-1 1 
-1 1 12:1 13:1 14:0.015625 
-1 1 1:0.047619048 2:1 3:1 4:1 11:1 13:1 14:-0.16666667 
-1 1 1:0.11111111 2:1 3:1 4:1 12:1 13:1 14:-0.055555556 
-1 1 12:1 13:1 14:0.17348398 
-1 1 11:1 
-0 1 6:1 
-1 1 11:1 12:1 13:1 14:0.10682261 
-1 1 12:1 13:1 
-1 1 12:1 13:1 14:0.13945578 15:1 
-1 1 11:1 12:1 13:1 14:0.2431694 
-1 1 12:1 13:1 14:0.078947368 
-0 1 1:0.052631579 2:1 3:1 4:1 6:1 12:1 13:1 14:0.086395451 
-0 1 6:1 
-1 1 12:1 13:1 14:0.17647059 
-1 1 12:1 13:1 14:0.10951327 
-1 1 1:0.15384615 2:2 3:2 4:1 11:1 
-1 1 11:1 12:1 13:1 14:0.18410596 
-1 1 12:1 13:1 14:-0.125 15:1 
-1 1 1:0.041666667 2:1 3:1 4:1 11:2 
-1 1 12:1 13:1 14:0.069148936 
-1 1 
-1 1 12:1 13:1 14:0.045454545 
-1 1 
-1 1 11:2 12:1 13:1 14:0.14114011 
-0 1 1:0.066666667 3:1 4:1 11:1 12:1 13:1 14:0.016756433 
-1 1 11:1 12:1 13:1 14:0.052631579 
-1 1 12:1 13:1 14:-0.0076923077 
-1 1 12:1 13:1 14:0.077922078 
-1 1 1:0.5 2:4 3:4 4:1 12:1 13:1 14:0.1407767 
-1 1 1:0.043478261 2:1 3:1 4:1 11:1 12:1 13:1 14:-0.0048076923 
-1 1 1:0.125 2:1 3:1 4:1 12:1 13:1 14:0.071428571 
-1 1 12:1 13:1 14:-0.10606061 
-0 1 1:0.11764706 2:1 3:2 4:1 6:1 12:1 13:1 14:0.052631579 
-1 1 12:1 13:1 14:-0.10606061 
-1 1 1:0.26666667 2:4 3:4 4:1 5:1 6:1 12:1 13:1 14:-0.058467742 
-1 1 1:0.27272727 2:2 3:3 4:1 12:1 13:1 14:0.16477273 
-1 1 1:0.11111111 2:2 3:2 4:1 
-0 1 1:0.066666667 2:1 3:1 4:1 13:1 14:-0.5 
-1 1 11:2 12:1 13:1 14:0.25 
-1 1 1:0.090909091 2:1 3:1 4:1 11:1 12:1 13:1 14:0.086395451 
-1 1 12:1 13:1 14:0.11627907 
-1 1 1:0.047619048 2:1 3:1 4:1 11:2 
-0 1 1:0.058823529 2:1 3:1 4:1 13:1 14:-0.5 
-1 1 1:0.11764706 2:2 3:2 4:1 6:1 12:1 13:1 14:0.11666667 
-1 0 11:2 12:1 13:1 
-1 1 11:1 12:1 13:1 14:0.086395451 
-1 1 
-1 1 1:0.11764706 2:2 3:2 4:1 11:1 
-1 1 
-1 1 12:1 13:1 14:0.1627907 
-1 1 12:1 13:1 14:0.086395451 
-1 1 11:1 12:1 13:1 14:0.086395451 
-1 1 11:2 
-1 1 12:1 13:1 14:0.036585366 
-1 1 11:1 
-1 1 
-0 1 1:0.071428571 2:1 3:1 4:1 13:1 14:-0.5 
-1 1 11:1 12:1 13:1 14:0.041666667 
-1 1 12:1 13:1 14:0.025 
-1 1 12:1 13:1 14:0.073619632 
-0 1 13:1 14:-0.5625 
-1 1 
-1 1 1:0.052631579 2:1 3:1 4:1 11:1 12:1 13:1 14:0.052631579 
-1 1 7:1 11:2 12:1 13:1 14:0.086395451 
-1 1 5:1 6:1 12:1 13:1 14:0.12286689 
-1 1 1:0.076923077 2:1 3:1 4:1 
-1 1 1:0.13333333 2:2 3:2 4:1 12:1 13:1 14:-0.1 
-1 1 1:0.076923077 2:1 3:1 4:1 12:1 13:1 14:0.086395451 
-1 1 1:0.0625 2:1 3:1 4:1 12:1 13:1 14:0.11666667 
-0 1 13:1 14:-0.5 
-1 1 1:0.11764706 2:2 3:2 4:1 11:1 12:1 13:1 14:0.080188679 
-1 1 12:1 13:1 14:0.11666667 
-1 1 11:2 
-1 1 12:1 13:1 14:0.10883621 
-1 1 11:1 12:1 13:1 14:0.051724138 
-1 1 12:1 13:1 14:0.086395451 
-0 1 1:0.25 2:2 3:2 4:1 5:1 6:1 13:1 14:-0.5 
-1 1 1:0.0625 2:1 3:1 4:1 
-1 1 11:1 12:1 13:1 
-1 1 11:1 12:1 13:1 14:0.016756433 
-1 1 11:1 12:1 13:1 14:-0.02764977 
-1 1 11:1 
-1 1 
-1 1 12:1 13:1 14:0.030612245 
-1 1 1:0.058823529 2:1 3:1 4:1 12:1 13:1 14:0.2431694 
-1 1 1:0.1 2:2 3:2 4:1 12:1 13:1 14:-0.035714286 
-1 1 12:1 13:1 14:0.086395451 
-1 1 12:1 13:1 14:0.036585366 
-1 1 12:1 13:1 14:-0.088235294 
-1 1 12:1 13:1 14:-0.55288462 
-1 1 12:1 13:1 14:-0.10606061 
-1 1 11:1 12:1 13:1 14:-0.125 
-1 1 1:0.083333333 3:1 4:1 12:1 13:1 14:0.28205128 15:1 
-1 1 
-1 1 11:2 
-1 1 12:1 13:1 14:0.0625 
-0 1 6:1 12:1 13:1 14:0.086395451 
-0 1 1:0.047619048 2:1 3:1 4:1 6:1 12:1 13:1 14:0.086395451 
-1 1 11:2 
-1 1 12:1 13:1 14:-0.0087719298 
-1 1 12:1 13:1 14:0.086395451 
-1 1 15:1 
-1 1 11:2 
-1 1 12:1 13:1 14:-0.14285714 
-1 1 11:1 12:1 13:1 14:-0.11111111 
-1 1 1:0.15384615 2:2 3:2 4:1 12:1 13:1 14:0.086395451 
-1 1 11:1 
-1 1 
-1 1 11:1 
-1 1 11:1 12:1 13:1 14:0.18421053 
-1 1 12:1 13:1 14:0.13120503 
-0 1 6:1 12:1 13:1 14:0.086395451 
-1 1 1:0.05 2:1 3:1 4:1 11:1 12:1 13:1 14:-0.22222222 
-1 1 12:1 13:1 14:0.1407767 
-1 1 1:0.11764706 2:1 3:2 4:1 12:1 13:1 14:0.052631579 
-1 1 11:1 12:1 13:1 14:0.10682261 
-1 1 12:1 13:1 14:-0.21428571 
-0 1 1:0.083333333 3:1 4:1 12:1 13:1 
-0 1 1:0.090909091 3:1 4:1 11:1 
-1 1 1:0.090909091 2:1 3:1 4:1 
-0 1 6:1 12:1 13:1 14:0.086395451 
-1 1 11:2 12:1 13:1 14:0.086395451 
-1 1 1:0.047619048 2:1 3:1 4:1 11:1 
-1 1 
-0 1 13:1 14:-0.5 
-1 1 8:1 11:1 12:1 13:1 14:0.17948718 
-0 1 13:1 14:-0.5 
-1 1 11:1 
-1 1 1:0.05 2:1 3:1 4:1 11:1 
-1 1 12:1 13:1 14:0.016666667 
-1 1 11:1 12:1 13:1 14:0.031914894 
-1 1 11:1 12:1 13:1 14:-0.23529412 
-1 1 11:2 12:1 13:1 14:0.086395451 
-0 1 13:1 14:-0.5 
-1 1 11:1 12:1 13:1 14:0.054455446 
-1 1 12:1 13:1 14:0.086395451 
-1 1 11:1 
-1 1 11:1 
-1 1 12:1 13:1 14:-0.125 
-1 1 11:1 12:1 13:1 14:0.038461538 
-1 1 11:1 
-1 1 11:1 12:1 13:1 14:-0.15 
-1 1 
-0 1 13:1 14:-0.39285714 
-1 0 11:2 12:1 13:1 14:-0.02764977 
-0 1 13:1 14:-0.5 
-1 1 1:0.071428571 2:1 3:1 4:1 11:1 12:1 13:1 14:0.074660633 
-1 1 11:1 12:1 13:1 
-1 1 1:0.090909091 2:2 3:2 4:1 12:1 13:1 14:0.037037037 
-1 1 12:1 13:1 14:0.14285714 
-1 1 1:0.055555556 2:1 3:1 4:1 8:1 12:1 13:1 14:0.11764706 
-1 1 11:1 12:1 13:1 14:0.21818182 
-1 1 11:1 12:1 13:1 14:0.086395451 
-0 1 1:0.071428571 2:1 3:1 4:1 13:1 14:-0.5 
-1 1 12:1 13:1 14:-0.23529412 
-1 1 12:1 13:1 
-1 1 1:0.076923077 2:1 3:1 4:1 
-1 1 1:0.08 2:2 3:2 4:1 11:3 
-0 0.8298402908028506 1:0.11111111 2:1 3:2 4:1 6:2 
-1 1 12:1 13:1 
-1 1 12:1 13:1 14:0.086395451 
-1 1 12:1 13:1 14:-0.10606061 
-1 1 11:1 12:1 13:1 14:0.016756433 
-1 1 12:1 13:1 14:0.078125 
-1 1 12:1 13:1 14:-0.17943548 
-1 1 1:0.0625 2:1 3:1 4:1 11:1 12:1 13:1 14:0.086395451 
-1 1 1:0.055555556 3:1 4:1 
-1 1 1:0.31578947 2:4 3:6 4:1 5:1 6:1 12:1 13:1 14:-0.1 
-1 1 1:0.0625 3:1 4:1 12:1 13:1 14:0.10951327 
-1 0 11:2 12:1 13:1 14:0.016756433 
-1 1 12:1 13:1 14:-0.14285714 
-1 1 1:0.076923077 2:1 3:1 4:1 12:1 13:1 
-1 1 1:0.11764706 2:2 3:2 4:1 12:1 13:1 14:0.10682261 
-1 1 1:0.066666667 2:1 3:1 4:1 11:1 12:1 13:1 
-1 1 12:1 13:1 14:0.054455446 
-1 1 1:0.047619048 2:1 3:1 4:1 12:1 13:1 14:0.033333333 
-1 1 
-1 1 12:1 13:1 14:0.12771739 
-1 1 1:0.066666667 2:1 3:1 4:1 11:1 
-1 1 11:2 
-1 1 11:1 12:1 13:1 14:0.086395451 
-1 1 12:1 13:1 14:0.086395451 
-1 1 12:1 13:1 14:0.086395451 
-1 1 1:0.11764706 2:2 3:2 4:1 12:1 13:1 14:0.16477273 
-1 1 12:1 13:1 14:0.32142857 
-1 1 11:1 
-1 1 1:0.13636364 2:2 3:3 4:1 
-1 1 11:1 12:1 13:1 14:0.086395451 
-1 1 11:1 
-0 1 1:0.066666667 2:1 3:1 4:1 11:1 13:1 14:-0.5 
-0.3817518482393574 1 1:0.090909091 2:1 3:2 4:1 11:1 
-1 1 12:1 13:1 14:0.1875 
-1 1 1:0.15384615 2:2 3:2 4:1 11:1 12:1 13:1 14:0.2 
-0 1 1:0.076923077 3:1 4:1 11:1 
-1 1 
-1 1 
-1 1 12:1 13:1 14:-0.10606061 
-1 1 1:0.0625 2:1 3:1 4:1 12:1 13:1 14:0.1 
-1 1 1:0.066666667 2:1 3:1 4:1 11:1 
-1 1 1:0.38461538 2:5 3:5 4:1 11:1 12:1 13:1 14:0.097222222 
-1 1 
-1 1 
-1 1 11:1 12:1 13:1 14:0.17873303 
-1 1 12:1 13:1 14:0.19599515 
-1 1 11:1 
-1 1 12:1 13:1 14:-0.10606061 
-1 1 12:1 13:1 14:-0.275 
-1 1 1:0.071428571 2:1 3:1 4:1 11:2 12:1 13:1 14:0.086395451 
-1 1 11:1 12:1 13:1 14:0.17348398 
-1 1 12:1 13:1 14:0.086395451 
-1 1 12:1 13:1 14:-0.10606061 
-1 1 1:0.14285714 2:2 3:2 4:1 
-0 1 1:0.045454545 3:1 4:1 12:1 13:1 14:0.083333333 
-1 1 12:1 13:1 14:0.074660633 
-1 1 12:1 13:1 14:0.0625 
-1 1 12:1 13:1 14:0.095238095 
-1 1 11:2 12:1 13:1 14:0.11153846 
-1 1 1:0.071428571 3:1 4:1 12:1 13:1 14:0.22222222 
-1 1 
-1 1 1:0.090909091 2:1 3:1 4:1 11:1 12:1 13:1 14:0.086395451 
-1 1 11:1 
-1 1 5:1 6:1 12:1 13:1 14:0.15609756 
-1 1 11:1 
-1 1 12:1 13:1 14:0.074660633 
-1 1 11:1 12:1 13:1 14:0.11538462 
-1 1 12:1 13:1 14:0.041666667 
-1 1 11:1 12:1 13:1 14:0.325 
-1 1 12:1 13:1 14:0.10682261 
-1 1 1:0.16666667 2:4 3:4 4:1 11:1 12:1 13:1 14:-0.0875 
-1 1 13:1 14:-0.36363636 15:1 
-1 1 15:1 
-1 1 
-0 1 6:1 12:1 13:1 14:0.054455446 
-0 1 1:0.11764706 2:1 3:2 4:1 11:1 
-1 1 1:0.10526316 2:2 3:2 4:1 5:2 6:2 12:1 13:1 14:0.090909091 
-1 1 11:1 12:1 13:1 14:0.0079365079 
-1 1 11:1 
-1 1 11:1 12:1 13:1 14:0.13934426 
-1 1 6:1 
-1 1 1:0.090909091 2:1 3:1 4:1 5:1 6:1 12:1 13:1 14:0.21428571 
-1 1 1:0.35294118 2:5 3:6 4:1 12:1 13:1 14:0.03125 
-0 1 6:1 12:1 13:1 14:0.086395451 
-1 1 
-0 1 1:0.16666667 2:2 3:2 4:1 11:1 13:1 14:-0.5 
-0 1 13:1 14:-0.375 
-1 1 11:2 12:1 13:1 14:0.086395451 
-1 1 11:1 12:1 13:1 14:-0.12195122 
-1 1 1:0.0625 2:1 3:1 4:1 12:1 13:1 14:0.10682261 
-1 1 1:0.11111111 2:1 3:1 4:1 12:1 13:1 14:-0.15677966 
-1 1 11:1 
-1 1 12:1 13:1 14:0.0625 
-0 1 1:0.095238095 2:1 3:2 4:1 11:1 12:1 13:1 14:-0.02764977 
-1 1 1:0.043478261 3:1 4:1 
-1 1 11:1 12:1 13:1 14:0.14114011 
-1 1 5:1 6:1 11:1 12:1 13:1 14:0.071428571 
-1 0.7451507830645104 11:3 
-1 1 11:1 12:1 13:1 14:0.086395451 
-1 1 12:1 13:1 14:0.15277778 
-1 1 11:1 12:1 13:1 14:0.125 
-1 1 12:1 13:1 14:0.086395451 
-1 1 11:1 
-1 1 1:0.1 2:1 3:1 4:1 12:1 13:1 14:0.086395451 
-1 1 11:1 12:1 13:1 14:0.15 
-1 1 12:1 13:1 14:0.086395451 
-1 1 12:1 13:1 14:0.073619632 
-1 1 1:0.052631579 2:1 3:1 4:1 11:2 12:1 13:1 14:0.086395451 
-0 1 6:1 12:1 13:1 14:0.05 
-1 1 12:1 13:1 14:0.055555556 
-1 1 12:1 13:1 14:0.086395451 
-1 1 
-1 1 1:0.071428571 2:1 3:1 4:1 11:1 12:1 13:1 
-1 1 1:0.066666667 2:1 3:1 4:1 11:2 
-0 1 1:0.066666667 2:1 3:1 4:1 13:1 14:-0.5 15:1 
-1 1 1:0.25 2:2 3:2 4:1 12:1 13:1 14:0.21428571 
-1 1 12:1 13:1 14:0.055555556 
-1 1 12:1 13:1 14:0.15609756 
-1 1 
-1 1 11:1 12:1 13:1 14:0.016756433 
-0 1 11:1 13:1 14:-0.25 
-1 1 1:0.0625 2:1 3:1 4:1 13:1 14:-0.2 
-1 1 9:1 11:2 12:1 13:1 14:0.039215686 
-1 0 11:2 12:1 13:1 
-1 1 
-1 1 12:1 13:1 14:0.10951327 
-1 1 1:0.066666667 2:1 3:1 4:1 11:1 12:1 13:1 14:0.026315789 
-0 1 6:1 12:1 13:1 14:0.05 
-1 1 12:1 13:1 
-1 1 1:0.055555556 2:1 3:1 4:1 
-1 1 1:0.05 2:1 3:1 4:1 12:1 13:1 14:-0.041666667 
-1 1 11:1 12:1 13:1 14:0.14114011 
-1 0 11:2 12:1 13:1 14:0.022727273 
-1 1 11:1 
-0 0.1377730464625619 6:1 11:1 
-1 1 13:1 14:-0.15 
-1 1 1:0.0625 2:1 3:1 4:1 
-1 1 12:1 13:1 14:0.086395451 
-1 1 12:1 13:1 14:0.086395451 
-0 1 6:1 12:1 13:1 14:0.11111111 
-1 1 12:1 13:1 14:0.031914894 
-1 1 6:1 
-1 1 
-1 1 1:0.2 2:2 3:2 4:1 6:1 12:1 13:1 14:0.31818182 
-1 1 1:0.055555556 2:1 3:1 4:1 
-0 1 11:1 13:1 14:-0.25 
-1 1 12:1 13:1 14:0.17647059 
-1 1 
-1 1 11:1 15:1 
-1 1 1:0.090909091 2:1 3:1 4:1 
-1 1 1:0.066666667 2:1 3:1 4:1 13:1 14:-0.16666667 
-1 1 11:2 12:1 13:1 14:0.2431694 
-1 1 6:1 
-1 1 12:1 13:1 14:0.0079365079 
-1 1 1:0.05 2:1 3:1 4:1 6:1 11:1 12:1 13:1 14:0.25 
-1 1 11:2 
-1 1 11:1 12:1 13:1 14:-0.075 
-1 1 6:1 
-0 1 1:0.047619048 3:1 4:1 12:1 13:1 14:0.086395451 
-1 1 
-1 1 
-0.08114117940302222 1 1:0.076923077 2:1 3:1 4:1 6:1 
-1 1 11:1 
-1 1 11:1 
-1 1 12:1 13:1 14:0.015151515 
-1 1 11:1 12:1 13:1 14:0.125 15:1 
-1 1 5:1 6:1 
-1 1 6:1 12:1 13:1 14:0.19599515 
-1 1 1:0.13333333 2:2 3:2 4:1 12:1 13:1 14:-0.1 
-0 1 1:0.0625 3:1 4:1 11:1 
-1 0 11:2 12:1 13:1 14:0.016756433 
-1 1 1:0.076923077 2:1 3:1 4:1 12:1 13:1 14:0.080645161 
-1 1 11:1 12:1 13:1 14:0.016756433 
-1 1 11:1 
-1 1 11:1 12:1 13:1 14:0.076923077 
-0 1 1:0.066666667 3:1 4:1 11:1 
-1 0.4273097998245082 11:2 12:1 13:1 14:0.078947368 
-1 1 1:0.055555556 2:1 3:1 4:1 12:1 13:1 14:0.13888889 
-1 1 11:1 
-1 1 11:1 
-1 1 
-0 1 1:0.05 2:1 3:1 4:1 6:1 12:1 13:1 14:0.073619632 
-1 1 1:0.11111111 2:2 3:2 4:1 13:1 14:-0.5 
-1 1 12:1 13:1 14:0.29251701 15:1 
-1 1 5:1 6:1 
-1 1 1:0.2 2:3 3:3 4:1 11:1 12:1 13:1 14:-0.16666667 
-1 1 1:0.090909091 3:1 4:1 12:1 13:1 14:0.18410596 
-1 1 1:0.071428571 2:1 3:1 4:1 
-0 1 1:0.058823529 2:1 3:1 4:1 5:1 6:2 11:1 
-0 1 1:0.04 3:1 4:1 12:1 13:1 14:0.046728972 
-1 1 11:1 12:1 13:1 14:0.016756433 
-1 1 11:1 12:1 13:1 14:-0.088235294 
-0 1 1:0.125 2:1 3:2 4:1 12:1 13:1 14:-0.045454545 
-1 1 1:0.052631579 2:1 3:1 4:1 11:1 12:1 13:1 14:0.016756433 
-1 1 11:1 12:1 13:1 14:0.016756433 
-1 1 1:0.052631579 2:1 3:1 4:1 12:1 13:1 14:0.14285714 
-1 1 1:0.047619048 2:1 3:1 4:1 11:2 12:1 13:1 14:0.086395451 
-1 1 12:1 13:1 14:-0.125 
-1 1 1:0.076923077 2:1 3:1 4:1 12:1 13:1 
-1 1 11:1 
-1 1 11:1 
-1 1 11:1 
-0 1 13:1 14:-0.8125 
-1 1 12:1 13:1 14:0.086395451 
-1 1 11:1 12:1 13:1 14:-0.092592593 
-1 1 1:0.11111111 2:1 3:1 4:1 11:1 12:1 13:1 14:-0.16666667 
-1 1 1:0.055555556 2:1 3:1 4:1 11:1 
-1 1 12:1 13:1 14:0.10682261 
-1 1 11:1 12:1 13:1 15:1 
-1 1 12:1 13:1 14:0.074660633 
-1 1 12:1 13:1 14:-0.12962963 
-1 1 12:1 13:1 14:0.086395451 
-1 1 1:0.14285714 2:2 3:2 4:1 12:1 13:1 14:0.080645161 
-0 1 1:0.11111111 2:2 3:2 4:1 6:2 12:1 13:1 14:0.090909091 
-1 1 12:1 13:1 14:-0.026315789 
-1 1 11:2 
-1 1 11:1 12:1 13:1 14:0.016756433 
-1 1 1:0.052631579 2:1 3:1 4:1 11:1 12:1 13:1 14:0.016756433 
-0 1 1:0.14285714 2:1 3:1 4:1 13:1 14:-0.5 
-0 1 1:0.11764706 2:1 3:2 4:1 13:1 14:-0.25 
-1 1 11:1 12:1 13:1 14:0.086395451 
-1 1 11:2 
-1 1 12:1 13:1 14:0.035714286 
-1 1 1:0.083333333 2:1 3:1 4:1 6:1 12:1 13:1 14:0.43274854 
-1 1 1:0.090909091 3:1 4:1 12:1 13:1 14:0.38175676 
-1 1 
-1 1 
-1 1 7:1 12:1 13:1 14:0.086395451 
-1 1 1:0.1 2:2 3:2 4:1 6:1 
-1 1 12:1 13:1 14:0.26923077 
-1 1 12:1 13:1 14:0.140625 
-0 1 13:1 14:-0.5 15:1 
-0 1 13:1 14:-0.8125 
-1 1 1:0.1 2:1 3:1 4:1 11:1 12:1 13:1 14:0.086395451 
-0 1 1:0.13333333 2:1 3:2 4:1 12:1 13:1 14:-0.15789474 
-1 1 1:0.066666667 2:1 3:1 4:1 11:1 
-1 1 1:0.15 2:3 3:3 4:1 12:1 13:1 
-1 1 1:0.0625 2:1 3:1 4:1 12:1 13:1 14:0.086395451 
-1 1 1:0.076923077 2:1 3:1 4:1 12:1 13:1 14:-0.15789474 
-1 1 12:1 13:1 14:-0.16666667 
-1 1 11:1 12:1 13:1 14:-0.15 
-1 1 1:0.055555556 2:1 3:1 4:1 12:1 13:1 14:0.079545455 
-1 1 12:1 13:1 14:-0.75961538 
-1 1 11:1 12:1 13:1 14:0.14114011 
-1 1 11:2 
-1 1 11:1 12:1 13:1 14:0.016756433 
-1 1 12:1 13:1 14:0.086395451 
-1 1 1:0.05 2:1 3:1 4:1 5:1 6:1 12:1 13:1 14:0.16666667 
-1 1 1:0.10526316 2:2 3:2 4:1 6:1 
-1 1 1:0.052631579 2:1 3:1 4:1 11:1 12:1 13:1 14:0.016756433 
-1 1 1:0.058823529 2:1 3:1 4:1 11:1 
-1 1 1:0.076923077 2:1 3:1 4:1 11:1 
-1 1 11:1 
-1 1 1:0.052631579 2:1 3:1 4:1 11:1 
-0 1 1:0.13333333 2:1 3:2 4:1 11:1 12:1 13:1 14:-0.12195122 
-1 1 11:1 12:1 13:1 14:-0.02764977 
-1 1 1:0.027777778 2:1 3:1 4:1 
-1 1 13:1 14:-0.16666667 
-1 1 12:1 13:1 14:0.17857143 
-1 1 1:0.125 2:2 3:2 4:1 13:1 14:-0.5 
-1 1 1:0.13043478 2:3 3:3 4:1 12:1 13:1 14:0.066666667 
-0 1 1:0.1 2:1 3:1 4:1 13:1 14:-0.5 15:1 
-1 1 12:1 13:1 14:0.086395451 
-1 1 12:1 13:1 14:-0.083333333 
-1 1 1:0.125 2:2 3:2 4:1 11:2 
-1 1 11:1 12:1 13:1 14:0.086395451 
-1 1 1:0.2 2:1 3:1 4:1 12:1 13:1 14:-0.0625 
-1 1 1:0.071428571 2:1 3:1 4:1 
-1 1 1:0.0625 2:1 3:1 4:1 5:1 6:1 11:1 
-1 1 12:1 13:1 
-1 1 1:0.071428571 2:1 3:1 4:1 12:1 13:1 14:0.09375 
-1 1 1:0.14285714 2:2 3:2 4:1 12:1 13:1 14:0.065789474 
-1 1 1:0.18181818 2:2 3:2 4:1 11:1 
-1 1 1:0.095238095 2:2 3:2 4:1 
-1 1 
-1 1 1:0.0625 2:1 3:1 4:1 
-1 1 1:0.066666667 2:1 3:1 4:1 12:1 13:1 14:0.11538462 
-1 1 12:1 13:1 14:0.054455446 
-1 1 1:0.055555556 2:1 3:1 4:1 
-1 1 1:0.11111111 2:2 3:2 4:1 12:1 13:1 14:-0.125 
-1 1 11:1 
-1 1 12:1 13:1 14:-0.25 
-1 1 1:0.058823529 2:1 3:1 4:1 11:1 
-1 1 12:1 13:1 14:0.026315789 
-1 1 
-1 1 1:0.045454545 2:1 3:1 4:1 11:1 12:1 13:1 14:0.13120503 
-1 1 1:0.11111111 2:1 3:2 4:1 
-1 1 1:0.052631579 2:1 3:1 4:1 12:1 13:1 14:0.13888889 
-1 1 
-1 1 1:0.125 2:2 3:2 4:1 
-1 1 12:1 13:1 14:0.080645161 
-1 1 12:1 13:1 14:0.44370229 
-1 1 11:1 
-1 1 11:1 12:1 13:1 14:0.17348398 
-1 1 12:1 13:1 14:-0.14285714 
-0 1 6:1 12:1 13:1 14:0.10682261 
-1 1 1:0.46153846 2:6 3:6 4:1 11:1 12:1 13:1 14:0.21428571 
-1 1 1:0.15 2:3 3:3 4:1 12:1 13:1 14:0.038461538 
-1 1 12:1 13:1 14:-0.34375 
-1 1 12:1 13:1 14:-0.16666667 
-1 1 13:1 14:-0.16666667 
-1 1 1:0.125 2:1 3:2 4:1 
-1 1 1:0.15789474 2:2 3:3 4:1 12:1 13:1 14:-0.1 
-1 1 1:0.0625 2:1 3:1 4:1 6:1 12:1 13:1 14:0.14266667 
-1 1 1:0.14285714 2:2 3:2 4:1 11:1 12:1 13:1 14:0.016756433 
-1 1 1:0.0625 3:1 4:1 
-1 1 12:1 13:1 14:0.10714286 
-1 1 
-1 1 11:2 12:1 13:1 14:0.19135802 
-0 1 1:0.0625 2:1 3:1 4:1 6:1 
-1 1 12:1 13:1 14:0.0625 
-1 1 11:1 
-1 1 1:0.0625 2:1 3:1 4:1 12:1 13:1 14:0.13945578 
-0 1 6:1 12:1 13:1 14:0.1 
-1 1 12:1 13:1 14:0.073619632 
-0 1 13:1 14:-0.5 
-1 1 1:0.045454545 2:1 3:1 4:1 12:1 13:1 14:-0.15 
-0.9939769918316409 1 1:0.125 2:1 3:1 4:1 11:1 13:1 14:-0.2 
-1 1 12:1 13:1 14:-0.071428571 
-1 1 12:1 13:1 14:0.086395451 
-0 1 1:0.066666667 2:1 3:1 4:1 13:1 14:-0.5 
-1 1 12:1 13:1 14:0.074660633 
-0 1 13:1 14:-0.775 
-1 1 1:0.0625 2:1 3:1 4:1 11:1 
-1 1 1:0.05 2:1 3:1 4:1 11:1 12:1 13:1 14:-0.15789474 
-1 1 1:0.10526316 2:2 3:2 4:1 
-1 1 1:0.076923077 2:1 3:1 4:1 
-1 1 12:1 13:1 14:0.048387097 
-1 1 1:0.16666667 2:2 3:2 4:1 11:1 12:1 13:1 14:0.015151515 
-1 1 11:2 12:1 13:1 14:0.086395451 
-1 1 12:1 13:1 14:0.13268523 
-1 1 
-0 1 1:0.0625 2:1 3:1 4:1 13:1 14:-0.5 
-0 1 1:0.047619048 2:1 3:1 4:1 6:1 12:1 13:1 14:-0.0625 
-1 1 12:1 13:1 14:0.15277778 
-1 1 1:0.05 3:1 4:1 
-1 1 1:0.10526316 2:2 3:2 4:1 
-1 1 6:1 12:1 13:1 14:0.47058824 
-1 1 
-1 1 
-0 1 13:1 14:-0.5 
-1 1 1:0.045454545 3:1 4:1 12:1 13:1 14:0.3 
-1 1 1:0.045454545 2:1 3:1 4:1 13:1 14:-0.33333333 
-1 1 12:1 13:1 14:0.1 
-1 1 1:0.1 2:1 3:1 4:1 11:1 
-1 1 5:1 6:1 11:1 12:1 13:1 14:0.125 
-1 1 1:0.08 2:2 3:2 4:1 11:2 
-1 1 1:0.058823529 2:1 3:1 4:1 11:2 12:1 13:1 14:-0.055555556 
-0 1 1:0.055555556 3:1 4:1 12:1 13:1 14:-0.75961538 
-1 1 12:1 13:1 14:0.13333333 
-1 1 12:1 13:1 14:0.17348398 
-1 1 1:0.14285714 2:1 3:1 4:1 
-1 1 1:0.16666667 2:2 3:2 4:1 5:1 6:1 
-1 1 
-1 1 12:1 13:1 14:0.095744681 
-1 1 11:1 12:1 13:1 14:0.025 
-1 1 1:0.047619048 2:1 3:1 4:1 5:1 6:1 12:1 13:1 14:0.035714286 
-1 1 12:1 13:1 14:-0.16666667 
-1 1 12:1 13:1 14:0.086395451 
-1 1 11:1 
-1 1 1:0.11764706 2:2 3:2 4:1 12:1 13:1 14:0.074074074 
-1 1 12:1 13:1 14:0.10714286 
-1 1 
-1 1 7:1 12:1 13:1 14:0.17348398 
-1 1 12:1 13:1 14:0.10682261 
-1 1 1:0.055555556 2:1 3:1 4:1 11:1 
-1 1 1:0.055555556 2:1 3:1 4:1 11:1 
-1 1 1:0.058823529 2:1 3:1 4:1 11:1 12:1 13:1 14:0.17864078 
-1 1 1:0.052631579 2:1 3:1 4:1 
-1 1 11:1 
-1 1 
-1 1 1:0.047619048 2:1 3:1 4:1 
-1 1 
-1 1 1:0.11764706 2:2 3:2 4:1 
-1 1 1:0.10526316 2:1 3:2 4:1 11:1 12:1 13:1 14:0.1875 
-1 1 
-1 1 
-0 1 1:0.076923077 3:1 4:1 12:1 13:1 14:0.086395451 
-1 0 11:2 12:1 13:1 14:0.016756433 
-1 1 11:2 
-0 1 1:0.058823529 3:1 4:1 11:1 12:1 13:1 14:0.093023256 
-1 1 12:1 13:1 14:0.175 
-1 1 
-1 1 11:1 12:1 13:1 14:-0.03125 
-1 1 11:1 
-1 1 12:1 13:1 14:0.010204082 
-1 1 11:1 12:1 13:1 14:0.086395451 
-1 1 12:1 13:1 14:0.2431694 
-0 1 11:1 12:1 13:1 14:-0.75961538 
-1 1 5:1 6:1 12:1 13:1 14:-0.125 
-1 1 
-1 1 12:1 13:1 14:0.086395451 
-1 1 12:1 13:1 14:0.2431694 
-1 1 
-1 1 
-1 1 
-1 1 11:1 12:1 13:1 14:0.13068182 
-1 1 
-1 1 11:1 
-1 1 11:1 
-1 1 12:1 13:1 
-1 1 
-0 1 1:0.125 3:2 4:1 
-1 1 12:1 13:1 14:0.21052632 
-0 1 13:1 14:-0.5 
-1 1 1:0.14285714 2:2 3:2 4:1 11:1 
-1 1 12:1 13:1 14:0.2 
-1 1 11:1 
-0 0.01991987838862302 1:0.037037037 2:1 3:1 4:1 6:1 11:2 
-1 1 12:1 13:1 14:0.11111111 
-1 1 1:0.076923077 2:1 3:1 4:1 11:1 12:1 13:1 14:-0.33333333 
-1 1 
-1 1 1:0.0625 2:1 3:1 4:1 13:1 14:-0.33333333 
