svm_type c_svc
kernel_type rbf
gamma 0.0102041
nr_class 3
total_sv 5981
rho -0.887748 -1.3507 -0.115284
label 1 2 3
nr_sv 2233 1133 2615
SV
0 1 1:-0.1 8:1 14:1 15:-0.5 17:3 19:2 20:2 78:1 
0 1 1:1 13:2 14:1 15:0.75 19:6 20:1 21:7 24:3 63:1 
0 1 1:0.4 8:1 16:2 17:1 19:2 20:2 21:1 25:1 78:1 
1 1 1:0.275 13:2 14:2 15:0.275 19:4 20:6 21:1 24:2 39:1 56:1 
1 1 1:-1 12:1 14:1 15:-0.4 17:3 19:5 20:3 21:1 25:1 53:1 76:1 
0 1 1:0.8 2:0.13333333 5:1 13:2 15:0.8 17:1 19:5 20:5 21:3 25:1 
0 1 1:0.8 13:1 15:0.8 19:3 20:5 21:7 93:1 
0 0.05346039202909367 1:0.4 8:1 17:3 19:3 20:1 21:9 27:1 78:1 
0 1 1:0.425 13:2 14:1 15:0.675 19:2 20:2 21:3 24:2 51:1 
0 1 1:0.975 13:2 15:1.1 19:1 20:2 24:2 74:1 
0 1 1:0.075 2:0.42857143 3:1 5:1 13:1 15:0.2 17:2 19:3 20:1 21:1 26:1 53:1 64:1 98:1 
1 1 1:-0.375 12:1 13:1 14:1 15:0.35 17:1 19:5 20:3 21:4 24:1 25:1 
0 1 1:0.075 13:1 14:1 15:0.075 17:3 19:2 20:3 21:1 27:1 39:1 
0 1 1:0.4 8:1 17:1 19:3 20:2 21:1 25:1 78:1 
1 1 13:1 15:0.125 16:1 19:2 20:2 24:1 75:1 
1 1 1:0.15 13:2 14:2 15:0.275 19:7 20:2 21:1 24:1 56:1 79:1 
0 1 19:4 20:1 24:1 81:1 
0 1 1:0.975 13:3 15:1.1 17:1 19:2 20:2 24:1 25:1 
1 1 1:0.425 13:2 14:1 15:0.425 19:3 20:3 21:3 24:1 75:1 
0 1 1:-0.2 12:1 13:1 14:1 15:0.4 17:1 19:4 20:1 21:1 24:1 25:1 28:1 75:1 
0 1 1:0.6 2:0.15384615 5:1 13:1 15:0.6 16:1 17:2 19:2 20:4 21:4 24:1 69:1 
0 1 1:1.125 13:3 15:1.125 19:3 20:4 24:1 35:1 93:1 
0 1 1:1.175 8:1 13:2 15:0.9 17:3 19:10 20:2 25:1 62:1 78:1 
1 1 1:0.4 13:6 14:4 15:-0.5 18:4 19:8 20:4 24:2 53:1 
0 1 1:0.6 2:0.16666667 3:1 5:1 13:2 15:0.6 19:2 20:3 
1 1 19:3 20:3 21:3 24:1 
1 1 1:-0.95 12:1 13:1 14:1 15:-0.075 17:1 19:3 20:2 24:2 25:1 
1 1 1:-0.375 2:0.11111111 4:1 5:1 14:1 15:-0.375 17:1 19:6 20:2 25:1 75:1 
1 1 1:-0.2 13:4 14:1 15:0.05 19:3 20:1 24:3 29:1 76:1 
1 1 1:-0.1 13:2 14:1 15:-0.1 19:3 21:1 61:1 
0 1 2:0.14285714 5:1 17:1 19:1 20:2 25:1 
0 1 2:0.16666667 5:1 17:1 19:2 20:2 21:1 25:1 
1 1 1:-3.7 13:3 14:6 15:-2.95 19:8 20:5 21:1 24:4 29:1 61:1 
0 1 1:0.725 2:0.083333333 5:1 13:3 15:1.325 17:2 19:8 20:1 25:1 
0 1 1:0.375 13:1 15:0.125 19:3 20:1 21:1 
1 1 1:-1.55 12:1 13:1 14:1 15:-0.2 19:7 20:4 21:6 50:1 69:1 
1 1 1:0.05 2:0.2 3:1 4:1 5:1 13:1 14:1 15:0.05 16:1 19:3 20:3 21:2 
0 1 1:1.175 13:3 15:1.3 19:6 20:2 24:3 76:1 93:1 
1 1 1:0.725 12:1 13:1 14:1 15:0.6 19:5 20:3 21:1 24:1 37:1 
0 1 1:0.675 13:3 14:1 15:0.55 17:1 19:3 21:4 24:5 25:1 
1 1 19:3 20:2 
0 0.5566684831341803 1:0.925 2:0.75 3:4 4:1 5:1 13:4 14:1 15:0.925 19:4 20:4 21:4 34:1 75:1 
1 1 1:-0.4 13:2 14:3 15:-0.15 16:1 17:1 19:4 20:4 24:1 66:1 94:1 
0 1 1:0.6 12:1 13:1 14:1 15:0.6 17:1 19:3 20:2 21:4 25:1 82:1 93:1 
0 1 1:0.8 2:0.125 5:1 13:3 15:0.925 19:4 20:1 24:2 33:1 
1 1 1:-0.525 12:1 13:2 14:1 15:0.2 19:1 20:3 21:1 24:3 31:1 34:1 
1 1 1:-0.275 13:1 14:2 15:-0.15 16:1 19:4 20:3 21:3 24:1 
1 1 1:-0.175 13:1 14:1 15:-0.175 19:1 20:2 94:1 
0 1 1:1.05 13:2 15:0.8 19:3 20:4 21:3 24:1 
0 1 1:0.625 13:3 15:0.75 19:5 20:4 21:1 24:1 76:1 
0 1 1:0.575 13:3 14:1 15:0.575 16:1 17:1 19:3 20:3 21:1 24:2 25:1 76:1 82:1 
0 1 1:0.8 2:0.1 3:1 5:1 13:2 14:1 15:0.8 16:2 19:4 20:3 24:2 69:1 
1 0 1:-0.2 8:1 12:1 13:3 14:4 15:-0.375 17:1 19:3 20:4 21:1 78:1 82:1 
1 1 1:0.525 13:3 14:2 15:0.525 19:3 20:9 21:2 82:1 89:1 
1 1 1:-0.2 2:0.055555556 5:1 13:2 14:1 15:0.675 19:8 20:5 21:3 24:2 33:1 38:1 91:1 
0 1 1:0.375 13:1 15:0.375 19:4 24:1 
0 1 1:0.475 13:1 14:1 15:0.475 17:1 19:1 24:2 25:1 74:1 
1 1 13:1 14:1 19:4 20:3 21:1 
0 1 1:0.95 13:4 14:1 15:1.7 19:4 20:4 24:1 
0 1 1:0.775 8:1 13:2 15:0.375 19:1 20:3 21:2 39:1 78:1 
0 1 1:0.5 2:0.1 5:1 13:1 15:0.5 17:2 19:5 20:1 21:1 24:1 25:1 47:1 
1 1 1:-0.075 13:1 14:1 15:-0.075 19:3 20:1 24:1 
1 1 1:-0.125 13:2 14:1 15:-0.125 19:4 20:2 21:3 
0 1 1:1.375 13:4 15:1.375 19:4 20:3 21:3 24:1 
1 1 1:-0.7 12:1 13:4 14:3 15:0.65 19:6 20:5 21:1 70:1 75:1 94:1 
1 1 1:-0.275 8:1 13:1 14:1 15:0.075 19:4 20:2 21:4 24:3 64:1 78:1 
1 1 1:0.825 13:4 14:2 15:1.3 19:10 20:3 21:3 24:3 43:1 62:1 
1 1 1:0.425 13:2 14:1 15:0.3 19:6 20:4 24:1 
0 1 1:0.275 13:1 15:0.4 19:2 20:1 24:1 
1 1 1:0.075 2:0.083333333 3:1 5:1 13:2 14:1 15:0.075 19:8 21:3 43:1 98:1 
0 1 1:1.3 2:0.16666667 5:1 13:4 15:1.3 19:1 20:3 24:1 62:1 
1 1 1:-0.225 13:1 14:1 15:-0.1 19:1 20:2 24:4 
1 1 1:-0.675 13:1 14:1 15:0.075 19:4 20:3 21:4 24:1 68:1 
0 1 1:0.6 2:0.16666667 5:1 13:1 15:0.6 17:1 19:3 20:1 24:1 25:1 33:1 53:1 
1 1 1:-5.5511151e-17 13:3 14:1 15:0.125 19:4 85:1 97:1 
0.7787998772784329 0.5829489071381101 1:-0.15 8:1 12:1 13:6 14:3 15:-0.075 16:1 17:1 19:10 20:4 21:11 24:1 25:1 34:1 78:1 98:1 
1 1 1:-1.225 12:1 13:1 14:3 15:-1.225 19:7 20:4 21:8 24:2 31:1 
0 1 1:0.8 13:2 15:0.925 19:3 21:6 24:2 
1 1 1:0.225 13:2 14:1 15:0.225 19:6 20:2 21:3 24:1 75:1 
1 1 1:-0.025 2:0.11111111 5:1 13:1 14:2 15:-0.025 19:5 20:1 24:1 
1 1 1:-1.675 13:2 14:3 15:-0.8 19:4 20:3 21:2 24:1 
1 1 1:0.4 13:1 15:0.4 19:1 20:3 21:3 24:1 
1 1 1:0.625 13:2 14:1 15:0.625 19:10 20:1 21:4 24:2 
1 1 1:-1.275 13:1 14:2 15:-1.275 16:1 19:4 20:4 21:4 82:1 
0 1 1:0.975 13:2 15:1.1 19:5 20:2 21:1 24:1 57:1 
1 1 1:0.2 13:1 14:1 15:0.2 19:5 20:5 21:2 75:1 
1 1 1:-0.55 13:2 14:1 15:0.2 19:2 20:1 24:2 75:1 
1 1 1:-0.75 13:1 14:1 15:-0.75 17:1 19:3 25:1 76:1 
0 1 1:0.4 2:0.125 5:1 13:1 15:0.4 19:4 20:1 
0 1 1:0.6 13:1 15:0.6 19:4 21:1 24:1 33:1 
0 1 1:0.725 13:2 15:0.725 19:2 20:3 
0 1 1:0.825 13:3 14:1 15:0.825 19:1 20:5 45:1 
1 1 1:0.3 13:3 14:1 15:0.3 19:4 20:5 24:1 81:1 
0 1 1:0.25 10:1 13:2 14:1 15:0.25 19:5 20:2 21:1 24:2 43:1 46:1 
0 1 1:0.8 13:1 15:0.8 19:3 20:1 24:1 51:1 
0 0.4113415412434647 1:-0.075 12:1 13:2 15:0.525 17:4 19:4 20:8 21:5 24:1 25:1 27:1 62:1 
0 1 1:0.525 13:3 15:0.65 19:2 20:2 24:2 
0 1 1:0.475 13:1 15:0.6 19:5 21:3 43:1 
1 1 1:-0.85 12:1 14:4 15:-1.1 19:6 20:1 24:2 
0 1 1:-0.125 2:0.11111111 3:1 5:1 13:2 15:0.75 17:2 19:1 20:2 21:3 24:1 26:1 
1 1 1:0.275 13:2 14:1 15:0.4 16:1 19:3 20:3 21:2 24:1 43:1 50:1 59:1 
1 1 19:5 20:1 21:2 83:1 
0 1 1:0.3 13:2 14:1 15:0.3 17:1 19:4 20:3 21:4 24:1 25:1 
1 1 1:-0.125 13:1 14:2 15:-0.125 19:6 20:2 21:1 24:2 33:1 49:1 66:1 75:1 
1 1 1:0.325 12:1 13:3 15:1.05 19:2 20:2 21:4 24:3 
0 1 1:0.225 13:2 14:1 15:0.225 17:1 19:5 20:1 21:1 24:2 25:1 45:1 76:1 
1 1 1:0.6 13:1 15:0.6 16:1 19:4 20:3 24:1 
0.8541239020176795 1 1:0.6 13:2 14:1 15:0.6 19:3 20:3 21:6 24:3 35:1 54:1 82:1 
1 1 1:0.2 12:1 13:2 14:3 15:0.2 16:1 17:1 19:6 20:2 51:1 
0 1 17:1 19:4 20:3 25:1 
0 1 1:0.95 13:2 15:0.95 19:7 21:4 24:4 
1 1 1:-0.875 20:2 
0 1 1:-0.125 17:1 19:3 20:1 24:2 25:1 
1 1 1:-0.225 12:1 13:1 15:0.375 19:1 20:3 21:1 24:1 91:1 
0 1 1:1.05 13:4 15:1.05 19:2 20:2 24:2 40:1 
0 1 1:1.1 13:2 15:1.1 17:3 19:9 24:4 25:1 56:1 
1 1 1:-0.6 12:1 13:1 14:1 19:2 20:4 21:2 63:1 
0 1 1:0.075 2:0.4 3:1 4:1 5:1 13:2 14:2 15:0.15 17:3 19:1 20:2 21:1 27:1 92:1 
1 1 1:0.075 12:1 13:1 15:0.8 19:4 20:3 21:1 93:1 
1 1 1:0.475 13:1 15:0.6 16:3 19:1 24:1 43:1 
0 1 1:0.675 13:2 15:0.8 19:4 24:2 33:1 75:1 
1 1 1:-0.275 13:1 14:1 15:-0.275 16:1 17:1 19:4 20:2 25:1 
1 1 1:-1.3 13:1 14:3 15:-1.3 19:6 20:3 24:1 29:1 31:1 69:1 
1 1 1:-2.1 13:4 14:4 15:-0.475 19:2 20:5 24:1 51:1 85:1 94:1 
0 1 1:0.9 13:3 15:0.9 17:1 19:4 20:1 21:2 24:3 25:1 43:1 81:1 
1 1 1:-0.5 13:1 14:1 15:0.25 16:1 17:1 19:5 20:3 21:4 24:1 25:1 
0 1 1:0.725 13:3 15:1.1 19:4 20:3 21:5 24:3 32:1 
0 1 1:0.65 13:3 15:0.65 19:2 20:2 24:2 
0 1 1:0.325 13:1 14:1 15:0.075 16:1 17:2 19:4 20:7 21:3 24:1 25:1 
0 1 1:1.175 13:4 15:1.175 17:1 19:4 20:2 24:1 25:1 40:1 
0 1 1:0.325 13:2 15:0.325 16:2 17:2 19:3 20:2 24:1 25:1 35:1 53:1 
1 1 1:0.125 13:1 15:0.125 19:4 20:3 21:3 24:2 
1 1 1:-0.35 13:1 15:0.4 19:2 20:3 21:1 24:1 34:1 64:1 75:1 
0 1 17:1 19:3 20:5 25:1 43:1 
1 1 1:0.225 12:1 13:3 14:1 15:0.95 19:3 20:4 21:2 24:1 34:1 
0 1 1:1.05 13:2 15:0.8 19:3 20:4 21:3 24:1 
0 1 1:0.5 13:3 15:0.75 17:3 19:3 20:2 24:1 25:1 
0 1 1:0.75 13:2 15:0.75 19:4 20:5 21:1 24:1 
0 1 1:0.6 2:0.14285714 5:1 13:1 15:0.6 17:1 19:3 20:1 24:1 25:1 43:1 59:1 
1 1 1:-1.025 13:2 14:3 15:-1.025 17:2 19:4 20:3 21:1 24:1 25:1 90:1 
1 1 1:0.075 13:2 14:1 15:0.2 19:3 20:3 21:3 24:2 41:1 43:1 
1 1 1:0.325 13:2 14:1 15:0.325 19:3 20:2 21:1 24:2 28:1 31:1 
1 1 1:0.225 13:2 14:1 15:0.225 19:2 20:3 24:1 94:1 
0 1 1:0.6 13:1 15:0.6 19:5 24:1 33:1 43:1 
0 1 1:1.4 13:4 14:1 15:1.4 16:1 19:3 20:4 21:3 24:2 93:1 
0 1 1:0.4 13:1 15:0.4 17:1 19:3 20:3 24:1 25:1 34:1 
1 1 2:0.11111111 5:1 19:4 20:2 21:2 76:1 
1 1 1:-0.15 6:1 7:1 19:4 21:3 53:1 
0 1 13:1 15:0.125 17:3 19:6 20:2 21:1 24:1 27:1 
0 1 17:1 19:5 20:2 25:1 
0 1 1:0.5 13:1 15:0.5 17:1 19:3 20:2 24:1 25:1 91:1 
0 1 1:0.475 13:1 15:0.6 19:1 23:1 24:2 43:1 59:1 
1 1 1:-0.05 13:2 14:2 15:0.15 19:2 20:2 21:1 24:3 41:1 
0 1 1:0.725 2:0.2 5:1 13:2 15:0.725 19:7 20:2 24:1 45:1 75:1 
0 1 1:0.25 13:1 15:0.25 19:1 20:2 
0 1 1:-0.65 14:1 15:-0.4 17:3 19:7 20:2 25:1 
1 1 1:0.075 13:1 14:1 15:0.075 19:4 20:2 21:4 
0 0.7904278162450543 1:0.775 13:2 15:0.9 17:2 19:6 20:1 21:1 24:1 26:1 43:1 62:1 
0 1 1:0.725 13:2 15:0.725 19:3 20:3 
0 1 1:1.025 13:3 14:1 15:1.025 19:6 20:3 
0 1 1:-0.125 19:3 24:2 36:1 43:1 
1 1 1:0.675 13:3 14:1 15:0.675 19:4 20:3 21:6 24:1 62:1 
0 1 1:1.175 13:4 15:1.175 19:4 20:2 24:1 40:1 
1 1 1:-0.475 13:2 14:1 15:-0.475 19:1 20:4 21:1 24:1 
1 1 1:-0.1 13:1 14:1 15:-0.1 19:3 20:3 21:3 24:1 
1 1 1:-2.325 12:1 13:2 14:2 15:-0.85 19:4 20:4 21:2 24:2 31:1 91:1 
1 1 1:-0.675 2:0.11111111 3:1 5:1 12:2 13:3 14:4 15:-0.3 19:5 20:7 21:2 24:2 39:1 47:1 76:1 
1 1 1:-0.2 13:2 14:1 15:0.4 19:2 20:1 21:6 24:3 42:1 77:1 
0 1 1:1.625 13:3 15:1.625 19:7 20:3 24:1 69:1 
0 1 1:0.6 13:1 15:0.6 19:2 20:2 21:1 24:1 57:1 
1 1 1:-1.075 13:1 14:2 15:-0.325 19:1 20:4 21:2 24:1 
0 1 19:5 24:1 43:1 
1 1 1:0.45 13:2 14:2 15:0.45 19:5 20:4 21:6 
0 1 1:0.525 13:2 15:0.525 19:3 20:2 21:3 
1 1 1:-0.3 13:1 14:2 15:-0.3 19:1 20:4 76:1 94:1 
1 1 1:-0.125 19:3 20:3 21:1 24:1 49:1 
0 1 1:-0.15 13:1 15:0.6 17:1 19:2 20:4 21:1 25:1 82:1 
1 1 1:-0.05 12:1 13:2 14:1 15:0.55 16:2 19:3 20:2 21:1 24:2 43:1 
1 1 1:-0.3 13:1 14:2 15:-0.3 19:3 20:1 21:1 24:2 
0 1 16:1 17:1 19:2 20:4 21:2 25:1 43:1 
1 1 19:1 20:7 21:1 91:1 
0 1 1:0.45 13:2 15:0.45 17:1 19:6 20:2 24:1 25:1 35:1 75:1 
1 1 1:-0.75 19:4 24:1 
0 1 1:1.25 13:3 15:1.25 19:7 20:1 21:3 24:1 40:1 
0 1 1:0.6 13:1 15:0.6 19:6 20:2 
0 1 1:1.275 13:3 15:1.4 19:4 24:1 75:1 
0 1 1:0.4 13:1 15:0.4 19:4 20:1 75:1 
1 0 1:0.05 12:1 13:1 14:2 15:0.05 17:3 19:8 20:1 21:6 24:2 25:1 
0 1 1:0.8 2:0.1 5:1 13:2 15:0.8 17:1 19:4 20:2 24:2 25:1 48:1 81:1 88:1 
0 1 1:1.175 2:0.125 5:1 13:4 15:1.175 17:1 19:2 20:5 25:1 39:1 88:1 
1 1 1:-0.15 13:1 15:0.6 19:7 20:3 21:1 24:2 96:1 
1 1 1:-0.625 14:2 15:-1 19:4 20:4 21:3 24:1 53:1 92:1 
0 1 1:0.4 2:0.125 5:1 13:1 15:0.4 17:3 19:4 20:2 24:1 27:1 
0 1 1:0.4 13:1 15:0.4 19:5 20:1 24:1 
0 1 1:0.85 13:3 15:0.85 19:2 20:4 24:2 69:1 75:1 
0 1 1:0.525 13:2 15:0.525 19:4 20:1 53:1 
0 1 1:0.25 2:0.25 5:1 13:1 15:0.25 17:2 19:2 20:2 24:2 25:1 
0 1 1:0.875 13:2 15:1 19:2 24:1 40:1 59:1 
1 0.6208171249276405 1:-1.075 2:0.15384615 3:1 4:1 5:1 10:1 12:1 13:2 14:3 15:-1.075 17:1 19:4 20:3 21:1 24:1 25:1 34:1 46:1 92:1 
1 1 1:-0.625 14:1 15:-0.5 19:4 20:4 21:4 24:1 39:1 43:1 
1 1 1:0.075 13:2 14:2 15:0.075 19:3 24:3 75:1 80:1 
0 1 1:-0.2 13:2 14:1 15:0.675 19:4 20:4 21:3 24:1 39:1 56:1 66:1 
0 1 1:0.675 13:3 14:1 15:0.675 19:4 20:3 21:1 24:1 47:1 
1 1 1:-0.525 2:0.071428571 3:1 5:1 13:1 14:1 15:-0.4 17:2 19:2 20:2 21:7 25:1 
0 1 1:-0.025 2:0.11111111 5:1 13:3 15:0.725 16:1 17:1 19:2 20:3 21:1 24:1 25:1 
0 1 1:-0.125 13:2 15:0.625 17:4 19:2 20:4 25:1 26:1 39:1 
0 1 1:0.4 13:2 14:1 15:1 19:5 20:3 24:2 33:1 
0 1 1:0.225 13:2 14:1 15:0.6 20:1 21:1 24:1 
0 1 17:2 19:3 20:2 21:1 24:2 25:1 
1 1 1:0.4 13:1 15:0.4 16:2 19:2 20:3 24:2 
0 1 1:0.6 13:1 15:0.6 19:1 20:1 24:1 43:1 59:1 76:1 
0 1 1:0.875 13:3 14:1 15:0.875 19:2 20:5 24:1 56:1 64:1 
1 1 1:0.15 13:3 14:1 15:0.15 19:7 20:5 24:2 
0 1 1:0.6 13:1 15:0.6 16:1 19:4 20:2 24:1 
0 1 1:0.875 13:3 15:1.375 17:1 19:6 20:2 21:3 24:1 25:1 
1 1 1:-1 14:3 15:-1 19:2 20:3 21:4 24:2 49:1 
0 1 1:0.8 13:3 14:1 15:0.8 17:1 19:3 20:3 21:1 24:1 25:1 
1 1 1:-0.775 13:1 14:1 15:-0.275 17:2 19:2 20:2 21:3 24:2 25:1 
0 1 1:-0.075 13:1 14:1 15:-0.075 17:2 19:2 20:3 21:3 25:1 
1 0 1:-1.95 2:0.05 5:1 10:1 12:2 13:6 14:6 15:-1.5 16:1 18:4 19:4 20:8 21:2 24:1 46:1 
0 1 1:-0.375 2:0.28571429 5:1 10:1 12:1 14:1 15:-0.125 17:4 19:4 25:1 43:1 46:1 
0 0.8372530336441718 1:1 13:2 14:1 15:1 19:7 20:2 21:7 24:3 53:1 56:1 75:1 
1 1 1:-0.025 2:0.11111111 5:1 13:1 14:2 15:-0.025 19:7 20:1 24:1 
0 1 1:0.05 13:2 14:2 15:0.05 17:1 19:3 20:2 24:1 25:1 
0 1 1:0.85 13:4 14:1 15:0.85 19:7 20:3 21:2 24:2 35:1 53:1 93:1 
0 1 1:0.4 12:1 13:2 14:1 15:0.525 17:3 19:7 20:1 27:1 43:1 
0 1 8:1 14:1 15:-0.4 19:5 20:1 75:1 78:1 
0 0.886461958580218 1:1.775 13:4 15:1.9 19:5 20:1 21:1 24:4 76:1 
0 1 1:0.4 13:1 15:0.4 17:3 19:1 20:2 21:3 27:1 62:1 
0 1 1:0.275 8:1 10:1 16:1 19:4 21:1 24:1 43:1 46:1 78:1 
1 1 19:4 20:2 24:1 
1 1 1:-1.15 13:2 14:2 15:-0.4 17:1 19:3 20:5 24:3 25:1 
0 1 1:0.4 13:1 15:0.4 19:3 24:2 34:1 75:1 
1 1 1:-0.075 13:2 14:1 15:-0.075 19:2 20:3 21:1 
0 1 1:0.45 13:2 15:1.2 19:2 20:4 24:1 
0 1 1:1.475 13:3 15:1.6 17:1 19:8 20:1 21:1 24:2 25:1 
0 1 1:0.175 8:1 13:1 14:1 15:-0.1 19:4 20:4 21:1 43:1 64:1 78:1 
0 1 1:1.125 13:3 15:1.125 19:2 20:5 21:1 43:1 
1 1 1:-0.5 14:1 15:-0.5 17:1 19:1 20:1 25:1 53:1 
0 1 17:2 19:2 20:2 26:1 64:1 76:1 
0 1 1:-0.55 13:1 15:0.2 17:1 19:1 20:2 25:1 39:1 
0 1 1:0.6 13:1 15:0.6 19:3 20:1 96:1 
0 1 1:0.475 13:2 15:0.85 19:4 20:2 21:3 24:1 74:1 
0 1 1:0.25 13:4 14:1 15:1.05 19:4 20:2 24:2 52:1 85:1 
0 1 1:0.525 13:2 15:0.525 17:2 19:4 20:1 21:5 24:1 26:1 43:1 
0 1 17:1 19:3 20:1 25:1 75:1 92:1 
0 1 1:0.975 13:3 15:0.975 19:7 20:3 24:1 69:1 
1 1 1:-0.05 13:1 14:2 15:-0.05 19:6 20:2 21:3 75:1 
1 1 1:-0.8 12:2 13:1 14:1 15:-0.075 16:1 17:1 19:6 20:1 21:1 24:1 25:1 36:1 
0 1 17:1 19:3 20:2 24:1 25:1 
0 1 1:0.6 13:1 15:0.6 16:1 19:4 20:1 24:1 
1 1 1:-0.1 2:0.11111111 5:1 13:1 14:2 15:-0.1 19:1 20:4 24:1 
0 1 1:0.925 13:1 15:0.8 19:1 21:1 24:1 30:1 
1 0.541513411580694 1:-0.75 12:1 13:1 14:1 15:0.1 17:1 19:2 20:2 21:3 24:3 25:1 91:1 
0 0.3356987114239798 1:1.2 13:2 15:1.2 19:7 20:2 21:7 24:2 53:1 56:1 57:1 
0 1 17:3 19:1 20:1 25:1 26:1 
0 1 1:0.725 13:3 15:0.85 19:5 20:1 24:1 56:1 
0 1 1:1.025 2:0.22222222 3:1 5:1 13:2 15:0.775 17:3 19:3 20:3 24:2 27:1 43:1 98:1 
0 1 1:-0.275 2:0.071428571 5:1 13:1 14:1 15:-0.275 17:4 19:5 20:4 24:2 25:1 27:1 
0.3605200576575075 1 1:0.4 2:0.125 5:1 13:1 15:0.4 19:3 20:2 21:3 
0 1 1:1.125 8:1 13:2 15:0.725 19:7 20:1 43:1 75:1 78:1 
0 1 1:0.6 13:1 15:0.6 19:2 20:1 
1 1 1:-0.975 13:2 14:3 15:0.025 19:2 20:5 21:5 24:3 
0 1 1:0.525 2:0.1 5:1 13:2 15:1.4 16:2 19:2 20:2 21:2 24:2 28:1 33:1 
1 1 1:-0.275 13:2 14:1 15:-0.275 19:2 20:2 21:8 24:2 
0 1 17:4 19:8 20:2 21:3 25:1 43:1 75:1 
1 1 1:0.6 13:2 15:0.725 16:3 19:1 20:1 21:1 24:1 43:1 59:1 
0 1 1:0.475 13:1 15:0.6 16:1 19:3 20:1 24:1 43:1 59:1 
0 1 1:0.1 13:1 14:1 15:0.1 17:1 20:2 25:1 
0 1 1:1.05 13:3 15:1.05 19:3 20:4 93:1 
0 1 1:0.175 13:3 14:1 15:1.175 19:3 20:5 21:3 24:1 45:1 64:1 
1 1 1:0.6 13:4 14:3 15:0.6 19:9 20:2 21:6 24:2 56:1 
0 1 1:1.025 13:2 15:0.775 19:3 20:4 21:1 24:1 
0 1 1:-0.15 13:1 15:0.6 17:1 19:1 20:1 21:1 25:1 
0 1 1:0.725 2:0.2 5:1 13:2 15:0.725 19:7 20:2 24:1 45:1 75:1 
0 1 1:0.625 13:1 15:0.625 19:3 20:3 
0 1 1:-0.3 13:2 15:0.45 17:1 19:6 20:3 24:1 25:1 
1 1 1:-0.2 8:1 12:1 13:1 14:1 19:5 20:4 21:1 47:1 78:1 
0 1 1:0.8 13:1 15:0.8 19:4 24:1 30:1 43:1 
0 1 1:0.6 2:0.42857143 3:1 5:1 13:1 15:0.6 19:3 24:3 33:1 
0 1 1:0.2 13:1 14:1 15:0.2 17:2 19:4 20:2 26:1 69:1 
0 1 1:0.525 13:2 15:0.525 17:2 19:5 20:1 24:1 25:1 43:1 
0 1 17:3 19:5 20:2 25:1 53:1 93:1 
0 1 1:-0.025 2:0.16666667 5:1 13:2 15:0.725 19:1 20:2 21:1 24:1 59:1 
1 0 1:0.55 12:2 13:2 14:2 15:0.9 19:5 20:2 21:4 24:2 33:1 76:1 
0.9642985034082179 1 1:0.4 2:0.083333333 5:1 9:1 13:2 14:1 15:0.675 17:2 19:3 20:3 21:3 25:1 73:1 
0 1 1:0.95 13:2 14:1 15:0.575 19:2 20:1 21:6 24:2 56:1 92:1 
0.989592513226471 1 13:1 15:0.125 17:2 19:8 20:3 21:1 26:1 53:1 83:1 
1 1 1:0.3 12:1 13:4 15:0.9 19:4 20:7 21:3 24:1 34:1 
0 1 1:0.675 13:2 14:1 15:0.675 17:1 19:1 20:1 21:4 24:1 25:1 
1 1 1:-0.225 8:1 14:1 15:-0.5 19:5 20:1 21:1 78:1 82:1 
0 1 1:0.5 2:0.14285714 5:1 13:1 15:0.5 17:4 19:3 20:1 21:1 25:1 27:1 
1 1 1:0.4 12:1 13:3 15:1 19:4 20:5 21:2 24:1 
0 1 1:0.975 13:2 15:1.1 16:3 19:4 21:1 24:1 45:1 
0 1 1:1.2 13:2 15:1.2 19:3 20:3 24:2 56:1 
0 1 1:0.125 13:1 15:0.25 17:2 19:5 20:2 24:1 25:1 
0 1 1:0.35 13:1 14:1 15:0.1 17:1 19:2 20:2 24:1 25:1 59:1 
1 1 1:-1 12:1 14:1 15:-0.4 17:2 19:4 20:4 21:2 25:1 39:1 
0 1 1:0.85 13:2 14:1 15:0.6 16:1 19:4 20:3 24:1 33:1 66:1 
0 1 1:0.525 2:0.18181818 5:1 12:1 13:2 15:1.125 17:1 19:4 20:3 21:2 24:1 25:1 
0 1 1:0.6 2:0.16666667 5:1 13:1 15:0.6 17:2 19:2 20:1 24:1 25:1 59:1 
0 1 1:0.675 13:1 15:0.8 17:1 19:2 20:1 24:1 25:1 30:1 43:1 
1 1 1:-0.125 12:1 13:2 14:1 15:0.475 19:3 20:6 21:4 88:1 
0 1 1:0.875 13:2 15:1 17:1 19:4 20:3 21:3 24:1 25:1 75:1 
0 1 1:0.725 13:2 15:0.85 19:3 21:4 24:2 33:1 75:1 
1 1 1:-1.625 12:1 14:2 15:-0.9 17:2 19:4 20:5 21:1 24:1 25:1 43:1 
1 1 1:-0.5 14:1 15:-0.5 19:4 20:3 21:3 
1 1 1:-0.2 13:1 14:2 15:-0.2 19:4 20:4 21:4 24:1 53:1 
0 1 1:0.6 13:3 14:1 15:0.6 19:2 20:2 24:1 69:1 
0 1 1:0.475 13:2 14:1 15:0.6 19:2 20:2 
0 1 1:0.975 13:3 15:0.975 17:1 19:3 20:2 21:2 24:1 25:1 
1 1 1:-0.8 2:0.125 5:1 12:1 14:1 15:-0.2 19:2 20:3 21:1 24:1 91:1 
0 1 1:1.1 13:2 15:1.1 19:5 20:1 24:1 74:1 
0 1 1:1.3 13:3 14:1 15:1.3 19:8 24:2 33:1 74:1 
1 1 1:0.075 13:1 15:0.2 19:6 20:4 21:3 
0 1 1:0.6 13:1 15:0.6 19:3 20:2 53:1 
1 1 1:-1.15 12:1 13:1 14:2 15:-0.9 17:1 19:3 20:3 21:3 43:1 
0 1 1:0.4 8:1 20:4 24:1 39:1 64:1 78:1 
1 1 1:-0.775 12:1 13:1 14:3 15:-0.175 19:3 20:8 21:1 
0 1 1:0.6 13:2 14:1 15:0.6 19:4 20:3 21:1 24:1 
0 1 1:0.85 13:1 15:0.6 17:1 19:3 20:1 24:4 25:1 43:1 45:1 
0 1 1:0.6 13:1 15:0.6 19:3 20:4 
0 1 1:0.8 13:2 15:0.8 19:3 20:2 21:4 24:1 
0 1 1:0.5 2:0.071428571 5:1 12:1 13:3 15:0.85 17:1 19:6 21:4 24:3 25:1 35:1 
0.8650008688936154 1 1:0.5 12:1 13:4 15:1.225 19:4 20:2 21:4 24:2 43:1 
0 1 1:0.275 8:1 19:2 78:1 
1 1 1:-0.025 12:1 13:3 14:1 15:0.575 19:3 20:3 21:3 24:3 43:1 59:1 
0 1 1:0.85 13:2 15:0.85 19:3 20:1 21:3 24:2 74:1 
0 1 1:0.475 13:1 15:0.6 19:2 24:1 59:1 
0.8594969413094088 1 1:1 2:0.090909091 5:1 13:3 14:3 15:1 19:7 70:1 
1 1 1:-0.7 13:1 14:2 15:-0.7 19:5 20:2 24:1 42:1 76:1 
1 1 1:0.1 12:1 13:4 14:4 15:0.025 19:5 20:7 21:2 24:2 47:1 76:1 
1 1 1:-0.5 14:1 15:-0.5 19:2 20:2 24:1 
0 1 1:0.4 13:2 14:1 15:0.4 16:2 17:1 19:6 20:3 21:3 24:1 25:1 39:1 43:1 59:1 
0 1 19:3 20:3 38:1 64:1 91:1 
1 1 1:0.475 2:0.047619048 5:1 13:1 15:0.6 16:2 19:6 20:1 21:6 24:3 
1 1 1:0.125 12:1 13:1 14:2 15:-0.125 19:5 20:1 21:1 
1 0 1:-0.7 13:2 14:4 15:-0.575 17:3 19:6 20:3 24:1 25:1 33:1 43:1 50:1 97:1 
1 1 1:-1 12:1 14:1 15:-0.4 17:2 19:3 20:1 21:1 26:1 
0 1 1:0.6 13:1 15:0.6 19:2 20:3 21:4 24:1 56:1 
0 1 1:0.275 13:1 15:0.4 17:1 19:3 20:1 21:1 24:1 25:1 34:1 75:1 81:1 
1 1 16:2 19:2 20:3 38:1 91:1 
0 1 1:1.4 13:2 15:1.4 19:3 20:1 24:2 37:1 
1 1 1:-0.025 2:0.42857143 3:1 4:1 5:1 13:1 14:1 15:-0.025 18:2 19:6 20:4 21:1 24:3 75:1 
0 1 1:0.525 13:2 15:0.525 19:2 20:2 24:2 43:1 
1 1 1:-0.325 13:4 14:3 15:-1.225 18:4 19:3 20:2 75:1 
0 1 1:0.625 13:2 15:0.625 19:6 20:2 21:1 24:1 92:1 
1 1 1:-0.75 14:2 15:-0.625 19:5 20:5 21:4 24:1 43:1 
1 1 1:0.275 13:1 14:1 15:0.15 19:8 20:3 24:2 34:1 
0 1 1:0.475 8:1 13:1 14:1 15:0.075 19:4 20:3 21:1 24:1 39:1 78:1 
1 1 1:0.075 13:2 14:1 15:0.075 19:8 20:2 21:3 24:1 94:1 
1 1 1:-0.375 14:1 15:-0.375 19:1 20:3 53:1 
1 1 1:-0.575 13:3 14:3 15:-1.35 16:1 18:4 19:3 20:2 24:1 
0.5474685162605208 1 1:-0.425 2:0.125 5:1 13:1 14:1 15:-0.3 17:1 19:5 20:1 24:1 25:1 35:1 43:1 
1 1 1:-0.075 12:1 13:2 15:0.525 19:4 20:2 21:2 24:3 34:1 75:1 76:1 
0 1 1:0.15 13:2 14:1 15:0.275 17:2 19:1 20:2 25:1 
0 1 1:0.25 13:2 15:1 19:2 20:5 21:3 45:1 
1 1 1:-0.5 14:1 15:-0.5 19:3 20:2 24:1 45:1 
0.120293362576602 1 13:1 15:0.125 19:4 20:1 43:1 
0 1 1:1.075 13:2 14:1 15:1.075 19:1 20:1 70:1 
0 1 1:0.975 13:3 15:1.1 16:1 19:1 20:3 24:1 53:1 89:1 
0 1 1:0.125 2:0.14285714 3:1 5:1 13:1 15:0.125 17:2 19:7 20:2 21:1 24:1 25:1 
0 1 1:0.45 13:3 15:1.2 19:3 20:6 21:3 62:1 
0 1 1:0.4 8:1 16:1 17:1 19:2 20:1 21:4 78:1 
0 1 1:1.425 2:0.16666667 5:1 13:2 15:1.425 20:4 
1 1 1:-0.075 13:1 14:2 15:-0.075 16:1 19:2 20:1 24:2 
0 1 1:0.6 13:1 15:0.6 19:5 20:1 21:1 24:1 33:1 
1 1 1:0.375 13:2 15:0.375 16:1 19:2 20:2 21:4 24:2 
1 1 1:-1.025 12:1 13:2 14:3 15:-0.3 19:4 20:4 21:2 24:3 49:1 66:1 
0 1 1:0.85 13:4 14:2 15:0.85 19:5 20:3 21:1 24:2 92:1 
0 1 1:0.6 13:1 15:0.6 19:1 20:1 69:1 
1 1 1:-0.6 2:0.11111111 5:1 12:1 13:1 14:1 17:1 19:2 20:3 21:1 24:2 25:1 
1 1 1:0.825 13:4 14:1 15:0.825 19:5 20:5 21:2 24:1 
0 1 1:0.6 13:1 15:0.6 17:1 19:4 20:1 21:1 24:2 25:1 56:1 
1 1 1:0.725 13:3 14:2 15:0.85 19:7 20:5 21:1 51:1 53:1 
1 1 19:2 20:1 21:1 
0 1 1:0.2 8:1 14:1 15:-0.2 19:3 20:1 24:2 78:1 81:1 
0 1 1:-0.125 19:2 20:1 53:1 
1 1 1:0.35 13:2 14:2 15:0.35 19:4 20:2 24:1 
0 1 1:1.675 13:3 15:1.8 16:1 19:6 20:2 21:3 24:2 57:1 96:1 
0 1 1:0.4 13:2 15:0.4 17:2 19:4 20:1 24:1 25:1 35:1 
0 1 1:0.4 2:0.1 5:1 13:1 15:0.4 17:2 19:3 20:2 24:1 25:1 
1 1 1:-0.5 10:1 14:1 15:-0.5 19:2 20:2 46:1 53:1 
1 1 1:0.225 13:3 14:1 15:0.225 19:4 20:2 21:1 24:1 
1 1 1:-1.975 12:1 13:2 14:3 15:-0.5 19:3 20:5 21:2 24:1 
0 1 1:0.5 13:1 15:0.5 19:4 20:2 21:1 43:1 64:1 
0 1 1:1.075 13:3 15:0.825 17:1 19:4 20:2 21:1 24:1 25:1 
1 1 1:0.125 13:3 14:1 15:0.375 19:9 24:1 
0 1 1:0.85 13:2 15:0.85 19:2 20:4 24:1 45:1 
0 1 1:0.325 13:2 15:0.325 17:1 19:3 20:4 21:3 24:2 25:1 35:1 43:1 
1 1 1:-0.05 13:1 14:2 15:0.075 19:4 20:3 21:1 43:1 
1 1 10:1 13:1 14:1 19:2 20:1 46:1 
0 1 1:0.8 13:2 15:0.8 19:1 20:2 24:2 57:1 76:1 
1 1 1:0.6 12:1 13:5 14:1 15:1.2 16:1 19:3 20:6 21:1 62:1 
0 1 1:0.625 8:1 13:2 14:1 15:0.225 19:2 20:2 78:1 
1 1 1:0.525 12:1 13:4 14:2 15:0.275 17:3 19:10 20:3 21:3 25:1 43:1 44:1 
1 1 1:-0.125 13:1 14:1 19:3 20:2 24:1 
1 1 1:0.575 13:3 14:2 15:0.65 16:2 19:3 20:6 21:1 64:1 82:1 
0 1 1:0.375 13:1 15:0.5 19:2 20:1 21:1 24:2 36:1 43:1 
1 1 1:0.25 13:3 15:0.625 19:8 20:1 76:1 
0.03050777366522006 1 1:-0.625 14:1 15:-0.75 17:5 19:1 20:2 21:2 24:2 26:1 83:1 
0 1 1:1.175 13:4 15:1.175 19:4 20:2 24:1 40:1 
0 1 1:0.6 13:2 14:1 15:0.725 19:2 20:4 24:1 30:1 43:1 76:1 
0 1 1:1 13:2 15:0.75 19:3 20:4 21:1 24:1 
0 1 1:0.6 13:2 15:0.725 19:4 20:3 21:3 
0 1 1:1 13:2 14:1 15:1 19:4 24:1 30:1 43:1 
0 1 1:0.275 13:1 15:0.4 19:4 21:4 24:1 34:1 53:1 
1 0.005767648763302393 1:0.025 8:2 13:1 14:2 15:-0.375 16:1 19:4 20:1 21:3 24:1 78:1 
0 1 1:0.6 13:2 15:0.725 19:1 20:2 24:1 33:1 
1 1 1:-0.375 13:1 14:1 15:-0.375 17:2 19:3 20:3 21:1 24:2 25:1 
1 1 1:-0.45 13:2 14:1 15:0.3 19:5 20:3 21:4 29:1 
1 1 1:-0.675 12:1 13:1 14:1 15:-0.075 16:1 19:3 20:5 21:1 24:1 
1 1 1:-0.175 12:1 13:2 14:1 15:0.55 19:3 20:2 21:8 63:1 82:1 
0 1 1:-0.275 12:1 13:2 15:0.325 17:3 19:5 20:4 21:1 27:1 75:1 91:1 
1 1 19:3 20:1 21:5 24:1 75:1 
1 1 1:-0.6 2:0.125 4:1 5:1 13:1 14:1 15:-0.475 19:3 20:1 21:3 24:1 
1 1 1:-0.4 2:0.071428571 3:1 4:1 5:1 13:2 14:2 15:-0.4 17:3 19:5 21:6 24:2 27:1 41:1 76:1 
0 1 1:0.7 13:3 15:1.45 19:3 20:3 62:1 93:1 
0 1 1:0.125 2:0.2 5:1 13:1 15:0.125 17:2 19:5 20:2 25:1 75:1 
1 1 12:1 13:1 14:2 19:5 20:3 21:3 24:2 34:1 
1 1 1:0.25 13:1 15:0.25 19:3 20:3 24:2 36:1 
0 1 1:0.6 13:1 15:0.6 19:3 20:2 76:1 96:1 
0 1 1:0.1 2:0.2 3:1 5:1 13:3 15:0.85 19:2 20:1 21:1 44:1 
1 1 1:0.525 13:2 15:0.525 19:6 20:4 24:2 34:1 
0 1 1:1.05 13:2 15:0.8 19:5 20:3 24:1 
0 1 1:0.725 13:2 15:0.725 19:4 20:1 21:3 24:1 69:1 
0 1 1:0.525 13:2 15:0.525 17:2 19:6 20:3 21:1 24:1 25:1 43:1 89:1 
0 1 1:0.075 2:0.2 5:1 13:1 14:1 15:0.075 17:2 19:7 20:1 21:3 24:2 25:1 43:1 
1 1 19:2 20:2 21:3 
1 1 19:4 21:3 53:1 
0 1 1:0.2 13:1 15:0.2 17:1 19:2 20:1 24:1 25:1 
0 1 1:1.275 13:2 15:1.4 20:4 21:1 
0 1 1:0.325 10:1 13:2 15:0.325 19:3 20:3 21:1 24:2 46:1 
1 1 1:-0.275 13:1 14:1 15:-0.275 19:1 20:1 24:1 59:1 
1 1 1:-0.65 13:3 14:3 15:0.1 16:1 19:3 20:5 21:1 24:4 54:1 64:1 76:1 
0 1 1:0.85 2:0.076923077 5:1 13:4 14:2 15:0.85 19:5 20:3 21:1 24:2 92:1 
1 1 1:-0.625 2:0.2 5:1 13:1 15:0.125 17:1 19:3 20:5 24:1 25:1 
0 1 1:0.6 13:1 15:0.6 19:7 20:1 24:2 43:1 
1 1 1:-0.55 12:1 13:2 14:1 15:0.05 19:3 20:3 21:1 24:1 61:1 
0 1 19:2 92:1 
0 1 1:0.2 13:1 15:0.2 17:5 19:2 20:4 24:1 26:1 
0 1 2:0.1 5:1 13:1 15:0.125 17:2 19:5 20:2 24:1 25:1 
1 1 19:2 20:1 
0 1 1:1.05 9:1 13:2 15:1.2 17:2 19:6 20:4 21:3 24:2 26:1 37:1 73:1 
0 1 1:-0.025 2:0.090909091 5:1 8:1 13:1 14:2 15:-0.425 17:1 19:1 20:6 21:1 25:1 78:1 
0 1 1:0.725 13:2 15:0.725 19:2 20:3 21:1 24:2 39:1 45:1 
1 1 1:0.425 2:0.090909091 5:1 13:2 14:1 15:0.55 19:5 20:3 21:1 24:1 
0 1 1:0.6 13:1 15:0.6 17:3 19:5 20:1 25:1 43:1 
1 1 1:-0.175 13:2 14:1 15:-0.175 19:4 20:4 22:1 
1 1 1:0.075 2:0.33333333 5:1 13:1 14:1 15:0.075 19:2 20:3 21:1 53:1 82:1 
1 1 1:-0.625 13:1 14:2 15:-0.5 19:4 20:3 
0 1 1:0.85 2:0.22222222 4:1 5:1 13:4 14:1 15:0.85 17:1 19:2 20:3 24:2 25:1 
1 1 1:-1.075 12:1 13:2 14:1 15:-0.1 19:3 20:1 21:2 24:3 64:1 
1 1 1:-0.125 12:1 13:1 15:0.6 19:4 20:1 21:1 45:1 75:1 
0 1 1:0.6 13:1 15:0.6 19:2 20:1 24:1 33:1 
0 1 1:0.45 13:2 15:1.2 19:4 20:2 24:1 59:1 
0 1 1:0.575 12:1 13:3 15:1.3 19:1 20:2 21:3 24:1 30:1 
0 1 1:0.225 13:1 14:2 15:0.35 17:1 19:6 20:2 24:1 25:1 33:1 
0 1 1:-0.35 2:0.076923077 5:1 13:1 15:0.4 17:2 19:4 20:3 21:1 25:1 
1 1 1:-0.6 12:1 19:1 20:5 21:5 24:1 53:1 
1 1 1:-0.25 2:0.11111111 5:1 14:1 15:-0.5 17:3 19:2 20:3 21:1 27:1 
0 1 1:0.775 12:1 13:4 15:1.125 17:1 19:1 20:4 21:1 25:1 
0 1 1:0.475 13:2 14:1 15:0.475 19:3 20:1 24:1 33:1 
1 1 1:-0.3 2:0.066666667 5:1 13:2 14:1 15:-0.175 19:7 20:4 21:2 24:2 43:1 
1 1 1:0.125 13:1 15:0.125 19:4 20:1 21:3 24:1 
1 1 1:0.2 13:1 15:0.2 19:5 20:2 21:8 98:1 
1 1 1:-0.6 13:1 14:1 15:-0.6 19:2 20:1 21:1 24:1 42:1 
0 1 1:1.1 13:2 15:1.1 19:7 24:1 45:1 
1 1 1:0.275 13:1 15:0.4 19:1 20:2 21:3 24:1 
0 1 1:0.725 13:2 15:0.725 19:2 20:1 69:1 
0 1 1:1.55 13:3 15:1.55 17:1 19:5 20:2 25:1 
1 1 1:-0.75 14:1 15:-0.5 17:2 19:3 20:6 25:1 39:1 
0 1 1:0.6 13:2 15:0.725 16:1 17:2 19:4 24:2 25:1 59:1 
1 1 1:-1.225 12:1 14:1 15:-0.5 19:2 20:1 21:9 83:1 
0 1 1:0.775 13:3 15:0.775 19:2 20:4 21:3 24:2 34:1 
0 1 1:0.7 12:1 13:3 15:1.3 19:4 20:3 21:3 24:4 30:1 
1 1 1:0.65 13:2 14:2 15:0.4 19:4 20:3 21:1 24:1 
0.6541139063771807 1 1:0.2 13:2 14:1 15:0.2 17:1 19:4 20:4 21:7 24:2 25:1 41:1 
0 1 1:0.675 13:1 15:0.8 19:2 20:1 21:1 24:1 30:1 
0 1 1:-0.5 14:1 15:-0.5 17:3 19:3 20:3 24:1 25:1 26:1 
0 1 1:1.325 13:3 15:1.325 16:1 19:4 20:2 21:3 53:1 75:1 
1 1 1:-0.45 13:1 14:2 15:-0.575 17:2 19:2 20:2 24:1 26:1 86:1 
1 1 1:-0.1 13:1 14:1 15:0.025 19:3 21:1 24:2 43:1 
1 1 1:-0.05 12:1 13:1 14:1 15:0.2 19:1 20:1 35:1 69:1 
0 1 1:0.65 13:2 15:0.65 19:3 20:3 21:3 24:2 
0 1 1:0.2 13:1 15:0.2 17:2 19:1 24:2 25:1 35:1 81:1 
1 1 1:-1 12:1 14:1 15:-0.4 17:1 19:1 20:1 21:1 25:1 75:1 
0 1 1:1.05 13:4 15:1.85 19:7 20:3 21:9 24:2 93:1 
1 1 1:-0.125 12:1 13:1 15:0.6 19:3 20:1 21:1 24:1 53:1 54:1 
1 1 1:0.35 13:1 14:1 15:0.1 19:4 20:3 24:1 56:1 
1 1 1:-0.2 14:1 15:-0.2 19:7 20:5 24:1 38:1 39:1 43:1 75:1 91:1 
1 1 1:-1.475 2:0.090909091 4:1 5:1 13:1 14:3 15:-1.475 19:4 20:5 21:2 29:1 
1 1 1:0.35 13:2 14:1 15:0.35 19:3 20:3 43:1 
1 1 1:-0.525 2:0.071428571 5:1 10:1 13:1 14:2 15:-0.525 17:3 19:5 20:1 21:2 24:2 27:1 46:1 
0 1 1:0.675 13:1 15:0.8 19:2 21:1 24:1 28:1 
0 1 1:0.375 13:2 14:1 15:0.5 19:3 21:1 24:1 34:1 
1 1 12:2 13:1 15:0.6 16:3 19:5 20:2 21:2 24:2 43:1 54:1 
0 1 1:0.525 8:1 19:2 20:1 24:1 39:1 78:1 81:1 
0 1 1:-0.6 12:1 17:1 19:2 20:2 21:1 25:1 53:1 91:1 
0 1 1:0.725 13:2 15:0.725 17:1 19:2 20:2 24:1 25:1 33:1 
1 1 12:2 13:3 14:1 15:0.6 19:4 20:5 21:4 24:1 64:1 
0 1 1:0.775 13:2 15:0.525 17:1 19:5 20:1 21:3 24:2 25:1 39:1 75:1 
0 1 1:0.725 13:2 15:0.725 17:1 19:4 20:3 21:2 24:1 25:1 53:1 57:1 76:1 
0 1 1:1.05 13:3 14:1 15:1.05 19:6 20:3 21:6 24:4 35:1 75:1 93:1 
0 1 1:0.475 2:0.22222222 5:1 13:1 15:0.6 19:3 20:1 21:3 43:1 
0 1 1:0.65 8:1 13:1 15:0.25 20:2 21:1 78:1 
1 1 1:-0.4 13:1 14:1 15:-0.4 19:6 20:2 24:2 
0 1 1:0.475 2:0.11111111 5:1 13:1 15:0.6 17:1 19:3 20:2 21:1 24:2 25:1 83:1 
1 1 1:-0.125 8:1 12:1 13:1 15:0.2 16:1 19:4 20:3 21:1 24:2 35:1 39:1 78:1 
0.8856955278580888 1 1:0.125 13:1 15:0.25 19:4 21:3 24:3 43:1 
0 1 1:0.25 13:1 15:0.25 17:2 19:7 20:1 25:1 53:1 
0 1 1:-0.1 12:1 13:1 15:0.5 19:2 20:2 21:1 91:1 
1 1 1:0.425 13:2 14:1 15:0.425 19:2 20:6 21:6 24:1 56:1 94:1 
1 1 1:-1 12:1 13:1 14:2 15:-0.4 19:3 20:4 21:1 24:2 
0 1 1:0.65 13:2 15:0.65 17:1 19:7 20:2 21:6 25:1 44:1 
0 1 1:0.55 13:2 14:1 15:0.55 19:4 20:2 21:1 24:1 35:1 43:1 
0 1 1:0.6 13:2 14:1 15:0.6 18:2 19:2 20:4 24:1 89:1 
0 1 1:1.075 13:2 14:1 15:1.075 19:5 21:2 70:1 
1 1 1:-0.475 12:1 13:3 14:1 15:0.875 16:1 19:5 20:3 21:3 24:1 41:1 75:1 97:1 
0 1 1:0.725 13:2 14:2 15:0.725 19:2 20:1 24:1 28:1 
1 1 1:0.35 13:3 15:1.225 19:7 20:5 21:2 
0 1 17:3 19:1 24:1 43:1 
0 1 1:1.25 13:4 15:1.25 19:5 20:2 21:1 24:2 56:1 63:1 
0 1 1:0.9 13:3 14:1 15:0.9 19:2 20:3 21:1 24:1 
1 1 1:-0.4 2:0.18181818 4:1 5:1 12:1 13:1 14:1 15:0.2 16:1 19:6 20:2 21:1 64:1 
1 1 1:-0.625 14:1 15:-0.5 16:3 17:2 19:2 20:2 21:1 75:1 92:1 
0 1 1:0.325 13:2 15:0.325 17:2 19:4 20:3 21:4 25:1 
0.4227001083000443 0.6269194015215854 1:-0.2 8:1 13:3 14:2 15:-0.475 16:1 17:1 19:5 20:1 24:1 25:1 41:1 78:1 85:1 
1 1 1:0.525 13:2 15:0.525 19:8 20:2 24:1 
1 1 1:-1 12:2 14:1 15:-0.4 19:6 20:3 21:4 43:1 
0 1 1:0.55 13:1 14:1 15:0.55 19:6 51:1 75:1 
0 1 1:0.4 13:1 15:0.4 17:1 20:3 24:1 25:1 34:1 64:1 
1 1 1:0.125 12:1 13:2 15:0.85 19:4 20:1 21:2 24:2 57:1 
1 1 1:-0.925 2:0.071428571 5:1 12:1 13:1 14:2 15:-0.325 17:4 19:5 20:4 21:1 25:1 26:1 
0 1 1:0.9 13:2 15:0.9 19:6 20:4 21:1 39:1 92:1 
0 1 1:-0.025 13:1 14:1 15:-0.025 17:1 19:3 21:3 24:3 25:1 43:1 81:1 
0 1 1:-0.075 13:1 14:1 15:0.675 17:1 19:2 20:3 21:1 24:1 25:1 52:1 
0 1 1:0.85 13:3 15:0.85 19:3 20:5 21:1 24:1 
1 1 1:-0.575 12:1 13:1 14:3 15:-0.45 16:1 17:1 18:2 19:10 20:1 21:2 25:1 90:1 
0 1 1:0.75 13:2 14:1 15:0.75 19:5 20:1 21:5 24:2 53:1 63:1 74:1 
0 1 1:0.4 8:1 19:3 20:1 21:4 24:1 39:1 75:1 78:1 
0 1 1:1.175 13:3 15:1.3 17:2 19:6 20:2 25:1 
0 1 1:0.4 13:1 15:0.4 19:2 20:2 24:1 
0 1 1:-0.125 17:2 19:6 20:2 24:2 26:1 43:1 
0 1 1:0.9 13:3 14:1 15:0.9 17:1 19:6 20:2 21:1 24:3 25:1 43:1 
1 1 1:-0.35 13:3 14:1 15:0.4 19:3 20:4 24:1 
1 1 1:-0.775 13:1 14:1 15:0.1 19:3 20:2 21:1 24:3 43:1 77:1 
1 1 1:-1.15 2:0.21052632 5:1 12:1 13:2 14:1 15:-0.55 17:3 19:5 20:5 21:8 85:1 
1 1 1:-0.425 12:1 13:2 14:1 15:0.325 19:5 20:2 21:6 24:2 34:1 43:1 45:1 
0 1 1:0.525 13:2 15:0.65 19:3 20:1 21:2 24:1 82:1 
0 1 1:1.1 13:3 14:1 15:1.1 19:4 20:1 
1 0 1:-0.225 12:1 13:4 14:1 15:0.375 17:3 19:4 20:4 21:2 24:3 34:1 81:1 
0 1 17:3 19:3 20:1 
0 1 1:0.6 13:1 15:0.6 17:1 19:3 20:3 24:1 25:1 81:1 
0 1 1:1.625 2:0.071428571 5:1 13:3 15:1.625 17:2 19:9 20:3 25:1 39:1 43:1 44:1 
0 1 1:0.975 13:3 15:0.975 19:5 20:1 21:1 24:3 33:1 76:1 
0 1 1:1.125 13:3 15:1.125 19:8 20:1 24:3 28:1 35:1 41:1 
1 1 1:-0.125 14:1 15:-0.125 16:1 19:8 20:2 
0 1 1:0.225 8:1 13:2 14:1 15:-0.05 16:1 19:6 20:3 24:1 39:1 78:1 94:1 
0 1 1:0.15 12:1 13:2 15:0.75 17:1 19:6 20:4 21:1 24:2 25:1 91:1 
0 1 1:0.6 13:2 14:1 15:0.6 19:1 20:2 22:1 24:2 69:1 
0 1 1:0.375 2:0.33333333 3:1 5:1 13:1 15:0.125 19:4 20:2 43:1 
1 1 1:0.15 13:2 14:1 15:0.15 19:6 20:3 24:1 
0 1 1:0.6 13:2 15:0.6 17:1 19:4 20:6 25:1 89:1 
0 1 1:0.275 8:1 19:2 20:1 21:3 78:1 
1 1 1:-0.925 12:2 13:2 14:1 15:-0.075 19:4 20:4 21:10 24:1 
1 1 1:0.5 13:2 15:0.5 19:5 20:4 21:6 
0 1 1:0.6 13:1 15:0.6 19:1 20:3 53:1 69:1 
0 1 1:0.5 13:1 15:0.5 19:4 20:1 21:1 
0 1 1:0.525 13:2 15:0.525 19:3 20:3 21:1 24:3 
1 1 1:-0.8 12:1 13:1 14:1 15:-0.2 19:2 21:1 24:2 29:1 33:1 
0 1 1:0.4 13:2 14:2 15:0.4 17:1 18:2 19:5 20:1 24:1 25:1 43:1 
1 1 1:-0.225 13:4 14:2 15:-0.225 19:7 20:1 24:2 
0 1 1:0.4 13:1 15:0.4 17:2 19:3 20:2 26:1 62:1 75:1 
1 1 1:0.025 13:2 14:1 15:0.025 19:3 20:4 21:1 24:1 34:1 43:1 
1 1 1:-1 12:1 14:1 15:-0.4 17:2 19:1 20:2 21:2 26:1 
0 1 1:0.85 13:2 15:0.85 19:1 20:1 24:1 32:1 
0 1 1:1.1 13:2 15:1.1 16:1 19:4 24:2 56:1 
1 1 1:0.775 12:1 13:2 14:1 15:0.775 16:1 19:6 20:3 21:1 24:1 39:1 
1 1 1:0.15 13:1 14:1 15:0.275 19:2 20:3 21:3 24:1 62:1 66:1 
1 1 1:-0.525 12:1 13:1 14:1 15:0.2 16:1 17:2 19:4 20:2 21:4 24:2 25:1 
0 1 1:0.675 13:2 15:0.8 16:1 19:1 20:1 24:1 45:1 
0 1 1:-0.15 13:1 15:0.6 17:1 19:3 20:3 25:1 45:1 
0 1 1:0.4 13:2 14:1 15:1.2 19:1 20:4 21:3 93:1 
0 1 1:1.025 13:3 15:1.025 18:2 19:6 24:4 
0 1 1:0.625 13:1 15:0.625 19:3 20:3 24:1 
0 1 1:0.4 13:1 15:0.4 20:1 62:1 
0 1 1:0.325 2:0.071428571 5:1 12:1 13:2 15:0.925 19:8 20:3 21:1 24:1 28:1 43:1 75:1 91:1 
1 1 1:0.05 13:2 14:1 15:0.05 19:2 20:3 21:1 24:1 34:1 
1 1 1:-0.275 12:1 13:1 14:1 15:0.075 19:4 20:1 21:1 24:1 41:1 
0 1 17:3 19:2 20:1 21:2 25:1 26:1 
0 1 1:0.65 13:3 15:0.9 19:7 20:1 
0 1 1:0.4 8:1 20:1 24:1 78:1 83:1 
0 1 1:0.4 13:1 14:1 15:0.4 19:6 24:1 33:1 
0 1 1:-0.925 13:2 14:1 15:-0.175 17:1 19:1 20:4 21:1 25:1 91:1 
0 1 1:0.125 13:1 15:0.25 17:1 19:3 20:2 24:2 25:1 
1 1 1:0.1 13:1 14:1 15:0.225 19:5 20:2 21:1 24:3 
0 1 1:0.6 13:1 15:0.6 19:3 20:3 21:3 24:1 43:1 56:1 
1 1 1:-0.525 12:1 13:1 14:1 15:0.2 16:1 17:1 19:3 20:1 21:5 25:1 43:1 71:1 76:1 
0 1 1:1.1 2:0.16666667 5:1 13:2 15:1.1 16:1 19:4 
1 1 1:-0.325 13:1 14:2 15:-0.325 19:6 20:3 21:1 64:1 
0 1 1:0.4 13:1 15:0.4 19:3 20:2 24:1 75:1 90:1 
0 1 1:1.175 8:1 13:1 15:0.4 19:2 24:1 78:1 
1 1 19:1 20:1 
0 1 1:0.525 13:2 15:0.525 17:1 19:5 20:3 25:1 
0 0.7465278026692966 1:0.825 2:0.22222222 3:2 5:1 13:3 15:1.45 17:2 19:4 20:4 26:1 
1 1 1:-1.05 13:1 14:3 15:-0.3 19:7 20:3 24:2 43:1 
1 1 1:-0.525 13:2 14:2 15:0.225 19:2 20:3 24:1 
1 1 1:0.225 13:2 14:1 15:0.35 19:3 20:1 24:1 
1 1 1:-0.7 8:1 12:1 14:1 15:-0.5 17:1 19:3 20:2 21:1 25:1 78:1 
1 1 1:0.65 13:1 14:1 15:0.4 19:5 20:6 21:3 24:1 69:1 
0 1 13:1 14:1 17:1 19:2 20:1 25:1 
0 1 1:1.15 12:1 13:3 15:1.5 19:4 20:4 21:2 
0 1 1:0.625 13:3 15:0.625 17:2 19:5 20:3 24:1 25:1 
0 1 1:1.5 13:5 15:1.5 19:3 20:5 24:1 
0 1 1:-0.1 12:1 13:1 15:0.5 19:4 20:2 21:1 53:1 91:1 
0 1 1:0.1 13:1 14:1 15:0.1 17:2 19:1 20:4 21:3 26:1 58:1 92:1 
1 1 1:-0.275 13:3 14:3 15:-0.275 19:4 20:2 21:2 24:4 43:1 
0 1 1:0.4 13:1 15:0.4 19:2 20:1 21:3 
0 1 1:0.725 13:3 15:0.725 19:6 20:2 24:4 
1 1 1:0.325 13:2 15:0.325 19:4 20:5 21:3 
1 1 1:0.375 13:2 14:1 15:0.5 19:4 20:2 21:1 24:3 
1 1 1:-0.125 2:0.375 5:1 14:1 15:-0.125 19:3 20:2 24:2 
1 0.3211491936875779 1:-0.425 12:1 13:2 14:1 15:0.175 17:1 19:3 20:3 21:3 24:2 25:1 39:1 45:1 
0 1 1:0.725 13:2 15:0.725 19:3 24:4 56:1 
0 1 1:0.4 12:1 13:1 14:1 15:0.4 17:1 19:4 20:2 24:1 25:1 32:1 
0 1 1:0.4 13:1 15:0.4 17:1 19:4 25:1 
0 1 1:1.525 13:3 15:1.65 19:7 20:4 21:1 24:1 93:1 
0 1 17:1 19:3 20:1 24:1 25:1 53:1 75:1 81:1 
1 1 1:0.525 13:2 15:0.525 16:1 19:5 20:3 21:1 43:1 
1 1 1:0.125 2:0.28571429 5:1 13:1 15:0.125 19:4 20:1 24:1 83:1 
1 1 1:-0.275 13:1 14:1 15:0.475 19:2 20:2 24:1 33:1 
0 1 1:0.6 13:1 15:0.6 17:1 19:2 20:1 25:1 45:1 53:1 
1 1 1:-0.5 14:1 15:-0.5 17:1 19:1 20:3 25:1 
0 1 1:1.6 13:3 15:1.6 19:1 20:3 21:3 24:1 93:1 
1 1 1:-1.15 12:1 13:2 14:2 15:-0.3 18:2 19:4 20:3 21:2 24:3 33:1 35:1 76:1 
0 1 1:0.6 13:1 15:0.6 17:1 19:1 20:2 21:1 24:2 25:1 69:1 
0 1 1:0.975 8:1 13:3 15:0.575 19:8 20:1 24:2 78:1 
1 1 1:-0.75 19:2 20:3 21:8 39:1 
0 1 1:0.4 13:1 15:0.4 19:2 43:1 
0 1 1:0.8 13:2 15:0.8 19:5 
1 1 1:-0.25 2:0.22222222 5:1 14:1 15:-0.5 17:1 18:2 19:4 20:1 25:1 
1 0 1:-0.2 12:1 13:2 14:2 15:0.4 17:1 19:2 20:5 21:1 24:3 25:1 52:1 
0.9734673633806705 1 1:0.075 13:5 14:3 15:-0.825 18:4 19:2 20:5 
0 1 1:0.275 12:1 13:4 14:1 15:0.875 17:1 19:5 20:2 21:1 24:3 25:1 
1 1 1:-0.15 13:4 14:2 15:-0.025 19:2 20:5 21:4 24:1 34:1 35:1 
0.9215999291983432 1 1:0.95 13:3 14:2 15:0.7 19:3 20:6 24:1 76:1 
0 1 1:0.525 2:0.1 5:1 8:1 13:1 15:0.125 19:7 21:1 24:1 78:1 
0 1 1:1.575 13:4 15:1.575 19:6 20:1 21:7 24:1 75:1 83:1 93:1 
1 1 1:-0.075 13:2 14:2 15:-0.15 19:2 20:5 21:2 24:1 49:1 
1 1 1:-1.075 12:1 13:2 14:4 15:-1.075 17:2 19:2 20:9 21:4 25:1 89:1 
0 1 1:1.1 8:1 13:2 14:1 15:0.7 16:1 17:1 19:5 20:7 64:1 78:1 
0 1 17:2 19:2 20:1 21:1 75:1 
0 1 1:0.6 13:1 15:0.6 19:2 20:3 21:3 24:2 77:1 
0 1 1:0.5 13:1 15:0.5 19:4 20:2 24:1 
1 1 1:-0.6 12:1 13:1 14:1 19:3 20:3 21:1 91:1 
1 1 1:-0.5 14:1 15:-0.5 17:2 19:4 20:3 21:3 25:1 
0 1 1:0.575 13:2 15:0.575 17:1 20:3 24:1 25:1 
1 1 16:1 17:1 
1 1 19:1 20:2 21:1 
1 1 1:-0.875 13:1 14:5 15:-1.275 17:2 19:3 20:2 24:2 26:1 
0 1 1:0.6 13:1 15:0.6 19:5 20:2 
1 1 1:0.2 13:2 14:1 15:0.2 20:2 24:1 
0 1 1:0.525 13:5 14:1 15:1.175 16:1 17:1 19:3 20:2 21:1 39:1 98:1 
1 1 1:-0.125 16:1 19:2 20:2 21:5 
1 1 1:-2.275 2:0.071428571 5:1 13:3 14:4 15:-1.525 19:5 20:5 24:3 29:1 85:1 
0 1 1:1.125 13:2 15:1 19:5 24:3 33:1 48:1 
0 1 1:-0.425 2:0.26315789 5:1 13:1 14:1 15:-0.3 17:3 19:9 20:3 21:3 24:1 25:1 35:1 43:1 
1 1 1:-1 13:1 14:1 15:-0.25 19:5 20:4 24:2 
0 1 1:0.975 13:2 15:0.975 19:3 24:1 33:1 
1 1 1:0.45 13:3 15:0.45 19:2 20:3 21:3 98:1 
0 1 1:1.1 13:2 15:1.1 19:2 20:4 21:2 24:1 33:1 76:1 
1 1 1:-1.525 12:1 13:1 14:3 15:-0.925 19:2 20:2 21:2 24:1 43:1 94:1 
1 1 1:-0.075 13:2 14:1 15:0.675 19:2 20:3 24:1 58:1 
1 1 1:-0.1 8:1 10:2 14:1 15:-0.5 19:6 20:2 21:5 24:1 46:1 78:1 
0 1 1:1.1 13:4 15:1.1 19:1 20:3 21:1 24:1 69:1 
0 1 1:0.35 2:0.090909091 5:1 12:1 13:2 15:0.6 17:2 19:3 24:2 25:1 35:1 
1 1 1:-0.125 12:1 13:1 15:0.6 17:1 19:4 20:1 21:8 24:1 25:1 43:1 77:1 
1 1 1:-0.4 13:1 14:2 15:-0.4 19:4 20:5 21:5 24:1 
1 1 1:-0.65 10:1 13:1 14:1 15:0.1 19:3 20:2 24:2 46:1 75:1 
0 1 1:0.8 13:4 14:1 15:0.8 17:1 19:3 20:5 21:1 24:1 25:1 
1 1 1:0.15 12:1 13:1 15:0.4 17:1 19:1 20:1 21:3 24:1 75:1 
1 1 1:0.325 12:1 13:2 15:1.05 16:1 19:2 20:1 21:4 24:1 30:1 
0 1 1:0.375 13:1 14:1 15:0.375 19:4 20:3 21:2 24:1 49:1 66:1 82:1 
1 1 1:0.5 13:3 14:1 15:0.5 19:5 20:5 75:1 
1 1 1:-1.925 13:4 14:4 15:-0.925 19:5 20:2 21:1 24:2 50:1 85:1 97:1 
1 1 1:-0.675 13:1 14:1 15:0.075 19:4 20:4 24:3 43:1 76:1 
0 0.01355724577501844 1:0.725 13:2 15:0.725 17:1 19:2 20:2 21:4 24:3 25:1 32:1 43:1 81:1 
1 1 1:-1.1 12:1 14:1 15:-0.5 17:2 19:4 20:4 21:3 24:2 26:1 83:1 
0 1 1:0.025 8:1 14:1 15:-0.375 17:1 20:1 25:1 78:1 
0 1 1:0.475 13:1 15:0.6 17:2 19:3 20:2 21:4 24:1 25:1 
1 1 1:-0.45 13:1 14:1 15:-0.2 17:1 19:2 20:1 25:1 42:1 
0 1 1:1 8:1 13:1 15:0.6 19:6 20:2 24:1 78:1 
1 1 1:0.15 13:2 14:1 15:0.4 19:5 20:1 21:3 24:1 
1 1 1:-0.15 13:2 14:2 15:-0.15 17:1 19:5 20:3 21:1 24:2 25:1 71:1 
0 1 1:-0.325 12:1 13:2 15:0.4 16:1 17:3 19:2 20:4 21:1 25:1 39:1 98:1 
0 1 1:1.35 13:3 15:1.225 19:7 20:1 21:1 24:3 43:1 56:1 
1 1 1:-0.725 12:1 14:1 15:-0.125 17:1 19:5 21:3 24:1 25:1 81:1 
0 1 1:0.925 13:2 15:0.925 17:1 19:1 20:3 24:2 25:1 52:1 
0 1 1:0.9 13:2 15:0.9 19:6 20:1 24:1 62:1 
1 1 1:0.55 13:3 14:2 15:0.55 19:10 20:3 21:6 24:1 28:1 
0 1 1:0.675 13:1 15:0.8 19:2 20:2 21:3 24:1 52:1 
1 1 1:0.525 2:0.066666667 5:1 13:2 15:0.525 16:1 19:9 20:3 21:1 22:1 43:1 90:1 
1 1 1:-0.2 2:0.11111111 5:1 13:1 14:1 15:-0.2 17:1 19:2 20:5 25:1 76:1 
1 1 1:-0.725 2:0.125 5:1 12:1 14:1 15:-0.125 19:3 20:2 21:1 24:1 91:1 
0 1 1:1.1 13:2 15:1.1 19:2 20:2 21:1 
0.7032508117512917 1 1:0.375 13:2 14:2 15:0.375 19:2 20:2 21:1 24:2 56:1 
1 1 1:0.3 2:0.1 5:1 13:3 14:1 15:0.3 19:1 20:3 21:3 24:2 35:1 48:1 83:1 
0 1 1:1.05 13:3 15:1.05 19:9 20:2 24:1 88:1 90:1 
0 1 1:0.775 13:3 14:2 15:0.775 19:4 20:4 21:1 76:1 
1 1 1:0.225 13:2 14:1 15:0.475 19:6 20:3 24:4 74:1 92:1 
1 0 1:0.125 12:1 13:3 14:1 15:0.725 19:5 20:3 21:1 24:2 33:1 91:1 
0 1 1:0.725 13:2 15:0.725 19:3 20:3 21:7 24:1 36:1 
1 1 1:-0.05 13:1 14:2 15:-0.05 19:3 20:2 21:1 
1 1 1:-0.8 13:1 14:1 15:0.075 16:1 19:4 20:1 24:1 
0 1 1:1.125 13:4 15:1.125 17:3 19:7 20:2 24:2 27:1 39:1 43:1 44:1 
0 1 17:1 19:2 20:3 25:1 64:1 
1 1 1:-0.1 13:2 14:2 15:-0.225 17:1 19:3 20:4 24:2 25:1 76:1 
0 1 1:1.225 2:0.22222222 3:1 5:1 13:2 15:1.225 19:4 20:3 21:1 
1 1 1:-0.2 13:1 14:2 15:-0.2 19:5 20:1 24:2 74:1 
1 1 1:0.25 13:1 15:0.375 19:4 20:3 21:3 24:2 
1 1 1:-0.625 2:0.25 5:1 13:1 15:0.125 19:6 20:2 
0 1 1:0.6 13:2 15:0.725 17:1 19:4 24:2 25:1 43:1 59:1 
1 1 1:-0.25 14:1 15:-0.5 19:3 20:1 53:1 
0 1 1:0.175 13:3 14:2 15:0.175 17:1 19:5 20:3 21:4 24:2 25:1 79:1 
1 0 1:-1.55 12:1 13:2 14:3 15:-0.2 17:2 19:2 20:4 21:1 24:2 25:1 43:1 
0 1 1:0.6 13:2 15:0.6 17:2 19:4 20:1 24:1 25:1 
0 1 1:0.8 2:0.090909091 5:1 13:2 15:0.8 19:6 20:2 21:3 40:1 
1 1 1:-0.5 14:1 15:-0.5 20:2 
0 1 1:1.05 13:2 15:1.05 19:6 20:2 21:1 
1 1 1:0.05 2:0.066666667 5:1 8:1 12:1 13:1 15:0.25 19:6 20:3 21:2 24:1 64:1 78:1 92:1 
0 1 1:0.4 13:1 15:0.4 19:1 20:2 21:2 53:1 
0 1 1:0.825 13:3 14:1 15:0.825 19:8 20:5 21:3 24:1 69:1 94:1 
0 1 1:0.6 13:1 15:0.6 19:2 24:1 43:1 45:1 
1 1 1:-1.95 12:1 14:2 15:-0.6 17:3 19:2 20:2 21:1 24:1 27:1 
0 1 1:0.675 13:2 14:1 15:0.675 19:7 20:2 21:6 24:2 33:1 
0 1 1:0.875 13:3 15:1 19:4 21:7 24:2 63:1 
1 1 1:-0.4 14:1 15:-0.4 16:1 17:1 19:2 20:2 25:1 
0 1 1:0.975 13:3 15:0.975 19:5 20:4 24:2 56:1 
1 1 1:-1.125 12:1 13:2 14:3 15:-0.525 18:2 19:5 20:3 21:4 24:2 83:1 
0 1 1:0.225 13:2 15:0.975 19:5 20:3 
1 1 1:-0.375 2:0.058823529 5:1 12:1 13:1 14:1 15:0.1 19:4 20:6 21:6 69:1 82:1 
0 1 1:0.575 2:0.090909091 5:1 13:3 14:1 15:0.575 19:6 20:1 24:2 41:1 
0 1 1:0.75 13:2 15:0.875 19:2 20:3 24:2 39:1 
0 1 1:1.025 13:4 15:1.15 19:6 20:3 21:1 24:2 63:1 
1 1 1:-0.5 2:0.083333333 5:1 14:1 15:-0.5 19:5 20:2 21:3 24:1 53:1 
1 1 1:0.1 13:1 14:1 15:0.1 19:3 20:2 43:1 
0 1 1:0.875 13:1 15:0.75 19:4 20:3 
1 1 1:0.075 13:2 14:1 15:0.075 16:1 19:7 20:5 24:1 
0 1 1:0.525 13:2 15:0.525 16:1 17:1 19:3 20:2 21:4 25:1 34:1 
0 1 1:0.4 13:1 15:0.4 19:4 21:3 24:1 43:1 
1 1 1:0.025 13:1 14:1 15:0.15 19:3 20:5 
0 1 1:0.475 13:2 14:1 15:0.475 19:4 20:2 24:1 33:1 
1 1 1:-0.55 13:1 14:2 15:-0.55 19:2 20:3 21:1 65:1 
0 0.2844480124594714 1:0.925 13:2 15:0.925 17:1 19:2 20:1 24:2 25:1 51:1 75:1 
0 1 1:0.25 13:1 15:0.25 19:1 
0 1 1:0.725 13:2 15:0.725 17:1 19:3 20:4 21:1 25:1 96:1 
0 1 1:1.25 2:0.090909091 5:1 13:3 15:1.375 19:2 20:4 21:2 24:3 92:1 
0 1 1:0.25 10:1 13:1 15:0.25 17:1 19:4 21:3 24:2 25:1 43:1 46:1 76:1 
0 1 1:-0.1 8:1 14:1 15:-0.5 17:2 19:3 20:6 21:1 25:1 78:1 
1 1 1:0.2 13:3 14:1 15:0.325 19:5 20:1 21:1 24:2 75:1 79:1 
1 1 1:0.125 13:2 14:1 15:0.125 19:2 20:2 24:3 43:1 59:1 60:1 
0 1 1:-0.475 12:1 13:1 15:0.125 17:1 19:2 20:4 21:1 25:1 51:1 53:1 75:1 91:1 
0 1 1:1.475 13:3 15:1.475 19:6 20:3 21:1 24:2 33:1 
1 1 1:0.4 13:1 14:1 15:0.4 16:1 19:2 20:7 21:3 69:1 
0 1 1:0.6 13:1 15:0.6 17:1 24:1 25:1 59:1 
0 1 1:1 13:2 15:1 17:1 19:3 20:1 21:1 25:1 90:1 96:1 
1 1 1:0.525 13:3 14:1 15:0.65 16:2 19:4 20:3 23:1 24:2 32:1 35:1 
1 1 1:0.525 12:1 13:3 15:1.125 19:5 20:4 21:7 24:1 
0 1 1:0.725 13:1 15:0.6 17:3 19:3 20:1 21:1 24:2 25:1 
1 0 1:1.125 12:2 13:4 15:1.725 19:3 20:2 21:4 24:3 
1 1 1:-1.05 12:1 14:1 15:-0.8 17:1 19:3 20:3 29:1 
0 1 1:1.075 13:3 14:1 15:1.075 16:1 19:3 20:1 21:4 24:2 34:1 
0 1 1:1 13:4 15:1.125 19:3 20:2 24:2 
1 1 1:-0.625 8:2 14:2 15:-0.9 19:4 20:2 21:3 24:1 78:1 
0.05057525719469183 1 1:0.25 13:1 15:0.25 18:2 19:6 20:1 21:3 24:2 43:1 
0 1 1:1.1 13:2 15:1.1 19:4 20:1 21:1 24:1 
0 1 1:0.625 13:2 15:0.625 16:1 17:1 19:2 20:2 21:1 24:2 25:1 
0 1 1:0.2 8:1 14:1 15:-0.2 19:3 20:1 24:2 78:1 81:1 
0 1 1:0.5 13:1 15:0.5 17:1 19:4 20:1 24:1 25:1 81:1 
1 1 1:-0.15 10:1 13:1 14:1 15:-0.15 19:5 20:3 21:6 24:2 43:1 46:1 76:1 
0 1 1:0.775 13:4 15:0.9 17:1 19:6 20:5 24:1 25:1 62:1 
0 1 1:0.675 13:2 14:1 15:0.675 19:3 20:4 24:1 54:1 
1 1 1:0.075 13:2 14:2 15:0.2 16:1 17:1 20:2 21:3 24:1 25:1 74:1 92:1 
1 1 1:-0.125 16:1 19:3 20:3 21:1 
0 1 1:-0.6 12:1 16:1 17:3 19:3 20:5 21:1 39:1 64:1 75:1 91:1 
0 1 1:0.675 2:0.25 3:1 5:1 13:2 15:0.8 19:1 20:1 24:1 32:1 
0 1 1:0.85 13:3 15:0.85 19:2 20:3 21:1 24:2 32:1 
0 1 1:-0.3 13:3 14:1 15:0.45 17:2 19:5 20:4 24:1 25:1 
1 1 1:-0.2 13:2 14:1 15:-0.075 17:3 19:5 20:4 21:2 24:1 67:1 
0 1 1:0.025 13:3 14:1 15:0.775 17:1 19:4 20:4 25:1 89:1 
0 1 1:0.6 13:2 15:0.725 19:4 20:2 21:1 24:2 33:1 76:1 
0 1 1:0.35 13:1 14:1 15:0.35 17:1 19:5 20:1 21:1 24:2 25:1 69:1 
0 1 1:0.4 2:0.2 5:1 13:1 15:0.4 17:1 19:3 20:1 25:1 88:1 
1 1 1:0.325 13:2 14:1 15:0.325 19:2 20:6 21:2 
0 1 1:0.6 13:1 15:0.6 19:4 20:2 21:1 75:1 96:1 
1 1 1:-0.775 2:0.14285714 4:1 5:1 12:1 13:1 14:3 15:-0.175 19:4 20:1 21:1 51:1 92:1 
0 1 1:0.8 13:3 15:0.925 17:1 19:4 20:1 21:1 25:1 43:1 92:1 
0 1 1:0.8 13:2 15:0.8 19:3 20:2 24:1 33:1 
1 1 1:-0.225 12:1 13:2 14:1 15:0.5 19:4 20:2 21:1 24:1 59:1 75:1 
0 1 1:0.85 13:3 15:0.85 19:4 20:3 21:6 24:3 34:1 
1 1 19:3 21:1 
1 1 1:-0.25 13:1 14:2 15:-0.125 19:5 20:3 24:1 64:1 
0 1 1:0.775 13:2 15:0.9 19:2 20:2 62:1 
1 1 1:0.525 13:2 15:0.525 19:4 20:4 24:1 
0 1 1:0.325 13:2 15:0.325 19:3 20:2 21:2 24:2 35:1 
0 1 1:1.025 13:2 15:1.025 19:1 20:3 62:1 
1 1 1:0.15 12:1 13:2 15:0.75 16:1 19:4 20:2 21:2 75:1 
1 0 1:-0.6 12:1 13:2 14:4 17:1 19:3 20:3 21:6 24:3 25:1 79:1 
0 1 1:0.6 13:1 15:0.6 17:1 19:5 20:1 24:1 25:1 39:1 75:1 
1 1 1:-1.1 14:2 15:-1.1 16:1 18:2 19:7 20:3 21:1 24:1 
0 1 1:0.525 8:1 13:1 15:0.125 17:1 19:1 24:1 25:1 35:1 78:1 
0 1 1:1.4 2:0.076923077 5:1 13:3 14:1 15:1.4 19:4 20:4 21:3 24:1 43:1 
0 1 1:1.075 2:0.076923077 5:1 13:3 14:1 15:1.2 17:1 19:9 20:1 24:1 25:1 70:1 
0 1 1:0.15 2:0.33333333 5:1 13:2 14:1 15:0.275 17:1 19:5 20:4 21:1 24:1 25:1 80:1 
1 1 1:0.3 13:2 14:1 15:0.3 19:3 20:6 24:2 44:1 48:1 
0 1 1:0.525 8:1 13:2 14:1 15:0.125 19:4 20:1 21:1 78:1 
1 1 1:-1.2 13:1 14:3 15:-1.2 19:5 20:4 21:1 38:1 42:1 75:1 91:1 
0 1 1:0.6 13:2 14:1 15:0.6 17:1 19:3 20:3 21:1 24:2 25:1 54:1 64:1 
0 1 1:0.25 13:2 15:0.25 17:1 19:3 20:3 21:1 24:2 25:1 
1 1 1:-0.175 12:1 13:1 14:2 15:-0.175 19:6 20:2 21:1 24:1 34:1 
1 1 1:0.325 13:2 14:1 15:0.325 19:4 20:3 21:1 94:1 
0 1 1:0.75 13:2 14:1 15:0.75 19:4 20:2 24:2 75:1 93:1 
0 1 1:1.5 2:0.083333333 5:1 13:4 15:1.5 19:5 20:5 
0 1 1:0.525 13:1 15:0.4 17:1 19:3 20:1 21:1 24:1 25:1 
1 1 1:-2.05 12:1 13:1 14:3 15:-1.05 19:6 20:2 24:2 33:1 61:1 
1 1 1:0.5 13:1 15:0.5 16:1 19:8 20:1 21:1 
1 1 1:-0.125 2:0.4 5:1 21:1 24:2 76:1 
0 1 1:1.156 13:2 15:1.156 19:4 20:2 21:4 24:2 77:1 
1 1 1:0.25 13:2 15:0.25 18:1 19:2 20:3 24:2 
0.6552654169101874 1 1:-0.2 2:0.2 4:1 5:1 12:1 13:1 14:1 15:0.4 17:1 20:1 21:1 24:2 25:1 28:1 
0 1 1:0.6 13:1 15:0.6 19:1 20:1 24:1 59:1 
0 1 1:0.4 2:0.375 3:1 5:1 13:1 15:0.4 17:1 19:2 20:2 25:1 39:1 88:1 
0 1 1:0.6 13:1 15:0.6 19:4 20:2 21:6 24:1 74:1 
0 1 1:1.2 13:2 15:1.2 19:3 20:3 21:4 24:2 74:1 
0 1 1:0.6 13:1 15:0.6 19:3 24:1 77:1 
1 1 1:-0.15 13:1 14:1 15:-0.15 19:7 20:2 24:2 43:1 
0 1 1:0.9 13:3 15:0.9 19:4 20:1 21:3 24:1 48:1 
1 1 1:-0.125 14:1 15:-0.125 19:5 20:2 24:2 
0 1 1:1.475 13:6 15:1.625 16:1 17:1 19:7 20:6 24:1 25:1 75:1 90:1 
1 1 1:-0.025 13:1 14:1 15:0.1 19:1 20:2 45:1 
1 1 1:-1.425 12:1 13:3 14:3 15:-0.575 19:2 20:5 21:1 24:2 31:1 67:1 69:1 
1 1 1:-0.6 13:2 14:1 15:0.15 19:3 20:4 24:2 34:1 
0 1 1:0.725 13:2 15:0.725 17:1 19:1 20:2 25:1 96:1 
1 1 1:0.45 13:3 15:0.575 19:5 20:3 
1 1 1:0.875 13:3 14:1 15:0.875 16:1 19:4 20:3 21:7 24:2 64:1 
0 1 1:0.6 8:1 13:1 15:0.2 19:3 20:3 78:1 
0 1 1:0.6 13:1 15:0.6 19:3 20:3 24:1 32:1 
1 1 1:-0.1 13:2 14:2 15:-0.1 19:5 20:5 24:1 62:1 
0 1 1:0.4 13:1 15:0.4 19:4 20:2 24:1 88:1 
1 1 1:0.025 13:1 14:3 15:-0.175 16:1 19:5 20:2 24:3 69:1 
0 1 1:0.9 13:2 15:0.9 19:1 20:1 
0 1 1:0.525 2:0.11111111 5:1 8:1 13:1 15:0.125 16:1 17:1 19:5 20:1 53:1 78:1 
0 1 1:1.225 13:3 15:0.975 19:7 20:4 21:1 24:2 
1 1 1:-0.475 12:1 13:1 15:0.125 17:2 19:4 20:5 21:2 25:1 
0 0.3953543641308855 1:1.875 13:5 15:2 19:5 20:4 21:1 24:1 
1 1 1:-1.2 12:1 13:2 14:2 15:-0.6 17:1 19:4 20:5 21:3 25:1 64:1 85:1 
1 1 1:-0.45 2:0.23809524 4:2 5:1 13:4 14:4 15:-0.95 17:1 19:10 20:2 21:5 24:2 25:1 34:1 35:1 43:1 63:1 85:1 92:1 
0 0.7178281656927703 1:0.675 13:2 14:1 15:0.675 20:1 21:1 24:1 39:1 45:1 79:1 
0 1 1:1.05 2:0.1 5:1 13:2 15:1.05 19:6 20:1 24:2 30:1 43:1 
0 1 1:0.9 2:0.1 5:1 13:4 15:1.025 19:4 20:4 24:2 
0 1 1:0.4 13:1 14:1 15:0.275 19:2 20:2 53:1 
0 1 1:0.1 13:1 14:1 15:0.1 17:2 19:2 20:1 24:1 25:1 59:1 
1 1 1:0.4 13:3 14:1 15:0.4 16:1 18:2 19:3 20:5 21:1 24:1 82:1 
0 1 1:0.725 13:2 15:0.725 17:2 19:6 20:2 24:2 26:1 43:1 92:1 
1 1 1:-0.075 13:2 14:3 15:-0.2 19:5 20:5 21:1 24:1 34:1 
1 1 1:0.825 13:3 14:1 15:0.825 19:5 20:2 21:10 24:2 77:1 
0 1 1:1.05 13:3 15:1.05 19:5 24:2 35:1 56:1 
0 1 1:0.4 13:1 15:0.4 19:2 20:1 24:1 
0 0.7520732969251106 1:1.3 8:1 13:5 14:1 15:0.4 16:1 17:1 19:7 20:6 21:1 24:1 25:1 35:1 78:1 94:1 
0 1 1:0.4 13:1 15:0.4 19:2 20:3 39:1 88:1 
1 1 1:-0.5 13:1 14:1 15:-0.375 19:2 20:4 
1 1 1:0.6 13:2 15:0.725 19:6 20:5 21:1 24:1 
1 1 1:-0.25 13:1 14:1 15:-0.25 17:3 19:2 20:4 21:1 27:1 
0 1 8:1 14:1 15:-0.4 19:1 20:2 21:1 24:1 78:1 
0 1 1:0.45 13:3 14:2 15:0.575 19:4 20:2 21:1 69:1 
1 1 1:-0.3 13:1 14:1 15:-0.3 17:1 19:4 20:2 24:1 25:1 
1 1 1:-1.575 12:1 13:1 14:1 15:-0.1 17:4 19:3 20:4 21:6 25:1 39:1 44:1 
1 1 13:1 15:0.125 19:3 20:2 21:1 24:1 
1 1 1:0.2 2:0.14285714 5:1 13:1 14:1 15:0.2 19:4 20:2 21:1 39:1 88:1 
0 1 1:0.2 13:2 14:1 15:0.325 17:2 19:3 21:5 24:1 25:1 
0 1 17:1 19:1 20:3 21:1 25:1 38:1 91:1 
0 1 1:0.4 13:1 15:0.4 17:1 19:3 20:1 24:2 25:1 
0 0.02810671467045289 1:-0.875 14:1 15:-0.125 17:3 20:4 21:1 25:1 26:1 39:1 49:1 66:1 
0 1 1:0.375 13:1 15:0.5 17:2 19:3 20:1 24:2 25:1 75:1 
1 1 1:0.4 13:2 15:0.65 19:7 20:3 21:4 24:2 
1 1 1:-1.225 14:2 15:-1.225 19:4 20:2 24:1 
1 0 1:0.725 12:2 13:4 14:2 15:0.925 16:1 17:2 19:3 20:1 21:7 24:2 25:1 59:1 98:1 
0 1 1:1.1 13:3 15:1.35 16:1 19:6 24:1 59:1 
1 1 1:0.225 13:1 15:0.6 16:1 19:1 20:3 24:2 
0 1 1:0.2 2:0.11111111 5:1 13:1 15:0.2 17:2 19:3 20:2 24:3 26:1 
0.640839310484322 0.4551690777774299 1:0.05 13:4 14:3 15:0.05 17:2 19:4 20:4 26:1 70:1 
1 1 1:-0.675 6:1 7:1 14:1 15:-0.5 17:2 20:2 21:1 26:1 
0 1 1:1.575 13:3 14:1 15:1.575 19:8 20:1 24:1 45:1 
0 1 1:1.175 2:0.058823529 5:1 8:1 13:4 15:0.9 19:6 20:4 21:4 24:2 75:1 78:1 
1 0 1:0.55 12:2 13:7 14:2 15:1.275 19:1 20:6 21:4 24:3 
1 1 1:-1.475 2:0.11111111 5:1 12:1 17:1 19:3 20:2 21:1 25:1 
0 1 1:0.4 13:1 15:0.4 20:1 24:1 
1 1 13:2 14:1 15:-0.25 17:1 19:4 20:4 25:1 
0 1 1:-0.1 12:1 13:1 15:0.5 17:1 19:3 20:2 21:1 25:1 91:1 
1 1 1:-0.3 13:1 14:1 15:-0.3 19:5 20:2 21:1 24:2 83:1 
1 1 1:0.025 13:2 14:1 15:0.15 16:1 19:1 20:4 24:1 62:1 
0 1 18:2 19:2 20:1 24:1 76:1 
0 1 1:2 13:5 15:1.5 16:1 19:6 24:3 74:1 90:1 
1 1 1:-0.125 13:1 14:1 15:-0.125 19:2 20:2 
0 1 1:0.725 13:2 15:0.725 17:1 19:3 20:3 25:1 69:1 
1 0 1:-0.95 12:2 13:2 14:2 15:-0.1 17:1 19:3 20:4 21:1 24:1 56:1 62:1 
1 1 1:0.6 13:1 15:0.6 19:2 20:3 21:6 
0 1 1:1.05 13:3 15:1.05 19:5 20:2 21:3 24:1 37:1 75:1 
0 1 1:0.925 13:3 15:0.925 17:1 19:2 20:3 21:3 25:1 
0 1 17:1 19:2 20:3 21:3 24:1 25:1 
1 1 1:-0.175 12:1 13:2 14:1 15:0.425 17:1 19:3 20:3 21:1 24:2 25:1 
1 1 1:-0.15 12:1 13:1 14:1 15:0.1 18:2 19:4 20:2 24:1 38:1 91:1 
0 1 1:0.6 13:2 14:1 15:0.6 19:7 20:2 21:1 24:1 49:1 66:1 
1 1 1:-0.55 13:3 14:1 15:0.325 19:3 20:5 21:2 24:1 
0 1 1:0.3 13:4 15:1.3 17:1 19:5 20:3 24:1 25:1 
0 1 1:0.4 2:0.090909091 5:1 8:1 17:5 19:4 20:3 26:1 27:1 78:1 
1 1 1:0.525 13:3 14:1 15:0.525 19:5 20:3 21:3 24:1 90:1 
0 1 1:1.1 13:1 15:0.6 17:1 19:2 20:1 24:1 25:1 45:1 
0 1 1:1 2:0.33333333 3:1 5:1 13:2 15:1 19:5 20:1 24:1 
0 1 1:0.525 2:0.052631579 5:1 13:3 14:1 15:0.525 17:2 19:8 20:2 21:4 24:1 25:1 
1 1 12:1 13:2 15:0.725 19:3 20:2 21:4 24:2 74:1 
1 1 1:-1.2 12:1 13:1 14:1 15:-0.6 19:5 20:5 21:2 24:1 50:1 98:1 
0 1 1:1 13:2 15:1 19:4 24:1 32:1 90:1 
0 1 1:0.525 13:2 15:0.65 17:1 19:6 20:1 24:1 25:1 80:1 
0 1 13:1 15:0.125 17:2 19:1 20:3 25:1 39:1 
0 1 1:0.8 2:0.076923077 5:1 10:1 13:3 14:1 15:0.8 19:7 20:3 24:2 32:1 35:1 46:1 
0 1 1:0.725 13:2 15:0.725 19:5 20:1 24:2 77:1 
0 1 1:1.775 13:4 15:1.775 19:5 20:3 21:6 24:1 93:1 
1 1 1:0.6 13:2 15:0.6 19:5 20:5 64:1 
0 1 2:0.28571429 5:1 17:6 19:3 20:1 25:1 26:1 75:1 
0 1 1:0.125 10:2 13:1 15:0.125 19:1 20:3 21:2 46:1 
0.9418073700593563 1 1:0.475 13:2 14:1 15:0.475 19:4 20:3 44:1 
0 1 1:0.125 13:1 15:0.125 17:1 19:4 20:2 21:2 24:1 25:1 
0 1 1:0.45 13:3 14:2 15:0.45 17:1 19:6 20:4 21:1 24:3 25:1 30:1 61:1 
0 1 1:0.125 13:1 15:0.125 19:3 24:3 43:1 76:1 
0 1 1:1.125 13:3 15:0.875 19:2 20:4 
1 1 1:0.4 13:2 14:1 15:0.525 19:4 20:4 21:1 24:5 33:1 
0 1 1:0.2 10:1 13:1 14:1 15:-0.3 17:1 20:2 24:1 25:1 46:1 
1 1 1:-0.55 13:2 14:1 15:0.325 19:3 20:4 21:1 
0 1 1:0.4 2:0.076923077 5:1 13:1 15:0.4 17:2 19:6 20:2 21:1 24:2 26:1 75:1 90:1 
0 1 1:1 13:3 15:1 17:1 19:4 20:2 25:1 43:1 90:1 
0 1 1:0.85 13:2 15:0.975 19:4 20:1 21:1 24:1 
0 1 1:1.425 13:3 15:1.425 19:6 20:1 21:4 24:2 43:1 80:1 
0 1 1:1.325 2:0.0625 5:1 8:1 13:3 15:1.05 17:1 19:9 21:1 25:1 78:1 
0 1 1:0.6 13:1 15:0.6 17:1 19:2 20:1 21:1 24:1 25:1 59:1 
0.9059020407879503 0 1:-0.675 12:1 13:3 14:3 15:0.05 17:3 19:4 20:6 21:4 24:2 25:1 39:1 
1 1 1:0.075 13:1 14:1 15:0.2 19:4 20:1 21:4 
1 0 1:-0.125 12:1 13:4 14:3 15:-0.575 17:1 18:2 19:4 20:2 21:1 25:1 34:1 
0 1 1:1.2 13:4 14:2 15:0.95 19:7 20:1 21:4 24:5 75:1 
1 1 1:-0.25 13:1 14:2 15:-0.25 19:4 20:3 21:1 49:1 66:1 
1 1 1:-0.75 14:2 15:-0.75 16:1 17:1 19:7 20:4 21:5 25:1 49:1 53:1 66:1 
0 1 1:1.35 2:0.14285714 3:1 5:1 13:3 15:1.35 18:2 19:4 20:1 24:2 59:1 
0 1 1:-0.625 13:1 15:0.125 17:1 19:1 20:3 25:1 
0 1 1:0.55 13:2 14:1 15:0.55 18:2 19:3 24:1 98:1 
1 1 1:0.275 13:2 14:1 15:0.4 19:3 20:3 
1 1 1:0.125 13:1 15:0.125 19:4 20:1 24:2 
0 1 1:0.275 13:2 14:1 15:0.4 17:1 19:5 21:7 25:1 63:1 
1 0 1:-0.75 8:1 12:1 13:3 14:2 15:0.275 19:2 20:4 21:1 24:2 78:1 
1 1 1:-1.05 13:2 14:1 15:0.575 19:6 20:1 24:1 
1 1 1:-0.325 2:0.071428571 5:1 12:1 14:1 15:-0.2 19:7 20:4 21:1 24:1 36:1 76:1 
0 1 1:0.6 13:1 15:0.6 19:1 20:1 24:1 33:1 75:1 76:1 
1 1 1:-0.675 14:1 15:-0.8 16:1 19:4 20:1 24:1 75:1 
0 1 1:0.5 13:2 15:0.5 17:1 19:2 20:2 24:4 25:1 
0 1 1:0.1 13:1 14:1 15:0.1 17:2 19:4 20:2 21:1 25:1 43:1 
1 1 1:0.125 13:2 14:1 15:0.125 19:6 20:2 67:1 69:1 
0 1 1:0.275 2:0.071428571 4:1 5:1 13:1 14:1 15:0.275 17:5 19:6 20:2 24:1 25:1 26:1 53:1 68:1 75:1 88:1 
0 1 1:0.6 13:1 15:0.6 19:2 20:1 21:1 43:1 82:1 
0 1 1:1.1 13:2 15:0.85 19:1 20:2 21:2 24:3 33:1 81:1 
0 1 1:0.275 13:4 14:2 15:1.15 19:5 20:3 94:1 
0 1 1:0.85 13:3 15:0.975 19:2 20:2 24:2 33:1 81:1 
1 1 1:-0.15 13:1 15:0.6 19:6 20:2 21:6 24:2 43:1 56:1 
0 1 1:0.625 13:2 15:0.625 17:1 19:8 20:3 21:4 24:1 25:1 75:1 92:1 
0 1 1:0.2 13:1 15:0.2 17:1 19:3 20:3 21:1 24:2 25:1 
0 1 1:0.725 13:2 15:0.725 19:2 20:3 21:3 24:2 56:1 
1 1 1:-0.875 19:5 20:1 21:2 
0 1 1:1.25 13:3 15:0.75 16:1 19:3 20:3 24:2 75:1 
0 1 1:0.4 2:0.5 3:1 5:1 13:1 15:0.4 19:1 20:1 21:1 24:3 34:1 
1 1 1:-1.75 12:1 13:1 14:2 15:-0.4 17:2 19:2 20:1 21:1 26:1 
0 1 1:1.225 13:2 15:1.225 19:2 20:2 24:2 
0 1 1:0.725 13:2 15:0.725 19:2 20:2 21:1 24:1 33:1 39:1 
1 1 1:-0.1 12:1 13:1 15:0.5 19:6 20:4 21:2 24:1 91:1 
1 1 1:0.325 13:2 15:0.325 19:4 20:3 21:3 24:1 
0 1 1:1.175 13:3 15:1.175 19:5 20:2 21:3 24:2 35:1 43:1 76:1 
0 1 1:0.35 13:1 14:1 15:0.475 19:2 20:1 21:1 24:2 74:1 
1 1 1:0.35 13:4 14:3 15:0.5 16:1 19:4 20:2 24:3 41:1 
0 1 1:0.6 13:1 15:0.6 19:2 20:1 21:1 43:1 82:1 
0 1 1:1.2 13:3 14:1 15:1.2 19:6 20:4 21:1 24:1 69:1 
0 1 1:0.325 13:2 14:1 15:0.325 19:3 20:2 21:1 24:2 49:1 66:1 
1 1 1:-2 12:2 14:1 15:-0.4 18:2 19:3 20:6 21:2 91:1 
1 1 1:-0.025 13:4 14:1 15:0.1 16:1 17:1 19:5 20:3 21:1 24:1 25:1 82:1 85:1 
0 1 1:0.15 13:4 14:2 15:0.9 20:3 24:2 41:1 
0 1 1:1.25 13:3 15:1 20:3 24:1 34:1 62:1 
0 1 1:1.35 13:3 15:1.475 19:5 20:2 21:3 24:1 77:1 
1 1 1:-1.3 12:1 14:1 15:-0.2 17:2 19:3 20:2 21:2 25:1 
0 1 1:-0.55 2:0.2 5:1 13:1 15:0.2 17:4 19:2 20:2 25:1 26:1 45:1 98:1 
1 1 1:0.35 13:1 14:1 15:0.35 20:2 21:3 24:1 45:1 
0 1 1:1.075 13:2 14:1 15:1.075 19:4 20:2 70:1 
1 1 1:-0.275 2:0.076923077 5:1 12:1 13:3 14:1 15:0.325 17:1 19:7 20:2 21:1 24:2 25:1 
1 1 1:-1 12:1 14:1 15:-0.4 17:1 19:3 20:2 21:1 25:1 
0 1 1:-0.15 13:2 14:1 15:-0.15 17:2 19:2 20:2 24:1 26:1 
1 1 1:-1.2 2:0.083333333 5:1 12:1 13:2 14:1 15:0.275 17:2 19:2 20:4 21:1 24:4 26:1 
1 1 1:0.475 13:1 14:1 15:0.475 19:4 20:2 21:6 24:1 56:1 
1 1 1:0.075 13:2 14:2 15:0.075 16:1 19:5 20:3 21:3 24:2 51:1 61:1 64:1 
1 1 1:0.1 13:1 14:1 15:0.1 19:1 20:1 21:1 24:1 33:1 
0 1 1:0.975 13:5 15:1.475 19:2 20:5 21:1 24:2 39:1 
0 1 1:0.9 13:2 15:0.9 19:5 20:1 43:1 
0 1 1:0.6 13:1 15:0.6 19:2 20:1 21:3 24:1 96:1 
1 1 1:0.1 13:2 14:1 15:0.225 19:6 20:2 21:4 24:1 33:1 
0 1 1:-0.1 8:1 14:1 15:-0.5 19:2 20:1 53:1 78:1 
1 1 1:0.325 13:3 14:2 15:0.325 19:4 20:1 21:1 24:1 
0 1 17:3 19:3 20:3 24:2 27:1 
1 1 1:-0.35 2:0.066666667 5:1 12:1 13:1 15:0.125 16:1 17:1 19:3 20:5 21:4 25:1 91:1 
1 1 1:-0.125 8:1 12:1 13:1 15:0.2 16:1 19:2 21:1 24:1 78:1 
0 1 1:0.125 13:1 15:0.125 17:2 19:2 20:2 21:3 24:2 25:1 39:1 
1 1 1:0.2 2:0.083333333 5:1 8:1 13:1 14:2 15:-0.2 19:1 20:9 24:1 78:1 
0 1 1:1.25 13:4 15:1.25 19:5 20:2 21:3 24:6 34:1 54:1 76:1 
1 1 1:0.925 12:1 13:3 15:1.525 19:6 20:4 21:9 24:2 93:1 
0 1 1:0.125 13:1 15:0.125 17:1 19:4 20:4 21:1 25:1 43:1 
0 1 1:1.4 13:3 15:1.4 19:5 20:3 24:1 69:1 
1 1 1:-0.625 14:1 15:-0.5 19:1 20:2 
0 1 1:0.4 13:1 15:0.4 19:3 24:1 
1 1 1:-0.75 13:2 14:1 15:1.110223e-16 19:4 20:1 24:2 35:1 
0 1 1:1 13:2 15:1 17:2 19:6 20:2 24:1 25:1 
0.4918967216875566 1 1:0.4 13:1 15:0.4 19:4 20:3 24:1 62:1 
1 1 1:-0.25 13:1 14:1 15:-0.25 16:1 17:1 19:3 20:2 21:4 25:1 
0 1 1:0.9 13:2 15:0.9 17:1 19:6 20:1 25:1 62:1 75:1 
0 1 1:0.575 13:2 14:1 15:0.575 19:4 20:1 53:1 
0 1 1:0.45 13:2 15:0.45 19:2 20:2 21:1 24:2 
0 1 1:0.225 13:2 15:0.975 17:1 19:9 20:1 21:1 24:2 25:1 56:1 
0 1 1:0.2 13:1 15:0.2 17:1 19:1 20:3 21:1 24:1 25:1 81:1 
0 1 1:0.4 13:1 15:0.4 17:1 19:5 24:3 25:1 
1 1 1:0.125 19:3 20:3 43:1 53:1 
0 1 1:1.05 6:1 13:3 15:0.925 17:1 19:3 20:4 21:3 25:1 90:1 
0 1 1:-0.1 12:1 13:1 15:0.5 17:1 19:6 21:1 25:1 43:1 
0 1 1:0.725 13:2 15:0.725 19:2 20:1 21:1 24:1 77:1 
0 1 1:0.375 13:1 15:0.375 19:2 20:1 21:1 
1 1 1:0.375 13:1 15:0.125 19:8 20:9 21:1 24:2 
0 1 1:1.025 8:1 13:2 14:1 15:0.625 19:6 20:1 21:3 24:4 78:1 
1 1 1:0.1 13:2 14:1 15:0.1 19:4 20:1 21:3 24:1 59:1 92:1 
0 1 1:0.55 13:1 14:1 15:0.425 19:3 20:1 24:1 43:1 
0 1 1:0.8 13:2 15:0.8 19:8 20:3 24:2 43:1 
0 1 1:0.85 13:2 15:0.85 19:2 20:2 53:1 69:1 
0 1 1:0.725 13:3 15:0.725 19:3 20:2 21:1 24:1 43:1 89:1 98:1 
0 1 1:0.525 13:3 14:1 15:0.525 16:1 19:1 20:4 69:1 98:1 
0 1 1:0.725 13:2 15:0.725 17:1 19:2 20:1 21:2 24:1 25:1 
0 1 1:0.55 13:2 14:1 15:0.55 16:1 17:3 19:1 20:2 27:1 
0 1 1:1.175 2:0.33333333 5:1 13:4 15:1.3 19:6 24:3 35:1 
0 1 1:0.975 13:1 15:0.6 19:5 20:4 24:2 33:1 
0 1 1:1 8:1 13:1 15:0.6 19:5 20:3 78:1 
1 1 1:0.075 13:1 14:1 15:0.075 19:5 24:1 41:1 75:1 
0 1 1:0.2 13:1 15:0.2 19:2 20:1 24:1 75:1 98:1 
0 1 1:0.6 2:0.090909091 5:1 13:1 15:0.6 17:2 19:5 20:1 21:1 24:1 25:1 
1 1 1:0.15 12:1 13:2 15:0.75 19:5 20:4 21:1 24:1 43:1 
0.7608786949016809 1 1:0.725 2:0.071428571 5:1 13:2 15:0.725 19:5 20:5 24:3 81:1 
0 1 1:0.6 2:0.2 3:1 5:1 13:1 15:0.6 19:5 21:2 24:2 56:1 
0 1 1:0.975 2:0.11764706 4:1 5:1 13:4 14:1 15:1.1 19:5 20:5 21:6 24:1 43:1 69:1 
1 1 1:0.275 12:1 13:3 14:2 15:0.875 19:5 20:4 21:6 24:2 52:1 79:1 
1 1 1:-1 2:0.11111111 3:1 5:1 12:1 13:1 14:3 15:-1 17:2 19:5 20:1 25:1 75:1 
1 1 1:0.475 13:2 14:1 15:0.475 19:3 20:3 21:1 62:1 82:1 
1 1 1:0.5 2:0.125 3:1 5:1 8:1 13:1 14:2 15:-0.4 16:1 19:2 20:2 58:1 78:1 
1 1 1:0.25 12:1 13:3 14:1 15:0.85 19:4 20:3 21:5 24:2 67:1 93:1 
1 1 1:0.425 13:3 14:1 15:0.425 19:4 20:1 21:4 24:2 45:1 
0 1 1:0.65 13:2 15:0.65 17:1 19:5 20:2 24:1 25:1 
1 1 1:-0.725 13:1 14:2 15:-0.725 17:1 19:3 20:4 24:2 25:1 
0 1 1:0.4 8:1 16:1 19:2 20:5 78:1 
0 1 1:0.6 13:1 15:0.6 19:1 24:1 
0 1 1:0.675 13:1 15:0.8 19:3 20:4 21:2 24:2 52:1 
0 1 1:1.525 13:3 15:1.525 19:3 20:1 24:2 
0 1 1:0.325 13:2 14:1 15:0.325 17:2 19:2 20:2 21:1 24:1 25:1 
0 1 1:-0.475 12:1 13:1 15:0.125 17:2 19:1 20:5 21:1 25:1 91:1 
0 1 1:1.275 13:4 14:1 15:1.025 19:5 20:4 75:1 
0 1 1:0.5 13:1 15:0.5 19:1 20:1 24:1 
1 0.7720185403536715 1:-0.075 12:1 13:6 14:4 15:0.075 18:2 19:3 20:6 21:5 24:3 51:1 
0 1 1:0.8 13:3 15:1.4 19:2 20:3 
1 1 1:-0.15 13:1 14:2 15:-0.15 16:1 17:1 19:4 20:3 21:1 25:1 39:1 75:1 
0 1 1:0.4 13:1 15:0.4 18:2 19:1 20:1 24:2 34:1 
0 1 1:1 12:1 13:4 15:2.2 19:9 20:4 21:2 58:1 90:1 
1 1 1:0.4 13:1 15:0.4 19:1 20:4 21:2 24:1 44:1 83:1 
0 1 1:0.8 13:2 15:0.8 19:4 20:2 24:1 
0 1 1:-0.025 13:2 15:0.725 17:1 19:5 20:4 21:1 25:1 39:1 
1 1 1:-0.125 2:0.1 5:1 19:4 21:1 24:4 75:1 
0 1 1:0.2 8:1 12:1 13:1 15:0.4 19:3 20:2 21:2 63:1 78:1 
1 1 
0 1 1:0.375 13:1 15:0.375 17:1 19:2 20:1 21:1 25:1 
1 1 1:-0.425 13:1 14:2 15:-0.3 19:2 20:2 24:1 
1 0.834806374119296 1:-0.525 12:2 13:4 14:3 15:-0.275 19:5 20:2 21:1 24:1 51:1 53:1 54:1 
0 1 1:1.4 2:0.076923077 5:1 13:5 15:1.4 19:8 20:2 24:2 36:1 64:1 
1 1 1:0.275 13:2 14:1 15:0.275 19:1 20:4 21:1 
0 1 1:0.625 2:0.25 3:1 5:1 13:3 15:0.625 19:3 20:2 21:1 24:2 53:1 
1 1 1:-1.75 12:1 14:1 15:-0.4 17:1 19:2 20:3 21:1 24:1 25:1 39:1 75:1 
0 1 1:0.4 13:1 15:0.4 19:5 20:2 21:1 24:1 53:1 82:1 
1 1 1:-0.425 12:1 13:1 14:3 15:-0.425 19:3 20:2 
0 1 1:0.65 13:2 15:0.65 19:2 20:2 24:2 
0 1 1:0.475 13:1 15:0.6 19:1 20:2 21:1 24:1 33:1 
1 1 1:-0.875 12:1 13:1 14:1 15:-0.275 19:2 20:4 21:2 39:1 92:1 
0 1 1:1.275 13:2 15:1.4 16:1 19:4 20:1 21:1 24:2 57:1 
0 1 1:0.7 13:2 14:1 15:0.7 17:1 19:5 20:1 25:1 62:1 
0 1 1:-0.075 13:2 14:1 15:0.675 17:2 19:5 20:2 24:1 26:1 
0 1 1:0.025 13:3 14:2 15:0.025 17:5 19:6 20:4 26:1 27:1 
1 1 1:0.125 13:1 15:0.125 19:4 20:3 21:4 24:2 
0 1 19:3 24:1 76:1 
1 1 1:-1.25 2:0.11111111 5:1 13:1 14:1 15:-0.375 16:1 17:3 19:1 20:3 24:1 25:1 26:1 
0 0.01497729315831784 1:0.925 13:3 15:1.05 17:1 19:2 20:4 21:2 24:1 25:1 82:1 
0 1 1:0.125 2:0.076923077 5:1 12:1 13:1 14:1 15:0.375 17:6 19:4 20:1 25:1 27:1 
1 1 1:-0.15 12:1 13:3 14:1 15:0.45 17:1 19:4 20:2 21:1 25:1 94:1 
0 1 1:0.8 2:0.1 5:1 13:2 15:0.8 19:6 20:2 24:2 57:1 
1 1 1:-0.55 12:1 13:1 14:1 15:0.05 17:1 19:3 20:2 21:1 25:1 
1 1 1:0.125 2:0.076923077 5:1 13:1 15:0.125 19:6 20:4 21:2 24:1 
0 1 1:0.4 8:1 12:1 13:2 15:0.6 19:6 20:4 21:1 24:1 65:1 78:1 
0 1 1:0.15 8:1 13:1 15:0.625 17:1 19:5 20:2 25:1 78:1 
1 1 1:0.325 13:1 15:0.2 19:3 20:3 24:3 53:1 
0 1 1:0.525 13:3 14:1 15:0.525 19:4 20:4 39:1 94:1 
1 1 1:-0.125 13:1 14:1 15:-0.125 19:4 20:2 21:1 53:1 
0 1 1:0.8 13:1 15:0.8 16:1 20:2 21:1 24:1 28:1 
0 1 1:-0.175 10:1 13:3 14:1 15:0.7 19:3 20:3 21:6 24:1 35:1 39:1 46:1 53:1 76:1 88:1 
0 1 1:-0.725 13:1 14:2 15:-0.975 17:5 19:5 20:5 25:1 26:1 76:1 
1 1 1:-0.35 13:2 14:1 15:0.4 19:6 20:1 21:1 24:2 53:1 80:1 
0 1 1:0.25 10:1 13:1 15:0.25 18:2 19:5 20:3 21:4 46:1 
0 1 1:0.9 8:1 13:1 15:0.5 19:2 78:1 
0 1 1:-0.4 13:2 14:1 15:0.35 17:6 19:5 20:1 21:1 24:1 25:1 27:1 
0 1 1:1.2 13:3 15:1.325 19:2 20:3 21:1 24:1 28:1 
1 1 1:-0.65 12:1 13:4 14:2 15:0.075 17:1 19:4 20:2 21:4 25:1 43:1 53:1 
0 1 1:1 13:4 14:2 15:1 19:5 20:4 21:1 24:1 
1 1 1:-0.125 19:7 20:2 21:4 24:3 53:1 81:1 
0 1 1:1.075 2:0.076923077 5:1 13:3 14:1 15:1.2 17:1 19:9 20:1 24:1 25:1 70:1 
1 1 1:-0.75 14:1 15:-0.75 19:4 20:1 24:1 53:1 
0 1 1:0.525 13:2 15:0.65 17:2 18:3 19:4 20:3 26:1 
0 1 1:0.275 8:1 19:2 20:1 24:1 75:1 78:1 
1 0 1:-0.1 12:1 13:3 14:2 15:0.5 17:1 19:5 20:2 21:1 24:1 25:1 35:1 
0.3854536404387516 1 1:0.4 13:1 15:0.4 16:1 19:5 20:1 44:1 
0 1 1:1.175 13:4 15:1.3 19:4 20:2 21:1 24:3 48:1 
1 1 1:0.2 2:0.125 5:1 13:1 14:1 15:0.2 19:5 20:1 24:1 33:1 
0 1 1:0.6 13:1 15:0.6 20:2 39:1 
0 1 1:1.075 2:0.066666667 5:1 13:2 15:1.2 17:2 18:2 19:6 20:3 24:1 25:1 43:1 
0 1 1:1.125 13:3 15:1.125 19:3 20:2 21:2 24:1 
0 1 1:0.4 13:1 15:0.4 17:3 19:8 20:3 21:3 24:1 25:1 34:1 75:1 
0 1 1:0.9 13:1 15:0.4 19:1 21:5 24:2 
1 1 1:-0.55 12:1 13:1 14:1 15:0.075 17:1 19:1 20:2 21:4 24:1 83:1 91:1 
1 1 1:0.3 13:3 15:0.925 16:2 19:1 20:3 21:2 24:1 58:1 64:1 92:1 98:1 
0 1 1:1.325 13:3 15:1.325 19:3 20:7 24:1 
0 1 1:0.6 13:2 15:1.2 19:2 24:1 
0 1 1:0.275 13:1 15:0.4 19:2 24:1 34:1 83:1 
0 1 1:-0.7 13:2 14:1 15:0.05 17:3 19:2 20:1 24:2 27:1 35:1 
1 1 1:-0.825 12:1 13:3 14:1 15:0.525 19:2 20:2 21:2 24:2 82:1 
0 1 1:0.5 13:2 15:0.875 17:2 19:7 20:3 21:3 24:2 25:1 
0 1 1:0.4 8:1 16:1 17:2 19:4 20:3 21:3 25:1 39:1 78:1 
1 1 1:0.325 13:2 15:0.325 19:1 20:3 21:1 24:1 98:1 
0 1 1:0.975 13:3 15:1.1 19:5 20:5 21:1 24:3 
0 1 1:0.575 13:3 15:0.575 17:1 19:6 20:1 21:3 24:2 25:1 36:1 53:1 
1 1 1:-0.125 19:4 24:2 75:1 
1 1 1:0.125 13:2 15:0.25 19:3 20:3 24:3 53:1 64:1 
0 1 1:-0.25 13:2 14:1 15:-0.125 17:2 19:3 20:3 21:1 24:1 25:1 
0 1 1:0.5 13:1 15:0.5 19:1 20:2 
1 1 1:-0.975 12:1 14:4 15:-1.225 16:1 19:4 20:1 53:1 
1 1 1:-0.175 13:2 14:2 15:-0.175 19:3 20:5 21:2 24:1 
0 1 1:1.125 2:0.090909091 5:1 13:3 14:1 15:1.125 19:5 20:3 21:3 
0 1 1:0.625 13:1 15:0.625 17:1 19:4 20:4 21:3 25:1 39:1 
1 1 1:0.15 13:1 14:1 15:0.15 19:1 20:4 21:3 
0 1 1:0.4 13:1 15:0.4 19:4 20:3 24:1 
1 1 1:-0.925 13:2 14:1 15:-0.175 20:6 28:1 
0 1 1:0.4 13:1 15:0.4 17:2 19:8 20:3 21:1 25:1 53:1 75:1 
0 1 1:0.725 2:0.2 5:1 13:2 15:0.725 19:7 20:2 24:1 45:1 75:1 
0 1 1:-0.5 16:1 17:3 19:2 20:5 21:3 25:1 39:1 75:1 
0 1 1:0.675 2:0.57142857 3:1 5:1 13:2 14:1 15:0.675 19:3 20:1 24:1 57:1 
1 1 1:0.375 13:2 14:1 15:0.375 19:5 20:3 
1 1 1:0.4 13:2 14:1 15:0.275 19:4 20:4 21:1 24:1 34:1 
1 1 1:-0.15 2:0.071428571 5:1 13:2 14:1 15:0.6 19:6 20:4 21:2 24:1 66:1 
0.8427105079749911 1 1:0.1 13:1 14:1 15:0.1 19:3 20:1 22:1 24:2 54:1 75:1 
1 1 1:-0.9 12:1 13:2 14:3 15:-0.175 19:4 20:2 21:4 67:1 79:1 
0 1 1:1.4 13:3 15:1.4 19:5 20:3 24:1 69:1 
0 1 1:0.25 17:6 19:3 20:1 24:1 27:1 81:1 
0 1 1:0.25 19:1 21:1 24:1 
0 1 1:0.85 13:2 15:0.975 19:4 20:1 24:1 43:1 
1 1 1:-0.425 2:0.125 5:1 13:1 14:1 15:-0.3 17:1 19:4 20:6 21:3 24:1 25:1 
0 1 1:1.425 13:7 15:1.55 19:3 20:5 21:4 24:1 39:1 76:1 
0 1 1:0.6 13:1 15:0.6 19:2 20:1 21:1 43:1 82:1 
1 1 1:-0.15 13:2 14:1 15:-0.15 19:5 20:3 24:1 31:1 
0 1 1:0.4 13:1 15:0.4 19:2 20:3 21:2 24:1 89:1 
0 1 1:0.85 13:2 14:1 15:0.975 19:6 20:1 21:3 24:1 45:1 
0 1 1:0.6 13:1 15:0.6 19:3 24:1 33:1 
1 1 1:-0.025 2:0.18181818 3:1 5:1 13:1 14:1 15:0.1 19:3 20:5 21:3 69:1 
1 1 2:0.125 5:1 19:4 20:2 24:1 36:1 
0 1 1:0.475 13:1 15:0.6 19:3 20:1 21:1 24:2 33:1 76:1 
0 0.9206855202746568 1:0.3 2:0.083333333 3:1 4:1 5:1 13:2 14:2 15:0.85 17:11 19:3 20:1 21:2 26:1 27:1 
1 1 1:-0.025 13:1 14:1 15:0.225 19:4 20:5 21:6 
1 1 1:-0.2 12:1 13:2 15:0.775 19:6 20:1 21:3 24:1 82:1 
0 1 1:1.05 13:3 14:1 15:1.05 19:4 20:3 21:2 24:1 82:1 
0 1 1:1.4 2:0.1 5:1 13:2 15:1.4 19:5 24:3 75:1 
1 1 1:-0.2 13:1 14:1 15:-0.2 16:1 17:1 19:2 20:4 24:2 25:1 50:1 69:1 75:1 
1 1 1:0.65 13:2 15:0.65 19:9 20:2 21:4 24:1 
1 1 1:0.075 12:1 13:3 14:2 15:0.2 19:7 20:6 21:1 75:1 
0 1 1:0.75 2:0.1 5:1 13:3 14:1 15:0.75 19:2 20:4 21:1 24:2 
1 1 1:-0.625 14:1 15:-0.5 17:1 18:2 19:1 20:6 25:1 
0 1 1:0.8 2:0.14285714 5:1 13:2 15:0.8 19:2 20:2 
1 1 1:1 13:4 14:2 15:0.5 19:4 20:6 21:3 24:2 64:1 
0 1 1:0.475 13:2 14:1 15:0.6 19:5 20:1 69:1 
1 1 1:-0.375 12:1 16:1 17:1 19:5 20:1 21:1 
1 1 1:0.425 2:0.0625 4:1 5:1 13:1 14:1 15:0.55 19:5 20:1 21:6 24:3 37:1 
0 1 1:0.125 2:0.1 5:1 13:1 15:0.25 17:3 19:2 20:2 25:1 64:1 
1 1 1:-0.2 14:1 15:-0.2 19:1 20:7 21:1 24:1 38:1 76:1 91:1 
1 1 1:-0.1 12:1 13:1 15:0.5 19:3 20:3 21:1 91:1 
1 1 1:-0.625 14:1 15:-0.5 19:2 20:1 53:1 
1 1 1:0.125 2:0.2 5:1 13:1 15:0.125 16:2 19:2 20:3 24:1 
0 1 1:0.4 8:1 17:1 19:1 20:2 21:1 25:1 78:1 
1 1 19:5 20:4 21:3 24:2 83:1 
0.9532220640348147 1 1:0.6 8:1 12:1 13:2 14:1 15:0.2 19:5 20:1 21:4 24:1 78:1 97:1 
0 1 1:1.125 13:3 15:1.125 19:5 20:1 21:2 24:1 57:1 76:1 83:1 90:1 
0 1 1:1.25 13:3 15:1.25 19:8 20:2 21:1 24:2 75:1 77:1 
0 1 1:-0.6 12:1 16:1 17:2 19:1 20:4 21:1 25:1 64:1 91:1 
0 1 1:0.6 13:1 15:0.6 19:3 20:2 24:4 53:1 56:1 
1 1 16:1 19:4 20:1 21:3 75:1 
1 1 1:-0.3 2:0.11111111 5:1 13:2 14:2 15:-0.3 19:4 20:2 24:2 69:1 
0 1 1:0.975 13:3 15:0.975 19:5 20:4 24:3 96:1 
1 1 1:-0.05 12:1 13:2 14:1 15:0.2 17:1 19:4 20:1 21:1 97:1 
1 1 1:0.25 2:0.11111111 5:1 13:2 15:0.25 19:4 20:2 24:1 75:1 
0 1 1:1.25 2:0.18181818 3:1 5:1 13:4 15:1.375 17:1 19:7 20:1 24:2 25:1 
0.3448765193882288 1 1:0.725 2:0.071428571 5:1 13:3 14:1 15:0.85 19:7 20:3 21:1 24:3 33:1 
1 1 1:-0.725 2:0.090909091 5:1 12:1 13:2 15:0.625 16:1 17:1 19:4 20:3 21:1 25:1 91:1 
0 1 1:0.8 13:2 15:0.8 17:1 19:3 20:2 25:1 
0 1 1:0.75 13:3 14:1 15:0.875 19:6 20:6 21:7 24:2 43:1 
1 0 1:-0.475 12:2 13:2 14:1 15:0.75 16:1 17:2 19:4 20:3 21:1 24:1 25:1 
0 1 1:0.85 13:1 14:1 15:0.475 16:1 19:1 20:2 21:4 24:1 66:1 
1 1 19:2 20:1 24:1 
0 1 1:-0.2 14:1 15:-0.2 17:2 19:5 20:2 24:2 25:1 86:1 91:1 
0 1 1:0.5 13:1 15:0.625 17:2 19:4 20:1 21:2 26:1 
0 1 1:0.025 8:1 13:1 15:0.5 16:1 19:6 20:2 53:1 78:1 
0 1 1:0.475 13:1 15:0.6 19:6 20:3 21:3 69:1 
0 1 1:0.625 13:1 15:0.75 19:2 20:3 24:1 
0 1 1:1 13:2 15:1 16:1 19:3 20:3 24:1 33:1 62:1 
1 1 1:-0.125 14:1 15:-0.125 19:1 20:1 21:1 49:1 66:1 
1 1 1:-1.55 12:1 13:3 14:3 15:-0.2 19:3 20:3 21:1 24:3 
1 1 1:-1.1 12:1 13:2 14:2 15:-0.5 17:1 19:4 20:2 21:1 24:2 25:1 69:1 
0 1 1:0.8 13:3 15:0.925 19:4 20:3 24:1 39:1 53:1 69:1 
0 1 1:1.375 2:0.083333333 5:1 13:4 15:1.375 19:5 20:3 21:3 93:1 
0 1 1:0.8 2:0.2 5:1 8:1 13:1 15:0.4 19:1 24:1 78:1 
0 1 1:0.325 13:2 14:1 15:0.325 19:2 20:1 21:2 24:2 33:1 
0.2621775988274803 1 19:1 20:2 21:1 39:1 43:1 
1 1 1:-1.65 12:1 13:2 14:2 15:-0.3 19:3 20:5 21:1 24:1 
1 1 1:-0.9 2:0.0625 5:1 12:2 13:1 14:2 15:-0.175 16:1 17:1 19:6 20:4 21:2 25:1 
1 1 1:0.075 13:1 14:1 15:0.075 19:2 20:1 21:1 24:2 41:1 
0 1 1:0.6 13:1 15:0.6 19:2 20:1 45:1 53:1 
0 1 1:1.525 2:0.083333333 5:1 13:3 15:1.525 16:1 19:5 20:3 
0 1 1:1.4 2:0.071428571 5:1 13:4 15:0.9 18:2 19:7 20:2 24:2 43:1 
1 1 1:0.225 13:2 14:1 15:0.225 19:6 20:2 21:1 24:2 
1 1 1:-1.2 10:1 14:2 15:-1.2 17:2 19:3 20:3 24:1 25:1 46:1 
1 1 1:0.2 13:1 14:1 15:0.2 19:4 24:2 75:1 
0 1 1:1.4 13:4 15:0.9 18:2 19:7 20:2 24:2 43:1 
1 1 1:0.125 13:2 15:0.25 19:5 20:2 24:1 76:1 
1 1 19:6 20:3 21:1 24:2 
1 1 1:-0.8 14:2 15:-0.8 19:2 20:1 24:1 71:1 
0 1 1:0.325 13:3 14:2 15:0.325 17:2 19:4 20:4 21:1 25:1 76:1 
1 1 1:-0.25 10:1 13:3 14:3 15:-0.75 17:1 19:6 20:4 21:1 24:3 25:1 46:1 
1 1 1:-1.35 12:1 13:1 15:0.125 19:4 20:6 21:7 24:1 
0 1 1:0.35 13:1 15:0.6 19:2 21:2 
0 1 1:0.85 2:0.1 5:1 12:1 13:4 15:1.45 19:3 20:3 21:1 24:1 
0 1 1:0.85 13:2 15:0.85 17:1 19:5 20:6 21:3 24:1 25:1 64:1 69:1 76:1 
1 1 1:0.125 13:2 14:1 15:0.125 20:4 21:1 24:1 64:1 86:1 
1 1 1:-0.3 12:1 13:1 14:1 15:0.3 19:2 20:3 21:1 91:1 
0 1 17:1 19:1 20:2 25:1 
0 1 1:1.225 13:3 15:1.225 19:4 20:3 21:3 
0 1 1:0.075 13:3 15:0.95 19:2 20:4 24:1 39:1 97:1 
1 0 1:-0.2 2:0.090909091 5:1 12:1 13:1 14:1 15:0.4 19:3 20:4 21:2 24:1 30:1 82:1 91:1 
0 1 1:0.725 13:2 15:0.725 17:2 19:2 20:1 24:1 25:1 74:1 
0.7270406741441826 1 1:-0.525 2:0.1 5:1 12:1 13:2 14:1 15:0.2 17:1 19:3 20:3 21:1 25:1 91:1 
1 1 1:0.5 13:2 15:0.625 16:1 19:3 20:2 21:4 24:3 
1 0 1:-0.275 13:4 14:3 15:0.475 16:1 19:2 20:3 21:1 24:3 52:1 53:1 64:1 67:1 79:1 
0 1 1:0.225 2:0.071428571 3:1 5:1 13:3 14:1 15:0.725 17:1 19:4 20:2 21:4 24:1 25:1 30:1 
1 1 1:-0.425 2:0.043478261 3:1 5:1 13:3 14:2 15:0.325 19:8 20:5 21:8 24:1 91:1 
0 1 1:-0.2 2:0.076923077 5:1 13:1 14:1 15:-0.2 17:2 19:7 21:1 24:1 25:1 33:1 61:1 
1 0 1:-0.7 8:1 12:1 13:4 14:2 15:0.25 19:5 20:3 21:2 24:1 78:1 
1 1 1:0.35 13:3 14:2 15:0.35 19:5 20:2 21:2 24:3 51:1 75:1 83:1 94:1 
0 1 1:0.6 13:1 15:0.6 19:3 20:2 21:1 24:1 56:1 
0 1 1:0.675 13:3 14:1 15:0.925 17:1 19:5 20:4 25:1 43:1 90:1 
0 1 1:-0.125 19:1 75:1 76:1 
1 1 1:-1 12:1 14:1 15:-0.4 19:1 20:2 21:1 
1 1 1:0.1 13:3 14:1 15:0.1 19:4 20:5 21:3 71:1 91:1 
0 1 1:0.125 2:0.66666667 3:1 5:1 13:1 15:0.125 17:3 19:5 21:2 24:1 
1 1 1:-0.75 12:2 13:4 14:2 15:0.1 19:4 20:2 21:1 24:1 76:1 85:1 
1 0 1:-0.3 12:2 13:2 14:1 15:0.3 17:2 19:8 20:6 21:2 22:1 24:3 25:1 43:1 91:1 
1 1 1:-0.6 13:1 14:2 15:-0.6 19:5 20:2 21:1 24:1 75:1 
1 1 19:2 20:1 21:1 24:3 
0 1 1:0.85 13:3 14:2 15:0.85 16:1 19:3 20:2 24:2 
1 1 1:-0.075 12:1 14:1 15:-0.2 17:2 19:7 20:3 24:1 25:1 75:1 
1 1 1:-1.3 12:1 13:1 14:1 15:0.05 17:1 19:5 20:2 21:1 25:1 
1 1 1:0.5 13:2 14:1 15:0.5 16:4 19:1 20:4 21:3 24:1 49:1 66:1 
0.05031184843959177 1 1:0.525 13:2 15:0.525 19:7 20:1 21:1 
1 1 1:0.9 13:2 14:1 15:0.65 19:8 20:2 
0 1 1:1.1 13:2 15:1.1 19:4 20:2 21:1 45:1 
0 1 1:0.575 13:2 14:1 15:0.575 19:6 20:2 21:1 24:1 79:1 
1 1 1:0.675 13:1 14:1 15:0.675 19:4 21:6 24:1 93:1 
1 1 1:-0.45 12:1 13:2 14:1 15:0.4 19:1 20:4 21:2 24:2 49:1 62:1 66:1 
0 1 1:1.2 13:2 15:1.2 19:3 20:1 24:1 56:1 
1 1 1:0.375 13:2 15:0.375 19:4 20:2 21:3 24:3 
1 1 1:-0.025 13:1 14:1 15:0.1 19:4 20:2 21:1 
0 1 1:-0.475 8:1 19:2 20:1 21:4 43:1 78:1 
0 1 1:0.975 13:2 15:0.975 19:5 20:5 21:4 75:1 
0 1 1:-0.5 2:0.11111111 5:1 13:1 14:1 15:0.25 17:7 19:3 20:2 26:1 27:1 
0 1 1:0.6 13:1 15:0.6 17:1 19:2 21:2 24:1 25:1 
1 0 1:-0.675 12:3 13:1 14:1 15:-0.075 17:2 19:7 20:2 21:2 24:2 25:1 53:1 75:1 91:1 
1 1 1:-0.375 2:0.083333333 5:1 10:1 12:1 16:1 17:1 19:1 20:7 25:1 46:1 
0 1 1:0.375 13:2 15:0.875 19:9 21:4 24:2 
1 1 1:-0.125 13:2 15:0.625 16:2 19:4 20:4 21:1 24:1 83:1 
0 1 1:0.6 13:2 14:1 15:0.6 17:1 19:5 20:1 25:1 
1 1 1:0.6 13:3 14:1 15:0.6 19:8 20:2 24:1 43:1 
0 1 17:1 19:3 21:5 24:1 25:1 
0 1 1:0.025 8:1 13:1 15:0.375 19:2 20:2 21:1 24:1 78:1 
1 1 1:-0.25 2:0.083333333 5:1 19:2 20:1 21:3 24:5 
1 1 1:-1.5 13:1 14:4 15:-1.5 19:3 20:4 21:4 24:1 29:1 
1 1 1:-0.1 13:2 14:1 15:-0.1 19:4 20:5 21:2 24:1 39:1 82:1 
1 1 1:0.45 13:3 14:3 15:0.325 19:1 20:4 21:3 24:2 79:1 
0 1 1:0.65 13:2 15:0.775 16:1 19:6 20:1 21:2 24:4 81:1 
1 1 1:0.4 13:1 15:0.4 19:9 20:1 24:2 35:1 75:1 
1 1 13:1 14:1 19:3 20:3 21:2 24:1 68:1 
0 1 1:-0.125 2:0.2 5:1 14:1 15:-0.125 17:1 19:1 20:1 21:1 25:1 49:1 66:1 
0 1 1:0.3 13:2 14:1 15:0.3 17:1 19:6 20:4 21:3 24:2 25:1 33:1 
1 1 1:-1.625 14:2 15:-0.875 16:2 17:6 19:2 20:3 21:9 24:1 26:1 49:1 66:1 
1 1 1:-0.275 13:1 14:2 15:-0.275 19:3 20:3 21:3 49:1 66:1 82:1 
1 0 1:0.025 12:1 13:7 14:4 15:0.75 19:2 20:4 21:5 24:3 84:1 92:1 94:1 
0 0.4367229079355957 1:0.525 2:0.16666667 5:1 8:1 13:1 15:0.125 17:2 20:3 26:1 78:1 
1 1 1:-1.8 12:2 13:2 14:4 15:-0.325 19:5 20:5 21:4 24:2 69:1 
1 1 1:-1.475 14:2 15:-0.725 17:3 19:3 20:5 21:2 24:1 25:1 26:1 68:1 
0 1 1:0.075 2:0.30769231 5:1 13:1 15:0.2 17:3 18:2 19:2 21:1 24:1 27:1 
1 1 1:-0.475 9:1 13:3 14:2 15:-0.075 19:8 20:2 24:1 48:1 67:1 73:1 76:1 
1 1 12:1 13:2 14:1 15:0.725 16:1 19:5 20:2 21:2 24:4 33:1 75:1 76:1 
1 1 1:-0.225 13:2 14:2 15:0.525 17:1 19:9 20:2 21:3 24:1 25:1 51:1 
0 1 1:0.125 2:0.11111111 5:1 10:1 13:1 15:0.125 17:2 19:1 20:2 21:1 24:1 26:1 46:1 
1 1 1:-0.325 13:1 14:2 15:-0.325 17:1 19:5 20:5 24:1 25:1 66:1 75:1 
0 1 1:0.675 13:1 15:0.8 21:1 24:1 52:1 92:1 
0 1 1:0.25 13:2 15:0.375 19:2 20:2 24:1 75:1 
1 1 1:-1 8:1 13:1 14:2 15:-0.65 16:1 19:5 20:3 78:1 91:1 
1 1 1:-1.175 2:0.16666667 5:1 13:1 14:2 15:-0.425 19:1 20:3 24:1 
0 1 17:1 19:2 20:3 25:1 
0 1 1:0.2 2:0.090909091 5:1 13:1 15:0.2 17:1 19:2 20:1 24:2 25:1 35:1 81:1 
0 1 1:0.5 13:3 15:0.75 17:1 19:6 20:2 24:2 25:1 
1 1 1:-0.15 13:2 14:1 15:-0.15 19:7 20:2 21:4 24:1 
0.4535369856373072 1 1:-0.75 2:0.2 5:1 17:1 20:3 25:1 
0 1 1:0.8 13:2 15:0.925 17:1 19:4 20:2 21:3 24:1 25:1 52:1 
0 1 1:0.925 13:2 15:0.925 17:1 19:2 20:3 24:1 25:1 93:1 
1 1 1:0.15 13:1 14:1 15:0.275 19:5 20:2 24:1 
1 1 1:-0.625 12:1 13:1 14:4 15:-1.125 19:5 20:1 21:1 24:3 41:1 
0 1 1:0.625 13:3 15:0.625 19:4 20:2 24:1 
0.5943308497808572 1 1:0.4 2:0.18181818 5:1 12:1 13:3 15:1.6 19:3 20:4 21:2 58:1 64:1 75:1 
0 1 1:1.45 13:4 15:1.45 17:2 19:12 20:2 24:1 25:1 56:1 
0 1 1:0.875 2:0.090909091 5:1 13:4 15:1.125 19:6 20:1 21:1 24:1 
1 1 1:0.425 12:1 13:3 14:3 15:0.175 16:3 17:1 19:3 20:4 21:1 24:2 74:1 
1 1 1:-0.925 14:2 15:-0.8 19:1 20:3 24:1 
0 1 1:0.1 13:1 14:1 15:0.1 17:1 19:2 20:4 21:4 25:1 82:1 
0 1 1:0.375 13:1 15:0.375 19:2 20:1 24:1 75:1 76:1 
1 1 1:-1.225 12:1 14:1 15:-0.5 19:1 20:4 21:1 64:1 
0 1 1:0.525 8:1 13:1 15:0.125 19:3 24:1 78:1 
1 1 1:0.325 13:2 15:0.325 19:3 20:1 21:3 24:1 97:1 
0 1 2:0.1 5:1 17:1 19:4 21:2 24:1 25:1 
1 1 1:0.2 2:0.047619048 5:1 13:5 14:3 15:0.325 19:6 20:3 21:6 24:4 56:1 94:1 
1 1 1:0.125 13:1 15:0.125 19:3 20:1 21:3 24:1 
0 1 1:0.4 13:1 15:0.4 17:1 19:1 20:2 24:1 25:1 43:1 
1 1 13:2 15:0.25 19:7 21:1 24:2 
1 1 1:-1.225 12:1 13:1 15:0.125 19:1 20:3 21:1 91:1 
1 1 1:-0.425 13:2 15:0.325 19:5 20:4 21:6 24:1 75:1 
0 1 1:-0.1 12:1 13:1 15:0.5 17:1 19:5 20:2 21:1 25:1 91:1 
1 1 1:0.4 12:1 13:5 15:1 19:4 20:4 21:2 24:2 
0 1 1:0.6 13:1 15:0.6 19:1 20:1 
0 1 1:0.875 13:1 15:1 17:1 19:3 20:6 21:2 24:3 25:1 75:1 
0 1 1:0.125 2:0.125 5:1 13:1 15:0.125 17:1 19:1 20:2 21:1 24:1 25:1 
1 1 1:0.15 2:0.076923077 5:1 12:2 13:3 15:1.125 17:1 19:2 20:3 21:2 24:1 37:1 
0 1 2:0.15384615 5:1 17:1 19:3 20:1 21:5 24:1 25:1 
0 1 1:0.85 13:3 14:1 15:0.975 19:5 20:1 24:3 56:1 
1 1 1:0.8 13:3 14:1 15:0.8 16:3 19:2 20:1 21:1 24:1 79:1 81:1 
1 1 1:0.25 13:2 15:0.25 19:3 20:2 21:3 24:2 43:1 
1 1 1:-1.575 2:0.066666667 5:1 12:1 13:1 14:4 15:-0.975 17:3 19:7 20:3 21:2 24:1 25:1 26:1 
0 1 1:0.525 13:2 15:0.525 19:6 20:2 21:1 24:1 
1 1 1:-0.7 13:3 14:4 15:-1.475 16:1 17:1 18:4 19:5 20:5 21:1 24:1 25:1 43:1 64:1 83:1 
1 1 1:-0.4 13:1 14:1 15:-0.4 19:1 20:1 21:1 34:1 50:1 
0 1 1:1 13:3 15:1 19:2 20:3 21:3 24:1 62:1 75:1 
0 1 1:0.825 13:4 15:0.825 19:2 20:4 24:1 
1 1 1:-0.475 12:1 13:1 15:0.25 19:2 20:1 21:3 43:1 
1 1 19:3 20:2 21:2 
0 1 1:-0.65 2:0.1 4:1 5:1 13:1 14:2 15:-0.525 17:6 19:3 20:3 24:2 27:1 64:1 75:1 
1 0.1387651168630529 1:-3.05 13:3 14:6 15:-2.3 17:2 19:5 20:6 21:6 24:4 25:1 29:1 50:1 69:1 
1 1 1:-0.875 13:2 14:2 15:-0.125 19:5 20:3 21:5 24:1 42:1 75:1 79:1 
1 1 1:-0.125 13:1 14:1 19:5 20:1 24:1 
0 1 1:0.275 13:1 15:0.4 19:2 24:1 
0 1 1:0.8 2:0.13333333 3:1 5:1 13:2 15:0.8 17:1 19:7 20:5 24:2 25:1 75:1 
0 1 1:0.625 13:2 14:1 15:0.875 19:1 20:2 21:1 24:2 30:1 41:1 
0 1 1:0.4 2:0.3 5:1 13:1 15:0.4 17:4 19:6 20:1 25:1 26:1 75:1 
1 1 19:3 20:1 24:2 
1 1 1:-0.75 19:4 20:1 
0 1 1:0.9 2:0.083333333 5:1 8:1 13:4 15:0.625 19:5 20:4 24:1 78:1 
0 1 1:1.1 13:3 15:1.1 19:1 20:3 21:2 
0 1 1:0.675 13:1 15:0.8 19:7 21:1 24:2 28:1 75:1 
0 1 19:3 20:2 21:1 49:1 
0 1 1:0.6 13:1 15:0.6 17:2 19:3 20:2 21:1 26:1 64:1 75:1 
1 1 1:-0.05 2:0.125 5:1 13:1 14:1 15:0.075 19:4 20:2 24:1 41:1 92:1 
0 1 1:0.8 8:1 13:1 15:0.4 19:1 24:1 78:1 
1 1 1:-0.2 12:1 13:1 15:0.4 19:1 20:4 21:3 
0 1 1:0.6 2:0.16666667 5:1 13:1 15:0.6 19:3 20:1 
0 1 1:0.6 13:1 15:0.6 19:6 20:2 21:1 24:2 59:1 
0 1 1:0.6 2:0.090909091 5:1 13:1 15:0.6 19:7 21:1 24:1 53:1 
0 1 19:2 20:1 69:1 75:1 
1 1 1:-0.375 12:1 13:4 14:5 15:-0.825 18:2 19:6 20:3 21:1 79:1 
1 1 1:0.125 13:2 15:0.25 19:6 20:4 
0 1 19:1 75:1 
0 1 1:0.45 13:1 14:1 15:0.2 17:1 19:7 24:1 25:1 56:1 75:1 
0 1 1:0.475 2:0.066666667 5:1 13:1 14:1 15:0.475 17:1 19:6 20:5 24:1 25:1 56:1 66:1 
1 1 1:-0.65 13:3 14:1 15:0.85 19:6 20:4 21:7 24:2 
0 1 1:0.275 13:1 15:0.4 17:1 19:3 20:1 24:2 25:1 43:1 44:1 
0 1 1:0.375 13:1 15:0.375 17:1 19:1 20:3 21:2 24:1 25:1 
1 1 1:-0.125 19:3 24:2 
0 1 1:0.475 2:0.125 5:1 13:1 15:0.6 19:4 20:1 24:2 
0 1 1:0.9 2:0.22222222 3:1 5:1 13:2 15:0.9 19:2 20:2 21:3 53:1 
1 1 1:0.4 2:0.1 5:1 13:1 15:0.4 19:1 20:3 21:5 34:1 
0 1 1:0.55 2:0.083333333 5:1 13:1 14:1 15:0.55 19:4 20:1 21:4 24:2 30:1 
0 1 1:1.65 12:1 13:3 14:1 15:1.525 16:1 19:7 20:2 24:2 54:1 
0 1 1:0.675 13:2 15:0.8 19:4 21:3 
0 1 1:0.55 13:1 15:0.8 19:3 20:1 21:3 24:4 37:1 75:1 
0 1 1:0.625 13:2 15:0.625 17:4 19:4 20:7 21:1 24:1 25:1 27:1 75:1 
1 1 2:0.55555556 5:1 12:1 13:1 15:0.6 19:3 20:2 21:2 24:1 43:1 69:1 
0 1 1:0.875 13:2 15:0.875 16:1 19:6 20:2 21:5 24:1 53:1 
1 1 19:4 20:1 21:3 24:2 75:1 76:1 
1 1 1:0.125 2:0.11111111 5:1 19:3 20:2 21:3 
0 1 1:0.75 13:4 14:1 15:0.75 19:3 20:2 21:4 24:2 
0 1 1:-0.375 13:1 14:1 15:-0.375 17:2 19:3 20:1 25:1 
0 1 13:1 14:1 17:2 19:4 20:1 21:4 24:2 25:1 
0 1 1:0.5 13:1 15:0.5 17:1 19:4 20:1 21:2 25:1 
0 1 17:6 19:3 20:2 21:1 24:1 25:1 26:1 76:1 
0 1 1:1.4 2:0.11111111 3:1 5:1 13:2 15:1.4 17:2 19:6 20:1 24:1 26:1 
0 1 1:0.8 8:1 13:1 15:0.4 19:3 20:1 21:4 24:1 78:1 
0 1 1:0.6 13:1 15:0.6 19:2 21:3 24:1 
0 1 1:0.475 13:1 14:1 15:0.475 17:1 19:5 21:3 25:1 75:1 76:1 
1 1 1:0.55 2:0.083333333 5:1 13:1 14:1 15:0.55 19:4 20:1 21:5 24:2 30:1 
0 1 1:-0.5 13:1 15:0.25 17:1 19:3 20:2 25:1 
0 1 1:0.325 13:2 15:0.325 19:2 24:1 53:1 
0 1 1:0.7 13:4 14:2 15:0.7 19:5 20:5 21:1 24:2 35:1 56:1 76:1 93:1 
0 1 1:0.525 13:2 15:0.525 17:1 19:1 20:3 25:1 
0 1 1:0.525 13:2 15:0.65 17:1 19:4 20:3 25:1 39:1 44:1 
1 1 1:0.025 2:0.1 5:1 13:2 14:1 15:0.025 19:2 20:2 21:1 24:1 
0 1 1:0.2 13:2 14:1 15:0.2 17:2 19:5 20:5 24:1 25:1 41:1 64:1 
0 1 1:-0.35 8:1 17:1 19:1 20:2 21:1 25:1 78:1 
0.8258613751615037 1 1:0.55 13:1 14:1 15:0.55 19:4 20:1 21:4 24:3 52:1 
0 1 1:1.1 2:0.16666667 3:1 5:1 13:2 15:1.1 19:2 20:3 21:1 75:1 
1 1 1:-0.35 13:1 14:3 15:-0.35 19:3 20:3 21:3 24:3 
0 1 1:0.075 2:0.1 5:1 13:2 14:1 15:0.2 17:1 19:4 20:3 21:1 24:1 25:1 33:1 50:1 
0 1 1:0.075 13:1 14:1 15:0.075 17:1 19:5 20:3 21:4 25:1 49:1 53:1 66:1 
1 1 1:-0.475 13:1 14:1 15:-0.475 19:2 20:3 21:2 24:1 31:1 
1 1 1:-0.225 13:2 14:2 15:-0.475 19:4 20:2 21:3 24:1 94:1 
1 1 1:-0.5 2:0.090909091 5:1 14:1 15:-0.5 17:1 19:5 20:4 25:1 53:1 91:1 
1 1 1:-0.675 13:2 14:2 15:-0.6 17:2 19:1 20:9 24:1 26:1 39:1 
0 1 1:-0.125 2:0.2 5:1 17:2 19:5 20:1 25:1 
1 1 1:-0.625 2:0.043478261 5:1 13:1 14:2 15:-0.625 19:9 20:3 21:9 
1 1 1:-0.75 14:1 15:-0.75 19:4 20:2 43:1 
0 1 1:0.6 2:0.2 5:1 13:1 15:0.6 19:2 20:1 24:1 33:1 75:1 
1 1 1:-0.8 13:1 14:1 15:-0.675 19:4 20:2 21:1 50:1 
0 1 1:0.6 2:0.15384615 5:1 13:1 15:0.6 18:3 19:3 20:1 24:2 59:1 75:1 
0 1 1:0.75 13:4 14:1 15:0.75 19:3 20:4 24:2 34:1 77:1 
1 1 1:-1.425 14:2 15:-1.3 19:2 20:2 21:2 42:1 83:1 
1 1 1:0.375 13:2 14:1 15:0.125 19:3 20:4 21:2 
0 1 1:-0.125 17:1 19:5 20:3 21:1 24:2 25:1 75:1 
0 1 1:0.1 13:1 14:1 15:0.1 17:2 19:2 20:4 21:1 25:1 69:1 
0 1 17:4 19:7 26:1 
0 1 1:-0.5 2:0.1 5:1 14:1 15:-0.5 17:7 20:4 24:2 25:1 27:1 81:1 
0 1 1:0.9 13:3 14:1 15:1.025 16:1 17:1 19:6 20:4 21:1 24:1 25:1 51:1 75:1 
1 1 1:-0.15 2:0.090909091 5:1 13:2 14:1 15:-0.15 17:2 19:6 20:2 24:1 25:1 42:1 
0 1 1:1.05 13:3 14:1 15:0.8 17:1 19:6 20:3 21:1 25:1 82:1 89:1 
1 1 1:-0.025 13:2 14:1 15:-0.025 17:1 19:5 20:4 24:3 25:1 75:1 
0 1 1:1.375 13:3 15:1.375 19:4 20:5 24:2 64:1 
1 1 1:0.325 13:2 14:1 15:0.325 16:2 19:3 20:1 24:1 51:1 
0 1 1:0.975 13:4 14:1 15:0.975 19:5 20:2 24:3 74:1 
0 1 1:0.3 13:3 14:1 15:0.425 17:1 19:3 20:1 21:1 24:2 25:1 
0 1 1:0.8 13:2 15:0.8 19:3 21:4 24:3 35:1 54:1 
1 1 1:0.2 13:1 14:1 15:0.2 19:5 20:3 21:5 24:1 43:1 71:1 74:1 82:1 
1 1 1:-0.275 12:1 13:5 14:2 15:0.325 19:5 20:4 21:2 24:1 
1 1 1:-0.05 12:1 13:1 15:0.2 17:1 19:3 20:1 98:1 
1 1 1:0.525 2:0.090909091 5:1 13:3 14:1 15:0.65 19:2 20:2 21:4 24:2 
1 1 1:-0.75 17:2 19:4 20:7 21:1 25:1 
0 1 1:-1 12:1 14:1 15:-0.4 17:4 19:4 20:2 21:1 25:1 26:1 39:1 
1 1 1:-0.75 13:2 14:1 15:0.5 17:1 19:11 20:3 21:6 25:1 75:1 
1 1 1:-0.75 19:1 20:2 21:1 24:1 
0 1 1:1 13:4 15:1.125 19:4 20:2 21:5 24:3 
0 1 1:0.475 13:1 15:0.6 19:1 20:2 21:4 
0 1 1:1.15 13:6 15:1.275 19:6 20:4 24:1 
0 1 1:1.1 13:2 15:1.1 19:1 20:2 64:1 69:1 
0.6902725526052853 1 1:0.15 13:6 14:2 15:0.8 19:4 20:5 21:1 24:4 62:1 
0 0.4673613055322143 1:1.2 2:0.076923077 5:1 13:2 15:1.2 19:2 20:4 21:4 24:2 59:1 75:1 96:1 
0 1 1:-0.125 13:2 14:1 17:1 19:3 20:3 21:1 24:2 25:1 
0 1 1:1.25 13:2 15:1 16:1 19:4 20:2 24:2 30:1 81:1 
0 1 1:0.125 13:1 15:0.125 19:3 20:2 43:1 
1 1 1:-0.55 12:1 13:1 14:1 15:0.05 19:3 20:4 21:2 
0 1 1:0.25 13:1 15:0.25 17:2 20:2 24:2 25:1 64:1 
0 1 1:0.25 13:2 15:0.375 17:2 19:5 20:2 21:2 25:1 
0 1 1:0.525 13:2 15:0.525 16:2 17:2 19:3 20:2 24:1 26:1 
1 1 1:0.25 12:1 13:2 15:0.85 19:4 20:4 21:2 24:2 56:1 
0 1 1:0.6 13:1 15:0.6 19:3 20:2 24:2 53:1 75:1 
0 1 1:1.225 2:0.14285714 5:1 13:2 15:1.225 19:3 20:2 24:1 43:1 45:1 
0 1 1:0.325 13:3 14:1 15:0.45 17:2 19:4 20:4 21:4 24:1 25:1 62:1 
1 1 2:0.2 5:1 13:1 14:1 19:1 24:2 59:1 
1 1 1:0.075 13:4 14:2 15:0.075 17:1 19:7 20:4 24:1 25:1 
1 1 1:0.075 12:1 13:1 14:1 15:0.2 19:7 20:1 24:1 
0 1 1:0.775 2:0.1 5:1 13:2 15:0.775 17:2 19:3 20:1 24:2 25:1 48:1 76:1 
0 1 17:3 19:2 20:2 24:1 25:1 43:1 
0 1 1:0.675 13:3 14:1 15:0.8 19:3 20:3 21:1 24:1 69:1 
0 0.1610247536688836 1:0.775 13:3 14:1 15:0.9 19:5 20:3 24:2 33:1 35:1 75:1 
0 1 1:0.5 2:0.090909091 5:1 12:1 13:2 15:1.225 19:4 20:2 21:4 45:1 
1 1 1:1.575 12:1 13:7 15:2.05 16:2 19:8 20:3 21:2 24:2 
0 1 1:1.4 13:3 15:1.4 19:3 24:2 52:1 
0 1 1:1.55 13:4 15:1.55 19:5 20:2 24:2 51:1 
1 1 2:0.125 5:1 13:1 15:0.125 16:1 19:2 20:2 53:1 
0 1 1:0.8 10:1 13:3 15:0.925 16:2 17:1 19:3 20:4 24:1 25:1 39:1 46:1 
0 1 1:0.65 13:3 15:0.65 16:1 19:2 20:2 24:1 34:1 92:1 
0 1 1:0.55 2:0.076923077 5:1 13:1 15:0.8 19:3 20:1 21:3 24:4 37:1 75:1 
0 1 1:0.6 13:2 15:0.725 19:5 20:2 21:2 24:1 
0 1 1:0.25 13:1 15:0.25 19:1 21:1 24:2 
0 1 1:0.3 13:2 14:1 15:0.3 16:1 17:4 19:5 20:5 24:4 25:1 43:1 
1 1 1:-1.2 12:1 14:1 15:-0.6 19:1 20:1 21:2 24:2 31:1 
1 1 1:-0.125 19:3 20:2 52:1 
0 1 1:-0.625 2:0.11111111 5:1 13:1 15:0.125 17:1 19:4 20:4 25:1 91:1 
0 1 1:0.3 2:0.1 5:1 13:2 14:3 15:-0.1 17:1 19:3 20:3 24:1 25:1 51:1 
1 1 1:-0.4 14:2 15:-0.8 17:2 19:2 20:4 21:3 24:2 25:1 39:1 64:1 
1 1 1:-0.375 14:1 15:-0.125 19:1 20:3 21:2 66:1 82:1 92:1 
1 1 1:0.025 8:1 13:1 14:1 15:-0.375 16:1 19:2 20:2 21:3 24:1 78:1 
1 0 1:-1.4 12:3 13:2 14:3 15:-0.675 17:2 19:2 20:4 21:5 24:3 25:1 98:1 
0 1 1:0.7 2:0.071428571 5:1 13:2 14:1 15:0.7 19:7 20:1 21:3 24:1 43:1 59:1 
0 1 1:1.125 13:3 15:1.125 16:1 19:7 20:4 21:8 24:2 56:1 75:1 
0 1 2:0.1 3:1 5:1 13:1 15:0.125 17:2 19:4 20:3 21:1 25:1 
0.3890593006342367 1 1:0.725 13:4 14:2 15:0.725 19:4 20:5 21:3 24:3 
0 1 1:0.6 13:1 15:0.6 17:2 19:1 20:3 25:1 43:1 
1 1 1:-1.175 13:1 14:2 15:-0.425 17:2 19:6 20:5 21:1 24:2 25:1 43:1 
0 1 1:0.5 13:3 14:1 15:0.625 17:1 19:3 20:2 21:1 24:1 25:1 63:1 
0 1 1:0.6 13:1 15:0.6 19:1 20:1 96:1 
1 1 1:-0.2 12:1 13:1 14:1 15:0.4 16:1 17:3 19:1 20:7 21:3 27:1 58:1 
0.3352119215152292 0 1:0.875 8:1 12:1 13:4 14:2 15:1.075 19:6 20:9 21:1 58:1 78:1 
0 1 1:1.125 13:5 15:1.125 17:1 19:8 20:3 24:2 25:1 53:1 
0 1 1:1.225 13:5 14:1 15:1.225 19:5 20:5 24:1 62:1 
1 1 1:-0.7 14:2 15:-0.7 20:1 21:2 24:2 
1 1 1:-0.85 12:1 13:1 14:1 15:-0.6 17:1 19:6 20:3 21:1 92:1 97:1 
0 0.4725483050117129 1:0.4 2:0.125 5:1 13:3 14:2 15:0.4 19:1 20:1 21:1 23:1 24:3 41:1 51:1 79:1 
1 1 1:-1.375 14:1 15:-0.5 17:3 19:1 20:1 25:1 
0 1 1:0.725 13:2 15:0.725 17:1 19:4 20:1 24:1 25:1 56:1 75:1 
0 1 1:1.025 13:3 14:1 15:1.025 19:6 20:2 21:5 62:1 
0 1 17:1 19:3 20:1 21:1 25:1 75:1 
0 1 1:1.05 8:1 13:3 15:0.775 16:1 17:1 19:5 20:3 25:1 78:1 
1 1 19:2 20:2 75:1 
1 1 13:2 14:1 15:0.125 19:6 20:1 21:1 24:1 
1 1 1:0.55 13:1 14:1 15:0.55 19:5 20:1 21:5 24:2 30:1 
0 1 1:0.975 2:0.076923077 5:1 13:4 15:1.225 17:1 19:3 20:5 24:1 25:1 77:1 
1 1 13:1 15:0.125 19:2 20:1 21:1 53:1 
0 1 1:0.6 13:2 14:1 15:0.6 19:4 20:4 21:5 24:2 43:1 59:1 80:1 
0 1 1:1.125 2:0.090909091 5:1 13:3 15:1.25 16:1 17:2 19:6 24:1 25:1 
1 1 1:-0.175 13:3 14:1 15:-0.175 19:3 20:4 21:1 24:2 
0 1 1:-0.575 10:1 13:1 14:2 15:-0.575 17:3 19:4 20:5 21:1 25:1 26:1 43:1 46:1 
1 1 1:0.125 2:0.5 5:1 13:1 15:0.125 19:4 20:1 
1 1 1:-0.3 13:1 14:1 15:-0.3 19:3 20:2 21:1 
0 1 1:0.5 12:1 13:2 15:1.225 19:4 20:2 21:4 45:1 
1 1 1:-0.375 13:1 14:1 15:-0.375 19:3 20:5 21:4 
1 1 19:3 20:2 21:1 
1 1 1:-0.375 10:1 12:2 13:1 15:0.6 16:2 17:2 19:3 21:2 25:1 46:1 
0 1 1:0.6 2:0.2 5:1 13:1 15:0.6 17:1 19:1 20:1 25:1 69:1 
1 1 1:0.025 13:3 14:3 15:0.025 17:1 19:8 20:5 21:1 24:3 25:1 35:1 75:1 
0 1 1:0.8 2:0.14285714 5:1 13:1 15:0.8 19:4 20:1 24:1 75:1 93:1 
0 1 1:0.8 8:1 13:1 15:0.4 19:1 20:1 21:3 75:1 78:1 
0 1 1:0.25 13:2 15:0.25 17:5 19:3 20:2 24:1 26:1 27:1 81:1 
1 0 1:0.125 12:1 13:3 14:1 15:0.725 19:4 20:3 21:2 24:3 59:1 90:1 
1 1 1:1.110223e-16 2:0.090909091 5:1 12:1 13:3 15:0.725 19:3 20:4 21:1 24:2 
0 1 1:0.6 2:0.25 5:1 13:2 15:0.6 17:2 19:1 20:4 26:1 
1 1 19:3 20:2 21:1 
1 1 1:0.375 2:0.071428571 3:1 4:1 5:1 13:4 14:2 15:0.625 16:1 19:5 20:3 21:3 24:2 30:1 41:1 
0 1 2:0.25 5:1 17:1 19:1 20:1 25:1 
0 1 1:0.4 8:1 19:2 20:1 24:1 78:1 
1 1 1:-0.375 2:0.2 5:1 13:2 15:0.375 19:3 20:4 24:2 
0 1 1:1.15 13:4 14:1 15:1.95 19:8 20:3 24:1 57:1 
0 1 1:0.55 2:0.14285714 5:1 13:1 15:0.8 19:2 20:1 21:2 24:1 49:1 52:1 
0 1 1:1.3 13:3 15:0.925 17:1 19:6 20:1 24:2 25:1 77:1 
0 1 1:0.4 13:1 15:0.4 17:1 19:5 20:2 21:2 25:1 82:1 
0 1 1:0.8 13:1 15:0.8 17:1 19:1 21:1 25:1 51:1 
1 1 1:-0.625 13:2 14:3 15:-0.625 19:3 20:5 21:3 24:1 49:1 66:1 67:1 
0 1 1:0.25 17:4 19:3 20:2 26:1 
0 1 1:1 13:4 14:1 15:1 19:4 20:2 21:5 24:1 34:1 53:1 
0 1 1:0.65 13:1 15:0.4 17:1 19:6 20:2 21:3 24:1 25:1 
1 1 1:0.575 13:4 14:1 15:0.575 19:7 20:2 24:1 
1 1 1:-0.25 13:3 14:1 15:0.5 19:5 20:5 21:3 24:1 43:1 69:1 
0.8871506871055312 1 1:0.325 13:3 14:1 15:1.075 19:2 20:2 21:5 93:1 
0 1 1:0.6 13:1 15:0.6 17:1 19:4 20:1 25:1 
1 0 1:-0.625 2:0.090909091 3:2 5:1 12:3 13:3 14:2 15:0.475 17:3 19:8 20:4 21:1 25:1 43:1 75:1 91:1 
1 1 1:0.425 2:0.1875 3:1 5:1 13:2 14:1 15:0.425 19:6 20:5 21:3 39:1 51:1 76:1 
1 1 1:0.475 2:0.04 5:1 13:2 14:1 15:0.475 18:2 19:10 20:5 21:4 24:2 74:1 76:1 
0 1 1:0.125 2:0.076923077 5:1 13:2 15:0.25 17:1 19:3 20:2 21:4 24:2 25:1 43:1 81:1 
0.8147049523528347 1 19:1 20:1 75:1 
0 1 1:0.4 13:1 15:0.4 16:1 17:2 19:2 25:1 
1 1 1:0.325 13:2 14:1 15:0.325 19:2 20:4 21:4 
0 1 1:0.2 12:1 13:2 15:0.8 17:1 19:3 20:2 21:1 24:2 25:1 58:1 76:1 
0 1 1:0.2 13:2 14:1 15:0.2 17:2 19:5 20:5 24:1 25:1 41:1 64:1 
0 1 2:0.066666667 5:1 17:2 19:4 20:3 21:7 26:1 
0 1 1:1.4 13:2 15:1.4 17:2 19:5 20:4 24:1 25:1 76:1 93:1 96:1 
1 1 1:0.15 13:1 14:1 15:-0.1 19:2 20:3 21:1 24:2 
0 1 1:0.25 2:0.066666667 5:1 17:1 19:5 21:6 24:2 25:1 43:1 
0 1 1:-0.125 14:1 15:-0.125 17:1 19:2 20:4 21:2 25:1 49:1 66:1 82:1 
0 1 1:1.25 13:4 15:1.25 17:1 19:7 20:1 21:1 24:1 25:1 
0 1 1:0.4 8:1 17:1 19:3 25:1 78:1 
1 1 1:0.075 13:1 14:1 15:0.075 16:1 19:8 20:1 21:3 24:2 97:1 
0 1 13:1 14:1 17:1 19:3 20:1 21:1 25:1 34:1 75:1 
0 1 1:0.225 13:2 15:0.725 16:1 19:2 20:1 24:1 59:1 
1 1 1:-0.275 12:1 13:2 15:0.325 19:2 20:6 21:1 24:2 
1 1 1:0.2 13:3 14:3 15:0.2 19:7 20:3 21:8 24:2 41:1 75:1 76:1 79:1 
0 1 1:0.6 13:1 15:0.6 19:1 20:2 21:1 24:1 43:1 56:1 
1 1 1:-1.425 2:0.066666667 5:1 13:1 14:2 15:0.075 19:3 20:8 21:1 
0.1004026692251018 0 1:-0.425 2:0.23076923 3:1 5:1 12:1 13:2 14:1 15:0.175 17:4 19:1 20:7 21:1 24:1 26:1 
0 1 1:-0.825 2:0.090909091 5:1 12:1 13:2 15:0.525 17:1 19:3 20:3 21:1 24:1 25:1 91:1 
1 1 1:-1.9 12:1 13:2 14:2 15:-0.3 17:1 19:2 20:3 21:2 22:1 24:2 25:1 
1 1 1:0.4 13:1 14:1 15:0.4 19:6 20:1 21:7 24:1 56:1 
1 1 1:-0.75 19:2 20:2 21:2 24:1 76:1 92:1 
1 1 19:1 20:1 21:1 75:1 
0 1 1:0.6 2:0.076923077 5:1 13:2 14:1 15:0.6 19:4 20:3 21:3 24:2 43:1 59:1 80:1 
0 1 1:0.6 2:0.2 5:1 13:1 15:0.6 17:3 19:2 27:1 
1 1 1:-0.375 13:1 14:1 15:-0.375 19:5 20:2 21:1 24:1 
0 1 1:0.25 13:1 14:1 15:0.25 19:2 20:2 21:1 24:1 49:1 66:1 
0 1 1:0.975 8:1 13:2 14:1 15:0.7 19:6 20:5 24:1 78:1 
0 0.555806522717834 1:0.9 13:1 15:0.4 17:3 19:5 21:4 22:1 24:1 25:1 
0 1 1:0.6 2:0.14285714 5:1 13:1 15:0.6 19:6 75:1 
0 1 1:0.375 13:2 14:1 15:0.5 19:1 20:2 21:1 
0 1 1:1 2:0.083333333 5:1 13:2 15:1 19:4 20:1 21:4 24:2 28:1 
0 1 1:0.925 8:1 13:2 15:0.525 19:5 20:3 21:1 24:1 78:1 
1 1 1:-0.1 13:2 14:2 15:-0.1 16:2 19:2 20:3 21:1 
1 1 1:0.4 13:2 14:1 15:0.525 16:1 19:4 20:1 21:4 24:1 74:1 
1 1 1:-1.35 12:1 17:1 19:3 20:4 21:3 25:1 91:1 
0 1 1:0.625 2:0.11111111 3:2 5:1 13:3 14:1 15:1.225 19:8 20:4 21:5 24:1 69:1 
1 1 1:-0.65 13:1 14:1 15:0.225 19:2 20:1 24:2 77:1 
1 1 1:-0.225 12:1 13:2 14:2 15:-0.225 19:7 20:4 21:1 24:2 
0 1 1:-0.275 8:1 13:1 14:1 15:0.075 19:3 20:2 21:4 24:3 43:1 78:1 
0 1 1:0.675 13:3 14:2 15:0.675 19:5 20:3 21:1 79:1 
0 1 1:0.6 13:1 15:0.6 17:1 19:2 20:1 21:1 25:1 82:1 
1 1 1:0.2 13:1 14:1 15:0.2 19:2 20:4 21:1 24:2 
1 1 1:-1.3 13:2 14:3 15:-0.55 19:4 20:2 24:3 
0 1 1:0.8 13:2 15:0.8 19:4 20:3 21:3 24:1 
0 1 1:0.925 13:2 15:0.925 17:1 19:4 20:1 21:3 25:1 51:1 
0 1 1:0.2 13:1 15:0.2 19:2 20:1 21:1 43:1 
0 1 1:-0.125 17:1 19:2 20:4 21:2 25:1 
1 1 1:-1.225 14:2 15:-1.1 20:2 24:1 
1 0.8389998936372992 1:0.325 8:1 12:2 13:3 14:1 15:0.525 19:6 20:6 21:3 24:3 78:1 
0 1 1:0.475 13:2 14:1 15:0.225 19:2 20:5 21:5 62:1 91:1 92:1 94:1 
0 1 1:1.6 13:3 15:1.6 19:3 20:2 
0.1454992644711708 1 1:-0.1 12:1 13:1 15:0.5 16:1 17:1 19:6 20:5 21:2 25:1 64:1 91:1 
0 1 1:0.975 13:2 15:0.975 17:1 19:2 20:1 24:2 25:1 
0 1 1:0.4 13:1 15:0.4 17:1 19:1 20:3 25:1 
0 1 1:0.2 13:1 15:0.2 17:4 19:9 20:1 25:1 27:1 53:1 
1 1 1:0.3 12:1 13:2 15:0.9 18:2 19:5 20:4 21:3 24:1 82:1 
1 1 1:-0.4 13:1 14:1 15:-0.4 17:2 19:4 20:4 24:1 26:1 39:1 50:1 88:1 
1 1 1:0.05 13:2 14:1 15:0.05 19:5 20:2 21:4 24:2 
0 1 1:0.325 2:0.055555556 5:1 13:2 15:0.325 17:5 19:4 20:5 21:4 24:2 26:1 27:1 
0 1 1:1 13:2 15:1 19:3 24:1 59:1 
0 1 1:0.725 13:2 15:0.85 19:3 20:3 
0 0.3526975012128714 1:1.775 13:6 14:1 15:1.775 19:4 20:5 21:5 64:1 76:1 96:1 97:1 
0 1 1:1 13:3 14:1 15:1 19:4 20:5 24:1 69:1 
1 0 1:-0.7 2:0.33333333 3:1 4:1 5:1 9:1 12:1 13:2 14:3 15:0.075 17:3 19:6 20:2 21:3 25:1 43:1 67:1 69:1 73:1 92:1 
1 1 1:-0.875 12:2 13:1 14:1 15:-0.275 19:3 20:5 21:3 24:1 43:1 91:1 
0 1 1:0.85 13:3 15:0.85 16:1 17:1 19:5 20:2 25:1 39:1 
0 1 1:1.125 13:2 15:1.125 19:6 20:1 21:1 24:1 
0 1 1:0.625 13:2 15:0.625 19:1 20:2 24:1 
1 1 1:-1.25 14:3 15:-1.5 19:4 20:2 75:1 
1 1 1:-0.5 14:1 15:-0.5 19:2 20:1 21:3 
0 1 1:0.05 8:1 13:1 15:0.4 19:4 21:3 24:1 78:1 
0 1 1:-0.375 13:2 14:2 15:-0.25 17:3 19:1 20:7 21:1 25:1 
1 1 1:0.2 13:1 15:0.2 19:5 20:4 21:3 24:1 
0 1 1:0.225 2:0.2 3:1 5:1 13:3 14:1 15:0.35 17:1 19:3 20:2 21:3 24:1 25:1 35:1 43:1 
1 1 1:-1.075 2:0.44444444 3:1 4:2 5:1 13:1 14:2 15:-1.075 17:1 19:4 20:1 24:2 25:1 85:1 
1 1 1:-0.325 12:1 13:1 15:0.4 19:4 20:4 21:1 24:1 91:1 
0 1 1:1.125 13:3 15:1.25 19:4 20:1 21:2 24:2 48:1 76:1 
1 1 1:-0.5 14:1 15:-0.5 17:1 19:1 20:1 24:1 25:1 
0 1 1:1 2:0.1 5:1 13:2 15:1 19:3 20:3 24:3 59:1 62:1 
0 1 1:0.725 13:2 15:0.725 19:3 20:1 21:1 24:2 56:1 
1 1 1:-0.475 13:1 14:1 15:-0.475 17:1 19:2 20:3 21:3 24:1 25:1 31:1 75:1 
0 1 1:0.6 13:1 15:0.6 19:4 20:1 24:1 56:1 
0 1 1:0.575 2:0.083333333 5:1 13:2 15:0.7 17:1 19:3 20:1 21:5 24:2 25:1 
1 1 1:-0.425 13:1 14:2 15:-0.425 17:1 19:1 20:2 24:1 25:1 41:1 
0 1 1:0.25 13:1 15:0.25 17:1 19:4 20:1 25:1 
0 1 1:-0.875 17:4 19:6 20:1 21:3 24:1 26:1 
1 1 1:-0.25 2:0.125 3:1 5:1 13:1 14:1 15:-0.125 17:1 19:2 20:2 21:3 25:1 
1 1 1:-1.1 12:2 14:1 15:-0.375 16:1 17:1 19:1 20:4 21:2 24:1 25:1 91:1 
0 1 1:1.55 13:4 15:1.55 19:5 20:3 75:1 88:1 
0 1 1:0.325 13:3 15:0.7 17:2 19:3 20:1 21:1 24:2 26:1 
1 1 1:-0.3 13:1 14:1 15:-0.175 16:1 17:1 19:3 20:1 21:3 24:2 25:1 76:1 
0 1 1:0.55 2:0.21428571 3:1 5:1 12:1 13:3 14:1 15:0.8 16:2 17:2 19:4 20:1 24:2 25:1 
0 1 1:0.8 13:1 15:0.8 17:2 19:4 20:2 21:2 24:1 26:1 
0 1 1:0.4 13:1 15:0.4 17:2 19:4 21:1 24:1 26:1 43:1 90:1 
1 1 1:0.1 13:1 14:1 15:0.1 19:4 20:3 21:1 24:1 43:1 
0 1 1:-0.1 12:1 13:1 15:0.5 19:3 20:2 21:1 91:1 
0 1 1:0.925 13:2 15:0.925 19:2 20:5 93:1 
0 1 1:0.6 13:2 15:0.6 19:2 20:3 21:1 34:1 
1 1 1:-0.475 12:1 13:1 15:0.125 17:1 20:5 21:4 25:1 91:1 
1 1 1:-0.6 12:1 17:2 19:7 20:1 21:2 24:2 26:1 92:1 
0 1 1:1.05 13:4 14:1 15:1.05 19:1 20:5 44:1 
1 1 1:-0.325 12:1 13:1 14:1 15:0.4 19:2 20:4 21:1 24:1 30:1 
1 1 1:0.075 13:1 14:1 15:0.2 19:4 20:3 21:2 69:1 
0 1 1:0.7 2:0.30769231 5:1 13:2 15:0.825 17:1 19:2 20:3 24:1 25:1 76:1 
1 1 1:-0.125 19:7 20:2 53:1 
1 1 1:-0.4 13:2 14:2 15:-0.4 19:3 20:3 21:1 60:1 
1 1 1:-0.675 2:0.11111111 5:1 13:1 14:1 15:0.075 17:1 19:1 20:3 24:4 25:1 
0 1 1:0.5 13:1 15:0.5 17:2 18:3 19:5 25:1 
0 1 1:0.6 13:2 15:0.725 19:4 20:1 24:2 
1 1 1:-0.725 12:1 13:2 14:1 17:1 19:8 20:4 21:4 24:1 25:1 75:1 91:1 
1 1 1:-0.425 13:1 14:2 15:-0.425 19:2 20:1 24:1 41:1 53:1 
0 1 1:0.25 13:1 15:0.25 17:3 19:3 27:1 53:1 
0 1 1:0.125 13:1 15:0.125 17:3 19:2 20:3 25:1 26:1 
1 1 1:-0.85 13:1 14:2 15:-0.85 19:2 20:4 43:1 62:1 
0 1 1:0.525 2:0.28571429 3:1 5:1 13:3 14:1 15:0.525 19:3 20:1 24:2 35:1 97:1 
0 1 1:1.225 13:2 15:0.975 19:5 20:2 24:3 
1 1 1:0.075 13:1 15:0.2 19:6 20:1 24:1 
0 1 1:0.8 13:2 15:0.8 19:2 20:2 21:3 24:1 
0 1 1:0.75 13:3 15:1.5 19:5 20:4 21:3 24:1 90:1 
0 1 2:0.33333333 5:1 17:1 20:2 24:1 25:1 
1 1 1:0.275 13:1 15:0.4 19:1 20:3 21:1 24:1 
1 1 1:-1.2 13:1 14:2 15:-0.325 19:1 20:2 24:1 
0 1 1:0.8 13:1 15:0.8 19:4 20:1 
0 1 1:1.025 13:3 15:1.025 19:3 20:3 21:1 24:1 43:1 
1 1 1:-0.325 13:1 14:1 15:-0.2 19:4 24:1 88:1 
0 1 1:0.6 13:1 15:0.6 19:4 20:1 45:1 
1 1 1:0.1 13:2 14:1 15:0.1 19:6 20:2 24:1 
1 1 1:-1.225 14:2 15:-1.1 17:1 20:2 25:1 
1 1 1:-0.05 13:1 14:1 15:0.075 19:3 20:3 21:1 
1 1 1:-0.15 13:2 14:1 15:-0.15 19:4 20:1 21:4 24:2 
0 1 1:0.4 13:1 15:0.4 17:1 19:5 20:1 21:3 24:1 25:1 75:1 
0 1 1:0.4 13:1 15:0.4 19:4 20:1 24:1 
0 1 1:0.125 13:1 15:0.125 19:3 24:1 53:1 
1 0 1:0.8 2:0.18181818 5:1 12:1 13:2 14:1 15:0.8 19:4 20:3 24:1 33:1 62:1 
0 1 1:0.4 8:1 16:1 17:2 20:4 25:1 78:1 
1 0 1:-0.075 12:1 13:3 14:1 15:0.525 16:1 19:3 20:3 21:1 24:2 45:1 91:1 
0 1 1:1.925 13:3 15:1.675 19:8 20:1 21:3 24:1 
0 1 1:0.375 13:2 15:0.375 19:3 20:1 24:2 
0 1 1:0.75 13:2 15:0.75 17:2 19:9 20:2 21:1 24:1 25:1 
1 0 1:-0.2 8:1 13:2 14:3 15:-1.075 16:1 17:1 19:4 20:4 24:3 25:1 43:1 60:1 69:1 78:1 
0 1 17:1 19:3 20:3 25:1 
1 1 1:-0.55 13:1 15:0.2 19:3 20:1 21:3 24:1 35:1 
1 1 1:0.375 2:0.15384615 5:1 13:2 15:0.375 19:5 20:2 21:4 22:1 
0 0.8989523498051346 17:8 19:5 20:3 21:1 26:1 38:1 43:1 91:1 
1 1 1:-0.925 12:2 14:1 15:-0.2 19:5 20:3 21:1 24:1 
0 1 1:0.25 2:0.11111111 5:1 13:1 15:0.25 17:2 19:5 20:2 25:1 
1 1 1:-1.575 12:1 14:2 15:-0.975 17:1 19:5 20:3 21:7 25:1 
0 1 1:0.525 8:1 13:1 15:0.125 16:1 17:1 19:2 20:1 24:1 75:1 78:1 
1 1 1:0.725 13:3 15:0.725 19:2 20:6 21:3 24:1 53:1 
1 1 1:0.325 12:1 13:2 14:1 15:0.325 17:2 19:6 20:1 21:1 24:1 26:1 89:1 
1 1 1:0.2 13:1 15:0.2 19:6 20:4 24:2 75:1 81:1 
1 1 1:-0.425 13:1 14:2 15:-0.425 17:1 19:4 20:6 21:3 24:1 25:1 69:1 
1 1 1:-0.45 13:3 14:2 15:-0.2 19:8 20:1 21:5 24:2 31:1 43:1 
0 1 1:0.6 13:1 15:0.6 19:3 69:1 
1 1 13:2 14:2 15:-0.375 17:3 19:4 20:3 24:1 
1 1 1:-0.275 2:0.27272727 5:1 12:1 13:3 14:1 15:0.325 17:2 19:3 20:4 21:1 25:1 
1 1 1:-0.8 12:1 13:2 14:2 15:-0.2 19:2 20:5 21:1 24:1 
1 0 1:0.075 12:1 13:4 14:2 15:0.8 17:1 19:2 20:1 21:7 24:4 25:1 43:1 56:1 79:1 
0 1 1:0.725 13:3 15:0.85 19:2 20:4 24:1 81:1 
0 1 1:0.775 13:3 15:0.775 19:4 20:2 21:2 24:1 48:1 92:1 
0 1 1:0.25 13:1 15:0.25 17:3 19:4 20:1 
1 1 1:0.125 13:2 14:1 15:0.125 19:3 20:1 
1 1 1:0.275 12:1 13:2 14:2 15:0.025 16:1 17:1 19:5 20:2 21:1 24:2 25:1 62:1 
0 1 1:0.5 13:2 14:1 15:0.5 19:3 20:2 
0 1 1:0.925 2:0.125 5:1 13:2 15:1.05 19:2 20:3 21:1 
0 1 1:-0.325 13:1 14:1 15:0.425 17:1 19:5 20:2 24:2 25:1 28:1 
0 1 1:0.125 13:1 15:0.125 17:2 19:2 20:1 26:1 
0 1 1:0.325 13:3 15:1.075 19:7 20:2 24:1 35:1 43:1 
1 0 1:-0.625 2:0.071428571 3:1 5:1 12:1 13:3 14:3 15:-0.025 17:2 19:5 20:4 21:1 24:2 25:1 
0 1 1:1 13:3 15:1 19:6 20:2 43:1 
1 1 1:-1.5 2:0.076923077 5:1 13:1 14:3 15:-0.625 17:1 19:3 20:5 21:2 24:1 25:1 
0 1 17:1 19:2 20:1 24:2 25:1 
0 1 1:0.4 8:1 19:4 20:1 21:3 24:1 78:1 
1 1 19:5 21:1 24:1 43:1 
1 1 1:-0.6 12:1 13:2 14:2 15:0.125 17:2 19:3 20:3 21:4 25:1 
0 1 1:0.45 2:0.33333333 3:1 5:1 13:2 15:0.325 16:1 17:7 19:3 20:2 21:1 24:1 25:1 
0 1 1:0.75 2:0.2 5:1 13:2 15:1 19:7 24:2 51:1 
0 1 1:0.5 13:1 15:0.5 17:3 18:2 19:4 25:1 26:1 
0 1 1:0.5 13:2 14:1 15:0.5 19:4 20:2 21:1 45:1 
1 1 1:-0.625 14:2 15:-0.625 19:3 20:4 21:1 49:1 66:1 
0 1 1:0.4 13:1 15:0.4 19:2 20:1 21:1 43:1 
1 1 19:2 20:2 21:1 
1 1 1:-0.3 2:0.11111111 5:1 12:1 13:2 14:1 15:0.425 19:4 20:1 21:1 24:3 81:1 
1 1 1:0.125 13:1 15:0.125 16:1 19:4 20:1 21:3 53:1 
0 1 1:0.075 13:1 15:0.2 17:3 19:5 20:2 24:1 25:1 35:1 43:1 
0 1 1:1.15 2:0.375 5:1 13:3 15:1.15 17:2 19:9 20:4 25:1 39:1 62:1 75:1 
1 1 1:0.675 12:2 13:2 14:1 15:1.275 19:8 20:1 21:6 24:1 53:1 93:1 
1 1 1:-0.5 12:1 13:2 15:0.85 17:1 19:8 20:2 21:6 24:1 25:1 59:1 
0 1 1:0.275 2:0.36363636 5:1 8:1 16:1 19:4 20:2 21:1 24:1 78:1 
0 1 1:0.9 13:3 15:0.9 19:2 20:1 24:3 48:1 
1 1 1:-1.325 12:1 14:2 15:-0.725 19:2 20:1 21:2 24:1 31:1 43:1 
1 1 1:-1 8:1 9:1 13:2 14:1 17:2 19:5 20:4 24:1 25:1 73:1 78:1 
0 0.6095538848650643 1:0.9 13:5 14:2 15:0.9 19:2 20:4 24:1 94:1 
0 1 1:-0.025 13:2 14:2 15:-0.025 17:1 19:3 20:1 22:1 24:5 25:1 33:1 
0 1 13:1 15:0.125 17:1 19:5 20:4 21:3 24:1 25:1 
1 1 1:-0.475 12:1 13:1 15:0.125 17:1 20:5 21:4 25:1 91:1 
0 1 1:0.675 2:0.11111111 5:1 13:2 14:1 15:0.675 19:6 21:1 24:1 30:1 
0 1 1:0.475 13:1 15:0.6 16:1 19:1 24:1 74:1 
0 1 1:0.525 13:4 14:1 15:0.65 17:1 19:8 20:2 21:9 24:2 25:1 39:1 43:1 44:1 
1 1 12:1 13:1 15:0.6 19:1 20:2 21:1 24:1 45:1 53:1 
0 1 1:0.925 13:3 15:0.925 17:1 19:4 20:3 21:1 24:2 25:1 62:1 
1 1 1:-1 12:1 14:1 15:-0.4 17:1 19:2 20:4 21:1 25:1 
1 1 1:0.65 13:3 14:1 15:0.65 19:4 20:7 21:1 24:1 90:1 
1 1 2:0.2 5:1 19:2 20:3 53:1 
1 1 1:0.275 2:0.16666667 5:1 8:1 13:1 14:1 15:-0.375 16:1 20:3 78:1 
1 1 1:0.25 12:1 13:2 14:1 15:0.25 19:5 21:2 24:1 34:1 43:1 
0 1 1:0.125 13:1 15:0.125 17:3 19:3 20:2 25:1 43:1 76:1 
1 1 1:-0.125 2:0.14285714 5:1 19:3 20:2 43:1 53:1 
0 1 1:0.6 13:1 15:0.6 19:4 20:3 21:3 
1 1 1:-0.375 12:1 13:2 14:2 15:0.375 19:5 20:6 21:1 24:1 38:1 91:1 
1 1 1:-0.175 2:0.25 5:1 13:2 14:1 15:-0.175 19:2 20:4 24:1 35:1 
1 1 1:0.2 12:2 13:4 14:1 15:1.425 19:5 20:5 21:3 53:1 
1 1 1:0.3 13:2 14:2 15:0.55 16:1 19:7 20:4 21:1 24:2 
0 1 1:1.025 2:0.28571429 5:1 13:2 15:1.025 17:1 19:2 20:2 24:2 25:1 44:1 
0 1 1:0.525 13:2 15:0.525 17:1 19:2 20:1 24:1 25:1 62:1 
1 1 1:0.025 12:1 13:2 15:0.625 19:3 20:3 21:2 91:1 
1 1 1:-0.5 13:1 14:1 15:-0.375 19:1 20:3 24:1 
1 1 1:-1.475 2:0.11111111 5:1 12:1 14:2 15:-0.75 19:3 20:2 21:1 92:1 
0 1 1:1.125 13:4 15:1.125 19:5 20:3 21:3 24:1 43:1 44:1 62:1 
0 1 1:0.275 13:1 15:0.4 17:3 19:2 20:1 21:1 24:1 25:1 26:1 80:1 
